-0.09431 0.07631 0.59739 1 -1.80000 -1.35000 0.59476 -211.00000
-0.77249 -0.12202 0.61707 1 -6.40000 2.68750 0.48971 211.00000
-7.69994 0.15117 4.05126 1 0.45000 -3.46250 0.52768 -211.00000
-6.39574 -0.16992 6.44189 1 5.15000 5.71250 1.00909 -211.00000
10.68677 -0.04956 3.99537 1 -7.95000 0.20000 0.37282 211.00000
-3.88416 -0.07187 1.85427 1 -2.15000 1.12500 0.46352 211.00000
-2.16978 0.22751 1.98564 1 -2.35000 -6.10000 0.84856 -211.00000
-13.93923 0.00362 29.85691 1 -3.05000 -0.26250 2.13648 211.00000
2.07113 -0.29057 0.99788 1 -6.95000 7.53750 0.44837 211.00000
4.46536 0.08434 5.57956 1 5.55000 -2.02500 1.22348 -211.00000
1.08803 -0.21025 0.61969 1 -4.10000 7.70000 0.42429 -211.00000
-3.08003 -0.11389 1.32551 1 5.20000 2.23750 0.41181 211.00000
-2.09870 -0.15484 0.98856 1 -1.55000 3.51250 0.42944 211.00000
5.34857 0.16958 6.27091 1 0.05000 -5.46250 1.16841 211.00000
4.64019 0.26168 4.70582 1 -7.85000 -7.22500 1.02327 -211.00000
3.29516 -0.07711 1.76328 1 5.25000 1.40000 0.51347 211.00000
5.70930 0.18937 10.81752 1 3.55000 -5.31250 1.89848 -211.00000
11.20410 0.11096 3.85245 1 -4.70000 -4.77500 0.34471 211.00000
3.64619 -0.25925 1.63008 1 6.60000 6.61250 0.44451 211.00000
3.51204 0.06628 2.82468 1 -5.75000 -2.57500 0.77514 211.00000
1.41520 -0.30618 0.43415 1 6.60000 7.08750 0.25822 211.00000
