15.25607 -0.15001 10.99232 0 -22.33578 5.32235 0.71905
0.57515 -0.14820 1.37114 0 -23.24176 4.97366 1.18857
4.84300 -0.04348 5.45378 0 -2.74033 0.92128 1.10291
-0.79923 0.08702 0.92520 0 -5.88798 -1.81659 0.72276
-21.11905 -0.10229 13.60914 0 -25.40530 2.34737 0.64376
-0.30145 0.10019 0.24549 0 29.85476 -0.73760 0.23507
13.99044 -0.09497 7.91241 0 29.99238 2.01662 0.56420
13.14328 -0.11735 6.73372 0 -27.42353 4.63208 0.51095
21.64913 -0.24347 12.94969 0 -29.84666 6.46532 0.59761
4.36583 0.18497 1.71706 0 -8.72542 -6.89653 0.38350
-0.53866 0.11654 0.79383 0 14.21308 -4.16587 0.69890
-9.24570 -0.13774 8.96575 0 -16.08817 3.67074 0.96415
-11.45441 -0.07552 5.27934 0 -21.13385 3.47734 0.45926
-2.36740 -0.06487 0.71453 0 3.18406 3.89862 0.27818
-1.39699 0.09114 0.59692 0 -9.41634 -4.15930 0.34754
3.55405 0.21870 2.26003 0 28.07915 -7.38734 0.61221
-11.86382 0.25166 6.45238 0 23.80354 -6.45014 0.54204
-1.20511 -0.20812 1.07615 0 0.68857 7.12635 0.68725
-1.03080 0.14355 0.59194 0 -19.73516 -5.52158 0.41223
0.97714 0.13183 0.41619 0 6.70106 -5.66873 0.29776
4.78799 -0.23062 1.25658 0 -18.04750 4.90632 0.25703
4.49379 -0.23653 3.62326 0 3.87389 7.88975 0.78713
-2.80334 0.09205 2.10823 0 -4.51728 -1.95219 0.70840
1.47366 -0.02779 0.76147 0 23.57879 2.11624 0.42765
2.83078 0.17739 0.62803 0 6.40338 -2.73912 0.20936
6.69865 0.00227 3.71148 0 -18.59576 -0.92055 0.54808
8.70140 0.16061 1.91352 0 -29.98757 -2.35427 0.21869
-0.31567 -0.11108 0.75509 0 27.62933 4.14103 0.72007
0.38676 0.07039 0.56068 0 11.31133 -3.02085 0.52294
3.49671 -0.11142 5.43803 0 -16.82634 3.07656 1.49529
-1.94961 0.09998 0.70025 0 -29.99980 -1.30771 0.31968
-3.46318 0.28757 2.23019 0 30.00000 -7.62942 0.61874
-12.35036 -0.06859 7.70127 0 -18.65535 2.97077 0.62161
-1.62089 0.06264 0.64560 0 -27.03560 -0.28765 0.33914
1.38143 0.27560 1.48391 0 21.90515 -7.53826 0.87017
-1.40457 -0.00872 0.63369 0 -28.54977 -1.04977 0.36760
1.98926 -0.06132 1.02136 0 -28.44070 0.80422 0.45882
6.73429 0.18396 3.95914 0 -25.33719 -4.52280 0.58161
-23.81218 0.07244 14.31415 0 -21.74098 -1.23698 0.60068
-1.72037 -0.29907 0.68994 0 11.28022 7.42306 0.34684
19.20037 -0.09794 4.33566 0 -29.99939 5.36534 0.22572
-0.05434 -0.07636 0.62339 0 9.53920 1.54655 0.62247
22.91494 0.18453 19.33691 0 27.04208 -6.09740 0.84311
-0.36389 0.23578 0.86729 0 -8.60795 -7.67961 0.81501
-13.20685 0.25984 4.17145 0 -17.77077 -5.96967 0.31511
19.59781 0.18768 11.70843 0 -23.88871 -4.65589 0.59674
-10.83799 -0.27896 3.68558 0 -22.10593 6.80496 0.33877
-1.62607 -0.17574 0.78756 0 -10.19394 6.67187 0.41264
-6.46931 -0.27182 1.36740 0 12.15802 5.61651 0.20911
4.09300 0.13187 9.35941 0 -23.08909 -4.11141 2.22139
3.99929 -0.02083 2.69299 0 23.50625 -0.07632 0.65331
-0.58897 0.10709 0.33479 0 -10.65195 -1.34564 0.28852
3.46734 -0.01757 0.92117 0 25.64756 -1.39855 0.25534
6.99684 -0.21936 3.08215 0 -2.32817 7.94431 0.43618
14.43453 -0.17601 7.29135 0 -28.53382 4.31127 0.50402
0.77874 -0.07174 0.70051 0 9.37621 3.17044 0.55272
-23.29507 -0.02119 10.53442 0 22.38500 -0.41461 0.45191
-17.37183 0.06812 7.79763 0 17.66331 -3.11842 0.44823
-13.58623 0.00287 5.06487 0 -29.97290 -1.38259 0.37192
-0.01807 -0.12109 0.83306 0 -29.57634 3.08968 0.83292
11.71402 -0.10348 8.65539 0 22.50008 3.89473 0.73628
2.79283 0.23466 1.54415 0 22.55615 -5.90983 0.52057
-3.12306 0.14106 1.96104 0 -10.27257 -5.03876 0.59809
-7.64678 0.07265 1.84600 0 -11.16724 0.04095 0.23957
-6.42165 -0.16052 1.81777 0 -14.55913 6.84059 0.27987
-6.90032 -0.19001 3.68189 0 -29.43752 6.81644 0.52816
1.87807 -0.17955 0.57112 0 21.78224 7.52060 0.26854
22.91261 -0.17465 18.38529 0 7.96953 4.65860 0.80171
-3.41353 -0.00521 1.27427 0 -23.81874 1.70636 0.34905
8.30331 -0.14399 3.30842 0 -16.10375 3.08289 0.39571
-8.02214 -0.15144 3.20117 0 -10.93774 5.98011 0.39610
0.22368 -0.17445 0.21256 0 15.38528 7.98972 0.20744
-1.45768 0.19627 0.86704 0 -21.76729 -4.71773 0.49056
-4.04501 0.13266 3.27726 0 19.22199 -4.56972 0.78658
-0.31335 0.29410 0.48120 0 9.75636 -7.50729 0.45920
-5.89362 -0.13842 2.67672 0 28.91197 5.42258 0.44789
-1.51038 -0.01746 0.65372 0 17.48473 2.02721 0.36099
-19.47736 -0.25155 6.96004 0 -10.82571 6.09202 0.35701
-11.38097 -0.23664 6.32779 0 -0.50123 6.19281 0.55395
-0.70427 -0.28464 0.51364 0 20.88057 7.28203 0.41999
0.31018 -0.01897 0.71078 0 -29.67222 1.40472 0.67888
1.93198 -0.23199 1.07507 0 29.83099 5.93880 0.49425
1.19002 -0.14223 0.58921 0 -18.52983 5.75881 0.37913
6.29329 0.04522 2.40337 0 11.07240 -2.64279 0.37729
2.24996 -0.16581 1.84847 0 1.01560 5.77037 0.75084
-2.34068 -0.11203 1.22324 0 -24.47477 2.36582 0.48069
4.78621 -0.22887 3.54180 0 -7.29555 6.19333 0.72440
1.32614 0.17275 0.60483 0 -22.19906 -6.59571 0.36426
5.95468 -0.05894 2.97152 0 -7.60341 2.89882 0.49221
7.25019 -0.18186 2.99704 0 27.62230 4.24427 0.40961
24.87230 -0.10237 9.23710 0 0.80170 1.76393 0.37121
14.86902 0.29643 4.84104 0 -19.11782 -7.07768 0.32499
-0.14571 0.01388 0.50211 0 -26.40605 -1.36649 0.49686
0.25152 -0.04137 0.40423 0 -18.70317 0.01727 0.39203
7.35693 -0.08433 3.53057 0 -26.04871 1.53018 0.47562
-8.57650 -0.08870 4.62176 0 29.97723 3.71489 0.53535
-6.13794 -0.04420 1.34689 0 28.40620 -0.95537 0.21680
1.49152 0.23070 0.64345 0 18.09930 -5.32870 0.35841
3.79793 -0.03906 1.37902 0 -29.51735 -0.20380 0.35116
11.38135 -0.22380 8.58026 0 4.10049 7.53559 0.75106
-1.51735 -0.25673 1.21370 0 23.80480 6.95156 0.66792
-4.71542 0.03271 0.86752 0 29.59325 1.94981 0.18016
-9.94306 -0.11300 5.31091 0 -29.98406 2.49736 0.53154
2.52172 0.16608 0.99589 0 7.30075 -6.37729 0.36727
13.64555 -0.15476 4.50196 0 11.88290 6.36416 0.32919
-1.09754 -0.14048 1.01592 0 -18.51055 5.07094 0.68425
-1.87533 0.19416 1.50330 0 24.44950 -4.98660 0.70742
1.31694 0.06702 0.71527 0 -23.05300 -0.74424 0.43262
4.44731 -0.29106 2.40190 0 -6.15840 7.73719 0.52708
-0.08984 -0.11209 0.73465 0 1.78808 4.17107 0.72049
-0.00756 0.12102 0.80304 0 28.00628 -2.90194 0.80301
9.60203 -0.18926 8.50345 0 17.17272 5.15164 0.88088
-2.29014 0.28419 1.48874 0 -5.01290 -7.49572 0.59578
21.83138 -0.07167 14.15443 0 -23.20179 1.43867 0.64775
0.74918 0.23670 1.12680 0 29.61341 -7.64093 0.90182
-21.70716 0.01967 6.71290 0 8.52822 1.14741 0.30908
5.09912 0.12256 5.44502 0 3.74047 -4.09642 1.04793
-0.13124 0.23261 0.85137 0 28.33756 -6.24784 0.84418
-6.61715 -0.11200 8.00188 0 -23.26487 3.00696 1.19573
0.36982 -0.25234 0.44748 0 14.07711 6.34076 0.41971
-2.17049 0.29129 0.63084 0 29.92338 -6.54387 0.26416
-3.57878 -0.11311 0.87994 0 9.19692 1.30086 0.23705
-1.19419 -0.19255 1.21830 0 29.25800 6.55429 0.78221
1.41378 -0.07709 0.56837 0 -26.95510 0.83146 0.32830
2.55992 0.16195 1.48403 0 -11.93962 -3.80220 0.54003
18.50831 0.16984 10.74900 0 6.87840 -4.10276 0.58000
-6.27091 -0.27808 7.48150 0 11.09864 7.94250 1.17820
-2.17633 -0.18246 1.58735 0 -20.41716 6.37356 0.66279
14.59805 -0.23291 3.92521 0 -29.78605 5.05957 0.26844
0.79371 -0.13969 1.11464 0 -29.79557 3.67245 0.87308
1.28751 -0.12307 0.97937 0 -19.02434 2.90864 0.60081
1.51703 -0.26456 0.69909 0 -24.77474 6.57985 0.38486
4.81722 -0.16253 1.71855 0 29.98481 6.50723 0.34943
9.20423 -0.07850 4.03923 0 20.66103 1.25966 0.43639
4.33235 -0.17039 2.82648 0 21.09745 6.04064 0.63577
0.34527 0.17367 0.25327 0 -7.08424 -7.43145 0.23943
-4.35333 -0.00425 1.80032 0 14.68493 1.47943 0.40314
2.47332 -0.07969 1.81177 0 18.05056 3.23541 0.67918
15.58278 0.16544 10.63711 0 21.58309 -4.10671 0.68129
2.45081 -0.19970 0.43979 0 -29.23320 2.90994 0.16629
12.61483 -0.22398 2.49259 0 10.76178 4.55790 0.23874
-1.54020 -0.09183 1.13239 0 8.27188 3.68044 0.61672
0.04726 -0.17227 0.67916 0 22.43462 6.04408 0.67841
-1.01321 0.17763 0.66369 0 -19.72487 -6.41339 0.46626
-4.38768 -0.25127 3.15592 0 -11.20256 6.83004 0.70146
-2.40557 0.17267 1.94745 0 10.07968 -5.81950 0.74760
-0.17329 0.10017 0.54982 0 -22.80789 -1.97110 0.54175
0.56276 -0.25056 0.33170 0 4.32391 5.71120 0.28911
15.23323 0.20492 5.02413 0 -18.52111 -7.75940 0.32925
1.40398 -0.01602 2.33383 0 26.56573 0.93970 1.35398
-9.90693 -0.02743 2.13396 0 29.36859 -1.48593 0.21454
-18.78451 0.15142 16.57292 0 29.45552 -3.86433 0.88108
-0.65151 -0.11114 0.75418 0 -16.49396 4.24496 0.63192
-10.62780 0.12182 3.91359 0 -13.25046 -2.16152 0.36675
-0.25083 0.23709 0.60459 0 -22.35901 -6.09773 0.58643
7.73276 -0.21039 3.20061 0 -28.08937 7.74804 0.41060
0.48637 0.18379 0.34395 0 29.07110 -3.72523 0.30933
24.51054 0.07173 21.43556 0 18.96306 -1.48270 0.87387
6.98752 -0.03071 3.57905 0 8.78645 -0.00576 0.50713
-1.22126 -0.01014 1.00487 0 14.61941 -0.41770 0.63666
-2.99513 0.18480 1.97581 0 0.47282 -4.61172 0.62578
-0.92319 0.20263 0.45772 0 -29.73353 -4.41230 0.33636
7.10141 0.15614 2.91371 0 24.91642 -5.92709 0.40641
-5.73763 0.23630 1.04065 0 13.43387 -4.01667 0.17888
4.86282 0.28231 0.93644 0 17.41151 -5.47875 0.18884
-0.89091 0.18433 1.77889 0 28.74393 -5.85528 1.32825
-5.44449 0.28885 2.36546 0 13.72766 -7.26475 0.42738
-15.48932 0.00145 14.88168 0 16.37599 -0.49561 0.95883
-0.56731 -0.03477 0.46050 0 -17.95028 2.40888 0.40056
7.67458 -0.20001 5.97165 0 -28.79892 5.38501 0.77165
5.10979 -0.09010 1.13600 0 14.94808 0.43327 0.21832
-18.72204 -0.01421 13.72708 0 -13.16750 1.20655 0.73223
0.02260 0.17010 1.25886 0 26.90600 -4.59962 1.25854
1.07929 0.29371 0.24896 0 -29.22679 -5.47571 0.16932
-0.51935 -0.07270 0.35422 0 19.47908 0.63165 0.31438
-0.92411 -0.02472 0.94225 0 -28.30711 1.56361 0.69205
-2.59986 0.17348 1.82860 0 27.53344 -5.94540 0.65648
2.27501 0.01261 0.62315 0 -22.57904 1.74699 0.25085
2.37200 0.15798 1.64374 0 -27.75137 -5.49664 0.63859
3.90061 0.23201 9.66819 0 -9.52552 -7.11003 2.40101
1.87072 0.16972 2.61869 0 29.36471 -4.58027 1.23454
1.05572 0.06871 0.64945 0 28.78230 -3.14032 0.44666
10.07934 -0.18618 5.08122 0 16.19523 4.60696 0.50176
0.16203 -0.08964 0.56569 0 -6.29949 3.70282 0.55841
4.54902 -0.07639 1.52711 0 -15.99784 0.80930 0.32802
7.27787 -0.01924 2.40100 0 29.58689 -0.90677 0.32698
-11.00025 0.15768 5.92715 0 -21.38484 -5.64837 0.53670
-12.71850 -0.15658 5.00495 0 27.43212 3.44358 0.39243
0.18479 -0.18478 0.85800 0 -24.45198 4.99198 0.84372
0.96324 -0.07216 0.47715 0 -13.58251 0.75436 0.34373
-17.79341 -0.11549 10.42379 0 23.09547 4.44410 0.58499
-0.26550 -0.11052 0.45931 0 29.02256 4.58130 0.44394
0.27758 -0.19255 0.34514 0 29.76130 7.51924 0.33258
8.27720 0.00394 6.32195 0 -20.42543 -0.71134 0.75833
3.23938 -0.13566 2.21125 0 22.02170 4.96277 0.65236
-6.03184 -0.11774 2.50720 0 22.88208 2.35134 0.41016
0.41322 0.04550 0.27259 0 -4.85954 -3.34100 0.25195
0.37057 0.03533 1.02846 0 -29.88211 -0.44826 0.96438
2.57500 -0.03197 0.71158 0 29.33723 -0.94664 0.25768
-7.00540 0.00844 2.45407 0 -29.99866 -1.65014 0.34693
14.46409 0.01361 3.75622 0 -18.08604 1.10279 0.35791
-0.21681 -0.27993 0.20481 0 -21.87127 5.73335 0.20017
-16.25881 0.22750 9.56863 0 29.14665 -7.69611 0.58749
-5.66497 -0.20209 2.21858 0 -21.55307 4.75943 0.38582
5.65751 -0.31597 2.01971 0 -29.74656 7.93192 0.35175
-0.86095 0.19972 1.02502 0 -28.66383 -5.21852 0.77682
-1.33439 0.20070 1.21315 0 24.99268 -6.69279 0.72755
-2.42311 0.02154 1.57003 0 3.64693 0.28848 0.59905
-4.97768 -0.28552 1.35529 0 -17.32017 6.56372 0.26708
-7.96683 0.33280 1.84696 0 -17.68279 -7.41669 0.23023
-13.81994 -0.03662 6.28634 0 11.22818 2.31311 0.45380
13.29226 0.00832 13.42612 0 -29.59443 -0.67626 1.00727
1.04554 0.16914 1.10051 0 -29.96566 -4.29683 0.76070
10.04241 -0.07814 2.06816 0 -20.09862 0.04056 0.21498
0.66502 0.18112 0.59591 0 -29.05861 -4.28345 0.49623
6.55468 -0.12395 4.37475 0 -26.88237 3.01188 0.65986
1.53113 0.11003 1.05535 0 29.84858 -2.32305 0.57715
-18.58526 0.01326 11.07292 0 -27.18299 0.54268 0.59501
-6.10392 -0.20308 5.15364 0 -8.71779 5.52697 0.83327
-15.96612 -0.13531 10.86326 0 26.49280 3.37203 0.67914
-7.98000 0.16205 3.34822 0 -9.07719 -3.51890 0.41644
-13.94883 0.23981 11.15306 0 -3.52164 -6.42306 0.79758
3.51213 -0.10909 0.97140 0 -27.16200 5.34516 0.26616
1.41368 -0.15938 0.66018 0 29.68294 6.27794 0.38136
21.04298 -0.09728 6.52542 0 -29.99140 4.69614 0.30991
-16.50769 -0.10750 13.73453 0 -27.87881 3.93548 0.83055
11.75428 -0.12403 6.71077 0 18.32822 4.72904 0.56895
1.51997 -0.23753 0.85369 0 28.54451 6.04339 0.46929
0.15069 0.00311 0.76134 0 27.98273 0.66712 0.75284
-22.68045 0.16944 16.03838 0 21.89199 -4.25294 0.70653
0.89807 0.05228 0.92898 0 -14.93217 -0.74601 0.69121
-16.03068 0.06164 14.68173 0 14.29340 -2.33186 0.91413
11.86917 0.08058 4.34382 0 -29.85860 -0.92886 0.36482
4.83356 -0.01717 2.92759 0 -29.42649 1.45993 0.59317
4.64030 -0.16379 3.00319 0 22.58508 4.16132 0.63276
2.63257 -0.03235 1.26440 0 13.47125 2.19626 0.44907
-0.30644 -0.01001 1.00090 0 -3.64187 -0.15274 0.95698
-0.69349 -0.30211 0.32852 0 -26.93587 7.06013 0.27002
-0.44277 0.12413 0.46914 0 -29.72915 -4.87617 0.42898
2.31356 -0.03445 1.16684 0 -25.73180 0.01035 0.46315
-0.56669 0.00038 0.39140 0 10.61658 -1.43501 0.34056
-0.81249 -0.09628 0.60976 0 -28.06994 4.07388 0.47330
2.00567 -0.02972 0.94802 0 12.91442 2.18750 0.42310
3.78470 -0.01350 1.33429 0 7.99842 -1.01515 0.34095
-1.36455 0.05577 0.44125 0 11.06462 0.37007 0.26097
-0.18140 -0.21426 0.72539 0 29.75393 7.28354 0.71374
2.17888 0.19676 0.70462 0 29.74131 -4.01648 0.29399
-4.91746 0.14028 4.96554 0 26.36244 -3.59780 0.98957
-0.86806 -0.01395 0.51056 0 -16.81569 -0.82714 0.38563
2.24874 -0.00650 0.61611 0 -2.60835 2.32881 0.25044
-22.00051 0.35359 4.59048 0 -3.37552 -7.75136 0.20867
-0.58244 0.07991 0.58019 0 -23.98947 -3.35230 0.50138
4.44817 -0.23149 3.38206 0 -6.27805 6.28847 0.74189
1.26575 -0.09129 0.56872 0 -24.05931 1.36175 0.35265
0.77260 0.01837 1.22519 0 -9.72360 0.05737 0.96955
-8.16532 0.00550 6.64405 0 10.32462 -0.71702 0.80772
-3.00139 0.29441 1.07025 0 -20.22817 -7.08649 0.33840
0.18330 -0.22187 0.56343 0 -10.42479 7.74379 0.55420
-20.98372 -0.06612 4.84892 0 -26.48834 -0.15261 0.23103
1.06145 0.00411 0.63614 0 -0.70175 -1.21596 0.43627
1.71326 0.05584 0.97210 0 -29.98183 -0.54879 0.49010
6.98877 -0.13155 3.74753 0 -28.89329 3.04722 0.53091
-3.05473 0.00342 1.17589 0 4.15272 -1.42183 0.36591
-1.71240 -0.01248 0.89210 0 29.45795 -0.68115 0.44998
-24.40938 -0.12679 17.67042 0 -29.50012 3.16528 0.72338
12.97945 -0.15531 3.03890 0 -24.33554 2.51222 0.23365
-9.17918 0.17106 5.02889 0 -7.64583 -4.08026 0.54472
-1.08807 -0.14609 0.97390 0 26.41450 5.27106 0.65905
1.51980 -0.09280 0.41270 0 27.96795 0.60320 0.22700
0.63412 -0.04700 1.01178 0 18.52394 2.09284 0.85448
2.05994 0.08564 2.21003 0 -29.35092 -3.02510 0.96518
-0.98433 -0.15914 0.39640 0 13.66614 6.77833 0.28258
-0.57269 -0.14724 1.12239 0 9.98682 5.04345 0.97400
-3.28747 0.20502 1.24178 0 -3.14864 -4.59186 0.36171
1.39331 0.12232 0.56260 0 29.87848 -5.20655 0.32813
-2.38811 0.21685 2.22197 0 -29.59713 -7.06832 0.85827
-2.15593 -0.28520 1.06802 0 26.76554 7.38470 0.44946
-0.02142 -0.14068 0.62349 0 -29.46443 3.46318 0.62335
-0.35880 0.16032 0.81450 0 18.40298 -4.04030 0.76666
-1.53325 0.02220 1.37180 0 -29.79674 -1.26828 0.74945
17.90976 0.00890 12.30338 0 -11.22515 0.55965 0.68597
-0.37338 0.12713 1.09268 0 -25.42125 -4.24633 1.02366
-1.88868 0.19558 1.61354 0 28.84038 -5.07594 0.75507
4.34980 -0.17725 1.22040 0 28.54407 7.40926 0.27361
17.49711 -0.17377 11.62465 0 -25.39183 6.10794 0.66337
-0.20727 -0.25619 0.22215 0 16.41743 5.26885 0.21753
4.39382 0.31333 1.11427 0 -8.72144 -7.03166 0.24738
15.35115 -0.27525 3.65747 0 18.12869 6.02343 0.23795
1.16389 -0.06348 0.45304 0 -10.18822 3.74578 0.29533
15.13799 -0.20796 9.69427 0 -17.28737 5.47674 0.63908
3.71991 -0.19499 1.05977 0 -24.43957 7.95375 0.27518
-2.13233 0.20291 0.98855 0 29.52074 -4.73200 0.41986
3.24798 -0.07326 2.65872 0 -19.34890 2.94002 0.78238
6.97399 -0.12839 8.00372 0 -6.80420 3.47364 1.13608
0.44282 0.20142 1.20019 0 28.85922 -5.47001 1.09742
-0.16431 0.13513 1.07237 0 19.79427 -4.47135 1.05818
-2.29908 -0.11813 1.74278 0 24.44169 2.87843 0.69521
-2.91936 -0.17924 1.18598 0 -4.04533 6.87855 0.38443
-2.66472 -0.28432 1.29819 0 29.79509 7.37709 0.45618
-6.26306 -0.04231 3.37264 0 -14.86388 2.31778 0.53185
5.17966 0.19585 2.22755 0 5.71680 -7.09819 0.42236
-12.01682 -0.09821 7.64528 0 -22.00476 2.21351 0.63410
0.06424 -0.14470 0.47259 0 26.77510 3.31448 0.47162
9.13682 -0.20098 3.38437 0 -26.51517 4.66219 0.36834
-0.10874 -0.20920 0.49176 0 21.97308 7.49044 0.48888
-2.36870 -0.05327 2.21913 0 13.13788 2.27555 0.86315
0.09246 0.03251 0.57055 0 -17.63398 0.00616 0.56813
-0.41639 0.05691 1.05322 0 -29.99659 -2.15547 0.97231
0.21918 0.15730 0.31550 0 -0.48292 -2.94170 0.30819
-1.22358 -0.03449 0.93191 0 -29.98507 0.24886 0.58980
1.00269 0.02341 0.29722 0 16.60098 1.82184 0.21000
4.63072 0.22589 2.38605 0 -27.88257 -5.61782 0.50377
-3.69115 -0.00289 1.15659 0 -6.11410 1.86365 0.30251
-0.79395 -0.25500 0.32001 0 26.53785 5.55722 0.25074
-1.21164 0.10733 0.98251 0 -24.06799 -3.97550 0.62545
-17.19533 0.17833 21.41011 0 0.21451 -4.83974 1.24305
4.28335 -0.26181 1.61739 0 19.95735 6.43470 0.36785
1.68689 0.06671 0.93236 0 25.56839 -0.84165 0.47552
-1.16094 -0.02151 0.76020 0 29.39738 -0.30522 0.49564
3.25993 -0.06954 1.92742 0 -27.81517 1.25975 0.56532
0.80295 -0.06133 0.49365 0 -6.94855 3.26641 0.38496
20.02293 0.16260 9.78660 0 -15.08849 -5.89965 0.48826
0.87374 -0.06235 0.68086 0 9.13013 2.95965 0.51276
-16.09057 0.17250 17.24747 0 5.83242 -4.59716 1.06988
2.52761 0.02387 0.48410 0 26.79769 -3.54478 0.17828
7.34398 0.09872 2.53498 0 14.79285 -4.40757 0.34384
2.00143 0.24350 1.52994 0 24.64869 -6.41852 0.68389
-4.14897 0.03825 0.97464 0 -22.55621 -3.33334 0.22855
4.38134 -0.04678 1.61842 0 22.38347 0.06419 0.36027
-10.49501 -0.19543 4.71860 0 -28.78677 4.75254 0.44769
-2.54329 0.23617 1.47553 0 29.68603 -5.99143 0.54006
-5.73082 -0.02632 1.23826 0 19.26467 3.13059 0.22860
17.77610 0.19202 7.40455 0 -18.69409 -7.00022 0.41600
-4.13152 0.02038 1.36583 0 -24.33782 1.06191 0.32146
-17.00271 0.06993 7.86914 0 -4.46164 -0.90668 0.46212
0.45982 0.23728 0.96371 0 12.89529 -6.40902 0.87559
-15.39097 -0.06234 10.93309 0 17.59548 1.22814 0.70893
1.33524 -0.20149 1.02494 0 -25.94661 7.01985 0.61446
-0.56621 0.09987 0.30753 0 5.14324 -4.88669 0.26765
-0.25050 -0.12877 0.57299 0 -0.00903 4.89547 0.55582
3.11627 -0.16738 1.20578 0 1.54163 4.05094 0.50134
1.42861 -0.25153 0.47536 0 -16.53909 5.86471 0.31018
1.79131 0.26192 1.70416 0 -7.43748 -7.09008 0.81386
-7.08759 -0.27669 3.12405 0 -18.06337 7.10050 0.43656
-2.05197 -0.24495 2.33059 0 2.33074 6.88778 1.02103
3.86688 0.03668 1.55200 0 23.03437 0.29655 0.38874
-24.59288 0.09362 9.29549 0 -7.42228 -4.08463 0.38555
13.56112 -0.05112 9.69560 0 28.44763 2.33652 0.71309
-4.17345 0.03626 1.27251 0 -16.00479 0.71891 0.29658
7.28167 -0.15521 5.13201 0 29.66870 3.98438 0.69830
-3.24845 -0.02594 1.67886 0 -20.60105 1.89769 0.49427
0.58270 0.03142 0.39549 0 -16.77259 -2.36786 0.34175
7.85020 0.06113 3.15384 0 0.15279 -3.05110 0.39865
12.86786 -0.00247 7.64971 0 25.97842 1.01839 0.59278
2.95059 0.07363 2.70702 0 -14.38501 -1.53614 0.86895
-2.44292 0.16275 2.49524 0 15.50662 -5.36727 0.94534
-24.97959 0.21237 15.12595 0 22.82198 -5.39741 0.60513
-1.54040 0.10720 0.83669 0 24.16940 -2.00108 0.45565
0.73893 -0.07138 0.88890 0 19.57516 2.94604 0.71494
23.45600 -0.17091 15.78385 0 11.36007 6.01003 0.67237
8.44835 0.26158 2.91356 0 10.20178 -6.15752 0.34262
2.13667 -0.21594 1.11166 0 -23.57471 5.41499 0.47135
6.79457 0.14767 3.26129 0 8.44485 -3.24772 0.47497
-1.49685 -0.19431 1.45480 0 29.99130 6.58526 0.80819
2.99440 -0.24939 2.15940 0 -28.56855 6.75479 0.68409
-9.10118 0.10694 3.11153 0 18.55313 -4.67703 0.33998
-14.21529 -0.10860 5.41558 0 6.56629 1.98133 0.38016
-10.68617 -0.21817 6.43913 0 11.09243 5.72370 0.60003
3.18949 -0.13293 1.40861 0 4.53857 5.32985 0.42150
5.96672 0.11246 5.35591 0 -25.63938 -3.88378 0.88537
8.20013 -0.01252 3.41823 0 24.22935 1.69542 0.41390
7.23437 0.09903 2.68045 0 -8.81517 -1.48682 0.36716
-1.90725 -0.23368 1.37222 0 29.68149 6.23341 0.63724
-1.58954 -0.11948 1.34243 0 -26.95148 4.40051 0.71488
-8.44591 -0.03932 2.58950 0 -28.68225 2.95545 0.30463
-10.52115 0.13485 2.15923 0 -7.26736 -1.43638 0.20454
-4.17042 0.20178 1.55777 0 0.33734 -7.49847 0.36343
-0.40494 0.18009 1.16028 0 9.18006 -5.82305 1.07546
15.15544 0.02706 8.30840 0 -18.82557 0.20400 0.54711
-20.85821 -0.00769 9.05660 0 19.52516 -0.86765 0.43381
3.84798 0.17503 0.86088 0 20.39586 -2.75380 0.21671
-1.48644 0.21143 1.28978 0 13.89985 -5.51091 0.71997
-6.44576 -0.15373 2.86068 0 -26.29850 3.49887 0.43867
14.76443 -0.04532 4.01227 0 29.73270 -0.44562 0.27131
4.59454 0.15396 5.09689 0 -8.26583 -4.05145 1.08405
-6.59979 -0.03116 5.30721 0 0.34981 0.37278 0.79513
-0.49871 -0.05627 0.23870 0 -26.83663 -0.62812 0.21365
14.42279 -0.10327 8.95098 0 -26.35980 4.02353 0.61921
-1.48011 -0.08974 1.14492 0 29.73380 3.58506 0.64101
0.42923 0.06086 0.44249 0 18.15384 -0.48486 0.40664
0.21345 0.16149 0.27028 0 -19.34207 -6.82598 0.26433
-3.21114 0.31161 1.18651 0 2.74559 -7.64948 0.35294
0.35638 -0.06389 0.74410 0 0.92861 1.26597 0.70092
13.83176 -0.00589 4.74172 0 24.16689 1.75704 0.34206
-7.02925 -0.09172 6.25886 0 23.00846 2.24771 0.88158
22.20418 0.09339 6.24523 0 -10.70441 -0.89250 0.28115
5.62062 0.17901 1.96319 0 28.97698 -6.88001 0.34396
-1.34302 0.20386 0.55613 0 -7.50300 -7.71076 0.33221
-1.02633 -0.28230 0.54019 0 -12.97566 7.06539 0.37706
-1.35369 -0.20626 0.80837 0 -26.80537 7.42065 0.48038
20.46620 -0.20119 14.81165 0 -24.64027 6.87507 0.72292
5.36444 -0.11795 1.65584 0 -25.47484 1.91759 0.30350
8.58355 -0.05456 4.38674 0 -10.45261 2.73426 0.50772
10.15610 -0.01746 6.56026 0 14.21062 -0.19018 0.64291
12.98732 0.22627 3.20432 0 28.58159 -4.52797 0.24620
3.47728 0.06759 1.86568 0 -29.99891 -0.95199 0.51573
14.72234 -0.14420 9.66050 0 28.31674 5.21907 0.65475
0.27237 0.06290 0.71725 0 -10.18973 -2.55163 0.69204
-7.61023 0.05073 1.85452 0 11.57517 -3.58897 0.24181
-11.59517 0.15318 3.03107 0 -8.56725 -6.59658 0.26063
18.37489 0.25479 8.84263 0 -27.01620 -6.41363 0.48062
0.70638 -0.03364 0.34029 0 2.05513 -0.75047 0.27801
-2.46317 0.08885 0.95111 0 -29.99955 -4.04473 0.35802
-1.81467 -0.18593 0.84815 0 -16.92500 6.99653 0.40943
-26.70749 0.11076 15.80502 0 3.96339 -4.12822 0.59145
-0.61061 -0.25252 0.46673 0 22.20802 6.27713 0.39837
-6.13769 -0.03801 2.84271 0 22.97590 2.34663 0.45723
-12.49957 -0.22182 6.20475 0 -18.31319 5.64161 0.49491
5.49942 0.02887 3.76564 0 -23.02158 -0.02598 0.67376
6.66519 -0.26228 4.52600 0 23.55924 7.11940 0.67161
4.16429 -0.21121 0.98887 0 -26.81691 4.11590 0.23107
0.40060 0.12741 0.27078 0 28.59321 -5.87137 0.25139
-21.55190 0.15036 10.64822 0 26.00163 -5.51292 0.49364
-7.16045 -0.07481 4.58340 0 18.28707 1.51525 0.63402
-3.74688 -0.14073 4.26989 0 6.53924 3.82720 1.10115
0.59579 0.07997 0.39661 0 -21.49282 -0.81184 0.34076
2.95168 -0.04729 1.20936 0 1.73805 2.82932 0.38818
16.63994 -0.20418 33.53031 0 23.06678 6.47782 2.01144
1.52538 -0.02621 1.20190 0 -25.07893 1.64566 0.65900
-1.47631 -0.10491 1.42239 0 -5.25614 2.57986 0.79774
-11.07245 0.15427 5.98509 0 26.92097 -5.54099 0.53844
12.66548 -0.07884 10.01256 0 -28.67553 3.10347 0.78815
-3.95094 0.16621 1.87644 0 -21.35989 -6.07758 0.46050
-0.82969 -0.02446 0.86217 0 27.44255 0.04436 0.66355
6.15404 0.13394 3.95329 0 -15.97084 -4.77146 0.63415
-0.73229 -0.14605 0.50265 0 23.05722 5.79717 0.40115
-5.79496 0.01085 1.00196 0 -27.29050 -3.27948 0.17053
-1.02662 0.20866 0.83097 0 -27.87029 -5.24951 0.57986
0.55349 -0.04458 0.36368 0 10.08116 3.04214 0.31823
22.06718 0.16877 9.73810 0 -29.05484 -6.20926 0.44095
-12.04723 0.23215 9.59229 0 -20.61429 -6.19297 0.79356
-5.39951 0.17277 3.32885 0 27.72632 -4.22848 0.60627
1.51454 0.05598 0.36739 0 -29.25244 -4.17620 0.20257
10.48986 -0.17566 6.07560 0 -29.66043 6.28964 0.57666
-1.93472 -0.13028 1.05616 0 29.34875 5.08191 0.48505
-17.22673 -0.14729 10.54462 0 13.74623 3.64254 0.61116
-15.59352 -0.00191 7.75450 0 -26.60286 1.16970 0.49637
25.48641 -0.08103 20.95950 0 -17.18410 1.88579 0.82181
-1.80528 -0.12362 1.46447 0 17.42097 3.05690 0.70969
6.40791 0.08726 4.57274 0 18.92321 -3.27318 0.70514
8.40452 -0.11612 5.15383 0 27.88547 4.42760 0.60901
-0.73644 0.06902 0.43612 0 -21.89803 -3.46868 0.35122
-1.82241 0.12668 0.64020 0 23.27796 -2.03829 0.30805
4.12073 -0.14619 2.13873 0 -12.49412 3.43030 0.50448
1.59736 -0.25105 1.23951 0 17.90026 6.77168 0.65778
-2.64348 -0.15947 1.40365 0 19.50209 3.80733 0.49675
0.99648 -0.14943 0.41798 0 29.20904 6.38630 0.29616
1.42180 0.06900 1.06492 0 -29.93010 -2.83277 0.61270
1.83277 -0.15489 1.61069 0 -28.24115 5.41951 0.77150
-2.09826 -0.11208 1.52016 0 13.50502 4.24529 0.65408
9.38931 -0.17332 2.33248 0 24.51894 7.50790 0.24722
-17.11430 -0.29399 9.91958 0 -28.12512 7.91737 0.57871
0.73914 -0.13812 0.59992 0 18.27540 5.32708 0.48247
-0.21210 -0.17072 0.31642 0 24.97323 6.96629 0.30954
-7.68868 -0.08375 2.70912 0 2.32906 1.12441 0.34955
2.93009 0.23112 0.71922 0 -11.70577 -4.54127 0.23240
26.57094 0.33343 7.30359 0 -3.40131 -7.82521 0.27485
26.77739 -0.13962 21.02230 0 -29.98290 3.60303 0.78459
-20.93438 -0.05998 10.23673 0 12.61700 0.83183 0.48853
-5.58234 -0.13424 3.94190 0 29.73213 4.86934 0.69517
-0.23083 0.15601 0.50201 0 12.53552 -5.69582 0.48915
-0.87657 -0.19527 0.76390 0 -26.46249 6.89265 0.57449
0.17293 -0.24615 1.18580 0 -25.74433 6.99142 1.16846
-2.90457 0.03173 0.82932 0 -5.23508 -2.78088 0.27016
-6.03263 -0.15691 2.67936 0 -29.75430 6.01535 0.43827
1.22975 -0.19282 0.85476 0 -29.49602 6.88068 0.53932
1.28230 -0.08791 0.40795 0 29.99328 4.81362 0.25101
0.27652 -0.18352 0.44765 0 26.50238 4.35787 0.43147
-7.78568 0.15205 4.43005 0 -6.24407 -3.55091 0.56445
20.82298 0.03041 9.55175 0 24.49058 -1.95208 0.45829
-0.13479 0.05913 0.40272 0 29.62087 -2.98888 0.39911
2.36977 -0.21949 1.92727 0 -24.88086 7.40606 0.74935
20.91238 0.02135 7.91241 0 -29.31408 -1.91767 0.37806
-3.24582 0.22901 3.05623 0 3.93691 -6.18108 0.89989
0.25249 -0.02602 0.68299 0 24.03940 0.08961 0.66221
-18.86960 0.09716 9.60417 0 -13.17612 -1.81938 0.50836
-0.87080 0.00001 0.65691 0 6.88228 -0.95182 0.49544
-3.24876 0.18419 2.25245 0 -14.80123 -4.64076 0.66269
0.39273 0.03109 0.60234 0 26.38572 -1.76711 0.56067
-0.00067 0.14958 0.26905 0 -0.52577 -2.47127 0.26905
