-3.20071 -0.07061 1.51008 0 29.87416 1.06078 0.45047
0.91284 -0.13446 2.17239 0 26.16970 4.44339 1.60445
6.43555 -0.13794 2.68401 0 -11.50631 5.51201 0.41223
-7.97314 -0.28608 2.95204 0 18.55917 7.13704 0.36750
1.35501 -0.01475 0.37709 0 11.99375 2.82418 0.22408
8.92961 0.04001 4.81831 0 -14.44594 -0.16505 0.53633
0.21698 0.17941 0.55297 0 6.94048 -4.31929 0.54040
14.03109 -0.26419 3.94188 0 -18.63116 6.04703 0.28040
15.91506 -0.10201 3.73203 0 -27.46288 5.40410 0.23424
-5.88884 -0.24104 8.70277 0 -10.01764 6.93270 1.45704
-12.82217 0.22040 8.89781 0 -17.83677 -5.74568 0.69191
-4.69808 0.09898 4.54508 0 -0.97358 -3.43839 0.94626
-8.88645 0.14559 3.14131 0 13.82134 -5.81312 0.35142
-2.65349 0.09655 0.68816 0 -10.16647 -4.99087 0.24278
-2.58020 0.01403 1.36922 0 -27.94577 0.69378 0.49493
-0.84303 -0.00160 0.69382 0 13.93042 -0.83514 0.53050
-0.91582 -0.19653 0.80504 0 -18.38511 5.07558 0.59372
0.19651 -0.28410 0.67673 0 9.21842 7.75175 0.66403
21.23002 -0.04819 17.53477 0 -26.42080 2.15018 0.82509
0.54026 -0.09247 0.33970 0 -16.17865 1.13589 0.29890
0.96358 -0.00134 0.59036 0 -25.26893 1.32562 0.42518
1.33557 -0.25407 0.52699 0 -21.75461 5.96986 0.31594
4.09698 0.03607 3.39271 0 -29.94854 -1.64223 0.80017
-21.78897 0.01868 6.75541 0 9.89335 -2.24271 0.29163
-19.40094 0.25446 1.91569 0 2.96147 -4.94150 0.20766
3.06288 -0.03174 3.74734 0 -16.82322 1.47417 1.16311
-4.23537 0.14181 3.34115 0 28.50815 -3.53170 0.81661
4.06111 0.02635 1.79815 0 -29.73365 -1.90330 0.43005
2.92913 -0.02417 5.44374 0 2.05555 0.51546 1.75884
-1.12117 0.16427 0.42395 0 29.74826 -2.99255 0.28229
2.49506 -0.05643 2.14723 0 2.28096 1.13259 0.79886
1.06402 -0.23727 0.39672 0 6.79502 5.20986 0.27178
-15.70744 -0.12286 9.49761 0 -0.98049 4.64016 0.60352
-1.16285 -0.27640 0.66952 0 29.86046 7.09231 0.43658
-0.40283 0.29906 0.51619 0 -2.56955 -7.70120 0.47882
-6.72961 0.13911 1.98200 0 -2.86562 -5.93355 0.29148
-0.32075 -0.14253 0.33714 0 -8.62202 2.73633 0.32104
-4.36086 -0.16884 1.91745 0 29.93028 6.40955 0.42867
0.47264 0.12297 0.34434 0 21.87850 -1.94616 0.31135
-2.78790 -0.25126 1.60457 0 -28.40013 6.60053 0.54182
10.88132 0.32384 3.00139 0 29.14666 -7.55261 0.27485
4.23716 0.01421 1.81200 0 -2.18758 0.88371 0.41637
20.53386 0.22180 8.99929 0 26.50840 -5.33800 0.43786
9.85256 -0.05283 2.17750 0 -24.30637 -0.66086 0.22010
12.55389 0.13438 4.81560 0 -27.90409 -2.59101 0.38251
0.71045 -0.19439 0.64801 0 22.43430 4.90177 0.52830
0.59924 -0.11387 0.43272 0 22.42316 4.91934 0.37121
-1.30123 0.24852 0.41628 0 -28.20058 -5.23433 0.25384
-0.33261 0.07536 0.52296 0 23.21266 -1.14482 0.49624
0.83934 -0.05595 0.98855 0 -29.95259 2.44010 0.75722
20.66188 0.12959 31.30355 0 -21.19086 -3.46125 1.51330
-14.68486 0.20142 16.71214 0 23.91229 -6.44226 1.13547
1.98551 -0.11400 1.19750 0 -29.20398 2.53985 0.53872
1.48137 0.04332 2.06365 0 14.55291 -1.66288 1.15465
0.16372 0.10111 0.23225 0 24.09521 -0.70911 0.22921
7.98382 0.22372 3.03093 0 -29.26072 -5.19730 0.37682
0.59954 0.18549 2.26856 0 13.92203 -5.20798 1.94567
8.57234 0.02648 4.42373 0 -13.20074 -1.71420 0.51266
0.05338 0.21984 0.60715 0 13.98743 -7.43127 0.60629
9.50386 -0.20723 7.90457 0 -28.38652 6.96238 0.82721
2.04616 0.16703 0.48109 0 -5.03800 -7.53970 0.21135
-0.69916 0.06430 1.42035 0 -13.29479 -1.40661 1.16407
0.26499 0.22519 0.60386 0 -28.60834 -7.63146 0.58372
0.56555 0.01289 0.51454 0 28.93280 0.83654 0.44790
-4.68220 0.22243 1.61061 0 28.07147 -4.99101 0.33651
-19.60855 -0.11486 13.82888 0 6.37932 4.27168 0.70440
2.66489 -0.34199 0.49437 0 3.96400 7.06474 0.17382
1.69413 0.11715 0.61367 0 -24.56728 -5.13235 0.31205
0.17251 0.03847 1.06477 0 -25.31905 -0.58498 1.04927
-0.27678 -0.30633 0.38580 0 26.92104 7.73971 0.37183
4.44879 0.08933 2.16677 0 -18.88482 -3.69529 0.47539
-4.19616 0.20553 1.45229 0 -19.63508 -7.73891 0.33688
-11.95481 0.01769 3.09691 0 29.57685 -2.44225 0.25834
-13.60994 -0.20529 7.15792 0 -12.44237 7.29192 0.52461
-3.83666 0.14670 1.44694 0 -27.63170 -3.02282 0.40256
-24.71699 0.05647 10.42875 0 -27.54227 -2.74280 0.45706
-11.75678 -0.20069 3.33761 0 11.61426 7.59869 0.37019
-4.72544 0.14668 3.77836 0 21.25760 -3.64863 0.78231
5.88712 -0.15281 2.20242 0 -4.93013 3.24828 0.36890
-0.84934 0.13507 0.50437 0 27.91511 -2.61833 0.38447
-2.28301 -0.07215 5.08480 0 28.20584 1.99364 2.04014
-2.95320 0.02227 5.67567 0 3.35210 -0.30587 1.82041
-1.81677 0.01645 1.85458 0 26.84925 -0.98470 0.89433
-0.23671 0.19362 0.88876 0 11.64245 -5.10740 0.86486
15.06741 -0.18326 12.57701 0 -10.79287 4.93867 0.83294
4.95973 -0.18367 2.82053 0 13.66577 6.56683 0.55763
-22.10928 -0.06719 4.34207 0 -25.55166 0.32847 0.28971
-25.17254 0.24903 7.80321 0 -29.90937 -5.74238 0.33183
-25.65459 0.15959 8.41540 0 29.34881 -6.02093 0.41009
0.24793 0.21835 0.78347 0 -26.71920 -7.19779 0.76045
25.91334 -0.07379 15.79804 0 -19.60730 1.45196 0.60928
15.34189 -0.06254 4.21599 0 22.93622 3.85329 0.27440
0.21245 -0.02339 0.42660 0 29.93916 -0.44278 0.41730
0.06085 0.21615 0.52415 0 29.92012 -5.37076 0.52319
-26.89649 0.01949 13.41061 0 -2.95761 -1.53241 0.49835
-1.19772 0.14958 1.21658 0 -20.35768 -5.08870 0.77975
-3.73358 -0.27406 2.25268 0 -29.88618 7.34078 0.58295
-6.87411 -0.24549 4.42128 0 19.40213 6.58026 0.63655
15.64180 0.06089 6.00300 0 -25.06111 -0.40854 0.38312
9.69500 -0.04258 5.45884 0 -25.81711 0.44508 0.56017
0.95209 0.16769 0.44849 0 27.89855 -6.62438 0.32489
-6.46366 -0.13543 4.44871 0 28.88668 3.37686 0.68024
4.25466 -0.07503 2.37002 0 23.55588 1.38533 0.54236
4.40693 0.08583 2.10607 0 -17.88431 -1.39059 0.46619
15.69909 -0.20738 12.45366 0 29.55774 6.99696 0.79173
-9.49120 0.16908 4.43018 0 19.35320 -6.15580 0.46430
-4.85821 0.21343 1.21410 0 -24.06393 -4.14641 0.24506
-0.29738 0.18917 0.43833 0 -10.36318 -4.37990 0.43801
0.85753 0.12907 0.78107 0 14.67294 -2.91288 0.59295
-3.20202 -0.16337 1.45358 0 15.34126 3.76924 0.43340
-2.53956 -0.21710 2.63994 0 28.91377 7.16499 0.96730
3.19321 0.19590 1.67892 0 19.89116 -4.73102 0.50181
-6.72096 -0.06216 1.75857 0 -28.92797 3.95633 0.25899
-4.95502 -0.07022 2.42470 0 6.83417 1.11843 0.47974
0.10885 -0.27942 0.91591 0 21.87688 7.84196 0.91053
0.38873 0.26739 1.26175 0 28.74276 -7.46196 1.17603
11.07693 -0.28037 4.98677 0 -22.81363 7.24120 0.44848
4.95057 0.11591 2.67118 0 29.96910 -2.41660 0.52895
-10.00928 0.02741 4.66908 0 -16.90357 0.36051 0.46427
-20.47197 -0.17120 18.84025 0 -27.07844 5.80201 0.91925
0.93856 0.14997 0.48396 0 -29.55947 -2.96227 0.35872
1.08880 -0.07261 0.68448 0 -27.62011 1.15151 0.46306
13.64844 0.09302 6.12137 0 -29.99727 -1.55868 0.44741
3.00442 0.00474 0.98361 0 15.92455 -1.71065 0.31094
-3.28852 -0.04518 0.92492 0 -28.93549 2.82739 0.37103
-17.00222 0.06790 12.46677 0 10.40715 -1.25446 0.73205
0.00678 -0.26013 0.60771 0 -29.08823 6.97014 0.60770
25.79078 -0.19111 6.81059 0 -29.42871 3.81317 0.26406
0.96727 -0.02497 1.39651 0 -6.18763 0.32091 1.00380
2.08284 0.05207 0.89558 0 -26.13146 -0.16054 0.38773
0.90205 0.05169 0.69034 0 29.37436 -2.47498 0.51265
-10.06034 -0.01494 2.88596 0 29.88113 2.32926 0.28563
-21.13804 0.18368 10.04725 0 -22.17628 -4.31126 0.47489
15.48408 0.26429 10.54883 0 2.75138 -7.02629 0.67992
1.47393 0.18608 1.26107 0 -29.69651 -6.26830 0.70806
-10.14807 -0.14117 7.84625 0 2.03206 3.63607 0.76951
26.28833 -0.19003 10.35210 0 -24.65843 7.17781 0.39363
-5.98615 0.15148 1.46521 0 -10.09024 -2.31017 0.24163
-16.08574 0.09209 19.34646 0 23.05912 -2.25125 1.20043
7.22516 0.02762 1.55944 0 29.99199 -3.16441 0.21402
18.17713 -0.24578 21.43240 0 -13.55704 7.93230 1.17735
0.66525 -0.06530 0.73934 0 -12.02879 2.87945 0.61559
0.17304 -0.22517 0.22114 0 -29.94611 4.38252 0.21791
2.85753 0.09336 2.10596 0 17.52872 -3.46790 0.69572
0.81167 0.03333 0.96525 0 17.55177 -0.23618 0.74948
-3.03764 -0.21545 3.89869 0 26.21253 6.99649 1.21915
21.88978 0.11951 12.87106 0 -27.64676 -2.62054 0.58746
1.34023 0.07717 0.50970 0 -12.44319 -3.94566 0.30489
1.24505 0.25720 0.77572 0 26.45125 -6.49611 0.48582
-2.97156 -0.13856 0.63434 0 -22.76777 6.91937 0.20246
-25.05611 -0.14759 24.07141 0 -29.37856 3.96166 0.95999
26.71087 0.22052 16.55516 0 -18.14877 -7.43236 0.61944
25.62198 0.11757 7.53102 0 -7.36229 -1.68854 0.29387
1.25461 0.28254 1.10913 0 -20.27629 -7.57657 0.69136
-17.47787 0.29457 9.81791 0 -29.46091 -7.74112 0.56090
-18.18679 0.08725 26.94053 0 -21.35058 -2.18725 1.47913
0.95956 -0.11996 0.75532 0 5.92676 4.64637 0.54505
2.21131 0.18733 0.53381 0 -15.78025 -3.14822 0.22008
2.82875 0.21897 1.34163 0 26.72114 -7.73703 0.44730
-2.03058 -0.24776 1.43018 0 -26.93002 6.64086 0.63191
-4.27877 -0.25461 1.57628 0 -6.29717 6.18850 0.35879
-0.19461 0.01835 0.51074 0 -18.07311 0.55073 0.50134
-11.86156 0.13541 6.40261 0 -28.98581 -4.96690 0.53796
1.32444 -0.12431 0.64941 0 27.86079 5.16419 0.39139
-4.61422 -0.28369 2.80674 0 28.72779 7.64149 0.59453
2.66804 -0.10709 1.44320 0 -29.60266 4.32894 0.50664
2.86622 0.27476 4.37743 0 4.71413 -7.76880 1.44207
-20.18341 0.23280 9.02279 0 -8.76641 -5.68425 0.44660
2.90143 -0.17321 0.96606 0 -9.82316 3.60759 0.31492
0.00629 -0.12364 0.22262 0 -12.52902 6.20006 0.22262
-0.42137 -0.10267 0.23948 0 28.01226 0.83177 0.22072
14.37820 0.00204 5.66092 0 -21.52277 1.36587 0.38052
6.04781 0.14311 6.35171 0 -24.54828 -4.72298 1.03622
-5.15861 -0.14160 1.64186 0 -25.55717 6.04552 0.31268
-1.92884 -0.29874 0.61576 0 21.94326 7.06026 0.28354
-0.54422 0.16896 0.90593 0 -12.14920 -5.66298 0.79574
-0.38468 -0.07653 0.23492 0 -2.54141 4.77219 0.21928
-0.74721 -0.06333 0.59741 0 -0.24996 3.06181 0.47860
0.02780 -0.21737 0.21206 0 24.97076 4.09070 0.21198
1.91475 0.09063 1.15356 0 14.21710 -1.67337 0.53410
0.99524 -0.04421 1.46936 0 4.49150 0.91604 1.04150
0.52086 0.04540 0.99129 0 19.53711 -1.86521 0.87919
6.39162 0.19968 6.49452 0 -6.93254 -5.37281 1.00393
-1.19949 0.24945 0.95047 0 25.66566 -6.49521 0.60868
7.00223 0.12839 2.20741 0 -11.19183 -5.47768 0.31223
-23.89331 -0.19537 23.18414 0 10.73398 6.50414 0.96952
-8.44994 0.26736 3.24838 0 -21.63776 -6.48757 0.38189
-23.17592 -0.03986 12.99597 0 16.27188 2.19456 0.56032
-15.56354 0.30323 6.37058 0 3.12178 -7.62227 0.40860
-0.02041 -0.27835 0.27920 0 18.13443 6.44556 0.27915
-4.07729 0.00828 1.21359 0 27.89597 -1.94287 0.28920
-6.19696 -0.11051 1.25744 0 16.25388 6.06255 0.20056
-19.91490 -0.06571 18.83593 0 -24.30634 1.50906 0.94469
0.32080 0.07274 0.78293 0 29.99934 -1.41179 0.74551
0.78780 0.24008 0.60425 0 -4.24603 -5.96866 0.47468
-9.88182 0.09630 5.04406 0 27.59833 -1.79297 0.50794
1.85642 0.02124 1.07974 0 -8.97547 -1.55723 0.51212
2.98564 0.05713 0.76207 0 -4.38283 0.48186 0.24217
1.55074 0.14336 1.43143 0 27.75610 -4.90366 0.77581
1.06004 -0.08225 0.43938 0 18.03752 4.28260 0.30160
1.79919 0.00320 0.87547 0 17.49660 -1.21848 0.42540
3.36081 0.29332 1.58627 0 -29.99772 -7.46676 0.45255
-24.34693 0.22863 21.88544 0 -25.05357 -7.39765 0.89820
-4.98994 -0.21400 0.90148 0 -25.75455 3.53766 0.17872
2.80421 0.03896 1.26142 0 -9.08068 0.11966 0.42378
-17.41823 -0.01617 4.25812 0 -29.34487 -1.53274 0.24426
-0.02384 0.29086 0.55896 0 -28.90643 -7.62893 0.55880
-9.16530 0.09512 3.86383 0 28.08764 -1.54398 0.41920
1.89000 0.05884 0.88589 0 28.48590 -2.93216 0.41439
-3.56495 -0.02832 1.60074 0 10.42384 2.11858 0.43248
-3.38160 -0.01017 1.16708 0 23.03727 1.93610 0.33109
2.93056 0.03569 2.34491 0 -9.04666 -0.31385 0.75731
1.24810 0.00715 0.55006 0 20.07188 -1.62390 0.34403
4.06801 -0.06312 2.17529 0 -3.15495 2.97015 0.51937
1.48630 -0.04686 0.47562 0 -29.48964 3.43738 0.26564
-0.76916 -0.11736 0.95872 0 23.39493 4.29269 0.75996
-11.19179 -0.19140 2.87551 0 -13.17513 3.76047 0.25610
17.66275 0.05201 4.03223 0 -11.41527 -3.75937 0.22814
-0.35157 0.02122 0.44691 0 -28.78487 -1.77270 0.42162
-2.80523 -0.07926 1.32836 0 13.15836 3.62449 0.44612
-2.82480 -0.09026 0.91200 0 -3.61980 4.51157 0.30444
-13.69451 0.10885 10.94922 0 -4.44492 -3.84014 0.79747
-0.65784 0.09457 0.78681 0 -27.77111 -1.97118 0.65736
-24.35727 0.23176 32.66562 0 2.19188 -7.28673 1.34002
3.72282 -0.10747 1.13793 0 29.56615 5.09465 0.29531
11.56988 -0.06343 5.31694 0 -18.94924 0.86511 0.45795
-10.43527 -0.17173 2.44551 0 26.44238 7.59364 0.23349
1.24031 0.17680 0.43430 0 -24.84428 -3.29514 0.27270
9.93887 -0.11365 10.59445 0 12.29826 3.98402 1.06065
11.31060 0.04813 18.30054 0 -9.56301 -1.68127 1.61174
-0.12751 -0.15830 1.73392 0 22.55706 4.52277 1.72000
-0.48991 0.09472 2.18282 0 23.93916 -3.02520 1.96023
-2.83477 0.10378 2.33133 0 -3.22918 -3.70517 0.77562
-3.36103 0.22088 2.48290 0 17.63406 -5.77775 0.70815
-0.24523 -0.22857 1.48206 0 28.04284 7.32384 1.43941
-1.85168 -0.14558 1.44728 0 29.97615 3.68681 0.68778
1.59788 -0.10992 0.96524 0 17.61570 4.40381 0.51212
16.37688 -0.04497 11.25386 0 -27.96426 2.17986 0.68597
4.42173 0.10443 1.38301 0 -27.82094 -4.77963 0.30522
1.28433 -0.00612 0.68194 0 -24.09360 -0.95646 0.41900
0.74939 -0.17289 1.69629 0 -11.46703 4.87532 1.35515
-0.13348 0.22317 0.70003 0 -6.83839 -5.82980 0.69388
-6.83961 0.00170 3.72280 0 -9.55083 0.98002 0.53866
0.97037 -0.15865 0.64016 0 1.07891 6.01106 0.45946
3.13126 -0.03653 0.73645 0 19.49296 -1.10839 0.22415
1.16046 0.10963 0.79234 0 28.67319 -2.20795 0.51730
1.73862 0.12283 0.41507 0 14.72238 -6.19898 0.20712
-5.33638 -0.07189 4.41761 0 -6.83900 1.60663 0.81372
-1.72375 -0.15274 1.34919 0 -10.57914 3.88738 0.67708
-3.91823 0.19387 2.88624 0 -2.43957 -4.98475 0.71378
1.57895 0.08271 0.68363 0 -19.18830 -0.99626 0.36586
-0.34393 -0.06474 0.82791 0 29.98665 1.36802 0.78291
-0.00156 0.07574 0.89171 0 -27.76687 -1.61436 0.89171
-5.74678 0.02910 3.60363 0 24.27016 -1.62209 0.61783
-0.81254 0.21645 1.16811 0 4.15085 -5.81323 0.90659
-15.54569 0.19345 4.33676 0 26.88263 -4.12667 0.33269
-17.14273 -0.07035 16.61110 0 -29.14977 1.66061 0.96739
0.30904 0.07503 0.52943 0 9.86134 -1.15446 0.50584
10.80248 -0.16887 5.36502 0 -15.80873 4.08072 0.49463
2.18976 -0.07512 2.52920 0 21.92778 1.84544 1.05068
19.33414 0.02035 18.16310 0 19.92375 -1.07485 0.93823
-6.77266 -0.00713 1.70302 0 -10.78257 2.36020 0.24895
1.70304 -0.20084 0.62091 0 -23.21960 7.82326 0.32390
-3.34470 -0.07946 1.07437 0 4.03776 0.79855 0.30786
-10.49604 0.05554 12.70944 0 -27.14135 -2.01166 1.20546
0.19266 0.05171 0.76949 0 -1.38682 -0.79205 0.75560
-14.47222 0.06392 3.43705 0 23.94907 0.32373 0.23713
-5.91851 0.01165 1.48432 0 28.97772 1.80420 0.24746
12.03609 0.23031 6.74504 0 -6.22795 -7.83230 0.55856
18.05895 -0.04849 6.37790 0 25.29366 3.00024 0.35277
1.11920 0.18671 1.24814 0 28.35515 -4.87768 0.83165
1.43028 -0.19519 1.08919 0 10.26863 6.81349 0.62416
2.69468 -0.00081 1.71203 0 -29.38072 -0.75318 0.59576
-6.83211 0.02737 4.54338 0 0.97086 -1.51896 0.65807
-7.63126 0.09225 6.78265 0 -13.48017 -2.10067 0.88132
0.66837 0.12648 0.52976 0 28.75097 -2.53447 0.44048
0.23502 -0.03219 0.85883 0 28.86550 1.66025 0.83606
2.63283 0.12353 0.63030 0 -29.71579 -1.31972 0.22395
6.36175 -0.05583 5.26361 0 23.58416 1.12897 0.81741
23.24589 -0.20019 19.44328 0 24.04163 5.44324 0.83570
-26.50888 0.15657 18.78996 0 -28.59352 -5.37028 0.70838
-0.86256 -0.01246 0.62925 0 -12.33472 -0.61816 0.47653
-0.65409 0.15986 1.44829 0 -28.94889 -4.27840 1.21205
-3.90421 -0.14889 2.21904 0 -17.22817 3.59660 0.55068
-3.83378 0.14281 1.18325 0 12.03507 -2.46223 0.29872
-1.95385 0.12404 4.04998 0 23.29878 -3.92395 1.84520
-6.05653 0.20795 3.46609 0 27.95107 -5.20407 0.56473
15.02880 0.04543 23.43629 0 -6.73675 -1.61159 1.55602
2.32960 0.01906 2.02458 0 -0.48443 -1.13175 0.79862
-15.76024 -0.01194 3.32424 0 -15.39896 -1.99778 0.21073
0.60527 0.08793 0.63508 0 -24.41019 -3.51469 0.54333
0.24494 0.08513 0.36138 0 28.83730 -3.97660 0.34737
-19.74953 0.17524 8.58055 0 -5.55968 -3.95863 0.43403
-23.85397 0.08018 14.38308 0 29.96922 -1.47066 0.60252
5.08059 -0.02948 1.83724 0 13.49273 -0.47558 0.35494
-3.51346 -0.28780 0.70623 0 -14.82723 5.85791 0.19305
8.61906 -0.16193 3.08304 0 26.23835 3.43580 0.34874
3.50620 -0.03568 0.92241 0 29.99154 3.02113 0.27622
0.20440 0.00290 0.56116 0 29.88869 -0.93637 0.54979
-1.03594 0.04700 1.44722 0 -29.75520 -1.83996 1.00514
0.23094 -0.15992 1.81708 0 -24.56731 5.17952 1.77048
-12.26663 0.06853 5.05241 0 11.41807 -0.72594 0.41064
-11.14918 0.09259 5.28907 0 19.22031 -3.80080 0.47260
2.94773 -0.15071 1.57485 0 29.54725 5.65926 0.50602
-0.67635 0.08903 0.83484 0 29.49932 -3.34129 0.69154
0.66770 -0.15582 0.42268 0 -29.98650 6.29030 0.35156
0.33580 0.04307 0.64153 0 -26.18504 -2.05645 0.60816
0.70295 0.09148 0.36731 0 8.72396 -4.40939 0.30054
-14.54899 0.06643 5.27383 0 -28.12991 -3.34624 0.36177
0.99125 -0.06746 0.41606 0 -13.00824 0.37140 0.29556
-1.53619 0.12251 1.09116 0 29.97355 -4.47905 0.59534
-11.89839 0.07210 4.17421 0 5.26422 -0.61576 0.34973
0.96301 0.13298 0.78225 0 29.83430 -4.84796 0.56350
6.92603 -0.05769 7.04473 0 -28.54390 2.32338 1.00675
-3.63580 -0.07930 2.17458 0 -4.33852 3.35981 0.57677
6.07278 -0.28241 2.73415 0 8.40017 7.28935 0.44435
-2.48132 0.18634 0.99122 0 -16.78049 -6.98969 0.37061
-11.90598 -0.22279 14.05909 0 -23.73641 6.30085 1.17674
-0.22232 -0.05919 0.68663 0 -27.84468 1.09219 0.67027
0.79716 -0.03041 0.80754 0 -28.94765 0.18362 0.63149
0.25844 0.05147 0.43922 0 -18.49214 -0.25909 0.42525
1.61656 -0.14305 0.70036 0 -24.57412 2.95887 0.36853
-0.93658 0.21784 1.38913 0 26.03282 -5.91734 1.01393
-0.04101 -0.19662 1.11521 0 24.99144 6.46844 1.11427
-0.14238 0.03744 0.52908 0 -29.99791 -2.02331 0.52380
-1.44517 -0.20934 0.59753 0 -14.55843 4.78816 0.34008
-1.65672 0.18312 0.68135 0 -21.97354 -3.91073 0.35221
-5.20955 0.20089 4.35362 0 17.86170 -6.61216 0.82080
-15.34111 -0.12325 7.55952 0 -20.81442 2.73698 0.49830
0.15188 -0.27262 0.31372 0 17.49488 6.47421 0.31017
17.18438 -0.09306 41.30767 0 21.63700 3.08907 2.39975
-13.39759 -0.23832 8.24600 0 24.36134 6.33767 0.61386
-4.04118 -0.18558 2.31581 0 -29.18926 6.62747 0.55638
-2.18604 -0.14289 0.97786 0 22.90719 3.08627 0.40687
1.11847 0.08133 1.25688 0 21.92705 -2.97726 0.83777
3.27007 0.18578 1.18830 0 29.21777 -3.96940 0.34765
6.39613 -0.16967 1.57593 0 -7.08944 7.42700 0.24363
-3.42545 0.03467 2.03615 0 28.57704 -1.85896 0.57066
-2.44398 0.19682 0.88604 0 -13.07839 -4.23984 0.33581
-0.22946 0.01583 0.66286 0 8.58364 0.39769 0.64607
1.75133 -0.15352 3.16058 0 -22.14302 5.02577 1.56722
-5.27974 0.04189 1.53914 0 -25.90610 -2.97932 0.28655
-0.26729 -0.09081 0.74221 0 -23.62069 3.52608 0.72183
-13.99406 0.17961 9.17023 0 -1.25924 -4.49426 0.65370
-12.99016 -0.16096 6.80154 0 -16.95794 3.90239 0.52214
-3.42352 -0.21109 1.59245 0 22.86304 7.65844 0.44659
5.64408 -0.25283 2.84601 0 -27.96778 6.55493 0.49659
0.87602 0.31905 0.39994 0 -2.30620 -7.59053 0.30088
9.35235 0.00570 11.82471 0 -22.60365 0.31685 1.25723
-0.59856 -0.16361 0.35156 0 -15.75449 6.79237 0.30169
-0.72001 0.15327 0.34084 0 -7.72214 -6.47514 0.27666
-0.46276 0.21734 0.97138 0 22.38391 -5.82276 0.88157
1.25778 0.15629 1.08108 0 -16.99556 -5.40205 0.67283
3.88925 0.11364 3.21644 0 25.92081 -3.98186 0.80102
0.76047 -0.00958 0.95184 0 2.65158 1.04406 0.75767
-6.10438 0.07964 5.90815 0 -29.79008 -1.76921 0.95517
1.53409 -0.20286 1.88887 0 -14.93571 5.64419 1.03152
2.93657 0.09710 1.67060 0 7.63054 -1.87421 0.53859
0.91713 0.10134 0.84711 0 7.30419 -2.13168 0.62434
0.06054 -0.03566 0.33246 0 18.11075 2.70410 0.33186
-0.25645 -0.26975 0.53429 0 6.51762 7.09497 0.51755
-2.46517 0.05143 1.70122 0 -25.22160 -0.66097 0.63959
-1.60567 -0.07699 1.47410 0 20.01788 3.05531 0.77933
2.17364 -0.08049 2.00475 0 13.68242 3.11432 0.83792
5.04559 0.26757 1.66160 0 26.24373 -6.23606 0.32319
-9.38989 -0.00246 4.31961 0 21.45278 -0.96351 0.45755
5.45612 -0.19603 2.25485 0 -29.94538 7.31772 0.40659
25.23719 0.11458 5.81203 0 -26.56333 -1.26928 0.24702
1.67197 0.11242 1.66392 0 -29.56091 -2.68395 0.85414
-6.21469 0.20448 1.44950 0 0.34413 -3.75256 0.23048
1.64581 -0.05858 0.83767 0 -13.48772 3.02701 0.43503
1.17954 0.22433 0.93642 0 26.27551 -5.75083 0.60560
-1.02966 -0.14672 0.81679 0 4.42559 5.41949 0.56910
-8.15591 -0.14000 3.53635 0 -19.00388 5.51966 0.43048
-4.15534 0.03545 3.62196 0 10.90673 -1.58775 0.84749
6.74260 -0.09450 4.58005 0 25.97565 2.14855 0.67199
3.09832 0.03816 1.48170 0 29.95419 -2.19362 0.45522
-3.36544 -0.17485 1.16880 0 -27.28191 3.74534 0.33302
-1.23557 -0.14378 0.40788 0 -6.98465 6.49854 0.25669
-2.77835 -0.27312 2.68180 0 4.06453 7.65427 0.90827
-0.30909 0.07456 0.43963 0 28.58273 -3.39212 0.42003
0.33385 0.17941 0.30438 0 -29.72786 -3.47725 0.28874
0.17343 0.11311 0.69829 0 -17.83574 -4.07401 0.68802
6.00375 -0.23599 8.53588 0 0.90299 7.55866 1.40248
17.89105 -0.08816 13.74880 0 -26.69603 2.05451 0.76734
10.28362 -0.19246 3.09045 0 19.16043 7.70688 0.29927
3.83662 -0.07477 1.56258 0 25.92669 1.02261 0.39418
-6.49537 0.03183 2.80767 0 29.43459 -2.07663 0.42733
-18.18885 -0.08338 6.02382 0 6.19684 4.16183 0.33083
1.16293 -0.18649 1.08917 0 -25.96547 6.44109 0.71018
-2.38107 -0.19628 1.01469 0 -15.20169 7.37340 0.39301
-14.64967 -0.18087 8.42862 0 -9.21789 4.58213 0.57410
0.56121 -0.17114 1.26309 0 -20.91180 4.73323 1.10150
5.06215 -0.12109 3.67305 0 5.27832 4.45260 0.71196
1.26295 -0.11460 0.44775 0 16.80457 5.47625 0.27138
1.91087 0.01276 1.45080 0 -17.83315 0.43671 0.69259
0.59442 0.11051 0.99733 0 -28.38056 -3.84427 0.85732
2.01613 0.23751 0.81086 0 -7.47118 -5.53553 0.36044
-17.34301 -0.05278 8.60005 0 6.03573 2.70632 0.49516
-17.66112 -0.06602 5.66902 0 12.93565 3.68264 0.32063
-4.71174 0.00922 3.07484 0 -11.37029 -0.99698 0.63842
0.27049 0.23611 0.79561 0 -9.48048 -6.28734 0.76801
-5.25004 0.17230 3.08661 0 -20.33346 -4.17179 0.57762
0.47861 -0.22602 0.91652 0 29.88832 6.20174 0.82672
0.56434 0.15019 0.49370 0 -25.88843 -3.20804 0.42999
4.52501 0.24086 1.29179 0 3.65046 -5.20107 0.27889
-6.73932 0.19357 3.90881 0 16.06224 -6.67928 0.57380
3.81362 -0.18907 1.14372 0 29.44146 3.93136 0.29023
7.37835 0.07491 2.34480 0 19.22753 -0.53853 0.31507
-0.17429 0.03303 0.95513 0 22.35432 -1.45474 0.94095
0.71437 -0.03385 0.58392 0 11.03317 0.02042 0.47516
-9.34495 -0.00857 6.35049 0 29.15421 1.09561 0.67578
1.52958 0.15812 0.47977 0 -6.21814 -2.67537 0.26265
-1.59037 -0.19648 1.33298 0 27.32612 6.74610 0.70960
8.06478 -0.01206 3.14394 0 -29.94383 1.76807 0.38700
19.88128 -0.01694 7.19705 0 -24.74966 2.00884 0.36168
8.02930 0.17296 1.96987 0 26.78555 -7.36778 0.24365
-0.69599 0.15079 0.51732 0 0.10534 -5.70512 0.42464
5.24916 -0.30814 2.27285 0 21.67471 7.98107 0.42544
6.62181 -0.05148 3.84297 0 -13.84749 2.52349 0.57393
0.54333 0.14740 0.60888 0 20.55917 -5.33789 0.53504
-4.28246 -0.00247 2.56439 0 20.07520 -0.72161 0.58321
10.38542 -0.01392 4.75981 0 -20.17407 -0.62195 0.45631
11.85485 -0.06113 2.72406 0 22.74881 4.19150 0.22918
6.17317 -0.18131 4.10782 0 11.30914 6.34580 0.65694
-0.11206 0.00141 0.42963 0 -1.69373 -1.16033 0.42696
3.58998 0.25651 1.69859 0 27.71393 -6.40261 0.45589
-3.60879 0.13295 3.66567 0 -28.30245 -4.44603 0.97896
3.46247 -0.24875 1.40601 0 2.74060 6.13897 0.39024
-8.92105 0.25599 3.10467 0 -10.28714 -6.04055 0.35278
-1.23153 -0.13911 0.99434 0 -29.97767 5.10098 0.62683
7.40987 0.22044 3.27846 0 17.55101 -7.80778 0.43858
-4.44384 -0.12715 5.10127 0 24.09717 3.42983 1.12000
-2.64819 0.19167 1.22201 0 12.52262 -6.93999 0.43183
-21.64642 0.28719 12.27667 0 -29.52478 -7.53528 0.56663
2.63942 0.08659 0.58509 0 4.87640 -0.04311 0.20743
-6.57762 -0.10299 4.35842 0 -7.58436 2.38189 0.65516
-0.87241 0.16919 0.66286 0 6.67826 -3.93806 0.49953
0.77484 0.15728 0.60497 0 -26.93348 -3.53950 0.47825
-16.07484 -0.02121 10.01504 0 -19.31118 -0.10466 0.62190
4.32933 -0.02176 1.27406 0 -10.81931 -1.05015 0.28695
8.02976 0.17541 1.88024 0 19.86679 -7.55708 0.23257
-3.43332 -0.23237 2.04305 0 -14.99481 6.09735 0.57158
-0.71637 0.06677 0.34294 0 26.05906 -3.78948 0.27885
-1.47965 0.00617 1.05197 0 -28.63416 0.76427 0.58911
9.97005 -0.07199 3.81885 0 29.80636 3.60375 0.38125
-5.68668 -0.07956 3.88818 0 -19.37327 1.70447 0.67349
7.33652 -0.18426 1.91596 0 -1.84821 7.74725 0.25895
-4.41310 0.06303 1.47709 0 -29.95954 -3.39932 0.32652
-0.54427 -0.06482 0.31894 0 8.19793 3.88339 0.28017
0.12767 -0.17829 0.52323 0 -27.08540 4.40872 0.51902
12.61637 0.15278 12.52157 0 -0.93572 -5.04004 0.98943
-14.17666 -0.00289 3.33926 0 -12.68995 -2.01620 0.23517
2.19295 0.26357 2.42022 0 7.97473 -7.26798 1.00427
24.41565 0.08185 4.90189 0 8.84853 0.17919 0.20084
5.59753 0.18186 7.63294 0 -9.91056 -5.77645 1.34243
-5.19771 -0.06457 2.50245 0 5.07963 0.93425 0.47287
27.01604 0.14063 20.43787 0 -2.46400 -3.44547 0.75606
3.95533 0.14204 1.69954 0 16.21925 -5.46111 0.41669
-3.85332 -0.13405 1.65375 0 26.61040 5.38275 0.41551
21.68412 -0.22292 7.73826 0 29.85426 5.25677 0.35662
-0.11964 -0.12731 0.75681 0 29.14783 4.60180 0.75146
1.40354 0.05755 0.43456 0 -20.60647 -3.70676 0.25231
-6.55265 0.04134 2.50620 0 -13.98443 -2.52160 0.37822
27.03660 -0.16813 14.21218 0 -5.89427 6.15199 0.52540
25.76233 -0.14679 11.89944 0 1.19746 5.64261 0.46165
0.45354 -0.15302 0.87741 0 -24.12621 5.33874 0.79907
23.31788 0.20545 14.26399 0 7.38913 -5.20201 0.61124
5.36481 -0.12502 1.38993 0 -8.25277 5.93084 0.25473
2.69846 -0.11477 1.09797 0 -11.37899 2.16938 0.38158
4.55726 0.07920 2.30246 0 28.94651 -1.25372 0.49356
-21.86010 -0.27012 15.04267 0 -5.70304 7.36938 0.68749
-3.06590 -0.15381 0.93853 0 29.32113 2.90372 0.29117
4.45630 -0.31331 1.69256 0 29.78660 7.93685 0.37079
0.99542 0.05036 0.66057 0 -19.72166 -0.33639 0.46823
-0.59800 -0.11568 0.82645 0 22.85958 2.82034 0.70932
12.24755 -0.17503 8.40724 0 13.63531 4.55689 0.68424
-4.82766 -0.10555 1.31012 0 -7.08186 5.23823 0.26586
-0.94174 0.09907 0.65443 0 3.24677 -3.98881 0.47647
2.26510 -0.09894 3.09066 0 -28.81893 3.46611 1.24835
2.47223 0.18681 0.99055 0 -19.69142 -7.00077 0.37152
1.05613 -0.05821 0.88656 0 6.81282 2.67386 0.60959
-9.98020 -0.00109 2.23479 0 10.08550 -2.04526 0.23793
9.00559 0.16564 17.05740 0 -10.75193 -4.60610 1.88255
0.06892 0.12604 1.02112 0 15.29537 -4.21605 1.01871
0.23015 -0.27833 0.43727 0 26.20954 7.11760 0.42614
-1.07819 0.08017 1.06058 0 -24.70092 -3.04238 0.72127
22.53680 -0.14135 8.86365 0 -5.30172 5.68082 0.39303
26.47544 0.19317 6.60492 0 21.14231 -3.59592 0.24949
10.58964 -0.16398 4.97659 0 -4.26863 3.87624 0.46797
-4.99077 -0.22874 4.68143 0 29.65394 6.34850 0.91984
22.78887 -0.18952 16.63153 0 12.89133 5.03405 0.72917
-1.03116 0.00440 0.60668 0 21.62826 1.16095 0.42241
-1.98621 -0.10472 0.99241 0 19.14340 2.06651 0.44638
0.13222 -0.18095 0.43127 0 2.19151 4.27098 0.42755
19.55149 -0.19564 14.04204 0 -24.45299 5.20313 0.71734
8.60982 0.13400 1.98579 0 -24.48664 -1.68194 0.22931
-8.71821 0.07484 2.94463 0 5.86999 -0.63632 0.33570
-2.68375 -0.02273 1.42536 0 -28.40253 -0.26403 0.49777
-27.25208 0.00242 18.51660 0 3.12651 0.76184 0.67907
-3.77068 0.01545 1.53443 0 11.74979 -1.68580 0.39348
-0.13471 0.06880 0.36756 0 -5.76062 -3.40832 0.36427
1.76632 -0.07491 0.57766 0 27.10965 4.16226 0.28469
2.82694 0.17746 1.93789 0 26.87986 -4.42134 0.64633
1.99524 0.25424 0.67537 0 -29.90307 -5.72038 0.29971
4.71696 -0.10651 3.80082 0 26.57993 3.93952 0.78829
7.45646 -0.11526 3.28289 0 -29.70365 2.35343 0.43648
-1.32879 0.19444 0.95919 0 -23.37891 -6.70091 0.57683
-0.68061 -0.04310 0.91034 0 29.62348 2.05697 0.75259
-2.20326 0.03638 1.44670 0 -23.21893 -1.86914 0.59795
16.86500 0.15573 6.19266 0 -19.28935 -6.06048 0.36668
4.68661 0.05545 0.77421 0 -7.63576 1.59167 0.16171
19.56675 0.16201 10.92427 0 -10.87728 -5.74268 0.55767
-3.70487 -0.21276 1.43348 0 -28.58394 5.09355 0.39191
0.94197 0.15896 0.56342 0 -8.01308 -6.00134 0.41017
-1.80015 0.09290 0.68184 0 -18.77192 -4.28842 0.33122
0.02769 0.22879 1.22164 0 -9.16879 -6.33338 1.22117
-1.53304 -0.09686 1.17061 0 25.64882 3.80220 0.63960
-17.09967 -0.16422 14.97969 0 3.06345 4.40333 0.87459
-0.00206 0.10177 0.43400 0 24.15325 -4.17946 0.43400
-3.55027 -0.21647 1.06415 0 -3.64063 4.72008 0.28862
-6.94556 -0.24288 4.40688 0 -16.33836 6.49203 0.62809
5.15773 -0.00390 1.03763 0 -27.74292 -1.62417 0.28139
-0.72263 0.20699 0.85294 0 1.96126 -5.34875 0.69136
0.83159 0.24074 2.57906 0 -26.74604 -6.86169 1.98300
-1.48796 0.11342 0.93228 0 -10.42586 -4.33174 0.52010
-1.61421 -0.06362 1.77056 0 0.51459 2.54271 0.93246
-2.49483 -0.22667 3.11688 0 22.77676 7.35989 1.15968
-0.98558 -0.05111 0.83652 0 20.28008 0.75524 0.59583
13.55853 -0.14046 10.42335 0 -28.91039 4.98609 0.76675
5.10990 0.14033 3.66591 0 -29.73679 -3.38574 0.70408
3.32604 -0.28354 1.00622 0 -24.23441 6.66667 0.28995
-1.31426 -0.27455 1.35119 0 -16.04295 7.62898 0.81822
14.37479 -0.00716 9.17245 0 25.99920 1.09983 0.63663
-1.96873 -0.18265 0.82790 0 -13.95100 4.14984 0.37502
-1.27927 0.23090 1.38331 0 -24.37478 -6.20305 0.85196
-0.00298 -0.09746 0.21557 0 19.27191 5.46407 0.21556
4.30241 -0.07659 1.09705 0 1.29068 0.31569 0.24847
1.48265 -0.10802 2.22335 0 15.92778 3.74140 1.24326
0.58101 -0.06728 0.74593 0 29.98820 1.30410 0.64499
0.43723 0.00675 2.20689 0 29.97773 0.13166 2.02206
0.05774 -0.01462 0.25931 0 -20.62351 -1.45997 0.25888
-2.36233 0.04020 6.97140 0 -19.59173 -0.93625 2.71762
-5.40811 -0.02110 1.56064 0 9.86791 -1.08471 0.28464
0.98075 -0.00819 1.58993 0 8.68618 -0.13571 1.10507
0.58291 -0.20252 0.57364 0 11.98214 7.22398 0.51640
2.30741 0.03667 3.80233 0 21.62380 -1.35786 1.51201
-1.36448 -0.18397 1.93561 0 28.85085 5.13334 1.14422
-3.54503 0.14966 0.98279 0 22.00121 -2.45839 0.26694
-5.58165 0.11557 3.38498 0 -28.92506 -4.26577 0.59700
-18.94876 0.22692 6.24480 0 -24.53645 -5.08731 0.32925
-7.31928 -0.01383 6.89724 0 -27.73984 1.04415 0.93372
-3.75969 0.14118 10.26623 0 -27.01483 -4.35417 2.63888
-5.15826 0.11182 4.20519 0 -28.71288 -2.62554 0.80042
-17.45649 -0.04879 7.32143 0 1.95056 2.77666 0.41884
-1.63213 -0.13961 0.97405 0 -29.37651 5.31445 0.50893
12.63176 -0.20039 7.03910 0 -21.21099 7.08239 0.55560
0.97963 0.01333 0.65269 0 -1.46943 -1.41766 0.46629
8.16023 -0.02739 5.17940 0 0.96349 1.71699 0.63008
1.75359 0.01038 1.10618 0 -29.15597 0.70285 0.54805
-4.00470 -0.30322 1.23937 0 -14.86877 7.29658 0.30033
-0.67378 -0.20190 0.67580 0 29.68908 7.11980 0.56048
1.87109 -0.10489 1.32744 0 -21.10192 2.40170 0.62576
9.77026 0.28823 5.61680 0 2.69899 -7.57508 0.57198
-4.27856 0.19489 5.73716 0 -29.06216 -5.35345 1.30579
8.61015 0.19238 3.27030 0 28.36044 -4.28171 0.37741
2.68610 -0.23161 2.40744 0 -26.70051 7.69426 0.84006
1.83116 -0.00276 1.23287 0 29.94155 -0.70134 0.59098
0.09787 -0.05733 0.93903 0 3.83447 1.25250 0.93457
-7.78754 -0.11709 2.27302 0 -3.00310 1.81128 0.28967
9.53226 -0.09615 3.10731 0 -26.64844 1.37960 0.32435
-0.60550 0.14728 0.27742 0 29.94138 -6.62272 0.23735
-0.24454 -0.01492 0.79788 0 -29.58018 1.18947 0.77504
1.37569 -0.07955 0.97290 0 -28.92685 3.37472 0.57211
-1.89795 0.13420 2.84717 0 16.80574 -3.55056 1.32723
1.24329 -0.02299 0.92907 0 25.06484 -0.10704 0.58234
3.44108 0.03225 2.53147 0 24.80955 -0.16231 0.70651
-22.24404 -0.07100 5.56942 0 26.70242 4.29875 0.25032
-6.20191 -0.27254 4.04145 0 28.03315 7.38514 0.64341
3.05304 0.01437 1.94514 0 -28.60463 -1.19565 0.60551
-8.94807 -0.10341 4.56560 0 -12.62471 4.21605 0.50717
1.08308 0.01846 1.43956 0 1.03633 -0.99681 0.97657
-0.95439 -0.18164 1.71174 0 1.28506 5.96607 1.23831
13.37682 -0.11738 7.24089 0 -13.88707 4.57743 0.53988
-14.05728 -0.03045 6.14964 0 7.67975 -0.17687 0.43648
-13.50311 0.01633 14.53454 0 -10.97312 0.06762 1.07349
-0.13726 -0.04492 0.82558 0 27.27207 0.80297 0.81791
1.31244 0.27078 0.76406 0 29.87596 -6.83787 0.46314
-10.30749 -0.03007 8.06924 0 -8.19579 0.32717 0.77926
-1.83569 0.23227 1.61711 0 -16.74844 -6.17895 0.77363
2.99764 0.10119 2.17483 0 -12.14980 -3.71268 0.68828
-0.52520 0.12708 1.50529 0 -10.22104 -3.33943 1.33268
-12.12617 0.19721 5.47512 0 -29.54934 -4.64875 0.45009
3.84956 -0.00747 0.78540 0 -5.75326 -2.29825 0.19757
0.79005 0.20100 0.59400 0 23.02553 -7.13208 0.46612
15.51846 0.10429 5.79026 0 11.72900 -4.45889 0.37248
-7.86388 -0.03909 5.91241 0 26.99128 1.94248 0.74590
-0.46387 -0.18106 0.60379 0 12.47469 4.54369 0.54775
1.13193 0.26992 0.97977 0 -5.83418 -7.15276 0.64874
6.18121 0.06811 4.36517 0 -7.27069 -1.22586 0.69720
-8.32707 0.13218 2.57840 0 -12.86524 -5.62091 0.30759
-3.32976 -0.18152 1.72277 0 6.72312 4.45657 0.49565
0.41815 0.05761 0.73010 0 24.30193 -2.41250 0.67359
-1.70806 0.01448 0.88674 0 -9.62696 -1.49709 0.44814
2.75312 -0.26254 2.21555 0 14.25560 7.21924 0.75646
-5.51158 0.14769 1.68350 0 -13.42981 -6.14205 0.30064
4.18890 -0.06392 2.57331 0 -16.79472 1.14100 0.59770
-2.83793 -0.32653 0.63975 0 10.64412 7.20676 0.21272
-0.24674 0.24487 0.46532 0 -27.66294 -6.05145 0.45177
-11.22651 -0.11007 3.75423 0 -28.57142 1.83503 0.33323
8.03575 -0.10760 6.27912 0 11.02611 3.98340 0.77548
5.94023 0.17566 2.92367 0 29.91461 -6.30618 0.48541
-3.46521 -0.09804 0.71361 0 29.67236 0.42875 0.19803
11.47597 -0.27326 9.34620 0 -7.59579 7.58508 0.81140
-1.31606 -0.15832 1.10954 0 4.68548 4.04666 0.67133
-0.54130 -0.16346 1.08136 0 -26.22828 5.54528 0.95526
2.98199 0.06395 1.14046 0 -29.99201 -3.26646 0.36283
0.23964 0.14748 0.45440 0 -12.64719 -5.55365 0.44189
1.35056 -0.14359 0.51906 0 -17.46528 6.12795 0.30899
-6.58342 -0.09044 1.61225 0 -26.14652 4.96868 0.24232
3.91019 -0.27515 2.82543 0 28.62354 7.53196 0.70012
-3.82165 0.05105 1.39146 0 26.09737 0.00201 0.35239
25.73863 0.08317 14.93581 0 -23.64735 -1.52701 0.57993
6.16767 -0.09207 2.29316 0 25.99703 4.26855 0.36714
-3.54251 -0.00730 1.92297 0 5.57857 -0.67871 0.52254
-15.06176 0.16291 4.26293 0 0.55123 -6.73338 0.28258
-22.88541 0.22717 18.14831 0 28.36410 -7.43699 0.79232
-2.02603 -0.12138 1.37057 0 -29.61894 2.86655 0.60670
2.99900 -0.10409 2.93942 0 16.34628 2.64716 0.92988
1.14291 -0.24336 0.45369 0 -4.82250 5.56282 0.29883
-0.03066 -0.01341 0.42652 0 -28.84049 -0.71640 0.42632
1.22637 0.01763 0.94566 0 -12.55814 0.40777 0.59767
-2.85913 0.13930 1.91813 0 -29.03519 -4.93535 0.63330
17.28885 -0.16375 11.18408 0 -1.01233 5.82495 0.64589
-1.31858 0.01340 1.61864 0 26.83595 -0.84376 0.97814
0.97476 -0.02853 0.86774 0 -29.99754 0.11418 0.62141
1.05792 0.10204 0.79661 0 -29.96679 -2.03655 0.54726
17.58409 -0.09503 4.33666 0 4.23935 5.07338 0.24642
-0.38632 -0.03070 0.55912 0 -23.75907 0.02174 0.52157
3.43823 -0.14856 1.83997 0 -27.36964 3.51938 0.51391
-7.59908 -0.10689 5.28400 0 25.56882 2.53740 0.68947
11.30850 -0.20532 7.78966 0 -8.73064 7.04230 0.68623
-2.22867 0.01449 1.41874 0 -17.69522 0.52686 0.58092
-9.82113 -0.22396 4.85774 0 0.12059 5.69837 0.49218
-27.22958 -0.27560 15.30366 0 -16.56738 7.34998 0.56173
-15.16580 -0.17767 9.64469 0 -22.04738 4.57497 0.63465
1.77428 0.11522 0.46603 0 -29.67650 -1.12464 0.22897
0.51655 -0.04496 1.10239 0 29.29593 0.90716 0.97945
-0.92222 0.30858 0.48277 0 25.62643 -7.57106 0.35494
-6.95423 -0.04757 3.08788 0 -26.07672 0.34431 0.43962
7.64614 0.02177 3.28003 0 9.62283 -1.77813 0.42547
6.70822 -0.26928 2.60516 0 -29.96160 6.71468 0.38423
15.50385 0.09555 5.11056 0 -19.16117 -1.22192 0.32910
0.17373 0.00380 0.45333 0 -26.92460 1.11578 0.44553
2.10675 0.10284 1.58828 0 3.31501 -2.24516 0.68113
3.65073 0.18664 7.20211 0 -28.80507 -5.80187 1.90276
9.27079 0.04545 3.10505 0 29.94283 0.25374 0.33314
-2.90293 -0.17928 1.03412 0 24.78448 3.89322 0.33688
2.35753 0.03279 0.95432 0 25.34501 -2.28307 0.37275
0.56397 0.08922 1.02602 0 29.99022 -2.01847 0.89370
11.45889 0.29551 3.38138 0 -29.99842 -6.87459 0.29413
4.22959 -0.26803 4.09989 0 -22.78416 7.52665 0.94336
0.13807 -0.25687 0.51150 0 26.48684 6.69519 0.50670
-16.66263 0.12728 8.40804 0 24.86466 -2.70568 0.50379
1.89977 0.17661 1.58766 0 -29.97377 -4.50559 0.74654
9.53754 0.05584 7.53586 0 16.93903 -0.94166 0.78588
-13.06611 -0.23555 10.01259 0 -10.38295 6.42989 0.76413
20.68067 0.01275 9.50335 0 17.15949 -1.41742 0.45910
23.34990 -0.12870 5.44917 0 -12.88847 1.72713 0.23337
0.22875 -0.13277 0.72874 0 -23.10005 4.80822 0.71039
-10.48926 0.01635 8.45150 0 -19.68194 0.22795 0.80215
11.16010 0.02288 4.24302 0 -26.85550 -1.96118 0.37881
8.45257 0.11254 3.30694 0 29.39038 -1.96522 0.38865
0.10552 -0.26097 0.74732 0 26.25478 7.15996 0.74319
-1.86383 -0.11773 0.87253 0 -12.25757 4.89266 0.41261
-0.34815 -0.15125 0.78332 0 -1.57360 3.90869 0.73977
20.02247 0.05094 20.79760 0 23.53082 -0.95304 1.03747
-14.47303 0.10200 12.34589 0 9.50401 -2.37085 0.85106
