-6.72324 0.05089 2.88024 0 -5.47814 -2.66319 0.42385
-2.80294 0.03610 2.61419 0 22.09814 -0.41931 0.87847
-1.07484 0.22829 1.33063 0 16.24437 -7.38182 0.90640
0.51917 -0.07894 0.35054 0 -8.38741 4.12737 0.31114
-2.26438 -0.21368 0.49876 0 29.65072 3.85773 0.20158
-0.09231 0.13336 0.29033 0 -29.71688 -2.12619 0.28911
0.36231 0.13578 0.55785 0 -15.77588 -5.00376 0.52449
-1.56626 -0.06265 1.07548 0 -29.93385 1.07498 0.57883
0.74798 0.02643 1.27311 0 15.54066 -1.21423 1.01949
10.00726 -0.04356 8.81260 0 27.18157 0.80389 0.87631
2.55420 0.09096 0.82793 0 -6.15908 -1.19530 0.35407
13.25016 0.10178 4.31741 0 -27.58404 -4.59108 0.32506
27.21407 0.02213 12.58532 0 -22.45519 0.52355 0.46225
1.76871 0.02306 1.40129 0 -1.11668 0.13066 0.68971
-0.65193 -0.03181 1.13684 0 -20.30718 0.49852 0.95235
-4.97423 0.13323 1.25714 0 -28.67111 -1.82659 0.24785
1.15547 0.22925 0.90248 0 26.90978 -7.74439 0.59063
23.40264 0.03257 14.76189 0 -21.07254 -0.08436 0.63028
2.37528 -0.27677 0.50770 0 -5.95082 5.60373 0.19719
2.19593 0.22487 1.55719 0 -13.01817 -5.82192 0.64549
0.50292 -0.08518 0.77839 0 29.94186 3.38334 0.69542
-16.42026 -0.07967 4.55678 0 -28.42843 4.12962 0.31485
1.45473 0.25971 1.18952 0 29.09270 -6.88419 0.67388
9.63143 0.10849 3.52582 0 -19.38335 -1.75677 0.36425
2.40747 -0.30612 0.63983 0 25.25319 6.97416 0.24567
2.93628 -0.14261 0.95443 0 29.32881 6.10429 0.30784
-7.22821 -0.13307 4.63032 0 17.96952 4.90683 0.63462
0.84037 0.12702 0.50975 0 8.06325 -5.08870 0.39029
-0.54369 -0.10875 0.29956 0 17.89571 5.35766 0.26321
1.02729 0.18297 0.35726 0 23.08332 -3.29724 0.24932
-18.58766 -0.18659 7.57437 0 4.21450 7.02473 0.40703
-22.63251 -0.05556 7.00466 0 -18.13762 3.25777 0.34287
-1.90701 -0.01727 1.12195 0 -25.40944 1.58278 0.52111
24.03421 0.10110 8.94665 0 28.13715 -1.56662 0.37206
14.84364 -0.00720 6.50050 0 26.48839 1.46945 0.43705
4.46776 0.06724 2.70697 0 23.77640 -2.81033 0.59141
15.22210 -0.11455 13.53116 0 -20.51976 4.10827 0.88706
0.28199 0.14035 0.61548 0 27.93141 -3.24727 0.59239
7.16631 0.00289 2.28716 0 -21.58542 -1.62698 0.31624
1.04976 -0.16641 0.39459 0 29.32127 3.15018 0.27224
-1.39789 0.26493 0.35344 0 -29.68718 -5.21696 0.20578
-0.92729 -0.16970 0.97507 0 2.99604 5.92474 0.71501
16.25076 0.10286 13.39387 0 29.68362 -2.37587 0.82270
2.17614 -0.14679 1.06193 0 -9.46895 5.69074 0.44348
2.95462 0.14161 2.38726 0 -19.50434 -4.85993 0.76539
2.29817 -0.09766 1.51046 0 28.06510 3.87674 0.60272
1.70552 -0.17372 0.75230 0 5.31283 3.90761 0.38061
-3.24816 -0.01645 1.50297 0 -29.94472 -0.58129 0.44242
4.17224 -0.05365 2.29193 0 -23.02822 0.73237 0.53428
0.09012 0.13491 1.25647 0 3.68876 -4.38729 1.25140
-2.19128 -0.01155 1.54952 0 -29.98504 -0.36684 0.64339
4.63533 -0.16749 1.64947 0 -0.89200 3.59586 0.34793
-2.00442 0.21333 1.17961 0 20.49846 -7.37236 0.52667
3.70151 0.20404 1.56625 0 3.46104 -7.39599 0.40860
-0.72681 -0.11378 1.00644 0 13.43586 2.85725 0.81415
-25.20724 -0.04337 7.65327 0 -24.75332 3.08491 0.30354
-0.10041 0.21847 0.32531 0 0.71134 -4.81343 0.32368
1.31437 -0.11245 0.35822 0 -16.48002 5.91443 0.21703
-0.91863 0.16376 0.61205 0 -7.61789 -3.66467 0.45079
-24.74240 0.10342 12.16673 0 -6.02828 -4.08731 0.49143
-1.47398 0.03740 0.54046 0 -29.11951 -2.16182 0.45885
0.82097 -0.05781 0.37826 0 29.95948 3.59037 0.29240
-0.26869 -0.03130 0.75179 0 20.84389 0.31576 0.72604
-0.17943 0.22347 0.70795 0 -18.15277 -5.84191 0.69682
1.98988 -0.20992 1.13290 0 -9.52024 7.46773 0.50877
2.65112 -0.10490 2.84493 0 -27.74558 2.71249 1.00412
4.28337 0.00415 5.89212 0 29.60354 0.33826 1.33959
9.96923 0.15430 11.83542 0 -29.05452 -4.99819 1.18131
1.48022 0.05475 0.98668 0 -5.87603 -2.49490 0.55240
12.94631 -0.05186 5.14683 0 24.36593 2.93979 0.39649
-15.97460 0.09614 6.72585 0 -14.56885 -4.04769 0.42033
-1.36137 -0.07943 0.88044 0 15.28788 3.46037 0.52129
2.52264 0.03070 2.01490 0 5.02420 -0.15126 0.74269
-3.08265 0.18823 1.05882 0 7.24805 -3.94652 0.32699
-5.33451 -0.18527 1.81644 0 9.77821 4.05942 0.33482
-0.36123 -0.02222 0.38307 0 -29.83206 2.17378 0.36030
-1.28435 -0.14135 0.36342 0 -17.48756 6.74643 0.22341
4.72624 -0.00752 3.87723 0 -9.99716 -0.32998 0.80272
2.97444 -0.13297 0.76912 0 23.83706 1.95974 0.24528
-7.10383 0.20416 5.14418 0 -21.01350 -6.80928 0.71714
-20.63053 0.01915 21.64787 0 -16.39403 -0.00536 1.04813
9.87710 0.25054 2.53274 0 28.31689 -5.34350 0.26019
-1.84978 -0.18737 1.82010 0 -0.89871 5.08489 0.86562
23.65337 0.11565 40.87439 0 29.43714 -3.69087 1.72654
-2.59924 -0.14482 2.12978 0 24.37746 3.74043 0.76481
-0.31210 -0.19905 0.34851 0 -12.70050 7.72070 0.33270
-4.44544 0.02575 1.67893 0 -24.07474 -2.08588 0.36857
-2.31847 -0.13061 1.49328 0 -23.03055 4.89359 0.59148
26.82489 0.15535 19.47327 0 -20.02435 -5.31522 0.72550
-0.92999 0.05955 0.78225 0 -17.32661 -0.81072 0.57287
-0.16511 -0.12273 0.42680 0 26.74496 2.53218 0.42110
0.35546 -0.20309 0.41946 0 -11.20410 7.57578 0.39525
-19.11590 -0.19710 13.37330 0 -29.99219 6.77690 0.69871
-6.60452 0.17652 3.81412 0 20.99872 -6.16264 0.57108
-8.17920 0.28740 3.44371 0 -17.53108 -7.19383 0.41804
-2.74807 -0.28673 1.42472 0 -24.58114 7.52453 0.48724
-8.65523 0.06113 6.64458 0 -24.89739 -1.08010 0.76269
16.05288 0.03390 9.20373 0 -13.32000 -0.04219 0.57231
-0.46261 -0.20212 0.33036 0 25.85077 4.37037 0.29986
2.35116 0.18538 0.55176 0 -21.18383 -3.04863 0.21612
-5.87296 0.23462 4.26852 0 -19.00488 -7.73994 0.71658
-18.10835 -0.25921 5.36489 0 -22.29402 6.00401 0.29598
14.57549 0.07544 5.43065 0 -19.12276 -3.58098 0.37184
1.53008 0.20496 0.70609 0 2.06802 -4.68314 0.38637
-0.51602 -0.25435 0.42279 0 21.61128 6.24880 0.37575
-1.87303 -0.09363 1.73673 0 -26.04765 3.52599 0.81801
18.79714 -0.08757 13.40211 0 -1.01447 3.43807 0.71205
5.48355 -0.25692 2.10289 0 -24.66528 6.32990 0.37744
3.13275 0.24203 3.83938 0 -28.74061 -7.66020 1.16762
-1.68234 -0.00587 0.46116 0 -0.61051 2.26353 0.25615
0.65513 0.12568 0.43243 0 7.27450 -2.25648 0.36177
15.18078 0.14722 3.05390 0 -28.61807 -1.75513 0.20098
0.51441 -0.19268 0.72832 0 23.12727 5.03591 0.64767
0.67933 0.05665 0.34189 0 29.18070 0.19164 0.28286
5.33379 0.32450 1.41207 0 -1.08715 -7.45986 0.26041
1.52110 0.10119 1.62407 0 -29.99420 -3.53853 0.89221
-1.59536 -0.02569 1.07138 0 -29.99702 -0.04653 0.56907
-5.51761 0.03297 1.76722 0 7.98820 -2.54246 0.31525
-5.90480 -0.21586 5.92595 0 29.51222 7.11454 0.98952
-18.66480 0.14531 43.64272 0 -5.45746 -4.50450 2.33491
3.21057 0.08639 1.42792 0 -23.77952 -3.73790 0.42471
-4.09013 0.20840 1.54543 0 -14.05308 -4.71235 0.36714
12.82940 -0.12529 10.24828 0 -4.22472 4.50070 0.79646
-22.83560 0.09157 6.72390 0 24.89380 -0.92017 0.29433
-7.77782 -0.12526 2.26775 0 26.73711 2.05096 0.28935
-1.46373 -0.12257 0.80385 0 -26.33235 2.61479 0.45353
24.57896 0.07368 5.80280 0 25.91537 0.04159 0.23610
0.41227 -0.02651 0.75908 0 29.50178 1.60715 0.70179
-5.43747 0.11267 8.36430 0 -29.96358 -3.64414 1.51300
-17.56983 -0.06212 20.88969 0 27.30131 2.37871 1.18707
-3.23026 -0.20826 1.07941 0 29.90796 4.65584 0.31929
-3.36099 -0.15316 1.17736 0 12.95848 6.28108 0.33596
1.09996 -0.25441 0.91836 0 -19.40132 6.81689 0.61781
-20.72556 0.24023 19.42024 0 -15.55053 -7.72531 0.93598
-1.79867 0.24555 0.66716 0 -22.62765 -5.60384 0.32426
6.33768 0.16230 5.14862 0 26.42756 -5.45509 0.80251
1.31441 0.02127 1.08488 0 25.23040 0.22152 0.65692
-14.37989 -0.07362 5.33875 0 28.43014 0.90550 0.37050
-0.14932 -0.08821 0.53118 0 7.02894 1.74794 0.52536
3.62713 -0.15082 1.14864 0 -26.39545 6.37277 0.30540
-0.09838 -0.12104 0.66028 0 29.71713 2.92199 0.65711
-1.48122 0.04560 0.95955 0 21.66525 -0.33365 0.53697
1.48462 -0.18616 0.95465 0 -0.55345 6.68797 0.53338
-12.11214 0.10220 8.18350 0 -25.07146 -3.76010 0.67343
-5.02832 0.14015 2.97289 0 18.47159 -5.03890 0.58005
-0.37782 0.17463 0.38488 0 29.99599 -6.67190 0.36006
1.68693 -0.17958 1.48405 0 -29.19602 6.18320 0.75682
-0.09959 0.28900 0.31870 0 13.54562 -6.82221 0.31713
-10.81814 0.16001 6.28714 0 4.30393 -3.80971 0.57878
-0.23945 0.12785 0.67984 0 -27.09162 -4.55231 0.66116
4.33601 -0.04350 2.42799 0 -8.00203 0.44868 0.54576
9.75764 -0.12240 2.46205 0 1.68664 5.87999 0.25120
-2.59637 -0.14016 1.23394 0 22.16438 3.11072 0.44360
0.38169 -0.10150 0.98703 0 14.97654 2.56521 0.92215
-0.62392 -0.02285 0.98269 0 29.99909 1.38104 0.83374
0.56339 0.26167 0.38496 0 15.48789 -6.12630 0.33542
6.55169 -0.01101 4.97279 0 17.98246 1.09355 0.75038
-1.18797 -0.23629 0.37192 0 -20.67569 4.92103 0.23961
-14.56046 -0.05356 5.95864 0 -23.64585 2.95307 0.40839
25.06409 -0.15769 17.84525 0 20.84558 4.07189 0.71149
3.62965 0.09757 5.88460 0 3.23980 -3.17823 1.56312
9.44092 -0.14066 3.73214 0 1.38352 5.65908 0.39324
-3.39544 -0.05801 0.85682 0 24.66875 3.97048 0.24226
0.05543 -0.03493 0.62295 0 -15.55397 0.30694 0.62200
3.38458 -0.19114 1.15865 0 -11.02161 7.49707 0.32839
-4.86453 0.20117 5.07660 0 5.04840 -5.42674 1.02226
2.65744 0.07921 0.82735 0 -21.37564 -4.08816 0.29150
9.15435 -0.08469 2.24660 0 -15.21837 4.77432 0.24416
-8.08383 0.26016 2.50610 0 -29.79443 -5.93874 0.30783
15.60944 -0.11898 9.49485 0 19.66106 2.79582 0.60711
-0.27410 -0.32110 0.33845 0 28.06044 7.95638 0.32642
6.39160 -0.10176 2.30503 0 2.05568 1.68850 0.35643
23.67195 -0.23326 9.77902 0 5.54206 5.76209 0.41286
-1.09000 -0.23694 1.35455 0 1.91454 6.58884 0.91574
0.70455 -0.11923 0.44606 0 -25.38114 2.23934 0.36470
-0.27544 -0.06987 0.64153 0 18.99597 3.01362 0.61850
9.48166 -0.02370 2.05487 0 -17.89711 3.18745 0.21575
1.43292 0.17068 0.78613 0 6.68948 -3.86678 0.44997
-0.46111 0.15261 0.57839 0 -17.72598 -3.49876 0.52526
3.04483 -0.10961 2.44636 0 -8.62884 2.69098 0.76350
2.36043 -0.17042 1.00731 0 29.81543 3.85408 0.39312
4.55254 0.28643 2.69173 0 -10.55586 -7.53195 0.57761
-0.31355 0.27358 0.92855 0 -29.90468 -7.49009 0.88602
-1.99308 0.03908 0.82694 0 -16.04529 -2.48014 0.37099
-3.04830 0.12590 2.05859 0 -29.99833 -4.51728 0.64177
-22.31389 0.16443 6.50481 0 29.60827 -3.05443 0.29139
1.80551 0.07747 0.41570 0 18.59986 0.30098 0.20154
0.65692 -0.06491 0.50048 0 6.33200 0.80348 0.41832
18.56249 0.28705 12.70821 0 28.02856 -7.70018 0.68370
14.17774 -0.20466 10.95259 0 -6.96036 5.52178 0.77067
-19.78671 -0.06986 12.11636 0 29.98118 1.33800 0.61165
-0.42694 0.01159 0.55859 0 -29.87865 -1.26336 0.51375
0.11313 0.24157 0.24637 0 2.40038 -4.95731 0.24481
0.41331 -0.14388 0.28783 0 25.94697 6.42556 0.26604
-21.96749 0.09387 15.64352 0 4.89357 -3.46651 0.71145
0.20044 -0.22272 0.96407 0 -8.67376 6.18582 0.94527
-0.26694 -0.07356 0.40030 0 24.35768 3.63175 0.38677
1.49466 -0.27662 0.72912 0 -5.76803 7.00239 0.40551
1.20960 0.04563 0.47926 0 29.97177 -2.98018 0.30547
2.77213 -0.29295 0.55126 0 16.43043 5.91669 0.18719
1.96288 -0.10720 1.19777 0 -12.37386 4.26108 0.54379
16.86690 -0.17428 11.80704 0 2.55849 6.08183 0.69885
-2.50660 -0.06263 2.59843 0 18.85192 2.49558 0.96290
5.59103 -0.14481 5.50969 0 -21.81516 3.88469 0.97011
21.58287 -0.29282 5.79817 0 -12.80981 6.78346 0.26854
-0.96905 0.08963 0.41573 0 -10.05521 -0.88738 0.29863
7.07648 -0.24843 4.23276 0 23.35703 6.60297 0.59234
-1.36847 -0.01025 0.51706 0 28.64772 2.07122 0.30515
-4.31764 -0.25944 1.73570 0 23.54640 6.45570 0.39181
-6.97024 0.19909 3.94770 0 -29.98178 -4.93595 0.56071
0.68432 0.00369 0.48731 0 -14.91112 -1.30297 0.40219
3.60076 -0.10876 1.72843 0 -22.68578 4.47941 0.46261
4.90800 0.27243 1.45500 0 -20.78719 -6.18925 0.29064
4.28033 -0.18538 2.05304 0 17.91712 4.50554 0.46711
14.62453 0.14221 7.30115 0 9.54952 -5.25420 0.49817
0.44363 -0.24102 0.50911 0 12.73835 6.13612 0.46539
-16.86835 0.05338 10.42101 0 -27.61093 -0.68983 0.61678
-1.02288 -0.05766 0.45599 0 15.23365 3.43710 0.31884
-0.76694 0.00891 0.76409 0 17.80495 0.65724 0.60634
-3.46761 0.22372 2.16841 0 21.19262 -7.55844 0.60095
0.34413 -0.09281 0.51200 0 -16.63342 3.94332 0.48414
-24.39089 -0.15320 6.66293 0 8.09128 6.66158 0.27312
5.30729 0.21632 2.13802 0 21.09202 -7.82079 0.39595
-5.49890 0.13308 2.21228 0 29.35075 -5.25457 0.39598
-0.77990 0.08569 0.34036 0 -17.11473 -4.44406 0.26845
0.13745 0.22546 0.63453 0 7.84660 -7.57029 0.62862
-1.84198 -0.08837 0.67354 0 -11.54247 1.13436 0.32149
-2.09529 -0.23584 1.06400 0 -2.76122 5.96668 0.45841
-8.32330 -0.04857 3.92585 0 -24.83309 2.60584 0.48283
-9.28072 -0.02008 6.77050 0 15.23604 -0.02100 0.72539
26.22954 0.03724 13.30870 0 27.92987 -0.02735 0.50712
3.85492 0.09177 2.14828 0 -10.15653 -3.63799 0.53949
-9.78536 0.14580 15.14530 0 19.55097 -4.63646 1.53976
1.19485 0.09303 0.73519 0 -5.62317 -3.81576 0.47191
-0.62352 -0.29663 0.48740 0 -14.18856 7.60990 0.41362
-0.72909 0.17734 0.36204 0 24.44554 -3.44046 0.29260
0.46263 0.20721 0.92921 0 28.87523 -6.78635 0.84334
6.87020 0.07547 1.71187 0 21.21530 -3.91611 0.30101
-1.50504 0.23244 1.70765 0 -6.40306 -7.48245 0.94507
-23.98158 -0.11299 11.33331 0 16.29124 4.58464 0.47228
-3.47990 -0.09694 1.22759 0 -12.27836 4.53706 0.33914
1.55072 0.02111 0.61975 0 18.18864 0.97080 0.33599
6.08855 -0.15903 3.09383 0 11.12327 5.92320 0.50152
-14.69375 -0.04064 2.98327 0 -15.83944 -1.22693 0.20280
23.96595 -0.11891 9.54029 0 -9.92824 4.97684 0.39785
12.89481 -0.18456 9.23732 0 1.72067 6.37781 0.71428
-0.70440 0.18979 0.84851 0 12.73796 -6.39750 0.69372
-2.86990 0.23434 1.08928 0 -9.28693 -5.43483 0.35848
7.72953 0.16422 8.87273 0 29.48595 -4.38028 1.13846
6.16227 -0.11881 5.27946 0 -29.71840 4.26587 0.84573
-1.28937 0.22335 1.19172 0 -22.45053 -7.38055 0.73041
2.92640 0.26285 0.54874 0 -3.72725 -4.75028 0.17755
7.48196 -0.17929 2.75379 0 29.63006 4.01266 0.36494
-12.93627 -0.17834 9.53442 0 25.44905 4.70810 0.73490
-0.96267 0.13396 0.61524 0 -6.16526 -2.76361 0.44328
4.85324 -0.22584 5.74081 0 22.89268 7.33515 1.15858
5.61214 -0.26436 1.74296 0 18.54629 6.21168 0.30594
-10.50697 0.19454 5.54117 0 -20.27161 -4.73764 0.52510
9.46905 -0.06802 3.25909 0 -6.89032 0.62514 0.34242
-10.39953 -0.09052 7.49633 0 -19.59248 3.52137 0.71759
19.69432 -0.22448 15.50548 0 -3.02470 6.12244 0.78636
2.17958 0.22330 1.41363 0 22.14611 -5.69646 0.58956
1.36783 -0.01031 0.68078 0 -29.81914 -0.88271 0.40187
-4.64511 -0.21264 1.60074 0 26.07814 4.87079 0.33711
1.32195 -0.22180 0.72391 0 -19.15860 5.49739 0.43677
11.02197 0.00865 3.22434 0 25.13168 1.57970 0.29151
12.96702 -0.10368 4.60398 0 0.10191 4.67682 0.35414
-2.78562 -0.16055 1.23024 0 -20.68931 3.63526 0.41576
-0.83524 0.30070 0.32168 0 16.86149 -6.84532 0.26845
3.21852 0.03917 0.44527 0 -22.62980 0.81773 0.26776
-2.90288 0.12496 1.61991 0 -8.13752 -4.69291 0.51509
-2.29573 -0.00308 0.51986 0 -26.95291 -1.72306 0.27048
0.42553 0.11797 0.81563 0 27.37357 -2.76583 0.75052
-1.02181 -0.05680 0.66451 0 5.76833 0.68329 0.46483
24.20123 0.17699 19.20967 0 -29.64638 -4.55819 0.79313
-2.27157 -0.15872 1.66696 0 25.27946 4.05876 0.67168
-6.81253 -0.21110 2.85952 0 20.16521 5.12109 0.41541
15.06679 -0.17665 6.96358 0 27.70874 4.23399 0.46127
-8.16147 0.25546 3.52355 0 -19.78738 -6.29611 0.42864
-0.17170 -0.20172 0.76050 0 0.25792 5.41516 0.74953
-1.11367 -0.10747 0.42284 0 -17.30400 1.48222 0.28261
-5.76378 0.15414 1.91113 0 -23.56363 -6.19479 0.32677
0.53374 0.09914 0.51321 0 -21.20486 -1.75415 0.45278
0.84891 0.04101 0.38477 0 -24.05514 0.59492 0.29341
9.29842 0.20038 5.51114 0 -23.70182 -6.86207 0.58938
1.69166 0.11197 1.32333 0 -28.89385 -4.05598 0.67347
-5.84548 0.27462 1.67049 0 25.17406 -6.19475 0.28192
-1.63804 -0.17938 0.49907 0 5.22583 7.58332 0.26019
-5.58548 -0.25948 5.01227 0 -16.28675 7.23379 0.88340
-27.18363 0.23982 29.75622 0 -22.19511 -7.62564 1.09394
-0.97290 0.26335 1.87419 0 5.96854 -7.40141 1.34335
0.94280 0.06324 0.52847 0 -29.40592 -3.16329 0.38459
-0.63445 0.03699 0.76830 0 -12.87286 -0.24004 0.64877
-5.15217 0.07146 1.01138 0 28.35120 0.59534 0.19286
6.69039 -0.29921 3.13231 0 0.03305 7.82872 0.46314
-3.51250 -0.16478 3.16478 0 27.92483 4.41436 0.86664
0.05837 -0.21368 0.42057 0 -29.74228 7.81936 0.41986
8.93403 0.18853 7.62184 0 29.88821 -6.21521 0.84789
0.66992 0.06229 0.75111 0 13.39232 -0.96579 0.62404
0.52460 0.16496 0.42478 0 27.13102 -3.47104 0.37619
0.72107 -0.21843 2.20099 0 -12.68432 6.32838 1.78528
3.94134 0.17023 3.18143 0 -29.99537 -4.34850 0.78248
3.38029 -0.26954 2.95073 0 29.96706 7.49638 0.83714
-12.78528 0.11103 2.74039 0 18.39880 -5.74457 0.21391
23.60893 0.10376 17.30439 0 -21.31409 -3.64065 0.85681
0.89131 -0.05599 0.66067 0 13.54266 0.72260 0.49325
19.49941 -0.10145 6.83931 0 29.97369 1.65452 0.35042
16.60701 0.17467 18.87951 0 29.98685 -4.68999 1.13483
-7.39502 0.01287 6.56075 0 -28.89258 0.27651 0.87924
-1.33637 0.24695 0.52832 0 25.78205 -5.60482 0.31664
6.12173 0.05537 3.61258 0 29.91048 -2.46506 0.58249
23.85928 0.20545 10.19010 0 -16.19676 -4.82696 0.42683
-0.07469 0.05041 0.83947 0 -29.78358 -0.81694 0.83404
-12.02543 0.25574 6.40358 0 17.75278 -6.54847 0.53076
-25.99117 0.06028 11.79152 0 26.65347 -2.86729 0.45345
-1.86485 0.12255 0.69514 0 -6.22992 -2.02077 0.32867
-0.17393 -0.19568 0.89436 0 24.46045 5.34226 0.88113
1.28159 0.12264 0.34927 0 -29.99959 -6.09487 0.21497
-0.88735 -0.09604 0.40237 0 28.61003 4.70860 0.30104
1.78294 -0.15291 1.72822 0 20.33790 5.29869 0.84545
3.12020 -0.03344 1.70773 0 1.14439 0.10351 0.52132
1.22104 0.21165 0.56273 0 14.66601 -4.76491 0.35661
-0.02620 -0.23950 0.28432 0 -21.65549 5.35874 0.28405
-1.58750 -0.02906 1.19917 0 7.82032 1.75559 0.63918
2.93401 -0.10973 1.73806 0 -29.76213 4.30834 0.56077
-1.39460 -0.04611 0.75953 0 29.56627 2.62868 0.44266
-10.76412 -0.07550 7.23739 0 24.18240 1.57889 0.66955
-4.42205 0.06999 2.15444 0 19.62752 -3.10887 0.47526
-6.97435 -0.10283 4.77479 0 4.47068 3.93683 0.67776
-1.26657 0.09712 1.55331 0 28.99546 -3.37282 0.96258
-2.15129 -0.25507 1.90625 0 -28.70752 7.04157 0.80370
20.37201 0.05227 18.91320 0 -21.44368 -0.93424 0.92733
0.84242 0.02860 0.62131 0 -3.82286 0.29939 0.47521
-0.01657 -0.24538 0.82930 0 -24.59498 6.77640 0.82918
19.59170 -0.23591 13.89817 0 -18.12047 6.38457 0.70854
-1.38764 0.05309 0.86016 0 6.64642 -0.49326 0.50295
-1.23227 -0.18993 0.75721 0 18.14578 6.92611 0.47721
1.05841 0.02140 0.84586 0 25.72441 0.31927 0.58096
1.24601 -0.08499 1.88089 0 10.19577 2.19311 1.17730
11.25255 0.19432 4.11289 0 -7.16742 -4.28818 0.36421
15.76638 0.17730 10.37082 0 -29.80303 -4.42912 0.65654
-1.66522 -0.02830 0.52779 0 -26.36153 -0.95281 0.27187
-21.28273 0.14492 4.30252 0 3.04511 -1.70273 0.20218
-1.97996 -0.02658 1.24568 0 29.29671 -0.03171 0.56164
11.69851 0.09355 3.48260 0 -7.29253 -0.99318 0.29678
-1.26353 0.13729 1.50568 0 23.62251 -3.47748 0.93445
0.34070 0.10923 0.45463 0 15.99728 -4.41731 0.43035
-21.37829 0.18515 9.45999 0 -16.58981 -6.70932 0.44213
11.78594 -0.04200 6.25393 0 5.60063 0.37380 0.52882
6.75414 0.08670 2.57241 0 -9.01414 -1.15615 0.37688
-2.97709 0.04771 0.79766 0 -19.05855 0.66425 0.25416
-6.51575 -0.05667 2.94736 0 -19.34439 0.63604 0.44722
0.43485 0.01509 0.62931 0 27.14310 0.51464 0.57712
-1.06609 -0.11296 0.76143 0 -16.00353 2.47632 0.52097
-1.60886 0.13337 0.80435 0 -1.04758 -5.17130 0.42470
-0.96778 -0.01309 0.39331 0 14.06809 -0.99665 0.34806
-20.58162 -0.17976 6.99044 0 -21.06845 7.08774 0.33939
-2.42380 -0.05351 2.96911 0 15.41496 2.14057 1.13246
-1.41313 -0.13906 0.99558 0 29.89806 3.34528 0.57515
-2.77263 0.00894 2.05495 0 21.89734 0.54645 0.69726
-2.47136 -0.06939 1.79830 0 -22.58117 1.40213 0.67464
0.61583 0.21951 0.60183 0 -19.39368 -5.44807 0.51247
2.09446 -0.01712 0.90634 0 28.83772 -0.71492 0.39057
-8.65418 -0.16518 3.76821 0 24.41130 3.82077 0.43265
-14.56823 -0.07954 5.45668 0 -29.79468 1.09428 0.37381
3.01985 0.11461 3.87343 0 29.66306 -3.78660 1.21768
-2.17906 -0.14317 0.77281 0 -26.76369 2.76246 0.32249
-15.80724 -0.09039 3.53296 0 17.46810 5.15742 0.22327
-14.29641 -0.15466 7.94812 0 -8.25264 5.68614 0.55469
-2.25858 0.04088 0.72148 0 -29.98974 -2.91299 0.29224
6.44774 -0.32222 1.97979 0 29.99790 7.86005 0.30358
23.43304 0.21811 16.53535 0 3.09184 -5.69257 0.70507
0.21632 0.11662 0.49089 0 -29.21444 -4.51518 0.47980
-6.72997 -0.05879 1.49821 0 28.75111 4.21186 0.22042
0.53341 -0.17350 0.60686 0 -16.14155 4.29822 0.53547
0.45953 -0.22776 0.42244 0 -22.42737 5.50371 0.38387
2.36292 0.12444 2.15748 0 -25.72409 -3.03293 0.84092
-0.27459 -0.14265 0.58607 0 -27.28785 3.43569 0.56515
-4.65250 0.04272 3.37957 0 -21.67080 -0.47982 0.71027
8.03170 0.05190 5.58836 0 8.78354 -2.22131 0.69053
4.53846 -0.16098 0.97760 0 -28.21714 2.43662 0.21054
0.53866 0.19425 0.57062 0 21.82151 -4.68359 0.50240
10.23359 0.22095 7.04593 0 -29.98579 -7.35796 0.68532
7.38712 0.30115 3.04176 0 5.56064 -7.56050 0.40816
0.46875 0.04795 1.07230 0 16.93735 -1.88649 0.97094
18.19794 -0.07166 11.63104 0 0.49891 1.42643 0.63825
-9.66336 -0.26454 4.60589 0 -26.44739 6.84577 0.47421
-8.85360 0.21858 5.60212 0 17.36276 -5.61413 0.62883
-1.60924 0.28562 1.00764 0 11.96497 -7.42543 0.53190
0.32965 0.11474 0.45294 0 28.28411 -4.58587 0.43018
17.42827 -0.28126 9.61555 0 -29.34779 7.49636 0.55090
-5.83624 0.02404 3.75030 0 26.79753 0.16726 0.63342
-21.67804 -0.19863 6.87370 0 -26.66026 4.36206 0.31690
-0.66002 -0.13229 1.16621 0 -7.31344 3.51331 0.97334
23.75602 0.14964 20.29193 0 28.82879 -3.79223 0.85348
2.03746 0.06876 1.08007 0 -22.28327 -3.06991 0.47596
11.77792 -0.01704 7.02064 0 -29.99959 1.45482 0.59403
-2.23967 0.34819 0.40090 0 12.66767 -7.09638 0.17509
0.05910 0.10606 1.01277 0 9.63954 -3.61661 1.01100
-16.23077 -0.02522 7.91685 0 -3.02855 -0.21242 0.48695
13.13550 -0.26313 13.34067 0 -29.95127 7.42211 1.01274
-1.03314 -0.12566 1.38428 0 -5.60020 4.39708 0.96278
0.12396 0.06670 0.48946 0 20.91547 -2.98541 0.48574
-3.46752 0.19426 0.78408 0 22.32982 -3.32030 0.21736
11.06734 -0.00897 7.94431 0 -9.76109 1.06603 0.71497
-24.45199 -0.26865 11.75561 0 3.61107 6.98077 0.48046
25.80396 0.18821 8.79715 0 -0.07883 -7.18064 0.34081
1.38781 0.05664 1.22361 0 -11.26268 -0.90144 0.71535
3.18506 0.34747 0.74882 0 -14.15910 -7.76767 0.22452
2.67107 0.24367 1.58377 0 -24.04240 -6.23960 0.55534
5.30083 -0.26288 3.48683 0 -9.56901 7.10540 0.64655
27.14365 0.16071 13.02377 0 26.52701 -5.86188 0.47959
20.62367 0.03836 16.36122 0 20.28794 -0.42383 0.79245
0.17556 0.05684 0.44725 0 -0.14985 -2.79697 0.44052
-0.23623 -0.00212 0.77990 0 -26.66499 0.81869 0.75902
-1.81636 0.12402 1.25055 0 -22.06801 -4.51335 0.60320
-18.04856 -0.21830 8.70606 0 -21.39751 7.78781 0.48173
-7.45746 0.11072 1.80582 0 -25.57242 -1.09613 0.24020
-3.83500 0.25360 1.98431 0 29.32859 -6.42403 0.50074
-1.59833 0.20534 0.69824 0 -5.34557 -4.63550 0.37045
4.68688 -0.15403 3.18003 0 19.40633 3.91023 0.66363
-1.64830 -0.08674 0.63942 0 28.61817 1.13535 0.33181
-0.15770 0.09174 0.31107 0 29.81215 -4.37837 0.30728
-2.15811 -0.06780 0.69991 0 -22.37358 3.88373 0.29437
-4.78017 0.16989 3.50348 0 -15.88400 -5.76556 0.71744
9.16329 -0.20978 3.83153 0 20.50228 7.71215 0.41579
5.54403 -0.06606 2.62683 0 28.89930 3.17298 0.46643
2.31740 0.14794 0.61338 0 26.02413 -2.21997 0.24322
25.51553 -0.01640 6.75556 0 29.88482 -1.36227 0.26474
-0.95643 0.29277 0.57670 0 -0.99806 -7.34566 0.41681
-9.86571 0.23307 7.94806 0 29.99796 -7.60856 0.80158
-20.64163 -0.15151 6.54584 0 -22.53078 5.87149 0.43076
-6.36409 -0.04455 6.81643 0 -29.38590 1.89356 1.07921
-7.59278 0.14420 4.13210 0 -24.70450 -3.27564 0.53964
0.47830 0.11421 0.58118 0 23.25183 -2.35721 0.52431
0.00383 0.13495 0.40359 0 23.27271 -5.28617 0.40359
-0.35326 0.02398 0.30201 0 22.26261 1.15968 0.28478
-2.31677 0.17594 2.76907 0 -22.01035 -5.68729 1.09743
0.37752 0.01760 0.72546 0 -28.51997 -1.20124 0.67872
11.24609 -0.07733 2.52933 0 23.83797 0.11499 0.22424
-26.60993 0.11620 15.10618 0 29.72176 -4.33135 0.56738
-1.32171 0.17828 0.45939 0 -8.66841 -7.25150 0.27727
-5.47630 -0.13195 1.86870 0 10.71388 2.49478 0.33587
-0.45804 -0.03665 0.47334 0 28.40327 2.37625 0.43037
-4.13458 0.04471 2.92428 0 20.40364 -0.51551 0.68749
3.45543 -0.07098 3.93394 0 -29.30015 1.74069 1.09365
7.92474 -0.29365 2.94056 0 23.82101 7.35911 0.36827
0.02125 0.14367 0.63682 0 29.43649 -5.06383 0.63667
4.74134 -0.09880 1.33950 0 17.60771 1.18575 0.27658
8.25415 -0.23877 6.46131 0 -9.32585 7.96731 0.77718
-0.74396 -0.18606 1.48376 0 -25.95930 6.11759 1.19046
-18.66922 0.12317 9.21097 0 5.91675 -2.56052 0.49277
14.49817 -0.23854 6.09744 0 -18.88602 5.93754 0.41969
1.34143 0.17785 1.33851 0 -26.34769 -5.92915 0.80003
4.67319 0.11293 1.97850 0 -3.51687 -4.57856 0.41414
0.57264 0.22601 0.71370 0 29.94283 -5.82036 0.61936
-5.38630 0.18523 4.37104 0 -29.82256 -4.80687 0.79794
-0.88004 -0.17674 0.63555 0 -3.52477 4.27436 0.47715
10.00719 0.03871 3.15028 0 27.58383 -2.72643 0.31340
21.63251 0.19963 6.54588 0 16.45376 -4.14999 0.30243
-0.59456 -0.14936 0.49627 0 23.99951 5.81781 0.42660
-4.31980 -0.01450 3.86110 0 -4.76076 -0.07069 0.87082
-0.39657 -0.15035 1.14532 0 -27.93230 4.09761 1.06467
1.35591 -0.06827 0.66465 0 18.20817 3.44387 0.39460
-0.47235 -0.08486 0.96019 0 27.51888 3.22423 0.86822
-11.23194 0.13697 5.25947 0 26.97306 -2.91091 0.46652
9.98273 0.27786 4.69730 0 29.38350 -7.05759 0.46830
-0.02856 0.15810 1.09971 0 -8.73833 -4.18140 1.09926
-0.73040 -0.23036 0.64334 0 -1.51329 5.94401 0.51956
-4.51500 0.14754 1.00564 0 -29.69273 -6.84540 0.21764
2.52316 0.12232 1.48490 0 -2.61404 -4.55198 0.54715
0.37213 0.24092 0.67007 0 4.79809 -6.27147 0.62801
-2.57622 -0.12994 1.38860 0 29.94114 5.03305 0.50256
-6.99103 0.18084 6.53465 0 -23.82047 -5.92774 0.92535
-0.58598 0.12790 1.02531 0 -29.91749 -4.35101 0.88463
-11.95869 -0.18834 5.11488 0 -24.33520 7.01678 0.42634
-0.35629 -0.22428 0.45467 0 -26.89669 5.54593 0.42831
1.37172 -0.16245 0.83337 0 -26.42846 3.88311 0.49100
16.80174 0.27870 8.71642 0 -20.13549 -7.19498 0.51796
8.13657 -0.31735 2.86884 0 23.64161 7.96428 0.35009
-3.21269 0.01005 5.56645 0 26.29737 -0.52948 1.65438
2.02919 -0.19332 1.37530 0 -11.64446 5.00149 0.60801
-23.29209 -0.16862 14.51193 0 9.43344 4.29077 0.62255
-0.60088 -0.01222 1.36435 0 12.49990 0.88533 1.16948
-4.14444 -0.07701 2.78700 0 -24.39491 3.18400 0.65374
-3.42795 -0.10451 0.64429 0 16.38057 0.36960 0.18053
-9.50277 0.22990 3.38456 0 29.98107 -5.28813 0.35435
-0.60035 0.17818 1.15706 0 3.73833 -5.80767 0.99204
1.34972 0.11593 0.51321 0 -8.05768 -4.80636 0.37472
2.87678 -0.15559 0.90221 0 -23.73809 6.69677 0.27847
-0.88766 -0.10317 0.48169 0 -14.80275 4.63538 0.36032
8.63561 0.19212 2.40590 0 -26.79496 -3.77178 0.27693
-12.16125 0.13176 10.29049 0 26.31270 -3.25258 0.84338
-0.13261 0.11412 0.45348 0 -25.95590 -4.51372 0.44955
-0.30449 -0.09914 0.63073 0 20.74080 3.92055 0.60338
-0.93602 -0.15954 0.48333 0 -15.94993 3.38302 0.35292
-20.55837 0.23029 8.46949 0 29.34144 -5.50901 0.41161
-1.38667 0.13728 0.85256 0 23.20053 -5.10245 0.49874
-6.49972 -0.16714 2.39413 0 -24.56849 3.65219 0.36419
7.17250 0.00866 1.15349 0 -10.88648 2.02061 0.23340
2.17170 0.04498 1.06890 0 -26.95039 -2.42038 0.44713
-0.41059 -0.20592 1.07848 0 22.60311 6.80839 0.99767
22.72832 -0.20352 14.94950 0 25.75750 5.36850 0.65719
-13.51523 -0.23515 19.39160 0 27.91605 6.75054 1.43092
-1.69153 -0.11612 2.28944 0 -29.07904 4.01410 1.16514
1.44921 -0.07512 0.94695 0 28.56415 3.29887 0.53787
0.42102 0.00884 0.32785 0 -29.93608 -1.88266 0.30219
-4.93308 -0.01065 2.48587 0 12.00698 -0.63464 0.49403
9.24852 0.03276 5.24437 0 29.91525 0.00548 0.56385
-0.11452 -0.01297 0.24894 0 0.77152 -1.60312 0.24733
-1.04578 0.25291 1.65709 0 -24.26573 -7.01978 1.14526
-4.21977 0.00029 2.36974 0 -29.00086 1.00853 0.54658
-0.05733 0.19427 0.37320 0 29.11441 -7.22723 0.37259
-1.93068 -0.13728 1.50340 0 -12.10553 3.44413 0.69149
3.92289 -0.09823 1.13952 0 -18.29043 4.89919 0.28156
-0.22288 -0.19874 0.71716 0 -23.37834 6.82555 0.69999
-1.05954 -0.15991 0.71771 0 22.42400 5.96976 0.49269
-2.43473 -0.29837 1.17749 0 21.77557 7.76218 0.44747
0.13333 0.11845 0.91530 0 -19.71785 -2.89922 0.90727
7.38665 -0.21177 6.87128 0 26.48779 7.03164 0.92187
2.40725 -0.27646 1.09646 0 -23.70801 7.04681 0.42083
6.93694 0.00967 4.95738 0 -25.01530 -0.93217 0.70739
-0.10279 0.08010 0.61338 0 -28.36900 -3.17189 0.61016
-1.44753 0.03307 0.89720 0 -0.65907 0.09201 0.51000
-15.38089 -0.03859 5.12337 0 8.53272 -0.29946 0.33254
-0.92453 -0.19523 1.19514 0 -18.40434 6.55919 0.87759
12.64676 0.08068 11.35385 0 -17.32304 -2.91771 0.89503
20.04735 -0.16472 10.54719 0 -6.44288 4.02026 0.52555
-8.69139 0.02682 2.11693 0 -14.01030 1.39213 0.24217
-3.05696 -0.27945 1.92953 0 -18.24119 7.52577 0.60000
0.50077 0.00797 0.55097 0 24.04493 -1.19733 0.49267
-0.64358 0.03758 0.41143 0 24.62681 0.43235 0.34602
16.51670 0.15432 8.03123 0 -11.77708 -5.65266 0.48546
1.50022 0.21118 2.26152 0 20.54525 -6.69185 1.25437
3.39463 0.07170 2.47220 0 -10.66286 -1.33469 0.69862
8.98464 0.31549 3.05285 0 -26.07788 -7.69049 0.33784
-0.59703 0.19071 0.85303 0 29.59303 -6.38334 0.73243
-1.31102 0.05042 0.28894 0 29.69540 0.89089 0.22054
