-3.55888 -0.21679 2.81144 0 -1.38200 5.87160 0.76064
-3.20071 0.01546 0.82907 0 29.87416 -2.46449 0.24732
0.91284 -0.15621 2.32129 0 26.16970 5.07766 1.71442
5.75154 0.12240 1.92717 0 -14.54298 -2.02416 0.33032
-0.47141 -0.10882 0.38718 0 13.41603 1.87246 0.35024
1.35501 0.31694 0.35102 0 11.99375 -6.72396 0.20859
8.92961 0.06095 4.81831 0 -14.44594 -0.79155 0.53633
0.21698 -0.07569 0.52810 0 6.94048 3.35718 0.51609
14.03109 -0.22868 3.94188 0 -18.63116 5.02095 0.28040
-5.88884 0.01999 9.75858 0 -10.01764 -0.83155 1.63380
-16.61586 0.02706 8.65365 0 9.20887 -1.71745 0.51996
-10.14879 -0.00238 5.33429 0 21.91399 -0.82514 0.52317
-4.69808 0.03209 5.58651 0 -0.97358 -1.32217 1.16308
-0.84303 -0.03440 0.81480 0 13.93042 0.29239 0.62300
-0.91582 -0.06262 0.68413 0 -18.38511 0.94398 0.50455
-0.33308 -0.15816 0.71405 0 17.05519 5.61602 0.67747
0.19651 -0.22198 0.71040 0 9.21842 5.96069 0.69707
10.70106 -0.18085 6.20707 0 -19.03411 6.44651 0.57761
21.23002 -0.07907 17.53477 0 -26.42080 3.08095 0.82509
-1.54640 0.06706 0.51655 0 18.73504 -3.78653 0.28060
-1.41677 -0.04619 0.59491 0 -3.64062 -0.02414 0.34316
0.54026 -0.12211 0.45366 0 -16.17865 2.44647 0.39918
0.96358 0.31383 0.53052 0 -25.26893 -7.83388 0.38208
1.33557 -0.06900 0.46212 0 -21.75461 0.30167 0.27705
3.06288 0.25170 3.70270 0 -16.82322 -6.98573 1.14925
-4.23537 -0.04979 1.79893 0 28.50815 2.74819 0.43968
4.06111 -0.25883 2.59004 0 -29.73365 6.94903 0.61944
2.92913 -0.00186 4.40802 0 2.05555 -0.22186 1.42421
-16.35138 0.01629 6.40147 0 1.69838 0.90129 0.39089
-25.49762 0.05686 7.75372 0 22.01126 0.05939 0.30402
-1.12117 0.19615 0.35654 0 29.74826 -3.57660 0.23741
3.34994 -0.09160 0.55016 0 12.94553 -0.43127 0.15747
-0.40283 -0.12017 0.50645 0 -2.56955 4.80952 0.46978
4.15319 -0.14374 2.60761 0 -26.68859 5.26466 0.61049
-6.36798 0.29162 1.72003 0 25.27845 -6.58944 0.26892
15.84959 0.24307 15.00928 0 -1.48137 -7.80578 0.94515
19.24135 0.13262 14.20906 0 -26.91159 -3.19000 0.73754
2.67388 -0.05747 0.60198 0 -29.99897 4.27876 0.21106
0.50539 -0.13287 0.39172 0 18.61763 2.58220 0.34963
9.85256 0.03197 2.17750 0 -24.30637 -3.22979 0.22010
0.71045 0.21351 0.61959 0 22.43430 -7.42355 0.50513
0.59924 -0.07447 0.43959 0 22.42316 3.69419 0.37711
-1.30123 -0.18002 0.43041 0 -28.20058 7.58444 0.26245
-14.68486 -0.22618 16.71214 0 23.91229 6.38466 1.13547
-13.41949 -0.13374 7.35352 0 29.94308 5.06295 0.54655
1.48137 0.14449 1.88928 0 14.55291 -4.75467 1.05708
15.15011 0.17656 9.92409 0 -23.42553 -4.40374 0.65370
0.59954 -0.19657 1.75427 0 13.92203 6.33978 1.50458
8.57234 -0.30100 4.42373 0 -13.20074 7.99750 0.51266
-4.42285 -0.25300 2.93238 0 -28.01679 6.81299 0.64532
0.05338 -0.24386 0.57099 0 13.98743 6.43310 0.57018
0.78978 -0.12428 1.08075 0 25.59374 3.19574 0.84816
-0.69916 0.08179 1.52010 0 -13.29479 -1.95893 1.24582
0.26499 0.00400 0.68961 0 -28.60834 -0.80632 0.66661
0.56555 0.11104 0.52688 0 28.93280 -2.12271 0.45864
-4.68220 -0.13859 1.72043 0 28.07147 5.72520 0.35946
-19.60855 0.14518 13.82888 0 6.37932 -3.53026 0.70440
-25.90932 -0.06237 10.75550 0 -11.69314 3.19993 0.41493
4.96142 0.05679 3.72044 0 9.59429 -0.92517 0.73519
0.20735 0.09388 0.23722 0 -25.84408 -0.52425 0.23229
0.17251 0.24143 1.10882 0 -25.31905 -6.65620 1.09268
-8.90774 0.26762 3.70438 0 -22.62791 -6.60388 0.41338
-0.27678 0.10244 0.37314 0 26.92104 -4.45333 0.35963
4.44879 -0.20728 1.77161 0 -18.88482 4.92185 0.38870
-1.11169 0.00657 0.31644 0 23.71980 -2.54843 0.21175
-11.95481 -0.02546 3.09691 0 29.57685 -1.13758 0.25834
-3.83666 0.11622 1.59185 0 -27.63170 -2.23654 0.44287
-11.75678 0.19159 3.33761 0 11.61426 -4.23153 0.37019
-4.72544 0.20493 3.65940 0 21.25760 -5.35549 0.75768
14.17667 -0.11166 12.86408 0 -29.99163 4.00898 0.90522
5.88712 0.00282 3.08499 0 -4.93013 -0.99376 0.51674
11.44221 0.14433 4.37435 0 13.98382 -2.87991 0.38097
-2.28301 0.22094 4.16504 0 28.20584 -6.87691 1.67111
2.72767 0.16417 1.63150 0 -26.82511 -3.90524 0.56167
-0.51621 -0.18859 0.31932 0 29.98002 3.87656 0.28378
-17.91885 -0.08680 8.26522 0 24.58302 3.81632 0.46065
-2.95320 0.08717 2.02827 0 3.35210 -1.74225 0.65055
-1.81677 0.09970 1.98190 0 26.84925 -3.45457 0.95573
-0.23671 -0.06473 0.92694 0 11.64245 2.59505 0.90202
-6.47822 0.16356 1.86625 0 29.95243 -6.73748 0.28488
-25.65459 -0.07421 8.41540 0 29.34881 1.05649 0.41009
0.24793 0.13792 0.85665 0 -26.71920 -4.69269 0.83148
23.71744 -0.09870 7.58555 0 -29.98155 1.43251 0.31970
0.21245 -0.20066 0.37104 0 29.93916 4.63167 0.36294
0.06085 -0.20492 0.52272 0 29.92012 7.28643 0.52176
-12.33658 -0.19014 3.76000 0 -15.01996 7.60500 0.30395
-1.45151 -0.12079 0.72163 0 4.84895 2.43983 0.40948
0.46098 0.04689 0.44270 0 -29.82068 -0.05274 0.40206
-0.27634 -0.10099 0.32429 0 -12.48499 1.46404 0.31259
-6.87411 -0.02228 4.42128 0 19.40213 -0.05359 0.63655
-2.08125 0.13463 0.80238 0 25.11678 -2.46322 0.34761
15.64180 0.19189 6.00300 0 -25.06111 -4.28805 0.38312
9.01500 -0.04506 3.82183 0 9.94470 0.21899 0.42147
9.69500 -0.24142 5.45884 0 -25.81711 6.34433 0.56017
-1.27580 0.17876 0.62501 0 -24.30208 -3.91122 0.38564
0.95209 -0.29496 0.43205 0 27.89855 7.13314 0.31298
2.64631 0.16286 0.85447 0 4.64399 -3.07178 0.30219
-6.46366 -0.21927 4.44871 0 28.88668 5.86158 0.68024
-1.57846 0.06526 0.39908 0 -17.05834 -4.32518 0.21371
0.31861 -0.13227 0.73388 0 19.47739 4.80506 0.69926
4.40693 -0.07068 2.02798 0 -17.88431 3.35686 0.44890
15.69909 -0.11177 12.45366 0 29.55774 4.09550 0.79173
0.52074 0.23359 0.71341 0 28.37393 -7.81340 0.63278
-9.49120 -0.26052 4.43018 0 19.35320 6.70375 0.46430
-16.16309 0.03493 6.60844 0 2.43377 0.28629 0.40820
-2.53956 0.10686 3.10182 0 28.91377 -2.66842 1.13654
3.19321 -0.05997 1.64372 0 19.89116 2.93190 0.49129
0.47253 -0.21649 0.79041 0 -4.00972 7.35060 0.71465
-0.38652 -0.22852 0.58008 0 -6.42962 7.97280 0.54108
-4.95502 -0.24672 3.56798 0 6.83417 6.70085 0.70595
0.10885 -0.16998 0.85815 0 21.87688 4.55925 0.85311
0.38873 0.18010 1.18765 0 28.74276 -4.83985 1.10696
-20.47197 0.01721 18.84025 0 -27.07844 0.12106 0.91925
-26.70562 0.18658 8.65049 0 27.50045 -7.21684 0.32384
0.93856 -0.05324 0.53023 0 -29.55947 2.99319 0.39301
-23.11258 0.09566 7.81275 0 22.88493 -1.26563 0.33786
0.61117 -0.08347 0.50766 0 29.54786 1.39376 0.43128
-17.00222 0.08174 12.46677 0 10.40715 -1.66799 0.73205
-0.63563 0.23615 0.54697 0 5.20620 -5.82144 0.46165
0.96727 -0.08164 1.37982 0 -6.18763 2.01129 0.99180
2.08284 0.22238 0.76330 0 -26.13146 -4.96099 0.33046
-10.06034 0.04658 2.88596 0 29.88113 0.47572 0.28563
-8.83799 -0.05460 4.84938 0 28.68450 2.66498 0.54531
15.48408 -0.06094 10.54883 0 2.75138 2.66822 0.67992
2.61293 -0.18520 1.76673 0 28.21546 6.49802 0.63160
1.47393 -0.22654 1.27348 0 -29.69651 6.11494 0.71503
-8.55227 0.25190 2.72013 0 -7.71476 -5.74517 0.31606
-10.14807 0.03064 7.84625 0 2.03206 -1.50434 0.76951
-5.98615 0.32044 0.81262 0 -10.09024 -5.39351 0.13401
-16.08574 0.12837 19.34646 0 23.05912 -3.33497 1.20043
-1.15316 -0.06808 0.62412 0 -27.82730 0.87007 0.40897
-18.70696 0.13273 15.02435 0 -11.10766 -3.24975 0.80206
18.17713 -0.19640 21.43240 0 -13.55704 6.43565 1.17735
0.66525 -0.17270 0.73242 0 -12.02879 6.14766 0.60983
0.17304 0.08380 0.20827 0 -29.94611 -5.00401 0.20523
9.77993 0.19618 2.44171 0 3.50009 -3.67574 0.24856
-1.63841 -0.06174 0.76516 0 25.89758 0.64854 0.39874
2.85753 -0.13978 1.37192 0 17.52872 3.12421 0.45322
0.81167 -0.01624 0.97508 0 17.55177 1.24482 0.75711
-3.03764 -0.12979 3.06008 0 26.21253 4.52527 0.95691
21.88978 0.04744 12.87106 0 -27.64676 -0.47049 0.58746
1.34023 -0.16632 0.70073 0 -12.44319 3.81539 0.41916
1.24505 0.07422 0.84956 0 26.45125 -1.18024 0.53207
-1.72900 0.17114 0.41876 0 -29.30455 -7.69030 0.20982
-2.29016 -0.13564 1.29190 0 5.28740 3.14250 0.51704
0.34710 0.25719 0.27954 0 -13.50424 -5.59173 0.26759
-25.05611 -0.04320 24.07141 0 -29.37856 0.84410 0.95999
26.71087 -0.16061 16.55516 0 -18.14877 4.04928 0.61944
-17.47787 -0.19126 9.81791 0 -29.46091 6.79340 0.56090
-18.18679 -0.15532 26.94053 0 -21.35058 5.10026 1.47913
0.95956 -0.06677 0.74090 0 5.92676 3.05182 0.53464
25.01937 0.05246 6.68441 0 15.44149 -3.43501 0.26714
2.21131 -0.15432 0.52086 0 -15.78025 7.25721 0.21474
-22.21713 -0.17744 13.63646 0 -1.71362 6.28719 0.61324
-4.65959 -0.22090 0.72991 0 -9.12105 3.25520 0.15330
5.71979 0.18924 1.08508 0 5.31340 -2.78958 0.18707
1.32444 -0.19307 0.63070 0 27.86079 7.32284 0.38011
-4.61422 0.18527 2.73892 0 28.72779 -6.41474 0.58017
-4.99705 0.18302 1.78387 0 -10.15865 -6.97544 0.35016
2.86622 0.08201 2.38581 0 4.71413 -1.72410 0.78597
1.18129 -0.11028 0.53619 0 -18.88560 1.90017 0.34651
-18.66231 -0.29511 10.13815 0 -26.41997 7.88572 0.54255
-20.18341 0.27092 9.02279 0 -8.76641 -6.79836 0.44660
3.16761 -0.12703 1.22262 0 11.72686 5.33458 0.36819
-0.26903 0.12949 0.38387 0 29.81049 -5.23759 0.37070
3.61116 -0.24637 0.60163 0 -22.96675 4.13696 0.16072
22.77135 0.06709 11.09294 0 -0.38450 -2.99488 0.48678
11.84494 0.13009 2.07593 0 -11.40023 -5.80347 0.27005
6.04781 0.09573 10.11667 0 -24.54828 -3.10529 1.65044
-0.29100 0.12699 0.27821 0 -25.39416 -5.72948 0.26715
-3.23689 0.23395 0.81573 0 5.96003 -4.70236 0.24087
-1.92884 -0.30706 0.68077 0 21.94326 7.48341 0.31347
-0.54422 -0.13309 0.79900 0 -12.14920 3.33065 0.70181
9.13832 -0.25966 6.21382 0 -8.98341 7.04771 0.67601
-5.01292 -0.24141 1.86381 0 10.54923 5.82867 0.36469
0.99524 -0.02321 1.44469 0 4.49150 0.27823 1.02402
6.39162 -0.17937 6.49452 0 -6.93254 5.99989 1.00393
-26.30790 0.11523 12.86421 0 -28.14720 -4.45249 0.48873
-3.98246 0.22305 2.61530 0 29.72789 -7.48460 0.63697
-24.59042 0.11227 14.71479 0 -18.73719 -4.16425 0.59798
2.86732 0.11193 0.54471 0 0.11246 -6.27000 0.17952
5.57751 -0.07215 2.06970 0 -11.26762 3.66853 0.36536
-23.89331 -0.04902 23.18414 0 10.73398 2.08204 0.96952
-8.44994 0.13958 3.24838 0 -21.63776 -2.74286 0.38189
-21.36967 -0.04015 7.79546 0 27.89651 2.69969 0.36453
-15.56354 0.09578 6.37058 0 3.12178 -1.53190 0.40860
-5.45506 0.09979 2.56219 0 28.70438 -1.79626 0.46206
-0.02041 0.08638 0.28075 0 18.13443 -4.37827 0.28069
8.75067 0.22488 5.09949 0 4.46505 -5.72654 0.57907
-2.40469 0.06499 0.90311 0 22.83992 -0.39145 0.34689
-19.91490 -0.17173 18.83593 0 -24.30634 4.67119 0.94469
0.32080 -0.04329 0.86155 0 29.99934 2.00612 0.82038
-9.88182 0.16380 5.04406 0 27.59833 -3.79612 0.50794
1.55074 -0.18179 1.23093 0 27.75610 4.73741 0.66714
-24.34693 0.09532 21.88544 0 -25.05357 -3.35745 0.89820
-4.98994 -0.11915 0.69592 0 -25.75455 -0.07534 0.13796
15.22496 0.29754 8.41536 0 29.77661 -7.77092 0.53055
-17.41823 -0.18326 4.25812 0 -29.34487 3.42507 0.24426
-0.02384 0.06645 0.64158 0 -28.90643 -1.11221 0.64140
-4.19677 0.26957 0.84872 0 25.34103 -5.23194 0.19684
-9.16530 -0.00156 3.86383 0 28.08764 1.34944 0.41920
-1.07065 -0.26925 0.69387 0 27.94502 6.98223 0.47368
3.36147 -0.14625 1.80001 0 26.90413 5.50798 0.51339
1.89000 0.18243 0.85546 0 28.48590 -6.75749 0.40015
0.03920 -0.11775 0.45628 0 -1.60371 2.47766 0.45593
-1.75132 -0.13494 0.80028 0 -9.54805 2.81933 0.39697
10.20211 -0.33071 2.14716 0 8.82463 7.28696 0.20969
-3.38160 0.23090 1.22923 0 23.03727 -5.29304 0.34873
2.93056 0.24546 2.66238 0 -9.04666 -6.63973 0.85984
4.39269 -0.22021 1.12967 0 -5.11892 4.55528 0.25094
3.19836 0.04711 1.82685 0 20.72870 -0.39318 0.54523
-11.19179 -0.13755 2.87551 0 -13.17513 2.18310 0.25610
-16.03690 -0.12155 4.29945 0 -29.01257 5.71860 0.26776
0.46460 -0.26021 0.24188 0 -27.12065 5.40430 0.21940
-2.82480 -0.01004 1.22815 0 -3.61980 1.63259 0.40997
9.70610 -0.17072 6.31258 0 19.61702 4.38503 0.64702
-0.10696 0.14033 0.52818 0 28.38255 -3.13449 0.52518
-5.82526 0.04712 3.86059 0 29.41633 -2.11980 0.65326
-1.19971 -0.11577 0.70894 0 29.38145 2.41407 0.45398
-24.35727 0.15685 32.66562 0 2.19188 -5.02146 1.34002
-22.15222 0.28478 8.28730 0 29.49440 -6.96212 0.37386
-8.22532 0.07122 4.63371 0 20.35838 -2.98118 0.55931
-10.43527 0.10964 2.44551 0 26.44238 -1.00279 0.23349
9.93887 -0.21230 10.59445 0 12.29826 6.96889 1.06065
11.31060 -0.07721 18.30054 0 -9.56301 2.07813 1.61174
-0.12751 0.16623 1.57208 0 22.55706 -5.24845 1.55945
-0.48991 -0.01018 1.85423 0 23.93916 0.07962 1.66515
-3.36103 0.02660 1.45878 0 17.63406 0.51235 0.41606
0.44274 0.14611 0.23764 0 22.86582 -1.91460 0.21733
-0.24523 -0.01343 1.32772 0 28.04284 0.88086 1.28952
-1.85168 -0.20022 1.36838 0 29.97615 5.26238 0.65028
-6.11438 0.00371 1.86717 0 -13.01974 -1.73144 0.30153
1.59788 -0.07399 1.03325 0 17.61570 3.24634 0.54821
16.37688 0.11752 11.25386 0 -27.96426 -2.68765 0.68597
-3.52678 0.14689 0.78811 0 -1.60703 -6.85545 0.21512
-3.36723 0.06921 1.30270 0 -22.06321 -0.61310 0.37096
0.38575 -0.01337 0.39223 0 14.63559 1.88433 0.36597
3.33985 -0.14915 2.27387 0 -19.31046 5.37268 0.65226
17.61756 0.12448 9.66106 0 -29.99927 -4.61681 0.54758
-2.14011 -0.02134 1.19770 0 2.85947 -0.28688 0.50707
0.74939 -0.16778 1.93667 0 -11.46703 4.77138 1.54719
-0.42680 -0.04420 0.35225 0 -11.75628 -0.17205 0.32400
1.59568 0.16802 0.69505 0 28.71940 -3.53520 0.36921
0.82159 -0.00655 0.95260 0 29.82309 0.97276 0.73607
16.08755 -0.17781 7.81508 0 6.45249 4.32349 0.48495
-25.34270 0.14386 14.24050 0 -5.86769 -3.30323 0.56157
-5.39598 0.23268 3.59847 0 10.04861 -6.06539 0.65580
-5.33638 -0.01686 2.88594 0 -6.83900 -0.37498 0.53159
18.65710 0.08961 4.10707 0 14.82254 -0.27440 0.22004
-0.37369 -0.00147 0.73430 0 -2.40965 -0.61821 0.68785
-3.91823 -0.12811 4.61151 0 -2.43957 4.38572 1.14044
-0.00156 -0.09205 0.89764 0 -27.76687 3.42177 0.89763
-0.81254 -0.18320 1.31115 0 4.15085 6.10861 1.01760
-0.84180 -0.05890 1.06219 0 -23.90047 1.21718 0.81263
-2.54458 0.11919 0.49183 0 -7.41759 -0.63362 0.18004
-17.14273 -0.10956 16.61110 0 -29.14977 2.83192 0.96739
0.01744 -0.17504 0.27040 0 -13.48344 7.36482 0.27036
18.32010 -0.26871 21.39367 0 -9.48867 7.65971 1.16608
10.80248 -0.10436 5.36502 0 -15.80873 2.16808 0.49463
2.18976 0.02566 1.82803 0 21.92778 -1.36330 0.75940
19.33414 -0.09507 18.16310 0 19.92375 2.38303 0.93823
-3.34470 -0.06753 0.99634 0 4.03776 0.31269 0.28550
1.80329 0.13994 0.40356 0 -6.28528 -1.47486 0.19587
0.19266 0.25899 0.74130 0 -1.38682 -6.92349 0.72792
-5.91851 0.00837 0.78765 0 28.97772 3.78191 0.13132
1.11920 0.20498 1.19092 0 28.35515 -5.38861 0.79352
1.43028 -0.08697 1.20164 0 10.26863 3.44489 0.68860
14.64399 0.10902 9.21623 0 -14.68831 -2.36506 0.62797
-6.83211 -0.18035 4.54338 0 0.97086 4.68399 0.65807
-7.63126 -0.01369 6.78265 0 -13.48017 1.07254 0.88132
0.23502 0.08506 0.80738 0 28.86550 -1.81530 0.78597
6.36175 -0.23764 5.26361 0 23.58416 6.53787 0.81741
13.72027 -0.09641 5.44483 0 -20.07862 4.29626 0.39592
-16.31359 -0.06988 7.10321 0 -26.54015 0.99782 0.43471
-0.65409 0.27617 1.69245 0 -28.94889 -7.80369 1.41639
-3.90421 0.12850 2.49968 0 -17.22817 -4.62489 0.62032
-3.83378 0.25030 1.88528 0 12.03507 -6.27093 0.47595
-1.95385 0.25232 4.06286 0 23.29878 -7.79276 1.85107
-0.55189 0.00986 1.51369 0 8.99370 -0.60032 1.32527
-6.05653 0.12652 3.46609 0 27.95107 -2.79371 0.56473
15.02880 -0.16305 23.43629 0 -6.73675 4.63230 1.55602
2.32960 -0.00694 2.16652 0 -0.48443 -0.30866 0.85462
13.74785 0.26631 8.41000 0 -21.24341 -6.99313 0.61020
2.07238 0.17232 0.57035 0 17.31495 -2.97505 0.24800
0.24494 0.04360 0.32833 0 28.83730 -2.86345 0.31560
-3.12167 0.03616 1.18060 0 -28.44024 -2.43321 0.36028
23.23015 -0.02774 13.29943 0 15.24993 1.81033 0.57206
10.39147 0.25240 2.69472 0 27.24004 -5.38229 0.25831
0.99711 0.15048 0.35695 0 -20.82199 -2.37553 0.25289
-3.51346 -0.23514 1.02623 0 -14.82723 5.20900 0.28053
-7.55106 0.25331 11.57461 0 -29.93459 -7.15083 1.51961
-1.03594 0.20043 1.39267 0 -29.75520 -6.49636 0.96726
-11.14918 0.13080 5.28907 0 19.22031 -4.96442 0.47260
2.94773 0.01564 1.20190 0 29.54725 0.93684 0.38619
-0.67635 -0.18614 0.74211 0 29.49932 4.79873 0.61473
-2.73690 0.02971 0.39509 0 -9.31825 -3.01189 0.23471
-14.54899 0.12551 5.27383 0 -28.12991 -5.15129 0.36177
-1.53619 -0.05193 1.34597 0 29.97355 0.94172 0.73437
-1.67164 0.10766 0.62161 0 14.84746 -1.53352 0.31926
3.17231 -0.01267 0.96707 0 8.84210 2.22799 0.29083
0.96301 0.19181 0.68655 0 29.83430 -6.78040 0.49456
6.92603 0.11625 7.04473 0 -28.54390 -2.89022 1.00675
-3.63580 0.18850 1.55521 0 -4.33852 -4.28601 0.41249
14.65424 0.10154 3.63052 0 26.56450 -0.88598 0.24737
2.77451 0.15932 1.09011 0 28.37302 -3.28136 0.36984
6.07278 0.02065 2.73415 0 8.40017 -1.69273 0.44435
-0.01851 0.28598 0.27096 0 23.30559 -6.44307 0.27091
-11.90598 -0.14734 14.05909 0 -23.73641 4.05478 1.17674
-0.22232 -0.18846 0.65658 0 -27.84468 4.90271 0.64094
0.79716 0.21084 0.77793 0 -28.94765 -7.15266 0.60833
-0.38658 0.00514 0.51360 0 -27.10311 -1.14163 0.47907
1.61656 -0.19077 0.84645 0 -24.57412 4.60950 0.44540
-0.93658 0.15207 1.19285 0 26.03282 -3.87657 0.87066
-0.04101 0.04784 1.03726 0 24.99144 -0.85956 1.03638
-0.14238 -0.10586 0.50289 0 -29.99791 2.21934 0.49788
-1.05809 -0.02957 0.40820 0 -25.77013 2.80667 0.28045
-1.80395 0.29347 0.81973 0 15.00838 -7.30184 0.39754
0.62768 -0.09064 0.62124 0 29.70203 3.79082 0.52621
-5.20955 0.10944 3.36228 0 17.86170 -4.02839 0.63390
0.15188 -0.05019 0.35290 0 17.49488 0.12023 0.34890
6.71953 -0.07466 8.59801 0 25.49793 1.91457 1.26566
0.74427 -0.04326 0.50380 0 -29.93065 2.65424 0.40421
4.29470 -0.03729 1.86281 0 -24.12340 -0.01048 0.42258
1.11847 -0.25023 1.21531 0 21.92705 6.90412 0.81007
2.97258 0.21932 3.42456 0 -0.78784 -7.00417 1.09197
-3.42545 -0.00063 2.39808 0 28.57704 -0.66075 0.67209
1.00139 -0.00556 0.44845 0 -26.39351 -1.36823 0.31697
11.62303 -0.19843 3.29316 0 -27.95498 4.15509 0.28246
-0.22946 -0.08483 0.71649 0 8.58364 3.36955 0.69834
1.75133 -0.22677 2.83787 0 -22.14302 7.27820 1.40720
-0.26729 -0.07681 0.67452 0 -23.62069 3.17525 0.65601
-10.12353 0.14017 14.93461 0 -12.18901 -4.48366 1.46813
-13.99406 -0.05353 9.17023 0 -1.25924 2.47514 0.65370
-3.42352 0.07603 1.91914 0 22.86304 -1.24529 0.53821
-12.07377 -0.03587 6.15830 0 20.33589 2.16824 0.50841
9.35235 -0.10806 11.82471 0 -22.60365 3.73793 1.25723
-0.20050 0.17363 0.46929 0 29.99602 -3.97945 0.46014
-0.72001 -0.11670 0.30874 0 -7.72214 1.52407 0.25061
-0.46276 0.21475 1.03137 0 22.38391 -5.78141 0.93601
1.25778 -0.03894 1.17159 0 -16.99556 0.54772 0.72915
0.76047 -0.08422 0.91519 0 2.65158 3.32025 0.72850
-6.10438 -0.21745 5.90815 0 -29.79008 7.18322 0.95517
-1.88733 -0.19126 0.85431 0 16.58597 4.48880 0.39967
1.53409 0.22987 1.79081 0 -14.93571 -7.38449 0.97797
2.42546 0.08268 1.27847 0 -13.28930 -3.46584 0.48750
0.77274 -0.23283 0.45869 0 16.33312 5.57207 0.36300
-21.50550 0.27617 17.11792 0 -27.58929 -7.49454 0.79518
-4.10311 -0.12078 1.44456 0 -2.80204 2.19289 0.34222
-1.60567 0.15619 1.45141 0 20.01788 -3.91812 0.76733
2.17364 -0.12123 2.24446 0 13.68242 4.27770 0.93811
0.47234 0.19251 0.44091 0 21.99165 -7.07400 0.39870
-7.12006 0.01300 1.86391 0 -13.35983 -2.29151 0.25942
-9.38989 -0.11519 4.31961 0 21.45278 2.40575 0.45755
-12.71854 0.09756 3.60870 0 -25.98347 -4.70640 0.28303
10.39364 -0.14260 7.66319 0 -10.60568 3.64596 0.73397
-16.51291 -0.28468 12.68630 0 29.86247 7.88197 0.76692
16.85625 -0.16626 5.60487 0 -26.01907 3.48851 0.33207
1.64581 0.19386 1.06223 0 -13.48772 -4.76621 0.55166
-14.91148 -0.14335 3.24611 0 8.74407 1.99718 0.21743
1.64189 0.22053 0.41569 0 -29.83130 -4.06946 0.21638
-6.44389 -0.30816 1.98214 0 29.84202 7.46095 0.30412
-9.20352 -0.20731 4.55996 0 29.99501 7.42367 0.49266
6.74260 0.11664 4.58005 0 25.97565 -4.19948 0.67199
3.09832 0.07886 1.17887 0 29.95419 -3.72308 0.36218
1.45086 -0.07627 0.52005 0 0.51442 4.13736 0.29523
-3.36544 0.11667 1.46186 0 -27.28191 -4.68547 0.41652
-2.77835 0.07307 2.55582 0 4.06453 -2.70813 0.86560
0.33952 0.11861 0.46625 0 -29.57885 -4.67205 0.44151
-0.91816 0.13608 0.81219 0 17.04288 -4.88702 0.59830
0.17343 -0.05171 0.67406 0 -17.83574 0.86146 0.66415
1.55871 0.28356 1.75780 0 2.85985 -7.82703 0.94922
6.00375 -0.10467 7.76439 0 0.90299 3.62970 1.27572
17.89105 0.08939 13.74880 0 -26.69603 -3.27768 0.76734
10.28362 0.20365 3.09045 0 19.16043 -4.24892 0.29927
-0.34082 0.00266 0.36005 0 19.12386 -1.50259 0.34081
-7.87697 -0.07979 4.78892 0 24.73339 1.62269 0.60320
-4.83179 -0.25765 1.17951 0 -28.66916 5.53127 0.23919
-4.66942 -0.16552 3.32755 0 3.12499 4.28888 0.69688
-14.64967 -0.25591 8.42862 0 -9.21789 6.79339 0.57410
0.56121 0.15548 0.97231 0 -20.91180 -5.21224 0.84792
-0.00727 0.16076 0.35018 0 -23.14438 -3.24489 0.35017
6.23781 0.17703 2.91707 0 -29.66101 -4.08399 0.46185
16.70673 -0.22731 9.99570 0 -24.91291 5.98890 0.59732
1.91087 0.22152 1.22212 0 -17.83315 -5.63457 0.58342
-10.18584 0.03670 3.84500 0 -29.94501 -2.38994 0.37581
0.77817 -0.16800 0.59711 0 -28.34544 6.26778 0.47128
0.59442 -0.15108 0.94735 0 -28.38056 3.96808 0.81435
2.10827 0.01609 0.57085 0 -10.48979 1.69246 0.24485
-15.90654 -0.12844 12.76111 0 25.92792 4.59274 0.80074
-17.34301 0.14281 8.60005 0 6.03573 -3.14826 0.49516
-2.35446 -0.13074 1.04728 0 20.31710 2.73459 0.40948
-4.71174 -0.11725 5.91700 0 -11.37029 3.17541 1.22853
-1.78327 0.03127 0.55685 0 -25.18785 1.02148 0.27252
0.27049 -0.12405 0.75130 0 -9.48048 4.52867 0.72524
-0.13160 -0.10511 0.59687 0 -23.95853 4.11873 0.59177
-5.25004 0.28438 3.00506 0 -20.33346 -7.44569 0.56236
2.11636 0.11958 1.63880 0 -17.33609 -4.25674 0.70018
0.47861 -0.14606 0.93572 0 29.88832 3.84155 0.84404
20.24848 0.11554 9.49966 0 -26.89831 -4.50853 0.46869
4.52501 -0.12895 1.16505 0 3.65046 6.08074 0.25153
-4.33001 -0.17337 3.43121 0 2.17797 5.98011 0.77218
7.37835 -0.12634 2.34480 0 19.22753 5.56136 0.31507
-0.17429 0.11640 0.90840 0 22.35432 -3.99639 0.89491
1.23163 0.14836 0.59501 0 6.33533 -2.97781 0.37512
0.71437 0.13902 0.75742 0 11.03317 -4.95015 0.61634
11.25194 0.12037 2.34645 0 -28.06085 -6.11120 0.20795
0.76167 -0.05769 0.21750 0 11.54864 -0.88640 0.18993
-1.32683 -0.01101 0.65978 0 -20.37232 -0.87672 0.39716
19.88128 0.16168 7.19705 0 -24.74966 -3.31911 0.36168
-0.69599 0.11417 0.53394 0 0.10534 -4.54561 0.43828
-5.45953 -0.18854 2.53356 0 6.91163 6.93627 0.45652
-23.00286 0.12509 5.42316 0 9.24005 -5.94477 0.23575
-4.13346 0.03860 1.62921 0 6.40435 0.25803 0.38328
-9.27824 -0.08293 1.96662 0 22.21611 0.13809 0.21097
11.95133 0.11120 6.50957 0 -17.41647 -4.22153 0.54287
-0.11206 -0.18293 0.45730 0 -1.69373 4.40204 0.45446
3.58998 0.19384 1.16925 0 27.71393 -4.04361 0.31382
-3.60879 0.05649 3.14893 0 -28.30245 -2.22586 0.84096
18.53644 0.06545 12.56842 0 -29.84281 -2.62591 0.69454
19.40794 0.02986 4.39139 0 -22.16341 1.29953 0.24229
-1.23153 0.06942 1.04726 0 -29.97767 -1.22379 0.66020
7.40987 -0.11328 3.27846 0 17.55101 2.30029 0.43858
11.95887 0.06098 2.55293 0 -3.25855 -4.20194 0.21296
-4.44384 0.09707 3.14883 0 24.09717 -3.58484 0.69134
10.46903 -0.00177 7.05831 0 -26.79429 -0.62773 0.67123
-2.64819 -0.24386 0.86997 0 12.52262 5.62706 0.30743
16.40555 -0.26418 6.46675 0 11.00249 6.60001 0.39357
-2.71088 0.08352 0.70137 0 -21.27268 -4.58675 0.24295
-26.53356 -0.09368 17.85530 0 27.87750 3.66588 0.67253
-16.07484 0.00470 10.01504 0 -19.31118 -0.88260 0.62190
-1.47965 -0.10015 1.14481 0 -28.63416 3.89996 0.64110
26.02427 -0.03800 10.57980 0 -23.23289 2.48821 0.40636
-0.09225 -0.06753 0.44384 0 -14.82458 0.94710 0.44196
20.35391 -0.02816 9.48885 0 -26.84029 2.02867 0.46574
-1.55302 -0.05864 0.58503 0 19.30700 3.37449 0.33781
-27.04393 0.22393 8.69294 0 16.37331 -4.96085 0.32137
-2.03775 -0.10000 0.87250 0 -29.66694 1.74132 0.38451
1.32138 -0.01550 1.00514 0 -16.51799 -0.29650 0.60659
1.07106 0.17204 0.47029 0 -20.54915 -3.44219 0.32104
1.64957 0.12274 0.70040 0 -19.44876 -2.17486 0.36319
0.44312 0.22959 0.39481 0 24.61952 -5.30663 0.36098
12.61637 0.19651 12.52157 0 -0.93572 -6.36490 0.98943
24.61911 0.08611 17.20882 0 -26.25757 -3.24552 0.69850
5.59753 0.01395 7.07642 0 -9.91056 -0.74828 1.24455
-2.33350 0.22388 1.58589 0 -25.03816 -7.52742 0.62479
1.46293 -0.27040 0.68977 0 29.92175 6.76561 0.38931
-25.93114 -0.12813 12.30274 0 6.77606 5.04166 0.47419
-0.17744 0.07492 0.80610 0 24.46757 -2.81830 0.79370
27.01604 -0.17345 20.43787 0 -2.46400 5.99772 0.75606
3.95533 0.01086 2.02156 0 16.21925 -1.27787 0.49564
21.68412 0.15477 7.73826 0 29.85426 -6.07334 0.35662
-0.82260 0.09889 0.86581 0 8.83525 -3.66555 0.66868
3.53062 -0.15445 2.06489 0 23.52520 3.78169 0.56278
10.53978 0.22019 7.90562 0 -10.97067 -7.26748 0.74679
27.03660 0.25044 14.21218 0 -5.89427 -6.38253 0.52540
13.45708 0.26200 4.94006 0 29.47890 -6.27113 0.36622
-1.48374 -0.02244 1.04362 0 -29.44215 1.63246 0.58383
-18.73990 0.12529 11.29745 0 25.59459 -2.81381 0.60208
0.45354 0.25668 0.91872 0 -24.12621 -6.95387 0.83670
23.31788 -0.06077 14.26399 0 7.38913 2.74891 0.61124
5.36481 -0.05057 1.82231 0 -8.25277 3.14690 0.33397
5.56651 0.19157 4.95791 0 -11.57520 -6.28615 0.87671
2.69846 0.08997 1.83067 0 -11.37899 -3.43555 0.63621
4.55726 0.17122 2.07728 0 28.94651 -3.87040 0.44529
3.24669 0.04815 0.95862 0 0.78274 -3.19750 0.28234
-3.70360 0.24773 1.50059 0 -29.95365 -5.95035 0.39126
-21.86010 0.21838 15.04267 0 -5.70304 -7.27703 0.68749
-3.06590 -0.13854 0.76380 0 29.32113 2.05035 0.23696
4.45630 -0.05158 1.51291 0 29.78660 0.08435 0.33143
-2.34297 0.06367 0.69155 0 -24.20705 0.05684 0.27160
-0.26562 -0.02339 0.56540 0 1.99512 1.72145 0.54646
12.24755 0.11130 8.40724 0 13.63531 -4.02358 0.68424
22.24255 0.15506 15.22248 0 26.63416 -3.80145 0.68377
2.26510 0.11275 1.66793 0 -28.81893 -2.53189 0.67369
2.28097 0.17511 1.86114 0 20.47563 -4.46180 0.74740
1.05613 0.15272 0.92526 0 6.81282 -3.67500 0.63620
9.00559 -0.09298 17.05740 0 -10.75193 3.14614 1.88255
-1.90285 -0.09165 0.90865 0 -24.28900 1.61374 0.42285
-0.48737 0.22933 0.67144 0 -13.62398 -5.89545 0.60358
0.06892 0.00246 1.11259 0 15.29537 -0.45327 1.10996
-9.49509 0.06900 2.29443 0 20.37562 -4.16147 0.24052
-5.44870 0.19157 2.34041 0 20.47069 -4.40680 0.42259
2.29193 0.04272 0.82565 0 -19.62952 -2.76339 0.33029
4.02172 -0.00189 1.14336 0 27.28225 1.99744 0.27600
19.55149 -0.14972 14.04204 0 -24.45299 3.84096 0.71734
0.92329 -0.11865 0.54283 0 24.71328 2.34293 0.39891
1.47235 -0.15476 0.87698 0 -27.71963 5.81196 0.49278
-2.68375 -0.11654 1.49453 0 -28.40253 2.58466 0.52192
-1.15180 -0.07715 0.37097 0 15.84841 4.54930 0.24334
-27.25208 0.06029 18.51660 0 3.12651 -0.97250 0.67907
-1.87922 -0.08813 0.83799 0 -13.08980 4.05092 0.39378
1.76632 -0.11805 0.56057 0 27.10965 5.54758 0.27627
12.81455 -0.09586 7.93266 0 -20.29729 2.12116 0.61724
1.99106 -0.26957 0.93090 0 -0.34358 6.83722 0.41788
2.82694 0.22773 2.96981 0 26.87986 -6.19833 0.99050
4.71696 -0.01503 2.54089 0 26.57993 1.50426 0.52698
7.45646 -0.07134 3.28289 0 -29.70365 1.04625 0.43648
-1.32879 0.04660 0.90529 0 -23.37891 -2.26250 0.54441
-2.20326 0.15823 2.27281 0 -23.21893 -5.23387 0.93940
-7.94566 -0.15008 6.35253 0 -0.43251 5.25444 0.79330
-1.22405 0.15825 1.35631 0 21.72473 -5.28852 0.85814
19.56675 -0.27117 10.92427 0 -10.87728 7.21297 0.55767
-3.34961 -0.11151 1.64917 0 -27.67643 4.48391 0.49686
-0.15242 0.16818 0.50854 0 -13.65000 -3.91493 0.50274
2.57937 0.17823 3.28785 0 -12.67361 -4.81710 1.18857
0.02769 0.03621 1.14340 0 -9.16879 -0.55724 1.14296
10.78719 0.14960 6.03476 0 -28.04652 -5.36509 0.55714
11.95901 -0.30319 5.70718 0 24.31695 7.97638 0.47567
-1.53304 -0.03330 1.24525 0 25.64882 1.83456 0.68037
-17.09967 -0.28381 14.97969 0 3.06345 7.94639 0.87459
0.69664 0.01883 0.72926 0 25.63452 -1.34003 0.59840
-26.66397 0.21005 9.70281 0 26.59277 -4.74716 0.36377
-3.91815 0.03386 2.30441 0 -28.65712 -1.83555 0.56999
-6.94556 0.21035 4.40688 0 -16.33836 -7.10856 0.62809
-1.66694 0.16753 1.06653 0 -24.29566 -5.92697 0.54874
0.83159 -0.05830 2.45487 0 -26.74604 2.10288 1.88751
-1.48796 -0.21954 0.84714 0 -10.42586 5.52374 0.47260
-1.61421 -0.01743 2.31498 0 0.51459 1.02394 1.21918
-2.49483 0.21552 3.61236 0 22.77676 -5.97954 1.34403
-23.29533 -0.14523 36.10757 0 -29.44681 4.09873 1.54860
-0.98558 0.21030 0.79917 0 20.28008 -7.19933 0.56922
0.70186 0.07343 0.74065 0 -14.06305 -2.97571 0.60626
3.46475 -0.13167 0.91315 0 -2.35124 1.98785 0.25330
13.55853 -0.17190 10.42335 0 -28.91039 5.94048 0.76675
5.10990 0.23594 7.71607 0 -29.73679 -6.62477 1.48196
-1.31426 -0.03309 1.76544 0 -16.04295 0.59544 1.06907
-25.99278 0.27666 8.97657 0 14.11096 -6.60616 0.34524
8.12880 -0.13813 3.86867 0 -29.82294 5.35094 0.47246
-3.00240 -0.01518 1.21958 0 7.87979 1.86755 0.38546
-1.27927 -0.13534 1.59574 0 -24.37478 4.67865 0.98279
0.87369 -0.25737 0.63039 0 15.40660 6.63751 0.47476
1.58863 0.07912 3.46215 0 21.04287 -2.01300 1.84436
1.48265 0.19758 2.12100 0 15.92778 -5.39221 1.18602
0.43723 -0.12378 2.07902 0 29.97773 4.06971 1.90490
-2.36233 -0.20308 5.65489 0 -19.59173 6.42094 2.20441
0.98075 0.09335 1.50481 0 8.68618 -3.21605 1.04591
0.58291 0.16289 0.60576 0 11.98214 -3.83952 0.54532
2.30741 -0.24889 5.07655 0 21.62380 7.27206 2.01871
-1.73611 0.01803 1.00982 0 8.40588 0.55477 0.50409
-3.19783 0.23023 1.52217 0 9.57183 -5.62972 0.45443
-1.36448 0.20280 1.74008 0 28.85085 -6.53436 1.02863
-2.09212 0.16631 0.79581 0 24.17922 -3.37856 0.34328
-5.58165 -0.20453 3.92971 0 -28.92506 5.44041 0.69308
-7.31928 0.01189 6.89724 0 -27.73984 0.27194 0.93372
-3.75969 -0.06954 10.95274 0 -27.01483 1.98481 2.81534
-5.15826 0.16431 2.84266 0 -28.71288 -3.87393 0.54108
-4.81522 0.05424 3.23319 0 9.74045 -0.76635 0.65722
-8.72732 0.16221 1.81239 0 -29.99982 -2.26289 0.20655
0.92631 0.22264 0.77920 0 -24.18063 -7.57354 0.57169
-1.63213 0.08309 1.03098 0 -29.37651 -1.45677 0.53868
12.63176 0.29426 7.03910 0 -21.21099 -7.72282 0.55560
0.97963 0.12774 0.76775 0 -1.46943 -4.71435 0.54849
8.16023 -0.14422 5.17940 0 0.96349 5.25181 0.63008
9.77026 0.20776 5.61680 0 2.69899 -5.21038 0.57198
-4.27856 0.04217 3.87828 0 -29.06216 -0.60400 0.88270
-6.04371 0.03805 1.84802 0 28.48809 0.63536 0.30175
4.03938 -0.08733 2.67337 0 -14.40991 3.51003 0.64254
0.09787 -0.09498 0.74963 0 3.83447 2.23889 0.74607
0.38614 0.11935 0.65630 0 -23.18341 -2.65162 0.61225
-7.78754 0.11928 2.27302 0 -3.00310 -5.33208 0.28967
-0.24454 -0.04323 0.67495 0 -29.58018 2.16234 0.65563
-6.58125 0.17693 2.09095 0 -28.63848 -3.55058 0.31426
1.37569 -0.00938 0.92269 0 -28.92685 1.30646 0.54258
-1.89795 -0.03848 2.43278 0 16.80574 1.68806 1.13406
1.36084 -0.04956 0.90010 0 -9.27105 2.53448 0.53303
-4.60312 0.13519 1.49018 0 -29.93986 -5.66428 0.31644
-6.20191 -0.24318 4.04145 0 28.03315 6.52134 0.64341
3.05304 -0.09421 1.31021 0 -28.60463 1.64522 0.40786
-8.94807 0.00690 4.56560 0 -12.62471 0.88271 0.50717
1.08308 -0.27946 1.59604 0 1.03633 7.94130 1.08272
-2.86111 -0.16000 1.36633 0 2.85863 6.07504 0.45091
-0.95439 0.02621 1.96882 0 1.28506 -0.34612 1.42429
-14.05728 0.10751 6.14964 0 7.67975 -4.34750 0.43648
6.51413 0.01486 3.61083 0 -24.83954 0.56854 0.54798
-13.50311 -0.18998 14.53454 0 -10.97312 6.28620 1.07349
3.34435 -0.19465 2.17337 0 -19.24689 5.06157 0.62282
-0.13726 -0.23898 0.78363 0 27.27207 6.54230 0.77635
1.31244 -0.01735 0.69882 0 29.87596 1.81265 0.42360
-5.31442 -0.09263 1.19015 0 24.53313 0.52938 0.22028
-10.30749 0.10142 8.06924 0 -8.19579 -3.63086 0.77926
-1.83569 0.07995 1.83542 0 -16.74844 -1.73114 0.87807
2.99764 0.16007 3.12139 0 -12.14980 -5.26153 0.98784
-0.52520 0.20383 1.39469 0 -10.22104 -5.59605 1.23477
-12.12617 -0.05698 5.47512 0 -29.54934 2.93831 0.45009
-0.60490 0.05860 0.31492 0 27.16247 -3.60531 0.26951
5.98588 0.05461 3.03364 0 -10.41743 -2.58879 0.50002
4.12777 0.20585 1.54306 0 -2.06666 -4.62333 0.36348
3.84956 0.00271 0.86085 0 -5.75326 -2.37639 0.21655
0.79005 0.14201 0.85818 0 23.02553 -4.96746 0.67342
5.82939 0.21429 2.69486 0 24.25442 -5.16521 0.45571
15.41596 0.04939 7.16634 0 16.51950 -2.51150 0.46399
13.62993 -0.18359 3.62123 0 -17.82295 7.67456 0.26515
-1.90218 0.05935 0.65468 0 -24.90989 -3.40206 0.30475
-7.86388 -0.16277 5.91241 0 26.99128 5.68286 0.74590
4.59064 -0.23301 3.33722 0 10.69983 6.30093 0.71040
1.89305 -0.14866 1.09904 0 -10.99010 5.58150 0.51342
-8.32707 0.18360 2.57840 0 -12.86524 -7.21627 0.30759
1.37188 -0.10422 1.02802 0 22.43583 2.35445 0.60561
3.95962 0.27535 2.40957 0 1.05429 -7.22741 0.59006
0.41815 -0.03555 0.67732 0 24.30193 0.32935 0.62490
1.26262 -0.06922 0.72208 0 3.49675 3.31396 0.44837
-1.70806 -0.00838 0.70661 0 -9.62696 -1.10092 0.35710
2.75312 -0.14320 1.98784 0 14.25560 3.60590 0.67871
-0.37058 0.15604 0.60648 0 0.18465 -3.67246 0.56657
8.04311 -0.17947 3.50391 0 -26.18450 4.24119 0.43242
0.09647 0.31393 0.26552 0 21.12420 -7.19047 0.26430
-5.51158 -0.24877 1.91269 0 -13.42981 5.94340 0.34157
-3.66929 -0.06215 1.23054 0 -28.27093 3.54896 0.32370
7.07082 -0.27799 2.15464 0 29.97583 6.58107 0.30188
-0.95316 -0.07357 0.34219 0 -21.50552 4.39971 0.24779
-2.33475 0.13081 0.72523 0 17.49431 -5.71543 0.28561
7.45755 0.03231 2.95612 0 -5.70635 0.41342 0.39300
-1.31606 -0.02806 1.08544 0 4.68548 0.14446 0.65675
-0.54130 -0.07869 1.05377 0 -26.22828 2.99795 0.93088
2.98199 0.18840 0.97537 0 -29.99201 -7.34987 0.31031
3.91019 0.12653 2.32653 0 28.62354 -4.63039 0.57650
-11.64134 0.07251 5.57460 0 -20.48326 -3.18070 0.47721
-3.82165 -0.06245 1.88629 0 26.09737 3.03715 0.47771
25.73863 0.26805 14.93581 0 -23.64735 -6.99682 0.57993
-2.05940 -0.17043 1.01262 0 9.96685 6.41838 0.44242
-16.95175 0.18552 13.60298 0 25.10187 -4.81823 0.80112
-22.88541 -0.08897 18.14831 0 28.36410 2.09973 0.79232
-14.37167 -0.15003 3.41462 0 1.90159 6.87262 0.23723
1.65094 -0.19699 0.55943 0 -20.87427 4.16116 0.28996
-5.99753 -0.19097 1.50445 0 29.97887 3.67834 0.24757
5.35497 0.08885 1.04777 0 0.11678 0.08142 0.19250
1.20235 -0.00082 0.30331 0 7.18093 -2.54807 0.19408
-0.03066 -0.02414 0.43551 0 -28.84049 -0.36931 0.43531
-0.01591 0.20752 0.25131 0 -19.20024 -4.02781 0.25128
-2.85913 -0.21284 3.78954 0 -29.03519 6.03232 1.25117
10.62656 -0.04142 7.92401 0 -2.92227 0.63473 0.74247
-1.31858 0.01964 1.66702 0 26.83595 -1.01624 1.00737
0.97476 0.17697 1.06087 0 -29.99754 -5.93858 0.75971
-0.38632 -0.12397 0.64354 0 -23.75907 2.93449 0.60031
0.74742 0.02061 0.64232 0 28.62533 0.45687 0.51453
-0.95551 0.19063 0.41833 0 -28.64337 -3.88764 0.30253
-7.59908 0.00626 5.28400 0 25.56882 -0.84876 0.68947
11.30850 0.15192 7.78966 0 -8.73064 -3.71078 0.68623
1.82027 0.09536 0.76373 0 26.21390 -4.20390 0.36787
1.77428 0.20311 0.49891 0 -29.67650 -3.84787 0.24513
0.51655 -0.16328 0.96307 0 29.29593 4.36199 0.85567
-0.92222 0.18812 0.49071 0 25.62643 -4.09290 0.36078
-3.06630 -0.01124 0.93108 0 -28.07158 2.19719 0.28880
0.25554 0.17516 0.29486 0 -20.46149 -3.33618 0.28611
24.70817 -0.05886 6.32129 0 8.64738 3.88055 0.25582
19.52135 0.26667 8.45067 0 20.65218 -6.63437 0.43244
-12.35713 -0.13313 3.76216 0 -27.49259 5.83587 0.30362
-3.04538 -0.02505 1.30042 0 -21.42084 2.09838 0.40581
-1.45191 0.06344 0.36058 0 -27.30111 0.68126 0.20469
0.17373 0.25196 0.44919 0 -26.92460 -6.23074 0.44145
2.10675 -0.12664 1.38849 0 3.31501 4.76675 0.59545
3.65073 -0.02957 2.90168 0 -28.80507 0.30137 0.76661
9.27079 -0.07822 3.10505 0 29.94283 3.99305 0.33314
-2.90293 -0.15002 1.58629 0 24.78448 3.56821 0.51676
2.35753 -0.12933 1.27210 0 25.34501 2.91474 0.49688
-1.62666 -0.09663 0.58664 0 29.88165 1.30650 0.30737
2.66370 0.17130 1.49225 0 29.85293 -4.05023 0.52455
20.13050 -0.16310 7.59587 0 10.47286 3.58167 0.37700
-0.59504 -0.24660 0.39915 0 12.09338 5.88729 0.34306
0.56397 -0.04599 0.84765 0 29.99022 2.15728 0.73834
11.45889 0.00017 3.38138 0 -29.99842 1.81987 0.29413
4.22959 -0.13831 6.91121 0 -22.78416 3.90080 1.59022
0.13807 -0.28705 0.43646 0 26.48684 7.38968 0.43236
1.89977 0.01635 1.51625 0 -29.97377 0.30794 0.71296
9.53754 0.03183 7.53586 0 16.93903 -0.22274 0.78588
4.10802 -0.15440 0.92472 0 0.14831 2.33607 0.21879
15.26221 0.17204 3.70915 0 -21.26526 -7.34807 0.24271
1.87551 0.05193 1.08130 0 14.13574 -0.47032 0.50881
7.98505 0.19249 3.34145 0 -22.21220 -4.41207 0.41533
0.22875 -0.20200 0.68979 0 -23.10005 6.95758 0.67242
11.16010 0.12381 4.24302 0 -26.85550 -5.03211 0.37881
8.45257 0.26916 3.30694 0 29.39038 -6.56474 0.38865
0.83719 0.15208 0.38896 0 29.46111 -6.29241 0.29831
0.10552 -0.01817 0.86216 0 26.25478 0.03018 0.85740
-1.35560 0.16704 1.31805 0 -28.58224 -4.25391 0.78250
-2.83905 -0.23198 0.80452 0 -29.23473 5.02573 0.26747
-3.99862 0.22726 2.52661 0 20.56587 -5.84821 0.61317
-1.86383 0.30258 0.91989 0 -12.25757 -7.68621 0.43501
-0.34815 0.16083 0.66180 0 -1.57360 -5.60164 0.62501
20.02247 0.16036 20.79760 0 23.53082 -4.22034 1.03747
-4.37809 -0.03164 1.74517 0 28.13056 2.35376 0.38871
-14.47303 0.07381 12.34589 0 9.50401 -1.52907 0.85106
