-2.17789 -0.05236 1.42677 0 -14.19067 2.51730 0.59543
0.32127 0.01504 1.24561 0 -14.93509 0.06098 1.18591
0.41172 0.11859 0.55288 0 11.43839 -4.50664 0.51126
20.36886 -0.10446 13.53374 0 -27.48534 4.00273 0.66371
2.66074 -0.05248 1.34043 0 -1.86789 2.74940 0.47166
-19.38143 -0.07908 10.89616 0 28.93944 3.37767 0.56154
9.57663 -0.13406 2.84313 0 25.80883 5.91476 0.29544
-2.21304 -0.10601 1.33805 0 -8.21513 4.21191 0.55108
-1.25579 0.14585 0.67037 0 27.82233 -5.57490 0.41767
-5.65002 0.11965 5.50023 0 -3.06552 -2.96579 0.95862
-1.48403 -0.11790 0.59829 0 -6.97622 5.20199 0.33442
4.09633 0.23313 2.99076 0 -29.97188 -6.14095 0.70931
18.97089 0.09453 45.41259 0 16.06126 -2.53838 2.39051
-16.95959 0.02903 10.25010 0 0.26618 -1.63998 0.60342
-8.78963 0.14559 7.81634 0 -8.51230 -3.69252 0.88362
10.02340 0.15121 2.93307 0 -17.51929 -6.31005 0.29134
0.57836 -0.26122 0.56595 0 29.87769 6.78570 0.48994
1.07508 -0.08884 0.68289 0 7.11215 3.86736 0.46514
-5.38993 -0.01189 5.83332 0 18.28877 -0.04242 1.06415
0.79180 -0.23165 1.19112 0 20.28359 6.44364 0.93386
19.05476 -0.09207 13.99365 0 -28.59090 2.14033 0.73345
-7.04293 -0.17208 10.99037 0 -28.68534 4.89917 1.54502
20.27859 0.19359 12.08113 0 -29.84257 -4.82826 0.59512
1.53923 0.21263 0.64542 0 28.72193 -4.77311 0.35172
-2.24931 0.15507 1.10044 0 16.08258 -5.77114 0.44730
8.22438 -0.02169 4.08675 0 21.28458 -0.30459 0.49337
0.72773 0.32311 0.40013 0 17.23689 -7.83637 0.32358
4.68007 0.22732 1.44093 0 11.98925 -4.94924 0.30122
0.35281 0.08625 0.97366 0 -2.30823 -1.94497 0.91820
-1.89738 0.07674 2.56033 0 -25.16691 -2.65399 1.19378
-6.32710 -0.10077 4.30065 0 11.63420 3.88179 0.67146
-22.48952 0.19897 18.86296 0 27.41499 -6.54021 0.83798
6.44101 -0.15542 2.87854 0 18.45368 3.55710 0.44172
-0.52042 0.03022 0.74917 0 18.08149 -0.05575 0.66458
-25.55253 0.05509 10.87814 0 19.98574 -2.78563 0.42551
1.47932 0.02281 0.84791 0 14.80007 0.47356 0.47493
-15.74308 0.04547 9.50813 0 -26.29671 -0.43377 0.60282
-1.92307 -0.05840 0.63599 0 -29.53173 3.60165 0.29351
-0.41106 0.06678 0.50765 0 29.92937 -3.02488 0.46954
0.70771 -0.12397 0.93415 0 -0.55541 4.49028 0.76254
-0.58144 0.24494 0.77632 0 -10.68410 -6.44583 0.67114
-6.33568 -0.15093 5.75558 0 0.53430 4.02304 0.89738
6.79236 -0.12689 2.70124 0 13.49187 5.23580 0.39357
24.87965 0.05078 17.25922 0 25.75904 -2.18465 0.69322
2.11646 -0.07963 1.49203 0 -16.42712 1.66356 0.63747
0.20959 0.04033 0.48872 0 29.98976 -2.20432 0.47833
-2.78398 -0.01079 1.73192 0 28.93088 1.27929 0.58559
-7.53928 0.12416 3.27963 0 -29.96665 -4.87016 0.43134
8.73697 -0.07954 4.01280 0 -4.91184 1.34197 0.45642
0.96607 -0.04087 0.33396 0 4.12428 -0.82396 0.24025
-19.43365 0.23592 3.87101 0 29.40331 -4.34374 0.20229
2.12973 0.03533 1.32924 0 28.99536 -0.07375 0.56513
5.07361 -0.18341 11.94342 0 14.59492 5.35170 2.30963
-5.93487 -0.28500 2.61077 0 -28.99706 7.33467 0.43385
10.14218 0.04893 2.12155 0 29.45603 0.63255 0.25355
-19.55246 -0.09295 7.70804 0 -17.44088 1.56312 0.39383
-16.22806 -0.00080 5.93827 0 27.97844 -1.29667 0.36537
-0.93685 -0.00775 1.51143 0 -29.99720 0.77755 1.10303
-13.34184 0.02228 2.74789 0 -29.98957 1.90849 0.20562
-2.79322 0.17493 1.46618 0 8.99297 -6.26344 0.49423
-0.05625 -0.16573 0.80238 0 -4.12780 5.72268 0.80112
-8.68960 -0.03961 6.77747 0 -28.61188 0.60932 0.77490
-15.25833 -0.00556 7.33359 0 8.27716 -0.81833 0.47970
1.19978 -0.15062 1.18608 0 27.65304 5.30118 0.75942
4.88311 0.08192 3.58622 0 -28.38517 -1.66116 0.71955
0.13215 0.05843 0.22303 0 -24.90282 0.64472 0.22111
8.92790 -0.04630 3.89703 0 27.45943 0.29079 0.43390
1.48058 -0.09613 1.00600 0 -29.93427 3.89161 0.56312
-7.98256 -0.16810 3.52358 0 22.52131 6.35930 0.43810
-3.11936 0.30534 1.36936 0 -19.95005 -7.71428 0.41808
-11.44883 0.09628 6.94405 0 22.63196 -1.95362 0.60431
-0.27043 -0.07468 0.78592 0 -2.33396 1.64415 0.75867
-1.69403 0.18917 1.14016 0 26.29869 -6.53491 0.57964
16.63846 -0.10833 20.34795 0 -24.67889 3.75856 1.22078
-0.46059 0.27376 0.52863 0 -12.29005 -6.96691 0.48017
-10.09983 0.20649 4.21789 0 -29.89558 -7.44817 0.41570
20.06097 0.27406 10.40564 0 11.96316 -7.05985 0.51815
5.60308 0.21584 2.06801 0 29.70961 -5.01372 0.38975
-12.16889 -0.08887 4.29768 0 -29.83209 4.23258 0.35212
1.02195 -0.13274 0.43470 0 6.77122 2.35805 0.30411
26.57571 -0.01474 5.33247 0 -23.09054 3.09560 0.20075
-0.30871 -0.06344 0.24868 0 -24.39196 4.17988 0.23764
1.57988 0.02163 0.69823 0 -26.63762 -1.94257 0.37350
-0.26835 -0.10103 0.86900 0 19.63809 3.73339 0.83931
1.06148 -0.15064 0.82490 0 1.64963 5.55591 0.55899
1.92731 0.12891 1.03319 0 -21.45213 -2.69394 0.47591
25.58020 -0.00883 12.36073 0 25.31733 1.40662 0.48295
-2.43689 -0.15260 0.73270 0 -23.87158 2.78627 0.27831
-0.00137 -0.06658 0.67324 0 -29.44191 1.31650 0.67324
9.33026 0.10583 5.89918 0 29.80097 -3.92562 0.62874
0.58666 0.02739 0.34636 0 27.04555 -2.46423 0.29879
2.91782 0.00365 0.63154 0 -7.82494 2.48234 0.20491
8.20539 -0.08363 0.75204 0 18.05854 0.02582 0.20003
-0.96652 0.00866 0.89522 0 -17.29030 -0.97346 0.64373
-4.06356 -0.01624 2.66808 0 19.45576 -0.23344 0.63762
-11.43261 0.06721 5.87655 0 24.50312 -0.93351 0.51216
-11.48133 0.15307 8.97062 0 14.13749 -5.19553 0.77844
-14.08451 -0.12629 6.99091 0 28.53818 4.93752 0.49521
-0.04812 -0.01099 0.30871 0 -29.99279 2.07598 0.30835
-1.17170 -0.10439 0.49386 0 -29.92627 4.55212 0.39225
-1.65764 0.16164 0.47185 0 -16.75240 -2.62804 0.24394
-4.38768 0.26634 4.25863 0 29.99896 -7.31611 0.94641
-0.38851 0.19984 0.62856 0 -28.37124 -6.85112 0.58591
15.05465 -0.19002 9.44928 0 -29.69647 6.65244 0.62636
-7.02533 -0.27905 5.43501 0 -29.54642 7.71520 0.76597
-14.85414 -0.19024 5.33640 0 4.82275 7.32409 0.35858
3.84218 0.13314 1.40760 0 -5.79653 -2.44860 0.35464
-15.35002 0.19531 11.69817 0 26.65092 -6.49576 0.76055
0.83717 0.14535 1.72273 0 17.48986 -4.68009 1.32095
-0.73634 0.03787 0.51383 0 20.36936 0.18117 0.41379
1.01528 0.15166 0.50967 0 11.98473 -3.00790 0.35773
0.79645 -0.21114 1.74491 0 -29.21050 6.01783 1.36493
10.08144 -0.21952 7.93363 0 -29.99656 7.37449 0.78317
-3.08038 -0.06012 0.94642 0 29.99973 0.13374 0.29243
4.56444 0.15796 2.03803 0 18.26350 -5.89079 0.43623
-7.56579 -0.21760 4.93635 0 -2.31360 5.77155 0.64691
-2.17014 0.19558 1.33043 0 26.58937 -6.77026 0.55684
-3.89892 0.09034 2.46474 0 -29.96584 -1.78760 0.61239
-0.09223 -0.18154 0.38219 0 -27.10188 4.13740 0.38057
-20.44766 -0.07268 22.16928 0 9.04204 1.78698 1.08295
-23.87587 0.20185 16.80461 0 -29.42808 -5.20977 0.70329
-2.47150 -0.25964 1.20259 0 15.66073 6.64374 0.45112
11.88823 -0.31805 3.34085 0 3.25476 7.58872 0.28021
5.04230 -0.01598 1.07601 0 -29.01186 3.02505 0.20942
-0.34597 -0.14903 1.50072 0 26.61589 4.92611 1.41825
-0.15524 -0.09124 0.24974 0 8.85001 4.95290 0.24679
6.60943 -0.23471 4.85024 0 -17.43299 6.36726 0.72564
1.99909 -0.17506 1.42387 0 21.77827 6.18130 0.63706
16.32451 -0.19184 15.77690 0 -24.83910 5.28072 0.96470
-0.17615 0.04231 1.56952 0 -25.69398 -0.85662 1.54572
-0.19330 -0.21338 1.18420 0 -14.68155 6.01562 1.16268
-16.76436 0.18147 12.25873 0 28.77098 -6.10468 0.73001
-13.09755 -0.06090 4.43036 0 22.79555 0.39052 0.33742
-4.89724 -0.17876 4.00915 0 27.04197 6.11764 0.80218
3.82560 -0.21661 2.41257 0 -21.79551 5.69241 0.61022
-0.36005 -0.09735 0.41427 0 -27.89917 1.68046 0.38979
-1.43020 -0.01325 0.72090 0 14.56070 1.68721 0.42417
-2.32855 -0.23431 1.68991 0 6.44269 6.28974 0.66689
-2.08578 -0.21997 0.90638 0 -19.15573 5.30459 0.39197
-1.11516 0.17968 0.73483 0 -19.82226 -6.41724 0.49064
19.51953 0.10720 7.26274 0 -22.14537 -4.55067 0.37172
0.46576 -0.03064 0.27241 0 27.57030 -1.07322 0.24698
-13.96652 -0.19629 6.32610 0 29.65302 4.78903 0.45190
-1.25295 0.09412 1.86651 0 -22.50467 -3.18846 1.16436
-0.24172 -0.03326 1.22437 0 -10.84546 0.64928 1.19010
4.48775 0.01242 1.02043 0 -22.96702 -2.61095 0.22216
3.95956 -0.04986 3.38999 0 29.45826 2.19658 0.83018
4.38479 -0.11460 1.21577 0 24.18485 5.48346 0.27044
14.10563 0.10666 5.34860 0 -25.18760 -4.50883 0.37836
-17.88818 0.24285 11.23005 0 10.03655 -6.32705 0.62689
7.58824 -0.02988 4.15654 0 -25.59483 0.03603 0.54315
14.24824 -0.18472 16.45731 0 29.01535 6.09219 1.15225
1.74562 -0.08410 1.02699 0 -5.53240 3.62289 0.51054
-0.28982 -0.28137 0.97488 0 0.62003 7.91653 0.93636
-1.01502 0.12871 0.76454 0 -23.43363 -4.76552 0.53660
0.24626 -0.17489 0.93058 0 -29.60417 4.73995 0.90359
1.00428 0.12305 0.33891 0 -18.95438 -1.45220 0.23926
-12.34985 0.24869 5.84443 0 -24.00912 -6.21394 0.47180
-10.21974 -0.19027 9.41707 0 25.59007 6.38178 0.91713
-3.13885 -0.04773 2.73113 0 0.60741 0.89560 0.82912
1.24874 0.03375 0.68136 0 29.89178 -2.13838 0.42597
18.75988 0.02639 5.96266 0 -14.92197 0.90099 0.31754
-6.06023 0.10406 5.80422 0 -28.35762 -2.49290 0.94503
-7.43266 0.04430 6.70903 0 17.79647 -1.82198 0.89464
-1.40309 0.13313 1.10588 0 -13.99329 -4.73661 0.64190
0.69080 0.18223 0.38692 0 -28.71016 -3.72758 0.31839
0.65609 0.19632 1.15044 0 29.07375 -6.37504 0.96191
-14.99087 -0.20902 15.12832 0 -29.98199 6.89709 1.00698
-12.80111 0.21507 18.59739 0 -20.91496 -6.75058 1.44842
22.52619 0.15906 32.42981 0 -9.93427 -4.32283 1.43827
5.50208 0.20726 1.79661 0 29.67884 -4.47506 0.32140
-1.78623 0.08998 0.79380 0 3.57982 -3.96549 0.38785
0.25747 -0.11706 0.47817 0 15.43326 2.47479 0.46308
0.91653 0.09591 0.61722 0 -24.96388 -3.94483 0.45506
3.66728 -0.12851 1.51183 0 -28.36081 2.63170 0.39778
-12.80464 -0.17554 11.13793 0 -27.81916 4.73478 0.86725
-15.26179 0.01581 9.78885 0 11.31061 0.40558 0.64010
0.85205 0.12901 0.79608 0 -11.14789 -2.93013 0.60599
3.94866 -0.12835 1.21558 0 25.64802 2.19721 0.29858
10.63701 -0.09825 3.62922 0 5.15822 1.53393 0.34441
0.61843 -0.07068 0.69731 0 29.32328 1.33607 0.59309
0.09646 0.24193 0.21589 0 29.75018 -4.66809 0.21490
1.94637 -0.04691 1.27997 0 20.44890 2.36829 0.58499
-15.13216 0.27635 7.53570 0 28.07248 -7.08135 0.49701
15.61554 -0.04939 9.76253 0 25.22050 0.74243 0.62398
14.76745 0.16505 10.73006 0 -26.12938 -4.14164 0.72501
20.51145 -0.12818 16.56569 0 15.46512 3.28065 0.80673
-0.13710 0.17470 0.43069 0 -25.58881 -3.92211 0.42670
-12.38306 -0.13682 9.18171 0 -27.83547 4.90177 0.73913
-1.17401 -0.18287 0.71967 0 26.48433 4.43059 0.46671
-0.13323 0.25418 1.14387 0 16.93526 -7.05278 1.13385
-2.98773 -0.10000 0.70980 0 -25.97204 5.43234 0.22543
-14.91921 -0.28275 11.17342 0 -28.52308 7.80572 0.74732
-8.16440 0.29844 3.17448 0 -28.63683 -7.40411 0.38606
-6.74852 -0.16870 3.87976 0 23.54968 4.21350 0.56878
-0.75656 -0.07643 1.28525 0 -13.26572 1.87226 1.02498
-19.48371 0.01370 12.14988 0 -26.58668 -1.15195 0.62285
-9.17494 0.13390 2.72277 0 10.88592 -2.17870 0.29518
1.13809 -0.02869 0.43887 0 3.98359 -0.82442 0.28978
1.31340 0.06269 0.56260 0 -26.26620 -0.29680 0.34089
1.37755 -0.18147 0.59398 0 26.67133 7.09506 0.34901
17.28022 0.21545 7.75259 0 5.00203 -7.62637 0.44800
0.83524 -0.07745 1.31211 0 4.61470 2.91852 1.00707
-1.13376 -0.24884 2.07679 0 9.67697 7.95623 1.37378
-0.47715 0.02735 0.54524 0 25.19780 -1.78226 0.49212
-15.20129 0.17535 14.13541 0 15.77484 -5.75965 0.92793
1.62631 0.08883 1.11092 0 21.90710 -3.47771 0.58198
-2.04653 -0.04434 1.98551 0 -27.36249 0.82421 0.87173
-0.27522 -0.13833 0.64623 0 -11.51862 3.39282 0.62307
3.16909 0.18264 1.42893 0 26.98407 -6.66727 0.43007
4.40714 0.20674 2.64032 0 -12.72548 -5.20019 0.58438
4.98448 0.26909 3.03169 0 -8.78165 -7.05379 0.59643
-6.25860 0.05942 2.16484 0 29.53716 -3.21802 0.34171
-19.56279 0.00333 15.42401 0 5.37585 -0.66803 0.78747
-6.98844 -0.04431 3.26451 0 29.15749 2.52413 0.46252
-1.21429 -0.05699 0.83777 0 -15.50292 2.75988 0.53263
6.24242 0.14532 2.73284 0 -12.38864 -3.07072 0.43238
-2.17357 0.30954 0.84598 0 -29.57082 -7.59270 0.35363
2.19716 0.16586 0.53473 0 -23.26632 -2.53889 0.22162
-1.25089 -0.24684 0.35515 0 23.44477 5.04894 0.22190
-6.23547 -0.12002 2.82145 0 4.88867 4.86299 0.44688
2.74444 0.29531 0.88654 0 -29.65356 -6.92662 0.30355
1.87518 -0.26637 1.30357 0 -23.74151 7.16205 0.61348
-8.84694 0.01417 4.75614 0 -24.98191 0.61316 0.53429
-25.54941 0.09210 17.27391 0 29.19068 -3.45214 0.67565
-25.63418 -0.22615 23.34577 0 -9.03449 7.47642 0.91009
-5.61402 0.07269 5.73631 0 -27.41837 -2.61304 1.00600
-4.28972 -0.06774 1.49307 0 -29.01791 0.60219 0.33909
2.65492 -0.17335 0.93447 0 15.92988 6.93819 0.32955
-11.90547 -0.29930 5.32089 0 -23.30904 7.78363 0.44547
24.14654 -0.01031 5.27973 0 29.97580 2.74632 0.21869
0.85565 0.04445 0.66385 0 24.80922 -2.27278 0.50445
0.62990 -0.16846 0.34186 0 29.55249 3.32250 0.28932
-7.01683 0.13595 2.47939 0 -5.71899 -2.51213 0.34995
-1.78650 -0.02861 1.45943 0 7.34310 0.22238 0.71290
21.74520 0.09352 15.87474 0 -25.51457 -3.43782 0.72933
11.75656 0.27328 10.04288 0 -18.46676 -7.45521 0.85122
10.37098 -0.24491 8.02486 0 28.12934 6.71200 0.77027
-16.08605 0.05475 4.45768 0 28.83715 0.28843 0.27676
-1.06543 0.18367 0.35735 0 -12.56139 -3.27811 0.24468
-10.35831 0.00277 6.21342 0 -2.11916 -0.85871 0.59715
-0.86171 -0.20106 0.60697 0 16.58929 4.94951 0.45985
-0.49508 0.06043 0.33310 0 -22.81002 -0.01643 0.29855
-0.00371 -0.02999 0.71375 0 22.74786 0.26457 0.71374
13.24750 -0.15739 5.50071 0 23.08665 6.10270 0.41416
-3.94893 -0.23662 4.10092 0 -27.95428 7.73559 1.00677
12.62700 -0.29786 5.26035 0 -25.45757 7.65149 0.41541
19.59128 -0.03188 26.97643 0 24.63496 1.41033 1.37521
0.46100 -0.21305 0.55989 0 -3.96036 7.56465 0.50847
-2.53150 0.26401 2.53410 0 -0.93003 -7.23748 0.93109
0.47547 0.14974 0.45332 0 -29.99970 -5.72049 0.40942
-12.36384 0.10332 4.38666 0 -25.43451 -4.50468 0.35378
10.80658 0.16632 7.27021 0 -18.04329 -4.11982 0.66997
-7.31711 0.03909 2.75175 0 28.13896 0.28111 0.37274
1.79553 0.26569 2.09618 0 -26.27940 -7.33911 1.01998
-0.36919 -0.30980 0.23369 0 29.66862 6.81187 0.21925
-3.47867 -0.22172 1.77668 0 29.18045 5.62984 0.49091
-4.89321 0.01096 1.92897 0 26.82788 0.97899 0.41710
-0.75775 0.11005 0.43702 0 13.57898 -1.73865 0.34835
5.88912 -0.00767 1.05804 0 0.56526 3.22610 0.17730
25.61087 0.21870 10.89920 0 26.52388 -5.21148 0.42536
-6.43798 0.22578 3.37876 0 -3.43563 -5.64494 0.51869
-10.90268 0.16266 4.68488 0 16.54992 -6.05902 0.42802
0.70736 0.13277 0.73374 0 2.14947 -3.03169 0.59905
-3.63242 0.25605 2.52187 0 17.04435 -6.77100 0.66944
0.44107 -0.20105 0.65275 0 -4.24139 7.03260 0.59724
-14.77749 0.11719 10.37669 0 -12.52319 -4.18365 0.70066
6.93958 0.10423 2.67144 0 -7.11941 -1.69251 0.38115
4.00693 -0.06156 2.81502 0 14.26577 1.17585 0.68170
-0.48714 0.18331 0.42518 0 16.63474 -6.84993 0.38226
0.54104 -0.01911 0.59526 0 14.43318 1.63365 0.52356
6.58806 0.13034 3.23001 0 -17.29091 -2.75618 0.48483
-0.56829 0.30385 0.42228 0 -29.53300 -7.48669 0.36718
-1.95622 0.07748 0.88056 0 27.74937 -0.96264 0.40088
-10.60108 -0.07416 4.51343 0 -3.68484 3.53077 0.42399
-9.10136 -0.01962 5.08856 0 3.57438 1.59191 0.55584
-4.26727 0.19863 2.97161 0 2.83813 -6.68519 0.67811
-7.92926 -0.06097 2.49019 0 -27.33615 0.26767 0.31174
2.41515 -0.08076 0.33056 0 -29.43083 6.75604 0.12657
-4.31253 -0.08077 2.12949 0 29.16369 3.58470 0.48116
-2.60622 0.26361 0.50345 0 -13.39683 -4.81992 0.18047
-11.70420 -0.19400 4.17241 0 -29.55600 4.40561 0.35533
-10.78048 0.02980 4.52822 0 -11.73432 -2.04114 0.41836
12.41581 -0.23016 19.54260 0 14.31118 7.34002 1.56896
-0.70055 0.27811 0.39119 0 18.20613 -6.58942 0.33285
-11.61863 -0.00945 7.73992 0 -28.17006 -0.40561 0.66379
-23.53947 0.17700 22.02363 0 24.78814 -4.65957 0.93481
-2.70317 -0.20255 6.39808 0 -27.89610 5.91398 2.21988
19.02727 -0.06042 6.03211 0 -15.94729 3.53193 0.31674
0.54861 -0.03407 0.48804 0 -27.64508 -0.09175 0.42791
-3.08268 0.23814 2.60543 0 27.92552 -6.37911 0.80404
2.67123 -0.10420 1.28088 0 -23.13161 2.05791 0.44912
-1.32081 0.13079 1.11675 0 0.01977 -3.06923 0.67414
-2.40626 0.15868 2.39684 0 24.24347 -4.10555 0.91986
-0.99625 -0.23298 0.94604 0 19.00388 6.25444 0.67025
-0.34499 -0.16698 0.41004 0 -20.90457 6.48842 0.38764
0.65459 0.25669 0.42528 0 -27.93420 -6.07398 0.35586
-0.44246 -0.04578 0.72336 0 -21.90229 2.23201 0.66152
-4.48875 0.16430 1.40736 0 -0.78811 -6.62400 0.30617
-15.83426 -0.24112 8.46616 0 4.20221 6.28759 0.53370
15.41914 0.22034 7.32056 0 -2.72846 -5.38770 0.47388
9.39086 0.13854 4.58985 0 -18.54907 -5.16891 0.48611
3.85001 -0.01739 2.75582 0 25.98957 -0.13501 0.69285
-22.97080 -0.19027 20.40867 0 28.40178 6.40149 0.88767
13.04352 0.08305 20.84613 0 -26.59268 -2.08677 1.59355
5.15914 0.22197 1.35754 0 10.41916 -4.50515 0.25852
7.80178 0.34735 1.78593 0 11.20406 -7.79424 0.22727
5.90118 0.18075 1.97223 0 -7.05297 -7.00498 0.32962
4.34479 -0.11193 2.13210 0 29.18828 2.35762 0.47830
0.42380 0.01424 0.36502 0 8.62925 1.17710 0.33612
-2.23634 -0.27931 0.69011 0 27.85251 6.49251 0.28199
-2.38590 -0.21007 2.98982 0 27.07681 5.91446 1.15574
-10.45664 0.13662 3.96510 0 -11.60987 -2.63998 0.37760
-5.12950 0.06993 1.67361 0 -26.86375 -3.64075 0.32032
-3.72243 -0.06232 0.79905 0 4.41285 -0.51847 0.20748
14.28360 0.22364 15.20663 0 -17.75342 -7.14986 1.06207
6.63007 0.09942 4.22336 0 29.99709 -3.72991 0.62995
-7.72353 -0.00178 6.80906 0 -23.96345 0.71963 0.87436
0.94311 0.22702 1.07739 0 18.95440 -7.44011 0.78382
2.00180 0.18787 0.68199 0 10.31088 -3.82012 0.30486
-2.11407 0.03351 2.44541 0 -3.84906 -1.41428 1.04569
-4.04107 0.07139 1.97155 0 24.35465 -0.97743 0.47370
-26.06671 0.16933 12.74998 0 29.96825 -3.91944 0.48887
-2.79495 0.20623 1.61836 0 21.33092 -5.11963 0.54525
26.02690 -0.17319 15.51789 0 0.86686 6.18341 0.59587
8.38315 0.11311 2.12653 0 21.58304 -1.26726 0.25207
2.86013 0.25148 1.91658 0 25.77866 -6.58886 0.63264
-0.90763 0.20072 0.56451 0 -23.90524 -7.26218 0.41806
-0.82120 0.12803 0.36013 0 22.49977 -1.90031 0.27838
-11.52086 0.02424 6.33528 0 -18.50477 0.28715 0.54793
-17.08988 -0.29191 9.96203 0 29.77684 7.86216 0.58201
-1.51121 -0.14080 2.13095 0 -22.35016 3.85934 1.17598
-5.25243 0.13222 1.39120 0 -27.72534 -1.89657 0.26036
-12.64389 0.05190 3.14886 0 -14.94008 -3.56617 0.24846
0.36563 -0.24136 1.13016 0 -25.10093 7.85063 1.06144
-0.73398 -0.00424 0.49517 0 -9.47276 1.49164 0.39922
-4.50724 0.10815 1.34788 0 -29.87244 -1.39882 0.29208
-6.07535 0.26626 3.20975 0 -16.44598 -6.83797 0.52140
-0.33820 -0.26853 1.00666 0 9.44614 7.54781 0.95360
0.81390 -0.00757 0.88746 0 27.40138 -0.43435 0.68832
4.19648 0.04752 3.18389 0 -7.19938 -0.65070 0.73809
4.34797 -0.21211 0.75193 0 18.03902 3.30994 0.16863
-1.59979 -0.24449 0.73560 0 15.17076 6.01415 0.39001
-0.82866 -0.07469 0.87228 0 27.95749 3.09286 0.67168
0.60220 -0.13559 0.55354 0 -23.55430 5.26925 0.47424
9.82408 -0.11600 5.90452 0 -0.62779 4.43997 0.59802
10.15813 0.18354 3.20233 0 25.56632 -7.17760 0.31389
9.69546 0.18965 3.40181 0 28.84425 -7.18582 0.34915
12.61302 -0.24433 5.27986 0 -10.96972 6.09992 0.41741
4.45057 -0.02043 2.34045 0 -21.01920 1.69326 0.51318
-0.62996 -0.29406 0.34932 0 25.31612 7.00471 0.29562
10.58676 -0.02782 4.98935 0 -29.98877 -0.17380 0.46930
0.47670 -0.26444 0.59682 0 21.99939 6.98122 0.53876
-4.41098 -0.21395 2.88151 0 19.74589 5.65130 0.63735
2.00531 0.27260 1.12798 0 2.73064 -6.98612 0.50346
3.82469 -0.01223 1.33352 0 -16.29501 1.96902 0.33743
1.36759 -0.25884 0.68448 0 -9.26872 6.48042 0.40411
20.95493 -0.00041 10.36282 0 14.18041 -0.94219 0.49406
5.77141 -0.18940 2.14925 0 27.95726 4.31754 0.36704
4.48491 0.15803 3.00171 0 -29.77337 -3.85387 0.65334
1.94868 0.03635 1.04742 0 -14.27094 -2.08416 0.47829
1.02798 0.06270 0.83942 0 11.12202 -0.92377 0.58535
-0.32718 -0.19959 0.29747 0 -5.85424 4.19095 0.28274
-16.57474 0.23113 8.20768 0 -24.40903 -5.75152 0.49439
12.00325 0.19949 6.78682 0 10.11551 -4.95254 0.56355
15.89553 -0.18237 22.56322 0 -12.07319 5.17518 1.41670
9.77540 -0.20509 7.19672 0 19.90523 6.98392 0.73245
1.85134 0.00925 1.07036 0 21.29474 0.80919 0.50877
1.13821 0.18511 1.08891 0 27.83808 -4.73013 0.71875
-3.72683 -0.12268 1.24148 0 17.54088 2.15384 0.32180
-13.72583 0.04989 4.59270 0 4.88103 0.11757 0.33386
-11.72170 0.07217 7.94393 0 29.07956 -2.84979 0.67533
-13.60209 -0.07800 3.07613 0 3.78702 0.15014 0.22576
-14.30449 -0.10498 8.90128 0 -28.95891 2.39776 0.62084
19.70630 0.12026 6.29209 0 19.13886 -5.19003 0.31904
-4.58056 -0.10613 1.97285 0 -14.52134 2.03921 0.42103
-0.11948 0.16369 0.28827 0 16.01863 -6.73214 0.28624
0.48485 0.12005 0.61745 0 -26.13498 -2.58621 0.55561
-0.31385 0.12690 0.30536 0 -2.87478 -5.55658 0.29136
3.67539 -0.35761 0.74984 0 2.71383 7.86730 0.19693
0.49029 -0.28517 0.50169 0 -2.00901 7.38652 0.45048
-3.22187 -0.19294 1.32931 0 -19.29671 4.51970 0.39413
-1.10313 0.04306 1.29585 0 -29.76169 -0.62236 0.87036
12.96179 -0.09867 5.46529 0 28.89632 1.81583 0.42051
12.30305 -0.08736 10.21224 0 29.74822 3.32931 0.82739
-14.63565 -0.09121 7.05872 0 8.75910 1.74788 0.48128
1.13112 0.11481 0.44706 0 -5.63768 -5.15274 0.29621
4.61752 0.24965 1.92813 0 27.19925 -6.06339 0.40821
22.64879 0.07826 10.59446 0 11.82219 -1.16764 0.46742
4.10012 -0.13257 5.85037 0 -14.01970 3.68094 1.38628
5.15212 -0.00064 4.05051 0 -27.70011 -0.56222 0.77184
1.39588 0.08807 0.85378 0 -4.76489 -1.52596 0.49727
1.56584 0.22559 1.21822 0 12.41136 -7.53706 0.65574
-7.57302 0.25280 6.77071 0 -29.66159 -6.87605 0.88642
1.24424 -0.24511 0.51827 0 10.86815 5.75608 0.32478
15.43431 -0.15034 9.03565 0 -0.55715 3.69399 0.58428
0.20996 -0.14103 0.39108 0 -18.70843 5.70831 0.38274
14.64470 0.33833 2.95698 0 -28.94037 -7.38498 0.21353
6.29182 0.23632 6.90197 0 -29.97209 -7.52416 1.08342
7.80365 0.06525 4.87537 0 -27.75977 -1.04863 0.61977
0.18274 0.16418 0.75938 0 -29.97493 -4.13692 0.74701
6.55239 0.01348 3.74381 0 17.26734 0.58211 0.56491
2.93061 -0.16669 0.60479 0 -12.36091 2.41437 0.19544
-12.25573 -0.00445 9.86490 0 15.22971 0.85236 0.80232
7.53584 -0.18091 1.78564 0 16.03270 3.27400 0.23510
-8.15936 0.24412 3.27687 0 21.82083 -5.87094 0.39875
-22.16290 -0.02065 16.65574 0 8.53240 0.01988 0.75082
-6.72783 -0.16139 4.71235 0 -23.14709 4.16181 0.69288
-1.44374 -0.28735 0.93232 0 26.51821 7.63644 0.53093
1.43093 -0.03565 1.30427 0 -14.94047 1.83776 0.74718
0.48840 -0.31704 0.37231 0 17.85956 7.88128 0.33457
1.35928 -0.13881 1.33408 0 -17.21183 4.91508 0.79062
18.31574 0.14825 13.52232 0 3.40638 -5.08786 0.73726
-3.26593 -0.31724 1.10108 0 -17.78078 7.82472 0.32246
5.40984 0.24827 1.46392 0 18.38771 -5.32469 0.26627
-4.09647 -0.04133 1.70227 0 -23.95682 0.05413 0.40378
0.07475 0.01403 0.44909 0 -7.26534 0.80257 0.44784
8.53706 -0.08787 1.92821 0 14.44003 1.20376 0.33945
0.19172 0.17635 0.32818 0 -12.72425 -6.93614 0.31701
-9.39276 -0.11205 2.29724 0 24.75961 1.32583 0.24340
17.08002 -0.18947 7.36088 0 -1.13217 4.52986 0.43034
0.72344 0.24111 1.28644 0 -26.70414 -7.69040 1.04230
0.32959 0.22498 0.21878 0 -25.27665 -4.09804 0.20781
0.07894 -0.12624 0.96105 0 -26.99283 4.41730 0.95807
-5.35858 -0.21875 2.70444 0 -12.40455 5.55422 0.49623
-17.84117 -0.19893 10.39969 0 -22.56597 5.12853 0.58207
-5.81078 -0.08939 6.06075 0 -1.80557 3.26788 1.02796
0.65199 -0.12276 1.08403 0 17.13748 3.19098 0.90809
-4.76323 0.08703 1.13736 0 -25.26977 -4.78258 0.23373
-1.36233 -0.14193 0.83955 0 -26.58124 3.28808 0.49685
-1.02485 -0.20096 0.46433 0 -26.48176 4.76657 0.39752
-1.50664 -0.15160 1.10912 0 -24.23792 5.61295 0.54342
-1.19135 -0.24802 0.57383 0 29.69692 6.03827 0.36900
-3.70240 0.08509 1.42696 0 7.70277 -3.87372 0.37220
-0.78181 0.05593 0.59774 0 12.12910 -0.50920 0.47095
0.82601 -0.11743 0.56660 0 -20.67537 4.81149 0.43688
7.32537 0.17776 2.36927 0 29.39422 -6.96011 0.32061
0.44787 0.12731 0.74277 0 -29.08668 -2.97021 0.67789
-0.02543 0.04133 0.89131 0 15.95747 -0.58412 0.89102
-12.58883 0.25067 11.25007 0 29.94102 -6.81612 0.89090
-18.28149 -0.20719 6.75481 0 -21.01166 7.80509 0.36907
-1.66036 -0.18166 0.47576 0 -26.03778 3.38971 0.24555
-2.68479 0.27927 1.49341 0 27.82385 -7.21866 0.52137
-5.14288 -0.10670 3.15152 0 -29.94515 2.42266 0.60167
3.10729 0.13026 0.46126 0 24.43782 -7.41586 0.15258
2.57193 0.06146 0.76555 0 27.67616 -3.63597 0.27753
20.75896 -0.22187 14.06398 0 -21.05420 7.55911 0.67678
4.64793 -0.02676 0.67272 0 24.08594 -2.75805 0.14165
-3.55108 -0.14648 3.60581 0 -19.60160 3.93829 0.97748
-1.54718 0.05608 0.66529 0 27.96181 -0.18405 0.36126
0.49777 -0.07648 0.51320 0 -28.62185 3.50587 0.45946
2.69616 -0.16428 1.51152 0 -4.48403 4.00749 0.52573
0.04431 0.29729 0.43280 0 8.41181 -7.52501 0.43238
0.49034 0.13170 0.40610 0 -9.46542 -5.32967 0.36465
-0.37060 -0.10668 0.84942 0 -0.71976 3.93757 0.79648
-0.52727 0.17781 0.72847 0 26.96721 -6.09271 0.64440
-7.90344 0.21962 5.77024 0 27.57422 -7.27323 0.72438
-1.43311 -0.10726 1.68903 0 -29.72648 2.76290 0.96656
-3.36693 0.01271 2.31986 0 -11.07825 0.47395 0.66057
6.38249 -0.05616 4.22760 0 29.75700 2.55360 0.65446
1.59624 0.11943 1.54323 0 -9.98278 -2.86742 0.81934
-0.06218 -0.03413 0.58804 0 15.09880 1.98009 0.58691
-4.42898 0.18839 3.01124 0 20.00964 -4.76584 0.66324
-17.64927 0.22313 11.54610 0 29.85146 -5.78034 0.65322
-9.42643 0.19371 2.70896 0 -3.87916 -7.67234 0.28594
-2.74986 0.09210 1.15680 0 5.76292 -1.38055 0.39546
-1.41454 -0.13157 0.69681 0 -2.02988 2.73703 0.40234
0.24617 0.02840 0.37618 0 -27.87923 0.62975 0.36528
0.06278 -0.22830 1.12261 0 -26.12636 6.44136 1.12040
19.87372 -0.20225 43.97849 0 -26.57813 6.39514 2.21012
3.76091 -0.10905 2.31400 0 -29.89612 2.48265 0.59469
14.55618 0.03126 7.77509 0 29.16603 0.10290 0.53298
-0.15267 -0.02160 0.50965 0 29.06287 -0.28563 0.50381
-0.42681 -0.02589 0.23286 0 18.78655 3.27204 0.21420
-19.81163 -0.05012 18.31487 0 -19.13840 1.03003 0.92333
19.18077 -0.28109 15.07363 0 -25.53315 7.79262 0.78487
-0.46946 0.25829 0.43271 0 -26.23365 -6.25966 0.39171
-4.18841 0.11552 0.90030 0 12.28152 -5.94173 0.20930
1.42119 -0.16582 0.62112 0 -24.12608 6.57281 0.35752
1.34366 -0.22948 0.95655 0 -7.15322 6.01153 0.57116
2.60004 -0.03167 0.77366 0 7.54600 2.88714 0.27800
1.03628 0.21466 1.88639 0 -28.66888 -5.94344 1.30992
-15.45110 -0.14186 5.71013 0 -19.63711 5.78690 0.36892
-1.49223 -0.03600 0.51395 0 -29.19127 -0.62681 0.28621
-16.21961 -0.07577 8.73539 0 -21.18557 1.39911 0.53764
4.92984 -0.05217 7.03703 0 -17.34035 2.01375 1.39903
5.96955 0.07984 4.21940 0 18.35927 -1.57609 0.69719
14.86478 -0.17578 4.36065 0 -5.36202 3.55860 0.29286
-19.39437 -0.29612 6.77198 0 28.75316 7.34723 0.34885
20.63818 -0.16031 2.85758 0 24.98499 3.09877 0.29183
-13.28159 0.03571 11.01309 0 25.61037 -1.61052 0.82692
5.51121 0.22623 1.97345 0 -28.75606 -5.17288 0.35241
-0.09442 0.13224 0.53381 0 -17.31204 -4.88276 0.53144
-22.35428 -0.11135 11.16888 0 22.50846 4.47393 0.49923
8.35669 0.04906 5.73167 0 -22.61862 -2.14600 0.68109
17.51554 0.06361 6.27435 0 -24.20847 -0.39505 0.35777
4.74608 -0.08094 3.41199 0 28.47994 1.77815 0.70354
2.67743 -0.14461 1.44934 0 -26.42611 3.38872 0.50716
14.03309 0.26261 4.53857 0 0.72229 -6.09023 0.32275
-0.07055 -0.05631 0.34206 0 6.69235 0.27000 0.34121
1.08241 0.21442 0.79420 0 24.91335 -5.34960 0.53899
-1.04446 -0.09027 0.83948 0 0.39034 1.90223 0.58059
-11.76671 -0.29722 5.47090 0 -13.70161 7.77136 0.46338
-4.30693 0.22497 1.82553 0 -6.59886 -5.35748 0.41295
-1.35959 0.12188 1.64532 0 16.60379 -4.11371 0.97490
25.38515 -0.28311 10.43683 0 13.35705 7.20873 0.41094
-2.30609 -0.02351 0.84378 0 2.21217 -0.73725 0.33581
-17.03715 -0.16726 8.79835 0 -22.97034 6.14504 0.51563
6.61148 -0.19971 5.05951 0 16.65480 6.79582 0.75672
-14.94147 0.08333 5.43491 0 29.82454 -3.85568 0.36307
9.45286 -0.06748 2.59186 0 27.88083 0.22801 0.27284
8.21062 -0.12755 4.40912 0 29.23965 4.89901 0.53315
2.12951 -0.28545 0.70802 0 -26.72980 6.79059 0.30104
0.90566 0.25550 0.49051 0 19.20512 -6.07186 0.36364
6.00876 -0.07211 1.76510 0 21.40710 3.90442 0.31373
-10.26514 0.05166 5.49972 0 11.61829 -0.50858 0.53333
1.75078 -0.04621 0.88536 0 5.03324 2.64113 0.43923
-1.54784 0.12444 0.71707 0 -4.62471 -5.01366 0.38921
0.70640 0.30944 0.28934 0 29.74234 -6.81903 0.23640
-0.09142 -0.11738 0.85373 0 -18.41415 2.99148 0.85018
5.10786 -0.30447 1.98919 0 27.34051 7.72765 0.38251
18.74033 0.14379 9.37250 0 -28.52539 -5.29952 0.49951
3.97366 -0.21457 1.94599 0 11.30577 7.68965 0.47498
6.60493 0.03791 2.22121 0 -25.12442 -2.60592 0.33265
1.86220 0.15677 0.58992 0 -20.92742 -6.56568 0.27921
2.81323 -0.19186 0.77233 0 -29.70383 7.98751 0.25882
9.11500 0.22466 7.79729 0 29.92320 -6.01691 0.85039
2.38365 0.01251 0.49324 0 -15.02708 2.39907 0.19095
5.49096 0.29125 3.23485 0 24.87236 -7.67641 0.57968
5.66715 0.22522 5.51370 0 21.60238 -7.25478 0.95820
4.31124 -0.19409 3.64420 0 10.52840 5.25296 0.82344
1.85467 -0.13684 0.69607 0 14.66757 5.80421 0.33048
-18.05510 0.01550 7.63070 0 0.57606 0.82796 0.42210
1.47998 -0.17417 0.48263 0 -23.24142 3.36389 0.27031
17.39116 -0.19001 9.98786 0 -26.81402 4.85134 0.57344
17.94242 -0.15021 6.15300 0 -29.57797 3.06375 0.34254
6.09796 0.18651 2.02748 0 -26.93040 -3.90215 0.32825
-2.31350 -0.17549 1.82813 0 -17.98713 4.61420 0.72537
-16.22925 -0.13492 9.75578 0 23.22137 5.08007 0.55719
-0.60786 0.04631 0.74951 0 7.33627 -2.11108 0.64049
0.87491 -0.06423 0.51173 0 -7.94239 3.29908 0.40130
-18.96354 0.19890 10.76762 0 -22.50843 -6.85398 0.56710
2.77862 0.05115 1.63159 0 10.68600 -2.38582 0.55261
1.38157 0.24121 0.58889 0 9.53896 -5.57842 0.34539
-5.41376 0.08566 6.61177 0 4.28378 -2.91995 1.20100
-0.94352 0.21288 0.60704 0 29.73638 -5.08643 0.44157
1.49055 -0.21483 2.00763 0 -24.20324 7.01866 1.11854
20.86914 0.23209 6.67920 0 26.43030 -5.19012 0.31984
0.85691 -0.25728 0.67494 0 -15.41633 6.71951 0.51255
-15.42542 0.03712 3.67959 0 -8.73800 -3.20513 0.23825
-1.44886 0.12253 0.79448 0 -4.40650 -2.44572 0.45141
1.86566 0.01787 0.97903 0 -4.81143 -1.56344 0.46259
7.15030 -0.01099 3.65363 0 -21.73602 -0.59956 0.50614
0.57210 0.00600 0.36626 0 -29.99045 1.51252 0.31794
3.27511 -0.15526 3.07858 0 28.15296 4.15300 0.89909
13.42517 0.18196 7.96397 0 22.15411 -4.47906 0.59165
16.16658 -0.08010 7.47537 0 7.49520 1.37136 0.46162
11.60716 -0.08704 7.20874 0 -13.68003 3.53256 0.61885
0.00167 -0.13781 0.22032 0 28.67867 6.67038 0.22032
1.89727 -0.03452 0.92672 0 28.51266 -0.06647 0.43219
1.35509 0.25569 1.58376 0 -18.30618 -6.99715 0.94045
19.56963 -0.11291 13.56695 0 16.07315 2.71998 0.69243
4.48569 -0.12628 3.27988 0 20.59848 4.60780 0.71376
-0.02884 0.23988 0.79010 0 29.84046 -6.41836 0.78977
-2.69915 -0.00587 1.53827 0 6.04652 -0.69975 0.53449
12.49729 0.12522 2.79416 0 27.40546 -6.08199 0.22309
-14.85599 0.16135 6.88351 0 25.71745 -5.92386 0.46241
-2.70778 0.14876 1.78219 0 28.80680 -3.53248 0.61750
-1.12315 -0.26409 1.93997 0 28.49587 7.56875 1.29006
1.29501 -0.09894 0.35999 0 -2.85325 5.45789 0.22013
6.05173 -0.01873 3.92369 0 29.10042 -0.15601 0.63976
-2.64747 -0.20058 3.77335 0 21.89516 6.50754 1.33339
-0.50146 -0.10387 0.36689 0 3.26300 4.80290 0.32799
-12.97415 0.13391 7.35225 0 29.11415 -4.87360 0.56509
-1.16112 0.23057 1.85493 0 2.77111 -6.38227 1.21051
0.21974 -0.13049 1.00429 0 29.72225 4.53292 0.98089
3.92683 0.07323 2.12543 0 29.35604 -1.13716 0.52456
18.59569 -0.00930 6.93178 0 14.75607 1.73735 0.37236
-0.17073 0.10378 0.41956 0 28.55965 -4.30113 0.41358
-19.15196 -0.18188 31.04238 0 2.66184 5.20738 1.61868
21.55272 0.18729 15.27845 0 -10.10798 -4.78387 0.70819
-0.59290 -0.17582 0.67365 0 3.42432 4.44147 0.57949
0.82280 0.06242 1.67031 0 -10.91663 -1.39322 1.28985
-0.74122 0.28718 0.47696 0 -8.98392 -7.06761 0.38322
0.85224 -0.02682 0.52825 0 14.61804 -0.38607 0.40210
0.71591 -0.09172 0.31144 0 -12.44926 4.91203 0.25328
1.35869 0.09857 1.43851 0 -21.96337 -3.48654 0.85274
