0.91284 -0.01613 1.82311 0 26.16970 0.94518 1.34649
-7.22303 -0.14340 3.11389 0 -27.41783 5.63363 0.42714
6.43555 0.06865 2.68401 0 -11.50631 -0.73440 0.41223
-0.50859 0.17778 0.59465 0 23.71388 -6.27548 0.53006
1.35501 0.03533 0.37013 0 11.99375 1.35099 0.21994
2.22355 0.20692 0.94218 0 27.43652 -7.56432 0.38659
-5.88884 -0.24322 5.50095 0 -10.01764 6.77813 0.92098
-10.14879 -0.18874 5.33429 0 21.91399 4.72532 0.52317
-12.82217 0.13401 8.89781 0 -17.83677 -3.18488 0.69191
-4.69808 0.01944 5.54765 0 -0.97358 -0.94515 1.15499
-2.58630 -0.00016 0.77707 0 23.85414 -1.74420 0.28033
-0.84303 0.05340 0.71083 0 13.93042 -2.46930 0.54351
-0.91582 -0.06573 0.79677 0 -18.38511 1.18036 0.58762
-0.33308 -0.11722 0.68785 0 17.05519 4.40277 0.65261
6.10270 0.19231 1.77852 0 22.38915 -7.61610 0.28776
10.70106 0.17025 6.20707 0 -19.03411 -4.11113 0.57761
21.23002 0.07148 17.53477 0 -26.42080 -1.44033 0.82509
-0.55972 0.25867 0.23729 0 28.33026 -5.05496 0.20712
-20.61732 -0.16818 7.55641 0 -3.88779 6.60891 0.36621
0.96358 -0.07661 0.45511 0 -25.26893 3.96982 0.32777
1.33557 -0.03575 0.57787 0 -21.75461 -0.32275 0.34645
4.09698 0.16084 1.91620 0 -29.94854 -5.93559 0.45193
4.06111 -0.09053 1.68488 0 -29.73365 1.52068 0.40296
2.92913 -0.22391 3.71400 0 2.05555 6.34297 1.19997
-25.49762 -0.06444 7.75372 0 22.01126 3.72417 0.30402
-1.12117 -0.01309 0.40383 0 29.74826 2.38634 0.26889
4.74007 0.09522 2.83887 0 27.34979 -3.66511 0.58609
-15.70744 -0.18790 9.49761 0 -0.98049 6.62088 0.60352
-1.16285 -0.13613 0.80708 0 29.86046 3.17462 0.52628
-2.65218 0.01745 1.17554 0 8.11978 0.79056 0.41490
-0.06069 0.08340 0.52342 0 -18.63842 -3.41592 0.52246
4.15319 0.15205 2.45094 0 -26.68859 -3.56601 0.57381
-6.36798 0.11613 1.72003 0 25.27845 -1.48405 0.26892
15.84959 0.20289 15.00928 0 -1.48137 -6.58450 0.94515
-17.52351 0.11271 10.20988 0 25.77918 -4.20224 0.58178
10.06112 0.02587 5.88164 0 -26.09134 -1.57646 0.58181
19.24135 -0.01091 14.20906 0 -26.91159 1.10250 0.73754
-11.95807 0.11913 3.21972 0 -27.05520 -1.56965 0.26849
9.85256 -0.28669 2.17750 0 -24.30637 6.16671 0.22010
0.71045 0.01967 0.68678 0 22.43430 -1.42431 0.55991
0.59924 0.09575 0.48901 0 22.42316 -1.56368 0.41950
6.29274 -0.17138 3.21890 0 5.78477 6.29290 0.50528
0.46464 0.00925 0.77345 0 26.00052 -0.92584 0.70145
20.66188 0.02220 31.30355 0 -21.19086 -0.24695 1.51330
10.83662 0.23595 3.11449 0 7.52880 -5.10831 0.28636
-13.41949 0.13693 7.35352 0 29.94308 -3.07215 0.54655
1.48137 -0.14675 2.10514 0 14.55291 4.03764 1.17786
15.15011 -0.12649 9.92409 0 -23.42553 4.68264 0.65370
7.98382 0.19661 3.03093 0 -29.26072 -4.40360 0.37682
0.90735 -0.05776 0.56271 0 -29.95465 3.05463 0.41680
-14.93196 -0.16744 4.54595 0 -4.57618 6.89769 0.30392
0.59954 -0.19172 1.96149 0 13.92203 6.15479 1.68231
-4.42285 -0.19828 1.83487 0 -28.01679 4.70845 0.40380
0.05338 0.18954 0.50145 0 13.98743 -6.69680 0.50073
0.78978 -0.22075 1.11559 0 25.59374 6.08203 0.87550
-0.69916 -0.23198 1.39927 0 -13.29479 7.52628 1.14679
-19.60855 -0.03190 13.82888 0 6.37932 1.76645 0.70440
11.84712 0.21995 4.22770 0 -4.22282 -5.00387 0.35573
-19.28351 -0.08350 8.58407 0 16.31071 1.43053 0.44466
4.96142 0.20139 4.25371 0 9.59429 -5.32007 0.84056
-0.28990 -0.13649 0.62205 0 28.95061 5.06313 0.59746
0.17251 -0.01181 1.11958 0 -25.31905 0.89915 1.10329
-3.83666 0.04134 1.32538 0 -27.63170 0.22849 0.36874
-24.71699 -0.24043 10.42875 0 -27.54227 6.09781 0.45706
-15.58299 -0.20973 2.87874 0 -13.32240 3.89685 0.21432
-11.75678 0.23089 3.33761 0 11.61426 -5.38137 0.37019
14.11722 0.09627 5.69561 0 -8.00135 -1.74822 0.48692
-4.72544 0.26253 4.09976 0 21.25760 -7.13613 0.84886
-0.41968 -0.06631 0.51740 0 -1.26552 1.00393 0.48069
-0.84934 0.01152 0.53609 0 27.91511 0.98781 0.40865
-2.28301 -0.25178 4.07576 0 28.20584 7.29366 1.63529
-13.27888 0.04357 5.25536 0 -23.59184 0.07020 0.39477
-2.95320 0.18919 4.04179 0 3.35210 -5.18092 1.29636
-1.81677 0.10700 1.91749 0 26.84925 -3.69350 0.92467
-0.23671 -0.01937 1.04753 0 11.64245 1.16460 1.01936
-1.58651 -0.19869 1.13573 0 25.90086 5.19660 0.63448
0.24793 0.08858 0.78868 0 -26.71920 -3.25470 0.76550
-18.14898 -0.12746 10.41753 0 -8.81200 2.99752 0.57322
25.91334 -0.07592 15.79804 0 -19.60730 1.51552 0.60928
23.71744 -0.15838 7.58555 0 -29.98155 3.19630 0.31970
2.00339 -0.05130 0.89378 0 -2.08224 2.91372 0.39926
-21.91332 0.13366 13.57163 0 -2.13107 -3.08578 0.61877
0.06085 0.27036 0.58736 0 29.92012 -7.07515 0.58627
-15.31383 0.11250 6.85133 0 -28.98419 -2.13547 0.44655
-26.89649 0.04785 13.41061 0 -2.95761 -2.38810 0.49835
-12.33658 0.22133 3.76000 0 -15.01996 -4.79088 0.30395
11.50529 -0.31965 2.71109 0 4.49232 7.25618 0.23496
7.56674 0.09285 3.90070 0 -8.62593 -1.69650 0.51116
-3.73358 -0.26144 1.50161 0 -29.88618 6.50267 0.38858
-6.87411 -0.16027 4.42128 0 19.40213 4.06181 0.63655
9.01500 0.02691 3.82183 0 9.94470 -1.94477 0.42147
0.95209 0.16467 0.43508 0 27.89855 -6.58365 0.31517
-1.57846 -0.03813 0.37656 0 -17.05834 -1.31716 0.20165
15.69909 0.25715 12.45366 0 29.55774 -6.93027 0.79173
0.52074 -0.23910 0.69806 0 28.37393 6.36825 0.61917
-9.49120 -0.13652 4.43018 0 19.35320 3.05487 0.46430
-4.85821 0.37683 0.83259 0 -24.06393 -7.75163 0.16805
0.98223 0.13767 0.26355 0 -29.96778 -1.53116 0.20553
0.85753 -0.10401 0.73370 0 14.67294 4.14101 0.55699
-25.30442 -0.24272 7.24175 0 28.33570 5.46548 0.28613
3.19321 -0.04206 1.29287 0 19.89116 2.67699 0.38643
0.47253 -0.10293 0.83709 0 -4.00972 3.85891 0.75686
-0.38652 0.04132 0.59475 0 -6.42962 -0.23597 0.55477
-4.95502 0.00913 2.11381 0 6.83417 -1.41802 0.41823
-0.64344 -0.20894 0.24645 0 17.40496 3.79212 0.20731
0.38873 -0.17267 1.09917 0 28.74276 5.78583 1.02449
-20.47197 0.11870 18.84025 0 -27.07844 -2.91424 0.91925
-0.45423 0.08158 0.39505 0 3.67174 -0.93892 0.35971
7.51552 -0.01341 2.34436 0 10.08306 2.14379 0.30937
0.93856 -0.11123 0.58548 0 -29.55947 4.63039 0.43396
-13.02668 -0.25390 3.87471 0 -26.37315 5.85523 0.29673
1.08880 -0.14674 0.77745 0 -27.62011 3.48858 0.52596
-3.82335 0.04683 4.65449 0 -29.36270 -1.81294 1.04973
0.61117 -0.12987 0.48273 0 29.54786 2.71074 0.41010
-6.21488 -0.19790 3.22180 0 -7.83799 7.09165 0.51191
-1.92617 0.23012 1.44400 0 24.12506 -6.00181 0.66541
25.75307 -0.01691 10.07319 0 28.96356 -0.72002 0.39098
-0.63563 0.22211 0.57361 0 5.20620 -5.46352 0.48413
0.96727 -0.15766 1.65662 0 -6.18763 4.36748 1.19076
-0.61445 0.14548 0.63307 0 1.51373 -3.31340 0.53941
2.61293 0.09094 1.07682 0 28.21546 -1.31072 0.38496
1.47393 0.05904 1.25671 0 -29.69651 -2.42060 0.70561
-5.98615 0.07331 1.43556 0 -10.09024 0.04695 0.23674
-16.08574 -0.13001 19.34646 0 23.05912 4.42003 1.20043
-1.15316 0.11490 0.61812 0 -27.82730 -4.66795 0.40504
18.17713 0.12082 21.43240 0 -13.55704 -3.10116 1.17735
0.66525 -0.20271 0.67870 0 -12.02879 7.13653 0.56510
1.85628 -0.20462 0.83867 0 -7.39387 7.61378 0.39787
2.85753 -0.08599 1.47061 0 17.52872 1.60220 0.48583
0.81167 -0.03365 0.90408 0 17.55177 1.82188 0.70198
-3.03764 -0.12887 2.86436 0 26.21253 4.53542 0.89571
-2.29016 -0.05632 1.19581 0 5.28740 0.70069 0.47858
1.57106 0.32424 0.50841 0 0.73973 -7.55119 0.27312
-25.05611 0.04688 24.07141 0 -29.37856 -1.86045 0.95999
1.25461 0.00310 1.03785 0 -20.27629 0.77877 0.64692
-17.47787 -0.14422 9.81791 0 -29.46091 5.35699 0.56090
-18.18679 -0.07796 26.94053 0 -21.35058 2.76956 1.47913
2.21131 0.13759 0.89482 0 -15.78025 -2.63640 0.36892
0.30310 0.08605 0.43939 0 24.33839 -1.27782 0.42050
-0.19461 -0.21894 0.50631 0 -18.07311 7.77159 0.49699
1.14439 -0.26213 0.48222 0 15.12117 6.21090 0.31740
-4.61422 -0.22034 3.22230 0 28.72779 5.89583 0.68256
2.66804 0.17846 0.93060 0 -29.60266 -3.65845 0.32669
2.86622 -0.08709 2.42429 0 4.71413 3.34387 0.79864
20.56670 0.23902 9.17388 0 25.06479 -5.86372 0.44564
1.18129 0.00456 0.59120 0 -18.88560 -1.39661 0.38206
3.37209 0.19305 1.10395 0 29.34584 -4.02166 0.31408
-15.64679 -0.28097 8.37289 0 -8.78756 7.45612 0.53412
0.00629 0.31448 0.21998 0 -12.52902 -6.78939 0.21997
22.77135 0.16972 11.09294 0 -0.38450 -6.12085 0.48678
-4.18568 0.05377 1.70885 0 -0.78547 -0.29505 0.41396
14.37820 0.22791 5.66092 0 -21.52277 -5.33340 0.38052
6.04781 0.08792 9.95285 0 -24.54828 -2.87546 1.62371
-1.07321 -0.27047 0.46728 0 -28.43487 6.45820 0.31860
-3.23689 0.26112 1.45055 0 5.96003 -6.46023 0.42832
-1.92884 -0.09054 0.68695 0 21.94326 1.17270 0.31632
0.63599 0.18241 0.94037 0 27.28309 -4.71958 0.79351
1.22913 -0.16812 0.46055 0 10.35037 3.32125 0.29073
9.13832 0.08465 6.21382 0 -8.98341 -3.22635 0.67601
-8.13750 0.09116 1.83378 0 29.99050 -0.36040 0.22388
-0.38468 -0.10124 0.24025 0 -2.54141 5.48347 0.22426
-0.74721 0.04469 0.50667 0 -0.24996 0.00108 0.40592
0.02780 -0.12241 0.22344 0 24.97076 1.44328 0.22335
1.91475 -0.12499 1.28388 0 14.21710 4.71822 0.59444
0.99524 -0.04955 1.10994 0 4.49150 0.91675 0.78674
0.52086 -0.14809 1.02652 0 19.53711 3.94687 0.91044
22.27037 -0.21539 11.04970 0 3.25780 5.45443 0.49576
-26.30790 0.22510 12.86421 0 -28.14720 -7.81802 0.48873
-3.98246 -0.11081 2.27374 0 29.72789 2.47098 0.55378
-24.59042 -0.21855 14.71479 0 -18.73719 5.73188 0.59798
-23.89331 0.19523 23.18414 0 10.73398 -5.22175 0.96952
-21.36967 -0.15461 7.79546 0 27.89651 6.19726 0.36453
-12.85217 -0.02253 6.62161 0 21.05927 1.75553 0.51375
-2.75035 -0.10784 1.02867 0 -19.03256 4.81490 0.35160
8.75067 -0.19081 5.09949 0 4.46505 6.74846 0.57907
-18.33447 -0.07579 7.08319 0 29.28118 1.02537 0.38588
-4.07729 0.05186 1.64751 0 27.89597 -2.79008 0.39260
-8.80621 0.22566 2.66446 0 -28.09662 -4.89851 0.30079
-7.53057 0.12913 1.72574 0 -6.18381 -6.15733 0.22738
-19.91490 -0.07525 18.83593 0 -24.30634 1.79437 0.94469
0.32080 0.12961 0.80486 0 29.99934 -3.12679 0.76640
-9.88182 0.03219 5.04406 0 27.59833 0.12242 0.50794
0.41630 0.09849 0.49837 0 29.99863 -4.01063 0.46011
1.79919 -0.11291 0.94876 0 17.49660 2.34634 0.46101
-24.34693 -0.00834 21.88544 0 -25.05357 -0.23757 0.89820
2.80421 0.10923 1.51877 0 -9.08068 -2.18207 0.51024
-0.02384 -0.11367 0.60208 0 -28.90643 4.36348 0.60191
-1.07065 -0.27179 0.54858 0 27.94502 6.75061 0.37450
3.36147 -0.00712 1.18322 0 26.90413 1.81452 0.33747
0.03920 -0.08663 0.39437 0 -1.60371 1.37575 0.39407
-1.75132 -0.13360 0.60694 0 -9.54805 2.36637 0.30106
-5.99370 -0.00277 3.60988 0 20.68560 1.02540 0.59429
3.78051 -0.12510 1.53902 0 29.49218 2.51731 0.39369
5.11839 0.01636 2.25817 0 -20.09664 0.77142 0.43307
2.93056 0.10032 2.88850 0 -9.04666 -2.37407 0.93287
4.06801 0.16911 1.64925 0 -3.15495 -3.65511 0.39377
-1.72567 -0.12942 0.60496 0 -14.36011 2.25640 0.30347
-0.76916 -0.17901 0.98427 0 23.39493 6.14423 0.78021
3.19836 0.12454 1.64512 0 20.72870 -2.59750 0.49099
-2.80523 -0.16763 1.66231 0 13.15836 6.07567 0.55827
0.46460 -0.27685 0.24253 0 -27.12065 5.88567 0.21999
-13.69451 0.15071 10.94922 0 -4.44492 -5.10760 0.79747
-0.65784 0.13195 0.58341 0 -27.77111 -2.80961 0.48742
-0.10696 -0.05733 0.57077 0 28.38255 2.71020 0.56753
-12.98397 0.31603 2.61852 0 -21.84997 -6.60479 0.20132
-1.19971 0.19494 0.66804 0 29.38145 -7.05326 0.42779
-24.35727 0.16629 32.66562 0 2.19188 -5.30651 1.34002
0.10897 -0.00900 0.21728 0 -5.07865 -2.02689 0.21600
9.93887 0.08244 10.59445 0 12.29826 -1.90639 1.06065
11.31060 0.17090 18.30054 0 -9.56301 -5.37800 1.61174
-0.48991 -0.18679 2.22889 0 23.93916 5.41702 2.00160
-2.83477 -0.01992 2.04447 0 -3.22918 -0.07284 0.68018
0.44274 -0.02533 0.24508 0 22.86582 3.14629 0.22413
-0.24523 0.26768 1.36173 0 28.04284 -7.52338 1.32254
-1.12181 0.28340 1.05594 0 -7.94253 -7.61482 0.70270
16.37688 -0.12469 11.25386 0 -27.96426 4.58971 0.68597
4.42173 0.07663 1.87653 0 -27.82094 -3.47273 0.41414
-3.36723 0.27394 1.48185 0 -22.06321 -6.81466 0.42198
3.33985 0.04980 2.51677 0 -19.31046 -0.70349 0.72194
16.25329 0.19406 12.14213 0 -25.85785 -6.47199 0.74571
-2.14011 0.07081 1.49471 0 2.85947 -2.86060 0.63282
0.74939 0.10957 1.63372 0 -11.46703 -3.60574 1.30517
-0.13348 0.25001 0.74407 0 -6.83839 -6.66858 0.73753
1.59568 0.01065 0.57208 0 28.71940 1.44739 0.30389
8.28757 -0.29542 4.02426 0 -22.05082 7.76582 0.48218
0.82159 0.26426 0.91368 0 29.82309 -7.05544 0.70600
6.80468 -0.07665 1.75931 0 10.78645 4.42546 0.25598
3.13126 -0.05690 1.04540 0 19.49296 0.17912 0.31818
1.16046 0.05413 0.70743 0 28.67319 -0.43408 0.46187
-1.72375 -0.03764 1.30995 0 -10.57914 0.43220 0.65739
-3.91823 -0.18543 2.66567 0 -2.43957 6.46841 0.65923
-0.34393 -0.18898 0.82289 0 29.98665 5.06381 0.77816
-0.00156 -0.02562 0.83178 0 -27.76687 1.46589 0.83178
-5.74678 -0.09742 3.86449 0 24.27016 2.22487 0.66255
-0.81254 0.09160 1.10152 0 4.15085 -2.06327 0.85491
0.24090 -0.04460 0.25753 0 -24.39241 -0.62530 0.25037
-2.54458 -0.03823 0.91772 0 -7.41759 2.76281 0.33594
-15.54569 -0.18256 4.33676 0 26.88263 7.20796 0.33269
-17.14273 0.15930 16.61110 0 -29.14977 -5.24979 0.96739
0.01744 -0.15100 0.29342 0 -13.48344 6.45266 0.29338
13.29885 0.02430 8.33884 0 14.45181 -1.46765 0.62535
18.32010 -0.07523 21.39367 0 -9.48867 1.89695 1.16608
2.18976 -0.21280 2.87415 0 21.92778 6.01037 1.19399
-2.92134 0.24702 0.70647 0 29.83842 -4.96361 0.22883
3.80164 -0.00767 1.92458 0 29.67306 1.35703 0.48965
19.33414 0.07573 18.16310 0 19.92375 -2.74185 0.93823
1.70304 0.12006 0.55567 0 -23.21960 -1.73810 0.28987
-10.49604 -0.06798 12.70944 0 -27.14135 1.69455 1.20546
1.80329 -0.14088 0.45071 0 -6.28528 6.78512 0.21875
0.19266 -0.14538 0.72891 0 -1.38682 5.18506 0.71575
-16.91696 -0.26877 11.23684 0 -26.95328 7.37303 0.72666
1.32931 -0.15424 0.53372 0 26.63760 6.39122 0.32095
-15.62560 0.19875 8.19061 0 -26.19074 -6.93163 0.52320
-5.91851 -0.14133 2.05825 0 28.97772 5.88182 0.34315
12.03609 0.14853 6.74504 0 -6.22795 -5.32975 0.55856
18.05895 0.16275 6.37790 0 25.29366 -3.31439 0.35277
-3.29983 -0.11862 1.45682 0 29.78337 4.88849 0.42285
1.43028 0.06790 1.08352 0 10.26863 -1.12939 0.62091
2.69468 0.14577 1.13646 0 -29.38072 -5.64558 0.39547
-6.83211 -0.25435 4.54338 0 0.97086 6.86917 0.65807
-7.63126 0.23222 6.78265 0 -13.48017 -6.26326 0.88132
-0.10896 -0.01589 0.42764 0 28.13449 -0.64511 0.42513
-0.22780 -0.26499 0.37725 0 16.73547 6.52715 0.36783
0.23502 0.16491 0.79196 0 28.86550 -4.18068 0.77096
6.36175 -0.17580 5.26361 0 23.58416 4.70523 0.81741
2.43006 -0.04972 0.49691 0 -28.39229 4.33106 0.18927
-0.77723 -0.24866 0.39187 0 -4.31480 5.77789 0.30948
-16.31359 0.00205 7.10321 0 -26.54015 -1.15801 0.43471
-26.50888 0.09586 18.78996 0 -28.59352 -3.52989 0.70838
-0.65409 0.08223 1.41641 0 -28.94889 -1.95101 1.18537
-0.32872 -0.28666 0.57602 0 -4.64231 7.64754 0.54722
-1.95385 0.20261 4.74676 0 23.29878 -6.24904 2.16266
-0.55189 -0.16651 1.83034 0 8.99370 4.74551 1.60250
-6.05653 0.20171 3.46609 0 27.95107 -5.01996 0.56473
-5.50924 -0.02443 1.20597 0 -23.48050 3.21137 0.21561
15.02880 -0.02486 23.43629 0 -6.73675 0.49835 1.55602
2.32960 -0.09916 2.40393 0 -0.48443 2.51084 0.94827
-15.76024 -0.32530 3.32424 0 -15.39896 7.14796 0.21073
0.60527 -0.17116 0.74701 0 -24.41019 4.38786 0.63909
13.74785 0.08530 8.41000 0 -21.24341 -1.63438 0.61020
2.07238 0.05615 0.72611 0 17.31495 0.01825 0.31573
26.41200 0.09320 16.94490 0 -0.47601 -3.53444 0.63550
19.37653 0.08645 4.37678 0 14.73809 -0.53297 0.25930
-3.12167 0.03446 1.36787 0 -28.44024 -2.18463 0.41743
-23.85397 -0.18103 14.38308 0 29.96922 6.41270 0.60252
23.23015 0.09169 13.29943 0 15.24993 -1.76871 0.57206
-3.51346 -0.30252 1.16095 0 -14.82723 7.37460 0.31735
-7.55106 0.15852 11.57461 0 -29.93459 -4.32639 1.51961
-1.03594 0.14561 1.16549 0 -29.75520 -4.94311 0.80948
0.23094 0.16475 1.86855 0 -24.56731 -4.56978 1.82064
-12.26663 0.20048 5.05241 0 11.41807 -4.63232 0.41064
-11.14918 -0.13044 5.28907 0 19.22031 2.89423 0.47260
2.94773 -0.18591 1.70489 0 29.54725 6.65304 0.54780
-0.67635 0.17475 0.65921 0 29.49932 -6.15266 0.54606
0.33580 0.07132 0.57464 0 -26.18504 -3.00895 0.54475
-14.54899 -0.21138 5.27383 0 -28.12991 4.94058 0.36177
2.19085 -0.09230 2.74213 0 -8.33021 2.39677 1.13872
0.19536 0.04457 0.23451 0 6.51824 0.96906 0.23017
-1.53619 -0.00747 0.84088 0 29.97355 -0.80969 0.45879
-11.89839 0.07055 4.17421 0 5.26422 -0.56953 0.34973
3.17231 -0.14901 1.57998 0 8.84210 5.67699 0.47515
9.09567 0.02591 3.92597 0 7.84835 0.49575 0.42916
0.96301 -0.11384 0.77704 0 29.83430 2.57094 0.55974
6.92603 0.18273 7.04473 0 -28.54390 -4.87034 1.00675
-3.63580 0.27807 2.24689 0 -4.33852 -7.31648 0.59595
2.77451 0.27730 0.99178 0 28.37302 -6.58350 0.33648
6.07278 -0.02132 2.73415 0 8.40017 -0.43013 0.44435
-11.90598 -0.24532 14.05909 0 -23.73641 6.96995 1.17674
-0.04101 -0.15594 1.07384 0 24.99144 5.25604 1.07294
-0.14238 -0.12549 0.51226 0 -29.99791 2.82162 0.50714
-1.80395 0.25547 0.75526 0 15.00838 -6.08185 0.36628
0.07305 0.16726 0.33990 0 -18.03601 -6.53977 0.33900
-0.00108 -0.23520 0.33849 0 17.06788 5.53480 0.33849
-1.65672 0.09696 0.69473 0 -21.97354 -1.39428 0.35913
17.18438 0.04546 41.30767 0 21.63700 -1.06897 2.39975
-13.39759 -0.21552 8.24600 0 24.36134 5.66569 0.61386
1.11847 0.18775 1.24741 0 21.92705 -6.20408 0.83146
2.97258 -0.07986 2.57384 0 -0.78784 1.85006 0.82070
-3.42545 -0.21863 2.36264 0 28.57704 5.82113 0.66216
0.89708 -0.14493 0.48358 0 28.98894 2.98120 0.36000
-0.36306 0.07215 0.50777 0 24.90144 -1.00810 0.47730
-10.12353 0.07559 14.93461 0 -12.18901 -2.53819 1.46813
-13.99406 0.04254 9.17023 0 -1.25924 -0.41206 0.65370
9.35235 -0.04829 11.82471 0 -22.60365 1.93852 1.25723
-0.92910 0.08047 0.32774 0 -29.93203 -0.19782 0.24021
-0.46276 -0.02673 1.02517 0 22.38391 1.43395 0.93039
3.88925 -0.08113 3.06192 0 25.92081 1.84026 0.76254
0.76047 0.26332 0.75482 0 2.65158 -6.89126 0.60084
-6.10438 -0.05592 5.90815 0 -29.79008 2.29783 0.95517
-3.26238 0.14095 1.76941 0 29.99822 -3.14064 0.51866
1.53409 0.09678 1.56438 0 -14.93571 -3.43141 0.85432
2.42546 -0.10218 0.89206 0 -13.28930 1.63208 0.34015
0.91713 0.02673 0.73929 0 7.30419 0.21772 0.54488
1.24871 -0.16840 0.93208 0 29.99370 4.22665 0.58268
-10.06841 -0.08136 3.21776 0 29.80622 0.90919 0.31818
-21.50550 -0.06282 17.11792 0 -27.58929 2.61459 0.79518
-1.60567 0.19496 1.50399 0 20.01788 -5.09320 0.79513
2.17364 -0.15907 2.71985 0 13.68242 5.32254 1.13681
5.04559 0.21883 1.35486 0 26.24373 -4.45274 0.26353
0.47234 -0.01819 0.44388 0 21.99165 -0.64737 0.40139
-9.38989 -0.05263 4.31961 0 21.45278 0.54119 0.45755
-12.71854 0.16501 3.60870 0 -25.98347 -6.79562 0.28303
10.39364 0.13288 7.66319 0 -10.60568 -4.62511 0.73397
5.45612 0.00375 3.96396 0 -29.94538 0.68430 0.71477
-19.19546 -0.09962 1.87176 0 29.83337 4.91096 0.28621
1.67197 0.21057 1.54077 0 -29.56091 -5.55209 0.79092
1.17954 -0.15076 1.03515 0 26.27551 5.40061 0.66945
-0.73089 -0.06092 0.26183 0 22.13708 -0.51358 0.21147
-2.27626 0.23527 0.59863 0 26.65871 -4.74080 0.24090
-4.15534 0.15751 5.44307 0 10.90673 -5.06216 1.27360
-3.36544 0.01143 1.46105 0 -27.28191 -1.49291 0.41629
-2.77835 -0.14331 2.37352 0 4.06453 3.72878 0.80386
0.33952 -0.24154 0.48513 0 -29.57885 6.13628 0.45938
0.03966 -0.02591 0.23501 0 10.47677 3.05754 0.23483
-0.91816 0.16859 0.75750 0 17.04288 -5.94295 0.55801
1.55871 -0.15039 1.82815 0 2.85985 5.13131 0.98721
6.00375 0.26631 6.85445 0 0.90299 -7.40895 1.12621
7.05820 -0.29347 1.50614 0 26.07648 6.25978 0.21150
23.22257 0.17107 5.46566 0 -29.64848 -7.39106 0.23535
17.89105 0.13804 13.74880 0 -26.69603 -4.74989 0.76734
3.83662 -0.11143 1.88227 0 25.92669 2.33500 0.47482
9.85273 -0.16180 2.64098 0 29.96651 6.97819 0.26686
-7.87697 -0.03543 4.78892 0 24.73339 0.29621 0.60320
-6.49537 -0.08886 2.80767 0 29.43459 1.54340 0.42733
-18.18885 0.14128 6.02382 0 6.19684 -2.58434 0.33083
-4.83179 -0.10178 0.63278 0 -28.66916 -0.87319 0.12832
-4.66942 0.00870 4.16316 0 3.12499 -0.76647 0.87188
-2.57342 -0.07270 0.73611 0 -18.04959 4.21937 0.26683
0.56121 -0.14054 1.00535 0 -20.91180 3.70015 0.87673
-0.00727 0.27698 0.28942 0 -23.14438 -6.31226 0.28941
6.23781 0.07375 2.91707 0 -29.66101 -1.02006 0.46185
-11.13631 -0.07063 1.34692 0 28.66056 0.04895 0.23820
1.91087 0.09980 1.50789 0 -17.83315 -2.19492 0.71984
0.77817 -0.08053 0.55659 0 -28.34544 3.68127 0.43931
0.59442 0.04632 0.96210 0 -28.38056 -1.92971 0.82703
-8.04521 -0.05108 4.02798 0 20.58816 0.58332 0.49694
-17.34301 -0.19295 8.60005 0 6.03573 6.97674 0.49516
-17.66112 0.24997 5.66902 0 12.93565 -5.71321 0.32063
-3.45295 0.28766 0.98304 0 13.71153 -6.51119 0.27366
-4.71174 0.03247 4.12836 0 -11.37029 -1.49107 0.85716
-1.78327 -0.03226 0.59602 0 -25.18785 2.81686 0.29169
0.27049 0.00849 0.74805 0 -9.48048 0.53469 0.72210
-0.13160 -0.17507 0.55442 0 -23.95853 6.31817 0.54969
-5.25004 0.22252 3.11924 0 -20.33346 -5.66451 0.58373
2.11636 0.13024 1.78213 0 -17.33609 -4.51880 0.76142
0.47861 -0.01570 0.82308 0 29.88832 -0.13642 0.74244
0.56434 0.28928 0.45740 0 -25.88843 -7.18316 0.39837
-6.73932 -0.19146 3.90881 0 16.06224 4.89474 0.57380
-3.94988 0.12865 1.86173 0 -25.65291 -4.93730 0.45708
-4.33001 0.24703 2.55269 0 2.17797 -6.37087 0.57447
7.25051 -0.10115 4.45861 0 26.53561 3.97329 0.60925
3.81362 -0.19759 1.35599 0 29.44146 4.46263 0.34410
-0.17429 -0.22563 0.91983 0 22.35432 6.24738 0.90617
0.59130 0.19722 0.61696 0 19.66982 -4.82818 0.53109
-9.34495 0.15300 6.35049 0 29.15421 -3.73116 0.67578
16.45538 0.21424 3.66065 0 -26.88219 -3.95160 0.22227
-1.59037 0.28651 1.02253 0 27.32612 -7.47534 0.54433
-1.32683 -0.14472 0.76105 0 -20.37232 3.28274 0.45812
19.88128 -0.21011 7.19705 0 -24.74966 7.92743 0.36168
-0.69599 0.17971 0.56976 0 0.10534 -6.47356 0.46768
6.62181 0.29266 3.84297 0 -13.84749 -7.70804 0.57393
-4.13346 0.12147 1.01369 0 6.40435 -1.39833 0.23847
-4.28246 -0.24253 2.06158 0 20.07520 6.18897 0.46886
0.99569 -0.03005 0.37555 0 1.81426 -0.94023 0.26622
6.17317 0.10913 4.10782 0 11.30914 -2.40451 0.65694
-0.11206 -0.07781 0.49126 0 -1.69373 1.36360 0.48821
3.58998 -0.14295 1.82303 0 27.71393 5.45891 0.48928
-20.40617 0.30840 4.56890 0 6.16717 -6.66045 0.22385
-3.60879 -0.12313 2.65419 0 -28.30245 3.04150 0.70883
3.46247 0.17076 1.16442 0 2.74060 -6.72874 0.32318
2.35482 -0.05083 0.99266 0 -19.20150 2.93674 0.38811
11.22681 -0.00328 3.30866 0 -4.97605 -1.56598 0.29371
18.53644 0.13197 12.56842 0 -29.84281 -4.63868 0.69454
-4.44384 -0.11919 4.44606 0 24.09717 3.12405 0.97615
-21.64642 0.18903 12.27667 0 -29.52478 -4.64892 0.56663
13.06940 -0.09728 3.02523 0 21.46926 0.77535 0.23101
0.36684 -0.09580 0.36521 0 -23.73811 4.48519 0.34289
-1.05537 -0.09956 0.56282 0 20.47990 4.42249 0.38720
-0.87241 -0.20525 0.60861 0 6.67826 7.44490 0.45866
0.77484 0.18488 0.57861 0 -26.93348 -4.30434 0.45741
-1.17688 0.30821 0.43062 0 22.53587 -7.13670 0.27895
-16.07484 0.17251 10.01504 0 -19.31118 -5.96201 0.62190
4.32933 0.15451 0.92089 0 -10.81931 -7.19442 0.20741
1.19416 -0.11848 0.86919 0 14.70393 4.57873 0.55809
-3.43332 -0.29182 1.56361 0 -14.99481 7.54321 0.43745
-1.47965 0.24233 1.03990 0 -28.63416 -6.24525 0.58235
-4.57598 -0.29538 1.41715 0 28.53105 7.08567 0.30267
9.97005 0.29424 3.81885 0 29.80636 -7.26463 0.38125
20.35391 0.14959 9.48885 0 -26.84029 -3.28279 0.46574
-2.03775 -0.30365 0.62892 0 -29.66694 7.15616 0.27717
1.32138 0.07763 1.17927 0 -16.51799 -2.97557 0.71168
-5.68668 -0.06757 2.85624 0 -19.37327 1.07178 0.49474
-14.36099 0.24182 6.88286 0 -7.87451 -6.02809 0.47822
0.44312 0.31490 0.40091 0 24.61952 -7.80276 0.36656
0.12767 -0.15887 0.57094 0 -27.08540 3.91863 0.56634
12.61637 -0.27607 12.52157 0 -0.93572 7.79202 0.98943
2.19295 -0.21504 1.25332 0 7.97473 7.60098 0.52006
24.61911 -0.23323 17.20882 0 -26.25757 6.29463 0.69850
5.59753 -0.09956 6.48466 0 -9.91056 2.61456 1.14048
1.46293 0.15679 0.81301 0 29.92175 -5.79335 0.45887
9.70000 0.13251 4.73401 0 13.48658 -2.82210 0.48557
2.05342 0.14926 0.88592 0 29.82122 -3.05014 0.38799
-5.19771 0.21876 3.23984 0 5.07963 -7.38922 0.61221
-0.17744 -0.14759 0.88595 0 24.46757 3.90711 0.87233
-0.04646 -0.02244 0.34248 0 29.90265 -0.74121 0.34211
-0.82260 -0.17587 0.89878 0 8.83525 4.59273 0.69414
3.53062 0.19375 2.71755 0 23.52520 -6.46780 0.74067
-0.11964 -0.09486 0.79117 0 29.14783 3.58958 0.78557
1.40354 0.12201 0.37953 0 -20.60647 -6.01217 0.22037
27.03660 0.13449 14.21218 0 -5.89427 -2.96169 0.52540
-1.48374 0.27725 1.13961 0 -29.44215 -7.35323 0.63753
0.45354 -0.17624 0.98442 0 -24.12621 5.96973 0.89654
23.31788 -0.15757 14.26399 0 7.38913 5.68452 0.61124
4.26275 0.01286 1.12428 0 29.44882 -2.30622 0.25699
5.36481 -0.05063 3.42944 0 -8.25277 2.41944 0.62851
5.56651 -0.15589 5.16735 0 -11.57520 4.18124 0.91374
-3.70360 -0.19769 2.11087 0 -29.95365 7.00898 0.55038
-21.86010 0.07342 15.04267 0 -5.70304 -2.87409 0.68749
-3.06590 0.08165 1.42498 0 29.32113 -3.54529 0.44208
4.55326 0.22940 2.59275 0 -7.85862 -5.82154 0.55624
-3.00258 -0.22393 1.53910 0 -21.34359 7.94961 0.48660
-0.59800 0.13261 0.75932 0 22.85958 -4.70840 0.65171
-0.26562 0.02402 0.52978 0 1.99512 0.35933 0.51204
12.24755 0.00743 8.40724 0 13.63531 -0.88942 0.68424
22.24255 -0.20136 15.22248 0 26.63416 6.92420 0.68377
-0.94174 0.02796 0.79462 0 3.24677 -1.64431 0.57853
2.26510 -0.02646 1.71721 0 -28.81893 1.61408 0.69360
4.44393 0.01160 7.51549 0 28.45824 -0.57682 1.64995
2.28097 0.19537 1.41550 0 20.47563 -4.83912 0.56844
2.47223 0.20206 1.45118 0 -19.69142 -6.99204 0.54428
1.05613 0.01862 0.76372 0 6.81282 0.49638 0.52513
-9.98020 0.09570 2.23479 0 10.08550 -5.01000 0.23793
9.00559 -0.20855 17.05740 0 -10.75193 6.62833 1.88255
-0.48737 0.14936 0.65096 0 -13.62398 -3.50372 0.58518
0.06892 0.06571 1.12675 0 15.29537 -2.34865 1.12409
3.60229 0.17069 2.10691 0 10.85322 -5.99704 0.56365
0.23015 0.08564 0.42453 0 26.20954 -3.74817 0.41372
-5.44870 0.35436 0.92169 0 20.47069 -7.10414 0.16642
-1.07819 0.19301 0.83048 0 -24.70092 -6.67762 0.56478
0.79430 -0.16793 0.61942 0 0.81514 4.04656 0.49169
-18.56455 0.00180 7.30709 0 25.01377 -1.27560 0.39316
22.78887 -0.24446 16.63153 0 12.89133 6.65877 0.72917
-4.71376 0.01605 1.42967 0 -22.89897 -2.13206 0.29679
19.55149 0.02220 14.04204 0 -24.45299 -1.29900 0.71734
-0.64436 0.27577 0.57427 0 -27.53436 -7.03184 0.48277
1.47235 0.01799 1.03260 0 -27.71963 0.42260 0.58023
-27.25208 0.19976 18.51660 0 3.12651 -5.12098 0.67907
-3.77068 -0.01364 1.11143 0 11.74979 -1.30683 0.28501
1.76632 -0.07336 0.68565 0 27.10965 3.82224 0.33791
12.81455 -0.10939 7.93266 0 -20.29729 2.52447 0.61724
1.99106 0.10204 1.08215 0 -0.34358 -4.05779 0.48577
19.84683 -0.19396 10.43871 0 -13.77537 6.94304 0.52539
2.82694 0.12639 1.86395 0 26.87986 -2.87354 0.62167
4.71696 0.21539 5.90308 0 26.57993 -5.93608 1.22429
-0.68061 0.18722 0.84648 0 29.62348 -4.77282 0.69980
-2.20326 -0.26702 1.69656 0 -23.21893 7.29370 0.70122
-7.94566 0.13169 6.35253 0 -0.43251 -3.21158 0.79330
-1.22405 0.05984 1.36095 0 21.72473 -2.31232 0.86107
4.68661 -0.03601 1.00284 0 -7.63576 3.63784 0.20946
19.56675 0.13005 10.92427 0 -10.87728 -4.76863 0.55767
-3.70487 -0.17661 1.11635 0 -28.58394 3.65472 0.30521
1.64844 0.07816 1.07361 0 13.78255 -3.19502 0.55690
6.72876 -0.31267 1.38613 0 -23.17633 6.70787 0.20400
0.02769 0.11820 1.29957 0 -9.16879 -3.06416 1.29907
11.95901 -0.16173 5.70718 0 24.31695 3.82755 0.47567
-17.09967 0.04815 14.97969 0 3.06345 -1.95097 0.87459
-1.47554 -0.06530 0.37069 0 -28.33462 -0.42208 0.20808
-3.06001 -0.06584 0.72196 0 29.67854 4.38553 0.22447
0.69664 0.22394 0.66857 0 25.63452 -7.65536 0.54860
-0.72263 0.04875 0.76849 0 1.96126 -0.55921 0.62290
0.83159 0.27006 2.22481 0 -26.74604 -7.69039 1.71062
-1.61421 0.07042 1.88283 0 0.51459 -1.51309 0.99159
-2.49483 0.26311 4.26061 0 22.77676 -7.45767 1.58522
-23.29533 -0.24550 36.10757 0 -29.44681 7.08788 1.54860
0.70186 -0.16594 0.59712 0 -14.06305 3.98153 0.48877
3.46475 0.21344 1.38239 0 -2.35124 -7.77851 0.38347
13.55853 -0.17989 10.42335 0 -28.91039 6.18332 0.76675
-1.31426 0.23114 1.49433 0 -16.04295 -7.46929 0.90489
-6.90966 0.03981 3.40155 0 -23.59715 -2.16875 0.48731
8.12880 0.05031 3.86867 0 -29.82294 -0.34453 0.47246
14.37479 0.02333 9.17245 0 25.99920 0.18446 0.63663
-1.96873 -0.15534 0.85061 0 -13.95100 3.38268 0.38531
-3.00240 -0.19277 1.30514 0 7.87979 7.19716 0.41251
-1.27927 -0.15021 1.32458 0 -24.37478 5.24002 0.81579
-3.46427 -0.11375 2.06432 0 -9.78992 4.41106 0.57258
0.87369 0.05137 0.60841 0 15.40660 -2.58553 0.45821
1.58863 0.18246 3.50966 0 21.04287 -5.10620 1.86968
1.48265 -0.21992 2.02842 0 15.92778 7.16587 1.13426
0.43723 0.10868 2.00462 0 29.97773 -2.89646 1.83673
-8.62786 0.06591 5.42749 0 -9.30398 -2.72277 0.62496
-5.02404 0.00773 4.48190 0 -1.78907 -0.73539 0.87499
0.98075 -0.07536 1.61861 0 8.68618 1.88482 1.12500
2.30741 0.19673 4.18146 0 21.62380 -6.14747 1.66277
-0.32168 -0.10306 0.82645 0 29.98780 2.51570 0.78676
-1.36448 -0.12285 2.10869 0 28.85085 3.34868 1.24653
-18.94876 -0.00712 6.24480 0 -24.53645 1.85270 0.32925
-3.75969 -0.20835 6.17374 0 -27.01483 5.99003 1.58692
-5.15826 -0.07138 2.82835 0 -28.71288 3.18458 0.53835
0.75203 -0.09222 0.37169 0 -1.55263 4.61497 0.29710
0.92631 -0.04343 0.72823 0 -24.18063 0.42641 0.53429
0.49290 -0.16617 0.52600 0 20.48972 3.94978 0.47182
2.46421 0.21732 1.75576 0 29.84211 -7.27811 0.66027
-17.45649 -0.11054 7.32143 0 1.95056 4.65390 0.41884
-5.86358 -0.03082 2.32089 0 21.35879 -0.30467 0.39024
12.63176 0.06608 7.03910 0 -21.21099 -0.97808 0.55560
0.97963 0.11623 0.68098 0 -1.46943 -4.48778 0.48650
2.29136 -0.08951 0.78383 0 5.82372 1.12834 0.31364
8.16023 0.13179 5.17940 0 0.96349 -3.04537 0.63008
0.67162 -0.00336 0.55600 0 28.62473 -0.92644 0.46159
-0.61128 -0.01075 0.30313 0 25.12980 -1.50560 0.26845
-0.67378 0.22943 0.72646 0 29.68908 -5.89658 0.60249
-4.27856 0.26551 3.91991 0 -29.06216 -7.25576 0.89218
4.03938 -0.03185 2.16040 0 -14.40991 2.02575 0.51925
1.83116 0.09559 0.97987 0 29.94155 -3.89873 0.46971
0.09787 0.00508 0.90311 0 3.83447 -0.64023 0.89881
0.38614 -0.15192 0.61864 0 -23.18341 5.56448 0.57712
-7.43093 -0.10010 4.67963 0 16.21127 2.25686 0.62420
22.54438 -0.19012 9.09523 0 21.23780 7.14703 0.40316
-0.60550 -0.02444 0.31427 0 29.94138 -1.08996 0.26888
-0.24454 -0.23454 0.72266 0 -29.58018 7.91649 0.70198
-0.21813 -0.05302 0.45931 0 -26.72628 0.53084 0.44876
1.24329 -0.29061 0.87530 0 25.06484 7.76569 0.54864
1.36084 0.17631 1.17453 0 -9.27105 -4.44476 0.69555
3.44108 0.13645 1.60062 0 24.80955 -2.84632 0.44672
8.40610 -0.23539 1.81362 0 5.23793 4.63793 0.21446
-4.60312 0.03322 3.68069 0 -29.93986 -1.57173 0.78159
3.05304 -0.23540 3.80230 0 -28.60463 6.67803 1.18364
1.08308 -0.06734 1.56508 0 1.03633 1.61753 1.06172
3.42496 -0.03897 1.65294 0 22.63808 0.14652 0.46338
3.41335 0.10846 2.40345 0 27.29222 -2.40665 0.67578
-2.86111 0.25057 1.23251 0 2.85863 -6.08546 0.40675
13.37682 0.01505 7.24089 0 -13.88707 0.57698 0.53988
-11.92452 0.28992 4.47432 0 -29.34315 -7.11167 0.37404
6.51413 -0.17575 3.61083 0 -24.83954 6.34216 0.54798
-13.50311 0.25094 14.53454 0 -10.97312 -6.92920 1.07349
8.48572 0.33855 2.18624 0 4.07941 -7.82135 0.25605
-0.13726 -0.11991 0.83890 0 27.27207 3.05320 0.83111
1.31244 -0.11240 0.74096 0 29.87596 4.62468 0.44914
-11.72929 -0.01977 8.51429 0 14.61515 1.38241 0.72334
-1.83569 0.04358 1.53061 0 -16.74844 -0.52704 0.73225
2.99764 -0.05277 2.64247 0 -12.14980 1.05173 0.83627
-0.52520 -0.14887 1.09970 0 -10.22104 5.09286 0.97360
-0.60490 -0.07966 0.24242 0 27.16247 -0.00063 0.20747
2.98196 -0.06664 1.09792 0 -5.57513 0.78993 0.39716
-2.51430 -0.08633 1.14384 0 28.68325 1.45558 0.42290
0.79005 -0.08685 0.66218 0 23.02553 1.69659 0.51961
5.82939 0.01023 3.43273 0 24.25442 0.65517 0.58049
-1.90218 0.07351 0.72162 0 -24.90989 -3.67373 0.33591
-7.86388 0.18221 5.91241 0 26.99128 -4.67113 0.74590
-0.46387 -0.14350 0.55475 0 12.47469 3.34794 0.50326
4.69818 0.10146 1.69835 0 28.66317 -4.44838 0.35363
6.18121 0.19217 4.36517 0 -7.27069 -4.91661 0.69720
-3.32976 -0.16980 1.33618 0 6.72312 3.80570 0.38443
-1.51459 -0.08284 0.66830 0 -19.12883 3.98237 0.36834
0.41815 -0.01888 0.69498 0 24.30193 -0.14977 0.64120
-10.45528 -0.11300 2.89184 0 29.96705 5.39680 0.27551
2.75312 0.11118 1.92909 0 14.25560 -4.04964 0.65865
8.04311 0.01469 3.50391 0 -26.18450 -1.54523 0.43242
-1.37101 -0.23234 0.81810 0 -10.52515 5.92185 0.48216
0.09647 0.24262 0.29107 0 21.12420 -5.32288 0.28972
-2.83793 0.03306 1.13405 0 10.64412 -2.27530 0.37708
-0.69133 0.05865 0.61564 0 -5.05940 -2.69808 0.50643
-0.39743 0.05989 0.63127 0 28.77903 -2.59522 0.58664
14.45600 0.00683 7.52710 0 -2.52198 -1.10913 0.51954
5.94023 -0.24595 2.79679 0 29.91461 6.27770 0.46435
-2.74721 0.19269 0.85618 0 -18.67879 -3.89183 0.29300
-2.33475 0.15419 0.54543 0 17.49431 -7.08991 0.21480
11.47597 -0.09643 9.34620 0 -7.59579 2.33756 0.81140
-0.54130 -0.16845 1.07170 0 -26.22828 5.70162 0.94672
0.23964 0.15338 0.47467 0 -12.64719 -5.68177 0.46160
-24.27354 -0.04901 13.26071 0 -7.71973 2.49515 0.54593
-1.46195 0.28083 0.92713 0 6.08679 -7.26866 0.52348
3.91019 0.01923 2.77963 0 28.62354 -1.23929 0.68877
-17.72958 0.18463 5.36686 0 22.84717 -7.28000 0.30239
-3.82165 -0.07814 0.97271 0 26.09737 4.55287 0.24634
1.05753 0.32441 0.42286 0 28.35183 -7.67816 0.29060
0.34802 -0.13901 0.41731 0 29.12244 2.92759 0.39329
25.73863 -0.07037 14.93581 0 -23.64735 3.08485 0.57993
6.16767 -0.20143 2.29316 0 25.99703 7.63448 0.36714
-5.11620 0.07410 3.16944 0 -28.83711 -1.29704 0.60807
-16.95175 0.18212 13.60298 0 25.10187 -4.71724 0.80112
0.91584 0.05476 0.50624 0 -7.04039 -0.19057 0.37341
-0.68361 -0.00479 0.50783 0 -9.79135 -0.99580 0.41929
-22.88541 -0.16054 18.14831 0 28.36410 4.23164 0.79232
5.35497 -0.11954 1.10495 0 0.11678 6.31247 0.20301
1.14291 -0.28392 0.54463 0 -4.82250 7.03815 0.35874
-0.01591 0.10105 0.24609 0 -19.20024 -0.86032 0.24606
-2.85913 -0.03401 3.71773 0 -29.03519 0.68458 1.22746
10.62656 0.14987 7.92401 0 -2.92227 -5.13188 0.74247
17.28885 -0.22278 11.18408 0 -1.01233 7.62660 0.64589
-1.31858 -0.19122 1.28983 0 26.83595 5.13124 0.77944
2.55411 0.12816 1.07319 0 -24.53571 -5.11992 0.39133
-1.62101 -0.16071 0.88430 0 27.55652 6.06170 0.46437
3.43823 -0.06931 2.53097 0 -27.36964 1.43424 0.70691
1.29682 -0.05860 0.98952 0 29.20319 0.99126 0.60431
-7.16545 -0.01700 1.99438 0 -7.47853 2.45612 0.27584
1.66655 0.18120 0.84459 0 4.79084 -4.13601 0.43465
-5.49155 0.04057 2.16450 0 -29.32619 -2.46425 0.38785
10.17639 0.10330 2.21947 0 -22.58092 -0.65140 0.21728
-27.22958 0.14098 15.30366 0 -16.56738 -5.09436 0.56173
1.67658 -0.15413 1.25240 0 -29.11939 3.88606 0.64161
0.51655 0.09228 0.98881 0 29.29593 -3.27891 0.87854
-0.66416 -0.23550 0.37255 0 18.48374 5.35451 0.30212
24.70817 0.04312 6.32129 0 8.64738 0.78874 0.25582
19.52135 0.19077 8.45067 0 20.65218 -4.41152 0.43244
6.70822 -0.27678 2.60516 0 -29.96160 6.93238 0.38423
-1.45191 -0.13086 0.29697 0 -27.30111 7.23901 0.16858
23.51318 0.26120 7.25216 0 -6.68568 -5.97144 0.30831
15.30447 -0.18270 6.36424 0 23.79461 4.28569 0.41507
-0.72048 0.01136 0.50577 0 0.25725 0.98716 0.41040
2.66370 0.04124 1.45880 0 29.85293 -0.15821 0.51279
20.13050 -0.06837 7.59587 0 10.47286 0.77265 0.37700
-0.59504 -0.19966 0.47598 0 12.09338 4.76578 0.40909
-0.49356 0.22172 0.24566 0 29.37504 -4.14687 0.22034
0.56397 -0.12024 0.85259 0 29.99022 4.39602 0.74264
4.22959 0.10110 3.84675 0 -22.78416 -3.54061 0.88511
13.79131 -0.04962 1.03306 0 27.83788 -0.81876 0.21444
-13.06611 -0.13534 10.01259 0 -10.38295 3.45799 0.76413
7.98505 0.15869 3.34145 0 -22.21220 -3.41658 0.41533
20.68067 -0.11263 9.50335 0 17.15949 2.33351 0.45910
-7.95563 -0.03906 4.25498 0 -29.92838 0.28920 0.53075
-10.48926 0.03681 8.45150 0 -19.68194 -0.38540 0.80215
0.83719 0.19536 0.37107 0 29.46111 -7.73367 0.28459
0.10552 -0.26296 0.76535 0 26.25478 7.23605 0.76113
-1.35560 -0.07250 1.34418 0 -28.58224 2.90424 0.79801
-1.86383 0.18524 0.83320 0 -12.25757 -4.13073 0.39402
-0.34815 0.18887 0.82580 0 -1.57360 -6.28179 0.77989
20.02247 0.06192 20.79760 0 23.53082 -1.28169 1.03747
-12.87340 -0.05297 3.62960 0 -29.10084 -0.14943 0.28127
-14.47303 0.15312 12.34589 0 9.50401 -3.89401 0.85106
