-2.06499 -0.25294 0.41041 0 29.06163 4.65638 0.17905
0.91284 0.00862 2.52819 0 26.16970 0.09634 1.86723
-7.22303 0.01356 3.11389 0 -27.41783 0.87199 0.42714
0.34380 0.11814 0.32839 0 -0.77267 -5.17096 0.31057
6.43555 0.18673 2.68401 0 -11.50631 -4.23317 0.41223
-7.97314 -0.15098 2.95204 0 18.55917 3.18899 0.36750
8.92961 0.06228 4.81831 0 -14.44594 -0.83140 0.53633
2.22355 0.19054 0.66029 0 27.43652 -7.68424 0.27093
3.46830 0.17155 0.63112 0 5.54757 -2.08582 0.17497
0.21698 0.07721 0.53438 0 6.94048 -1.25153 0.52224
-5.88884 0.21762 6.10641 0 -10.01764 -6.98736 1.02235
-16.61586 -0.24362 8.65365 0 9.20887 6.33421 0.51996
-4.69808 -0.27718 5.15317 0 -0.97358 7.86879 1.07286
-2.65349 0.14801 0.84686 0 -10.16647 -6.16328 0.29878
-0.84303 -0.18698 0.72099 0 13.93042 4.72488 0.55127
-0.33308 0.12250 0.77578 0 17.05519 -2.88726 0.73603
10.63147 0.14681 4.14283 0 19.43497 -5.70360 0.38809
10.70106 -0.18889 6.20707 0 -19.03411 6.69238 0.57761
-20.61732 -0.13157 7.55641 0 -3.88779 5.48169 0.36621
4.09698 0.13834 2.52347 0 -29.94854 -4.96047 0.59516
-21.78897 -0.02071 6.75541 0 9.89335 -1.05302 0.29163
3.79621 -0.05141 2.53135 0 2.52423 2.42214 0.64487
2.92913 0.12722 3.51439 0 2.05555 -4.19852 1.13548
-25.49762 0.19976 7.75372 0 22.01126 -4.16275 0.30402
2.49506 0.17893 2.98928 0 2.28096 -5.77122 1.11214
4.74007 -0.12773 2.61504 0 27.34979 2.94985 0.53988
-15.70744 0.12293 9.49761 0 -0.98049 -2.74573 0.60352
-1.16285 -0.23812 0.80074 0 29.86046 6.17694 0.52215
-0.40283 0.05170 0.47560 0 -2.56955 -0.30927 0.44116
-0.06069 -0.11023 0.58886 0 -18.63842 2.50758 0.58778
0.92755 -0.00961 0.36956 0 23.57035 -1.52173 0.27103
15.84959 -0.05897 15.00928 0 -1.48137 1.30770 0.94515
-4.36086 0.06856 2.31478 0 29.93028 -0.98414 0.51750
10.06112 0.20782 5.88164 0 -26.09134 -7.10210 0.58181
19.24135 0.14362 14.20906 0 -26.91159 -3.51710 0.73754
2.64970 -0.25519 0.99544 0 29.15406 6.17436 0.35154
-2.78790 0.03882 2.15809 0 -28.40013 -1.78797 0.72873
4.23716 0.14509 1.08912 0 -2.18758 -2.19562 0.25026
20.53386 0.10012 8.99929 0 26.50840 -1.74486 0.43786
0.71045 -0.15557 0.54259 0 22.43430 3.56313 0.44236
-1.30123 -0.05912 0.32435 0 -28.20058 4.49993 0.19777
-12.32720 0.28627 3.52217 0 28.33955 -6.54986 0.28496
-0.33261 0.18775 0.46437 0 23.21266 -4.34515 0.44064
0.46464 -0.11816 0.78345 0 26.00052 2.89540 0.71051
20.66188 0.03217 31.30355 0 -21.19086 -0.54565 1.51330
-12.06762 0.03085 2.92278 0 29.17930 -2.98311 0.24157
-14.68486 -0.09369 16.71214 0 23.91229 2.43701 1.13547
1.48137 -0.11936 1.98723 0 14.55291 3.19411 1.11189
0.16372 -0.04008 0.20692 0 24.09521 3.82768 0.20421
15.15011 0.14989 9.92409 0 -23.42553 -3.61285 0.65370
0.59954 0.24603 2.18677 0 13.92203 -7.00319 1.87553
8.57234 -0.23325 4.42373 0 -13.20074 6.01501 0.51266
0.05338 0.14098 0.59124 0 13.98743 -5.04798 0.59040
9.50386 -0.22932 7.90457 0 -28.38652 7.63493 0.82721
0.78978 0.18134 0.78137 0 25.59374 -6.24368 0.61321
2.04616 -0.18918 0.68097 0 -5.03800 3.98840 0.29916
-0.69916 0.06841 1.48293 0 -13.29479 -1.54833 1.21536
0.26499 -0.18744 0.64193 0 -28.60834 4.84532 0.62052
5.90005 -0.19211 1.81401 0 26.94193 7.67059 0.30329
0.56555 -0.00669 0.48472 0 28.93280 1.49597 0.42195
-25.90932 -0.14801 10.75550 0 -11.69314 5.81221 0.41493
11.84712 0.25835 4.22770 0 -4.22282 -6.12171 0.35573
-19.28351 -0.14349 8.58407 0 16.31071 3.21197 0.44466
-0.28990 0.25265 0.63183 0 28.95061 -6.58663 0.60685
0.17251 -0.07159 1.05513 0 -25.31905 2.72559 1.03977
-0.27678 0.13581 0.40991 0 26.92104 -5.34134 0.39506
-4.72544 0.02275 2.72094 0 21.25760 0.30620 0.56337
-0.41968 0.06779 0.50238 0 -1.26552 -3.06206 0.46673
1.94384 -0.22611 0.88398 0 -26.56932 5.52636 0.40448
-0.84934 0.01652 0.60910 0 27.91511 0.68710 0.46430
-2.28301 -0.24855 2.94096 0 28.20584 7.06727 1.17998
2.72767 0.30356 0.90786 0 -26.82511 -7.21526 0.31255
-0.51621 -0.05251 0.33247 0 29.98002 -0.07591 0.29546
-13.27888 -0.02072 5.25536 0 -23.59184 2.00322 0.39477
-17.91885 -0.15120 8.26522 0 24.58302 5.78000 0.46065
-2.95320 0.28076 3.36432 0 3.35210 -7.81555 1.07907
-1.81677 0.12608 1.90448 0 26.84925 -4.27395 0.91840
-0.23671 -0.02957 0.92532 0 11.64245 1.53761 0.90043
15.06741 -0.13208 12.57701 0 -10.79287 3.41708 0.83294
4.95973 -0.13435 2.82357 0 13.66577 5.06118 0.55823
-6.47822 -0.23063 1.86625 0 29.95243 5.10710 0.28488
-26.82912 0.12346 4.12846 0 29.98192 -1.20585 0.21350
-1.58651 -0.14187 0.90887 0 25.90086 3.30884 0.50775
-18.14898 -0.22885 10.41753 0 -8.81200 5.99636 0.57322
2.26120 0.00957 0.47437 0 29.21743 2.47443 0.19192
23.71744 -0.10125 7.58555 0 -29.98155 1.50813 0.31970
-21.91332 -0.14945 13.57163 0 -2.13107 5.42648 0.61877
0.21245 0.07847 0.46639 0 29.93916 -3.41183 0.45622
-1.19772 -0.27675 1.03585 0 -20.35768 7.53552 0.66392
-1.45151 -0.25638 0.76050 0 4.84895 6.49401 0.43154
-1.27580 0.00007 0.70428 0 -24.30208 1.25724 0.43455
0.95209 -0.09352 0.40700 0 27.89855 1.14335 0.29483
15.69909 -0.18584 12.45366 0 29.55774 6.34183 0.79173
-9.49120 -0.10033 4.43018 0 19.35320 1.98031 0.46430
-0.29738 -0.17756 0.43275 0 -10.36318 6.66655 0.43243
0.85753 0.05914 0.80879 0 14.67294 -0.85830 0.61399
-16.16309 0.13474 6.60844 0 2.43377 -2.68656 0.40820
3.19321 0.11067 2.92271 0 19.89116 -2.64525 0.87357
-0.38652 0.25736 0.57632 0 -6.42962 -6.60899 0.53757
0.38873 0.02012 1.03293 0 28.74276 0.00873 0.96275
4.95057 0.07929 2.70457 0 29.96910 -1.33784 0.53556
-10.00928 -0.02081 4.66908 0 -16.90357 1.81047 0.46427
-20.47197 0.15405 18.84025 0 -27.07844 -3.96744 0.91925
-0.18194 -0.06887 0.35080 0 27.87100 0.66237 0.34514
-18.45095 -0.29643 9.05641 0 -27.40618 7.81442 0.49022
-13.58013 -0.19635 5.12525 0 -1.56218 7.43832 0.37652
3.00442 -0.36878 0.55889 0 15.92455 7.85409 0.17668
-3.82335 -0.20663 4.36858 0 -29.36270 5.73162 0.98525
-17.00222 -0.23743 12.46677 0 10.40715 7.97157 0.73205
-6.21488 -0.16480 3.22180 0 -7.83799 6.07775 0.51191
0.00678 0.16046 0.64728 0 -29.08823 -5.56074 0.64726
25.71049 0.07165 6.67801 0 8.00580 -0.09529 0.25973
-1.92617 -0.10843 1.14907 0 24.12506 4.32470 0.52950
-13.30672 -0.13906 2.71987 0 -21.99602 6.91308 0.20406
0.96727 0.17726 1.61577 0 -6.18763 -5.70001 1.16139
0.90205 -0.26311 0.75941 0 29.37436 6.98771 0.56394
-0.61445 -0.10977 0.63892 0 1.51373 4.33777 0.54440
-8.83799 -0.20075 4.84938 0 28.68450 7.11242 0.54531
15.48408 -0.19627 10.54883 0 2.75138 6.77350 0.67992
-10.14807 0.08651 7.84625 0 2.03206 -3.18874 0.76951
26.28833 0.28393 10.35210 0 -24.65843 -7.01122 0.39363
-22.56249 -0.28075 9.42855 0 -26.70135 7.16158 0.41759
-16.08574 -0.02158 19.34646 0 23.05912 1.15512 1.20043
-1.15316 0.18308 0.71187 0 -27.82730 -6.58002 0.46647
-18.70696 0.02567 15.02435 0 -11.10766 -0.05145 0.80206
0.66525 0.01284 0.86647 0 -12.02879 0.40472 0.72144
-0.54796 0.03913 0.44526 0 -29.53443 -2.41144 0.39052
0.81167 -0.17502 0.73364 0 17.55177 6.28181 0.56964
1.34023 0.11352 0.53963 0 -12.44319 -4.96299 0.32279
-25.44602 -0.10245 8.31427 0 -0.56271 4.76608 0.32664
-25.05611 -0.14740 24.07141 0 -29.37856 3.95596 0.95999
26.71087 0.09693 16.55516 0 -18.14877 -3.66861 0.61944
1.25461 0.00901 0.97964 0 -20.27629 0.64843 0.61064
-17.47787 0.12129 9.81791 0 -29.46091 -2.63184 0.56090
-18.18679 0.26785 26.94053 0 -21.35058 -7.57325 1.47913
0.95956 0.00819 0.61403 0 5.92676 0.99019 0.44309
14.28270 -0.05460 5.16981 0 27.21820 3.15123 0.36121
2.82875 -0.03126 1.08169 0 26.72114 -0.39927 0.36063
-2.03058 0.13763 1.51464 0 -26.93002 -4.83922 0.66923
-4.65959 -0.19037 1.02675 0 -9.12105 3.35083 0.21564
-9.11343 0.23575 5.43398 0 9.61461 -6.06809 0.59279
2.66804 0.24808 1.26140 0 -29.60266 -6.12093 0.44282
2.86622 0.12726 3.15830 0 4.71413 -3.23533 1.04045
1.18129 -0.24978 0.54296 0 -18.88560 6.01453 0.35088
-20.18341 -0.08421 9.02279 0 -8.76641 3.77345 0.44660
4.88247 -0.01454 1.03105 0 -26.72606 3.00914 0.20710
22.77135 -0.13108 11.09294 0 -0.38450 2.94498 0.48678
-4.18568 -0.11523 2.52161 0 -0.78547 4.39776 0.61084
11.84494 -0.28158 2.07593 0 -11.40023 6.47306 0.27005
6.04781 0.14305 7.81827 0 -24.54828 -4.62490 1.27548
-3.23689 0.21053 1.88914 0 5.96003 -5.26846 0.55782
-5.15861 -0.08820 1.25359 0 -25.55717 4.93273 0.23874
-1.92884 -0.29742 0.60823 0 21.94326 6.99843 0.28007
0.63599 -0.13624 0.91135 0 27.28309 4.85624 0.76902
-0.38468 0.04215 0.23835 0 -2.54141 1.11897 0.22248
0.02780 -0.15062 0.22100 0 24.97076 2.24782 0.22092
12.43788 -0.15218 3.99096 0 2.34418 3.01543 0.31999
0.99524 -0.26899 1.48820 0 4.49150 7.61761 1.05485
0.52086 0.09485 0.97483 0 19.53711 -3.36603 0.86460
22.27037 -0.20224 11.04970 0 3.25780 5.06755 0.49576
6.39162 0.02330 6.49452 0 -6.93254 -0.10836 1.00393
-1.19949 0.11455 0.97992 0 25.66566 -2.52927 0.62754
-3.98246 -0.23911 4.07720 0 29.72789 6.69948 0.99302
2.86732 -0.16764 0.60060 0 0.11246 2.47534 0.19794
-1.20896 0.02778 0.36429 0 -21.25986 -2.97643 0.23228
5.57751 -0.19639 2.34706 0 -11.26762 7.30306 0.41432
-23.89331 0.12800 23.18414 0 10.73398 -3.22076 0.96952
-21.36967 0.28332 7.79546 0 27.89651 -6.88250 0.36453
-5.45506 0.03894 2.52333 0 28.70438 0.03720 0.45505
-1.24395 -0.07143 0.68077 0 -22.42632 3.44059 0.42660
8.75067 -0.05683 5.09949 0 4.46505 2.67685 0.57907
-4.07729 -0.30430 1.20932 0 27.89597 7.25026 0.28818
-8.80621 -0.14517 2.66446 0 -28.09662 6.22539 0.30079
-7.53057 -0.09870 1.72574 0 -6.18381 0.78203 0.22738
0.32080 0.21638 0.76846 0 29.99934 -5.66925 0.73173
-9.88182 -0.19230 5.04406 0 27.59833 6.92827 0.50794
0.41630 -0.27923 0.48510 0 29.99863 7.20629 0.44786
22.73170 -0.08883 4.94477 0 -14.11342 0.38691 0.21754
3.99548 0.10065 0.97433 0 -9.21508 -5.17466 0.23674
1.79919 0.21793 0.94469 0 17.49660 -7.67243 0.45903
11.11339 -0.00946 2.28076 0 -28.15956 -2.14653 0.20464
3.36081 0.12595 1.71366 0 -29.99772 -2.63472 0.48890
-24.34693 -0.04715 21.88544 0 -25.05357 0.92563 0.89820
6.08687 -0.09845 3.45705 0 -21.32738 2.11435 0.56052
-1.78322 -0.27286 1.12659 0 25.23313 7.25083 0.55113
2.93056 -0.13150 4.13892 0 -9.04666 4.41990 1.33670
3.66856 -0.07494 2.07287 0 10.49134 1.38749 0.54525
-1.72567 -0.14276 0.53721 0 -14.36011 2.43615 0.26948
1.48630 0.04578 0.46448 0 -29.48964 0.68096 0.25942
-0.76916 0.14816 0.96066 0 23.39493 -3.67436 0.76150
4.39269 -0.22328 1.17600 0 -5.11892 4.72672 0.26123
3.19836 -0.04220 2.58677 0 20.72870 2.01259 0.77203
7.11610 -0.12906 1.92599 0 29.77035 2.19837 0.29520
-0.35157 0.12366 0.50100 0 -28.78487 -4.74643 0.47265
-2.80523 0.23118 1.45415 0 13.15836 -5.73951 0.48837
-2.82480 0.20527 1.61334 0 -3.61980 -5.07943 0.53855
-13.69451 -0.28059 10.94922 0 -4.44492 7.78938 0.79747
1.02228 0.06835 0.45432 0 4.94818 -3.60582 0.31778
-0.10696 -0.02122 0.55169 0 28.38255 1.65253 0.54856
-5.82526 -0.14904 3.28394 0 29.41633 3.60946 0.55569
-1.19971 0.00159 0.74421 0 29.38145 -1.04046 0.47657
-24.35727 -0.04250 32.66562 0 2.19188 0.97407 1.34002
0.10897 0.08862 0.20166 0 -5.07865 -5.21679 0.20048
3.72282 0.01906 0.99767 0 29.56615 1.48828 0.25891
-8.22532 -0.25676 4.63371 0 20.35838 6.79322 0.55931
1.24031 -0.14695 0.37605 0 -24.84428 6.78699 0.23613
9.93887 0.16771 10.59445 0 12.29826 -4.45026 1.06065
11.31060 0.16308 18.30054 0 -9.56301 -5.14226 1.61174
-0.12751 0.18656 1.92120 0 22.55706 -5.79881 1.90577
-0.48991 -0.26246 1.99701 0 23.93916 7.64163 1.79337
-0.24523 -0.11134 1.33674 0 28.04284 3.82368 1.29828
-1.12181 0.13686 0.91230 0 -7.94253 -3.16486 0.60711
1.59788 -0.19612 1.21254 0 17.61570 6.81544 0.64333
-4.02236 0.27031 2.13582 0 5.39910 -6.94450 0.51541
-0.18916 -0.14639 0.48533 0 -11.69608 3.37665 0.47688
3.33985 -0.17547 3.46424 0 -19.31046 5.88727 0.99372
16.25329 0.14330 12.14213 0 -25.85785 -4.92937 0.74571
-2.23913 0.08841 1.05682 0 -29.97592 -1.37772 0.43102
0.74939 -0.03141 1.59390 0 -11.46703 0.62192 1.27335
-0.32317 -0.07055 0.27242 0 29.08770 4.21189 0.25923
-8.58058 0.16684 3.12025 0 24.66587 -3.46982 0.36133
0.97037 -0.12022 0.63276 0 1.07891 4.85017 0.45415
3.13126 -0.14755 1.09061 0 19.49296 2.93707 0.33194
-5.39598 -0.05842 2.79152 0 10.04861 2.84879 0.50874
-0.37369 0.22032 0.83007 0 -2.40965 -7.24147 0.77756
-3.91823 0.14087 3.82002 0 -2.43957 -3.59027 0.94470
1.57895 0.04448 0.68622 0 -19.18830 0.14007 0.36725
-0.34393 -0.08878 0.72112 0 29.98665 1.98914 0.68192
-0.00156 0.24307 0.76613 0 -27.76687 -6.49127 0.76613
-5.74678 -0.26022 3.53398 0 24.27016 6.97008 0.60589
-0.81254 0.02918 0.99806 0 4.15085 -0.13383 0.77461
-0.84180 0.18291 1.29684 0 -23.90047 -5.95106 0.99215
1.73215 0.17002 0.76291 0 -17.60053 -6.44255 0.38156
-2.54458 0.14909 0.74148 0 -7.41759 -2.47368 0.27143
-17.14273 0.02512 16.61110 0 -29.14977 -1.20195 0.96739
13.29885 -0.18043 8.33884 0 14.45181 4.64422 0.62535
18.32010 -0.04905 21.39367 0 -9.48867 1.11321 1.16608
2.18976 -0.18424 2.45196 0 21.92778 5.08414 1.01860
19.33414 0.16080 18.16310 0 19.92375 -5.31237 0.93823
-3.34470 0.03730 1.56528 0 4.03776 -2.18448 0.44854
-5.39647 -0.07590 3.25568 0 -22.15827 1.49224 0.59333
-10.49604 -0.09746 12.70944 0 -27.14135 2.57614 1.20546
0.72304 0.11626 0.44733 0 -12.98557 -4.86454 0.36256
0.19266 -0.03337 0.73708 0 -1.38682 1.79114 0.72377
-16.91696 -0.25999 11.23684 0 -26.95328 7.11423 0.72666
3.40488 0.08303 3.22787 0 -9.22329 -2.97919 0.90972
-14.47222 0.26472 3.43705 0 23.94907 -5.55185 0.23713
-15.62560 -0.29275 8.19061 0 -26.19074 7.77865 0.52320
-5.91851 -0.01469 1.74523 0 28.97772 2.28836 0.29096
18.05895 -0.08593 6.37790 0 25.29366 4.14017 0.35277
-0.23019 -0.21380 0.32626 0 -8.99323 4.81041 0.31795
-3.29983 0.10063 0.76465 0 29.78337 -0.62176 0.22194
1.43028 -0.11777 1.23805 0 10.26863 4.35439 0.70947
-7.63126 0.06257 6.78265 0 -13.48017 -1.21374 0.88132
0.66837 0.24399 0.55341 0 28.75097 -6.04734 0.46014
-0.22780 -0.10088 0.38250 0 16.73547 1.72607 0.37295
0.23502 -0.13642 0.84990 0 28.86550 4.81276 0.82736
6.36175 -0.08347 5.26361 0 23.58416 1.95529 0.81741
3.30072 -0.04390 2.26018 0 15.96748 2.18267 0.65546
8.11259 -0.07649 1.92949 0 -9.05234 0.20602 0.23626
14.32517 0.25253 6.06401 0 -28.50589 -6.19212 0.42240
23.24589 0.00354 19.44328 0 24.04163 -0.63697 0.83570
13.72027 -0.00693 5.44483 0 -20.07862 1.58337 0.39592
-2.55893 0.09594 2.97695 0 0.43536 -3.27678 1.08363
-0.86256 0.16368 0.69070 0 -12.33472 -5.85813 0.52307
-0.65409 0.27690 1.31865 0 -28.94889 -7.71274 1.10356
0.11705 -0.10214 0.58866 0 -5.06596 4.03942 0.58467
-3.90421 0.07325 1.80890 0 -17.22817 -3.27212 0.44890
-1.95385 0.18361 4.27421 0 23.29878 -5.70386 1.94737
-0.55189 0.11383 1.87992 0 8.99370 -3.65096 1.64591
0.37515 0.10496 0.43618 0 -2.53108 -1.80417 0.40840
-14.35304 0.20540 3.65193 0 29.88853 -3.98864 0.25401
-5.25046 -0.13361 1.79674 0 28.17052 2.54606 0.33638
-2.63209 0.18160 0.67245 0 20.55559 -3.16724 0.23896
15.02880 -0.08915 23.43629 0 -6.73675 2.42402 1.55602
2.32960 0.08823 2.62240 0 -0.48443 -3.06711 1.03444
-15.76024 -0.07893 3.32424 0 -15.39896 0.01606 0.21073
0.60527 -0.21301 0.62605 0 -24.41019 5.46441 0.53561
-19.74953 0.05571 8.58055 0 -5.55968 -0.41008 0.43403
-23.85397 0.21996 14.38308 0 29.96922 -5.61751 0.60252
23.23015 0.16794 13.29943 0 15.24993 -4.03376 0.57206
0.44727 -0.13684 0.66898 0 -5.91765 5.05451 0.61069
-7.55106 0.07106 11.57461 0 -29.93459 -1.71200 1.51961
-1.03594 0.06998 1.39889 0 -29.75520 -2.54950 0.97158
0.23094 -0.11362 1.81649 0 -24.56731 3.78508 1.76991
-12.26663 0.14044 5.05241 0 11.41807 -2.86278 0.41064
2.94773 -0.08702 1.69215 0 29.54725 3.64898 0.54371
1.40593 -0.15785 1.18411 0 23.50651 5.59610 0.68637
0.66770 0.23055 0.37784 0 -29.98650 -5.11608 0.31427
0.70295 -0.23296 0.46395 0 8.72396 5.63992 0.37962
-2.18324 -0.04470 1.13464 0 -19.55682 2.51193 0.47258
-1.53619 0.09542 0.89106 0 29.97355 -3.85583 0.48617
3.17231 0.31150 0.93607 0 8.84210 -7.24851 0.28151
0.96301 0.11114 0.78095 0 29.83430 -4.18578 0.56256
6.92603 0.15687 7.04473 0 -28.54390 -4.10088 1.00675
-4.82015 -0.16723 1.21242 0 26.05142 2.97558 0.24644
-3.63580 0.13593 2.16265 0 -4.33852 -3.08722 0.57360
1.56531 -0.05129 0.54059 0 -26.23546 3.39931 0.29113
-0.01851 0.12450 0.31578 0 23.30559 -2.01424 0.31572
-2.48132 0.05415 1.12808 0 -16.78049 -2.76789 0.42178
-11.90598 -0.09789 14.05909 0 -23.73641 2.57852 1.17674
0.79716 0.17203 0.80240 0 -28.94765 -5.93943 0.62746
-7.64777 -0.07343 2.31941 0 4.40476 4.01676 0.30088
0.25844 -0.01383 0.47197 0 -18.49214 1.61778 0.45696
1.61656 0.01185 0.78702 0 -24.57412 -1.51207 0.41413
-0.93658 0.24033 1.12245 0 26.03282 -6.45638 0.81928
-0.04101 0.06255 1.16271 0 24.99144 -1.35341 1.16174
-1.44517 -0.05150 0.68435 0 -14.55843 0.31215 0.38950
-5.20955 0.08657 3.41777 0 17.86170 -3.32235 0.64436
-15.34111 -0.08352 7.55952 0 -20.81442 1.55513 0.49830
0.15188 0.15611 0.31786 0 17.49488 -6.32337 0.31426
6.71953 0.16984 8.59801 0 25.49793 -5.43753 1.26566
17.18438 0.09675 41.30767 0 21.63700 -2.60561 2.39975
0.74427 -0.15885 0.43052 0 -29.93065 6.41170 0.34541
-0.49587 0.16185 0.43492 0 18.60493 -6.16050 0.38967
1.11847 -0.09910 1.36005 0 21.92705 2.48396 0.90654
6.39613 0.13324 1.57593 0 -7.08944 -1.79118 0.24363
2.10735 0.18073 0.57254 0 -28.57415 -3.20077 0.24564
2.97258 -0.18647 3.80254 0 -0.78784 5.23375 1.21249
0.89708 0.21475 0.65955 0 28.98894 -7.49379 0.49100
0.88054 0.15862 0.33245 0 3.60780 -2.58763 0.24963
11.62303 0.00014 3.29316 0 -27.95498 -1.73931 0.28246
-0.22946 -0.02634 0.72908 0 8.58364 1.59273 0.71062
1.75133 -0.17433 2.52035 0 -22.14302 5.74099 1.24975
-5.27974 -0.10079 1.65480 0 -25.90610 1.43413 0.30808
-0.36306 0.06560 0.47866 0 24.90144 -0.74736 0.44994
15.96850 0.14892 5.47403 0 28.75413 -5.68451 0.41282
-13.99406 0.09870 9.17023 0 -1.25924 -2.08985 0.65370
0.87602 -0.01613 0.47204 0 -2.30620 2.01066 0.35513
-12.07377 0.08762 6.15830 0 20.33589 -1.53530 0.50841
9.35235 -0.13213 11.82471 0 -22.60365 4.46394 1.25723
-13.99923 0.13948 3.33809 0 29.22064 -1.92531 0.23805
-0.59856 -0.00575 0.32032 0 -15.75449 2.12189 0.27489
-0.72001 -0.14552 0.30839 0 -7.72214 2.37143 0.25032
-0.46276 -0.24365 1.02258 0 22.38391 7.99717 0.92804
1.25778 -0.11151 1.13155 0 -16.99556 2.69084 0.70424
3.88925 -0.20632 2.30015 0 25.92081 5.33195 0.57283
0.76047 0.00963 0.81772 0 2.65158 0.57775 0.65091
-6.10438 0.08937 5.90815 0 -29.79008 -2.05970 0.95517
-16.39681 0.05199 6.56398 0 13.32502 -2.77060 0.39970
1.53409 -0.11383 1.51660 0 -14.93571 2.86974 0.82822
-0.25645 -0.11961 0.54414 0 6.51762 2.68564 0.52709
0.77274 -0.22622 0.53331 0 16.33312 5.58434 0.42205
-2.46517 -0.20979 1.28772 0 -25.22160 7.52020 0.48413
-21.50550 0.26700 17.11792 0 -27.58929 -7.22394 0.79518
-1.60567 -0.21648 1.67153 0 20.01788 7.20080 0.88370
0.47234 -0.09712 0.41407 0 21.99165 1.61968 0.37443
10.39364 -0.04588 7.66319 0 -10.60568 0.76024 0.73397
1.67197 0.14524 1.46018 0 -29.56091 -3.57672 0.74956
-16.51291 0.10447 12.68630 0 29.86247 -3.73374 0.76692
0.96032 0.12741 0.77906 0 -17.77179 -4.68098 0.56195
1.17954 0.05967 1.04540 0 26.27551 -0.95054 0.67608
0.90002 -0.08687 0.49237 0 -28.77399 4.27598 0.32931
-1.02966 0.01180 0.84945 0 4.42559 0.59119 0.59185
-6.44389 0.06075 1.98214 0 29.84202 -3.44847 0.30412
-9.20352 0.19409 4.55996 0 29.99501 -4.65827 0.49266
-4.15534 -0.19495 5.83783 0 10.90673 5.53604 1.36597
-3.36544 0.00354 1.49986 0 -27.28191 -1.22329 0.42735
-1.23557 0.19114 0.44232 0 -6.98465 -3.75284 0.27836
0.33952 0.15689 0.44078 0 -29.57885 -5.91454 0.41739
-0.91816 -0.12648 0.90972 0 17.04288 3.09901 0.67014
1.55489 -0.29132 0.78936 0 -15.46843 7.49830 0.42711
0.17343 -0.17179 0.69526 0 -17.83574 4.46179 0.68504
1.55871 -0.00039 1.51016 0 2.85985 0.72011 0.81549
6.00375 -0.06863 6.31128 0 0.90299 2.63790 1.03697
23.22257 0.16187 5.46566 0 -29.64848 -7.10117 0.23535
25.11706 -0.13309 9.55743 0 28.02270 5.47349 0.38034
-4.88661 0.12259 1.20290 0 16.18366 -1.45691 0.24133
-6.49537 -0.16959 2.80767 0 29.43459 3.93579 0.42733
1.16293 0.17623 0.99979 0 -25.96547 -4.39165 0.65190
-2.38107 0.04256 1.12864 0 -15.20169 -0.02533 0.43714
-4.66942 -0.07854 3.26342 0 3.12499 1.68516 0.68345
-14.64967 0.19288 8.42862 0 -9.21789 -6.65780 0.57410
0.56121 0.12405 1.05929 0 -20.91180 -4.20931 0.92377
6.23781 -0.10997 2.91707 0 -29.66101 4.51806 0.46185
5.06215 0.19075 2.72867 0 5.27832 -4.63316 0.52891
1.26295 -0.11802 0.36360 0 16.80457 6.04979 0.22038
2.54996 0.06220 0.75054 0 -29.89310 -3.65577 0.27798
1.91087 0.12947 1.32508 0 -17.83315 -2.97971 0.63257
0.59442 0.19924 0.96558 0 -28.38056 -6.55452 0.83003
-4.71174 -0.01397 2.17019 0 -11.37029 -0.63473 0.45059
-0.13160 -0.11847 0.63650 0 -23.95853 4.46840 0.63106
5.61177 0.21213 2.64967 0 -25.41817 -7.47780 0.46496
4.34950 0.08479 0.93115 0 27.29794 -4.98860 0.20885
-5.25004 -0.21275 2.90826 0 -20.33346 7.48251 0.54425
0.47861 0.07562 0.87705 0 29.88832 -2.84140 0.79112
20.24848 -0.11531 9.49966 0 -26.89831 2.43599 0.46869
4.52501 0.07067 2.17171 0 3.65046 -0.94456 0.46886
0.76855 0.11954 0.31012 0 -23.40850 -1.40678 0.24594
-3.94988 -0.27671 1.38578 0 -25.65291 6.74688 0.34023
2.13520 -0.19813 0.38646 0 29.59259 2.82083 0.16398
-0.17429 0.03417 1.00695 0 22.35432 -1.46093 0.99200
1.23163 0.27044 0.55369 0 6.33533 -6.44334 0.34907
-9.34495 0.22888 6.35049 0 29.15421 -5.97746 0.67578
8.71111 0.12121 2.54030 0 6.85080 -1.77205 0.28988
16.45538 -0.03504 3.66065 0 -26.88219 3.46287 0.22227
-1.32683 -0.08881 0.80412 0 -20.37232 1.68238 0.48405
17.16191 -0.13138 4.53320 0 23.75848 2.06045 0.26388
-4.13346 0.13103 0.86491 0 6.40435 -1.31072 0.20347
12.80792 0.06786 5.41226 0 29.97050 -3.18483 0.42140
-4.28246 0.12726 3.04991 0 20.07520 -4.49673 0.69363
-9.27824 0.05247 1.96662 0 22.21611 -3.96299 0.21097
-13.64413 0.10992 6.56401 0 -20.80147 -4.31089 0.47990
11.85485 0.33081 2.72406 0 22.74881 -7.34989 0.22918
11.95133 0.07472 6.50957 0 -17.41647 -3.11532 0.54287
-0.11206 -0.00222 0.49978 0 -1.69373 -0.88243 0.49667
2.90478 0.29403 0.77348 0 -28.05091 -6.52192 0.25187
-4.90975 0.04108 1.38103 0 10.85297 -3.02623 0.27575
-3.60879 -0.14776 1.85218 0 -28.30245 3.45626 0.49465
-8.92105 0.10936 3.10467 0 -10.28714 -1.73668 0.35278
7.40987 -0.19836 3.27846 0 17.55101 4.81430 0.43858
-4.44384 0.14145 3.43143 0 24.09717 -4.86604 0.75338
-2.64819 0.08806 1.16285 0 12.52262 -3.83047 0.41092
0.36684 -0.19592 0.39394 0 -23.73811 7.45226 0.36985
-1.53832 0.11147 0.66310 0 18.80597 -1.83429 0.36149
-6.57762 -0.19956 4.35842 0 -7.58436 5.24903 0.65516
-0.87241 0.06619 0.71192 0 6.67826 -0.94842 0.53651
0.77484 -0.10388 0.58365 0 -26.93348 4.33373 0.46140
-26.53356 -0.11756 17.85530 0 27.87750 4.38913 0.67253
1.19416 0.29567 0.79730 0 14.70393 -7.67803 0.51193
-1.47965 -0.11661 1.10005 0 -28.63416 4.43241 0.61604
-4.57598 -0.22751 1.75444 0 28.53105 5.46243 0.37471
-0.09225 0.20481 0.44125 0 -14.82458 -7.32292 0.43938
20.35391 0.23317 9.48885 0 -26.84029 -5.74438 0.46574
-27.04393 0.17843 8.69294 0 16.37331 -3.63118 0.32137
-3.14933 0.18568 2.04909 0 23.98561 -4.63035 0.62029
10.69483 -0.19038 4.39109 0 23.39336 7.13542 0.40892
7.33652 0.06641 1.91596 0 -1.84821 0.06718 0.25895
0.46580 0.01247 0.50341 0 20.04584 0.82810 0.45635
12.61637 0.21324 12.52157 0 -0.93572 -6.87241 0.98943
-14.17666 0.06551 3.33926 0 -12.68995 -4.10463 0.23517
-1.81809 0.16624 0.57601 0 -20.68333 -3.02060 0.27776
2.19295 0.02012 2.13028 0 7.97473 0.05587 0.88396
24.61911 -0.00237 17.20882 0 -26.25757 -0.57967 0.69850
5.59753 -0.14690 4.74211 0 -9.91056 3.85905 0.83401
-2.33350 -0.06841 1.17743 0 -25.03816 1.02790 0.46387
-2.27584 0.02054 0.43644 0 23.67673 2.39201 0.17570
-5.19771 -0.11940 2.92939 0 5.07963 2.72619 0.55355
-24.77402 0.32276 5.26172 0 6.14884 -6.93503 0.21245
15.71326 0.25581 4.04998 0 27.19892 -5.47328 0.25741
-0.17744 -0.16635 0.84588 0 24.46757 4.43646 0.83287
27.01604 -0.05323 20.43787 0 -2.46400 2.35912 0.75606
-0.75285 -0.28758 0.35748 0 -28.71296 6.75455 0.28566
18.42919 0.20832 7.65885 0 -14.96594 -7.50654 0.41509
-16.82029 -0.15282 5.57079 0 29.96142 6.29622 0.33076
10.53978 -0.01228 7.90562 0 -10.97067 -0.23498 0.74679
27.03660 0.16938 14.21218 0 -5.89427 -3.99521 0.52540
13.45708 0.25189 4.94006 0 29.47890 -5.97738 0.36622
-1.48374 0.22511 1.10152 0 -29.44215 -5.78936 0.61621
0.45354 -0.13234 0.91845 0 -24.12621 4.68244 0.83645
23.31788 -0.07112 14.26399 0 7.38913 3.06136 0.61124
5.36481 0.28099 3.66190 0 -8.25277 -7.50681 0.67111
4.55726 -0.01915 3.60562 0 28.94651 1.31847 0.77290
-26.51072 0.18897 6.10040 0 -29.89296 -3.29901 0.23016
0.99542 0.24797 0.63577 0 -19.72166 -6.13893 0.45065
-0.59800 0.01531 0.90953 0 22.85958 -1.03373 0.78063
-0.26562 0.20342 0.44439 0 1.99512 -4.77498 0.42950
-26.47637 0.02000 12.59526 0 -13.37170 0.55684 0.47548
-0.94174 -0.05991 0.77067 0 3.24677 0.96503 0.56109
2.26510 -0.04625 1.86495 0 -28.81893 2.15132 0.75327
0.94187 0.17642 0.61881 0 -26.82695 -4.03755 0.45051
4.44393 -0.01882 6.78992 0 28.45824 0.30276 1.49066
1.05613 0.24860 0.95913 0 6.81282 -6.53913 0.65949
-3.83706 -0.09927 1.37016 0 13.60928 4.57891 0.34560
9.00559 0.16576 17.05740 0 -10.75193 -4.60960 1.88255
-0.48737 -0.06061 0.60919 0 -13.62398 2.84253 0.54763
0.06892 -0.24736 0.95141 0 15.29537 6.91847 0.94916
-1.07819 0.11502 1.00530 0 -24.70092 -4.13676 0.68367
-5.60663 -0.13293 1.10596 0 -10.89610 6.85726 0.19437
4.13416 -0.07356 1.16791 0 7.79337 4.18913 0.27466
10.58964 -0.19248 4.97659 0 -4.26863 4.71676 0.46797
-4.99077 -0.26490 2.81618 0 29.65394 7.02138 0.55334
-6.29393 0.09456 2.35152 0 29.94365 -4.17446 0.36912
-1.98621 -0.11465 0.85735 0 19.14340 2.18006 0.38563
-12.70687 0.17606 2.94345 0 -29.79685 -2.93241 0.23114
0.13222 0.13018 0.41472 0 2.19151 -5.11534 0.41114
12.46284 -0.12854 3.49375 0 14.17376 2.08615 0.27961
19.55149 0.07546 14.04204 0 -24.45299 -2.90426 0.71734
-0.64436 0.05220 0.64898 0 -27.53436 -0.54632 0.54557
8.88984 -0.11651 2.97690 0 -21.16898 2.02434 0.33291
-8.71821 -0.12533 2.94463 0 5.86999 5.42424 0.33570
-27.25208 0.01134 18.51660 0 3.12651 0.49406 0.67907
1.76632 0.00969 0.62305 0 27.10965 1.45867 0.30706
12.81455 0.18631 7.93266 0 -20.29729 -6.38951 0.61724
8.63074 0.13836 2.42582 0 -20.92338 -5.99240 0.27937
1.99106 0.11113 1.04088 0 -0.34358 -4.37769 0.46724
2.82694 -0.05022 2.28568 0 26.87986 2.26289 0.76233
4.71696 0.03744 4.69005 0 26.57993 -0.51596 0.97271
7.09397 0.05315 2.18907 0 26.84187 0.16100 0.30572
-1.32879 -0.22350 0.81074 0 -23.37891 5.67461 0.48756
-0.68061 0.01503 1.17446 0 29.62348 0.15691 0.97094
-2.20326 0.12684 2.22933 0 -23.21893 -4.29496 0.92143
-7.94566 -0.01328 6.35253 0 -0.43251 1.12470 0.79330
-1.22405 -0.15818 1.34095 0 21.72473 4.20528 0.84842
3.92220 -0.02739 2.09518 0 -23.38236 -0.08446 0.51783
-1.80015 0.16496 0.66184 0 -18.77192 -6.55792 0.32150
2.57937 0.00708 1.64928 0 -12.67361 0.72653 0.59622
0.02769 0.24277 1.39299 0 -9.16879 -6.80429 1.39246
-1.53304 0.11794 1.10488 0 25.64882 -2.59763 0.60368
-0.00206 -0.29758 0.49037 0 24.15325 7.84809 0.49036
-3.06001 -0.13786 0.76711 0 29.67854 6.47878 0.23850
16.62831 0.01937 11.14540 0 -24.96315 0.26424 0.66913
-3.91815 -0.08638 1.41704 0 -28.65712 1.20685 0.35050
0.83159 -0.16268 2.33674 0 -26.74604 5.25850 1.79668
-1.48796 -0.26952 0.73252 0 -10.42586 6.80625 0.40866
-1.61421 -0.13945 2.03005 0 0.51459 4.75924 1.06912
-2.49483 -0.01978 5.91890 0 22.77676 0.90700 2.20220
-23.29533 0.13587 36.10757 0 -29.44681 -4.33524 1.54860
-0.98558 -0.19416 0.76254 0 20.28008 4.92234 0.54313
5.10990 -0.11416 5.22193 0 -29.73679 4.02788 1.00293
-1.31426 0.21747 1.71575 0 -16.04295 -6.97404 1.03898
-9.32616 -0.16859 4.39481 0 21.73605 6.29241 0.46865
-6.90966 0.21201 3.40155 0 -23.59715 -7.41826 0.48731
-1.27927 0.04778 1.66237 0 -24.37478 -0.85192 1.02383
0.62362 -0.03909 0.27154 0 -20.54689 -0.96826 0.23047
0.87369 -0.01167 0.72794 0 15.40660 -0.50130 0.54823
1.58863 0.15163 3.12938 0 21.04287 -4.15123 1.66709
1.48265 0.26012 2.42273 0 15.92778 -7.30884 1.35474
0.58101 -0.16139 0.68233 0 29.98820 4.03013 0.59000
0.43723 0.14241 2.12722 0 29.97773 -3.92151 1.94906
-10.09632 -0.06100 2.38243 0 29.26026 4.12969 0.23503
-8.62786 0.16097 5.42749 0 -9.30398 -5.60602 0.62496
-5.02404 0.09058 3.32899 0 -1.78907 -3.43675 0.64991
0.98075 0.06078 1.86770 0 8.68618 -2.13874 1.29813
0.58291 -0.16346 0.63353 0 11.98214 5.92766 0.57031
2.30741 -0.03836 6.48122 0 21.62380 1.03334 2.57728
-0.32168 0.12057 0.78759 0 29.98780 -4.23685 0.74976
-1.73611 0.19689 1.26752 0 8.40588 -4.97855 0.63273
-3.19783 0.11413 1.18056 0 9.57183 -1.87666 0.35245
-1.36448 -0.16143 2.12340 0 28.85085 4.50275 1.25523
-2.09212 -0.10532 0.89428 0 24.17922 4.60349 0.38575
-7.31928 -0.17314 6.89724 0 -27.73984 5.85152 0.93372
-3.75969 -0.19507 9.43644 0 -27.01483 5.71096 2.42558
-5.15826 0.14888 3.28106 0 -28.71288 -3.54561 0.62452
-4.81522 0.04543 2.55747 0 9.74045 -0.29735 0.51986
-0.41897 -0.32008 0.29383 0 -6.69990 7.57971 0.27103
0.49290 -0.11113 0.51661 0 20.48972 2.29913 0.46340
2.33746 -0.02082 0.67021 0 19.69481 2.65828 0.26378
-17.45649 -0.03480 7.32143 0 1.95056 2.35351 0.41884
-1.63213 0.11609 0.93188 0 -29.37651 -2.33777 0.48690
-5.86358 -0.24713 4.51134 0 21.35879 6.76647 0.75855
0.97963 -0.11633 0.69646 0 -1.46943 2.53001 0.49757
2.29136 -0.15722 0.51942 0 5.82372 2.29466 0.20784
8.16023 0.15027 5.17940 0 0.96349 -3.59422 0.63008
-0.61128 0.12153 0.31141 0 25.12980 -5.49633 0.27579
1.87109 0.10989 1.32790 0 -21.10192 -4.05241 0.62598
9.77026 -0.19771 5.61680 0 2.69899 6.97165 0.57198
-4.27856 0.10588 2.54110 0 -29.06216 -2.20132 0.57836
-6.04371 0.12508 2.05162 0 28.48809 -2.12507 0.33500
4.36802 -0.05146 1.63950 0 -29.61763 0.22661 0.36602
9.50941 0.01570 2.80022 0 27.77731 -2.14395 0.29302
2.68610 -0.14068 1.43908 0 -26.70051 5.36133 0.50216
0.38614 0.20925 0.65417 0 -23.18341 -5.31289 0.61027
-3.28605 -0.14129 1.21512 0 1.06134 5.83192 0.35397
22.54438 0.22614 9.09523 0 21.23780 -5.36039 0.40316
6.01187 0.15108 2.50148 0 -24.36160 -3.17720 0.41053
-0.60550 -0.11906 0.28626 0 29.94138 1.54633 0.24492
-0.24454 0.22899 0.78732 0 -29.58018 -6.07405 0.76478
-6.94223 -0.10424 2.73069 0 22.81411 4.55741 0.38945
1.37569 -0.15527 1.11044 0 -28.92685 5.55793 0.65298
1.86426 -0.05736 0.45667 0 10.99968 -0.56853 0.21607
-1.89795 0.03885 2.15488 0 16.80574 -0.57466 1.00451
-20.38142 0.04701 25.77888 0 -5.40807 -1.73553 1.26334
1.36084 -0.13634 1.20219 0 -9.27105 4.91491 0.71193
3.44108 -0.06959 1.85365 0 24.80955 3.16973 0.51733
-22.24404 0.27825 5.56942 0 26.70242 -6.05798 0.25032
3.05304 0.16573 3.48812 0 -28.60463 -5.38368 1.08584
1.08308 -0.05614 1.68381 0 1.03633 1.31653 1.14226
3.42496 -0.08070 2.08823 0 22.63808 1.62410 0.58541
3.41335 0.17665 2.41005 0 27.29222 -4.43497 0.67764
-0.95439 0.06672 2.07886 0 1.28506 -1.57876 1.50389
13.37682 0.10054 7.24089 0 -13.88707 -1.97879 0.53988
-11.92452 0.01038 4.47432 0 -29.34315 1.13824 0.37404
6.51413 0.20452 3.61083 0 -24.83954 -5.07402 0.54798
-13.50311 0.11714 14.53454 0 -10.97312 -2.94871 1.07349
8.48572 -0.08652 2.18624 0 4.07941 4.72864 0.25605
-0.13726 -0.02562 0.77461 0 27.27207 0.18351 0.76742
-11.72929 -0.07903 8.51429 0 14.61515 3.16838 0.72334
-10.30749 -0.06902 8.06924 0 -8.19579 1.49277 0.77926
2.99764 0.19115 2.46653 0 -12.14980 -6.35048 0.78059
-0.52520 0.24541 1.42100 0 -10.22104 -6.84042 1.25806
-12.12617 -0.01981 5.47512 0 -29.54934 1.81506 0.45009
4.12777 -0.10513 0.96858 0 -2.06666 5.56284 0.22816
-2.51430 -0.00601 1.13224 0 28.68325 -0.96083 0.41862
15.41596 -0.14656 7.16634 0 16.51950 3.35140 0.46399
13.62993 -0.01776 3.62123 0 -17.82295 2.55525 0.26515
-0.46387 0.18833 0.54820 0 12.47469 -6.66749 0.49732
4.59064 -0.12179 2.80321 0 10.69983 2.86464 0.59672
2.43475 0.28455 1.13565 0 22.04213 -7.15208 0.43155
1.89305 0.22357 0.88429 0 -10.99010 -5.31707 0.41310
1.13193 0.28544 0.73566 0 -5.83418 -7.32424 0.48710
-8.32707 0.01238 2.57840 0 -12.86524 -1.95966 0.30759
-3.32976 0.06026 1.08496 0 6.72312 -3.38901 0.31215
1.37188 -0.12577 1.21031 0 22.43583 3.12446 0.71299
3.95962 0.25748 2.66812 0 1.05429 -6.79302 0.65338
0.41815 0.03810 0.70229 0 24.30193 -1.85442 0.64794
-1.70806 0.02299 0.78803 0 -9.62696 -1.89780 0.39825
2.75312 -0.13539 1.90317 0 14.25560 3.33967 0.64980
-0.37058 -0.19762 0.63635 0 0.18465 6.93204 0.59447
-7.33183 0.02895 1.47519 0 19.50185 -2.96302 0.23745
8.37000 -0.13467 2.80648 0 27.74487 5.72453 0.33308
0.09647 -0.12663 0.29900 0 21.12420 5.67128 0.29762
-5.51158 -0.04819 1.94863 0 -13.42981 0.05642 0.34799
-3.66929 0.24264 1.36628 0 -28.27093 -5.68059 0.35941
4.18890 -0.16611 2.05638 0 -16.79472 3.96154 0.47763
-0.69133 -0.05983 0.65127 0 -5.05940 0.91971 0.53574
18.99395 0.34488 3.87302 0 -23.71422 -7.44603 0.20386
0.74174 0.27066 0.50794 0 10.68361 -6.67481 0.40800
-0.54316 0.09965 0.42322 0 29.28788 -1.52310 0.37193
-0.39743 0.14808 0.63008 0 28.77903 -5.27167 0.58554
-2.96425 0.00595 2.08926 0 29.17145 -0.86341 0.66793
-2.33475 -0.27811 0.89808 0 17.49431 6.84819 0.35368
-2.60157 0.08872 0.62720 0 -4.44215 -0.30149 0.22521
11.47597 0.13776 9.34620 0 -7.59579 -4.70363 0.81140
-1.31606 -0.27204 1.01021 0 4.68548 7.32515 0.61123
-0.54130 0.23453 1.22564 0 -26.22828 -6.44688 1.08271
10.56534 -0.01327 3.74395 0 -29.31521 -0.97079 0.35292
3.53275 -0.26898 1.00892 0 -25.53127 6.14690 0.27494
2.54251 0.20662 1.47857 0 -26.87001 -5.12405 0.54128
-6.58342 0.06372 1.61225 0 -26.14652 0.28354 0.24232
-1.46195 0.04737 1.16363 0 6.08679 -0.56051 0.65701
-5.34901 0.11081 2.41593 0 6.56092 -4.42727 0.44413
3.91019 -0.04971 2.75345 0 28.62354 0.82194 0.68229
-0.17576 0.24021 0.57617 0 19.65236 -6.15861 0.56748
-19.42418 -0.02243 4.96452 0 19.00766 -1.25134 0.25544
-7.63538 -0.26783 5.58986 0 14.61144 7.34438 0.72597
1.05753 0.21461 0.46829 0 28.35183 -4.69142 0.32183
-0.14757 -0.18950 0.61886 0 -1.33135 6.65688 0.61223
25.73863 -0.05813 14.93581 0 -23.64735 2.71489 0.57993
-2.05940 0.26118 1.00718 0 9.96685 -6.49593 0.44004
-5.11620 0.04509 3.40671 0 -28.83711 -0.48826 0.65360
-16.95175 0.21327 13.60298 0 25.10187 -5.64063 0.80112
4.86395 -0.18730 1.05418 0 22.96889 3.22571 0.21245
0.91584 0.24557 0.46503 0 -7.04039 -5.69461 0.34301
-0.03066 0.13246 0.41618 0 -28.84049 -5.16998 0.41598
-0.01591 0.03024 0.24104 0 -19.20024 1.29946 0.24101
-2.85913 0.09061 2.62744 0 -29.03519 -3.23580 0.86749
10.62656 -0.18461 7.92401 0 -2.92227 4.90136 0.74247
-1.31858 -0.26481 1.45665 0 26.83595 7.38933 0.88024
1.04747 -0.26145 0.96162 0 -26.88028 7.08588 0.66406
-0.38632 -0.05636 0.67528 0 -23.75907 0.95876 0.62992
-1.62101 -0.14502 0.74732 0 27.55652 5.79563 0.39244
0.74742 -0.19575 0.74844 0 28.62533 6.86691 0.59953
3.43823 -0.14828 2.64064 0 -27.36964 3.81819 0.73755
-5.20507 0.04118 4.05169 0 25.70524 -1.82594 0.76454
-3.57070 0.12323 0.87919 0 -26.14994 -5.87124 0.23731
-0.95551 0.05934 0.39783 0 -28.64337 0.08083 0.28771
1.29682 -0.07798 1.03979 0 29.20319 1.61114 0.63500
-7.59908 0.10311 5.28400 0 25.56882 -3.76974 0.68947
-3.91067 -0.11822 1.04890 0 22.86256 5.67638 0.25998
-24.42832 0.14596 17.55095 0 11.00301 -3.56743 0.71794
-15.16580 -0.08890 9.64469 0 -22.04738 1.93645 0.63465
14.70430 -0.17752 3.23124 0 27.80195 3.01867 0.21946
-0.92222 0.29891 0.48108 0 25.62643 -7.28679 0.35370
-0.66416 -0.20261 0.34418 0 18.48374 4.25473 0.27911
19.52135 -0.03628 8.45067 0 20.65218 2.35935 0.43244
0.46863 0.14112 0.32147 0 1.69629 -5.99838 0.29112
-1.45191 -0.17710 0.38325 0 -27.30111 7.94409 0.21756
0.17373 -0.09189 0.42645 0 -26.92460 4.08463 0.41910
3.65073 0.12354 5.00226 0 -28.80507 -4.02198 1.32157
15.30447 -0.09087 6.36424 0 23.79461 1.56775 0.41507
9.27079 0.13901 3.10505 0 29.94283 -2.52822 0.33314
0.89553 -0.13987 0.36926 0 8.26682 6.23189 0.27517
0.34960 0.07893 0.50537 0 -23.82846 -1.20983 0.47707
-0.59504 -0.19773 0.34377 0 12.09338 4.21616 0.29546
0.56397 0.25868 0.93200 0 29.99022 -6.99268 0.81181
0.60849 0.11047 0.50318 0 11.49385 -4.45648 0.42989
4.22959 -0.08010 4.14858 0 -22.78416 1.94502 0.95456
1.89977 -0.13115 1.47509 0 -29.97377 4.77724 0.69360
4.10802 0.00552 1.83735 0 0.14831 -1.26266 0.43472
-13.06611 0.06096 10.01259 0 -10.38295 -2.42228 0.76413
1.87551 -0.20427 1.03993 0 14.13574 7.33769 0.48935
23.34990 0.14019 5.44917 0 -12.88847 -6.44079 0.23337
0.22875 0.25639 0.69542 0 -23.10005 -6.79128 0.67791
-10.48926 -0.21303 8.45150 0 -19.68194 7.15987 0.80215
0.81083 -0.27603 0.45378 0 24.43682 6.78304 0.35254
20.93031 0.19304 13.65976 0 -3.29348 -6.54748 0.65196
0.10552 0.11465 0.89174 0 26.25478 -3.94877 0.88681
-1.86383 0.02651 0.84185 0 -12.25757 0.57053 0.39811
20.02247 -0.24577 20.79760 0 23.53082 7.99688 1.03747
-4.37809 -0.20289 2.34968 0 28.13056 7.22087 0.52335
-14.47303 0.03391 12.34589 0 9.50401 -0.33500 0.85106
