-0.93923 -0.24096 0.34604 0 -26.26229 5.16645 0.25231
-1.68558 0.09383 0.83608 0 23.97429 -3.95877 0.42666
3.95645 0.13987 1.06366 0 -21.99500 -2.12529 0.26081
1.83429 0.04802 0.43497 0 29.14865 -3.85752 0.20836
-4.25931 0.13325 3.36779 0 -25.08604 -3.23819 0.76987
-18.37515 0.08914 12.88850 0 -4.57008 -1.85717 0.70044
-2.05565 0.01069 2.09149 0 29.99913 0.31923 0.91497
5.53817 -0.13984 3.95966 0 3.78829 5.02976 0.70367
0.40344 0.14090 0.51129 0 11.37095 -5.26910 0.47417
7.40252 0.27171 2.18139 0 -12.47547 -6.17841 0.29219
2.32073 0.23177 1.76454 0 -29.63901 -7.67348 0.69838
1.58227 0.01920 0.98167 0 -0.37485 0.47999 0.52455
1.12826 -0.25880 0.29919 0 -22.43730 5.11148 0.19857
-8.73943 -0.17689 2.72787 0 12.97331 3.69061 0.31027
-1.16805 -0.13439 0.65790 0 26.70765 5.35538 0.42792
7.51197 0.19192 1.62205 0 -25.87156 -3.21773 0.21426
12.88845 0.19856 7.03018 0 10.00943 -6.88526 0.54392
21.07050 -0.08526 13.75379 0 -4.54114 1.84962 0.65209
4.62093 -0.27584 3.27030 0 -19.92435 7.54255 0.69175
9.63653 -0.14279 5.39283 0 -22.68850 5.32078 0.55672
9.06571 -0.09836 2.06011 0 -1.43240 0.75908 0.22609
-2.28887 -0.21391 2.33300 0 -3.73866 7.08876 0.93405
-3.56487 -0.06325 1.79060 0 -2.90223 0.91917 0.48370
13.12980 0.22330 7.23347 0 23.15806 -5.62992 0.54942
-0.16302 0.15672 0.65299 0 -29.98317 -5.45046 0.64448
0.07994 0.12915 0.31510 0 11.13915 -2.14331 0.31409
0.16594 -0.22097 0.80332 0 15.33526 7.41023 0.79249
-14.99415 0.17950 9.55531 0 9.17704 -4.46841 0.63593
1.19790 -0.16078 1.24782 0 -23.47871 5.57384 0.79970
-0.82079 -0.08296 0.44161 0 -24.80018 1.06623 0.34140
-3.82767 -0.22804 0.56588 0 -29.24709 3.67001 0.16349
-0.75925 0.22212 0.76986 0 25.68901 -5.69680 0.61317
2.19733 0.08980 2.51233 0 29.96895 -2.11708 1.04072
-12.34359 -0.02942 2.83995 0 26.44863 3.21608 0.22953
-2.48807 -0.14150 1.30419 0 -29.77697 3.25312 0.48645
13.56743 -0.14821 5.77661 0 28.65846 3.29693 0.42473
2.32397 -0.08267 1.14172 0 5.16670 1.42308 0.45144
-1.59593 -0.00979 0.67329 0 -26.18486 1.80891 0.35763
-13.45390 -0.02987 7.50639 0 -17.14812 0.05845 0.55649
-0.44105 0.27568 1.21288 0 28.04403 -7.67945 1.10974
-1.94327 0.27483 1.58268 0 2.35101 -7.38629 0.72424
4.63214 0.20328 2.35240 0 -29.79754 -7.12819 0.49654
-6.87936 -0.20245 3.14445 0 27.54837 7.37547 0.45244
-13.22918 -0.04904 6.96396 0 -10.58280 0.57734 0.52500
0.43816 -0.05662 1.12562 0 4.99286 2.27893 1.03101
-21.41570 0.13760 11.56288 0 24.09297 -3.07975 0.53943
0.15975 -0.02017 0.73666 0 -29.31119 1.39053 0.72743
18.08311 0.26368 6.33027 0 3.62894 -6.24996 0.34967
-1.11039 0.12704 1.65759 0 18.66816 -4.20397 1.10930
-3.95174 -0.17535 3.11924 0 29.28908 4.64795 0.76532
19.50279 -0.09724 14.59462 0 -29.25749 2.30770 0.74742
-1.42786 0.27928 1.86136 0 -28.71949 -7.76601 1.06781
-26.78572 -0.23799 16.66601 0 29.99163 6.33911 0.62184
2.26795 0.15704 0.76627 0 -22.44776 -2.93999 0.30926
2.43294 -0.08218 1.08881 0 29.81139 3.80426 0.41406
-21.28111 0.08621 7.50450 0 29.60573 -3.98760 0.35239
-17.85579 -0.22990 12.54850 0 5.21157 7.77475 0.70174
-7.50867 0.09747 2.28502 0 15.26292 -1.13855 0.30181
-2.32737 0.10221 1.29144 0 26.86923 -4.01132 0.51000
-2.81557 0.00412 0.64885 0 23.65082 -2.41028 0.21735
1.23317 -0.11021 0.99178 0 0.31325 4.22631 0.62472
4.83080 0.23825 1.53601 0 -0.93230 -5.32429 0.31144
-1.84845 0.11386 1.17847 0 24.19001 -4.27129 0.56082
-2.05365 0.17148 2.38651 0 2.08261 -5.57720 1.04485
-3.55839 0.10130 1.13272 0 -29.65561 -1.27914 0.30670
-1.49106 -0.00379 0.67701 0 14.05787 1.55326 0.37719
7.69763 0.00478 2.67345 0 -25.16308 -1.36490 0.39330
8.49806 -0.16462 3.94084 0 -24.36080 6.19090 0.46066
-1.19931 -0.18086 0.79014 0 18.77111 6.58170 0.50608
0.27464 0.19954 0.55019 0 -15.01216 -6.94123 0.53055
-0.23127 -0.04574 0.78248 0 22.70249 2.12774 0.76236
-3.03749 0.07992 1.03241 0 10.94607 -0.72714 0.32291
3.17465 0.12178 4.55688 0 -13.50933 -3.19148 1.36913
-7.27304 -0.00738 5.27690 0 -28.83615 -0.40857 0.71885
-10.41621 -0.18589 3.88993 0 27.75326 4.23316 0.37187
3.16091 0.24908 1.24721 0 27.49457 -5.93488 0.37624
-1.66315 0.03187 1.39661 0 -29.99527 -0.16420 0.71973
1.21050 0.24707 0.75724 0 -20.93373 -6.19140 0.48232
-0.07878 -0.08632 0.29155 0 -13.10121 4.47387 0.29065
-10.62625 0.02314 6.08348 0 21.49608 -1.51244 0.57006
2.58768 0.19957 3.37979 0 29.96647 -5.46329 1.21836
-4.78794 -0.16581 5.27535 0 -29.52761 4.56452 1.07858
-0.43972 -0.15902 1.02218 0 -13.79058 5.42250 0.93572
-3.82595 0.22591 3.71242 0 -15.20652 -7.28786 0.93883
-18.06712 0.24556 8.44416 0 -23.81126 -6.11005 0.46677
-1.05480 0.01799 0.27315 0 -0.05746 2.27477 0.18804
-5.56688 0.11422 5.69924 0 -20.95413 -3.86469 1.00771
-16.53532 -0.16550 11.74565 0 15.19213 5.80344 0.70911
1.71029 -0.15011 0.92735 0 27.23024 5.72786 0.46814
1.65995 -0.12054 0.60364 0 -25.00758 2.03793 0.31158
-7.02263 0.03649 2.64651 0 27.01337 -2.39314 0.37322
-11.86876 -0.09943 8.30483 0 -22.46129 2.32356 0.69732
-3.38693 -0.30191 1.59444 0 28.52610 7.87638 0.45160
15.26375 0.05956 6.96849 0 28.09188 -0.58137 0.45567
18.11084 0.27602 13.47208 0 25.92269 -7.44070 0.74280
8.03767 -0.00498 4.40702 0 -13.90606 -0.70939 0.54419
5.55396 0.24736 4.25016 0 -29.49961 -6.60562 0.75319
0.05134 0.10123 0.60853 0 23.80720 -3.81533 0.60773
0.17642 0.14874 0.95785 0 16.45472 -3.82387 0.94329
-1.55057 0.14901 0.80776 0 -21.39184 -5.61151 0.43792
-0.05815 0.15743 0.38189 0 -9.28673 -3.26761 0.38125
-4.54565 0.00784 1.87689 0 -9.45043 1.11494 0.40335
-1.68712 0.08731 0.98012 0 29.31033 -1.50854 0.49982
-14.33559 -0.08826 6.99536 0 -22.34876 1.67230 0.48689
0.06926 -0.17885 0.82943 0 25.40335 4.80375 0.82745
0.01824 -0.06706 0.24159 0 -21.82299 4.25484 0.24155
0.76102 -0.13426 0.50811 0 7.90426 5.42493 0.40439
-0.04055 0.34279 0.23927 0 -7.89298 -7.78667 0.23905
-2.50007 0.23344 0.42267 0 -3.54082 -3.89973 0.17673
-0.56991 -0.10038 0.82211 0 1.42840 2.36941 0.71428
-3.40716 0.15626 1.50359 0 25.75850 -5.87611 0.42358
-11.92558 -0.16389 6.35921 0 -29.65256 4.00662 0.53147
1.74572 0.12001 1.14287 0 25.71891 -4.44567 0.56815
2.36270 -0.10500 1.19692 0 -10.42367 4.35519 0.46658
6.48048 -0.19188 2.23995 0 29.47873 4.28464 0.34174
2.34751 -0.22126 1.21840 0 8.22418 7.88962 0.47755
-6.62391 -0.31363 2.32934 0 8.70502 7.84698 0.34785
0.77386 -0.13610 0.45082 0 12.14431 5.66092 0.35658
2.13160 0.31943 0.54704 0 29.89675 -7.06292 0.23252
7.87730 0.04638 3.22731 0 1.52076 -0.05139 0.40655
-1.03038 -0.14574 0.71544 0 0.68890 5.52428 0.49830
3.99027 -0.05664 3.71520 0 22.80662 1.21292 0.90320
-2.48054 -0.06516 0.97028 0 14.06932 0.62407 0.36289
0.75053 0.02965 0.28723 0 27.38478 -3.05779 0.22980
-0.70294 -0.07648 0.28052 0 -9.57570 4.66067 0.22956
1.40338 -0.26951 0.40254 0 -9.86735 5.81876 0.23373
-0.92743 0.22124 0.84593 0 -11.90416 -7.45315 0.62028
3.73343 -0.22513 1.17328 0 20.26053 5.06190 0.30363
-0.83154 -0.23881 0.40494 0 28.91294 5.50278 0.31141
-0.11679 0.03014 0.23161 0 24.80083 1.40430 0.23005
-15.81980 -0.16298 5.31777 0 2.47638 6.58625 0.33562
-0.86867 0.06893 0.51784 0 -8.16752 -3.31380 0.39098
-0.91019 0.21971 1.46681 0 25.43508 -6.00768 1.08478
0.91291 0.03250 1.42735 0 -16.52807 -1.37990 1.05418
1.99823 0.19443 1.54392 0 -21.34998 -4.97660 0.69099
2.11129 -0.14831 0.80294 0 -25.12768 6.09392 0.34380
0.26160 -0.26145 0.35773 0 16.63802 6.33181 0.34609
-8.96986 -0.26273 3.36605 0 7.44609 6.48207 0.37308
1.42223 0.12015 0.50159 0 -29.31592 -1.73290 0.28863
-14.64705 -0.15473 7.24316 0 -23.28668 5.80942 0.49346
-3.53359 -0.21567 2.58134 0 -25.97674 5.78078 0.70296
11.70894 0.03564 6.73698 0 -18.04991 -1.88395 0.57337
-2.87201 -0.12579 2.03685 0 28.31969 4.64185 0.66981
-0.69756 0.20817 0.90952 0 -9.76632 -5.44026 0.74599
6.50168 0.14570 2.87259 0 -23.52867 -5.51334 0.43680
-0.44152 0.09930 0.63453 0 27.41342 -2.00850 0.58049
5.23675 -0.06629 1.81624 0 -22.53482 0.56640 0.34077
-2.68837 -0.21097 1.36746 0 25.84332 5.28188 0.47682
2.84851 -0.12444 2.06570 0 -10.74426 3.05450 0.68433
-1.19617 -0.11210 0.32446 0 -26.08871 6.01073 0.20824
0.34103 0.15244 0.48105 0 -24.80588 -5.66926 0.45531
16.83413 0.14379 13.47794 0 10.52043 -4.89435 0.80173
-16.26691 0.12019 11.39811 0 28.42888 -4.27588 0.69944
-13.16694 -0.13005 3.02169 0 28.80333 6.33081 0.22904
3.21097 0.26315 1.21760 0 24.79791 -6.28857 0.36229
-0.89545 0.23215 1.16509 0 0.13710 -6.25178 0.86800
0.50754 -0.14401 1.37830 0 -5.11415 4.83214 1.22907
2.54078 -0.30111 0.83502 0 21.12843 7.26980 0.30598
1.44749 -0.04377 0.58340 0 -29.12575 2.95114 0.33168
-2.38083 0.11957 1.12878 0 13.89084 -2.32085 0.43718
-1.26876 0.00419 1.45983 0 28.15302 -0.61047 0.90370
-0.42279 -0.23322 0.54220 0 -13.65747 5.98607 0.49942
2.49421 0.01661 1.32471 0 -29.99860 0.62021 0.49306
-17.50905 0.24196 16.24853 0 -5.51166 -6.58192 0.92655
3.31492 0.20670 1.47660 0 -24.81966 -7.42001 0.42654
27.26459 0.03777 33.19532 0 29.15688 -1.47336 1.21675
-1.86561 -0.06088 1.82782 0 -11.15067 1.31368 0.86357
19.96105 0.15981 7.54856 0 -9.99611 -3.32528 0.37782
1.13157 0.12469 0.34504 0 0.40471 -6.00554 0.22858
1.12124 -0.28093 0.31634 0 17.28494 5.89414 0.21066
-0.44582 0.30559 0.22338 0 -23.50631 -6.35553 0.20472
0.43052 0.02142 0.73362 0 -6.37552 -1.32172 0.67383
0.09448 -0.15568 0.64503 0 28.73232 3.93281 0.64218
-2.60359 -0.15355 1.54210 0 -26.86373 3.73880 0.55303
1.72171 -0.09491 0.48143 0 24.69843 5.11054 0.24191
-25.26442 -0.23336 20.15055 0 14.69623 6.39449 0.79703
-6.66378 0.11873 2.02594 0 29.66862 -5.24573 0.30081
-0.70659 -0.07494 0.34168 0 22.27755 0.49261 0.27912
1.60638 -0.06940 1.05017 0 -6.33308 3.09556 0.55508
3.26204 -0.01384 1.01300 0 -17.50170 -1.22794 0.29699
-10.97384 0.12712 7.60063 0 25.37161 -2.97778 0.68983
6.04651 -0.07333 2.43130 0 29.26434 0.98843 0.39681
-8.89005 -0.14634 1.88592 0 15.19847 7.05147 0.21104
-13.46541 -0.16865 13.38918 0 5.40317 4.60607 0.99166
6.42415 0.08823 3.74269 0 -27.45009 -3.46929 0.57575
0.03102 -0.12075 0.28779 0 16.51882 5.55328 0.28765
-17.57988 0.17145 5.65828 0 -15.76925 -6.75913 0.32149
2.38066 -0.23943 0.86578 0 21.85210 5.64298 0.33537
1.60299 -0.09802 0.49048 0 -1.73825 5.05341 0.25974
-4.83289 0.08450 1.52792 0 29.39338 -4.14293 0.30969
-24.35203 0.02579 11.22197 0 -26.97044 -1.80724 0.46054
0.09022 -0.31387 0.24098 0 -23.40143 7.14155 0.24001
-0.34599 -0.05193 0.75571 0 5.75887 0.92183 0.71418
-1.33564 0.25850 0.83347 0 1.68021 -6.56511 0.49959
-19.10917 0.05267 6.33992 0 -16.18324 0.04549 0.33147
0.93743 -0.15426 0.49942 0 -24.33966 6.18709 0.36444
-0.26821 0.02615 0.67356 0 12.29968 0.08265 0.65057
-1.84628 0.32274 0.60851 0 -18.16910 -7.62597 0.28988
-6.47600 -0.11965 2.32049 0 28.87492 5.16574 0.35426
-4.58462 0.11259 1.77588 0 -17.59618 -4.68909 0.37866
-7.37346 0.03839 1.70093 0 -18.11929 1.16829 0.22880
1.30381 -0.05035 0.82911 0 13.06230 0.57729 0.50464
1.72102 0.18557 1.04562 0 4.88798 -4.47348 0.52539
12.24587 -0.25754 8.70280 0 -23.53186 7.02235 0.70838
0.79761 0.09937 1.31342 0 11.63579 -2.39627 1.02682
-0.76949 -0.20424 0.52998 0 15.36024 7.52673 0.42008
-1.85459 -0.06358 1.24231 0 -12.69461 2.86480 0.58970
-8.28434 0.08718 3.75565 0 13.64219 -3.69194 0.45018
0.80262 0.13710 0.97924 0 -16.41395 -3.34749 0.76371
-0.73896 -0.24584 0.66875 0 12.28883 6.43395 0.53786
-2.17665 0.15829 2.23642 0 17.79181 -4.10255 0.93368
-2.67928 -0.14099 2.38125 0 -2.40235 3.68225 0.83270
-9.11315 0.31602 2.87503 0 -23.75974 -7.57930 0.31375
-2.46145 0.19653 2.09595 0 -18.27807 -6.50670 0.78902
5.62337 0.18392 1.32899 0 2.62643 -7.82375 0.23282
1.67318 -0.29662 1.06008 0 11.66715 7.93246 0.54391
1.51714 0.24419 1.15070 0 18.91362 -6.37526 0.63334
2.03324 -0.18515 1.65439 0 -11.72739 6.37910 0.73019
-0.31419 -0.30995 0.40586 0 2.77994 7.90381 0.38721
-1.06318 -0.09012 0.52455 0 24.74495 4.24014 0.35946
7.47840 0.18720 3.19803 0 25.60235 -6.82618 0.42397
1.56692 0.11310 0.52961 0 25.22432 -1.50193 0.28504
-10.92763 -0.14767 4.62537 0 -23.38489 5.78115 0.42163
-2.25403 0.06903 1.09212 0 -26.26208 -3.15943 0.44312
-12.16349 0.31146 3.66964 0 -29.57201 -7.37320 0.30084
25.06749 -0.15779 23.25900 0 24.77698 4.24605 0.92717
-4.59554 0.13406 3.13259 0 -0.41868 -4.73450 0.66619
-0.63632 0.16209 0.26981 0 -28.71748 -7.18932 0.22769
-24.20744 0.00542 21.55697 0 9.16968 0.49309 0.88981
5.65701 -0.07732 2.74945 0 -25.11747 1.60300 0.64421
-7.20852 0.14620 10.33997 0 27.06028 -4.67751 1.42084
1.27631 -0.21728 0.58051 0 -29.70069 5.09799 0.35809
1.60831 -0.04058 0.54124 0 20.17588 -0.49129 0.28589
1.41391 0.17945 0.60375 0 -21.85328 -3.78817 0.34871
-2.50368 -0.10214 1.95405 0 24.47804 2.43237 0.72489
-1.72740 0.09274 1.80974 0 8.83381 -3.27411 0.90673
-16.27990 0.12224 6.15492 0 -22.85211 -2.21387 0.37749
-26.78983 -0.02891 21.71774 0 13.30221 1.58116 0.81017
0.42995 -0.14891 0.80376 0 25.61878 3.83769 0.73842
1.61310 0.10673 0.62642 0 -22.54615 -4.71742 0.33014
24.72745 -0.05763 9.27750 0 -29.53829 3.19019 0.37501
-21.54957 0.32789 4.40350 0 -29.71151 -6.97755 0.20436
4.99555 -0.17740 3.54153 0 -5.14035 4.63930 0.69528
0.80498 0.11295 0.61033 0 12.64996 -2.21918 0.47547
0.72448 -0.12925 0.38657 0 -6.75739 5.66179 0.31310
0.59864 0.18785 0.48156 0 29.03057 -6.88084 0.41320
2.89307 0.01019 2.37799 0 -16.26722 0.43354 0.77701
5.33542 -0.09663 5.16580 0 1.79654 3.52688 0.95171
2.10998 -0.20892 0.74558 0 21.13793 4.67563 0.31939
0.60669 -0.13464 0.26791 0 29.59448 6.47369 0.22912
-10.74943 -0.13721 5.02723 0 -28.84859 3.07894 0.46577
-16.42077 0.23718 12.22532 0 6.63430 -7.78956 0.74319
-0.38849 -0.06013 0.84051 0 -21.00884 2.54299 0.78348
-11.79959 0.07693 2.36277 0 19.99223 0.04991 0.22519
3.25959 -0.19177 1.85973 0 3.40779 4.85621 0.54555
0.33586 -0.28566 0.88013 0 20.86405 7.96987 0.83433
1.37729 0.06631 0.63022 0 -9.67430 -3.30880 0.37034
-15.02480 -0.15250 5.98449 0 8.68037 3.34023 0.39755
-7.51377 0.13234 2.57535 0 -26.74214 -2.36201 0.33990
-12.18797 -0.15085 3.78561 0 -6.21795 2.92274 0.30972
1.65630 0.23469 0.40500 0 -29.65391 -4.39742 0.20949
5.58279 -0.13314 1.31972 0 -26.75338 6.38756 0.23286
-6.01136 -0.40985 0.76193 0 5.25120 7.67926 0.12514
19.82620 0.20431 12.07572 0 -4.27415 -6.95278 0.60839
23.50855 -0.13576 13.08459 0 -0.19007 5.10763 0.55617
2.04375 0.11920 2.07424 0 29.35925 -4.07024 0.91171
-5.27411 0.03065 3.64440 0 -18.00906 -1.50213 0.77233
-6.35238 -0.19018 4.18345 0 -14.54399 6.74587 0.56921
-10.05912 -0.04035 4.84182 0 -5.25703 0.22379 0.47908
-0.34998 0.23301 0.51296 0 -14.99436 -5.78375 0.48417
-1.25291 -0.05373 0.76531 0 -29.68299 2.77378 0.47747
-1.72380 0.01659 0.71010 0 -23.11746 1.01935 0.35642
0.39506 0.28812 0.37085 0 4.40901 -6.89565 0.33639
-3.49413 0.20260 3.04133 0 20.08347 -5.35308 0.83686
-7.56200 0.00904 3.31225 0 -7.12920 0.98796 0.43434
-1.32202 -0.02649 0.87818 0 8.77861 -0.08925 0.52984
-1.28370 0.03316 1.25619 0 3.51756 -0.25101 0.77203
2.18882 0.12804 1.01196 0 15.27647 -2.52544 0.42062
24.59276 0.06965 17.36761 0 -18.75443 -2.74069 0.70569
-0.88085 0.00879 0.31309 0 13.78515 -2.37175 0.23503
12.97656 -0.20067 6.82175 0 9.36406 5.07929 0.52424
0.24109 0.01665 0.22871 0 -27.47318 1.88925 0.22235
1.57175 -0.16751 0.57758 0 0.39830 6.86283 0.31015
-5.36521 -0.01863 6.00945 0 28.87939 0.17600 1.10116
-1.90259 -0.16015 1.49448 0 -29.98357 5.65584 0.69536
1.28372 0.06621 0.33544 0 7.07158 -4.44489 0.20627
2.42112 -0.23796 1.16245 0 24.88370 5.99029 0.44383
0.27968 0.07637 0.70413 0 -28.53257 -2.97366 0.67812
-2.72984 -0.05454 1.37967 0 7.04082 0.63862 0.47460
6.54402 -0.10510 3.51988 0 29.34475 2.26273 0.53179
1.38712 0.12075 0.82397 0 19.46576 -2.46526 0.48192
1.48308 -0.02935 0.58294 0 26.70836 2.54103 0.32599
-1.21141 -0.01952 0.62560 0 4.75878 -0.61717 0.39834
-18.20944 -0.10471 28.38161 0 -29.28791 2.88943 1.55631
-16.34562 0.16468 6.66647 0 11.63980 -6.18680 0.40720
0.90727 0.22868 0.43879 0 28.77160 -5.11749 0.32503
3.83306 -0.20593 2.81362 0 -6.08946 7.03334 0.71035
1.43984 0.14234 0.77864 0 -16.24612 -3.01430 0.44426
2.08784 0.16228 0.64446 0 23.01442 -6.74274 0.27850
-0.91689 0.03329 0.69409 0 -28.58601 -1.92151 0.51164
3.88272 -0.28516 0.72076 0 -29.95346 5.58231 0.17991
-8.70232 -0.12157 8.16995 0 -25.39452 4.29136 0.93274
14.94553 -0.00316 9.79422 0 21.51359 0.95846 0.65394
-1.33678 -0.12499 0.63597 0 -23.28312 2.47033 0.38102
5.73860 -0.21412 5.86542 0 29.49580 7.05193 1.00696
-0.45777 0.00403 0.64961 0 -9.50767 -0.90582 0.59068
0.94797 -0.13842 1.27582 0 -21.79769 4.80484 0.92594
2.12508 -0.16283 1.33037 0 -29.58936 4.03601 0.56653
9.47831 -0.10021 9.73944 0 -29.99984 2.58144 1.02193
1.40101 0.01341 1.09238 0 -23.26902 -1.12780 0.63469
0.74977 -0.14347 0.43776 0 7.54476 5.91514 0.35029
13.51605 -0.06839 7.89996 0 -29.83542 3.02010 0.58298
-10.39482 0.17881 3.82420 0 -13.02481 -6.77459 0.36634
11.35776 0.04116 2.45734 0 10.84194 1.22117 0.21575
-4.33434 -0.15800 3.87849 0 -9.81444 4.21654 0.87203
0.15981 0.03870 0.62045 0 15.03024 -0.24461 0.61267
-24.99554 0.15043 9.99530 0 27.94461 -5.77417 0.39969
0.77321 -0.05752 0.48384 0 15.78643 3.15836 0.38282
1.82563 0.12421 2.09902 0 -3.85678 -4.16592 1.00842
1.37260 -0.08994 0.43134 0 -29.99360 0.75869 0.25408
-1.20618 0.18640 0.79518 0 27.08560 -6.58580 0.50756
0.08627 -0.15969 0.37988 0 -18.15312 6.29822 0.37848
13.98355 0.00316 8.30697 0 15.31154 0.84949 0.59262
-13.22683 -0.01954 5.04360 0 -18.84591 -0.67751 0.38036
14.11007 0.15000 9.55468 0 21.49556 -5.20769 0.67553
-10.08700 0.18277 8.63166 0 -29.98844 -6.03727 0.85161
10.22123 0.04718 2.13676 0 24.47316 0.34911 0.30403
1.35515 -0.25362 1.36442 0 -7.26932 7.00420 0.81019
-2.17264 -0.00396 1.66550 0 -29.23996 0.93457 0.69642
1.22452 0.12823 1.21093 0 -4.95060 -3.08538 0.76598
22.58919 -0.01834 6.29121 0 -10.29771 2.47939 0.27841
-0.39616 0.05752 1.02538 0 28.12374 -1.10634 0.95331
-3.34647 -0.25866 1.46741 0 -14.32969 6.52668 0.42020
2.55073 0.11934 2.19432 0 24.74877 -2.85022 0.80097
8.75387 0.12443 5.26852 0 26.56526 -4.53345 0.59804
6.95046 0.11451 1.63424 0 28.80815 -5.64317 0.23294
8.40760 -0.14762 5.52043 0 -19.22771 5.32641 0.65208
-0.24653 0.22653 1.04751 0 -3.36134 -6.17688 1.01706
-6.41583 -0.28432 1.89605 0 29.52443 6.70349 0.29216
-7.57873 0.08314 5.28259 0 26.24179 -3.16376 0.69111
-3.94459 -0.25760 2.84519 0 5.88560 7.01409 0.69929
-7.25755 0.28107 2.35077 0 -3.90800 -6.61459 0.32102
25.45363 0.18286 13.93780 0 -15.37919 -4.43339 0.54724
2.50166 0.28261 0.75975 0 -0.67615 -6.42608 0.28217
-24.40354 -0.07259 6.64710 0 23.79520 4.17598 0.27233
-0.09043 -0.03783 0.54562 0 29.48813 2.16206 0.54341
0.18041 0.18046 0.60896 0 -11.64653 -4.44616 0.59929
0.39242 0.20747 0.78873 0 18.37410 -6.89211 0.73423
-11.71372 -0.22051 5.75794 0 -28.75613 5.59196 0.48987
1.03873 -0.20348 0.67713 0 5.58089 7.36175 0.46969
23.28531 0.28640 8.13242 0 -29.87154 -6.90484 0.34907
1.55979 -0.31141 0.47375 0 -3.24044 7.48458 0.29290
-1.57784 0.10002 0.50029 0 10.43430 -4.88900 0.26796
-0.38803 -0.10128 0.28518 0 -8.87456 5.10604 0.26589
-1.53441 0.30635 0.81821 0 16.95917 -7.82967 0.44683
23.07547 -0.17130 8.83253 0 16.55562 3.84325 0.38254
3.89871 -0.06317 1.19469 0 -10.39052 0.25195 0.29701
-14.14413 0.20028 7.49941 0 -28.94184 -4.91422 0.52899
-1.21282 -0.22187 0.51282 0 -6.00345 5.08843 0.32637
4.26482 -0.05957 2.00794 0 -22.40131 0.75113 0.45856
4.49730 0.26951 1.63273 0 -25.17778 -6.44134 0.35478
-0.50210 -0.19359 0.50676 0 0.22881 7.10132 0.45291
-5.57778 0.16326 2.12443 0 22.16002 -6.25930 0.37500
2.05995 -0.05680 1.43668 0 27.40779 0.96880 0.62751
2.01547 -0.09074 1.01426 0 -5.76635 3.96059 0.45092
1.37922 0.21666 0.91080 0 0.01439 -5.40754 0.53469
-0.69578 -0.06573 0.34294 0 -29.14243 0.23388 0.28156
-8.18549 0.16205 3.59722 0 0.06263 -6.01611 0.43633
-1.11496 0.23886 0.68574 0 26.54700 -5.89137 0.45792
15.42949 -0.05517 10.75043 0 24.40238 2.47713 0.69536
10.58792 0.14671 4.02274 0 -17.56390 -5.73678 0.37838
7.35694 -0.16313 3.29901 0 0.45358 6.18871 0.44444
-5.95035 -0.23292 2.87620 0 -3.29975 5.92628 0.47676
-20.34584 0.01547 9.46275 0 -24.78574 -1.48607 0.46464
-5.65302 0.28986 3.33250 0 11.52533 -7.63706 0.58055
-15.27893 -0.01150 16.54874 0 -21.27701 -0.04671 1.08084
-13.66925 0.05121 14.15281 0 15.02973 -0.95891 1.03266
22.79163 -0.30013 9.16140 0 2.42467 7.67157 0.40170
6.50468 -0.09816 3.21754 0 6.49388 1.97154 0.48900
0.66074 0.19709 0.24265 0 -25.81583 -3.22760 0.20251
-0.83444 0.17255 0.80126 0 -29.52153 -5.97263 0.61524
-9.09672 -0.14485 5.10409 0 20.92611 5.38143 0.55782
-0.63836 -0.16215 0.49491 0 -14.50075 6.23924 0.41719
1.33445 0.03180 0.76800 0 29.59565 0.23755 0.46060
-18.00271 0.13710 19.31581 0 10.00045 -3.54323 1.07133
3.24508 -0.08069 1.69505 0 22.24514 1.47269 0.49936
3.00295 -0.01164 1.19671 0 16.40783 1.78681 0.37813
-0.18898 -0.26824 0.25940 0 25.39183 5.97209 0.25490
-3.58312 -0.27090 6.89821 0 -27.87404 7.90328 1.85437
-16.80291 -0.14770 6.27496 0 27.56116 3.11253 0.37292
1.50166 -0.15843 1.45642 0 2.59706 5.49611 0.80731
-0.03944 0.13383 0.57755 0 -22.88186 -3.03038 0.57710
24.04945 0.19592 16.65283 0 11.32516 -6.58619 0.69191
10.01600 -0.05961 5.12996 0 -15.67389 2.88298 0.50974
6.33634 -0.15295 3.48779 0 -13.02322 5.65358 0.54380
-12.14672 -0.14953 3.69180 0 0.00855 2.84732 0.30307
3.42648 0.19065 0.75471 0 -15.15538 -3.15093 0.21162
1.76927 0.12079 1.03033 0 -25.43552 -2.51940 0.50705
3.00238 -0.09398 0.79134 0 13.78495 0.84763 0.25023
7.61411 0.17684 5.37483 0 -3.59574 -4.46527 0.69996
-9.98123 -0.18752 7.75466 0 -29.88219 6.40954 0.77312
2.63274 -0.01392 0.44533 0 19.71970 -1.40263 0.26951
-4.37803 0.08874 1.90532 0 3.26876 -1.36897 0.42435
0.77085 0.01676 0.54106 0 10.51988 -1.61818 0.42857
0.23668 -0.08116 1.16740 0 20.38377 2.97152 1.13602
-3.24427 -0.14321 1.32447 0 26.29322 3.04153 0.39027
-0.85322 0.03839 0.51124 0 -28.47300 0.24477 0.38897
0.21880 0.00171 0.75490 0 12.19820 0.72341 0.73746
-0.81271 -0.16041 0.43944 0 25.78893 6.48053 0.34106
0.80639 0.13648 0.54775 0 29.72846 -2.79238 0.42644
2.80898 -0.03210 2.40700 0 -27.38210 0.41077 0.80732
18.42174 0.11381 8.21349 0 -29.20860 -2.17131 0.44531
0.25483 0.20689 0.38478 0 -10.55631 -4.69016 0.37287
13.13238 0.07563 7.05452 0 27.65729 -3.15574 0.53572
-0.11607 -0.12201 0.77481 0 -25.78330 3.06589 0.76964
-0.40496 -0.11765 0.47188 0 29.24497 2.42698 0.43739
16.14501 0.14045 6.41818 0 11.96173 -5.47724 0.39690
2.87401 -0.01063 0.91947 0 -22.33024 2.09936 0.30220
15.46019 -0.04105 10.54053 0 -22.28574 2.06798 0.68043
-3.96612 -0.06184 2.91638 0 -29.97358 2.65999 0.71305
-10.06295 0.09471 3.68082 0 -28.21577 -1.34687 0.36412
-7.84448 -0.20658 2.56205 0 27.34583 4.63124 0.32413
0.65870 -0.25993 0.47551 0 29.23156 6.48864 0.39714
1.51470 0.17558 0.88966 0 16.27680 -4.10697 0.49024
-1.54148 -0.20014 0.52580 0 2.55306 4.22956 0.28626
2.94629 -0.14927 0.87521 0 20.38317 2.70915 0.28146
-1.14656 0.11466 1.03686 0 -1.78553 -4.12814 0.68156
2.12204 -0.19589 0.94552 0 -22.90270 7.22371 0.43486
6.94681 0.30862 2.41056 0 -22.71531 -7.52055 0.34360
4.67445 -0.08666 2.93180 0 -21.48032 1.84165 0.61338
-21.32546 -0.00402 14.60294 0 13.90534 0.94981 0.68409
-7.55625 0.00958 5.11590 0 1.45813 -0.96861 0.67126
4.37504 0.00167 2.46165 0 -7.11685 0.96357 0.54860
-6.06420 -0.18179 5.71164 0 27.59625 4.96109 0.92936
0.55406 -0.12642 0.53681 0 29.14221 2.76799 0.46958
17.84655 -0.22778 8.55410 0 -29.97603 5.77989 0.47866
7.35182 -0.21075 3.42151 0 12.10699 7.60756 0.46125
6.68465 0.27783 2.74645 0 27.36753 -6.87812 0.40646
-4.08614 0.22549 5.18934 0 -29.01454 -7.13268 1.23364
-2.90534 0.07359 1.64031 0 1.75700 -3.09689 0.53403
2.05290 0.29587 1.27635 0 -21.88971 -7.77593 0.55903
-11.70154 -0.28207 4.03878 0 27.44722 6.91939 0.34404
1.20846 0.22628 0.82742 0 1.44211 -5.67722 0.52756
6.81178 -0.11690 2.71242 0 -16.39528 2.27533 0.39409
0.03207 -0.19837 0.53300 0 15.00330 7.06351 0.53272
0.98569 -0.02943 0.47985 0 19.13515 -0.53260 0.34181
13.27925 0.12556 5.56568 0 -25.71960 -2.44460 0.41806
-0.28213 -0.06835 0.25010 0 -28.07107 0.00349 0.24072
-0.90914 -0.05299 0.65324 0 24.21605 2.73802 0.48339
-8.68589 -0.16115 3.79882 0 -26.45232 6.15592 0.43460
1.00855 0.23989 0.51740 0 1.46168 -5.62063 0.36437
-2.10031 0.07435 2.34684 0 -1.58164 -2.66158 1.00891
-18.32491 0.07103 9.66981 0 0.99381 -1.07577 0.52699
25.73742 -0.00352 24.85202 0 -1.21311 0.71687 0.96492
-14.06273 0.02391 5.83468 0 11.23450 0.59946 0.41398
-13.82195 -0.09443 9.93359 0 19.52962 3.64040 0.71688
-1.18548 -0.10954 0.73221 0 1.23557 2.27272 0.47218
16.22235 -0.29013 6.86278 0 -28.34984 7.44907 0.42236
1.48265 0.12165 1.05011 0 -5.98441 -2.68403 0.58725
17.14970 -0.17238 9.97992 0 -29.37042 4.34182 0.58103
7.95985 0.17876 2.45332 0 -29.69954 -3.55963 0.30597
0.79235 0.12620 0.33057 0 24.79792 -5.76803 0.25920
-2.14530 0.21931 0.77332 0 -29.16026 -4.85338 0.32680
7.05376 -0.07247 5.00119 0 12.94063 1.52379 0.70206
2.21065 -0.16003 1.44797 0 -7.90276 5.78065 0.59687
-1.31825 0.07196 0.67322 0 29.99872 -0.81720 0.40694
-1.95035 -0.07762 0.96059 0 16.24119 1.23848 0.43836
0.96748 -0.01496 0.45274 0 6.14345 -1.04278 0.32548
22.05381 0.26057 6.86323 0 15.11602 -5.96848 0.31104
0.93121 -0.05478 0.48968 0 29.95939 0.29630 0.35841
0.80124 -0.07687 0.80269 0 29.23003 3.21464 0.62644
21.61919 0.17722 5.98522 0 10.42610 -7.11062 0.29274
-1.93347 -0.20719 1.41178 0 29.59328 5.46611 0.64862
4.02037 0.13665 3.62544 0 -24.71708 -3.42063 0.87513
-3.81763 -0.21891 3.73890 0 -27.44435 7.23199 0.94757
7.06819 -0.08661 3.21246 0 -3.74073 1.53705 0.45012
3.46429 -0.17504 0.81052 0 -4.87583 7.79233 0.22488
-0.92374 0.04306 1.01506 0 29.66584 -0.52427 0.74564
5.41139 0.11849 1.88489 0 27.87383 -1.96463 0.34269
-23.55881 -0.14744 11.97059 0 1.91477 3.47374 0.50775
-0.70910 0.17792 1.42137 0 -6.44883 -5.72085 1.15947
9.30028 -0.19152 2.83977 0 -5.09767 7.64939 0.30375
-1.16634 0.15616 0.50235 0 5.81976 -3.00529 0.32711
-10.50878 0.07413 2.42966 0 18.45299 0.08217 0.23037
-12.18323 -0.01326 6.25193 0 -12.97744 -0.52056 0.51153
0.22395 -0.08651 0.38666 0 -29.15141 4.06010 0.37732
-0.48769 -0.05264 0.65822 0 23.80344 0.79476 0.59164
-0.10523 -0.17448 0.24652 0 -21.77135 3.17681 0.24517
0.91578 0.29402 0.66552 0 -21.73637 -7.58304 0.49085
-22.50814 -0.15020 4.75515 0 -12.46123 7.17033 0.21129
-0.06104 0.05376 0.76798 0 -24.22425 -2.20311 0.76655
-3.51025 0.10120 2.06937 0 -26.41129 -3.87638 0.56709
1.29898 -0.20943 0.44817 0 -12.86862 7.86335 0.37180
13.50373 0.16821 2.70793 0 -2.82234 -7.68211 0.20354
-13.20614 -0.14296 7.52217 0 -6.20779 5.30648 0.56806
3.39889 0.01508 1.08863 0 -13.23594 1.29459 0.30741
-0.47489 -0.17104 0.30471 0 -24.81719 7.20220 0.27529
10.94638 -0.10578 7.37328 0 14.38834 2.48367 0.67086
-9.41887 0.13777 5.28446 0 -29.90564 -3.11676 0.55800
5.58418 -0.02996 9.40032 0 21.53238 0.67147 1.65709
1.20736 -0.26058 1.08461 0 -26.17404 7.09344 0.69189
0.31566 -0.22461 0.50699 0 -27.09562 5.69804 0.48348
-1.38872 -0.06948 0.73064 0 -7.14053 3.37996 0.42702
0.18652 0.20573 0.34003 0 -28.59823 -7.75826 0.33427
-0.70055 0.03209 0.66182 0 -28.76143 0.06197 0.54208
-21.00088 -0.12382 10.00546 0 -10.47620 4.90601 0.47600
-0.85962 0.08755 0.82900 0 12.73227 -1.72608 0.62870
9.56175 -0.02060 5.07298 0 -29.49905 -0.26964 0.52776
3.41967 -0.19363 1.06669 0 -21.00035 7.74219 0.29944
27.17860 0.07729 12.47501 0 -17.36897 -1.11829 0.45880
-1.73509 0.03623 1.00816 0 -21.09733 -2.02648 0.50346
-1.66658 0.18365 1.68149 0 13.96628 -4.81160 0.86523
1.28514 -0.10970 0.78642 0 4.99611 2.30177 0.48302
1.49310 0.13422 0.90339 0 -21.22014 -2.90937 0.50277
1.39556 0.05651 0.40529 0 4.58564 -3.81848 0.23617
-1.65081 0.15244 0.69192 0 24.51864 -3.03462 0.35859
1.50503 0.30507 0.62844 0 -29.92816 -7.43826 0.34791
-0.67320 -0.00476 0.58230 0 17.17820 -0.83496 0.48309
1.65365 -0.13392 2.32346 0 1.46925 4.53725 1.20234
12.76854 0.20895 10.75316 0 21.06227 -5.54358 0.83965
0.04778 -0.07518 0.77741 0 -15.25965 3.00313 0.77653
-17.12440 -0.24066 21.23118 0 28.40035 6.85474 1.23775
26.26342 -0.14282 10.49600 0 5.70622 5.70373 0.39948
0.17294 0.24065 0.33354 0 -28.76105 -5.48372 0.32866
-14.35659 0.15592 5.94299 0 24.52354 -5.89854 0.41307
-4.68153 0.21224 3.34144 0 -3.87670 -5.51136 0.69811
0.17991 -0.18990 0.34437 0 11.88989 7.40468 0.33894
0.29454 0.14181 0.40859 0 -29.95686 -5.53636 0.39195
0.82813 0.22704 0.82617 0 15.66509 -7.60772 0.63633
3.34781 0.19863 0.88562 0 29.17004 -3.78853 0.25360
-2.98801 -0.06039 1.18480 0 29.69463 3.26984 0.37611
-0.21180 -0.02726 0.65277 0 -0.98389 0.09834 0.63861
-19.03707 0.21734 3.86916 0 20.74926 -3.82112 0.20320
1.29246 0.09116 0.40971 0 -0.34330 -0.60625 0.25083
-0.70838 0.09189 0.58823 0 3.97759 -1.60289 0.48003
9.40694 -0.01682 7.10982 0 -21.46127 1.26691 0.75163
13.34173 0.19897 11.66757 0 9.08296 -5.27128 0.87213
3.44082 0.08261 0.87380 0 7.47238 -4.54942 0.24397
24.55687 0.03632 14.45161 0 5.40350 -1.88192 0.58809
-0.43347 -0.00826 0.67372 0 28.46739 -0.49818 0.61816
0.30974 -0.08898 0.49746 0 -10.40642 3.84753 0.47519
0.21247 -0.01014 0.37664 0 29.22396 -1.00369 0.36842
-6.13555 -0.23493 1.98978 0 -22.83869 5.43722 0.32023
