-3.20071 -0.28601 0.96233 0 29.87416 6.71905 0.28707
-0.05779 -0.10220 0.52433 0 28.01407 4.14683 0.52346
-1.06219 0.00065 0.35890 0 26.12946 2.14839 0.24612
0.91284 -0.19544 2.47156 0 26.16970 6.24167 1.82541
6.43555 0.26930 2.68401 0 -11.50631 -6.64886 0.41223
-0.50859 0.23162 0.68877 0 23.71388 -7.78059 0.61395
-5.88884 -0.11438 7.13056 0 -10.01764 3.07747 1.19381
-16.61586 -0.06212 8.65365 0 9.20887 0.95896 0.51996
-10.14879 -0.09090 5.33429 0 21.91399 1.82393 0.52317
-4.69808 -0.21583 6.93961 0 -0.97358 6.17941 1.44478
-0.84303 -0.06136 0.84238 0 13.93042 1.12590 0.64409
0.19651 -0.12214 0.68542 0 9.21842 2.97266 0.67256
14.10888 -0.14852 7.62955 0 18.61052 5.52614 0.53950
19.49703 0.10220 9.63673 0 -29.65783 -4.04517 0.49372
21.23002 -0.05169 17.53477 0 -26.42080 2.25545 0.82509
-1.54640 0.18286 0.52676 0 18.73504 -7.33125 0.28614
0.54026 0.15856 0.33084 0 -16.17865 -6.53998 0.29111
0.96358 0.15819 0.58611 0 -25.26893 -3.42181 0.42212
-21.78897 0.13012 6.75541 0 9.89335 -5.65432 0.29163
-19.40094 0.31203 1.91569 0 2.96147 -6.57438 0.20766
3.06288 -0.11004 4.02328 0 -16.82322 3.80044 1.24875
-6.05484 -0.25336 1.18988 0 24.36259 5.00510 0.20228
-4.23537 0.18768 4.00167 0 28.50815 -5.00222 0.97805
27.09699 0.02483 7.55297 0 10.12749 -2.47536 0.28429
4.06111 0.17407 1.50147 0 -29.73365 -6.65871 0.35909
2.92913 -0.01296 5.91250 0 2.05555 0.20238 1.91030
-1.16285 0.14797 1.00971 0 29.86046 -5.16677 0.65841
-6.72961 -0.08644 1.98200 0 -2.86562 0.91303 0.29148
-0.06069 -0.12469 0.52318 0 -18.63842 2.82745 0.52222
-0.32075 0.08198 0.32208 0 -8.62202 -4.08248 0.30670
4.15319 0.06540 4.01916 0 -26.68859 -1.33527 0.94096
-6.36798 -0.04891 1.72003 0 25.27845 3.47579 0.26892
15.84959 -0.05094 15.00928 0 -1.48137 1.06746 0.94515
-22.47527 0.19099 10.30676 0 29.65231 -6.84453 0.45824
-2.78790 0.00236 1.96476 0 -28.40013 -0.76073 0.66344
0.50539 0.16568 0.37447 0 18.61763 -6.51408 0.33424
-15.61094 0.03443 7.65801 0 3.77575 0.09274 0.48965
12.55389 -0.18649 4.81560 0 -27.90409 7.10996 0.38251
0.71045 -0.20987 0.61982 0 22.43430 5.31239 0.50532
0.59924 -0.08291 0.43797 0 22.42316 3.95651 0.37571
6.29274 -0.20083 3.21890 0 5.78477 7.19606 0.50528
0.46464 -0.14550 0.90243 0 26.00052 3.80533 0.81842
20.66188 -0.14267 31.30355 0 -21.19086 4.71059 1.51330
-14.68486 -0.07710 16.71214 0 23.91229 1.94090 1.13547
-13.41949 -0.00218 7.35352 0 29.94308 1.08277 0.54655
1.98551 -0.26398 1.28012 0 -29.20398 7.03336 0.57589
1.48137 0.13823 2.40941 0 14.55291 -4.45705 1.34811
0.59954 -0.03478 1.76461 0 13.92203 1.46331 1.51345
-4.42285 0.15451 2.00411 0 -28.01679 -5.77141 0.44104
0.05338 -0.03371 0.54462 0 13.98743 0.15204 0.54384
9.50386 0.26158 7.90457 0 -28.38652 -7.09096 0.82721
0.78978 -0.00458 0.92185 0 25.59374 -0.48828 0.72346
-0.69916 0.11837 1.31238 0 -13.29479 -2.98627 1.07558
0.26499 -0.05288 0.67320 0 -28.60834 0.88052 0.65075
0.56555 -0.08265 0.45593 0 28.93280 3.87382 0.39689
-19.60855 0.00311 13.82888 0 6.37932 0.71387 0.70440
2.66489 -0.14080 0.48174 0 3.96400 1.25306 0.16937
11.84712 0.15774 4.22770 0 -4.22282 -3.17905 0.35573
4.96142 -0.00042 4.52651 0 9.59429 0.66562 0.89447
0.17251 0.21735 1.09072 0 -25.31905 -5.93306 1.07485
-8.01634 -0.16261 4.05531 0 -11.64923 6.03155 0.50209
-1.11169 0.13930 0.30056 0 23.71980 -6.79885 0.20112
-11.95481 -0.11891 3.09691 0 29.57685 1.65046 0.25834
14.17667 -0.13482 12.86408 0 -29.99163 4.70919 0.90522
-0.41968 0.06803 0.47172 0 -1.26552 -3.14231 0.43825
1.94384 -0.06917 0.91501 0 -26.56932 0.93146 0.41868
2.72767 0.23448 1.30227 0 -26.82511 -5.73814 0.44833
-0.51621 -0.07647 0.35073 0 29.98002 0.72988 0.31169
-2.95320 0.20616 3.60560 0 3.35210 -5.63578 1.15646
-1.81677 -0.07025 1.51354 0 26.84925 1.48526 0.72988
15.06741 0.07861 12.57701 0 -10.79287 -2.89873 0.83294
-22.10928 0.16911 4.34207 0 -25.55166 -6.87789 0.28971
-1.58651 -0.06047 0.89652 0 25.90086 0.87230 0.50085
0.24793 0.14534 0.81713 0 -26.71920 -4.94841 0.79312
2.26120 -0.10797 1.09421 0 29.21743 4.50694 0.44270
25.91334 -0.02548 15.79804 0 -19.60730 0.00630 0.60928
2.00339 -0.01702 0.84222 0 -2.08224 1.95581 0.37623
-21.91332 0.00514 13.57163 0 -2.13107 0.75342 0.61877
15.34189 -0.01923 4.21599 0 22.93622 2.53359 0.27440
-15.31383 -0.09887 6.85133 0 -28.98419 4.21960 0.44655
-26.89649 -0.10954 13.41061 0 -2.95761 2.33000 0.49835
11.50529 -0.15166 2.71109 0 4.49232 2.41737 0.23496
-22.39854 0.06992 5.81823 0 -27.23416 -4.02636 0.25969
7.56674 -0.21213 3.90070 0 -8.62593 7.53033 0.51116
-0.27634 -0.31340 0.32909 0 -12.48499 7.68621 0.31721
-2.08125 -0.12069 0.87478 0 25.11678 5.09840 0.37897
9.69500 -0.12976 5.45884 0 -25.81711 3.04501 0.56017
5.79567 0.27854 2.20272 0 22.82715 -6.78447 0.37466
1.51308 -0.19423 0.52514 0 23.77333 4.07856 0.28964
2.65149 0.27239 1.03419 0 13.49326 -6.56765 0.36501
-1.57846 0.08519 0.45715 0 -17.05834 -4.62142 0.24481
0.31861 -0.18354 0.81890 0 19.47739 6.28190 0.78027
4.25466 0.01063 1.66131 0 23.55588 -1.58647 0.38018
15.69909 0.14699 12.45366 0 29.55774 -3.66560 0.79173
0.52074 -0.21585 0.64373 0 28.37393 5.60973 0.57097
-0.29738 0.11833 0.44979 0 -10.36318 -2.31623 0.44947
3.19321 0.03542 1.88648 0 19.89116 -0.07414 0.56385
0.47253 0.07968 0.85125 0 -4.00972 -1.64071 0.76966
-0.38652 0.07533 0.62110 0 -6.42962 -1.29212 0.57934
-4.95502 0.20434 2.97555 0 6.83417 -6.98435 0.58873
0.10885 -0.03301 0.86244 0 21.87688 0.47485 0.85737
0.38873 -0.13307 1.24366 0 28.74276 4.52797 1.15917
4.95057 0.02733 3.60150 0 29.96910 -0.02168 0.71317
-20.47197 -0.08359 18.84025 0 -27.07844 3.15279 0.91925
0.93856 0.00736 0.48266 0 -29.55947 1.29164 0.35776
-23.11258 -0.02706 7.81275 0 22.88493 2.41564 0.33786
-13.58013 -0.06600 5.12525 0 -1.56218 3.43877 0.37652
-7.10364 -0.24665 1.72892 0 1.16130 5.23378 0.24121
-3.82335 -0.03781 3.25123 0 -29.36270 0.51784 0.73325
-17.00222 0.08917 12.46677 0 10.40715 -1.88993 0.73205
4.64448 0.08736 1.57332 0 26.99099 -0.98862 0.33123
-8.28425 0.11746 1.98137 0 27.07782 -5.68818 0.23765
-1.92617 0.04788 1.76514 0 24.12506 -0.72561 0.81339
25.75307 -0.17650 10.07319 0 28.96356 4.02581 0.39098
0.96727 -0.20189 1.61869 0 -6.18763 5.67429 1.16349
-0.61445 -0.15814 0.58050 0 1.51373 5.91113 0.49462
-21.13804 -0.22195 10.04725 0 -22.17628 7.91748 0.47489
-8.83799 0.11228 4.84938 0 28.68450 -2.33787 0.54531
8.20456 0.12028 2.60925 0 2.20996 -1.89006 0.31584
15.48408 0.06605 10.54883 0 2.75138 -1.14557 0.67992
14.32851 0.25613 6.33975 0 29.60908 -6.35259 0.44149
1.47393 -0.08980 1.13839 0 -29.69651 1.96918 0.63918
26.28833 -0.04655 10.35210 0 -24.65843 2.78834 0.39363
-22.56249 -0.10749 9.42855 0 -26.70135 2.06944 0.41759
-16.08574 -0.05504 19.34646 0 23.05912 2.16087 1.20043
-1.15316 0.02464 0.52124 0 -27.82730 -2.16336 0.34156
-3.93306 0.10911 1.52881 0 14.83881 -1.82248 0.37698
-1.26345 -0.18010 0.68317 0 24.33258 6.76988 0.42406
18.17713 -0.06542 21.43240 0 -13.55704 2.48180 1.17735
0.66525 0.16722 0.67456 0 -12.02879 -3.99561 0.56166
3.39108 0.10276 0.79066 0 -2.61734 -5.37315 0.22383
2.85753 -0.24409 1.32769 0 17.52872 6.15508 0.43861
0.81167 -0.20875 1.04938 0 17.55177 7.01899 0.81480
-3.03764 0.01608 2.66159 0 26.21253 0.21295 0.83230
21.88978 0.07193 12.87106 0 -27.64676 -1.20277 0.58746
1.24505 -0.04146 0.68463 0 26.45125 2.52602 0.42878
-2.29016 -0.27543 1.10831 0 5.28740 7.08372 0.44356
0.34710 0.09969 0.36130 0 -13.50424 -1.42052 0.34587
-4.36948 0.07551 0.88452 0 7.59912 0.46706 0.19339
-25.05611 0.12940 24.07141 0 -29.37856 -4.34944 0.95999
26.71087 -0.14693 16.55516 0 -18.14877 3.64341 0.61944
1.25461 -0.12068 1.03378 0 -20.27629 4.51825 0.64439
-17.47787 -0.21069 9.81791 0 -29.46091 7.38847 0.56090
-18.18679 -0.16237 26.94053 0 -21.35058 5.31306 1.47913
25.01937 0.09697 6.68441 0 15.44149 -4.80099 0.26714
-22.21713 0.18076 13.63646 0 -1.71362 -4.47511 0.61324
-2.03058 0.22087 1.52017 0 -26.93002 -7.37217 0.67167
0.30310 -0.07109 0.50031 0 24.33839 3.29638 0.47881
-4.27877 0.03395 2.12726 0 -6.29717 -1.99865 0.48420
-0.19461 0.21852 0.48068 0 -18.07311 -5.32943 0.47183
-4.61422 -0.09346 3.16089 0 28.72779 2.11474 0.66955
2.86622 0.29757 1.59896 0 4.71413 -7.76424 0.52675
4.88247 -0.00888 1.21735 0 -26.72606 2.45127 0.24453
-15.64679 -0.13711 8.37289 0 -8.78756 3.21821 0.53412
-0.26903 0.17525 0.32310 0 29.81049 -6.93032 0.31202
-4.18568 0.03067 0.97917 0 -0.78547 1.32071 0.23720
14.37820 -0.11347 5.66092 0 -21.52277 4.87163 0.38052
6.04781 -0.06048 4.68690 0 -24.54828 1.22511 0.76462
-5.15861 -0.19074 1.34845 0 -25.55717 7.96989 0.25681
-1.92884 -0.11941 0.75960 0 21.94326 2.18453 0.34977
-0.73582 -0.31983 0.41877 0 23.42406 7.97546 0.33737
-0.54422 -0.13704 0.76249 0 -12.14920 3.41261 0.66975
0.63599 -0.17348 0.88433 0 27.28309 6.00814 0.74622
1.22913 -0.29243 0.57684 0 10.35037 7.30682 0.36413
-0.38468 0.08644 0.22334 0 -2.54141 -0.05107 0.20847
0.99524 0.22816 1.41950 0 4.49150 -7.31629 1.00616
0.52086 0.10476 0.98495 0 19.53711 -3.65908 0.87357
22.27037 0.12049 11.04970 0 3.25780 -4.59726 0.49576
6.39162 0.08180 6.49452 0 -6.93254 -1.85986 1.00393
-3.98246 -0.21002 3.39390 0 29.72789 5.72751 0.82660
-24.59042 0.15262 14.71479 0 -18.73719 -5.39083 0.59798
2.86732 -0.17216 0.50099 0 0.11246 2.09072 0.16511
7.00223 -0.07399 2.20741 0 -11.19183 0.65866 0.31223
5.57751 -0.17455 1.89977 0 -11.26762 6.94609 0.33536
-23.89331 -0.04187 23.18414 0 10.73398 1.86699 0.96952
-12.85217 -0.07663 6.62161 0 21.05927 3.38999 0.51375
-15.56354 0.12697 6.37058 0 3.12178 -2.45779 0.40860
-3.42045 -0.25020 0.70172 0 -22.25552 4.84592 0.19706
-2.75035 -0.10972 0.99013 0 -19.03256 4.93183 0.33843
-19.91490 -0.25249 18.83593 0 -24.30634 7.06763 0.94469
-9.88182 -0.05993 5.04406 0 27.59833 2.89608 0.50794
0.41630 -0.26573 0.47922 0 29.99863 6.79773 0.44244
1.85642 -0.04397 1.06733 0 -8.97547 0.38958 0.50623
15.92148 -0.04290 6.58255 0 1.90707 0.12860 0.41274
1.55074 0.23056 1.47579 0 27.75610 -7.53348 0.79985
-1.07065 -0.23861 0.57900 0 27.94502 5.86068 0.39527
6.08687 0.22742 3.45705 0 -21.32738 -7.74015 0.56052
1.89000 -0.09453 0.92340 0 28.48590 1.72499 0.43193
0.03920 -0.30173 0.50345 0 -1.60371 7.99781 0.50306
-1.75132 -0.05941 0.62574 0 -9.54805 0.21369 0.31039
-5.99370 -0.07829 2.28980 0 20.68560 3.81105 0.37697
5.11839 0.06256 2.06163 0 -20.09664 -0.49981 0.39538
2.93056 -0.11800 2.28894 0 -9.04666 4.33138 0.73924
3.66856 0.14229 1.37750 0 10.49134 -5.66453 0.36234
2.43845 0.21055 0.50059 0 12.89223 -3.44829 0.19003
2.69164 0.07580 0.61993 0 26.58585 0.18016 0.21603
4.06801 -0.19139 2.13818 0 -3.15495 6.89508 0.51051
-1.72567 0.05205 0.53485 0 -14.36011 -3.41385 0.26830
-0.76916 0.24648 1.33404 0 23.39493 -6.78914 1.05747
3.19836 -0.06525 3.14248 0 20.72870 2.58863 0.93789
-13.69451 0.15480 10.94922 0 -4.44492 -5.23178 0.79747
-0.65784 0.06591 0.71281 0 -27.77111 -1.03465 0.59554
-0.10696 0.11513 0.57602 0 28.38255 -2.46797 0.57275
-1.19971 -0.17905 0.60608 0 29.38145 4.09091 0.38812
-24.35727 0.07190 32.66562 0 2.19188 -2.46084 1.34002
3.72282 0.32580 0.93408 0 29.56615 -7.33937 0.24241
-10.43527 0.22329 2.44551 0 26.44238 -4.32596 0.23349
9.93887 0.14151 10.59445 0 12.29826 -3.66984 1.06065
11.31060 -0.16297 18.30054 0 -9.56301 4.64155 1.61174
-0.12751 -0.18423 1.70913 0 22.55706 5.29233 1.69541
-0.48991 -0.18464 2.33851 0 23.93916 5.36525 2.10005
-0.24523 0.01195 1.47645 0 28.04284 0.07926 1.43397
-1.12181 -0.16977 0.92375 0 -7.94253 6.05120 0.61473
27.02917 -0.13421 9.62780 0 17.47068 2.64854 0.35609
1.59788 -0.15035 1.18124 0 17.61570 5.44279 0.62672
16.37688 0.09917 11.25386 0 -27.96426 -2.14081 0.68597
17.06891 -0.01048 4.22153 0 -19.62638 2.47768 0.24710
0.91410 0.01381 0.64761 0 -1.42438 -1.40513 0.47803
-4.02236 0.18021 1.20002 0 5.39910 -3.50587 0.28958
0.38575 -0.20167 0.38017 0 14.63559 7.69598 0.35471
3.33985 0.00303 3.14946 0 -19.31046 0.55633 0.90342
17.61756 0.06126 9.66106 0 -29.99927 -2.69977 0.54758
-2.14011 0.01146 1.92739 0 2.85947 -0.88968 0.81600
-2.23913 -0.07121 1.19804 0 -29.97592 3.27822 0.48862
0.74939 -0.25541 1.74941 0 -11.46703 7.34388 1.39759
-0.13348 0.16259 0.71737 0 -6.83839 -4.05418 0.71106
4.24699 -0.11349 2.26600 0 -7.29418 2.48915 0.51940
0.97037 0.19507 0.55160 0 1.07891 -4.42577 0.39591
6.80468 -0.02089 1.75931 0 10.78645 2.72054 0.25598
-25.34270 0.27163 14.24050 0 -5.86769 -7.07078 0.56157
-5.33638 -0.02606 5.06288 0 -6.83900 0.31479 0.93258
-1.72375 0.09664 1.28707 0 -10.57914 -3.62509 0.64591
-0.37369 0.19433 0.80101 0 -2.40965 -6.47582 0.75034
-3.91823 0.12375 2.86644 0 -2.43957 -2.89756 0.70888
-0.34393 -0.16060 0.79096 0 29.98665 4.19421 0.74797
-0.00156 -0.04642 0.84607 0 -27.76687 2.08127 0.84607
-5.74678 -0.07047 7.35918 0 24.27016 1.78777 1.26170
-22.80636 -0.10798 6.21903 0 -19.96075 1.43079 0.27261
-0.81254 0.12562 1.03286 0 4.15085 -3.03785 0.80162
-4.98382 0.08545 3.06946 0 25.27231 -1.63029 0.60407
-17.14273 0.19255 16.61110 0 -29.14977 -6.25728 0.96739
0.77362 -0.14386 0.36793 0 24.97963 2.61032 0.29110
2.18976 -0.10874 2.94159 0 21.92778 2.91881 1.22200
-6.77266 0.27103 1.70302 0 -10.78257 -5.83939 0.24895
-5.39647 -0.26479 2.61579 0 -22.15827 6.85911 0.47672
-10.49604 0.13473 12.70944 0 -27.14135 -4.39790 1.20546
0.72304 0.11047 0.35848 0 -12.98557 -5.05455 0.29055
0.19266 -0.09465 0.78239 0 -1.38682 3.59824 0.76827
9.54602 -0.32347 2.49615 0 -9.99498 7.59175 0.26025
-14.47222 -0.11637 3.43705 0 23.94907 5.82199 0.23713
-15.62560 -0.09770 8.19061 0 -26.19074 2.02657 0.52320
12.03609 0.06393 6.74504 0 -6.22795 -2.76192 0.55856
18.05895 0.17856 6.37790 0 25.29366 -3.77917 0.35277
1.43028 -0.14844 1.07780 0 10.26863 5.39731 0.61763
2.69468 -0.22152 1.18565 0 -29.38072 5.41767 0.41259
-6.83211 0.04460 4.54338 0 0.97086 -2.03816 0.65807
-7.63126 0.08906 6.78265 0 -13.48017 -2.00552 0.88132
8.66526 -0.07325 5.22487 0 29.99946 3.14312 0.59907
0.23502 -0.21418 0.72955 0 28.86550 7.28517 0.71021
6.36175 0.08779 5.26361 0 23.58416 -3.18763 0.81741
3.30072 0.27003 1.04414 0 15.96748 -6.19478 0.30281
8.11259 -0.23321 1.92949 0 -9.05234 4.80102 0.23626
23.24589 -0.27571 19.44328 0 24.04163 7.67756 0.83570
13.72027 0.14999 5.44483 0 -20.07862 -3.09825 0.39592
-27.07890 0.07979 8.38665 0 -12.08978 -3.99909 0.30966
-2.55893 -0.00504 1.95458 0 0.43536 -0.48623 0.71148
-16.31359 -0.18592 7.10321 0 -26.54015 4.43770 0.43471
-26.50888 -0.01517 18.78996 0 -28.59352 -0.18539 0.70838
-0.65409 -0.02192 1.54405 0 -28.94889 1.13495 1.29219
-0.32872 -0.21798 0.70278 0 -4.64231 5.80846 0.66764
0.11705 -0.11617 0.57710 0 -5.06596 4.48342 0.57318
-3.90421 0.15006 2.25734 0 -17.22817 -5.37375 0.56018
-1.95385 -0.19013 4.34310 0 23.29878 5.51364 1.97875
-0.55189 -0.26890 1.53855 0 8.99370 7.72979 1.34703
-14.35304 -0.17546 3.65193 0 29.88853 7.51332 0.25401
-5.25046 -0.12048 1.91631 0 28.17052 2.25307 0.35876
15.02880 0.16674 23.43629 0 -6.73675 -5.26452 1.55602
2.32960 -0.21930 3.56675 0 -0.48443 6.27261 1.40695
0.74240 0.02738 0.61837 0 12.42822 0.28964 0.49653
13.74785 0.10826 8.41000 0 -21.24341 -2.31866 0.61020
2.07238 -0.03035 0.67355 0 17.31495 2.75177 0.29287
-3.12167 0.16128 1.11379 0 -28.44024 -6.35035 0.33989
-19.74953 0.08589 8.58055 0 -5.55968 -1.31101 0.43403
-23.85397 -0.07055 14.38308 0 29.96922 3.05649 0.60252
0.44727 0.25614 0.65989 0 -5.91765 -6.68256 0.60240
-7.55106 -0.24981 11.57461 0 -29.93459 7.94615 1.51961
-1.03594 -0.15381 1.55671 0 -29.75520 4.20830 1.08119
0.23094 0.01427 1.82204 0 -24.56731 -0.05887 1.77531
2.02951 0.04486 1.54940 0 29.94979 -2.01511 0.68490
2.94773 0.13656 1.50565 0 29.54725 -2.93850 0.48378
-0.67635 0.15831 0.81234 0 29.49932 -5.46338 0.67291
0.66770 -0.06653 0.42334 0 -29.98650 3.55161 0.35211
-2.18324 0.03103 0.85910 0 -19.55682 0.58008 0.35782
10.20211 -0.02080 2.50670 0 -9.75526 -1.38878 0.24473
-1.53619 -0.04608 1.05139 0 29.97355 0.57129 0.57365
-11.89839 -0.12035 4.17421 0 5.26422 5.20686 0.34973
9.09567 0.18456 3.92597 0 7.84835 -4.21942 0.42916
-7.04084 0.25381 3.78393 0 -10.47244 -6.49464 0.53218
6.92603 0.05873 7.04473 0 -28.54390 -1.17104 1.00675
-3.63580 0.14207 1.46294 0 -4.33852 -2.83780 0.38802
-11.90598 -0.03064 14.05909 0 -23.73641 0.56575 1.17674
19.30769 -0.12926 7.05730 0 28.03113 5.41524 0.36516
24.10782 0.12113 5.21952 0 25.62927 -6.02889 0.21655
-0.93658 0.10911 0.98003 0 26.03282 -2.46808 0.71532
-0.04101 -0.21178 1.08953 0 24.99144 6.93966 1.08862
0.62768 0.03130 0.53675 0 29.70203 0.26707 0.45465
-5.20955 -0.20014 3.45650 0 17.86170 5.26174 0.65166
-15.34111 -0.11028 7.55952 0 -20.81442 2.35173 0.49830
6.71953 0.11917 8.59801 0 25.49793 -3.90787 1.26566
17.18438 -0.08745 41.30767 0 21.63700 2.92059 2.39975
-13.39759 -0.04763 8.24600 0 24.36134 0.67606 0.61386
0.74427 -0.21461 0.52213 0 -29.93065 7.85134 0.41891
-2.58624 -0.09022 0.61952 0 15.78006 4.73068 0.27052
1.11847 -0.19760 1.06753 0 21.92705 5.25516 0.71156
3.27007 0.02847 0.93718 0 29.21777 1.09426 0.27419
2.10735 0.14743 0.54682 0 -28.57415 -2.12742 0.23460
-0.22946 -0.12357 0.71676 0 8.58364 4.54179 0.69860
-5.27974 0.03304 1.42046 0 -25.90610 -2.86262 0.26445
-0.36306 0.11785 0.42797 0 24.90144 -2.16768 0.40229
-5.81557 -0.03562 6.25525 0 -27.92435 0.66706 1.06008
-0.28949 0.14354 0.21737 0 -19.36205 -6.82664 0.20901
-0.26729 -0.05627 0.80071 0 -23.62069 2.43079 0.77874
-13.99406 -0.00439 9.17023 0 -1.25924 0.99570 0.65370
-3.42352 -0.19163 1.41643 0 22.86304 7.21452 0.39723
0.87602 0.20230 0.55638 0 -2.30620 -4.71014 0.41858
9.35235 -0.01745 11.82471 0 -22.60365 1.01180 1.25723
-0.92910 0.23415 0.25954 0 -29.93203 -4.12907 0.19022
-3.55539 -0.05299 0.93949 0 14.14669 -0.34053 0.25452
-0.59856 -0.16857 0.33486 0 -15.75449 7.03908 0.28736
-0.76455 -0.16435 0.55079 0 22.61693 3.80987 0.43762
-0.72001 -0.19615 0.40531 0 -7.72214 4.35031 0.32899
-0.46276 0.15335 1.08116 0 22.38391 -3.98262 0.98120
0.76047 -0.18324 0.80272 0 2.65158 6.42823 0.63898
-6.10438 0.09606 5.90815 0 -29.79008 -2.25979 0.95517
-16.39681 -0.16767 6.56398 0 13.32502 3.79488 0.39970
1.53409 -0.24241 1.86238 0 -14.93571 6.81052 1.01706
2.93657 -0.19397 1.52431 0 7.63054 7.01652 0.49142
0.91713 0.06582 0.92489 0 7.30419 -1.14059 0.68167
0.06054 -0.06415 0.30473 0 18.11075 3.71444 0.30417
-0.25645 0.07464 0.56359 0 6.51762 -3.10735 0.54593
0.77274 0.07026 0.52525 0 16.33312 -3.27477 0.41566
-2.46517 -0.11132 1.07603 0 -25.22160 4.72247 0.40455
-21.50550 -0.00987 17.11792 0 -27.58929 1.02074 0.79518
-1.60567 -0.13142 1.81185 0 20.01788 4.57418 0.95789
2.17364 -0.01356 3.49612 0 13.68242 0.83811 1.46126
5.04559 0.25230 1.43928 0 26.24373 -5.53860 0.27995
10.39364 -0.19357 7.66319 0 -10.60568 5.15856 0.73397
5.45612 -0.00414 2.79820 0 -29.94538 1.21997 0.50456
-19.19546 -0.14776 1.87176 0 29.83337 6.39952 0.28621
1.67197 0.18816 1.28108 0 -29.56091 -4.75226 0.65762
0.96032 0.16433 0.83508 0 -17.77179 -5.74102 0.60237
1.64581 -0.04522 0.98675 0 -13.48772 2.44246 0.51245
1.17954 0.14487 1.16773 0 26.27551 -3.57090 0.75519
-1.02966 0.11621 0.84554 0 4.42559 -2.52498 0.58912
-8.15591 -0.05555 3.53635 0 -19.00388 2.94771 0.43048
-9.20352 0.03203 4.55996 0 29.99501 0.15852 0.49266
-4.15534 -0.24590 2.92116 0 10.90673 6.65124 0.68351
1.45086 -0.07333 0.53666 0 0.51442 3.99202 0.30466
-2.77835 -0.20676 3.19574 0 4.06453 5.78444 1.08233
-0.30909 -0.07135 0.44005 0 28.58273 1.00174 0.42044
-0.91816 -0.14835 0.92068 0 17.04288 3.75842 0.67822
7.20159 0.21491 4.11455 0 12.83453 -5.41151 0.56599
0.17343 0.01274 0.69670 0 -17.83574 -1.04655 0.68646
1.55871 0.04814 1.60017 0 2.85985 -0.77018 0.86410
6.00375 0.18018 15.23660 0 0.90299 -5.11036 2.50343
17.89105 -0.07662 13.74880 0 -26.69603 1.70982 0.76734
3.83662 -0.10874 1.46842 0 25.92669 1.95010 0.37042
-0.34082 0.14369 0.35775 0 19.12386 -5.81332 0.33864
1.16293 0.24865 0.96959 0 -25.96547 -6.50501 0.63221
-14.64967 0.01766 8.42862 0 -9.21789 -1.34107 0.57410
0.56121 -0.24717 1.01362 0 -20.91180 6.87009 0.88394
1.91087 0.08078 1.58190 0 -17.83315 -1.66093 0.75517
0.77817 -0.20045 0.63427 0 -28.34544 7.19472 0.50061
-0.18676 -0.09782 0.46832 0 -6.79915 1.89610 0.46037
0.59442 -0.20126 1.05177 0 -28.38056 5.52331 0.90412
-8.04521 0.21430 4.02798 0 20.58816 -7.46629 0.49694
-15.90654 0.26188 12.76111 0 25.92792 -7.07760 0.80074
-25.31727 -0.09041 7.67237 0 -6.52277 1.09761 0.30297
-11.67084 -0.10994 7.34368 0 -13.89099 2.55362 0.62701
-2.35446 -0.16407 1.47956 0 20.31710 4.09186 0.57850
-4.71174 0.05166 2.98228 0 -11.37029 -2.30025 0.61920
0.27049 0.01606 0.73234 0 -9.48048 0.32265 0.70694
-0.13160 -0.17047 0.58687 0 -23.95853 6.12273 0.58186
5.61177 -0.22484 3.15013 0 -25.41817 5.84374 0.55278
4.34950 -0.27183 0.90209 0 27.29794 5.53183 0.20234
-5.25004 0.13076 2.70731 0 -20.33346 -2.81469 0.50664
2.38000 0.00527 0.95312 0 3.95355 -1.46442 0.36933
0.47861 -0.23766 0.96281 0 29.88832 6.57778 0.86848
0.76855 0.09776 0.35011 0 -23.40850 -0.99942 0.27766
7.25051 0.12023 4.45861 0 26.53561 -2.67342 0.60925
-0.17429 0.21743 1.09977 0 22.35432 -6.95096 1.08344
-9.34495 0.14059 6.35049 0 29.15421 -3.36262 0.67578
1.52958 0.14560 0.51038 0 -6.21814 -2.42532 0.27941
16.45538 0.26505 3.66065 0 -26.88219 -5.41140 0.22227
-1.59037 -0.16742 1.03371 0 27.32612 6.08333 0.55029
17.16191 -0.06294 4.53320 0 23.75848 0.02846 0.26388
8.02930 -0.14949 1.96987 0 26.78555 2.43186 0.24365
-2.37231 -0.05040 0.85527 0 27.09662 3.14928 0.33234
-0.69599 -0.13587 0.53716 0 0.10534 2.97641 0.44092
0.54333 0.19216 0.65108 0 20.55917 -6.63882 0.57212
-5.45953 -0.08070 2.68806 0 6.91163 3.57549 0.48436
-9.27824 0.04745 1.96662 0 22.21611 -3.80863 0.21097
-13.64413 -0.00010 6.56401 0 -20.80147 -0.98207 0.47990
0.99569 0.18737 0.35465 0 1.81426 -7.74927 0.25140
11.95133 -0.24227 6.50957 0 -17.41647 6.33839 0.54287
6.17317 0.23355 4.10782 0 11.30914 -6.09239 0.65694
-4.90975 0.09761 2.09450 0 10.85297 -4.09891 0.41820
3.46247 0.06696 1.49321 0 2.74060 -3.17815 0.41444
2.35482 0.03404 1.36339 0 -19.20150 0.01947 0.53305
-1.23153 0.13693 1.11803 0 -29.97767 -3.28541 0.70481
11.95887 -0.27016 2.55293 0 -3.25855 5.61520 0.21296
0.36684 -0.12206 0.36453 0 -23.73811 5.29320 0.34224
-6.57762 0.22526 4.35842 0 -7.58436 -7.52782 0.65516
0.77484 -0.08058 0.67296 0 -26.93348 3.47483 0.53200
-26.53356 -0.08915 17.85530 0 27.87750 3.52884 0.67253
-16.07484 -0.08530 10.01504 0 -19.31118 1.81270 0.62190
1.19416 -0.18288 0.90668 0 14.70393 6.50118 0.58216
-4.57598 -0.26444 1.08110 0 28.53105 5.64591 0.23090
-0.09225 0.18784 0.50989 0 -14.82458 -6.62961 0.50773
-27.04393 -0.00691 8.69294 0 16.37331 1.88483 0.32137
1.64957 -0.04475 0.64003 0 -19.44876 2.97976 0.33189
-5.68668 0.10622 3.39557 0 -19.37327 -3.99530 0.58816
-0.54427 -0.08071 0.33126 0 8.19793 4.29953 0.29099
0.44312 -0.10308 0.36359 0 24.61952 4.75681 0.33243
0.12767 -0.20435 0.54149 0 -27.08540 5.21214 0.53713
-14.17666 0.11051 3.33926 0 -12.68995 -5.49633 0.23517
-1.64536 -0.32433 0.54597 0 29.75470 7.79207 0.28370
8.69298 -0.34070 1.80428 0 -29.38364 7.52518 0.20643
24.61911 0.07767 17.20882 0 -26.25757 -2.99064 0.69850
5.59753 0.14698 5.20668 0 -9.91056 -4.90793 0.91571
-3.37167 0.27880 1.47634 0 -28.61070 -6.94995 0.41997
-2.27584 -0.03155 0.51667 0 23.67673 3.51861 0.20799
15.71326 -0.02695 4.04998 0 27.19892 2.89370 0.25741
-0.17744 0.21051 0.89912 0 24.46757 -6.85567 0.88529
27.01604 0.05171 20.43787 0 -2.46400 -0.79239 0.75606
-3.85332 0.24074 2.19229 0 26.61040 -6.14545 0.55082
14.13276 0.00880 5.97696 0 -28.92038 1.02972 0.42198
-0.82260 0.08922 0.83469 0 8.83525 -3.40226 0.64464
-20.13659 -0.01018 4.76776 0 -29.58692 2.56110 0.23669
3.53062 0.02197 1.81385 0 23.52520 -1.61531 0.49436
1.40354 0.05805 0.37995 0 -20.60647 -4.02460 0.22061
10.53978 -0.00657 7.90562 0 -10.97067 -0.40639 0.74679
27.03660 0.11319 14.21218 0 -5.89427 -2.32911 0.52540
25.76233 -0.07232 11.89944 0 1.19746 3.37446 0.46165
12.99851 -0.04308 3.22347 0 7.11641 -0.69516 0.24745
0.45354 -0.06080 0.95456 0 -24.12621 2.49809 0.86934
23.31788 -0.02005 14.26399 0 7.38913 1.52110 0.61124
5.36481 -0.11342 3.32856 0 -8.25277 4.34414 0.61002
2.69846 -0.00256 2.12460 0 -11.37899 -0.53436 0.73836
3.24669 -0.01247 1.28887 0 0.78274 -0.89269 0.37961
0.25716 0.29202 0.27522 0 -23.47604 -6.58322 0.26655
-3.06590 -0.05523 1.11725 0 29.32113 0.26109 0.34661
0.99542 0.21170 0.57804 0 -19.72166 -4.95867 0.40973
-0.59800 0.15181 0.69768 0 22.85958 -5.36503 0.59881
-26.47637 -0.00223 12.59526 0 -13.37170 1.22482 0.47548
-4.82766 0.23052 2.12789 0 -7.08186 -5.57650 0.43181
-0.94174 -0.16090 0.64253 0 3.24677 3.78463 0.46780
1.36952 0.01160 0.72141 0 -1.96501 -1.47130 0.42551
0.94187 -0.20456 0.63437 0 -26.82695 7.41510 0.46184
4.44393 0.10243 6.56578 0 28.45824 -3.35279 1.44145
1.05613 -0.06773 0.87215 0 6.81282 2.97541 0.59968
9.00559 0.15535 17.05740 0 -10.75193 -4.29871 1.88255
0.06892 0.06757 1.07543 0 15.29537 -2.42677 1.07289
0.79430 0.22759 0.79044 0 0.81514 -7.63724 0.62744
10.58964 0.09966 4.97659 0 -4.26863 -4.02695 0.46797
22.78887 -0.24019 16.63153 0 12.89133 6.53273 0.72917
-4.71376 0.01771 1.57338 0 -22.89897 -2.02300 0.32662
-1.03116 -0.11513 0.66595 0 21.62826 4.67079 0.46368
0.13222 0.06047 0.41096 0 2.19151 -3.00306 0.40742
8.88984 -0.11597 2.97690 0 -21.16898 2.00821 0.33291
1.47235 0.03670 0.99266 0 -27.71963 -0.10265 0.55779
-1.15180 0.15596 0.34435 0 15.84841 -2.29289 0.22588
12.81455 -0.00972 7.93266 0 -20.29729 -0.45562 0.61724
-8.39509 0.06659 2.23054 0 -26.91535 -3.89088 0.26401
14.30300 0.00491 3.64892 0 -5.18071 -2.08348 0.25468
-4.27761 0.13114 1.34716 0 29.51377 -2.16347 0.30686
-7.73502 -0.14422 1.05097 0 -0.65604 2.53307 0.27728
7.09397 0.22362 2.18907 0 26.84187 -4.86760 0.30572
-0.68061 0.28863 0.91317 0 29.62348 -7.82402 0.75493
-2.20326 -0.03378 1.64701 0 -23.21893 0.34343 0.68074
-5.99781 -0.26428 3.72087 0 -11.80636 7.09892 0.61218
-1.22405 0.11947 1.28255 0 21.72473 -4.14976 0.81147
3.92220 -0.11350 2.15947 0 -23.38236 2.51613 0.53372
-3.34961 0.12018 1.67766 0 -27.67643 -2.49798 0.50544
1.64844 -0.22874 1.10834 0 13.78255 5.99597 0.57492
-1.80015 -0.06676 0.76197 0 -18.77192 0.69959 0.37014
2.57937 -0.08265 1.79809 0 -12.67361 3.35932 0.65002
0.02769 -0.24899 1.26260 0 -9.16879 7.99725 1.26212
10.78719 0.14176 6.03476 0 -28.04652 -5.12597 0.55714
11.95901 -0.02453 5.70718 0 24.31695 -0.25802 0.47567
-1.53304 -0.11609 1.30192 0 25.64882 4.30151 0.71134
-17.09967 0.13734 14.97969 0 3.06345 -4.64348 0.87459
-0.00206 -0.23677 0.47799 0 24.15325 6.04199 0.47799
0.69664 -0.05469 0.81371 0 25.63452 0.95476 0.66770
-3.55027 -0.28900 1.13812 0 -3.64063 6.93768 0.30869
16.62831 -0.12784 11.14540 0 -24.96315 4.70489 0.66913
-3.91815 -0.07751 1.89950 0 -28.65712 1.31360 0.46984
-1.66694 -0.07972 0.72675 0 -24.29566 1.09999 0.37392
0.83159 0.09477 1.80597 0 -26.74604 -2.38949 1.38858
-1.48796 0.19026 0.89826 0 -10.42586 -6.71813 0.50112
-1.61421 0.22410 2.16925 0 0.51459 -6.16344 1.14243
-2.49483 -0.04192 2.73971 0 22.77676 1.84246 1.01934
-23.29533 0.07915 36.10757 0 -29.44681 -2.62717 1.54860
5.10990 0.11691 7.46134 0 -29.73679 -3.06300 1.43304
-1.31426 -0.16696 1.54113 0 -16.04295 4.52267 0.93324
-6.90966 -0.18405 3.40155 0 -23.59715 4.51306 0.48731
25.75287 -0.17925 10.86805 0 13.62712 4.20435 0.42181
-3.00240 0.13009 1.31537 0 7.87979 -2.57202 0.41574
-1.27927 0.24440 1.24976 0 -24.37478 -6.53382 0.76971
-3.46427 0.25797 2.45227 0 -9.78992 -6.84035 0.68019
-0.00298 0.13832 0.22533 0 19.27191 -1.76952 0.22533
0.87369 -0.07329 0.81519 0 15.40660 1.44333 0.61394
1.58863 0.08478 2.81879 0 21.04287 -2.11874 1.50163
4.30241 0.02876 2.42711 0 1.29068 -1.71515 0.54972
1.48265 0.06954 2.17149 0 15.92778 -1.58174 1.21426
0.58101 0.02229 0.77739 0 29.98820 -1.34965 0.67220
0.43723 0.23433 2.01124 0 29.97773 -6.64947 1.84280
0.05774 -0.02931 0.26652 0 -20.62351 -0.96377 0.26608
-8.62786 -0.17190 5.42749 0 -9.30398 4.39118 0.62496
-2.36233 0.13019 4.84008 0 -19.59173 -3.54719 1.88678
-5.02404 -0.11477 4.08199 0 -1.78907 2.87320 0.79692
0.98075 -0.24127 1.69099 0 8.68618 6.84913 1.17530
2.30741 -0.23242 4.96506 0 21.62380 6.77480 1.97437
-0.32168 0.15127 0.76809 0 29.98780 -5.18560 0.73120
-3.19783 0.02173 1.12362 0 9.57183 0.95465 0.33545
-1.36448 -0.20895 1.66475 0 28.85085 5.79980 0.98410
-2.09212 0.25702 1.15907 0 24.17922 -6.52268 0.49997
-18.94876 -0.08289 6.24480 0 -24.53645 4.15436 0.32925
-7.31928 0.21996 6.89724 0 -27.73984 -5.93447 0.93372
-3.75969 -0.01421 9.50413 0 -27.01483 0.29814 2.44298
-9.66804 0.01489 2.41659 0 -3.12370 1.69497 0.24882
2.46421 0.14623 1.54468 0 29.84211 -5.22259 0.58089
-17.45649 -0.09422 7.32143 0 1.95056 4.15619 0.41884
-5.86358 -0.15264 1.91228 0 21.35879 3.03679 0.32154
1.13270 0.13335 0.23080 0 -13.06105 -6.65276 0.19816
0.97963 -0.07922 0.65191 0 -1.46943 1.35504 0.46574
2.29136 -0.03670 0.93558 0 5.82372 -0.18410 0.37436
-0.67378 0.10424 0.61812 0 29.68908 -2.03836 0.51263
9.77026 0.19823 5.61680 0 2.69899 -4.92916 0.57198
4.36802 0.01551 1.40390 0 -29.61763 -2.02307 0.31342
9.50941 -0.25590 2.80022 0 27.77731 5.89020 0.29302
0.09787 0.03261 0.82994 0 3.83447 -1.51781 0.82600
-7.78754 -0.32952 2.27302 0 -3.00310 7.98012 0.28967
9.53226 -0.15549 3.10731 0 -26.64844 3.13448 0.32435
1.59200 0.12222 0.46637 0 24.77973 -5.73787 0.24821
6.01187 0.12723 3.98775 0 -24.36160 -2.94025 0.65445
-0.24454 -0.22156 0.79319 0 -29.58018 7.44838 0.77049
1.37569 0.22544 0.86675 0 -28.92685 -5.61671 0.50968
-1.89795 0.20073 2.52338 0 16.80574 -5.48211 1.17629
-20.38142 0.15050 25.77888 0 -5.40807 -4.85387 1.26334
1.36084 -0.19705 1.40348 0 -9.27105 6.64966 0.83113
8.40610 0.04748 1.81362 0 5.23793 -3.76852 0.21446
-22.24404 -0.08743 5.56942 0 26.70242 4.80477 0.25032
-4.60312 0.01548 1.64285 0 -29.93986 -1.85471 0.34886
-6.20191 0.19890 4.04145 0 28.03315 -6.73760 0.64341
1.08308 -0.10158 1.73642 0 1.03633 2.68921 1.17795
3.42496 0.01668 1.45419 0 22.63808 -1.67747 0.40767
-0.74733 0.22211 0.63132 0 -23.56127 -7.68673 0.50574
-0.95439 0.00160 1.97898 0 1.28506 0.39040 1.43163
-13.50311 0.04329 14.53454 0 -10.97312 -0.74036 1.07349
-8.30139 -0.24893 1.96091 0 -10.94519 5.23880 0.23472
3.04399 0.12676 1.31281 0 26.49515 -5.01508 0.40981
-11.72929 0.15259 8.51429 0 14.61515 -3.76994 0.72334
-10.30749 0.05236 8.06924 0 -8.19579 -2.14995 0.77926
-1.83569 0.01688 2.29796 0 -16.74844 0.03993 1.09936
-0.52520 0.14290 1.27509 0 -10.22104 -3.74091 1.12888
3.84956 -0.03560 1.26643 0 -5.75326 -0.45671 0.31858
-0.46387 -0.14235 0.59697 0 12.47469 3.38670 0.54156
1.89305 -0.15640 0.96627 0 -10.99010 5.96348 0.45139
4.69818 -0.22800 2.14612 0 28.66317 5.70673 0.44687
1.13193 0.22407 0.75657 0 -5.83418 -5.55828 0.50095
1.51577 0.01488 0.74130 0 3.45750 -1.62118 0.40830
-2.04479 -0.14521 0.66550 0 -28.44331 2.65859 0.29247
6.18121 -0.02392 4.36517 0 -7.27069 1.53401 0.69720
-1.66519 0.08190 0.88338 0 29.60619 -3.51958 0.45486
0.41815 0.06359 0.69191 0 24.30193 -2.63530 0.63836
2.75312 -0.22375 1.56617 0 14.25560 5.77881 0.53474
-0.37058 -0.22649 0.59890 0 0.18465 7.87590 0.55948
8.04311 -0.12221 3.50391 0 -26.18450 2.54877 0.43242
8.37000 0.03273 2.80648 0 27.74487 0.63531 0.33308
-5.51158 -0.17563 1.60945 0 -13.42981 3.52090 0.28742
-3.66929 0.08819 1.23171 0 -28.27093 -0.97870 0.32401
4.18890 0.17877 1.28911 0 -16.79472 -7.11575 0.29942
7.07082 -0.27698 2.15464 0 29.97583 6.55191 0.30188
0.74174 0.08003 0.49510 0 10.68361 -1.02835 0.39769
-0.95316 0.12373 0.32890 0 -21.50552 -1.46243 0.23817
5.94023 0.14309 2.88038 0 29.91461 -5.32624 0.47822
11.47597 -0.20115 9.34620 0 -7.59579 5.45268 0.81140
-0.54130 -0.17413 1.14827 0 -26.22828 5.83542 1.01436
10.56534 -0.29805 3.74395 0 -29.31521 7.42091 0.35292
2.98199 -0.34061 0.56597 0 -29.99201 7.13496 0.18006
-24.27354 -0.01542 13.26071 0 -7.71973 1.48230 0.54593
-7.63538 0.02582 5.58986 0 14.61144 -1.39953 0.72597
-0.20197 -0.02547 0.20619 0 3.75577 3.41599 0.20135
-0.38033 -0.21398 0.33733 0 3.75894 4.80197 0.31531
6.16767 0.09011 2.29316 0 25.99703 -1.22160 0.36714
-5.11620 0.23830 2.89386 0 -28.83711 -6.08145 0.55520
-16.95175 -0.16629 13.60298 0 25.10187 5.73984 0.80112
0.91584 0.21427 0.39602 0 -7.04039 -4.51543 0.29211
0.65033 0.00465 0.34374 0 -12.39957 1.72063 0.28821
-15.06176 -0.18906 4.26293 0 0.55123 3.88263 0.28258
-22.88541 0.05194 18.14831 0 28.36410 -2.12636 0.79232
2.99900 -0.27954 2.51427 0 16.34628 7.75659 0.79538
5.35497 0.21143 1.32046 0 0.11678 -4.06711 0.24260
1.14291 0.17147 0.39799 0 -4.82250 -7.15628 0.26215
-0.03066 -0.23401 0.45382 0 -28.84049 5.90070 0.45361
1.22637 -0.02057 0.93261 0 -12.55814 1.56783 0.58942
-2.85913 0.20425 3.53150 0 -29.03519 -6.51530 1.16598
17.28885 0.28867 11.18408 0 -1.01233 -7.69975 0.64589
-1.31858 -0.07996 1.17602 0 26.83595 1.75621 0.71066
2.01869 -0.09569 1.80854 0 26.46620 3.60023 0.80284
-2.88342 -0.15060 0.92840 0 -2.76445 6.32346 0.31276
2.55411 0.21154 1.39312 0 -24.53571 -7.35680 0.50798
-0.38632 -0.11977 0.58497 0 -23.75907 2.72376 0.54568
-1.62101 -0.02562 0.86191 0 27.55652 1.98417 0.45261
0.74742 0.20637 0.68220 0 28.62533 -5.12616 0.54648
-5.20507 -0.02123 2.15360 0 25.70524 -0.54044 0.40638
-0.95551 0.27991 0.36986 0 -28.64337 -6.24340 0.26748
1.29682 -0.12625 0.95235 0 29.20319 2.97469 0.58161
-5.78010 -0.08903 3.14333 0 -11.57363 1.79153 0.53595
1.82027 0.06191 0.69017 0 26.21390 -3.33655 0.33243
-19.64280 0.01706 7.16026 0 28.66678 0.97449 0.36419
-5.49155 0.05450 2.47250 0 -29.32619 -2.71922 0.44303
-3.91067 -0.17641 1.16088 0 22.86256 7.28147 0.28773
1.05734 0.03272 0.42511 0 -18.78100 -2.66517 0.29220
-9.82113 0.17292 4.85774 0 0.12059 -6.20654 0.49218
-14.98775 -0.05131 6.13623 0 28.60607 2.88401 0.40863
-17.15623 0.03211 5.46494 0 6.00583 -2.50148 0.31815
-0.21882 0.31225 0.28489 0 -29.16363 -7.24746 0.27831
-15.16580 0.13678 9.64469 0 -22.04738 -4.85710 0.63465
0.51655 -0.00272 1.06765 0 29.29593 -0.37609 0.94858
-3.06630 0.07435 1.17140 0 -28.07158 -0.73759 0.36333
-12.35713 0.22250 3.76216 0 -27.49259 -4.82289 0.30362
15.50385 -0.08009 5.11056 0 -19.16117 4.06972 0.32910
2.10675 -0.08138 2.00421 0 3.31501 3.12541 0.85950
15.30447 0.15431 6.36424 0 23.79461 -5.84258 0.41507
-0.01651 0.18313 0.54530 0 6.22371 -6.41048 0.54522
0.60849 0.21123 0.55394 0 11.49385 -7.42878 0.47325
4.22959 -0.12056 3.88873 0 -22.78416 3.11689 0.89477
-16.66263 0.25481 8.40804 0 24.86466 -6.46621 0.50379
13.79131 -0.19620 1.03306 0 27.83788 3.50641 0.21444
4.10802 -0.05385 1.64859 0 0.14831 0.38427 0.39006
-13.06611 -0.27581 10.01259 0 -10.38295 7.61773 0.76413
1.87551 0.10366 1.40416 0 14.13574 -2.24619 0.66073
7.98505 0.23043 3.34145 0 -22.21220 -5.52472 0.41533
-7.95563 -0.27329 4.25498 0 -29.92838 7.22505 0.53075
-10.48926 0.21567 8.45150 0 -19.68194 -5.71256 0.80215
0.81083 -0.32088 0.33221 0 24.43682 7.50042 0.25810
8.45257 -0.15375 3.30694 0 29.39038 6.07742 0.38865
20.93031 0.08446 13.65976 0 -3.29348 -3.24918 0.65196
0.10552 0.01051 0.82912 0 26.25478 -0.85446 0.82454
-1.35560 0.06087 1.27986 0 -28.58224 -1.06979 0.75983
-3.99862 -0.00242 1.90860 0 20.56587 1.25909 0.46319
20.02247 -0.19218 20.79760 0 23.53082 6.37031 1.03747
