0.02831 -0.08217 0.69229 0 -14.45318 1.80286 0.69201
-1.86462 0.02637 1.32939 0 -19.10677 -1.52600 0.62838
-18.10984 -0.24741 22.79356 0 -19.50427 7.95145 1.25675
-13.64390 0.18242 6.83975 0 6.22295 -4.32980 0.50006
2.41587 -0.15236 3.61454 0 22.68572 5.03619 1.38247
-0.26608 0.15973 0.41809 0 -20.11880 -3.41212 0.40404
-2.76830 -0.33601 0.76260 0 27.24672 7.93826 0.25915
-26.05115 0.12505 14.12741 0 29.98949 -2.71145 0.54199
-0.24920 0.04298 0.39937 0 -13.27487 -2.53831 0.38753
0.11109 0.14290 0.28120 0 -13.74938 -2.34607 0.27948
-24.66836 0.04538 10.71881 0 11.22053 -2.46694 0.43427
2.44269 -0.04004 0.90928 0 -15.49920 -0.20229 0.34460
2.46853 -0.02736 1.26521 0 -29.58858 1.98270 0.47510
-0.40475 -0.04270 0.26249 0 -15.53481 -0.74988 0.24241
-9.14885 0.06146 8.25595 0 28.54434 -1.19055 0.89711
-21.71110 0.20046 12.85302 0 29.76640 -6.86109 0.59146
13.85879 0.20428 4.77797 0 10.12492 -7.66484 0.34401
2.86177 -0.17201 2.04264 0 -22.94127 6.04156 0.67391
-0.53804 -0.11433 0.53216 0 12.48658 4.63413 0.46866
-9.34752 0.13553 3.06587 0 -29.89823 -5.62267 0.32627
3.29960 0.04265 1.96044 0 27.48942 -0.29858 0.56866
6.85123 -0.32492 1.59709 0 -29.99518 7.36372 0.23087
-4.72651 -0.25879 2.55378 0 -24.33540 6.79629 0.52869
-0.48980 0.02584 0.54837 0 16.75000 0.34444 0.49248
-5.35891 -0.13304 2.04813 0 -28.43693 2.69002 0.37586
4.65138 0.19963 1.63596 0 21.06768 -7.52015 0.34399
13.00111 0.14249 5.16337 0 29.00918 -2.87740 0.39610
-21.04683 -0.08662 8.77703 0 29.00908 3.84385 0.44765
1.83040 0.10774 0.58823 0 17.08312 -5.02594 0.28215
7.23282 -0.25539 2.74808 0 21.52679 6.28192 0.37649
-3.85437 0.30103 0.88650 0 -8.50359 -6.44104 0.22284
0.25807 -0.00160 0.35365 0 -13.65745 1.62592 0.34244
16.08034 0.02334 10.71419 0 -21.44357 -1.38941 0.66508
1.83592 -0.05313 2.17334 0 -4.86007 1.18224 1.03962
4.73859 -0.10843 1.93695 0 -7.21268 4.64898 0.40013
-19.73379 -0.18410 7.73188 0 -22.24901 4.25084 0.39143
16.78694 -0.26998 12.57563 0 29.04697 7.43020 0.74787
-0.22393 -0.19319 0.55438 0 24.62965 6.88887 0.54099
5.55360 -0.19114 1.98173 0 19.04486 4.30459 0.35130
18.59726 0.19583 6.33282 0 6.36796 -4.23090 0.34018
10.71632 -0.27779 5.85569 0 -29.86390 7.38221 0.54415
7.95008 0.03486 3.29133 0 24.63153 0.28035 0.41088
-8.89693 -0.06796 14.14389 0 15.03295 1.79463 1.57983
16.88852 -0.04345 13.67853 0 -24.88117 0.75166 0.80857
1.30495 -0.09988 1.45969 0 1.00276 2.49542 0.88790
1.49579 0.23072 1.60795 0 29.32208 -7.46453 0.89372
0.89571 -0.07474 0.74022 0 29.99757 1.39202 0.55144
-0.35267 0.15922 0.25609 0 10.49018 -2.53600 0.24153
2.81326 0.05563 1.34960 0 29.72366 -0.45491 0.45206
0.02772 0.27337 0.76641 0 29.77814 -7.38533 0.76612
1.78211 -0.04846 0.76533 0 28.67532 0.16889 0.37462
0.28075 -0.06357 0.43176 0 9.53263 3.23409 0.41570
-1.29999 0.23765 2.42641 0 26.99338 -7.42569 1.47943
-0.05954 -0.09830 0.83313 0 15.45597 3.65666 0.83165
-7.34099 0.24585 5.35893 0 -23.59570 -6.53125 0.72339
-13.33659 -0.16079 6.56796 0 19.56708 5.99996 0.49120
-4.56635 -0.05828 2.15895 0 4.49604 2.94793 0.46200
3.80048 0.03307 1.30596 0 -1.67058 0.62799 0.33246
17.24766 0.09165 15.25147 0 -13.05577 -3.25682 0.88284
19.56561 0.14578 7.29867 0 26.59384 -5.73010 0.37268
0.66525 0.05100 0.82241 0 -28.29990 -2.20050 0.68476
23.40390 -0.03297 6.44923 0 23.63466 -0.50766 0.32419
-4.67896 0.09058 1.97438 0 2.03489 -1.71857 0.56140
-9.60284 -0.01562 5.30073 0 -29.57477 -0.38142 0.54912
-0.09472 0.22246 0.70484 0 -9.80096 -5.81760 0.70170
1.05727 0.06991 1.19576 0 -29.82547 -1.39092 0.82171
-3.37012 0.06946 4.47620 0 -12.48046 -2.40775 1.27344
-2.64025 0.07431 1.78219 0 29.57004 -2.96836 0.63135
-1.50447 0.07798 0.72213 0 11.36099 -3.55940 0.39980
1.66613 0.23483 0.46166 0 18.80240 -4.69867 0.23770
-0.73763 0.32918 0.34682 0 0.73070 -7.73547 0.27915
-12.21466 0.01606 6.07287 0 -29.92214 0.63132 0.49562
-15.22684 0.30188 7.29278 0 -27.15335 -7.78137 0.47801
-14.72376 0.22334 18.85224 0 -8.57600 -7.05213 1.27749
-6.98173 -0.02992 3.61737 0 -28.65496 -0.01817 0.51298
-5.64889 -0.03758 3.86787 0 -29.11735 0.44993 0.67434
8.98703 0.07902 5.95796 0 29.98527 -3.07612 0.65896
13.33383 -0.15648 6.78786 0 -28.84791 5.83195 0.50774
0.94125 0.08517 0.68996 0 -25.78001 -1.45021 0.50246
-14.61193 -0.18519 6.86008 0 14.39521 4.50319 0.46849
-3.79502 0.21808 2.91577 0 19.62778 -7.20686 0.74300
0.10331 -0.02897 0.83208 0 8.35337 0.33235 0.82768
2.60812 0.14351 1.81631 0 -12.89522 -3.41915 0.65030
-4.44311 0.05916 2.07527 0 -29.80251 -2.82749 0.45575
-2.67721 0.08409 2.10678 0 -29.66352 -3.14518 0.73729
-3.02311 0.15892 0.66671 0 -28.14909 -7.30540 0.20960
1.24709 -0.14719 0.92211 0 27.55818 3.58904 0.57690
-3.04206 0.05320 1.76038 0 -28.94026 -2.45228 0.54980
2.33720 -0.14733 0.44491 0 -9.66260 7.63739 0.17519
-17.13205 0.08855 7.33683 0 24.79818 -1.37246 0.42764
13.64561 0.06945 13.04939 0 1.60532 -1.46367 0.95380
26.44462 0.14891 23.46692 0 28.75676 -4.98552 0.88682
4.51853 -0.26897 2.77048 0 29.99331 7.21619 0.59875
18.62121 -0.19788 6.88527 0 23.35208 7.51505 0.36935
-2.60179 0.11446 0.65027 0 28.19452 -5.63667 0.23343
-6.48500 0.15017 3.24802 0 6.54015 -3.36623 0.49510
17.29906 -0.02672 5.35323 0 26.90582 -0.77264 0.30909
8.77636 -0.10632 3.38563 0 23.49319 4.64263 0.38341
6.27519 0.13563 3.12598 0 -15.31593 -5.06671 0.49204
9.21626 -0.05268 4.84683 0 28.21842 2.64769 0.52292
3.94326 0.12805 2.78492 0 25.83221 -2.99963 0.68460
-12.32814 -0.04141 6.13540 0 -29.99363 2.36071 0.49614
-13.79129 0.12274 7.14375 0 11.32635 -4.62210 0.51673
4.49997 -0.14230 2.73370 0 -18.55598 3.46879 0.59310
8.17083 -0.05464 4.38770 0 -18.56256 0.75967 0.53311
-3.43918 0.28311 1.38072 0 15.86398 -6.95852 0.38561
1.21480 -0.00079 0.91877 0 -12.93682 -0.77092 0.58396
10.10848 0.18432 7.37390 0 29.97848 -6.19564 0.72600
4.40975 -0.15359 2.50755 0 -14.29842 3.74255 0.55462
5.46782 -0.04548 2.49299 0 10.28018 2.59424 0.44855
-18.29020 0.17550 12.43856 0 29.23338 -4.40262 0.67913
-13.11056 0.02100 9.97727 0 -22.73215 -1.20019 0.78635
-5.49497 0.19587 3.89701 0 -12.89216 -6.57794 0.69782
2.22207 0.12992 1.23066 0 24.11228 -2.78667 0.50515
-0.32343 -0.08895 0.78827 0 29.05903 2.06243 0.75002
-1.14054 0.03311 0.66297 0 -23.79756 -2.08816 0.43715
0.61401 0.00447 0.68839 0 -27.59684 -0.92514 0.58665
-17.03791 0.20212 14.43977 0 29.35490 -5.34580 0.84611
-26.68724 0.11866 8.28584 0 -27.21890 -1.81367 0.31042
-14.22890 0.17513 5.04754 0 -4.56952 -6.71365 0.35400
26.82324 0.24589 10.41891 0 -9.39369 -5.88616 0.38828
0.70613 -0.12880 0.66710 0 6.45147 4.91558 0.54497
-1.54354 -0.11841 0.82081 0 -28.82818 2.47326 0.44637
-0.40105 -0.01053 0.62752 0 -29.99615 -0.48081 0.58244
-23.85778 -0.14205 6.10379 0 28.17127 6.45186 0.25581
-5.70027 -0.04900 1.94928 0 -11.09603 3.08452 0.33709
3.77171 -0.01971 1.07738 0 9.44857 2.53617 0.27618
7.08406 -0.05878 2.12795 0 24.18950 3.58857 0.29760
5.94470 -0.00097 1.03149 0 -29.30891 -2.90489 0.17120
-0.89789 -0.16893 1.40803 0 -29.13798 4.64298 1.04770
-4.25034 0.21344 4.63086 0 -7.53246 -5.81012 1.06061
-2.36054 -0.26670 2.60568 0 -5.30301 7.52977 1.01644
-5.56835 -0.19813 7.82894 0 6.88130 6.41863 1.38390
4.90847 -0.24631 1.11013 0 29.36703 5.03252 0.22179
2.50251 0.08967 0.68222 0 24.27569 -0.58239 0.25338
0.32170 0.10666 0.68203 0 -19.57515 -2.32183 0.64927
-2.95309 0.04682 0.73830 0 29.76675 0.83730 0.23698
13.37751 0.09764 7.06727 0 11.23316 -3.83933 0.52692
-0.63429 -0.21129 0.70707 0 15.45842 5.51628 0.59711
0.78239 0.14867 0.80394 0 29.71084 -3.55083 0.63321
-5.59454 -0.28690 1.43015 0 26.60593 6.47987 0.25175
8.43781 -0.17036 6.01637 0 -15.07982 4.44445 0.70814
-3.64973 0.03575 1.87066 0 29.98965 -2.03092 0.49442
-22.07186 -0.17912 10.27284 0 -29.18894 6.62452 0.46506
-15.04559 -0.15760 5.52296 0 -5.58556 6.28191 0.36641
1.57223 0.12372 0.33958 0 29.63897 -0.80407 0.18239
-2.46199 0.25733 1.00971 0 29.99911 -6.18948 0.38010
-2.50063 -0.20765 2.33899 0 -6.65786 5.68880 0.86854
-0.26289 -0.03920 0.33586 0 15.79134 2.84541 0.32484
-9.02681 -0.22427 5.37501 0 2.70560 7.75219 0.59191
21.51294 0.01979 4.80223 0 -24.66791 -2.82430 0.22320
19.59309 -0.20933 20.96840 0 -15.49437 5.85458 1.06885
0.66012 -0.18100 0.27233 0 -6.21857 3.20192 0.22736
-21.83353 -0.01830 15.16233 0 26.98454 1.36840 0.69380
-10.26042 -0.00720 9.26289 0 1.22849 0.86664 0.89857
-0.80523 0.00172 1.13709 0 -19.27769 -0.54763 0.88568
-21.78931 0.08683 13.31021 0 27.63198 -3.37558 0.61030
-2.81241 0.20431 0.52748 0 5.39259 -3.06629 0.17689
-1.00150 -0.20127 1.22744 0 13.12106 6.75007 0.86732
7.35682 -0.14063 2.12262 0 -25.55919 2.48421 0.28606
-10.69554 0.00686 2.76823 0 21.95236 -2.11738 0.25788
1.93662 0.31662 0.74577 0 29.21864 -7.74412 0.34225
8.43513 -0.09822 5.04210 0 15.38739 3.89228 0.60384
-1.13291 0.00748 1.66849 0 -1.89351 0.31978 1.10417
-0.39247 0.22109 1.24424 0 -29.48457 -7.02885 1.15824
6.02040 0.21721 3.19029 0 -26.73346 -5.40130 0.52284
-0.01456 -0.04629 0.80902 0 -29.99704 2.10530 0.80894
-0.10756 0.22736 0.24366 0 20.15579 -4.52484 0.24227
2.11081 0.10126 2.09000 0 -26.73360 -3.53902 0.89485
0.18801 -0.16779 0.25706 0 -26.87361 7.28484 0.25264
11.56505 -0.20502 2.84757 0 22.43698 4.06903 0.24550
0.60898 -0.11019 0.37032 0 -14.70208 1.75627 0.31634
-9.50843 -0.08519 4.20183 0 -29.99419 3.82202 0.43959
-24.90308 -0.03809 25.80857 0 28.80620 0.72974 1.03557
0.65544 0.15115 0.25281 0 -26.21507 -7.03490 0.21150
0.66618 0.02296 0.50531 0 -4.11936 0.60844 0.42057
4.48763 -0.21695 1.99532 0 -23.89117 5.34787 0.43413
5.47409 -0.14247 4.63559 0 24.82061 4.99172 0.83313
4.37252 0.12589 2.79530 0 -28.04017 -4.54168 0.62329
-0.44297 0.10223 0.22825 0 -18.11277 -5.53342 0.20872
-0.11021 -0.15177 0.65530 0 27.43879 5.45339 0.65136
-27.20111 0.18426 9.54391 0 10.95171 -3.93816 0.35077
-2.97494 -0.05859 3.03106 0 29.75629 1.30799 0.96586
15.47285 -0.06597 14.49020 0 -24.35583 1.51086 0.93459
-1.86777 -0.18062 0.71527 0 19.38645 3.93649 0.33771
0.01039 -0.12010 0.37340 0 -19.06382 5.10178 0.37338
2.28958 0.17681 0.65514 0 -29.69915 -7.32224 0.26233
-8.36407 0.05315 6.25816 0 17.90058 -0.82360 0.74299
4.06532 0.14958 1.38104 0 -25.80042 -2.82526 0.32999
1.00942 -0.26981 0.32122 0 9.16349 5.75140 0.22619
-0.81360 0.23049 1.00436 0 -21.46694 -6.13140 0.77911
0.68535 0.19469 0.84869 0 29.91574 -6.53960 0.70008
0.59889 -0.03095 0.61503 0 -29.44806 1.98290 0.52767
-18.93178 0.13042 3.97820 0 -23.62757 -6.39954 0.21007
20.89286 -0.01737 26.85490 0 -8.81370 1.00083 1.28393
7.32621 0.13543 2.42627 0 18.27679 -5.60944 0.32828
-0.87896 -0.23165 1.40044 0 -29.99999 6.50897 1.05189
-10.04567 0.08402 11.80157 0 25.32408 -2.88248 1.16906
4.51476 -0.03300 1.43331 0 6.63473 -0.57863 0.31012
1.94700 -0.20180 1.18769 0 13.77843 7.14945 0.54269
-0.59962 0.15332 0.57716 0 21.55288 -3.45514 0.49312
18.51899 0.01820 5.89660 0 22.21829 -2.08033 0.31810
-9.89309 -0.08387 4.15919 0 29.99437 1.36927 0.41840
4.83230 0.16804 3.71088 0 28.64501 -4.25649 0.75208
-2.32877 0.07492 1.71235 0 25.43911 -2.93257 0.67571
5.53308 -0.03438 5.71797 0 9.87759 0.60945 1.01698
-0.32000 -0.09747 0.48413 0 -27.48852 4.13944 0.46111
-8.75099 -0.29281 4.55018 0 -24.62874 7.76699 0.51669
-25.03245 -0.14866 5.19791 0 -28.09643 7.16760 0.20772
11.26838 -0.26929 7.83003 0 29.49823 7.35039 0.69222
-9.04693 0.01175 1.91433 0 26.93396 -2.72017 0.21055
3.92769 0.09964 5.38315 0 11.50132 -2.51845 1.32823
-17.64562 -0.33151 4.10449 0 2.41969 7.56580 0.23244
-4.78235 -0.18631 1.77707 0 -19.24496 7.17926 0.36388
-12.05501 -0.19346 4.82771 0 -26.15632 4.55209 0.39922
-0.40848 0.16491 0.66099 0 -16.41056 -5.74450 0.61192
0.54697 0.12506 0.39375 0 20.23561 -2.17100 0.34548
6.63853 0.14802 1.63174 0 -8.96491 -6.58868 0.24325
2.93425 0.16019 2.33185 0 -19.29644 -4.02358 0.75227
-23.45876 0.08169 6.59211 0 25.79965 -0.54311 0.28093
-0.97628 -0.07970 0.49627 0 -18.68656 1.02709 0.35518
0.54163 -0.01758 0.61019 0 17.59200 -0.25892 0.58938
-0.78004 0.05554 0.64628 0 29.68732 -0.57989 0.50962
7.08867 0.16442 6.53209 0 0.61660 -5.43815 0.91250
0.51839 -0.01409 0.85458 0 -29.73779 -0.16996 0.75871
1.04845 0.01606 0.34745 0 -29.32492 1.73677 0.23993
-0.27183 0.04865 0.57124 0 -5.87746 -2.31236 0.55124
-27.01846 0.04895 8.12851 0 -20.54571 -3.10784 0.30081
-22.83759 0.07549 8.73659 0 -5.75615 -0.84154 0.38231
-5.86590 0.18962 1.74538 0 17.78058 -7.49246 0.29355
0.27728 -0.08590 0.41252 0 -11.64011 1.36528 0.39753
3.51586 -0.11618 8.35982 0 27.26744 3.79521 2.28706
-5.05702 0.10981 2.75511 0 27.55068 -2.24519 0.53454
-0.10112 0.07586 0.73071 0 25.16382 -1.48739 0.72700
-10.47063 -0.25313 3.79474 0 -29.99169 6.15445 0.36091
-1.39137 -0.08690 1.43015 0 12.58417 2.07077 0.83471
1.24559 -0.28918 0.64450 0 -18.83617 7.36064 0.40357
0.63355 0.04832 0.36175 0 -11.96943 0.30606 0.30564
-19.74972 0.07080 19.77079 0 -13.66201 -1.52890 0.99984
22.84727 0.19733 16.55525 0 -27.89468 -6.59382 0.72398
0.31070 0.20058 0.60546 0 28.84664 -5.00869 0.57820
1.35799 -0.09990 0.34303 0 2.88396 0.55402 0.20355
0.37294 -0.15017 0.43800 0 -18.85622 3.31220 0.41040
-19.55265 0.07012 15.66672 0 -9.45811 -2.66812 0.80027
3.75204 0.26041 1.69931 0 -6.56362 -6.46689 0.43774
6.20534 0.06791 2.60562 0 -2.45961 -0.71978 0.41467
1.35985 0.12291 0.73151 0 5.27869 -2.40981 0.43345
-15.50829 -0.15961 6.54162 0 20.20370 3.62309 0.42106
-2.92548 -0.14203 3.06445 0 19.22565 3.81316 0.99127
-0.83371 -0.19453 0.65587 0 25.81239 7.00577 0.50378
-5.61316 -0.29182 2.97122 0 28.83000 7.74749 0.52117
-16.05810 0.19833 20.96905 0 18.89701 -5.45518 1.30334
-1.67977 0.03288 0.53095 0 23.55446 0.97844 0.27176
-0.41948 0.05980 0.60202 0 -29.97245 -0.78972 0.55517
-0.72417 -0.09431 0.38393 0 15.88399 1.25719 0.31102
0.08634 0.03889 0.54826 0 -25.10774 -0.14890 0.54623
-10.41508 0.10449 13.88526 0 -0.36602 -2.66291 1.32712
-1.46917 -0.16834 0.50392 0 5.74027 7.05767 0.28366
-0.82481 0.03476 0.32021 0 28.90928 -3.05387 0.24711
-26.03091 0.23551 12.00144 0 -23.58174 -5.80056 0.46081
-4.39565 0.02126 2.13283 0 21.09581 0.52414 0.47319
0.40724 0.20074 0.63399 0 -22.32244 -6.87661 0.58718
-0.52056 -0.10363 0.71873 0 -2.62784 2.37924 0.63754
27.03904 0.00375 13.95213 0 -6.68577 -1.02368 0.51574
2.19817 0.06665 1.04510 0 -26.11324 -3.11522 0.43282
-2.92237 0.13010 4.23846 0 -18.13478 -3.44107 1.37229
6.82527 0.20138 3.82140 0 10.58995 -4.99206 0.55406
0.35294 0.27502 0.46450 0 17.35729 -6.89372 0.43803
-3.82722 0.05421 2.79605 0 -29.77196 -0.82033 0.70690
6.73929 -0.22784 2.12376 0 20.14293 5.18667 0.31187
8.34187 0.10119 3.15941 0 -10.72978 -1.58452 0.37618
0.12458 0.00547 0.22622 0 24.66985 2.20544 0.22449
0.33432 -0.06259 1.18876 0 17.00051 2.41591 1.12742
-3.92180 -0.00075 3.21262 0 -28.54774 -0.54035 0.79388
-1.40561 0.05219 1.51743 0 -14.85881 -2.06936 0.87969
-0.25412 -0.06663 0.33220 0 26.69409 3.69424 0.32197
7.73405 -0.20462 3.51136 0 26.85212 5.02977 0.45037
6.93543 0.00439 2.34051 0 17.62991 1.48252 0.33416
-18.50729 -0.14889 10.01505 0 17.39418 5.53585 0.54044
1.30433 0.13738 0.63508 0 28.00386 -2.69381 0.38648
13.40191 -0.15802 3.19285 0 27.88507 7.11784 0.23778
-1.06553 -0.16073 0.61922 0 28.51698 3.66436 0.42384
-0.19906 -0.15110 0.26022 0 23.25174 2.59465 0.25778
-19.39356 -0.19538 8.93865 0 17.44253 4.78376 0.46040
1.25430 -0.11592 1.49221 0 28.75796 4.12197 0.93025
0.52706 -0.01187 1.19694 0 -10.93392 0.92045 1.05888
-14.66804 -0.00158 7.88252 0 -3.86315 1.08306 0.53624
-1.61154 -0.06432 1.43593 0 27.83061 2.69252 0.75716
-0.77714 -0.18015 0.64518 0 -3.95656 4.44463 0.50947
1.82276 -0.15783 0.95745 0 29.25930 5.98317 0.46061
0.03209 -0.02983 0.39163 0 19.85443 -0.33063 0.39143
0.81507 -0.07892 0.41390 0 15.34194 4.07481 0.32090
-0.76100 0.08285 0.82044 0 -25.19093 -1.61618 0.65293
-13.62528 0.16398 3.22289 0 16.28898 -2.62658 0.23611
1.19472 0.20271 0.60433 0 -24.29596 -4.62271 0.38797
-2.12467 -0.13719 1.69433 0 -8.47008 3.47270 0.72159
4.27252 0.22471 2.98645 0 23.25288 -7.47856 0.68064
18.40028 -0.17484 7.27013 0 -7.70683 3.98939 0.39465
25.38955 -0.18846 22.67016 0 13.06329 6.34337 0.89226
1.85120 -0.05897 1.71170 0 26.22680 2.48384 0.81359
15.28660 0.31335 4.42530 0 26.46637 -7.35238 0.28904
-0.33892 -0.20051 0.52811 0 -6.58256 5.02606 0.50018
-1.05699 0.10495 1.39817 0 29.95108 -2.52830 0.96092
1.85591 0.16094 0.93563 0 29.72009 -3.56342 0.44389
10.97890 -0.07331 4.61815 0 -29.99780 3.51970 0.41902
-6.42090 -0.24968 4.88589 0 -29.72041 6.83553 0.75193
1.50032 -0.08170 0.81659 0 -28.42203 1.39781 0.45293
1.03931 -0.15120 0.70092 0 24.16242 5.71835 0.48603
-19.14416 -0.07198 13.34874 0 29.82784 2.98344 0.69639
-24.33193 -0.24673 16.69331 0 -23.82540 6.67808 0.68556
-5.20796 0.18985 4.49962 0 15.78944 -6.25472 0.84852
18.84296 0.24548 19.50875 0 27.10256 -6.74760 1.03393
2.54746 -0.01815 0.83140 0 -17.68569 2.31758 0.30385
24.40857 0.20515 14.71273 0 -26.40929 -6.98767 0.60234
8.20113 -0.05942 6.18866 0 26.87188 2.55200 0.74913
2.72589 0.01085 3.33580 0 -13.52822 0.20075 1.14892
-22.61527 0.25047 7.30449 0 11.89008 -5.73909 0.32282
-13.31003 -0.08858 8.23730 0 1.84569 1.90412 0.61722
-7.38328 0.20459 2.24355 0 29.12626 -4.28801 0.30128
-10.25999 -0.17301 4.37182 0 -17.15049 6.55123 0.42421
-2.17778 -0.07168 0.84365 0 -29.18768 0.77584 0.35217
2.55506 -0.20068 1.62591 0 -29.73326 5.19635 0.59268
-1.01719 0.11499 0.70214 0 14.46479 -4.43741 0.49229
-0.46540 0.18594 0.73586 0 -21.70007 -6.31166 0.66715
2.91100 -0.03690 3.17650 0 29.86406 0.69244 1.03207
-0.81375 -0.04245 0.86499 0 29.49637 2.12071 0.67095
-18.31977 0.24224 4.32180 0 29.06136 -4.89385 0.23576
-0.59410 -0.24676 1.14232 0 -29.91313 6.92011 0.98210
-0.04051 0.22777 0.44567 0 9.90023 -5.53332 0.44530
5.05156 0.13379 1.78263 0 -21.20749 -2.43292 0.34629
-0.02434 0.26632 0.60297 0 7.04014 -6.98216 0.60280
-1.79740 0.10592 1.19460 0 -22.98458 -2.20645 0.58086
-12.65245 -0.12639 10.75257 0 7.41992 4.49422 0.84726
0.82903 0.30958 0.46208 0 -22.83039 -7.60335 0.35576
-0.60740 0.25488 0.40863 0 -26.70713 -5.99325 0.34930
10.71340 0.07493 9.43719 0 29.95597 -1.58048 0.87712
2.44480 0.07913 1.27182 0 -27.74343 -3.37122 0.48163
13.73022 0.14166 7.91003 0 -27.95970 -3.25901 0.57467
-1.68117 -0.23037 0.57379 0 -9.72689 5.15389 0.29346
3.91695 0.25692 1.78151 0 5.32535 -6.37363 0.44073
-0.22780 0.04025 0.35806 0 29.91755 -2.60325 0.34912
-1.03709 -0.17848 0.53498 0 -7.59182 6.90593 0.37139
0.61688 0.05841 0.43596 0 29.84649 -3.06611 0.37109
9.99543 0.13167 4.45908 0 28.15977 -2.69777 0.44400
8.51494 -0.32587 2.52105 0 -26.72778 7.90573 0.29422
13.68864 -0.16877 5.83544 0 29.79977 6.41747 0.42528
-6.91499 -0.09916 1.39636 0 -23.50537 5.71364 0.20009
27.07511 0.04271 10.79341 0 -26.00750 0.08368 0.39850
-0.43405 -0.28499 0.86347 0 27.01230 7.91434 0.79208
-2.39811 -0.03745 1.00059 0 16.91119 -0.12328 0.38520
-0.85568 0.11268 0.26583 0 26.29463 -0.75144 0.20206
0.47589 0.20383 0.43089 0 -29.07426 -4.65938 0.38910
-0.30354 -0.00348 0.23203 0 -14.55268 -2.12876 0.22204
-7.40750 -0.17327 4.77176 0 27.59863 6.12479 0.63846
3.11606 0.22325 1.40244 0 -26.80514 -5.35406 0.42858
-2.71862 0.14163 1.34120 0 -0.49594 -5.31860 0.46309
1.49645 -0.01898 0.90448 0 -25.93772 1.67068 0.50261
-0.41641 0.26343 0.51189 0 27.76344 -6.64692 0.47258
7.54578 -0.11250 5.56142 0 12.32944 4.17342 0.73070
26.43597 0.14218 5.75440 0 9.97882 -6.67546 0.21774
16.54020 0.14563 10.25575 0 28.73328 -3.44175 0.61900
21.41148 0.05326 11.48163 0 -13.82008 -2.47881 0.53574
0.35134 -0.19862 0.36174 0 -23.34937 7.66439 0.34131
-17.33129 0.15180 7.47816 0 -19.51022 -5.71749 0.43088
0.84620 -0.26356 0.30086 0 29.84104 5.60925 0.22975
3.64760 0.05293 2.28897 0 12.62638 -0.66062 0.60532
-8.74151 -0.00697 4.30681 0 15.92598 1.33632 0.48959
6.01117 0.08790 3.26612 0 25.81485 -1.59568 0.53607
2.22914 -0.05726 2.31301 0 29.92142 1.25739 0.94679
9.49615 0.23078 11.22761 0 -21.56229 -6.37549 1.17587
3.89612 0.00636 1.65497 0 -25.94646 1.13396 0.41154
-3.20744 0.08231 0.86349 0 12.30192 -4.42816 0.25707
1.34494 0.08163 1.27399 0 21.23127 -3.04948 0.76020
0.34317 -0.06507 0.62405 0 -6.91916 2.90880 0.59027
-4.00394 0.19252 3.59432 0 -6.81946 -6.31902 0.87101
-10.02520 0.16647 3.75549 0 -13.15889 -3.50337 0.37288
-1.00465 0.06403 0.74368 0 -28.58500 -2.82500 0.52470
-0.70020 -0.25809 0.31877 0 -17.18452 5.73096 0.26118
-10.55513 0.20916 4.59671 0 -22.48211 -4.95546 0.43367
-6.20495 0.26830 6.32719 0 29.26091 -7.40941 1.00676
2.33027 -0.03463 0.55398 0 2.84652 -1.22303 0.21868
0.62567 -0.05598 0.63437 0 17.64717 2.71989 0.53781
7.85821 0.10378 16.97430 0 -16.09590 -3.27499 2.14281
0.50909 -0.18107 1.23171 0 -15.66539 6.00504 1.09767
-1.97708 -0.09741 0.73652 0 -26.21047 1.45608 0.33255
-1.38443 -0.02935 0.87873 0 -26.89482 -0.03208 0.51460
-25.36910 0.21047 10.84120 0 29.86695 -7.53470 0.42712
-7.93416 0.27839 7.47376 0 -24.50010 -7.66477 0.93463
-0.85355 0.04672 0.90594 0 9.62174 -0.57734 0.68908
5.86480 0.08522 2.35365 0 -29.67612 -1.17696 0.39578
-6.35614 -0.04373 3.19450 0 -29.90342 2.42991 0.49657
-11.77207 0.00414 7.50766 0 26.40029 -0.84794 0.63554
-13.46980 -0.01369 13.01017 0 26.73797 1.02326 0.96328
0.28990 0.00814 0.54735 0 26.86656 -1.13697 0.52571
-1.73215 -0.15184 0.46654 0 24.05116 2.40805 0.23340
-2.27146 -0.19952 1.24948 0 -1.45203 7.15957 0.50355
-9.33737 -0.05207 6.42378 0 -16.89838 0.89458 0.68412
0.60587 0.13375 0.71048 0 23.85559 -3.07337 0.60767
-15.43357 -0.29953 4.20341 0 -2.19319 7.00084 0.27196
-5.01515 -0.15840 1.48335 0 2.17326 6.70367 0.29015
14.92716 -0.00577 4.34794 0 -15.52983 1.50873 0.40842
-1.84629 0.26241 2.75651 0 6.10905 -7.36365 1.31283
-4.01835 -0.00733 1.52303 0 29.41940 -1.09002 0.36796
0.20617 -0.10799 0.57870 0 -17.00439 4.24555 0.56678
13.20131 0.27034 7.03591 0 -3.68309 -6.97770 0.53154
11.20373 -0.04973 5.88941 0 26.59373 0.59547 0.52368
0.70952 0.00893 0.31090 0 21.88182 -2.21395 0.25360
-0.23640 0.11681 0.39058 0 -29.97812 -2.06228 0.38011
1.33048 -0.01747 0.98952 0 -6.57657 -0.25444 0.59458
4.12066 0.23662 3.31170 0 -27.45739 -7.73544 0.78105
1.73775 -0.19029 0.83653 0 -16.97662 4.51594 0.41732
1.07443 0.28001 1.21231 0 22.06177 -7.63384 0.82597
-5.58717 0.15473 2.30299 0 22.58255 -3.27018 0.40578
0.10218 0.05391 0.72196 0 -25.10224 -2.25298 0.71823
-4.50157 0.02146 2.04526 0 -25.58094 -1.71911 0.44363
-3.92299 -0.17648 2.61994 0 14.57349 6.21092 0.64726
-1.80031 -0.24470 1.18866 0 -29.19111 6.46936 0.57725
-8.45181 0.05579 2.62029 0 14.88538 0.06940 0.30804
-1.48898 0.08394 1.54616 0 -8.29663 -1.83944 0.86207
4.98613 0.15611 3.99392 0 27.63464 -3.93156 0.78545
3.15717 -0.00137 1.05038 0 -29.08997 1.73750 0.31743
1.10122 -0.04355 1.15458 0 -26.63939 0.72843 0.77622
-18.20524 -0.22597 7.72234 0 1.26339 5.58189 0.42366
0.13824 0.00098 0.79027 0 -11.32374 -0.60142 0.78282
-4.20018 0.22846 1.70911 0 -28.86370 -5.40410 0.39596
0.63622 0.24034 0.74140 0 -28.14865 -6.25100 0.62555
-9.87160 -0.11754 5.83618 0 2.89024 2.72567 0.58828
12.18474 -0.18925 4.66902 0 -21.55157 4.36929 0.38203
15.93983 0.06499 9.66119 0 10.92504 -2.72246 0.60499
-0.46965 -0.25867 0.31490 0 -3.98344 5.91906 0.28506
4.30405 0.16077 3.41350 0 27.20611 -5.43450 0.77258
1.44806 -0.19266 0.84367 0 -28.20247 7.00439 0.47948
-10.46157 -0.11360 5.70630 0 -20.86688 2.53559 0.54307
1.10274 0.07912 0.60617 0 -19.31440 -1.03158 0.40725
-1.74900 -0.00338 0.48719 0 -29.61348 -1.93915 0.24199
-0.91354 -0.18873 0.63684 0 -29.97210 4.62361 0.47530
19.12158 0.03962 11.85057 0 29.76266 -0.28080 0.61898
-9.96855 0.28048 6.49477 0 -9.00548 -7.46253 0.64835
-0.21758 -0.09009 0.52540 0 -26.99102 1.78096 0.51339
-0.28869 -0.01341 0.38146 0 27.34751 1.88338 0.36650
-19.06849 0.15407 13.42306 0 21.31440 -5.30020 0.70304
-4.98605 0.16397 3.15084 0 -22.53886 -3.98643 0.61963
7.65656 0.19095 3.84218 0 -13.03455 -6.74703 0.49769
-7.14387 0.10620 2.02749 0 -29.94368 -4.98470 0.28124
3.47894 0.27712 0.66680 0 -22.46975 -5.26451 0.18440
-18.66722 0.15730 4.92698 0 28.94895 -7.30847 0.20549
14.62310 -0.03940 4.63582 0 -28.85746 -0.35368 0.31643
0.74650 -0.08680 0.27583 0 -21.75066 5.06998 0.22110
1.33149 -0.02877 0.49075 0 17.42665 2.69209 0.29481
-2.14653 0.17429 0.72298 0 -25.98301 -3.42560 0.30546
7.79999 -0.26692 4.58054 0 -14.92247 7.13047 0.58256
-3.89489 0.16627 0.70339 0 -22.63710 -1.93400 0.17509
1.37909 -0.04660 0.93331 0 -26.58503 0.54519 0.54793
-8.61048 -0.20948 7.08925 0 -9.61129 5.70477 0.81789
-24.52820 -0.18390 10.54809 0 29.53101 4.36428 0.42980
-8.58848 0.15158 5.26560 0 18.73406 -5.34258 0.60906
8.31146 0.12035 7.99348 0 -26.13012 -4.07889 0.95491
-8.52078 -0.09281 6.32501 0 -29.79808 2.16589 0.73731
3.29500 0.14263 2.45807 0 0.48600 -3.46434 0.71396
-2.10180 -0.06055 1.91976 0 -2.18378 2.52277 0.82486
1.36261 0.02868 0.52106 0 -26.20302 -2.44924 0.30836
14.65013 -0.20238 12.45248 0 26.81753 5.51753 0.84807
-2.25146 -0.17871 0.54041 0 -7.86456 7.97205 0.21948
21.36689 -0.05286 23.18107 0 22.66152 2.14153 1.08376
7.38138 0.18076 4.01737 0 11.64956 -4.35761 0.53942
4.40136 0.22558 2.36640 0 -28.75537 -7.75353 0.52433
-0.95605 -0.19328 0.32079 0 -0.87752 3.60440 0.23198
1.27107 0.13947 0.51581 0 29.58664 -2.47321 0.31901
9.67478 -0.01210 4.82223 0 24.46266 -0.58705 0.49589
7.61616 -0.00247 2.79685 0 -15.71790 1.56215 0.36423
12.27008 0.23651 13.10936 0 5.91658 -7.53915 1.06492
-10.07775 0.13937 7.06684 0 28.78757 -3.35059 0.69788
-26.85510 0.06348 16.30435 0 28.89331 -0.97788 0.60679
16.84249 0.00153 6.42328 0 17.35889 -1.30980 0.38083
-11.79574 -0.22567 6.83598 0 -29.99074 7.81905 0.57754
-7.92101 0.06264 3.85675 0 -15.38255 -0.73725 0.48317
9.38847 -0.00557 3.52070 0 16.28419 -1.12420 0.37302
8.49639 -0.12319 6.77499 0 24.70682 4.44081 0.79199
7.36199 -0.17901 4.60787 0 21.58124 4.59536 0.62028
-0.60921 0.12205 0.25682 0 25.07933 -6.03824 0.21821
0.16179 -0.17465 0.86606 0 -25.23865 5.95086 0.85494
3.31516 0.00698 1.27678 0 23.25686 -1.51791 0.36882
-17.79182 -0.08453 11.25240 0 -12.77416 3.43970 0.63153
-13.48194 0.18568 7.04153 0 -14.25862 -4.46824 0.52096
0.49149 -0.17769 0.46865 0 -14.92735 4.15490 0.42062
1.40793 -0.06935 0.62600 0 -4.62035 3.59423 0.36260
0.04034 -0.26851 0.33700 0 -26.85361 6.49293 0.33673
15.35554 0.04425 11.86303 0 29.82155 -1.91283 0.77099
7.43848 0.24570 4.66413 0 -29.48489 -6.40320 0.62151
3.07631 -0.07963 1.37946 0 8.87668 1.26597 0.42653
-1.04018 -0.05786 1.29267 0 -29.81736 1.24465 0.89592
-15.27736 -0.20345 8.02961 0 -4.88647 7.23559 0.52456
0.12041 -0.11942 0.53437 0 -22.74319 2.68623 0.53054
9.63629 0.00139 5.74635 0 28.71678 -0.82300 0.59322
4.20244 -0.16877 3.15664 0 18.71376 4.42039 0.73085
23.82629 -0.07594 7.00508 0 -10.72513 4.13534 0.29391
-0.14353 0.12241 0.25503 0 7.81665 -5.70694 0.25245
15.43471 -0.14710 17.95197 0 -22.17434 4.95098 1.16070
0.21531 0.19178 0.37844 0 -23.81633 -4.23611 0.36997
1.39679 -0.08956 1.02276 0 -2.65861 3.64199 0.59542
-9.47012 0.04025 1.92002 0 -9.54346 -3.70058 0.20186
4.23218 -0.19814 2.25121 0 16.42533 4.99215 0.51781
22.96307 0.08630 10.57863 0 29.52186 -3.63950 0.46035
-2.09189 -0.14207 2.87926 0 -26.91421 3.92094 1.24184
0.68138 -0.27436 0.31983 0 1.87544 6.22294 0.26434
-2.00232 -0.14374 0.91994 0 20.92756 5.69359 0.41113
-4.18460 -0.02950 2.22528 0 15.39241 1.95843 0.51749
5.31410 -0.06127 1.62475 0 15.37411 0.21619 0.30068
7.29889 0.09770 3.73825 0 -27.14253 -3.87940 0.50752
-5.07108 0.15493 2.23438 0 -0.49831 -5.80915 0.43235
-4.44855 -0.02185 2.88053 0 -16.62440 1.54790 0.63183
4.54154 0.29464 2.81399 0 -5.87351 -7.81664 0.60525
-11.06511 -0.10503 5.24772 0 -23.56169 4.34211 0.47244
-8.52519 0.09268 5.91730 0 23.92296 -3.45399 0.68944
-11.23891 -0.20079 4.07700 0 -29.09227 4.62953 0.36146
-2.09435 0.19510 1.93893 0 13.56123 -6.42439 0.83550
-1.50133 -0.11017 1.26106 0 -20.96766 4.13522 0.69914
0.93890 0.09999 0.74181 0 -1.03704 -3.88475 0.54083
2.82892 0.13828 0.85753 0 19.39829 -2.25210 0.28602
-0.98721 0.01122 0.69515 0 -29.48733 0.77838 0.49474
0.25371 -0.25814 1.12780 0 27.25680 7.31495 1.09390
23.16849 0.23325 20.74783 0 -12.34828 -7.54079 0.89474
16.22104 -0.04810 5.79759 0 28.37830 2.97149 0.35687
9.05385 0.11887 6.22920 0 -21.42813 -4.25309 0.68393
1.09072 0.09671 0.50479 0 11.38378 -4.35807 0.34120
1.05476 0.25884 1.12305 0 -11.57642 -6.96296 0.77271
-1.72741 -0.23220 0.47452 0 17.98819 4.78690 0.23785
-6.74760 0.02673 2.15017 0 9.74490 0.90208 0.31537
-6.21432 0.03090 2.90865 0 -2.27470 -1.95721 0.46221
9.76512 -0.14865 3.15040 0 -26.78668 2.91711 0.32109
11.54877 -0.05055 5.50685 0 23.29797 2.68303 0.47516
3.16822 0.04122 1.11138 0 -18.83462 -2.69703 0.33466
4.31390 -0.08635 0.87750 0 26.28168 5.33948 0.19823
1.97642 0.15090 0.56538 0 2.29786 -6.56925 0.25539
-13.14329 0.11596 5.09034 0 28.95380 -4.76429 0.38631
-0.17516 -0.19429 0.32834 0 11.42821 4.26864 0.32342
1.46515 -0.21368 1.13289 0 -25.87099 7.35812 0.63870
17.65950 0.09884 11.70549 0 22.74411 -3.67229 0.66186
-18.59733 -0.24758 7.53650 0 4.85759 6.15434 0.40478
9.32206 -0.13068 2.38223 0 14.67352 6.11073 0.25428
-1.32626 -0.11158 0.87771 0 22.78808 2.44933 0.52848
-4.00641 0.11969 2.62263 0 -25.51409 -4.33736 0.63531
3.91405 -0.19721 3.89850 0 22.31703 6.56244 0.96510
16.99160 -0.05478 4.34643 0 2.07866 0.14004 0.32307
-2.95832 0.17655 0.90603 0 18.81223 -3.40344 0.29034
3.28104 -0.05585 0.86593 0 -29.91408 -0.27020 0.25261
11.41834 0.27071 5.00969 0 29.54576 -6.76575 0.43718
7.56960 0.15778 6.71576 0 -15.05155 -5.25900 0.87961
-1.98007 -0.10640 1.68441 0 -23.51386 2.59158 0.75938
0.36406 -0.01518 0.77449 0 -7.99341 1.24013 0.72777
4.99145 -0.16395 1.91026 0 -28.10928 6.44180 0.37535
0.91463 -0.21508 1.53002 0 -27.39437 7.01958 1.13325
-12.61431 0.16887 9.17087 0 27.85010 -5.72675 0.72481
21.20566 -0.23635 9.47779 0 24.33999 5.95047 0.44656
4.41689 -0.09065 1.06323 0 -7.98564 0.61456 0.23485
4.36217 0.24320 1.39913 0 -29.56480 -5.47592 0.31290
-21.41406 -0.22890 11.95696 0 -1.62617 5.97200 0.55785
-9.83185 0.09318 2.02181 0 26.21341 -0.20741 0.20482
2.13895 0.10690 2.49818 0 20.62369 -3.61884 1.05809
4.73773 0.28153 2.24884 0 29.46216 -7.15522 0.46461
-0.97666 -0.27628 0.80742 0 5.22421 7.39703 0.57767
3.04702 0.12883 1.12690 0 28.77151 -5.29693 0.35154
19.07750 -0.15748 7.74932 0 21.63402 6.13279 0.40576
-12.95291 -0.26833 16.39972 0 21.26805 7.68499 1.26238
-1.46243 0.14465 1.46087 0 29.12745 -3.62244 0.82463
0.99132 -0.07433 1.24794 0 -29.99906 2.89446 0.88628
-4.62769 -0.12028 4.75926 0 -13.95213 3.17213 1.00526
3.87792 0.09567 0.60598 0 8.82944 -6.33435 0.15145
8.80190 -0.05311 4.58181 0 -29.97387 2.67147 0.51731
-2.75029 0.20830 1.03540 0 16.49177 -7.74354 0.35386
-1.56659 0.25048 0.85200 0 16.61236 -6.23298 0.45849
