-0.61605 0.31245 0.23738 0 -29.92843 -6.51530 0.20217
-0.66134 0.19931 0.92209 0 29.99873 -6.60939 0.76913
2.47672 0.33503 0.61825 0 -20.63989 -7.49295 0.23154
-3.12202 0.25482 0.71390 0 -13.58562 -5.07092 0.21787
-0.23300 -0.30361 0.39570 0 14.13165 7.71377 0.38538
-0.44859 0.28234 0.57643 0 -25.93900 -7.31768 0.52595
5.82104 -0.18995 3.69778 0 25.34030 4.92716 0.62620
-15.61754 -0.11714 4.03846 0 7.92380 1.59750 0.25824
-1.82192 0.04167 0.74664 0 27.31192 0.25492 0.35934
-0.58816 0.03933 1.03361 0 8.65818 -1.67492 0.89095
-2.80831 -0.15483 0.57016 0 -29.91515 7.59836 0.19139
0.30771 0.12049 0.58911 0 21.76621 -2.61164 0.56306
-0.19480 -0.04601 0.87448 0 -28.38166 0.86508 0.85835
1.15143 -0.04048 0.93081 0 10.04311 0.45744 0.61039
3.63543 0.03681 0.92309 0 5.47412 1.06720 0.24498
1.05777 0.01996 0.79225 0 14.29490 -1.45920 0.54431
1.63978 -0.14824 1.16211 0 -21.99199 3.66240 0.60511
2.46800 -0.26478 0.91098 0 -0.58723 6.41081 0.34221
-6.25804 -0.08583 2.17602 0 -10.61209 1.16067 0.34350
6.70670 -0.15612 2.08630 0 9.94151 3.06775 0.30783
-2.28899 0.00896 1.24921 0 -5.57374 0.83515 0.50015
-4.15117 0.12788 2.19090 0 -21.66633 -2.74202 0.51316
8.44780 0.08186 2.36870 0 -10.25197 -4.25379 0.27862
-1.57765 0.21878 1.56344 0 -15.47042 -7.14337 0.83706
-26.27654 0.15048 11.10920 0 27.85616 -5.70186 0.42259
0.17937 0.06101 0.57417 0 -11.00672 -0.84193 0.56515
20.73143 -0.00194 7.04096 0 -11.98694 1.64977 0.33938
8.03051 -0.17514 4.00750 0 -17.98249 6.43009 0.49531
0.10049 0.27607 0.89136 0 23.02526 -7.56423 0.88690
1.11211 0.29551 0.55904 0 -26.83526 -7.33824 0.39118
-1.50817 0.00831 0.38455 0 24.22798 2.24834 0.21265
0.10576 -0.25697 0.43471 0 18.26454 6.51341 0.43230
0.37323 0.11981 0.49474 0 -29.02515 -2.39489 0.46352
-1.96056 -0.26608 1.02082 0 1.43541 7.04653 0.54810
5.07926 -0.21471 5.74666 0 7.17250 7.01867 1.11012
-1.87636 0.01205 1.53695 0 21.78112 -0.98835 0.72290
10.69956 0.14786 2.63571 0 26.62921 -2.23706 0.24547
-1.65115 -0.13227 1.27160 0 -10.83659 4.85182 0.65878
-11.78696 -0.24081 8.64651 0 11.51345 6.55278 0.73101
-0.83600 -0.03216 0.30249 0 18.14728 3.27389 0.23215
2.53769 0.01455 1.17468 0 26.52314 0.83235 0.43075
25.74080 0.14894 19.13521 0 4.13490 -5.10347 0.74289
12.02949 -0.08180 5.96715 0 25.60459 1.49583 0.49444
-2.19689 0.00232 0.48930 0 19.34385 2.54849 0.20286
-10.19211 0.08910 2.45476 0 27.39396 -4.78723 0.23990
7.01237 0.22187 3.96348 0 -12.11915 -5.60580 0.55964
-2.54143 0.03253 0.87227 0 -28.80231 0.70703 0.31945
-3.73290 0.16105 1.27243 0 -2.13718 -3.15996 0.32935
-18.39123 -0.03988 6.49410 0 -18.77024 2.73935 0.35273
-2.45519 -0.15176 0.57177 0 0.56978 2.22564 0.21575
0.09142 -0.03176 0.41057 0 -28.40854 2.29166 0.40887
16.71126 -0.10578 8.60639 0 -21.42847 4.27379 0.51418
3.09813 0.06495 2.46290 0 6.00839 -1.18899 0.75663
-17.92745 -0.14237 9.25485 0 -24.24214 3.33917 0.51553
-4.86845 -0.25097 1.66334 0 -12.12571 5.97538 0.33477
2.61772 -0.15572 1.25298 0 9.20681 3.58037 0.44723
-9.97056 0.01680 7.14883 0 -22.39917 0.29383 0.71348
-1.10399 0.25171 0.94227 0 -28.22816 -6.60162 0.63700
-2.56843 -0.01042 0.95035 0 5.81040 1.80248 0.36406
-7.27278 -0.13545 5.90226 0 -18.56702 3.49491 0.80405
-0.92139 -0.07507 0.66874 0 12.68583 1.28956 0.49186
-15.07116 0.14058 3.14558 0 -13.61256 -1.65204 0.20849
3.77197 0.29635 0.85890 0 -15.89214 -6.27961 0.22021
19.23670 -0.03242 11.03494 0 -29.79355 1.94988 0.57295
9.31908 -0.14330 5.19613 0 27.00580 3.43745 0.55448
-14.19783 0.18690 3.92497 0 -14.73532 -3.61285 0.27594
2.78973 -0.19039 1.10707 0 24.17283 4.37201 0.37364
2.24692 -0.14652 1.35370 0 -22.89346 5.44532 0.55053
-6.47251 -0.10469 1.31098 0 29.90993 0.65652 0.20041
2.34889 0.26381 1.04378 0 16.84982 -6.47860 0.40896
-25.27616 -0.15012 24.04247 0 28.65027 5.14414 0.95050
-6.97348 -0.11385 4.30024 0 -29.99428 2.64785 0.61049
-0.37353 0.08244 0.25275 0 -10.57733 -4.61092 0.23680
0.16096 -0.01141 0.71599 0 18.18919 1.14747 0.70690
-0.29355 -0.18525 0.60717 0 -16.79473 4.72512 0.58259
-2.69558 -0.13941 1.08328 0 22.06134 2.88254 0.37697
-1.13417 -0.13554 0.77431 0 -0.19518 5.18391 0.51214
-6.45529 0.16553 3.14158 0 27.70667 -6.00611 0.48103
-8.53660 -0.03875 5.78351 0 23.80536 2.00705 0.67297
-2.47401 -0.17384 2.01480 0 26.94645 6.01047 0.75513
0.73998 0.15691 0.44779 0 22.00740 -6.12493 0.35999
0.20756 -0.10209 0.47279 0 19.18432 4.27546 0.46293
21.24830 -0.21285 9.06615 0 -28.43225 5.20518 0.42632
17.12992 -0.18602 9.69300 0 29.55377 6.62594 0.56498
2.03307 0.18479 0.87970 0 -3.64273 -6.87277 0.38837
-2.60208 0.00550 0.62641 0 -18.97209 2.20160 0.22479
-1.64860 -0.15946 2.42634 0 2.18386 5.28872 1.25837
-0.99765 -0.29828 0.51593 0 29.98880 7.48063 0.36531
-0.14006 -0.01194 0.84261 0 -29.82107 1.05254 0.83447
-9.50965 0.13929 3.70965 0 23.62768 -5.47300 0.38808
1.67120 0.19524 2.09356 0 -26.57743 -5.27592 1.07502
0.67559 0.10436 0.48770 0 -10.85283 -1.77321 0.40416
20.69609 -0.20065 29.90145 0 4.57266 6.47841 1.44314
-0.37394 -0.05953 0.73076 0 -21.41454 1.11817 0.68448
2.97889 -0.10817 2.24584 0 27.63006 4.05831 0.71487
18.17353 -0.18354 4.30399 0 -1.42056 7.69607 0.26232
-3.30242 -0.10477 0.78923 0 -14.69478 0.97685 0.22887
-11.72559 -0.18668 10.86916 0 13.43889 5.14222 0.99153
-16.39648 -0.07348 10.88222 0 9.91826 3.12452 0.61717
-12.87837 0.16937 4.94589 0 6.51398 -6.41693 0.38302
0.37163 0.02435 0.32433 0 5.58462 0.96003 0.31798
-0.06612 -0.08046 0.38584 0 -22.00006 1.16144 0.38500
1.35280 -0.06685 0.43544 0 -0.09366 4.10072 0.25893
0.78709 -0.08498 0.52416 0 3.04915 1.38308 0.41195
-0.65844 0.23798 0.71999 0 25.56208 -6.14677 0.60136
-1.65278 0.12112 1.71262 0 -9.24955 -4.14457 0.88660
-2.51597 0.28841 1.52309 0 22.88666 -7.56413 0.56268
5.17670 -0.00900 2.76959 0 -18.47425 -0.62228 0.52541
20.36937 0.14058 6.98320 0 -0.75881 -5.69875 0.34256
24.62856 -0.14352 8.73802 0 10.34079 5.89755 0.35464
-0.19349 0.27603 0.44092 0 24.32339 -6.90814 0.43289
1.04218 0.20438 0.52224 0 -27.41198 -7.58712 0.36162
2.95294 -0.20818 1.50777 0 -27.64656 7.47145 0.48370
0.37637 0.14452 0.28749 0 11.05352 -6.25935 0.26909
-17.75993 -0.17001 7.30355 0 16.13673 6.50164 0.41071
2.11370 0.12269 0.62710 0 -28.82397 -5.58749 0.26830
2.61571 -0.13869 1.53057 0 -29.32407 5.21352 0.54670
-5.34847 -0.05211 3.37003 0 24.40504 2.47609 0.61945
-0.48377 0.00318 0.53979 0 -27.92794 1.03891 0.48594
0.30242 0.15234 0.52037 0 27.38315 -5.56388 0.49810
-8.45653 -0.03369 6.57181 0 25.54510 0.42934 0.77182
16.23447 0.14671 4.69863 0 -29.90139 -6.18533 0.28904
-1.02757 -0.07800 0.84301 0 -29.89805 3.30331 0.58798
21.08945 -0.05369 8.66540 0 -29.35347 0.44491 0.41055
-3.13968 0.12486 1.49798 0 -12.76074 -4.82786 0.45469
14.37877 -0.21283 5.52032 0 -22.48531 7.92337 0.38312
0.58516 -0.19776 0.35501 0 16.78006 7.82778 0.30644
-6.66790 0.19486 4.57597 0 8.94127 -4.97555 0.67875
-14.36860 0.08978 6.10187 0 -6.69838 -1.39802 0.42376
21.76967 0.03481 17.97137 0 13.22136 -1.58522 0.82471
1.97224 0.11821 0.52798 0 1.06693 -5.69869 0.23898
2.62136 0.27760 1.31613 0 -6.33433 -7.05237 0.46921
0.71926 0.09332 0.47488 0 -25.31004 -4.07554 0.38555
-1.07265 0.25166 0.28080 0 24.83994 -4.64856 0.19156
8.27452 0.08499 4.14975 0 -8.71546 -1.43559 0.49798
-0.52462 0.18373 0.34863 0 -15.74062 -7.21333 0.30877
-0.71887 -0.06631 0.57492 0 2.25069 3.17948 0.46685
-17.71763 -0.06451 3.76262 0 17.12067 -0.39725 0.21226
0.02214 -0.12426 0.51376 0 18.77504 4.83695 0.51364
2.00920 -0.10081 0.89304 0 -25.20964 1.81042 0.39802
0.10154 0.12746 0.36874 0 -27.37529 -5.19036 0.36686
1.49791 0.13695 1.66250 0 -3.61859 -4.59985 0.92311
3.21020 0.27360 1.65741 0 -0.96391 -6.99221 0.49305
1.56433 -0.08100 1.23817 0 28.41578 3.28893 0.66694
9.76102 -0.17134 5.72247 0 -4.56012 6.14684 0.58329
2.37587 0.16376 0.46113 0 -29.36778 -1.92481 0.17898
22.66042 0.24730 25.69591 0 24.67401 -7.83497 1.13290
3.05768 0.13754 0.84924 0 26.94377 -6.08091 0.26412
7.70048 -0.04565 2.70371 0 19.80224 2.93285 0.34832
0.26669 -0.24319 0.74321 0 -27.35990 6.60964 0.71812
-1.07392 -0.26606 0.60494 0 29.63868 6.71734 0.41230
-6.28900 -0.01725 3.42778 0 -28.56844 -0.35109 0.53837
3.27567 0.20974 1.28119 0 -29.28949 -4.77869 0.37417
-3.81777 0.04236 2.57867 0 -28.37970 -0.40634 0.65345
-12.35120 0.19951 6.92066 0 -4.04239 -6.88763 0.55858
-3.85788 0.16904 4.57508 0 9.69370 -4.52780 1.14802
5.12129 0.05321 3.24963 0 -29.95462 -2.34221 0.62282
-15.08755 -0.13133 6.35594 0 29.64298 5.28422 0.42046
6.45108 0.11112 2.37404 0 -11.22214 -1.83301 0.36379
-0.31086 -0.25928 0.52962 0 -6.41564 6.76370 0.50575
-0.95132 -0.08818 0.98833 0 12.98093 3.45222 0.71610
-2.52595 0.05577 1.11199 0 27.47384 -0.34111 0.40938
0.30569 -0.04533 0.93230 0 11.58830 2.01751 0.89158
0.69357 -0.09337 0.67303 0 -14.98408 3.82507 0.55306
-8.22170 0.21147 6.68337 0 0.75122 -6.94575 0.80701
-0.08273 0.10962 0.53581 0 -29.77173 -4.18979 0.53398
-5.93802 0.05602 1.25396 0 1.14017 -4.10364 0.20842
0.24941 0.19863 1.07266 0 -4.13717 -5.36061 1.04078
-0.28916 0.10310 0.98346 0 23.31264 -3.56376 0.94476
-0.82519 0.29050 0.44871 0 -29.82603 -7.01017 0.34614
12.72945 -0.17180 8.63178 0 -29.47484 6.03248 0.67608
-0.12355 -0.28935 0.69169 0 28.94318 7.93341 0.68647
16.41959 0.11980 5.28958 0 -29.38795 -1.90542 0.32171
14.47385 -0.28498 6.04369 0 29.45403 7.28171 0.41668
10.33357 -0.13061 6.18822 0 -3.41192 3.12589 0.59614
-2.48043 -0.25466 2.67736 0 -20.31716 7.16493 1.00120
-0.58238 0.00638 0.51251 0 9.50970 1.04502 0.44292
-2.16413 -0.05750 0.65906 0 29.57104 -0.04519 0.27654
11.79711 0.00323 4.78578 0 -8.20448 1.25034 0.40434
11.93835 0.06062 9.44699 0 10.77085 -1.08713 0.78861
10.59723 0.00719 7.29202 0 -29.49113 -0.88118 0.68513
2.23573 -0.29786 0.78506 0 10.17896 7.25889 0.32069
0.92790 0.23728 1.85693 0 3.31638 -7.44740 1.36122
-7.63775 0.04819 4.22078 0 -25.03221 -0.43040 0.54803
0.45471 0.10230 0.40962 0 1.15945 -1.60556 0.37290
1.44966 -0.20701 0.48342 0 -20.77077 4.35212 0.27459
8.15780 -0.05484 2.31442 0 11.58698 3.56778 0.28177
22.02603 -0.08424 20.77286 0 -16.94060 3.15867 0.94219
7.07444 0.29056 2.53531 0 -28.95090 -7.05139 0.35498
0.48147 0.05341 0.28823 0 -22.02049 -3.32040 0.28815
-12.38884 0.10490 3.72074 0 10.20056 -1.35963 0.30191
-15.89492 0.22813 13.39088 0 -21.94765 -7.42508 0.84086
-4.62931 0.17251 2.30068 0 11.24254 -6.20849 0.48589
0.97059 -0.23106 0.78525 0 -5.62064 6.04525 0.56352
-12.38185 -0.14451 4.90912 0 -14.98931 5.76989 0.39531
-13.20221 0.32787 3.66892 0 15.90752 -7.68483 0.27728
-9.39059 -0.09112 2.80920 0 -2.95119 1.08833 0.29763
13.32879 -0.22806 10.00864 0 -12.41774 6.19401 0.74886
0.26074 -0.09580 0.43026 0 -19.52010 1.71823 0.41634
0.70550 -0.06611 0.59007 0 20.95322 3.13802 0.48219
-11.36853 -0.14845 3.93551 0 15.92945 3.02260 0.34498
-17.11255 0.08463 7.25697 0 9.36659 -1.24383 0.42347
-3.80696 0.20422 2.73975 0 -15.12070 -5.27211 0.69617
-1.18259 -0.28540 0.35881 0 25.21850 6.25314 0.23182
-1.13463 -0.09989 1.22422 0 -25.09210 3.72173 0.80949
19.03070 -0.18529 10.29289 0 -6.71481 4.65540 0.54020
13.97288 0.14107 3.19075 0 1.99596 -6.52482 0.22798
-17.10261 -0.28982 4.55351 0 29.68512 6.67831 0.26598
3.43310 -0.16910 1.65499 0 -29.86163 4.13126 0.51596
0.21013 -0.01495 0.41055 0 -29.99846 -0.74354 0.40178
-4.94433 0.17793 3.57227 0 29.83735 -4.50660 0.70828
-0.56033 0.08062 0.60946 0 -29.29155 -3.31426 0.53171
-1.17948 -0.14493 0.40343 0 20.28971 6.49830 0.26103
8.86809 -0.08587 1.87404 0 29.79660 0.21679 0.21022
14.30524 -0.06717 17.20360 0 2.81627 1.66803 1.19972
0.14282 -0.07184 0.77092 0 -4.97953 1.56323 0.76318
-1.06875 0.07255 1.39339 0 -13.42926 -1.55523 0.95203
5.37749 0.08468 3.73084 0 -29.98676 -1.70451 0.68213
-6.29520 0.15883 3.62013 0 -1.99894 -3.75755 0.56802
-10.97364 0.27027 5.42303 0 9.50900 -6.89319 0.49225
-16.65347 -0.14518 6.30090 0 26.78413 5.85425 0.37780
-0.33383 -0.28582 0.28665 0 29.99212 6.60817 0.27191
-20.97961 0.19996 9.31740 0 5.33685 -4.71289 0.44372
-13.21484 -0.22372 7.94247 0 -1.11765 7.72336 0.59939
1.13969 0.08613 0.56044 0 -22.94136 -1.11284 0.36969
-0.55352 0.03966 0.80164 0 4.35493 -0.37900 0.70138
0.26050 0.19612 0.47393 0 0.00064 -4.63840 0.45863
-4.85791 0.22710 3.56521 0 27.76699 -7.50754 0.71894
2.30970 0.05420 1.02920 0 -29.81541 -2.80798 0.40898
7.11328 -0.21665 5.54103 0 4.68637 5.87757 0.77145
5.27921 -0.21557 7.66117 0 -21.28583 6.93434 1.42590
3.10766 0.14483 0.53753 0 -22.01242 -7.60419 0.16475
2.59063 0.04985 1.30313 0 19.52286 -0.32369 0.46936
10.70557 0.11292 4.87316 0 -11.18126 -2.16516 0.45333
-0.77956 -0.20994 0.46704 0 11.30415 4.92480 0.36839
-0.51966 -0.16329 0.46526 0 10.51196 6.28793 0.41287
-2.00760 0.14766 0.89789 0 -6.21475 -5.68666 0.40043
-0.03532 -0.13632 0.48262 0 4.10930 5.27251 0.48231
-12.02209 0.11075 6.66773 0 -28.37572 -4.19029 0.55280
4.80065 -0.24704 6.21191 0 -27.92440 7.05425 1.26685
3.80591 0.08408 3.05024 0 18.97675 -1.77684 0.77523
-0.64831 -0.08565 0.60992 0 -24.86662 3.66751 0.51181
0.39797 -0.02582 0.40764 0 -21.68490 -0.49471 0.37877
13.31152 -0.12093 3.20086 0 28.79273 1.55857 0.23998
0.42524 -0.01135 0.65325 0 -21.33055 -0.42887 0.60117
11.99587 -0.10833 2.50177 0 -19.11239 0.85849 0.20806
4.48721 0.17992 4.41970 0 12.68785 -5.87799 0.96144
-26.74416 -0.01728 6.19734 0 19.88436 2.82371 0.23178
-21.99739 0.18133 9.25474 0 25.78349 -6.65659 0.42040
-0.32567 -0.29653 0.47860 0 24.47387 7.72940 0.45508
-3.73439 0.13761 1.41911 0 -27.79945 -5.50051 0.36727
-0.95819 0.04548 0.62321 0 -2.45207 -0.14603 0.45003
-0.59808 -0.07687 0.73114 0 8.37479 1.56836 0.62750
24.56467 0.13445 10.84947 0 0.72679 -5.15620 0.44141
-8.93764 -0.26698 5.83452 0 -15.94662 7.22893 0.64883
0.45920 -0.00457 0.44211 0 -23.77473 1.49327 0.40179
-0.67328 -0.00436 0.56828 0 24.91630 -0.87336 0.47143
-4.99980 -0.11447 2.48256 0 -27.56153 2.45221 0.48696
-23.70340 -0.10194 17.40873 0 27.44189 2.43512 0.73385
3.54024 -0.04451 2.21584 0 27.50209 0.56707 0.60241
5.07912 -0.18893 1.57858 0 -3.16910 4.01443 0.30501
5.59263 -0.18931 2.43919 0 -1.37749 7.03720 0.42940
-0.84889 0.15119 1.38276 0 -29.99953 -3.95506 1.05417
27.16598 0.00800 10.42981 0 29.99703 1.17500 0.38380
23.40960 0.05176 17.27105 0 -28.32772 -2.16984 0.73717
4.06795 0.22002 3.01578 0 -16.16897 -7.29003 0.71999
-0.44732 0.03211 0.87842 0 22.68775 -1.52160 0.80187
8.87220 -0.17125 5.47315 0 -9.69114 4.35583 0.61308
1.87681 0.10806 1.06273 0 23.05868 -4.21025 0.49980
3.28283 0.04896 0.96777 0 -19.83964 0.42686 0.28210
25.46473 -0.01875 18.71004 0 12.90466 -0.05256 0.73424
-10.16580 -0.28797 4.76101 0 -22.37741 7.50951 0.46619
-15.23356 0.27454 8.69956 0 -5.82506 -7.17060 0.56994
21.02344 0.22954 11.43186 0 1.13324 -5.80257 0.54324
1.30073 -0.11119 0.77259 0 29.75139 2.31881 0.47096
-0.29308 0.19154 0.52538 0 -3.33025 -4.57173 0.48754
-1.39570 0.08839 2.19866 0 -21.43298 -2.16762 1.28057
0.84973 -0.09436 0.85466 0 9.03526 3.71197 0.65133
-0.59909 -0.28470 0.82532 0 -9.91708 7.82161 0.70801
-2.38042 -0.02454 1.29164 0 0.80475 -0.20433 0.50037
1.67517 0.17751 0.77387 0 -16.52738 -6.61762 0.39677
8.90733 0.17414 4.27137 0 27.70241 -6.28037 0.47664
-0.01949 -0.09690 0.56739 0 27.29134 3.90818 0.56728
8.79593 -0.26612 2.89567 0 -5.27713 6.37741 0.32725
2.58363 0.16517 0.49252 0 20.30623 -1.94801 0.17788
-3.18997 -0.19662 2.57613 0 -20.81088 5.28354 0.77069
-2.48915 -0.08993 0.81959 0 25.11375 4.49412 0.30570
3.87839 -0.05768 2.28098 0 -3.28781 0.91207 0.56957
1.79505 -0.10555 0.91231 0 -23.68830 4.42950 0.44410
-1.57932 -0.17155 0.60430 0 -26.85891 6.91447 0.32341
-26.30972 0.20883 9.07575 0 -27.86985 -4.63215 0.34485
-9.91055 -0.08131 5.40156 0 0.13258 1.57269 0.54237
-2.40175 0.25773 0.75584 0 -20.51210 -5.76527 0.29059
-0.90697 0.12764 0.89697 0 -23.16830 -4.54192 0.66443
-0.38637 0.23135 0.58413 0 12.67697 -5.85876 0.54488
4.01572 -0.14159 2.21741 0 -28.39766 5.32156 0.53588
5.23576 -0.10248 4.09654 0 21.20780 3.83453 0.76862
-7.20918 -0.05571 8.53475 0 -25.47218 2.19129 1.17269
-3.43464 0.15795 1.66911 0 -29.94630 -5.80896 0.46666
0.39641 -0.01958 0.37842 0 -25.50955 2.12864 0.35181
12.92799 0.15314 7.04891 0 -10.86078 -5.49691 0.54371
1.74350 0.14784 0.52626 0 -21.90765 -2.36843 0.26196
-0.35663 0.08784 0.24940 0 29.90288 -4.79572 0.23493
4.30453 0.14491 1.04302 0 14.91652 -6.56041 0.23616
-1.31478 0.11494 0.35953 0 18.19757 -1.00103 0.21776
-5.10463 0.12817 2.89937 0 -26.58167 -4.71169 0.55748
-0.08434 -0.28234 0.49460 0 -29.42616 7.40946 0.49285
-16.12510 -0.07628 4.72971 0 -18.10291 4.15209 0.29292
13.32047 0.01486 5.28330 0 -29.29978 0.92862 0.39564
2.97391 0.19965 0.91220 0 -29.98401 -7.82513 0.29080
3.04433 0.00941 1.89776 0 29.99425 0.64310 0.60566
2.63278 -0.06648 0.55399 0 -29.97747 4.58272 0.20892
0.41486 0.18213 0.66465 0 0.98721 -6.26693 0.61394
1.44683 0.00530 0.53231 0 27.14174 -1.77225 0.30278
0.71673 -0.10304 0.75732 0 -18.26134 2.33311 0.61557
8.08429 0.18518 5.20387 0 24.73944 -4.64045 0.63891
-21.19649 0.18611 5.16796 0 3.31942 -7.78171 0.24374
1.22092 -0.05194 0.53170 0 4.68410 3.17432 0.33700
0.03941 0.02736 0.23762 0 -1.86121 1.41819 0.23743
-0.37507 -0.00005 0.57603 0 -7.59698 1.03127 0.53935
4.21956 -0.07696 6.66264 0 -25.75884 2.72644 1.53648
-0.56664 -0.12054 0.75442 0 29.17444 2.90615 0.65639
5.42395 -0.13070 4.78620 0 29.43479 3.40091 0.86785
-4.05822 0.07061 1.07824 0 29.99854 -4.06002 0.25813
1.13065 -0.04574 1.77690 0 27.45149 1.88970 1.17722
22.90774 0.04770 4.62017 0 -27.00482 0.30042 0.31010
-0.31180 -0.23173 0.43881 0 -3.88370 5.73628 0.41893
-23.94962 -0.14310 19.94916 0 -29.99536 3.74467 0.83230
3.97464 -0.17866 1.66920 0 1.81397 6.77925 0.40736
-9.20963 0.14047 4.21232 0 -29.93230 -5.30445 0.45482
0.90199 0.06920 0.70401 0 9.81941 -2.98507 0.52281
7.84403 -0.04715 3.04983 0 3.87288 0.16944 0.38581
-7.88882 0.00386 2.20601 0 16.68773 -1.88383 0.27759
4.97446 -0.01687 1.62400 0 -0.50535 1.98682 0.36679
-21.81589 -0.24739 4.71831 0 -23.40862 5.77181 0.31509
3.98982 -0.19119 3.47754 0 -25.71347 6.46037 0.84550
-0.74173 -0.28517 0.56564 0 -12.71836 7.39702 0.45434
19.63314 0.02475 30.64924 0 17.82415 -0.98965 1.55911
-2.51239 -0.04045 0.96620 0 -17.66550 2.73741 0.35736
0.38746 -0.22918 1.13299 0 29.39249 6.43811 1.05647
17.35747 -0.10424 7.09874 0 10.27506 4.49392 0.40841
1.78707 -0.21178 0.82572 0 -29.34756 5.10268 0.40330
-1.38949 -0.21501 0.76764 0 -29.99633 5.33010 0.44846
-2.22627 -0.04723 1.76568 0 -25.34406 2.20897 0.72354
0.99601 0.14376 0.72572 0 -29.89433 -5.26778 0.51422
-6.82363 -0.00089 5.19669 0 -21.43881 0.78670 0.75359
-17.08304 -0.07432 5.41107 0 -26.18568 0.68999 0.31636
-6.75262 -0.28504 4.47330 0 28.61166 7.76808 0.65538
-0.07087 -0.20826 0.46238 0 -14.43929 5.16457 0.46123
2.30538 0.06623 1.10494 0 -7.79947 -3.08346 0.43975
2.58918 -0.07243 1.37811 0 -18.33179 3.29794 0.49661
-11.97468 0.09439 3.50786 0 25.97575 -0.99056 0.29209
-0.68800 -0.10043 0.38179 0 -27.60486 4.76705 0.31458
-7.20371 -0.18651 3.91530 0 2.48478 6.68901 0.53844
-6.46500 0.07248 2.72431 0 -0.08119 -3.33931 0.41655
17.02345 -0.13053 7.27245 0 3.31048 5.24116 0.42658
-1.20690 0.02418 0.59648 0 -17.00246 0.69968 0.38066
-15.12739 0.24454 14.99788 0 -4.78899 -6.69586 0.98933
-6.91654 0.00529 3.78169 0 10.24765 -1.02303 0.54122
5.05733 0.23268 3.84598 0 -18.08497 -6.16515 0.74605
0.10257 0.21950 0.61473 0 6.35170 -5.61698 0.61152
-0.49639 -0.24877 2.37511 0 -23.99874 7.28242 2.12743
-10.67975 0.14206 5.46481 0 27.65244 -3.15556 0.50956
10.01794 0.07249 5.36127 0 -1.85502 -1.12977 0.53261
3.43017 0.03732 2.52646 0 10.73360 -1.76447 0.70715
-8.27237 0.25000 6.61060 0 18.91634 -6.72051 0.79340
0.89846 0.04713 0.70530 0 22.22598 -2.31398 0.52469
5.19546 -0.21774 2.23803 0 6.88007 5.33909 0.42309
-6.96575 0.24543 2.48943 0 5.97782 -5.73832 0.35389
-5.32238 -0.16280 3.28739 0 17.91326 5.84977 0.60710
-1.94169 0.20252 1.28582 0 -14.09904 -6.92852 0.58879
0.67051 -0.08087 0.79068 0 -29.24803 3.29713 0.65674
3.74237 0.22898 1.73867 0 23.75790 -5.57875 0.44896
0.66181 -0.19418 0.36297 0 -27.36735 4.28193 0.32675
7.74752 -0.07092 5.65076 0 22.44475 1.49898 0.72343
5.92373 0.03056 1.04977 0 -12.29557 2.10283 0.17483
4.94957 -0.16367 1.04909 0 27.42283 7.64115 0.20788
2.88297 -0.10513 1.58123 0 -21.45237 2.23825 0.51830
1.39792 0.27372 0.79518 0 0.68545 -6.92258 0.46270
-7.29883 -0.15181 5.39698 0 -22.13404 3.91845 0.73265
0.35562 0.11612 0.38042 0 -1.57748 -4.87725 0.35844
-18.75587 -0.25254 6.87288 0 -16.82689 6.15829 0.36605
0.70640 0.19785 0.41336 0 28.80596 -7.49571 0.33767
2.04878 0.16730 0.55319 0 0.71614 -2.78370 0.24279
17.90733 0.09664 8.15912 0 -28.47511 -1.68554 0.45503
4.59718 -0.28836 1.65905 0 19.72371 7.14028 0.35272
7.23645 -0.07294 4.29998 0 -27.57661 3.14922 0.58870
-0.86591 0.09878 0.38570 0 -23.57685 -4.68779 0.29164
-3.44306 -0.18578 1.35627 0 -0.22004 4.25382 0.37833
-6.31469 -0.09234 1.77185 0 2.12312 4.70047 0.28418
23.20802 0.02208 5.86142 0 15.84449 1.44770 0.25252
-0.00807 0.06675 0.47680 0 9.18986 -3.00710 0.47678
8.25005 -0.13831 2.92589 0 -0.75429 5.74778 0.35221
2.56659 -0.01011 2.52874 0 21.84481 -0.17222 0.91812
-22.69472 -0.18872 8.99194 0 2.97330 7.12895 0.39595
16.99798 -0.06353 5.53173 0 6.29041 3.58448 0.32502
-7.07448 -0.09042 10.11069 0 23.60829 3.16048 1.41515
-11.24523 -0.12060 5.12063 0 -29.87044 2.55676 0.45368
5.80999 -0.19773 4.16966 0 18.89523 6.78668 0.70734
1.91676 -0.25184 0.96893 0 -26.65765 6.40823 0.44826
7.06291 -0.25315 2.69258 0 22.15752 6.22084 0.37759
16.60303 0.14567 3.90158 0 6.62724 -2.07742 0.23477
0.11144 0.19422 0.46799 0 -16.33666 -4.59875 0.46511
-5.65316 0.33438 1.05771 0 -28.99717 -6.86972 0.18436
0.09407 -0.06517 0.31569 0 -4.78649 0.40642 0.31430
-24.10334 0.02678 16.08285 0 18.81445 -1.49117 0.66674
0.50951 0.19293 0.68548 0 16.39264 -4.83161 0.61079
6.15876 -0.04712 2.99409 0 -24.56426 2.56843 0.47996
-2.01376 0.00718 0.41254 0 -27.69674 2.66998 0.18364
13.80204 -0.20653 7.49951 0 29.66735 7.29574 0.54203
1.83189 -0.24985 0.78407 0 -7.59759 6.11784 0.37578
2.64625 -0.07172 0.86219 0 29.84174 3.94151 0.30488
6.06127 -0.02779 3.78572 0 -9.01531 1.74713 0.61632
-2.84946 -0.04151 0.84901 0 4.15845 3.16487 0.28125
12.83474 0.03192 3.12162 0 -8.34927 1.23417 0.24268
24.51830 0.28214 11.06115 0 -5.52786 -7.13686 0.45087
5.06495 -0.09800 1.55360 0 19.91042 4.76876 0.30109
14.98227 0.18236 2.12177 0 29.99333 -3.24601 0.24539
2.38170 -0.00932 1.33614 0 27.64708 1.35089 0.51730
4.26303 -0.10962 2.18415 0 26.85032 2.33345 0.49897
7.27772 -0.06832 3.03904 0 5.94153 0.89197 0.41381
4.62238 0.24595 1.22929 0 4.95245 -5.21039 0.26008
-6.04761 -0.16269 2.39361 0 17.30336 6.34550 0.39058
-3.68050 -0.13010 2.14302 0 20.14411 4.92559 0.56193
7.07404 -0.01272 3.32539 0 -25.08574 -0.63572 0.46556
3.70238 -0.16437 1.98960 0 3.51675 6.05009 0.51891
0.59399 0.08606 0.69795 0 -15.44083 -3.36677 0.60009
-20.55362 -0.25094 11.17889 0 -22.53959 6.59371 0.54334
-3.60016 0.00811 1.92903 0 -0.02492 -1.15355 0.51635
-19.70302 -0.25571 13.48444 0 27.98127 6.94048 0.68358
2.74775 -0.01269 1.54565 0 22.17358 -0.50525 0.52867
-12.46421 -0.17492 11.18600 0 -25.78694 5.93077 0.89463
6.21693 -0.02374 3.16527 0 10.18448 1.81386 0.50277
-12.64896 -0.26535 7.56224 0 -29.52393 7.10582 0.59608
-12.12628 -0.10071 7.16003 0 -21.14655 3.99038 0.58854
-4.65493 -0.13551 4.57376 0 25.96704 4.69602 0.96070
-3.17095 0.13734 1.03044 0 -10.30593 -2.36384 0.31005
-3.72542 -0.14469 1.06308 0 27.46244 6.37705 0.27579
-4.35032 -0.13878 1.95418 0 11.91048 5.46118 0.43786
