-3.55888 -0.10165 2.57516 0 -1.38200 2.38901 0.69672
-3.20071 0.23259 2.05709 0 29.87416 -7.81075 0.61365
-0.05779 0.18620 0.48103 0 28.01407 -4.39783 0.48023
0.91284 0.08211 2.24271 0 26.16970 -2.07079 1.65639
5.75154 0.08729 1.23052 0 -14.54298 -0.10480 0.21091
-7.22303 -0.02769 3.11389 0 -27.41783 2.11445 0.42714
-0.50859 -0.12470 0.60899 0 23.71388 2.86532 0.54284
-6.84749 0.04226 1.71524 0 -14.49464 0.87727 0.24806
2.22355 -0.25557 0.80558 0 27.43652 6.08833 0.33054
-5.88884 0.24502 6.60170 0 -10.01764 -7.77814 1.10527
-16.61586 0.08389 8.65365 0 9.20887 -3.43563 0.51996
-4.69808 0.07315 5.68796 0 -0.97358 -2.54944 1.18420
-0.84303 0.06824 0.88326 0 13.93042 -2.73115 0.67535
-0.33308 0.05520 0.70850 0 17.05519 -0.81243 0.67220
19.49703 -0.03879 9.63673 0 -29.65783 0.20886 0.49372
21.23002 0.22864 17.53477 0 -26.42080 -6.11525 0.82509
-1.54640 -0.14044 0.62674 0 18.73504 2.76616 0.34045
4.09698 -0.18809 2.95879 0 -29.94854 4.95903 0.69783
-21.78897 -0.11478 6.75541 0 9.89335 1.75506 0.29163
3.06288 0.25630 2.25037 0 -16.82322 -6.81233 0.69847
-4.23537 0.01703 2.17553 0 28.50815 0.53190 0.53172
27.09699 -0.05328 7.55297 0 10.12749 -0.12082 0.28429
2.92913 -0.13761 3.81556 0 2.05555 3.78449 1.23279
2.49506 -0.01117 2.93695 0 2.28096 -0.05143 1.09267
4.74007 -0.29588 2.07322 0 27.34979 7.63323 0.42802
-15.70744 0.15025 9.49761 0 -0.98049 -3.55718 0.60352
-1.16285 -0.25270 0.83629 0 29.86046 6.64925 0.54533
-0.40283 0.15069 0.54278 0 -2.56955 -3.39900 0.50348
-6.72961 -0.13608 1.98200 0 -2.86562 2.38362 0.29148
0.33640 0.11045 0.31909 0 9.32610 -4.98084 0.30245
-0.06069 0.01183 0.53603 0 -18.63842 -1.23076 0.53505
4.15319 -0.21580 2.45210 0 -26.68859 7.52225 0.57408
17.27651 0.08929 5.56666 0 23.52297 -1.00083 0.32182
15.84959 0.17613 15.00928 0 -1.48137 -5.77259 0.94515
-4.36086 -0.14243 1.47479 0 29.93028 5.98052 0.32971
-17.52351 0.15867 10.20988 0 25.77918 -5.60045 0.58178
-22.47527 -0.23705 10.30676 0 29.65231 6.00168 0.45824
10.06112 -0.12845 5.88164 0 -26.09134 3.04029 0.58181
10.88132 -0.15643 3.00139 0 29.14666 6.74959 0.27485
0.50539 -0.09013 0.42201 0 18.61763 1.41986 0.37667
-9.13705 0.10892 4.31678 0 21.71559 -4.30441 0.46975
0.71045 -0.30067 0.62861 0 22.43430 7.98765 0.51249
0.59924 -0.05079 0.54385 0 22.42316 2.71045 0.46655
0.83934 0.00604 0.92634 0 -29.95259 0.62075 0.70957
20.66188 0.21987 31.30355 0 -21.19086 -6.15413 1.51330
-14.68486 0.03528 16.71214 0 23.91229 -1.42867 1.13547
1.98551 -0.14965 1.42317 0 -29.20398 3.75145 0.64025
1.48137 -0.19661 2.07601 0 14.55291 5.51628 1.16156
15.15011 0.12001 9.92409 0 -23.42553 -2.72464 0.65370
7.98382 0.15581 3.03093 0 -29.26072 -3.20373 0.37682
0.90735 0.22724 0.42189 0 -29.95465 -5.01022 0.31249
-16.44080 0.21267 7.31081 0 -0.93419 -5.08699 0.44396
0.59954 0.18469 1.89022 0 13.92203 -5.12915 1.62118
-4.42285 -0.11155 3.01803 0 -28.01679 2.64776 0.66417
0.05338 0.18907 0.56035 0 13.98743 -6.56624 0.55955
9.50386 0.14296 7.90457 0 -28.38652 -3.57409 0.82721
2.04616 -0.02103 0.70322 0 -5.03800 -0.94480 0.30894
-0.69916 0.09928 1.43991 0 -13.29479 -2.45871 1.18010
5.90005 -0.07363 2.06461 0 26.94193 3.79783 0.34518
0.56555 0.07724 0.55571 0 28.93280 -1.17418 0.48374
-4.68220 0.05394 1.57113 0 28.07147 0.02229 0.32826
-25.90932 0.00809 10.75550 0 -11.69314 1.07178 0.41493
2.66489 -0.01851 0.78329 0 3.96400 -1.22345 0.27540
11.84712 -0.20106 4.22770 0 -4.22282 7.67254 0.35573
-0.28990 -0.11169 0.59981 0 28.95061 4.34277 0.57610
0.17251 -0.12129 1.00303 0 -25.31905 4.25097 0.98843
-1.11169 0.01507 0.32400 0 23.71980 -2.74986 0.21681
-13.60994 0.20859 7.15792 0 -12.44237 -5.15082 0.52461
14.17667 0.23428 12.86408 0 -29.99163 -6.34073 0.90522
-0.41968 -0.19174 0.48994 0 -1.26552 4.66333 0.45518
5.88712 -0.15768 3.26752 0 -4.93013 3.85126 0.54731
-2.28301 -0.24099 3.87150 0 28.20584 6.95479 1.55333
-13.27888 0.08224 5.25536 0 -23.59184 -1.08498 0.39477
-2.95320 0.20745 2.39336 0 3.35210 -5.43931 0.76764
-1.81677 -0.12811 2.11744 0 26.84925 3.41360 1.02110
-0.23671 0.01572 0.95330 0 11.64245 0.16079 0.92767
15.06741 0.09008 12.57701 0 -10.79287 -3.24501 0.83294
-6.47822 -0.19372 1.86625 0 29.95243 4.03339 0.28488
-1.58651 0.13241 0.84827 0 25.90086 -5.01040 0.47389
0.24793 -0.14808 0.81725 0 -26.71920 3.86198 0.79324
2.26120 -0.11588 0.89621 0 29.21743 5.01516 0.36259
25.91334 0.17032 15.79804 0 -19.60730 -5.91338 0.60928
-21.91332 0.12205 13.57163 0 -2.13107 -2.74084 0.61877
-15.31383 0.26279 6.85133 0 -28.98419 -6.56106 0.44655
-26.89649 0.04359 13.41061 0 -2.95761 -2.25937 0.49835
-1.19772 0.09909 1.36046 0 -20.35768 -3.48878 0.87197
-12.33658 0.13060 3.76000 0 -15.01996 -2.13149 0.30395
-1.24630 0.10524 0.52069 0 12.12820 -1.49474 0.32597
-22.39854 -0.03713 5.81823 0 -27.23416 -0.77607 0.25969
7.56674 -0.09797 3.90070 0 -8.62593 4.04270 0.51116
0.46098 -0.16856 0.46050 0 -29.82068 6.43311 0.41823
-3.73358 -0.19953 2.38265 0 -29.88618 5.19713 0.61658
-0.86776 -0.05630 0.31515 0 3.62810 -0.38067 0.23808
-6.87411 -0.03291 4.42128 0 19.40213 0.26510 0.63655
9.01500 -0.15244 3.82183 0 9.94470 3.41259 0.42147
9.69500 0.12456 5.45884 0 -25.81711 -4.59756 0.56017
-1.27580 0.19854 0.69281 0 -24.30208 -4.62598 0.42748
1.51308 -0.23630 0.50372 0 23.77333 5.22414 0.27783
0.95209 0.07153 0.42523 0 27.89855 -3.75543 0.30804
2.64631 -0.17871 1.09109 0 4.64399 6.85675 0.38587
2.65149 -0.10554 1.95312 0 13.49326 4.00579 0.68934
-6.46366 -0.16901 4.44871 0 28.88668 4.37394 0.68024
0.31861 0.17429 0.82372 0 19.47739 -4.47121 0.78486
4.25466 0.05292 2.07433 0 23.55588 -2.59313 0.47469
15.69909 0.11608 12.45366 0 29.55774 -2.74545 0.79173
0.52074 0.13187 0.70552 0 28.37393 -4.71969 0.62578
-0.29738 -0.03342 0.50343 0 -10.36318 2.10504 0.50307
-4.95502 0.05948 2.23253 0 6.83417 -2.87348 0.44172
0.10885 -0.01514 0.89258 0 21.87688 -0.04073 0.88734
0.38873 0.00606 1.31137 0 28.74276 0.31761 1.22228
11.07693 0.13934 4.98677 0 -22.81363 -5.28663 0.44848
4.95057 0.16254 3.98025 0 29.96910 -4.12514 0.78817
-20.47197 -0.10922 18.84025 0 -27.07844 3.92632 0.91925
-14.97421 0.28005 5.80047 0 -10.29710 -6.87351 0.38663
-23.11258 -0.18966 7.81275 0 22.88493 7.40265 0.33786
1.08880 0.13527 0.58390 0 -27.62011 -5.32490 0.39502
13.64844 -0.04396 6.12137 0 -29.99727 2.55120 0.44741
-6.21488 0.14822 3.22180 0 -7.83799 -3.34289 0.51191
0.00678 -0.26173 0.61697 0 -29.08823 7.03071 0.61696
-1.92617 0.08082 1.70600 0 24.12506 -1.68864 0.78614
1.10312 0.03941 0.32616 0 3.15662 -3.46742 0.21920
0.96727 0.02771 1.57552 0 -6.18763 -1.20250 1.13247
0.90205 -0.26782 0.67381 0 29.37436 7.00207 0.50037
-0.61445 0.05626 0.61257 0 1.51373 -0.62524 0.52194
-21.13804 -0.20500 10.04725 0 -22.17628 7.39533 0.47489
-4.50501 -0.21084 1.49763 0 -7.90666 4.75844 0.32468
14.32851 -0.02839 6.33975 0 29.60908 2.09650 0.44149
2.61293 0.03072 0.82595 0 28.21546 0.89272 0.29527
1.47393 -0.10453 0.96340 0 -29.69651 2.26212 0.54093
-10.14807 -0.26412 7.84625 0 2.03206 7.27838 0.76951
-5.98615 0.20584 1.07000 0 -10.09024 -3.10324 0.17646
-16.08574 -0.19925 19.34646 0 23.05912 6.51294 1.20043
-15.73786 0.31217 5.88131 0 -27.58590 -7.75064 0.37308
-18.70696 0.17066 15.02435 0 -11.10766 -4.37769 0.80206
15.81703 -0.01546 4.08817 0 22.71618 -1.44027 0.25814
0.35962 0.16143 0.34925 0 -1.72250 -2.99891 0.29684
0.66525 -0.16877 0.79666 0 -12.02879 5.95568 0.66332
-19.74198 0.10139 7.28059 0 28.40089 -1.56186 0.36845
-0.54796 -0.26279 0.35929 0 -29.53443 6.21778 0.31512
0.81167 -0.22722 1.27041 0 17.55177 7.46139 0.98642
-3.03764 -0.24554 4.18963 0 26.21253 7.87620 1.31013
-2.29016 0.15067 1.45886 0 5.28740 -5.35312 0.58386
-25.05611 -0.11993 24.07141 0 -29.37856 3.13741 0.95999
21.76352 0.04437 6.87811 0 26.84735 -2.88563 0.31586
26.71087 0.10303 16.55516 0 -18.14877 -3.85351 0.61944
1.25461 0.23801 1.19048 0 -20.27629 -6.31887 0.74206
-18.18679 -0.24599 26.94053 0 -21.35058 7.84050 1.47913
0.95956 -0.06498 0.67763 0 5.92676 3.08875 0.48898
25.01937 0.00195 6.68441 0 15.44149 -1.89908 0.26714
-22.21713 -0.06270 13.63646 0 -1.71362 2.80431 0.61324
-2.03058 -0.27733 1.53064 0 -26.93002 7.56809 0.67630
-4.61422 0.21209 3.83026 0 28.72779 -6.96102 0.81134
-9.11343 0.07843 5.43398 0 9.61461 -1.40469 0.59279
2.86622 -0.22308 3.11982 0 4.71413 7.31283 1.02778
3.37209 -0.13396 0.78675 0 29.34584 6.50997 0.22383
-0.42137 0.04446 0.26266 0 28.01226 -3.39465 0.24207
14.37820 0.04931 5.66092 0 -21.52277 -0.05300 0.38052
6.04781 -0.11655 9.85205 0 -24.54828 3.25387 1.60727
-3.23689 0.17031 1.03915 0 5.96003 -3.31644 0.30684
9.13832 -0.23086 6.21382 0 -8.98341 6.19881 0.67601
-1.83866 0.24608 0.64570 0 23.37683 -5.53580 0.30865
12.43788 0.13083 3.99096 0 2.34418 -5.51051 0.31999
0.99524 0.02429 1.06029 0 4.49150 -1.32915 0.75154
0.52086 0.19508 1.05610 0 19.53711 -6.35263 0.93668
6.39162 0.01496 6.49452 0 -6.93254 0.14165 1.00393
-26.30790 -0.14619 12.86421 0 -28.14720 3.39697 0.48873
-3.98246 0.00773 3.33334 0 29.72789 -0.78086 0.81185
-24.59042 -0.24175 14.71479 0 -18.73719 6.41504 0.59798
-19.71667 0.24186 5.74003 0 -20.38604 -5.30863 0.29092
-8.44994 -0.05152 3.24838 0 -21.63776 2.97967 0.38189
-21.36967 -0.06133 7.79546 0 27.89651 3.34264 0.36453
-23.17592 -0.15451 12.99597 0 16.27188 5.67176 0.56032
-3.42045 0.13519 0.85637 0 -22.25552 -6.21373 0.24049
-1.24395 -0.02673 0.68788 0 -22.42632 2.07445 0.43106
8.75067 0.23367 5.09949 0 4.46505 -5.98530 0.57907
-19.91490 0.02689 18.83593 0 -24.30634 -1.26791 0.94469
0.32080 -0.09369 0.78344 0 29.99934 3.58965 0.74600
-9.88182 0.21583 5.04406 0 27.59833 -5.33064 0.50794
10.44912 -0.10344 2.58435 0 3.38434 5.33393 0.24640
2.80421 -0.09173 1.13663 0 -9.08068 4.20278 0.38185
15.22496 0.29745 8.41536 0 29.77661 -7.76836 0.53055
-0.02384 0.20847 0.57930 0 -28.90643 -5.24295 0.57914
-1.78322 0.18627 0.85293 0 25.23313 -6.81873 0.41725
-5.99370 -0.01405 2.00593 0 20.68560 2.05735 0.33024
3.69997 0.18169 1.07735 0 18.98964 -7.32897 0.28129
5.11839 0.00225 2.92320 0 -20.09664 0.92631 0.56061
-3.38160 0.19482 1.18572 0 23.03727 -4.18383 0.33638
2.93056 0.14325 3.01037 0 -9.04666 -3.67679 0.97223
3.66856 0.14492 2.70974 0 10.49134 -5.01192 0.71277
-3.61542 0.30344 1.48034 0 -13.03475 -7.58067 0.39480
4.06801 0.22028 1.91467 0 -3.15495 -5.34466 0.45714
7.11610 0.04984 1.92599 0 29.77035 -3.16787 0.29520
17.66275 -0.03757 4.03223 0 -11.41527 -1.03679 0.22814
-0.35157 -0.04622 0.45483 0 -28.78487 0.27544 0.42910
-2.82480 0.10208 0.88147 0 -3.61980 -1.23178 0.29425
9.70610 0.13829 6.31258 0 19.61702 -4.88679 0.64702
-5.82526 -0.03559 2.67598 0 29.41633 0.01930 0.45281
-5.51778 -0.24416 1.70139 0 28.07146 5.61451 0.30368
-22.15222 0.07582 8.28730 0 29.49440 -0.82092 0.37386
-8.22532 -0.06531 4.63371 0 20.35838 1.12359 0.55931
9.93887 0.12779 10.59445 0 12.29826 -3.26062 1.06065
11.31060 0.13997 18.30054 0 -9.56301 -4.44527 1.61174
-0.12751 -0.05219 1.48160 0 22.55706 1.29823 1.46970
-0.48991 0.03394 2.18107 0 23.93916 -1.19851 1.95865
-2.83477 -0.00738 1.79402 0 -3.22918 -0.55420 0.59686
-3.36103 -0.05751 1.27846 0 17.63406 3.22620 0.36463
-1.69163 -0.12324 0.41883 0 -11.55539 6.29711 0.21326
-0.24523 0.22749 1.40602 0 28.04284 -6.34193 1.36556
-1.85168 0.07488 1.26740 0 29.97615 -3.02541 0.60230
-1.12181 0.15353 0.72889 0 -7.94253 -3.44391 0.48505
-6.11438 -0.13138 1.86717 0 -13.01974 2.30340 0.30153
1.59788 0.09842 0.96392 0 17.61570 -1.86288 0.51143
17.06891 0.15245 4.22153 0 -19.62638 -2.38566 0.24710
-4.02236 0.29141 0.98142 0 5.39910 -6.31097 0.23683
-0.18916 -0.30089 0.45774 0 -11.69608 7.84174 0.44977
0.72727 0.00027 0.25039 0 13.79012 -2.46844 0.20257
3.33985 -0.03945 2.37121 0 -19.31046 2.01987 0.68018
4.76047 -0.29134 1.21835 0 25.74079 6.59691 0.25061
6.62560 0.09597 2.81050 0 17.43398 -1.57022 0.41955
16.25329 0.01052 12.14213 0 -25.85785 -0.92070 0.74571
17.61756 -0.16354 9.66106 0 -29.99927 4.02540 0.54758
-2.14011 0.14374 1.77844 0 2.85947 -4.93587 0.75294
0.74939 -0.14908 1.64316 0 -11.46703 4.15261 1.31270
-0.13348 0.27715 0.65886 0 -6.83839 -7.37093 0.65307
-8.25591 -0.04814 2.63904 0 0.03661 -0.08631 0.31749
4.24699 0.18036 2.20745 0 -7.29418 -6.40388 0.50598
0.82159 -0.17501 0.91968 0 29.82309 6.09096 0.71063
0.97037 0.17225 0.75077 0 1.07891 -4.10500 0.53886
16.08755 -0.29515 7.81508 0 6.45249 7.76475 0.48495
-5.39598 -0.12480 3.78496 0 10.04861 4.58877 0.68979
-5.33638 0.13845 3.25559 0 -6.83900 -4.95711 0.59968
-0.37369 -0.10435 0.76623 0 -2.40965 2.49102 0.71776
-0.00156 -0.09733 0.81052 0 -27.76687 3.64381 0.81052
-5.74678 -0.21439 3.36326 0 24.27016 5.57593 0.57662
-22.80636 0.03560 6.21903 0 -19.96075 -2.88133 0.27261
-0.81254 0.00579 1.02300 0 4.15085 0.55153 0.79397
-0.84180 0.04760 1.07558 0 -23.90047 -1.97165 0.82287
-2.54458 0.11602 0.62893 0 -7.41759 -1.16042 0.23023
-23.34482 -0.15687 7.47907 0 26.54412 3.18719 0.32679
-4.98382 0.32262 1.53823 0 25.27231 -7.70369 0.30272
-17.14273 0.22802 16.61110 0 -29.14977 -7.33426 0.96739
13.29885 0.17025 8.33884 0 14.45181 -5.88821 0.62535
18.32010 0.06792 21.39367 0 -9.48867 -2.39859 1.16608
10.79739 -0.19071 5.81008 0 -28.93466 6.82272 0.53590
2.18976 0.10876 2.77671 0 21.92778 -3.63406 1.15351
3.80164 -0.07877 1.94334 0 29.67306 3.49474 0.49442
19.33414 -0.12315 18.16310 0 19.92375 3.22069 0.93823
1.70304 0.18509 0.53468 0 -23.21960 -3.57988 0.27892
-5.39647 0.11328 4.28780 0 -22.15827 -3.98763 0.78143
-23.54424 0.05829 5.06929 0 -4.08178 0.71129 0.21534
0.19266 0.21486 0.75202 0 -1.38682 -5.63092 0.73845
-16.91696 0.03663 11.23684 0 -26.95328 -1.72401 0.72666
3.40488 -0.05369 1.79055 0 -9.22329 0.67728 0.50463
-14.47222 0.06730 3.43705 0 23.94907 0.22262 0.23713
12.03609 0.10928 6.74504 0 -6.22795 -4.13577 0.55856
1.11920 -0.19137 1.18552 0 28.35515 6.51134 0.78992
-0.23019 -0.09699 0.36065 0 -8.99323 1.52639 0.35146
1.43028 -0.21135 0.88512 0 10.26863 7.51496 0.50722
2.69468 -0.30114 1.19837 0 -29.38072 7.75158 0.41702
-7.63126 -0.12353 6.78265 0 -13.48017 4.38366 0.88132
8.66526 0.14165 5.22487 0 29.99946 -3.29545 0.59907
-0.10896 -0.28950 0.41985 0 28.13449 7.41524 0.41738
0.66837 0.07039 0.51352 0 28.75097 -0.82912 0.42697
0.23502 0.28425 0.88436 0 28.86550 -7.78654 0.86091
3.30072 -0.02219 1.71636 0 15.96748 1.77743 0.49775
8.11259 -0.07326 1.92949 0 -9.05234 0.10977 0.23626
14.32517 0.29559 6.06401 0 -28.50589 -7.44527 0.42240
23.24589 0.00333 19.44328 0 24.04163 -0.63060 0.83570
13.72027 -0.06485 5.44483 0 -20.07862 3.33582 0.39592
-27.07890 0.17867 8.38665 0 -12.08978 -7.05051 0.30966
-0.77723 0.16943 0.37044 0 -4.31480 -6.86888 0.29255
-2.55893 -0.01678 1.62137 0 0.43536 -0.28165 0.59019
-26.50888 -0.13726 18.78996 0 -28.59352 3.46141 0.70838
-0.86256 0.18497 0.64698 0 -12.33472 -6.58117 0.48996
-0.65409 -0.12566 1.44640 0 -28.94889 4.28493 1.21047
0.11705 -0.15161 0.57673 0 -5.06596 5.56216 0.57282
-1.95385 -0.01192 3.28169 0 23.29878 0.09701 1.49516
-0.55189 -0.07495 1.81629 0 8.99370 2.00608 1.59020
-2.63209 -0.07272 0.88100 0 20.55559 3.92670 0.31306
15.02880 -0.19719 23.43629 0 -6.73675 5.65061 1.55602
2.32960 0.20281 2.34344 0 -0.48443 -6.59506 0.92440
13.74785 0.15013 8.41000 0 -21.24341 -3.56318 0.61020
2.07238 -0.09361 0.63010 0 17.31495 4.80979 0.27398
23.23015 -0.22340 13.29943 0 15.24993 7.75868 0.57206
0.44727 -0.05288 0.65372 0 -5.91765 2.53112 0.59676
-10.62899 -0.26990 3.43254 0 -7.27492 6.45813 0.32167
0.99711 -0.08996 0.35445 0 -20.82199 4.87601 0.25112
0.20440 -0.22282 0.57520 0 29.88869 5.80289 0.56355
-7.55106 -0.08036 11.57461 0 -29.93459 2.83229 1.51961
-1.03594 0.11089 1.27743 0 -29.75520 -3.83511 0.88722
0.23094 0.26709 1.99752 0 -24.56731 -7.64158 1.94629
2.02951 0.10496 1.42721 0 29.94979 -3.89650 0.63089
0.70295 -0.12034 0.38654 0 8.72396 2.05668 0.31628
22.65824 -0.00989 9.85866 0 -0.93105 -0.79859 0.43479
-14.54899 0.20727 5.27383 0 -28.12991 -7.67627 0.36177
0.99125 -0.18977 0.40681 0 -13.00824 3.94404 0.28898
0.22019 -0.15973 0.31438 0 -4.61539 6.63965 0.30703
-1.53619 0.05577 1.09720 0 29.97355 -2.45316 0.59864
2.02312 0.19388 0.70404 0 -21.28252 -7.51039 0.31209
9.09567 0.28819 3.92597 0 7.84835 -7.25093 0.42916
6.92603 0.24256 7.04473 0 -28.54390 -6.64692 1.00675
6.07278 -0.29517 2.73415 0 8.40017 7.66029 0.44435
-2.48132 -0.08958 0.92469 0 -16.78049 1.28205 0.34574
-11.90598 -0.02212 14.05909 0 -23.73641 0.31040 1.17674
0.79716 -0.09375 0.65460 0 -28.94765 1.88718 0.51189
-0.75014 -0.08408 0.32880 0 2.89817 4.59748 0.26310
1.61656 0.00388 0.78294 0 -24.57412 -1.27854 0.41198
-0.04101 0.02897 1.16699 0 24.99144 -0.34913 1.16601
-0.14238 -0.04090 0.56402 0 -29.99791 0.39192 0.55839
-1.44517 0.04201 0.60505 0 -14.55843 -2.67712 0.34436
-1.80395 -0.17265 0.71827 0 15.00838 6.82507 0.34833
0.07305 0.01556 0.36078 0 -18.03601 -1.81191 0.35982
0.62768 -0.09283 0.45154 0 29.70203 4.23406 0.38247
-5.20955 0.04470 2.96554 0 17.86170 -2.17998 0.55910
6.71953 0.09278 8.59801 0 25.49793 -3.11244 1.26566
-4.04118 0.12400 2.35313 0 -29.18926 -2.71979 0.56535
-2.18604 -0.06238 0.90549 0 22.90719 0.59288 0.37675
1.13153 -0.06842 0.31982 0 -22.87539 4.60661 0.21189
4.29470 -0.30471 1.29927 0 -24.12340 7.30453 0.29474
4.29092 0.00474 1.01919 0 25.07767 2.15811 0.23145
1.11847 0.21076 1.19170 0 21.92705 -6.93503 0.79433
6.39613 0.12091 1.57593 0 -7.08944 -1.42745 0.24363
2.97258 0.05501 3.24499 0 -0.78784 -2.06633 1.03471
1.00139 -0.13066 0.44316 0 -26.39351 2.34591 0.31323
-0.22946 0.15926 0.74756 0 8.58364 -3.97332 0.72863
-12.13663 -0.30451 3.01607 0 -23.15796 6.94793 0.24787
1.75133 -0.23738 2.50582 0 -22.14302 7.65242 1.24255
-0.36306 0.04225 0.45454 0 24.90144 0.01122 0.42727
-5.81557 -0.03616 7.75165 0 -27.92435 0.77636 1.31367
-0.26729 -0.10391 0.68519 0 -23.62069 3.98268 0.66638
-10.12353 -0.25492 14.93461 0 -12.18901 7.34846 1.46813
-13.99406 -0.21370 9.17023 0 -1.25924 7.33851 0.65370
-12.07377 0.09022 6.15830 0 20.33589 -1.61277 0.50841
9.35235 -0.07794 11.82471 0 -22.60365 2.83071 1.25723
-0.72001 -0.27431 0.37496 0 -7.72214 6.48965 0.30435
-0.46276 0.08760 1.03433 0 22.38391 -1.99749 0.93870
3.88925 0.02006 3.17137 0 25.92081 -1.16913 0.78980
0.76047 0.00156 0.87583 0 2.65158 0.76810 0.69717
-6.10438 0.19061 5.90815 0 -29.79008 -5.07630 0.95517
-16.39681 0.12419 6.56398 0 13.32502 -4.96965 0.39970
-3.51398 0.01090 1.34161 0 12.96264 1.14772 0.36730
-3.26238 0.27997 1.33539 0 29.99822 -6.88855 0.39144
1.53409 0.14038 1.34066 0 -14.93571 -4.85426 0.73214
2.42546 -0.22770 0.77396 0 -13.28930 5.08656 0.29512
0.91713 -0.19255 0.84374 0 7.30419 6.73612 0.62186
-0.25645 0.04619 0.60219 0 6.51762 -2.18665 0.58333
1.24871 -0.15540 1.14196 0 29.99370 4.00625 0.71389
-2.46517 -0.04807 1.87908 0 -25.22160 2.25155 0.70646
-4.10311 -0.13255 1.69661 0 -2.80204 2.76465 0.40193
-1.60567 -0.15176 1.76664 0 20.01788 5.20367 0.93398
2.17364 -0.18156 1.86165 0 13.68242 6.22366 0.77811
-12.71854 -0.12371 3.60870 0 -25.98347 1.96579 0.28303
10.39364 0.06020 7.66319 0 -10.60568 -2.42715 0.73397
1.67197 0.12353 1.39951 0 -29.56091 -2.90078 0.71841
-16.51291 -0.23227 12.68630 0 29.86247 6.33551 0.76692
0.96032 -0.11578 0.75933 0 -17.77179 2.60863 0.54773
0.90002 0.26514 0.36917 0 -28.77399 -5.65307 0.24691
-1.02966 -0.19115 0.76774 0 4.42559 6.83791 0.53492
-9.20352 -0.01321 4.55996 0 29.99501 1.51743 0.49266
-4.15534 0.03267 3.51085 0 10.90673 -1.52315 0.82149
6.74260 -0.22393 4.58005 0 25.97565 5.98941 0.67199
-3.36544 -0.06082 0.93893 0 -27.28191 -0.00829 0.26753
-1.23557 0.29053 0.46421 0 -6.98465 -6.71901 0.29214
-2.77835 -0.27259 2.62036 0 4.06453 7.62413 0.88746
-0.30909 -0.16768 0.44953 0 28.58273 3.88541 0.42949
0.33952 0.08787 0.41468 0 -29.57885 -3.88432 0.39268
7.20159 0.20270 4.11455 0 12.83453 -5.05143 0.56599
1.55871 0.22766 1.73508 0 2.85985 -6.16469 0.93695
17.89105 -0.04910 13.74880 0 -26.69603 0.88690 0.76734
25.11706 -0.05453 9.55743 0 28.02270 3.07634 0.38034
-18.18885 0.18122 6.02382 0 6.19684 -3.75950 0.33083
3.83027 -0.05715 1.32392 0 -28.40113 3.34407 0.33459
1.16293 -0.21094 1.11280 0 -25.96547 7.16956 0.72558
-2.38107 -0.13786 0.88569 0 -15.20169 5.77522 0.34305
-4.66942 0.09587 3.31852 0 3.12499 -3.54449 0.69499
-2.57342 -0.04993 0.72841 0 -18.04959 3.54322 0.26404
-14.64967 -0.24239 8.42862 0 -9.21789 6.39634 0.57410
0.56121 -0.27107 1.06241 0 -20.91180 7.60569 0.92649
6.23781 0.06802 2.91707 0 -29.66101 -0.84886 0.46185
0.59442 -0.14977 0.84298 0 -28.38056 3.84991 0.72464
2.10827 0.07818 0.50924 0 -10.48979 0.08299 0.21843
-8.04521 -0.09110 4.02798 0 20.58816 1.77804 0.49694
-25.31727 0.02966 7.67237 0 -6.52277 -2.50899 0.30297
-17.34301 0.22410 8.60005 0 6.03573 -5.54672 0.49516
-4.71174 0.14865 3.07996 0 -11.37029 -5.21142 0.63949
0.27049 0.14312 0.74831 0 -9.48048 -3.48738 0.72236
5.61177 -0.03612 3.35081 0 -25.41817 0.29509 0.58799
2.11636 0.19420 1.63221 0 -17.33609 -6.52773 0.69736
0.47861 -0.28393 0.99191 0 29.88832 7.96427 0.89473
0.56434 -0.20466 0.48186 0 -25.88843 7.54098 0.41968
20.24848 0.11644 9.49966 0 -26.89831 -4.53599 0.46869
-4.33001 0.09797 1.88383 0 2.17797 -1.64245 0.42394
2.35673 0.04974 0.79411 0 -27.57198 0.23797 0.31038
-0.17429 0.13076 0.82866 0 22.35432 -4.48774 0.81636
0.59130 -0.05309 0.52686 0 19.66982 2.81183 0.45353
0.71437 -0.11618 0.63848 0 11.03317 2.56936 0.51955
0.76167 -0.16840 0.31284 0 11.54864 3.21503 0.27318
-1.59037 -0.03413 1.39891 0 27.32612 1.79415 0.74470
-1.32683 0.11034 0.71980 0 -20.37232 -4.44286 0.43329
8.06478 0.28337 3.14394 0 -29.94383 -6.97110 0.38700
-0.69599 -0.18951 0.52933 0 0.10534 4.54277 0.43450
5.24916 0.02585 2.18426 0 21.67471 -1.95045 0.40886
6.62181 0.11053 3.84297 0 -13.84749 -2.33272 0.57393
0.54333 0.07240 0.55284 0 20.55917 -3.15792 0.48579
-4.13346 0.06953 1.26476 0 6.40435 -0.28223 0.29754
-20.40617 -0.02567 4.56890 0 6.16717 3.15974 0.22385
-3.60879 -0.13719 2.37570 0 -28.30245 3.37385 0.63446
3.46247 -0.05850 1.44035 0 2.74060 0.55527 0.39977
2.35482 0.13714 1.05982 0 -19.20150 -2.77654 0.41437
18.53644 0.21288 12.56842 0 -29.84281 -7.10070 0.69454
-8.92105 0.19791 3.10467 0 -10.28714 -4.34678 0.35278
-1.23153 0.21177 1.02790 0 -29.97767 -5.43821 0.64799
7.40987 0.14110 3.27846 0 17.55101 -5.36747 0.43858
-4.44384 -0.24227 4.01467 0 24.09717 6.72339 0.88144
-2.64819 -0.27591 1.23656 0 12.52262 7.07902 0.43697
0.36684 -0.02840 0.36301 0 -23.73811 2.44293 0.34081
-1.05537 0.26961 0.65099 0 20.47990 -6.76351 0.44785
-0.87241 0.16055 0.66015 0 6.67826 -3.67828 0.49749
0.77484 0.03868 0.53870 0 -26.93348 0.12186 0.42586
-16.07484 0.07713 10.01504 0 -19.31118 -3.06599 0.62190
1.19416 -0.08337 1.02034 0 14.70393 3.37476 0.65514
-1.47965 -0.19975 1.03265 0 -28.63416 7.02347 0.57829
-5.95271 0.30448 1.33642 0 -5.03349 -6.52564 0.22165
0.16582 0.30040 0.26726 0 29.18961 -6.80005 0.26366
1.32138 0.22188 1.12089 0 -16.51799 -7.39737 0.67645
-5.68668 -0.12851 2.74651 0 -19.37327 2.84404 0.47573
10.69483 0.24637 4.39109 0 23.39336 -5.97000 0.40892
0.12767 0.22630 0.54277 0 -27.08540 -7.74749 0.53840
0.46580 -0.19095 0.50894 0 20.04584 6.99771 0.46137
12.61637 0.01867 12.52157 0 -0.93572 -0.99628 0.98943
-13.59907 -0.14108 5.42926 0 23.05489 3.00518 0.39828
-1.81809 -0.14682 0.49745 0 -20.68333 6.74564 0.23988
2.19295 -0.00499 1.03591 0 7.97473 1.42254 0.42985
24.41565 -0.10120 4.90189 0 8.84853 5.76723 0.20084
24.61911 0.01013 17.20882 0 -26.25757 -0.95548 0.69850
5.59753 0.13698 4.93548 0 -9.91056 -4.63719 0.86802
2.05342 0.16084 0.87017 0 29.82122 -3.36763 0.38109
-5.19771 -0.28976 3.76098 0 5.07963 7.97332 0.71069
-24.77402 0.28445 5.26172 0 6.14884 -5.85282 0.21245
-0.12517 -0.11802 0.25889 0 15.26482 5.69571 0.25689
-25.93114 -0.21412 12.30274 0 6.77606 7.67787 0.47419
27.01604 0.07562 20.43787 0 -2.46400 -1.50747 0.75606
18.42919 0.01700 7.65885 0 -14.96594 -1.66457 0.41509
-6.55265 -0.28472 2.50620 0 -13.98443 7.13988 0.37822
10.53978 -0.25428 7.90562 0 -10.97067 6.96621 0.74679
13.45708 0.00216 4.94006 0 29.47890 1.41501 0.36622
-1.48374 -0.22866 1.17156 0 -29.44215 7.79383 0.65540
-18.73990 0.20492 11.29745 0 25.59459 -5.17319 0.60208
5.29269 -0.29686 1.84491 0 1.53056 7.33973 0.34259
23.31788 -0.10567 14.26399 0 7.38913 4.10744 0.61124
4.26275 -0.35619 0.90529 0 29.44882 7.96389 0.20694
5.36481 0.27783 3.27301 0 -8.25277 -7.31546 0.59984
2.69846 0.05397 2.70968 0 -11.37899 -2.08425 0.94169
4.55726 -0.15635 2.56046 0 28.94651 5.74793 0.54886
4.55326 0.14037 2.62039 0 -7.85862 -3.20059 0.56217
0.99542 0.29007 0.56392 0 -19.72166 -7.21081 0.39972
-0.59800 -0.15607 0.70102 0 22.85958 3.88975 0.60167
-2.34297 -0.13384 0.63885 0 -24.20705 6.23837 0.25090
-0.26562 -0.13105 0.48283 0 1.99512 5.14884 0.46665
12.24755 0.13925 8.40724 0 13.63531 -4.87115 0.68424
-26.47637 -0.17864 12.59526 0 -13.37170 6.58379 0.47548
-0.94174 0.03089 0.68975 0 3.24677 -1.86820 0.50218
2.26510 -0.03500 1.23960 0 -28.81893 2.15773 0.50069
4.44393 0.03112 7.34193 0 28.45824 -1.17030 1.61185
1.05613 -0.06721 0.94685 0 6.81282 2.89144 0.65104
-9.98020 -0.25370 2.23479 0 10.08550 5.40600 0.23793
9.00559 0.06183 17.05740 0 -10.75193 -1.50086 1.88255
0.06892 -0.19758 1.08814 0 15.29537 5.51292 1.08557
2.29193 -0.26500 1.44606 0 -19.62952 7.06748 0.57847
0.79430 -0.11991 0.64139 0 0.81514 2.65996 0.50913
-4.99077 -0.16759 3.72309 0 29.65394 4.38582 0.73154
-6.29393 -0.12780 2.35152 0 29.94365 2.51007 0.36912
-12.70687 0.20035 2.94345 0 -29.79685 -3.63927 0.23114
-0.64436 0.16070 0.51324 0 -27.53436 -3.52265 0.43146
1.47235 -0.00787 0.95187 0 -27.71963 1.27461 0.53486
-27.25208 -0.16557 18.51660 0 3.12651 5.83941 0.67907
-0.13471 -0.25819 0.34926 0 -5.76062 6.23756 0.34614
12.81455 -0.27032 7.93266 0 -20.29729 7.28344 0.61724
-7.73502 0.15582 1.05097 0 -0.65604 -6.55013 0.27728
4.71696 -0.13973 4.25955 0 26.57993 4.87238 0.88343
0.50906 0.08311 0.46365 0 4.15288 -3.67285 0.41321
-0.68061 -0.07419 1.03943 0 29.62348 2.90876 0.85931
-2.20326 0.19684 1.86827 0 -23.21893 -6.53128 0.77219
-7.94566 0.28436 6.35253 0 -0.43251 -7.73423 0.79330
-1.22405 -0.23587 1.43553 0 21.72473 6.55210 0.90826
16.86500 0.06247 6.19266 0 -19.28935 -3.20636 0.36668
19.56675 -0.25633 10.92427 0 -10.87728 6.77792 0.55767
-3.34961 -0.14290 1.87426 0 -27.67643 5.31052 0.56468
0.94197 -0.24373 0.58210 0 -8.01308 6.10162 0.42377
-0.15242 -0.09144 0.47778 0 -13.65000 3.92894 0.47233
0.02769 0.12375 1.24256 0 -9.16879 -3.21170 1.24208
11.95901 -0.29472 5.70718 0 24.31695 7.72965 0.47567
-17.09967 0.02406 14.97969 0 3.06345 -1.22629 0.87459
-0.00206 0.00632 0.50430 0 24.15325 -1.12371 0.50430
-0.72263 -0.01258 0.87254 0 1.96126 1.18238 0.70724
0.83159 0.13254 2.31433 0 -26.74604 -3.60080 1.77945
-1.48796 -0.04017 0.79620 0 -10.42586 0.13459 0.44419
-1.61421 -0.22582 2.00566 0 0.51459 7.38119 1.05628
-2.49483 0.22849 3.58005 0 22.77676 -6.36157 1.33200
-23.29533 0.01318 36.10757 0 -29.44681 -0.64447 1.54860
13.55853 0.28298 10.42335 0 -28.91039 -7.66900 0.76675
5.10990 0.25683 4.98844 0 -29.73679 -7.04192 0.95809
-9.32616 0.19892 4.39481 0 21.73605 -4.74551 0.46865
-1.27927 -0.19268 1.29342 0 -24.37478 6.54531 0.79660
-3.46427 0.25888 2.72800 0 -9.78992 -6.94912 0.75667
1.58863 0.23768 3.27480 0 21.04287 -6.73259 1.74456
1.48265 -0.00229 1.78771 0 15.92778 0.66144 0.99965
0.58101 0.18031 0.69686 0 29.98820 -6.22799 0.60256
0.43723 0.11095 2.21955 0 29.97773 -2.99167 2.03366
0.05774 0.05125 0.27067 0 -20.62351 -3.37534 0.27022
-8.62786 -0.05165 5.42749 0 -9.30398 0.81117 0.62496
-2.36233 -0.22218 6.87796 0 -19.59173 6.95228 2.68120
0.98075 0.23300 1.50877 0 8.68618 -7.44080 1.04865
0.58291 -0.12486 0.73455 0 11.98214 4.62390 0.66126
3.47049 -0.11503 0.86764 0 0.40000 5.74817 0.24045
-0.32168 0.12062 0.76647 0 29.98780 -4.25760 0.72965
-1.36448 -0.17940 2.29626 0 28.85085 5.07023 1.35741
-3.75969 -0.00308 7.69629 0 -27.01483 -0.08475 1.97829
-5.15826 -0.07737 2.07594 0 -28.71288 3.71886 0.39514
-4.81522 0.16894 2.50809 0 9.74045 -3.95192 0.50983
2.46421 -0.12699 2.36317 0 29.84211 3.30447 0.88870
-17.45649 -0.01524 7.32143 0 1.95056 1.76277 0.41884
-5.86358 -0.05547 4.23878 0 21.35879 1.02638 0.71272
2.29136 -0.26492 0.73368 0 5.82372 6.15399 0.29357
1.75359 -0.19099 1.24778 0 -29.15597 6.69354 0.61820
-4.00470 0.06264 1.94849 0 -14.86877 -2.89328 0.47217
-0.61128 0.09312 0.30086 0 25.12980 -4.68770 0.26644
-0.67378 0.19002 0.72947 0 29.68908 -4.73716 0.60499
1.87109 0.09381 1.30085 0 -21.10192 -3.58277 0.61322
-4.27856 -0.22477 6.83232 0 -29.06216 7.17997 1.55504
1.83116 0.18245 1.12084 0 29.94155 -6.40454 0.53728
0.09787 0.18649 0.90213 0 3.83447 -6.11738 0.89784
9.53226 -0.28723 3.10731 0 -26.64844 6.97213 0.32435
6.01187 0.04333 3.49443 0 -24.36160 -0.32638 0.57349
-0.24454 0.24368 0.78115 0 -29.58018 -6.50229 0.75879
-0.21813 0.07229 0.49866 0 -26.72628 -3.15158 0.48720
-1.89795 -0.19468 2.34568 0 16.80574 6.41921 1.09345
-20.38142 0.12077 25.77888 0 -5.40807 -3.95682 1.26334
1.24329 -0.28280 0.85017 0 25.06484 7.50741 0.53289
1.36084 0.25495 1.03885 0 -9.27105 -6.66649 0.61520
-22.24404 -0.01834 5.56942 0 26.70242 2.68925 0.25032
-4.60312 0.19919 2.41445 0 -29.93986 -6.96697 0.51271
21.17074 -0.09121 7.30769 0 -19.32630 1.32711 0.34494
3.05304 0.06829 2.70792 0 -28.60463 -2.58008 0.84296
1.08308 -0.07746 1.80512 0 1.03633 1.98466 1.22455
3.41335 0.09043 3.16620 0 27.29222 -2.05219 0.89025
-4.81025 -0.23092 1.57111 0 -21.97745 5.31928 0.31997
-0.74733 0.18319 0.72634 0 -23.56127 -6.34868 0.58185
-0.95439 -0.07484 1.67405 0 1.28506 2.75298 1.21104
-13.50311 0.01408 14.53454 0 -10.97312 0.13495 1.07349
-6.85871 0.06638 2.65890 0 26.06968 -3.26163 0.38374
-0.13726 -0.14596 0.89040 0 27.27207 3.86514 0.88213
3.04399 -0.16580 2.34723 0 26.49515 4.33400 0.73271
-11.72929 -0.05809 8.51429 0 14.61515 2.53648 0.72334
-10.30749 -0.03939 8.06924 0 -8.19579 0.60625 0.77926
-1.83569 -0.06253 1.91082 0 -16.74844 2.52102 0.91414
-0.52520 -0.00700 1.21891 0 -10.22104 0.76524 1.07914
5.98588 -0.24543 2.34017 0 -10.41743 6.02617 0.38572
3.84956 -0.32652 0.90435 0 -5.75326 7.37351 0.22749
-2.51430 0.03011 0.78526 0 28.68325 -2.59761 0.29033
15.51846 -0.08324 5.79026 0 11.72900 1.19962 0.37248
-1.90218 -0.06855 0.71867 0 -24.90989 0.60570 0.33454
-0.46387 0.13858 0.58273 0 12.47469 -5.08109 0.52865
4.59064 -0.04707 2.42100 0 10.69983 0.50036 0.51536
4.69818 -0.14254 2.99778 0 28.66317 3.51953 0.62420
-1.51459 0.30530 0.58649 0 -19.12883 -7.32377 0.32325
1.26262 -0.10386 0.63197 0 3.49675 4.53536 0.39242
-0.37058 0.19124 0.70627 0 0.18465 -4.84592 0.65979
8.37000 0.04741 2.80648 0 27.74487 0.19516 0.33308
0.09647 -0.01838 0.27331 0 21.12420 2.52444 0.27205
18.95895 0.18071 5.48399 0 13.11035 -3.51689 0.28902
-0.69133 0.18123 0.75795 0 -5.05940 -6.22573 0.62350
-0.24674 -0.14193 0.43347 0 -27.66294 5.60745 0.42086
18.99395 0.26842 3.87302 0 -23.71422 -5.29215 0.20386
-0.39743 0.21201 0.64948 0 28.77903 -7.19577 0.60357
-2.96425 -0.05782 1.84692 0 29.17145 0.94805 0.59046
-2.33475 -0.16273 0.71594 0 17.49431 3.10783 0.28195
-1.05578 0.26972 0.44220 0 -26.28140 -6.19376 0.30417
11.47597 0.05149 9.34620 0 -7.59579 -2.09767 0.81140
-1.31606 -0.27217 1.13112 0 4.68548 7.42579 0.68438
-0.54130 -0.15296 1.04088 0 -26.22828 5.24896 0.91949
3.53275 -0.00253 0.62404 0 -25.53127 -2.87784 0.17006
1.35056 -0.15748 0.46595 0 -17.46528 6.76354 0.27738
-4.51844 -0.17279 1.49617 0 10.55159 3.63890 0.32347
-24.27354 0.14415 13.26071 0 -7.71973 -3.28524 0.54593
-1.46195 0.08529 1.13373 0 6.08679 -1.67335 0.64013
-5.34901 0.04991 2.04076 0 6.56092 -2.79268 0.37516
3.91019 -0.24426 1.98223 0 28.62354 6.29200 0.49118
-17.72958 -0.29052 5.36686 0 22.84717 6.94461 0.30239
-11.64134 0.02533 5.57460 0 -20.48326 -1.75422 0.47721
0.34802 0.00858 0.43204 0 29.12244 -1.43478 0.40718
25.73863 -0.03303 14.93581 0 -23.64735 1.95753 0.57993
-2.05940 -0.03766 1.03296 0 9.96685 2.35092 0.45130
-0.38033 0.05569 0.30991 0 3.75894 -3.38009 0.28968
6.16767 -0.10471 2.29316 0 25.99703 4.65485 0.36714
-3.54251 -0.16522 1.17738 0 5.57857 3.39866 0.31994
-22.88541 0.18472 18.14831 0 28.36410 -6.14464 0.79232
-2.02603 -0.14428 1.06236 0 -29.61894 3.29890 0.47027
2.99900 0.03790 2.97035 0 16.34628 -1.60196 0.93966
1.14291 0.11364 0.54677 0 -4.82250 -4.79412 0.36014
1.22637 -0.01208 0.72482 0 -12.55814 1.56231 0.45810
-2.85913 0.14947 2.12525 0 -29.03519 -5.16185 0.70168
10.62656 0.20615 7.92401 0 -2.92227 -6.84372 0.74247
17.28885 -0.10006 11.18408 0 -1.01233 3.89124 0.64589
-1.31858 -0.01162 1.69253 0 26.83595 -0.07005 1.02279
1.05792 0.11171 1.07495 0 -29.96679 -2.56817 0.73847
1.04747 0.15080 0.80383 0 -26.88028 -5.40507 0.55510
-0.38632 -0.13562 0.67960 0 -23.75907 3.32673 0.63395
-1.62101 -0.16389 0.76323 0 27.55652 6.34660 0.40079
0.74742 -0.16675 0.59176 0 28.62533 6.22289 0.47402
-0.95551 -0.05242 0.49504 0 -28.64337 3.09808 0.35801
1.29682 0.09678 0.98984 0 29.20319 -3.68515 0.60450
-7.59908 0.03467 5.28400 0 25.56882 -1.70337 0.68947
11.30850 -0.09689 7.78966 0 -8.73064 3.74748 0.68623
1.82027 0.13445 0.61994 0 26.21390 -5.74450 0.29861
-19.64280 0.11340 7.16026 0 28.66678 -1.90201 0.36419
-3.91067 -0.00343 1.04432 0 22.86256 2.16853 0.25884
-0.21882 -0.16842 0.28230 0 -29.16363 7.11681 0.27578
-27.22958 -0.04621 15.30366 0 -16.56738 0.55640 0.56173
-24.42832 0.02520 17.55095 0 11.00301 0.03746 0.71794
1.77428 0.10780 0.47323 0 -29.67650 -0.93922 0.23251
1.67658 -0.04944 1.43467 0 -29.11939 0.86757 0.73499
0.51655 -0.02450 0.90196 0 29.29593 0.17821 0.80137
-6.95423 0.12141 3.08788 0 -26.07672 -4.76292 0.43962
7.64614 -0.08603 3.28003 0 9.62283 1.45376 0.42547
19.52135 0.14939 8.45067 0 20.65218 -3.19118 0.43244
23.51318 0.28626 7.25216 0 -6.68568 -6.69414 0.30831
2.10675 0.11947 1.59507 0 3.31501 -2.74358 0.68404
3.65073 0.20221 3.26080 0 -28.80507 -6.62072 0.86149
7.19176 0.18574 3.22837 0 -13.69183 -6.71992 0.44473
-0.01651 -0.04316 0.49484 0 6.22371 0.34200 0.49477
0.34960 -0.17561 0.57815 0 -23.82846 6.34181 0.54577
4.22959 0.16389 6.88666 0 -22.78416 -5.17239 1.58457
1.49583 -0.02151 0.32323 0 -29.64372 3.60980 0.17978
-3.79886 0.22627 0.80614 0 13.40667 -4.10559 0.20539
-13.06611 -0.10734 10.01259 0 -10.38295 2.62391 0.76413
-3.04688 0.05199 0.46017 0 29.74380 2.10091 0.14365
0.22875 -0.12388 0.67955 0 -23.10005 4.59265 0.66244
-10.48926 -0.23643 8.45150 0 -19.68194 7.87297 0.80215
0.81083 -0.30190 0.39738 0 24.43682 7.30836 0.30872
20.93031 0.19448 13.65976 0 -3.29348 -6.59121 0.65196
0.10552 -0.21222 0.93967 0 26.25478 5.86798 0.93448
-3.99862 0.24788 1.67422 0 20.56587 -6.00582 0.40631
-0.34815 -0.25502 0.80769 0 -1.57360 7.00348 0.76279
20.02247 -0.05679 20.79760 0 23.53082 2.28108 1.03747
-14.47303 -0.22128 12.34589 0 9.50401 7.37122 0.85106
