-3.55888 -0.00787 2.57516 0 -1.38200 29.96815 0.69672
-3.20071 -0.16796 2.05709 0 29.87416 -2.74498 0.61365
-0.05779 -0.17804 0.48103 0 28.01407 10.73367 0.48023
0.91284 -0.09379 2.24271 0 26.16970 14.66789 1.65639
5.75154 0.14398 1.23052 0 -14.54298 26.23932 0.21091
-7.22303 -0.24841 3.11389 0 -27.41783 12.17631 0.42714
-0.50859 -0.16609 0.60899 0 23.71388 18.37531 0.54284
-6.84749 0.23948 1.71524 0 -14.49464 -26.26605 0.24806
2.22355 0.15598 0.80558 0 27.43652 -12.13415 0.33054
-5.88884 0.06656 6.60170 0 -10.01764 28.27803 1.10527
-16.61586 0.25974 8.65365 0 9.20887 28.55165 0.51996
-4.69808 -0.08732 5.68796 0 -0.97358 29.98420 1.18420
-0.84303 0.06784 0.88326 0 13.93042 -26.56960 0.67535
-0.33308 -0.15857 0.70850 0 17.05519 -24.68036 0.67220
19.49703 -0.22600 9.63673 0 -29.65783 4.51807 0.49372
21.23002 -0.13550 17.53477 0 -26.42080 14.21061 0.82509
-1.54640 0.08449 0.62674 0 18.73504 23.43071 0.34045
4.09698 -0.01301 2.95879 0 -29.94854 1.75634 0.69783
-21.78897 -0.24850 6.75541 0 9.89335 28.32175 0.29163
3.06288 -0.02696 2.25037 0 -16.82322 24.83907 0.69847
-4.23537 -0.07949 2.17553 0 28.50815 9.34268 0.53172
27.09699 0.20007 7.55297 0 10.12749 28.23887 0.28429
2.92913 -0.14402 3.81556 0 2.05555 29.92949 1.23279
2.49506 0.16132 2.93695 0 2.28096 29.91316 1.09267
4.74007 -0.25791 2.07322 0 27.34979 -12.32839 0.42802
-15.70744 0.14451 9.49761 0 -0.98049 -29.98397 0.60352
-1.16285 -0.19416 0.83629 0 29.86046 2.89017 0.54533
-0.40283 0.18593 0.54278 0 -2.56955 29.88976 0.50348
-6.72961 0.20546 1.98200 0 -2.86562 29.86282 0.29148
0.33640 0.21542 0.31909 0 9.32610 -28.51357 0.30245
-0.06069 0.11802 0.53603 0 -18.63842 23.50764 0.53505
4.15319 0.24474 2.45210 0 -26.68859 -13.70107 0.57408
17.27651 -0.16111 5.56666 0 23.52297 18.61908 0.32182
15.84959 -0.23104 15.00928 0 -1.48137 -29.96340 0.94515
-4.36086 0.03049 1.47479 0 29.93028 2.04404 0.32971
-17.52351 0.14315 10.20988 0 25.77918 15.34386 0.58178
-22.47527 0.07824 10.30676 0 29.65231 -4.55416 0.45824
10.06112 0.23995 5.88164 0 -26.09134 14.80682 0.58181
10.88132 -0.05500 3.00139 0 29.14666 7.10438 0.27485
0.50539 0.23316 0.42201 0 18.61763 -23.52411 0.37667
-9.13705 0.05937 4.31678 0 21.71559 20.69863 0.46975
0.71045 -0.15374 0.62861 0 22.43430 -19.91739 0.51249
0.59924 -0.05307 0.54385 0 22.42316 19.92993 0.46655
0.83934 0.01670 0.92634 0 -29.95259 -1.68594 0.70957
20.66188 0.08178 31.30355 0 -21.19086 -21.23552 1.51330
-14.68486 -0.20663 16.71214 0 23.91229 -18.11636 1.13547
1.98551 0.25949 1.42317 0 -29.20398 6.86495 0.64025
1.48137 -0.13506 2.07601 0 14.55291 26.23381 1.16156
15.15011 -0.06545 9.92409 0 -23.42553 -18.74152 0.65370
7.98382 -0.14259 3.03093 0 -29.26072 6.61892 0.37682
0.90735 -0.04647 0.42189 0 -29.95465 -1.64898 0.31249
-16.44080 0.11460 7.31081 0 -0.93419 -29.98545 0.44396
0.59954 -0.00356 1.89022 0 13.92203 26.57399 1.62118
-4.42285 -0.06707 3.01803 0 -28.01679 -10.72657 0.66417
0.05338 0.09729 0.56035 0 13.98743 -26.53963 0.55955
9.50386 0.04312 7.90457 0 -28.38652 -9.70595 0.82721
2.04616 0.22875 0.70322 0 -5.03800 -29.57395 0.30894
-0.69916 0.14678 1.43991 0 -13.29479 -26.89328 1.18010
5.90005 0.08819 2.06461 0 26.94193 13.19592 0.34518
0.56555 -0.01110 0.55571 0 28.93280 -7.93051 0.48374
-4.68220 -0.05096 1.57113 0 28.07147 10.58265 0.32826
-25.90932 0.15428 10.75550 0 -11.69314 27.62735 0.41493
2.66489 0.06446 0.78329 0 3.96400 -29.73696 0.27540
11.84712 0.15814 4.22770 0 -4.22282 -29.70131 0.35573
-0.28990 -0.26064 0.59981 0 28.95061 7.86525 0.57610
0.17251 0.04154 1.00303 0 -25.31905 16.09179 0.98843
-1.11169 0.14770 0.32400 0 23.71980 18.36766 0.21681
-13.60994 0.23776 7.15792 0 -12.44237 -27.29812 0.52461
14.17667 0.25653 12.86408 0 -29.99163 -0.70857 0.90522
-0.41968 -0.22563 0.48994 0 -1.26552 29.97330 0.45518
5.88712 -0.02386 3.26752 0 -4.93013 -29.59212 0.54731
-2.28301 0.04651 3.87150 0 28.20584 10.21912 1.55333
-13.27888 0.05385 5.25536 0 -23.59184 18.53173 0.39477
-2.95320 -0.25388 2.39336 0 3.35210 29.81214 0.76764
-1.81677 0.08046 2.11744 0 26.84925 13.38348 1.02110
-0.23671 0.00123 0.95330 0 11.64245 27.64875 0.92767
15.06741 -0.09267 12.57701 0 -10.79287 27.99132 0.83294
-6.47822 -0.16090 1.86625 0 29.95243 1.68884 0.28488
-1.58651 -0.11990 0.84827 0 25.90086 15.13756 0.47389
0.24793 0.21571 0.81725 0 -26.71920 -13.64128 0.79324
2.26120 0.18847 0.89621 0 29.21743 6.80746 0.36259
25.91334 -0.17480 15.79804 0 -19.60730 22.70581 0.60928
-21.91332 0.05062 13.57163 0 -2.13107 -29.92421 0.61877
-15.31383 0.14382 6.85133 0 -28.98419 -7.74060 0.44655
-26.89649 -0.20906 13.41061 0 -2.95761 -29.85385 0.49835
-1.19772 -0.22009 1.36046 0 -20.35768 22.03554 0.87197
-12.33658 0.13721 3.76000 0 -15.01996 -25.96923 0.30395
-1.24630 0.16616 0.52069 0 12.12820 27.43915 0.32597
-22.39854 -0.01772 5.81823 0 -27.23416 -12.58175 0.25969
7.56674 -0.23887 3.90070 0 -8.62593 -28.73314 0.51116
0.46098 -0.00265 0.46050 0 -29.82068 3.27517 0.41823
-3.73358 0.08689 2.38265 0 -29.88618 -2.61083 0.61658
-0.86776 -0.04930 0.31515 0 3.62810 -29.77981 0.23808
-6.87411 0.01983 4.42128 0 19.40213 22.88137 0.63655
9.01500 -0.24070 3.82183 0 9.94470 28.30376 0.42147
9.69500 -0.12962 5.45884 0 -25.81711 15.27995 0.56017
-1.27580 -0.08311 0.69281 0 -24.30208 -17.59002 0.42748
1.51308 -0.12139 0.50372 0 23.77333 -18.29832 0.27783
0.95209 0.22219 0.42523 0 27.89855 -11.03045 0.30804
2.64631 0.17274 1.09109 0 4.64399 -29.63838 0.38587
2.65149 -0.04245 1.95312 0 13.49326 -26.79425 0.68934
-6.46366 -0.03382 4.44871 0 28.88668 8.09690 0.68024
0.31861 0.11912 0.82372 0 19.47739 22.81735 0.78486
4.25466 0.04413 2.07433 0 23.55588 18.57742 0.47469
15.69909 -0.17303 12.45366 0 29.55774 -5.13225 0.79173
0.52074 -0.12362 0.70552 0 28.37393 -9.74270 0.62578
-0.29738 0.13771 0.50343 0 -10.36318 -28.15323 0.50307
-4.95502 -0.20016 2.23253 0 6.83417 29.21120 0.44172
0.10885 0.24102 0.89258 0 21.87688 20.52808 0.88734
0.38873 0.22944 1.31137 0 28.74276 -8.59383 1.22228
11.07693 0.18891 4.98677 0 -22.81363 19.48174 0.44848
4.95057 0.10262 3.98025 0 29.96910 1.36130 0.78817
-20.47197 -0.20539 18.84025 0 -27.07844 -12.91348 0.91925
-14.97421 -0.10962 5.80047 0 -10.29710 28.17747 0.38663
-23.11258 0.05457 7.81275 0 22.88493 -19.39793 0.33786
1.08880 -0.05661 0.58390 0 -27.62011 -11.71022 0.39502
13.64844 0.12705 6.12137 0 -29.99727 -0.40456 0.44741
-6.21488 -0.07288 3.22180 0 -7.83799 28.95800 0.51191
0.00678 0.22086 0.61697 0 -29.08823 -7.33996 0.61696
-1.92617 0.11986 1.70600 0 24.12506 17.83203 0.78614
1.10312 -0.20839 0.32616 0 3.15662 29.83347 0.21920
0.96727 0.08794 1.57552 0 -6.18763 -29.35495 1.13247
0.90205 -0.07193 0.67381 0 29.37436 -6.09483 0.50037
-0.61445 0.09479 0.61257 0 1.51373 29.96179 0.52194
-21.13804 -0.24199 10.04725 0 -22.17628 -20.20428 0.47489
-4.50501 0.09041 1.49763 0 -7.90666 -28.93933 0.32468
14.32851 -0.21042 6.33975 0 29.60908 4.82725 0.44149
2.61293 0.18983 0.82595 0 28.21546 10.19254 0.29527
1.47393 -0.15323 0.96340 0 -29.69651 4.25643 0.54093
-10.14807 0.18033 7.84625 0 2.03206 29.93110 0.76951
-5.98615 -0.00759 1.07000 0 -10.09024 -28.25220 0.17646
-16.08574 0.01049 19.34646 0 23.05912 -19.19055 1.20043
-15.73786 0.10927 5.88131 0 -27.58590 11.79060 0.37308
-18.70696 -0.21434 15.02435 0 -11.10766 27.86790 0.80206
15.81703 0.02939 4.08817 0 22.71618 19.59528 0.25814
0.35962 0.12364 0.34925 0 -1.72250 -29.95051 0.29684
0.66525 0.23945 0.79666 0 -12.02879 -27.48287 0.66332
-19.74198 0.22397 7.28059 0 28.40089 -9.66381 0.36845
-0.54796 0.17795 0.35929 0 -29.53443 5.26476 0.31512
0.81167 0.01501 1.27041 0 17.55177 24.32972 0.98642
-3.03764 0.21950 4.18963 0 26.21253 -14.59120 1.31013
-2.29016 -0.17752 1.45886 0 5.28740 -29.53038 0.58386
-25.05611 0.01596 24.07141 0 -29.37856 6.07455 0.95999
21.76352 0.03254 6.87811 0 26.84735 13.38731 0.31586
26.71087 0.25251 16.55516 0 -18.14877 -23.88770 0.61944
1.25461 -0.21952 1.19048 0 -20.27629 -22.11045 0.74206
-18.18679 -0.09343 26.94053 0 -21.35058 21.07493 1.47913
0.95956 -0.23550 0.67763 0 5.92676 29.40873 0.48898
25.01937 0.07914 6.68441 0 15.44149 25.72082 0.26714
-22.21713 0.07084 13.63646 0 -1.71362 -29.95102 0.61324
-2.03058 -0.13985 1.53064 0 -26.93002 -13.22021 0.67630
-4.61422 -0.19311 3.83026 0 28.72779 8.64373 0.81134
-9.11343 -0.17876 5.43398 0 9.61461 -28.41759 0.59279
2.86622 -0.12180 3.11982 0 4.71413 29.62730 1.02778
3.37209 -0.06514 0.78675 0 29.34584 -6.23070 0.22383
-0.42137 0.07628 0.26266 0 28.01226 -10.73839 0.24207
14.37820 0.26228 5.66092 0 -21.52277 20.89905 0.38052
6.04781 0.23174 9.85205 0 -24.54828 17.24476 1.60727
-3.23689 -0.12379 1.03915 0 5.96003 -29.40201 0.30684
9.13832 0.11859 6.21382 0 -8.98341 -28.62339 0.67601
-1.83866 0.00378 0.64570 0 23.37683 18.80223 0.30865
12.43788 -0.24296 3.99096 0 2.34418 29.90827 0.31999
0.99524 0.21140 1.06029 0 4.49150 -29.66187 0.75154
0.52086 0.21269 1.05610 0 19.53711 -22.76623 0.93668
6.39162 0.00127 6.49452 0 -6.93254 -29.18801 1.00393
-26.30790 -0.03752 12.86421 0 -28.14720 -10.37955 0.48873
-3.98246 -0.10649 3.33334 0 29.72789 -4.03142 0.81185
-24.59042 0.18790 14.71479 0 -18.73719 -23.42899 0.59798
-19.71667 -0.13385 5.74003 0 -20.38604 22.00930 0.29092
-8.44994 -0.07252 3.24838 0 -21.63776 -20.77998 0.38189
-21.36967 0.08192 7.79546 0 27.89651 -11.03560 0.36453
-23.17592 -0.14701 12.99597 0 16.27188 -25.20369 0.56032
-3.42045 0.11310 0.85637 0 -22.25552 -20.11695 0.24049
-1.24395 -0.10772 0.68788 0 -22.42632 -19.92637 0.43106
8.75067 0.14696 5.09949 0 4.46505 29.66586 0.57907
-19.91490 0.18311 18.83593 0 -24.30634 17.58413 0.94469
0.32080 0.00595 0.78344 0 29.99934 0.19923 0.74600
-9.88182 -0.20566 5.04406 0 27.59833 -11.76147 0.50794
10.44912 -0.07952 2.58435 0 3.38434 29.80849 0.24640
2.80421 0.25229 1.13663 0 -9.08068 28.59268 0.38185
15.22496 0.02905 8.41536 0 29.77661 3.65425 0.53055
-0.02384 0.06283 0.57930 0 -28.90643 -8.02611 0.57914
-1.78322 -0.06491 0.85293 0 25.23313 16.22619 0.41725
-5.99370 -0.19811 2.00593 0 20.68560 21.72800 0.33024
3.69997 -0.08445 1.07735 0 18.98964 -23.22485 0.28129
5.11839 -0.25313 2.92320 0 -20.09664 22.27387 0.56061
-3.38160 0.04465 1.18572 0 23.03727 -19.21677 0.33638
2.93056 -0.17426 3.01037 0 -9.04666 28.60346 0.97223
3.66856 0.08383 2.70974 0 10.49134 -28.10573 0.71277
-3.61542 0.22701 1.48034 0 -13.03475 -27.02028 0.39480
4.06801 0.20270 1.91467 0 -3.15495 -29.83364 0.45714
7.11610 -0.19601 1.92599 0 29.77035 3.70489 0.29520
17.66275 0.17471 4.03223 0 -11.41527 27.74332 0.22814
-0.35157 -0.23233 0.45483 0 -28.78487 8.45171 0.42910
-2.82480 -0.24816 0.88147 0 -3.61980 29.78082 0.29425
9.70610 -0.11468 6.31258 0 19.61702 22.69741 0.64702
-5.82526 0.24982 2.67598 0 29.41633 -5.88892 0.45281
-5.51778 0.09070 1.70139 0 28.07146 10.58268 0.30368
-22.15222 0.11206 8.28730 0 29.49440 5.48458 0.37386
-8.22532 -0.25625 4.63371 0 20.35838 22.03489 0.55931
9.93887 -0.23217 10.59445 0 12.29826 -27.36335 1.06065
11.31060 -0.24426 18.30054 0 -9.56301 -28.43499 1.61174
-0.12751 0.03212 1.48160 0 22.55706 19.77825 1.46970
-0.48991 -0.09934 2.18107 0 23.93916 -18.08084 1.95865
-2.83477 0.05411 1.79402 0 -3.22918 29.82570 0.59686
-3.36103 -0.15273 1.27846 0 17.63406 24.27014 0.36463
-1.69163 -0.07956 0.41883 0 -11.55539 -27.68525 0.21326
-0.24523 -0.21130 1.40602 0 28.04284 10.65828 1.36556
-1.85168 0.18332 1.26740 0 29.97615 1.19603 0.60230
-1.12181 -0.07924 0.72889 0 -7.94253 28.92950 0.48505
-6.11438 -0.19009 1.86717 0 -13.01974 -27.02751 0.30153
1.59788 0.20134 0.96392 0 17.61570 -24.28347 0.51143
17.06891 -0.07304 4.22153 0 -19.62638 -22.68932 0.24710
-4.02236 -0.18102 0.98142 0 5.39910 -29.51016 0.23683
-0.18916 -0.24384 0.45774 0 -11.69608 -27.62611 0.44977
0.72727 -0.19721 0.25039 0 13.79012 26.64268 0.20257
3.33985 0.14986 2.37121 0 -19.31046 -22.95879 0.68018
4.76047 -0.20030 1.21835 0 25.74079 -15.40817 0.25061
6.62560 0.10279 2.81050 0 17.43398 -24.41427 0.41955
16.25329 0.21590 12.14213 0 -25.85785 15.21090 0.74571
17.61756 0.11899 9.66106 0 -29.99927 -0.20924 0.54758
-2.14011 -0.00004 1.77844 0 2.85947 29.86341 0.75294
0.74939 0.14476 1.64316 0 -11.46703 27.72196 1.31270
-0.13348 0.20920 0.65886 0 -6.83839 29.21021 0.65307
-8.25591 0.01946 2.63904 0 0.03661 29.99998 0.31749
4.24699 0.25780 2.20745 0 -7.29418 29.09974 0.50598
0.82159 0.02970 0.91968 0 29.82309 3.25319 0.71063
0.97037 0.02703 0.75077 0 1.07891 29.98059 0.53886
16.08755 0.23712 7.81508 0 6.45249 29.29787 0.48495
-5.39598 -0.07440 3.78496 0 10.04861 28.26704 0.68979
-5.33638 0.15281 3.25559 0 -6.83900 29.21007 0.59968
-0.37369 -0.26311 0.76623 0 -2.40965 -29.90307 0.71776
-0.00156 -0.25752 0.81052 0 -27.76687 11.35786 0.81052
-5.74678 0.14557 3.36326 0 24.27016 17.63404 0.57662
-22.80636 0.25351 6.21903 0 -19.96075 22.39572 0.27261
-0.81254 0.21651 1.02300 0 4.15085 29.71145 0.79397
-0.84180 0.07993 1.07558 0 -23.90047 -18.13194 0.82287
-2.54458 0.14021 0.62893 0 -7.41759 -29.06853 0.23023
-23.34482 0.22303 7.47907 0 26.54412 -13.97891 0.32679
-4.98382 0.19603 1.53823 0 25.27231 -16.16510 0.30272
-17.14273 -0.19334 16.61110 0 -29.14977 -7.09161 0.96739
13.29885 0.04509 8.33884 0 14.45181 -26.28964 0.62535
18.32010 -0.04498 21.39367 0 -9.48867 28.45989 1.16608
10.79739 0.13846 5.81008 0 -28.93466 7.92373 0.53590
2.18976 -0.14770 2.77671 0 21.92778 20.47371 1.15351
3.80164 -0.15211 1.94334 0 29.67306 -4.41699 0.49442
19.33414 0.02367 18.16310 0 19.92375 22.42865 0.93823
1.70304 0.25263 0.53468 0 -23.21960 -18.99606 0.27892
-5.39647 -0.10631 4.28780 0 -22.15827 20.22402 0.78143
-23.54424 -0.10806 5.06929 0 -4.08178 -29.72102 0.21534
0.19266 0.23039 0.75202 0 -1.38682 29.96793 0.73845
-16.91696 0.05602 11.23684 0 -26.95328 13.17272 0.72666
3.40488 -0.16945 1.79055 0 -9.22329 28.54700 0.50463
-14.47222 -0.09816 3.43705 0 23.94907 18.06770 0.23713
12.03609 0.05152 6.74504 0 -6.22795 29.34642 0.55856
1.11920 0.04922 1.18552 0 28.35515 -9.79721 0.78992
-0.23019 0.23700 0.36065 0 -8.99323 28.62030 0.35146
1.43028 0.10457 0.88512 0 10.26863 28.18786 0.50722
2.69468 -0.24590 1.19837 0 -29.38072 6.06411 0.41702
-7.63126 0.16113 6.78265 0 -13.48017 26.80084 0.88132
8.66526 -0.00680 5.22487 0 29.99946 -0.18045 0.59907
-0.10896 0.12741 0.41985 0 28.13449 10.41396 0.41738
0.66837 0.16474 0.51352 0 28.75097 -8.56632 0.42697
0.23502 0.09004 0.88436 0 28.86550 -8.17209 0.86091
3.30072 -0.02567 1.71636 0 15.96748 -25.39763 0.49775
8.11259 0.19726 1.92949 0 -9.05234 -28.60166 0.23626
14.32517 -0.18028 6.06401 0 -28.50589 -9.34956 0.42240
23.24589 -0.16389 19.44328 0 24.04163 -17.94435 0.83570
13.72027 -0.25969 5.44483 0 -20.07862 -22.29011 0.39592
-27.07890 -0.14054 8.38665 0 -12.08978 -27.45609 0.30966
-0.77723 -0.14112 0.37044 0 -4.31480 29.68809 0.29255
-2.55893 0.13435 1.62137 0 0.43536 -29.99684 0.59019
-26.50888 -0.20120 18.78996 0 -28.59352 9.07804 0.70838
-0.86256 0.18105 0.64698 0 -12.33472 -27.34693 0.48996
-0.65409 -0.05859 1.44640 0 -28.94889 7.87157 1.21047
0.11705 -0.19319 0.57673 0 -5.06596 29.56917 0.57282
-1.95385 0.13379 3.28169 0 23.29878 18.89885 1.49516
-0.55189 0.09800 1.81629 0 8.99370 28.62016 1.59020
-2.63209 -0.06718 0.88100 0 20.55559 21.85104 0.31306
15.02880 0.10012 23.43629 0 -6.73675 29.23382 1.55602
2.32960 0.13362 2.34344 0 -0.48443 -29.99609 0.92440
13.74785 -0.13860 8.41000 0 -21.24341 21.18295 0.61020
2.07238 0.24578 0.63010 0 17.31495 -24.49883 0.27398
23.23015 0.14561 13.29943 0 15.24993 -25.83485 0.57206
0.44727 0.05960 0.65372 0 -5.91765 -29.41057 0.59676
-10.62899 -0.22475 3.43254 0 -7.27492 -29.10456 0.32167
0.99711 0.06518 0.35445 0 -20.82199 21.59733 0.25112
0.20440 -0.11169 0.57520 0 29.88869 -2.58186 0.56355
-7.55106 0.03779 11.57461 0 -29.93459 -1.98005 1.51961
-1.03594 0.08659 1.27743 0 -29.75520 3.82467 0.88722
0.23094 0.07547 1.99752 0 -24.56731 17.21765 1.94629
2.02951 0.02411 1.42721 0 29.94979 1.73491 0.63089
0.70295 0.14202 0.38654 0 8.72396 -28.70353 0.31628
22.65824 0.13359 9.85866 0 -0.93105 -29.98555 0.43479
-14.54899 -0.06864 5.27383 0 -28.12991 -10.42633 0.36177
0.99125 0.26098 0.40681 0 -13.00824 -27.03305 0.28898
0.22019 -0.25168 0.31438 0 -4.61539 29.64284 0.30703
-1.53619 -0.19674 1.09720 0 29.97355 -1.25949 0.59864
2.02312 0.01255 0.70404 0 -21.28252 -21.14366 0.31209
9.09567 -0.20596 3.92597 0 7.84835 28.95520 0.42916
6.92603 -0.14970 7.04473 0 -28.54390 9.23286 1.00675
6.07278 -0.01511 2.73415 0 8.40017 -28.79995 0.44435
-2.48132 0.09376 0.92469 0 -16.78049 24.86795 0.34574
-11.90598 0.13073 14.05909 0 -23.73641 18.34620 1.17674
0.79716 -0.18559 0.65460 0 -28.94765 -7.87614 0.51189
-0.75014 0.21592 0.32880 0 2.89817 29.85968 0.26310
1.61656 -0.05771 0.78294 0 -24.57412 -17.20792 0.41198
-0.04101 0.16433 1.16699 0 24.99144 16.59602 1.16601
-0.14238 0.25907 0.56402 0 -29.99791 -0.35450 0.55839
-1.44517 -0.05824 0.60505 0 -14.55843 -26.23075 0.34436
-1.80395 0.12298 0.71827 0 15.00838 25.97592 0.34833
0.07305 -0.23504 0.36078 0 -18.03601 23.97295 0.35982
0.62768 -0.13087 0.45154 0 29.70203 -4.21774 0.38247
-5.20955 0.13089 2.96554 0 17.86170 -24.10311 0.55910
6.71953 -0.03132 8.59801 0 25.49793 -15.80681 1.26566
-4.04118 -0.04024 2.35313 0 -29.18926 -6.92726 0.56535
-2.18604 -0.22258 0.90549 0 22.90719 19.37165 0.37675
1.13153 -0.05099 0.31982 0 -22.87539 19.40918 0.21189
4.29470 -0.09267 1.29927 0 -24.12340 -17.83429 0.29474
4.29092 -0.11849 1.01919 0 25.07767 16.46544 0.23145
1.11847 -0.00887 1.19170 0 21.92705 -20.47449 0.79433
6.39613 0.01421 1.57593 0 -7.08944 -29.15030 0.24363
2.97258 -0.02320 3.24499 0 -0.78784 29.98965 1.03471
1.00139 0.22339 0.44316 0 -26.39351 -14.26122 0.31323
-0.22946 0.25620 0.74756 0 8.58364 28.74580 0.72863
-12.13663 0.11681 3.01607 0 -23.15796 19.07116 0.24787
1.75133 0.18994 2.50582 0 -22.14302 -20.24072 1.24255
-0.36306 -0.25424 0.45454 0 24.90144 16.73076 0.42727
-5.81557 -0.04245 7.75165 0 -27.92435 10.96496 1.31367
-0.26729 -0.02929 0.68519 0 -23.62069 -18.49494 0.66638
-10.12353 0.02509 14.93461 0 -12.18901 27.41219 1.46813
-13.99406 0.14414 9.17023 0 -1.25924 29.97356 0.65370
-12.07377 -0.07441 6.15830 0 20.33589 -22.05565 0.50841
9.35235 -0.06203 11.82471 0 -22.60365 -19.72498 1.25723
-0.72001 0.21818 0.37496 0 -7.72214 -28.98911 0.30435
-0.46276 -0.12587 1.03433 0 22.38391 -19.97400 0.93870
3.88925 0.17938 3.17137 0 25.92081 15.10337 0.78980
0.76047 -0.05906 0.87583 0 2.65158 -29.88259 0.69717
-6.10438 -0.06858 5.90815 0 -29.79008 -3.54274 0.95517
-16.39681 -0.16219 6.56398 0 13.32502 26.87831 0.39970
-3.51398 0.26299 1.34161 0 12.96264 27.05494 0.36730
-3.26238 -0.19815 1.33539 0 29.99822 -0.32654 0.39144
1.53409 -0.01147 1.34066 0 -14.93571 26.01777 0.73214
2.42546 -0.22343 0.77396 0 -13.28930 -26.89600 0.29512
0.91713 0.08256 0.84374 0 7.30419 29.09723 0.62186
-0.25645 -0.11461 0.60219 0 6.51762 29.28345 0.58333
1.24871 0.06505 1.14196 0 29.99370 -0.61483 0.71389
-2.46517 -0.11002 1.87908 0 -25.22160 16.24410 0.70646
-4.10311 -0.06475 1.69661 0 -2.80204 29.86886 0.40193
-1.60567 0.16051 1.76664 0 20.01788 22.34468 0.93398
2.17364 -0.16026 1.86165 0 13.68242 -26.69815 0.77811
-12.71854 -0.11387 3.60870 0 -25.98347 -14.99530 0.28303
10.39364 0.05664 7.66319 0 -10.60568 -28.06278 0.73397
1.67197 -0.16431 1.39951 0 -29.56091 -5.11398 0.71841
-16.51291 0.20257 12.68630 0 29.86247 2.86927 0.76692
0.96032 -0.22093 0.75933 0 -17.77179 -24.16947 0.54773
0.90002 -0.00109 0.36917 0 -28.77399 8.48866 0.24691
-1.02966 -0.05096 0.76774 0 4.42559 29.67177 0.53492
-9.20352 0.16187 4.55996 0 29.99501 -0.54688 0.49266
-4.15534 -0.05576 3.51085 0 10.90673 27.94715 0.82149
6.74260 -0.11138 4.58005 0 25.97565 -15.00884 0.67199
-3.36544 0.02841 0.93893 0 -27.28191 12.47789 0.26753
-1.23557 -0.09602 0.46421 0 -6.98465 -29.17558 0.29214
-2.77835 -0.01581 2.62036 0 4.06453 -29.72338 0.88746
-0.30909 -0.18086 0.44953 0 28.58273 9.11194 0.42949
0.33952 -0.00660 0.41468 0 -29.57885 -5.00913 0.39268
7.20159 0.01848 4.11455 0 12.83453 27.11595 0.56599
1.55871 -0.07577 1.73508 0 2.85985 29.86338 0.93695
17.89105 -0.12863 13.74880 0 -26.69603 13.68657 0.76734
25.11706 0.20626 9.55743 0 28.02270 -10.71113 0.38034
-18.18885 -0.17930 6.02382 0 6.19684 -29.35301 0.33083
3.83027 -0.05479 1.32392 0 -28.40113 -9.66311 0.33459
1.16293 0.05108 1.11280 0 -25.96547 -15.02646 0.72558
-2.38107 -0.19615 0.88569 0 -15.20169 -25.86327 0.34305
-4.66942 -0.00201 3.31852 0 3.12499 -29.83680 0.69499
-2.57342 0.15765 0.72841 0 -18.04959 23.96273 0.26404
-14.64967 -0.16290 8.42862 0 -9.21789 -28.54874 0.57410
0.56121 0.17011 1.06241 0 -20.91180 21.51038 0.92649
6.23781 0.04557 2.91707 0 -29.66101 4.49714 0.46185
0.59442 -0.12908 0.84298 0 -28.38056 9.72336 0.72464
2.10827 0.25693 0.50924 0 -10.48979 -28.10630 0.21843
-8.04521 -0.19240 4.02798 0 20.58816 -21.82035 0.49694
-25.31727 0.12134 7.67237 0 -6.52277 29.28231 0.30297
-17.34301 -0.23567 8.60005 0 6.03573 -29.38656 0.49516
-4.71174 -0.10618 3.07996 0 -11.37029 -27.76178 0.63949
0.27049 -0.19144 0.74831 0 -9.48048 -28.46262 0.72236
5.61177 -0.13328 3.35081 0 -25.41817 -15.93476 0.58799
2.11636 -0.06039 1.63221 0 -17.33609 24.48387 0.69736
0.47861 -0.21918 0.99191 0 29.88832 2.58615 0.89473
0.56434 -0.01242 0.48186 0 -25.88843 15.15880 0.41968
20.24848 0.19388 9.49966 0 -26.89831 13.28461 0.46869
-4.33001 0.11633 1.88383 0 2.17797 -29.92084 0.42394
2.35673 0.09461 0.79411 0 -27.57198 11.82310 0.31038
-0.17429 0.10845 0.82866 0 22.35432 20.00711 0.81636
0.59130 -0.25872 0.52686 0 19.66982 -22.65167 0.45353
0.71437 -0.05172 0.63848 0 11.03317 27.89748 0.51955
0.76167 -0.24156 0.31284 0 11.54864 -27.68806 0.27318
-1.59037 0.07978 1.39891 0 27.32612 12.38076 0.74470
-1.32683 0.02952 0.71980 0 -20.37232 22.02200 0.43329
8.06478 0.09490 3.14394 0 -29.94383 -1.83489 0.38700
-0.69599 0.03948 0.52933 0 0.10534 29.99981 0.43450
5.24916 0.14320 2.18426 0 21.67471 -20.74144 0.40886
6.62181 -0.09447 3.84297 0 -13.84749 -26.61291 0.57393
0.54333 -0.26099 0.55284 0 20.55917 21.84767 0.48579
-4.13346 0.16812 1.26476 0 6.40435 -29.30844 0.29754
-20.40617 0.00120 4.56890 0 6.16717 -29.35926 0.22385
-3.60879 -0.25312 2.37570 0 -28.30245 -9.94842 0.63446
3.46247 -0.00544 1.44035 0 2.74060 -29.87456 0.39977
2.35482 -0.19939 1.05982 0 -19.20150 -23.05000 0.41437
18.53644 -0.10368 12.56842 0 -29.84281 3.06702 0.69454
-8.92105 -0.04741 3.10467 0 -10.28714 -28.18110 0.35278
-1.23153 -0.02893 1.02790 0 -29.97767 -1.15723 0.64799
7.40987 0.14854 3.27846 0 17.55101 -24.33027 0.43858
-4.44384 0.24440 4.01467 0 24.09717 17.86970 0.88144
-2.64819 -0.13849 1.23656 0 12.52262 27.26140 0.43697
0.36684 -0.15832 0.36301 0 -23.73811 18.34400 0.34081
-1.05537 -0.01452 0.65099 0 20.47990 -21.92199 0.44785
-0.87241 -0.24416 0.66015 0 6.67826 -29.24724 0.49749
0.77484 0.09505 0.53870 0 -26.93348 -13.21317 0.42586
-16.07484 0.14896 10.01504 0 -19.31118 22.95818 0.62190
1.19416 -0.16544 1.02034 0 14.70393 -26.14946 0.65514
-1.47965 -0.05259 1.03265 0 -28.63416 8.94900 0.57829
-5.95271 -0.04215 1.33642 0 -5.03349 -29.57472 0.22165
0.16582 -0.10772 0.26726 0 29.18961 6.92579 0.26366
1.32138 -0.09027 1.12089 0 -16.51799 -25.04308 0.67645
-5.68668 0.09263 2.74651 0 -19.37327 22.90582 0.47573
10.69483 -0.24443 4.39109 0 23.39336 -18.78166 0.40892
0.12767 -0.17616 0.54277 0 -27.08540 12.89887 0.53840
0.46580 0.19933 0.50894 0 20.04584 22.31960 0.46137
12.61637 -0.13722 12.52157 0 -0.93572 29.98540 0.98943
-13.59907 -0.04867 5.42926 0 23.05489 -19.19562 0.39828
-1.81809 0.13850 0.49745 0 -20.68333 21.73016 0.23988
2.19295 -0.20021 1.03591 0 7.97473 -28.92064 0.42985
24.41565 0.03221 4.90189 0 8.84853 28.66537 0.20084
24.61911 0.26203 17.20882 0 -26.25757 14.51000 0.69850
5.59753 0.15669 4.93548 0 -9.91056 -28.31573 0.86802
2.05342 0.07102 0.87017 0 29.82122 -3.27034 0.38109
-5.19771 0.00873 3.76098 0 5.07963 -29.56683 0.71069
-24.77402 -0.21100 5.26172 0 6.14884 29.36310 0.21245
-0.12517 -0.09877 0.25889 0 15.26482 25.82606 0.25689
-25.93114 0.07823 12.30274 0 6.77606 29.22473 0.47419
27.01604 0.00073 20.43787 0 -2.46400 -29.89864 0.75606
18.42919 -0.08063 7.65885 0 -14.96594 26.00040 0.41509
-6.55265 -0.19880 2.50620 0 -13.98443 26.54121 0.37822
10.53978 0.06557 7.90562 0 -10.97067 -27.92211 0.74679
13.45708 0.24191 4.94006 0 29.47890 -5.56724 0.36622
-1.48374 0.17834 1.17156 0 -29.44215 5.75846 0.65540
-18.73990 -0.17644 11.29745 0 25.59459 15.64983 0.60208
5.29269 -0.11673 1.84491 0 1.53056 29.96093 0.34259
23.31788 0.01691 14.26399 0 7.38913 -29.07578 0.61124
4.26275 0.06870 0.90529 0 29.44882 5.72423 0.20694
5.36481 -0.24282 3.27301 0 -8.25277 28.84253 0.59984
2.69846 -0.03413 2.70968 0 -11.37899 27.75822 0.94169
4.55726 -0.24085 2.56046 0 28.94651 -7.88033 0.54886
4.55326 -0.01742 2.62039 0 -7.85862 -28.95241 0.56217
0.99542 0.21514 0.56392 0 -19.72166 22.60655 0.39972
-0.59800 -0.24792 0.70102 0 22.85958 -19.42780 0.60167
-2.34297 -0.09487 0.63885 0 -24.20705 17.72058 0.25090
-0.26562 -0.16574 0.48283 0 1.99512 29.93358 0.46665
12.24755 -0.11471 8.40724 0 13.63531 -26.72224 0.68424
-26.47637 -0.20804 12.59526 0 -13.37170 26.85512 0.47548
-0.94174 -0.02161 0.68975 0 3.24677 -29.82379 0.50218
2.26510 -0.18241 1.23960 0 -28.81893 8.33482 0.50069
4.44393 -0.09510 7.34193 0 28.45824 9.49359 1.61185
1.05613 0.18692 0.94685 0 6.81282 -29.21619 0.65104
-9.98020 -0.03798 2.23479 0 10.08550 -28.25390 0.23793
9.00559 -0.17224 17.05740 0 -10.75193 -28.00707 1.88255
0.06892 -0.17297 1.08814 0 15.29537 -25.80798 1.08557
2.29193 -0.14989 1.44606 0 -19.62952 22.68660 0.57847
0.79430 -0.23123 0.64139 0 0.81514 -29.98892 0.50913
-4.99077 -0.22145 3.72309 0 29.65394 4.54358 0.73154
-6.29393 -0.22712 2.35152 0 29.94365 -1.83787 0.36912
-12.70687 -0.13290 2.94345 0 -29.79685 3.48539 0.23114
-0.64436 -0.16713 0.51324 0 -27.53436 11.91047 0.43146
1.47235 -0.17872 0.95187 0 -27.71963 11.47268 0.53486
-27.25208 0.21123 18.51660 0 3.12651 29.83664 0.67907
-0.13471 0.20182 0.34926 0 -5.76062 -29.44173 0.34614
12.81455 -0.09317 7.93266 0 -20.29729 -22.09117 0.61724
-7.73502 -0.21680 1.05097 0 -0.65604 29.99283 0.27728
4.71696 0.05850 4.25955 0 26.57993 -13.91069 0.88343
0.50906 0.16337 0.46365 0 4.15288 29.71117 0.41321
-0.68061 0.15853 1.03943 0 29.62348 -4.73810 0.85931
-2.20326 0.01664 1.86827 0 -23.21893 18.99688 0.77219
-7.94566 0.19902 6.35253 0 -0.43251 -29.99688 0.79330
-1.22405 0.22157 1.43553 0 21.72473 -20.68903 0.90826
16.86500 -0.19773 6.19266 0 -19.28935 22.97653 0.36668
19.56675 0.21836 10.92427 0 -10.87728 -27.95862 0.55767
-3.34961 0.21240 1.87426 0 -27.67643 -11.57649 0.56468
0.94197 0.03394 0.58210 0 -8.01308 -28.91004 0.42377
-0.15242 0.13911 0.47778 0 -13.65000 -26.71474 0.47233
0.02769 0.20530 1.24256 0 -9.16879 28.56455 1.24208
11.95901 0.25735 5.70718 0 24.31695 -17.56946 0.47567
-17.09967 -0.19124 14.97969 0 3.06345 -29.84318 0.87459
-0.00206 0.21775 0.50430 0 24.15325 17.79383 0.50430
-0.72263 0.02255 0.87254 0 1.96126 -29.93582 0.70724
0.83159 -0.04975 2.31433 0 -26.74604 -13.58857 1.77945
-1.48796 -0.06923 0.79620 0 -10.42586 -28.13008 0.44419
-1.61421 0.23357 2.00566 0 0.51459 -29.99559 1.05628
-2.49483 -0.19222 3.58005 0 22.77676 -19.52484 1.33200
-23.29533 0.01906 36.10757 0 -29.44681 5.73459 1.54860
13.55853 -0.15693 10.42335 0 -28.91039 -8.01184 0.76675
5.10990 -0.23331 4.98844 0 -29.73679 -3.96524 0.95809
-9.32616 -0.17419 4.39481 0 21.73605 20.67714 0.46865
-1.27927 -0.05940 1.29342 0 -24.37478 -17.48914 0.79660
-3.46427 -0.12005 2.72800 0 -9.78992 -28.35767 0.75667
1.58863 -0.03082 3.27480 0 21.04287 21.38218 1.74456
1.48265 0.09153 1.78771 0 15.92778 25.42255 0.99965
0.58101 0.17958 0.69686 0 29.98820 0.84133 0.60256
0.43723 -0.03266 2.21955 0 29.97773 -1.15562 2.03366
0.05774 0.01751 0.27067 0 -20.62351 21.78694 0.27022
-8.62786 0.18191 5.42749 0 -9.30398 -28.52080 0.62496
-2.36233 0.04690 6.87796 0 -19.59173 22.71925 2.68120
0.98075 -0.24398 1.50877 0 8.68618 28.71498 1.04865
0.58291 -0.13620 0.73455 0 11.98214 27.50324 0.66126
3.47049 -0.20474 0.86764 0 0.40000 -29.99733 0.24045
-0.32168 -0.23431 0.76647 0 29.98780 -0.85536 0.72965
-1.36448 -0.14766 2.29626 0 28.85085 8.22364 1.35741
-3.75969 -0.13768 7.69629 0 -27.01483 13.04603 1.97829
-5.15826 0.23053 2.07594 0 -28.71288 8.69313 0.39514
-4.81522 0.16334 2.50809 0 9.74045 28.37470 0.50983
2.46421 -0.05294 2.36317 0 29.84211 -3.07385 0.88870
-17.45649 0.19663 7.32143 0 1.95056 -29.93652 0.41884
-5.86358 0.19190 4.23878 0 21.35879 21.06661 0.71272
2.29136 0.23583 0.73368 0 5.82372 -29.42931 0.29357
1.75359 0.25532 1.24778 0 -29.15597 -7.06607 0.61820
-4.00470 -0.21249 1.94849 0 -14.86877 26.05609 0.47217
-0.61128 -0.23683 0.30086 0 25.12980 16.38577 0.26644
-0.67378 0.05766 0.72947 0 29.68908 -4.30797 0.60499
1.87109 0.09855 1.30085 0 -21.10192 21.32391 0.61322
-4.27856 -0.11694 6.83232 0 -29.06216 -7.44250 1.55504
1.83116 -0.15779 1.12084 0 29.94155 1.87185 0.53728
0.09787 0.08054 0.90213 0 3.83447 -29.75394 0.89784
9.53226 0.10211 3.10731 0 -26.64844 -13.77900 0.32435
6.01187 0.15042 3.49443 0 -24.36160 17.50750 0.57349
-0.24454 -0.09666 0.78115 0 -29.58018 -5.00131 0.75879
-0.21813 -0.02539 0.49866 0 -26.72628 13.62740 0.48720
-1.89795 -0.21810 2.34568 0 16.80574 24.85090 1.09345
-20.38142 0.25727 25.77888 0 -5.40807 -29.50852 1.26334
1.24329 -0.26203 0.85017 0 25.06484 -16.48495 0.53289
1.36084 0.22689 1.03885 0 -9.27105 28.53152 0.61520
-22.24404 0.18175 5.56942 0 26.70242 -13.67410 0.25032
-4.60312 -0.00735 2.41445 0 -29.93986 1.89866 0.51271
21.17074 -0.07139 7.30769 0 -19.32630 -22.94546 0.34494
3.05304 0.14637 2.70792 0 -28.60463 -9.04296 0.84296
1.08308 -0.00176 1.80512 0 1.03633 -29.98210 1.22455
3.41335 0.20324 3.16620 0 27.29222 12.45531 0.89025
-4.81025 0.06176 1.57111 0 -21.97745 -20.42038 0.31997
-0.74733 0.12591 0.72634 0 -23.56127 18.57058 0.58185
-0.95439 0.06549 1.67405 0 1.28506 29.97246 1.21104
-13.50311 -0.15073 14.53454 0 -10.97312 27.92115 1.07349
-6.85871 -0.01270 2.65890 0 26.06968 -14.84493 0.38374
-0.13726 0.04496 0.89040 0 27.27207 12.49937 0.88213
3.04399 0.20790 2.34723 0 26.49515 14.07149 0.73271
-11.72929 -0.09675 8.51429 0 14.61515 -26.19919 0.72334
-10.30749 0.19229 8.06924 0 -8.19579 28.85878 0.77926
-1.83569 0.26389 1.91082 0 -16.74844 -24.88955 0.91414
-0.52520 -0.05424 1.21891 0 -10.22104 28.20515 1.07914
5.98588 -0.25067 2.34017 0 -10.41743 -28.13320 0.38572
3.84956 0.24260 0.90435 0 -5.75326 29.44316 0.22749
-2.51430 0.10467 0.78526 0 28.68325 -8.79039 0.29033
15.51846 0.18298 5.79026 0 11.72900 -27.61214 0.37248
-1.90218 0.08397 0.71867 0 -24.90989 -16.71818 0.33454
-0.46387 0.15404 0.58273 0 12.47469 27.28337 0.52865
4.59064 -0.11626 2.42100 0 10.69983 -28.02702 0.51536
4.69818 -0.21015 2.99778 0 28.66317 8.85567 0.62420
-1.51459 -0.23420 0.58649 0 -19.12883 -23.11034 0.32325
1.26262 -0.10226 0.63197 0 3.49675 -29.79552 0.39242
-0.37058 -0.14911 0.70627 0 0.18465 -29.99943 0.65979
8.37000 -0.11379 2.80648 0 27.74487 11.41150 0.33308
0.09647 -0.22644 0.27331 0 21.12420 21.30183 0.27205
18.95895 -0.23676 5.48399 0 13.11035 26.98367 0.28902
-0.69133 0.24343 0.75795 0 -5.05940 29.57030 0.62350
-0.24674 -0.22327 0.43347 0 -27.66294 -11.60869 0.42086
18.99395 -0.17841 3.87302 0 -23.71422 -18.37486 0.20386
-0.39743 0.01913 0.64948 0 28.77903 -8.47156 0.60357
-2.96425 -0.14707 1.84692 0 29.17145 -7.00190 0.59046
-2.33475 -0.23559 0.71594 0 17.49431 24.37107 0.28195
-1.05578 -0.03288 0.44220 0 -26.28140 -14.46680 0.30417
11.47597 -0.19581 9.34620 0 -7.59579 -29.02247 0.81140
-1.31606 0.06418 1.13112 0 4.68548 -29.63185 0.68438
-0.54130 0.12043 1.04088 0 -26.22828 -14.56287 0.91949
3.53275 0.04876 0.62404 0 -25.53127 -15.75292 0.17006
1.35056 0.07216 0.46595 0 -17.46528 -24.39188 0.27738
-4.51844 -0.25652 1.49617 0 10.55159 -28.08316 0.32347
-24.27354 -0.19768 13.26071 0 -7.71973 28.98975 0.54593
-1.46195 0.24699 1.13373 0 6.08679 -29.37603 0.64013
-5.34901 0.02091 2.04076 0 6.56092 29.27378 0.37516
3.91019 -0.26382 1.98223 0 28.62354 -8.98294 0.49118
-17.72958 -0.06049 5.36686 0 22.84717 -19.44240 0.30239
-11.64134 -0.13022 5.57460 0 -20.48326 -21.91885 0.47721
0.34802 -0.19640 0.43204 0 29.12244 -7.20301 0.40718
25.73863 -0.19755 14.93581 0 -23.64735 -18.46084 0.57993
-2.05940 -0.02061 1.03296 0 9.96685 -28.29597 0.45130
-0.38033 -0.03881 0.30991 0 3.75894 -29.76357 0.28968
6.16767 0.02820 2.29316 0 25.99703 14.97178 0.36714
-3.54251 0.03608 1.17738 0 5.57857 29.47676 0.31994
-22.88541 0.07785 18.14831 0 28.36410 -9.77127 0.79232
-2.02603 -0.07363 1.06236 0 -29.61894 4.76641 0.47027
2.99900 -0.15134 2.97035 0 16.34628 -25.15550 0.93966
1.14291 -0.07220 0.54677 0 -4.82250 -29.60986 0.36014
1.22637 -0.03902 0.72482 0 -12.55814 27.24506 0.45810
-2.85913 0.15931 2.12525 0 -29.03519 7.54704 0.70168
10.62656 0.18973 7.92401 0 -2.92227 29.85733 0.74247
17.28885 0.10399 11.18408 0 -1.01233 -29.98292 0.64589
-1.31858 -0.12240 1.69253 0 26.83595 13.41015 1.02279
1.05792 0.01432 1.07495 0 -29.96679 1.41129 0.73847
1.04747 0.21067 0.80383 0 -26.88028 13.32106 0.55510
-0.38632 0.01247 0.67960 0 -23.75907 18.31684 0.63395
-1.62101 0.16260 0.76323 0 27.55652 11.85910 0.40079
0.74742 -0.09078 0.59176 0 28.62533 -8.97722 0.47402
-0.95551 -0.09188 0.49504 0 -28.64337 8.91951 0.35801
1.29682 -0.08939 0.98984 0 29.20319 6.86832 0.60450
-7.59908 -0.16213 5.28400 0 25.56882 -15.69189 0.68947
11.30850 0.20668 7.78966 0 -8.73064 -28.70150 0.68623
1.82027 -0.23640 0.61994 0 26.21390 14.58874 0.29861
-19.64280 -0.16182 7.16026 0 28.66678 8.84395 0.36419
-3.91067 -0.01859 1.04432 0 22.86256 19.42429 0.25884
-0.21882 0.00725 0.28230 0 -29.16363 -7.03438 0.27578
-27.22958 -0.11650 15.30366 0 -16.56738 -25.01044 0.56173
-24.42832 0.11761 17.55095 0 11.00301 -27.90938 0.71794
1.77428 0.02291 0.47323 0 -29.67650 4.39380 0.23251
1.67658 0.16249 1.43467 0 -29.11939 7.21534 0.73499
0.51655 0.02221 0.90196 0 29.29593 -6.46133 0.80137
-6.95423 -0.06296 3.08788 0 -26.07672 14.83255 0.43962
7.64614 -0.18863 3.28003 0 9.62283 28.41480 0.42547
19.52135 0.08604 8.45067 0 20.65218 21.75977 0.43244
23.51318 -0.13642 7.25216 0 -6.68568 29.24554 0.30831
2.10675 -0.21656 1.59507 0 3.31501 -29.81628 0.68404
3.65073 0.00083 3.26080 0 -28.80507 8.38261 0.86149
7.19176 0.22876 3.22837 0 -13.69183 -26.69333 0.44473
-0.01651 -0.11758 0.49484 0 6.22371 -29.34732 0.49477
0.34960 0.26165 0.57815 0 -23.82846 18.22647 0.54577
4.22959 0.09717 6.88666 0 -22.78416 -19.51620 1.58457
1.49583 -0.20228 0.32323 0 -29.64372 -4.60972 0.17978
-3.79886 -0.11278 0.80614 0 13.40667 26.83768 0.20539
-13.06611 0.02413 10.01259 0 -10.38295 28.14595 0.76413
-3.04688 -0.04819 0.46017 0 29.74380 -3.91232 0.14365
0.22875 -0.19088 0.67955 0 -23.10005 19.14125 0.66244
-10.48926 -0.15523 8.45150 0 -19.68194 -22.64114 0.80215
0.81083 0.07254 0.39738 0 24.43682 -17.40236 0.30872
20.93031 0.11854 13.65976 0 -3.29348 -29.81867 0.65196
0.10552 -0.16945 0.93967 0 26.25478 14.51504 0.93448
-3.99862 0.13821 1.67422 0 20.56587 -21.84136 0.40631
-0.34815 -0.03453 0.80769 0 -1.57360 29.95870 0.76279
20.02247 -0.16336 20.79760 0 23.53082 -18.60915 1.03747
-14.47303 -0.10911 12.34589 0 9.50401 28.45477 0.85106
