0.02831 -0.11238 0.69229 0 -14.45318 -26.28889 0.69201
-1.86462 0.22933 1.32939 0 -19.10677 -23.12858 0.62838
-18.10984 -0.14092 22.79356 0 -19.50427 22.79437 1.25675
-13.64390 -0.03153 6.83975 0 6.22295 29.34748 0.50006
2.41587 -0.16920 3.61454 0 22.68572 19.63054 1.38247
-0.26608 0.03484 0.41809 0 -20.11880 22.25385 0.40404
-2.76830 0.09435 0.76260 0 27.24672 -12.55453 0.25915
-26.05115 -0.20167 14.12741 0 29.98949 -0.79409 0.54199
-0.24920 0.18403 0.39937 0 -13.27487 26.90312 0.38753
0.11109 -0.14695 0.28120 0 -13.74938 -26.66373 0.27948
-24.66836 -0.10118 10.71881 0 11.22053 -27.82265 0.43427
2.44269 0.13320 0.90928 0 -15.49920 -25.68608 0.34460
2.46853 0.16177 1.26521 0 -29.58858 4.95136 0.47510
-0.40475 -0.09693 0.26249 0 -15.53481 25.66456 0.24241
-9.14885 -0.13476 8.25595 0 28.54434 -9.23151 0.89711
-21.71110 0.24954 12.85302 0 29.76640 -3.73647 0.59146
13.85879 -0.22206 4.77797 0 10.12492 28.23979 0.34401
2.86177 -0.06217 2.04264 0 -22.94127 -19.33127 0.67391
-0.53804 0.23202 0.53216 0 12.48658 -27.27793 0.46866
-9.34752 0.05348 3.06587 0 -29.89823 2.46894 0.32627
3.29960 -0.17431 1.96044 0 27.48942 -12.01381 0.56866
6.85123 0.06240 1.59709 0 -29.99518 0.53791 0.23087
-4.72651 0.00463 2.55378 0 -24.33540 -17.54389 0.52869
-0.48980 0.03215 0.54837 0 16.75000 -24.88850 0.49248
-5.35891 0.02630 2.04813 0 -28.43693 9.55724 0.37586
4.65138 -0.01095 1.63596 0 21.06768 -21.35773 0.34399
13.00111 0.11487 5.16337 0 29.00918 -7.64639 0.39610
-21.04683 0.24314 8.77703 0 29.00908 7.64678 0.44765
1.83040 -0.25963 0.58823 0 17.08312 24.66104 0.28215
7.23282 -0.21024 2.74808 0 21.52679 -20.89491 0.37649
-3.85437 -0.08765 0.88650 0 -8.50359 -28.76958 0.22284
0.25807 -0.09240 0.35365 0 -13.65745 -26.71094 0.34244
16.08034 0.19174 10.71419 0 -21.44357 -20.98031 0.66508
1.83592 -0.03263 2.17334 0 -4.86007 -29.60371 1.03962
4.73859 0.04060 1.93695 0 -7.21268 29.12005 0.40013
-19.73379 0.15643 7.73188 0 -22.24901 20.12415 0.39143
16.78694 0.02401 12.57563 0 29.04697 -7.50156 0.74787
-0.22393 0.23349 0.55438 0 24.62965 -17.12835 0.54099
5.55360 -0.20006 1.98173 0 19.04486 -23.17959 0.35130
18.59726 0.11178 6.33282 0 6.36796 29.31636 0.34018
10.71632 -0.06656 5.85569 0 -29.86390 -2.85436 0.54415
7.95008 0.15945 3.29133 0 24.63153 17.12564 0.41088
-8.89693 -0.01495 14.14389 0 15.03295 -25.96171 1.57983
16.88852 0.07442 13.67853 0 -24.88117 16.76089 0.80857
1.30495 -0.17305 1.45969 0 1.00276 29.98324 0.88790
1.49579 -0.16217 1.60795 0 29.32208 -6.34158 0.89372
0.89571 -0.18693 0.74022 0 29.99757 -0.38185 0.55144
-0.35267 0.22513 0.25609 0 10.49018 28.10616 0.24153
2.81326 -0.15750 1.34960 0 29.72366 4.06249 0.45206
0.02772 0.20685 0.76641 0 29.77814 3.64179 0.76612
1.78211 -0.14443 0.76533 0 28.67532 8.81623 0.37462
0.28075 -0.25380 0.43176 0 9.53263 -28.44519 0.41570
-1.29999 0.06033 2.42641 0 26.99338 -13.09037 1.47943
-0.05954 0.17107 0.83313 0 15.45597 25.71211 0.83165
-7.34099 -0.07737 5.35893 0 -23.59570 18.52681 0.72339
-13.33659 -0.03270 6.56796 0 19.56708 22.74048 0.49120
-4.56635 -0.23940 2.15895 0 4.49604 29.66118 0.46200
3.80048 0.09397 1.30596 0 -1.67058 29.95345 0.33246
17.24766 -0.23538 15.25147 0 -13.05577 -27.01013 0.88284
19.56561 -0.02379 7.29867 0 26.59384 13.88408 0.37268
0.66525 0.06457 0.82241 0 -28.29990 -9.95569 0.68476
23.40390 -0.00907 6.44923 0 23.63466 -18.47709 0.32419
-4.67896 -0.10327 1.97438 0 2.03489 29.93091 0.56140
-9.60284 -0.11310 5.30073 0 -29.57477 5.03318 0.54912
-0.09472 0.21485 0.70484 0 -9.80096 -28.35386 0.70170
1.05727 0.18981 1.19576 0 -29.82547 3.23132 0.82171
-3.37012 0.24272 4.47620 0 -12.48046 27.28073 1.27344
-2.64025 -0.03822 1.78219 0 29.57004 -5.06093 0.63135
-1.50447 0.08625 0.72213 0 11.36099 27.76559 0.39980
1.66613 -0.22034 0.46166 0 18.80240 -23.37670 0.23770
-0.73763 0.14057 0.34682 0 0.73070 29.99110 0.27915
-12.21466 -0.05173 6.07287 0 -29.92214 -2.16004 0.49562
-15.22684 0.16723 7.29278 0 -27.15335 -12.75522 0.47801
-14.72376 0.04142 18.85224 0 -8.57600 -28.74808 1.27749
-6.98173 -0.14324 3.61737 0 -28.65496 -8.88217 0.51298
-5.64889 0.20890 3.86787 0 -29.11735 -7.22355 0.67434
8.98703 -0.09066 5.95796 0 29.98527 -0.93998 0.65896
13.33383 0.22467 6.78786 0 -28.84791 -8.23395 0.50774
0.94125 0.24668 0.68996 0 -25.78001 -15.34245 0.50246
-14.61193 0.02552 6.86008 0 14.39521 -26.32067 0.46849
-3.79502 -0.24686 2.91577 0 19.62778 -22.68811 0.74300
0.10331 -0.12837 0.83208 0 8.35337 -28.81356 0.82768
2.60812 -0.10567 1.81631 0 -12.89522 -27.08714 0.65030
-4.44311 -0.08054 2.07527 0 -29.80251 3.43663 0.45575
-2.67721 0.06650 2.10678 0 -29.66352 4.48058 0.73729
-3.02311 0.06258 0.66671 0 -28.14909 -10.37441 0.20960
1.24709 -0.14786 0.92211 0 27.55818 11.85525 0.57690
-3.04206 -0.25755 1.76038 0 -28.94026 -7.90325 0.54980
2.33720 0.12534 0.44491 0 -9.66260 -28.40130 0.17519
-17.13205 -0.05832 7.33683 0 24.79818 -16.88343 0.42764
13.64561 -0.12437 13.04939 0 1.60532 -29.95702 0.95380
26.44462 -0.05849 23.46692 0 28.75676 8.54685 0.88682
4.51853 0.14607 2.77048 0 29.99331 -0.63332 0.59875
18.62121 -0.12671 6.88527 0 23.35208 -18.83296 0.36935
-2.60179 -0.10098 0.65027 0 28.19452 10.25033 0.23343
-6.48500 -0.19904 3.24802 0 6.54015 29.27843 0.49510
17.29906 -0.24575 5.35323 0 26.90582 13.26941 0.30909
8.77636 0.11920 3.38563 0 23.49319 -18.65664 0.38341
6.27519 0.20419 3.12598 0 -15.31593 -25.79578 0.49204
9.21626 0.20658 4.84683 0 28.21842 -10.18433 0.52292
3.94326 -0.16361 2.78492 0 25.83221 15.25441 0.68460
-12.32814 -0.18377 6.13540 0 -29.99363 0.61829 0.49614
-13.79129 -0.05329 7.14375 0 11.32635 -27.77974 0.51673
4.49997 -0.14764 2.73370 0 -18.55598 23.57277 0.59310
8.17083 -0.24790 4.38770 0 -18.56256 23.56759 0.53311
-3.43918 0.22329 1.38072 0 15.86398 25.46240 0.38561
1.21480 0.00452 0.91877 0 -12.93682 -27.06730 0.58396
10.10848 -0.25118 7.37390 0 29.97848 -1.13624 0.72600
4.40975 -0.03680 2.50755 0 -14.29842 -26.37338 0.55462
5.46782 -0.13318 2.49299 0 10.28018 -28.18365 0.44855
-18.29020 -0.11025 12.43856 0 29.23338 6.73865 0.67913
-13.11056 0.02157 9.97727 0 -22.73215 -19.57675 0.78635
-5.49497 0.12126 3.89701 0 -12.89216 27.08860 0.69782
2.22207 0.12769 1.23066 0 24.11228 -17.84931 0.50515
-0.32343 -0.04773 0.78827 0 29.05903 7.45470 0.75002
-1.14054 -0.06273 0.66297 0 -23.79756 18.26681 0.43715
0.61401 0.08213 0.68839 0 -27.59684 -11.76495 0.58665
-17.03791 -0.04460 14.43977 0 29.35490 6.18790 0.84611
-26.68724 0.14390 8.28584 0 -27.21890 -12.61473 0.31042
-14.22890 -0.07462 5.04754 0 -4.56952 -29.64995 0.35400
26.82324 0.20999 10.41891 0 -9.39369 28.49138 0.38828
0.70613 -0.20333 0.66710 0 6.45147 29.29810 0.54497
-1.54354 0.15321 0.82081 0 -28.82818 8.30276 0.44637
-0.40105 -0.14176 0.62752 0 -29.99615 -0.48089 0.58244
-23.85778 -0.09559 6.10379 0 28.17127 10.31404 0.25581
-5.70027 0.18966 1.94928 0 -11.09603 27.87253 0.33709
3.77171 0.22369 1.07738 0 9.44857 -28.47323 0.27618
7.08406 0.00336 2.12795 0 24.18950 -17.74452 0.29760
5.94470 -0.04824 1.03149 0 -29.30891 6.40216 0.17120
-0.89789 0.05120 1.40803 0 -29.13798 7.13992 1.04770
-4.25034 0.07968 4.63086 0 -7.53246 29.03897 1.06061
-2.36054 0.01038 2.60568 0 -5.30301 -29.52758 1.01644
-5.56835 0.16293 7.82894 0 6.88130 -29.20013 1.38390
4.90847 -0.03374 1.11013 0 29.36703 6.13006 0.22179
2.50251 -0.09316 0.68222 0 24.27569 -17.62642 0.25338
0.32170 -0.07638 0.68203 0 -19.57515 -22.73353 0.64927
-2.95309 -0.12764 0.73830 0 29.76675 3.73370 0.23698
13.37751 -0.11783 7.06727 0 11.23316 -27.81755 0.52692
-0.63429 0.19598 0.70707 0 15.45842 25.71064 0.59711
0.78239 -0.26355 0.80394 0 29.71084 4.15523 0.63321
-5.59454 0.19025 1.43015 0 26.60593 13.86090 0.25175
8.43781 -0.24299 6.01637 0 -15.07982 25.93451 0.70814
-3.64973 0.07953 1.87066 0 29.98965 -0.78777 0.49442
-22.07186 -0.16480 10.27284 0 -29.18894 6.92862 0.46506
-15.04559 -0.04948 5.52296 0 -5.58556 -29.47544 0.36641
1.57223 -0.05712 0.33958 0 29.63897 4.64019 0.18239
-2.46199 -0.07051 1.00971 0 29.99911 -0.23084 0.38010
-2.50063 -0.25288 2.33899 0 -6.65786 29.25189 0.86854
-0.26289 -0.19503 0.33586 0 15.79134 -25.50752 0.32484
-9.02681 0.03684 5.37501 0 2.70560 29.87775 0.59191
21.51294 0.07393 4.80223 0 -24.66791 17.07320 0.22320
19.59309 -0.00304 20.96840 0 -15.49437 25.68899 1.06885
0.66012 -0.22473 0.27233 0 -6.21857 -29.34841 0.22736
-21.83353 -0.16780 15.16233 0 26.98454 13.10856 0.69380
-10.26042 0.18538 9.26289 0 1.22849 29.97484 0.89857
-0.80523 -0.22178 1.13709 0 -19.27769 22.98632 0.88568
-21.78931 0.20382 13.31021 0 27.63198 -11.68219 0.61030
-2.81241 0.11722 0.52748 0 5.39259 29.51135 0.17689
-1.00150 0.09447 1.22744 0 13.12106 -26.97847 0.86732
7.35682 0.04479 2.12262 0 -25.55919 -15.70757 0.28606
-10.69554 0.08492 2.76823 0 21.95236 20.44735 0.25788
1.93662 0.04054 0.74577 0 29.21864 6.80229 0.34225
8.43513 -0.24827 5.04210 0 15.38739 25.75322 0.60384
-1.13291 -0.26212 1.66849 0 -1.89351 29.94018 1.10417
-0.39247 -0.09556 1.24424 0 -29.48457 -5.53714 1.15824
6.02040 0.06226 3.19029 0 -26.73346 -13.61332 0.52284
-0.01456 -0.00829 0.80902 0 -29.99704 -0.42136 0.80894
-0.10756 0.09629 0.24366 0 20.15579 22.22035 0.24227
2.11081 0.16954 2.09000 0 -26.73360 -13.61303 0.89485
0.18801 0.08308 0.25706 0 -26.87361 -13.33451 0.25264
11.56505 -0.02170 2.84757 0 22.43698 -19.91436 0.24550
0.60898 -0.11224 0.37032 0 -14.70208 -26.15051 0.31634
-9.50843 0.15719 4.20183 0 -29.99419 0.59017 0.43959
-24.90308 -0.21191 25.80857 0 28.80620 -8.37872 1.03557
0.65544 -0.07619 0.25281 0 -26.21507 14.58663 0.21150
0.66618 0.03566 0.50531 0 -4.11936 29.71584 0.42057
4.48763 -0.22300 1.99532 0 -23.89117 18.14420 0.43413
5.47409 0.07268 4.63559 0 24.82061 16.85044 0.83313
4.37252 -0.09294 2.79530 0 -28.04017 -10.66530 0.62329
-0.44297 -0.08598 0.22825 0 -18.11277 23.91501 0.20872
-0.11021 -0.25477 0.65530 0 27.43879 -12.12902 0.65136
-27.20111 -0.16257 9.54391 0 10.95171 27.92955 0.35077
-2.97494 0.19171 3.03106 0 29.75629 -3.81617 0.96586
15.47285 0.24162 14.49020 0 -24.35583 17.51553 0.93459
-1.86777 0.19825 0.71527 0 19.38645 -22.89466 0.33771
0.01039 0.03082 0.37340 0 -19.06382 -23.16400 0.37338
2.28958 -0.18415 0.65514 0 -29.69915 4.23801 0.26233
-8.36407 -0.03427 6.25816 0 17.90058 24.07425 0.74299
4.06532 0.05261 1.38104 0 -25.80042 15.30810 0.32999
1.00942 0.18430 0.32122 0 9.16349 -28.56625 0.22619
-0.81360 0.20875 1.00436 0 -21.46694 20.95640 0.77911
0.68535 -0.10451 0.84869 0 29.91574 -2.24686 0.70008
0.59889 -0.04935 0.61503 0 -29.44806 -5.72818 0.52767
-18.93178 0.01115 3.97820 0 -23.62757 18.48616 0.21007
20.89286 -0.12612 26.85490 0 -8.81370 28.67610 1.28393
7.32621 -0.22748 2.42627 0 18.27679 -23.78989 0.32828
-0.87896 0.08807 1.40044 0 -29.99999 0.02737 1.05189
-10.04567 -0.18752 11.80157 0 25.32408 -16.08387 1.16906
4.51476 0.14695 1.43331 0 6.63473 29.25714 0.31012
1.94700 -0.11200 1.18769 0 13.77843 -26.64873 0.54269
-0.59962 -0.11667 0.57716 0 21.55288 20.86800 0.49312
18.51899 -0.16289 5.89660 0 22.21829 -20.15807 0.31810
-9.89309 0.11795 4.15919 0 29.99437 -0.58144 0.41840
4.83230 -0.06565 3.71088 0 28.64501 8.91421 0.75208
-2.32877 -0.12989 1.71235 0 25.43911 15.90131 0.67571
5.53308 0.25332 5.71797 0 9.87759 -28.32725 1.01698
-0.32000 -0.17739 0.48413 0 -27.48852 12.01587 0.46111
-8.75099 0.16385 4.55018 0 -24.62874 -17.12965 0.51669
-25.03245 -0.03214 5.19791 0 -28.09643 10.51620 0.20772
11.26838 0.20684 7.83003 0 29.49823 5.46394 0.69222
-9.04693 0.02949 1.91433 0 26.93396 -13.21217 0.21055
3.92769 -0.23999 5.38315 0 11.50132 27.70775 1.32823
-17.64562 -0.02925 4.10449 0 2.41969 -29.90226 0.23244
-4.78235 -0.22907 1.77707 0 -19.24496 23.01373 0.36388
-12.05501 0.00382 4.82771 0 -26.15632 14.69173 0.39922
-0.40848 -0.21924 0.66099 0 -16.41056 25.11361 0.61192
0.54697 -0.04314 0.39375 0 20.23561 22.14769 0.34548
6.63853 0.05300 1.63174 0 -8.96491 -28.62919 0.24325
2.93425 0.23158 2.33185 0 -19.29644 22.97057 0.75227
-23.45876 0.19686 6.59211 0 25.79965 15.30941 0.28093
-0.97628 0.04598 0.49627 0 -18.68656 -23.46939 0.35518
0.54163 -0.21907 0.61019 0 17.59200 -24.30065 0.58938
-0.78004 -0.13859 0.64628 0 29.68732 -4.32008 0.50962
7.08867 -0.16221 6.53209 0 0.61660 29.99366 0.91250
0.51839 -0.26138 0.85458 0 -29.73779 3.95773 0.75871
1.04845 0.20144 0.34745 0 -29.32492 6.32843 0.23993
-0.27183 0.20884 0.57124 0 -5.87746 -29.41862 0.55124
-27.01846 0.04851 8.12851 0 -20.54571 21.86032 0.30081
-22.83759 -0.14912 8.73659 0 -5.75615 29.44260 0.38231
-5.86590 -0.23657 1.74538 0 17.78058 24.16301 0.29355
0.27728 0.03658 0.41252 0 -11.64011 -27.64974 0.39753
3.51586 -0.14157 8.35982 0 27.26744 -12.50946 2.28706
-5.05702 0.00416 2.75511 0 27.55068 -11.87267 0.53454
-0.10112 -0.12192 0.73071 0 25.16382 16.33347 0.72700
-10.47063 0.06895 3.79474 0 -29.99169 0.70623 0.36091
-1.39137 -0.17443 1.43015 0 12.58417 -27.23304 0.83471
1.24559 -0.09733 0.64450 0 -18.83617 23.34949 0.40357
0.63355 -0.04830 0.36175 0 -11.96943 27.50878 0.30564
-19.74972 0.11527 19.77079 0 -13.66201 -26.70860 0.99984
22.84727 -0.01281 16.55525 0 -27.89468 -11.04024 0.72398
0.31070 0.06821 0.60546 0 28.84664 8.23840 0.57820
1.35799 -0.21775 0.34303 0 2.88396 29.86106 0.20355
0.37294 -0.10665 0.43800 0 -18.85622 23.33331 0.41040
-19.55265 -0.04769 15.66672 0 -9.45811 -28.47006 0.80027
3.75204 -0.09429 1.69931 0 -6.56362 -29.27318 0.43774
6.20534 -0.15294 2.60562 0 -2.45961 -29.89900 0.41467
1.35985 -0.24172 0.73151 0 5.27869 -29.53194 0.43345
-15.50829 0.20462 6.54162 0 20.20370 -22.17680 0.42106
-2.92548 0.06456 3.06445 0 19.22565 -23.02986 0.99127
-0.83371 0.15612 0.65587 0 25.81239 15.28792 0.50378
-5.61316 0.06565 2.97122 0 28.83000 -8.29644 0.52117
-16.05810 -0.09044 20.96905 0 18.89701 23.30028 1.30334
-1.67977 0.04107 0.53095 0 23.55446 18.57922 0.27176
-0.41948 -0.12743 0.60202 0 -29.97245 -1.28548 0.55517
-0.72417 0.20300 0.38393 0 15.88399 -25.44993 0.31102
0.08634 -0.25420 0.54826 0 -25.10774 16.41954 0.54623
-10.41508 -0.21609 13.88526 0 -0.36602 -29.99777 1.32712
-1.46917 -0.15430 0.50392 0 5.74027 -29.44570 0.28366
-0.82481 -0.06265 0.32021 0 28.90928 -8.01585 0.24711
-26.03091 -0.16798 12.00144 0 -23.58174 18.54458 0.46081
-4.39565 -0.21672 2.13283 0 21.09581 21.32995 0.47319
0.40724 -0.02050 0.63399 0 -22.32244 -20.04267 0.58718
-0.52056 -0.03404 0.71873 0 -2.62784 29.88469 0.63754
27.03904 0.13948 13.95213 0 -6.68577 29.24552 0.51574
2.19817 -0.10571 1.04510 0 -26.11324 14.76817 0.43282
-2.92237 -0.03899 4.23846 0 -18.13478 -23.89832 1.37229
6.82527 0.07997 3.82140 0 10.58995 -28.06872 0.55406
0.35294 -0.16461 0.46450 0 17.35729 -24.46885 0.43803
-3.82722 -0.16647 2.79605 0 -29.77196 3.69193 0.70690
6.73929 0.06395 2.12376 0 20.14293 22.23201 0.31187
8.34187 0.06797 3.15941 0 -10.72978 28.01557 0.37618
0.12458 -0.12598 0.22622 0 24.66985 17.07040 0.22449
0.33432 -0.12303 1.18876 0 17.00051 24.71806 1.12742
-3.92180 -0.24609 3.21262 0 -28.54774 -9.22097 0.79388
-1.40561 0.17880 1.51743 0 -14.85881 -26.06177 0.87969
-0.25412 0.14058 0.33220 0 26.69409 -13.69035 0.32197
7.73405 -0.12284 3.51136 0 26.85212 13.37772 0.45037
6.93543 -0.14641 2.34051 0 17.62991 24.27316 0.33416
-18.50729 -0.08626 10.01505 0 17.39418 -24.44263 0.54044
1.30433 0.22060 0.63508 0 28.00386 10.76029 0.38648
13.40191 -0.17057 3.19285 0 27.88507 11.06449 0.23778
-1.06553 0.23826 0.61922 0 28.51698 9.31567 0.42384
-0.19906 0.07037 0.26022 0 23.25174 -18.95670 0.25778
-19.39356 -0.07393 8.93865 0 17.44253 24.40816 0.46040
1.25430 0.19765 1.49221 0 28.75796 8.54282 0.93025
0.52706 -0.23121 1.19694 0 -10.93392 -27.93653 1.05888
-14.66804 0.05249 7.88252 0 -3.86315 29.75023 0.53624
-1.61154 0.16921 1.43593 0 27.83061 11.20076 0.75716
-0.77714 0.18981 0.64518 0 -3.95656 29.73795 0.50947
1.82276 0.02443 0.95745 0 29.25930 6.62522 0.46061
0.03209 -0.25089 0.39163 0 19.85443 -22.49003 0.39143
0.81507 0.02833 0.41390 0 15.34194 -25.78032 0.32090
-0.76100 -0.00547 0.82044 0 -25.19093 -16.29162 0.65293
-13.62528 -0.03107 3.22289 0 16.28898 -25.19264 0.23611
1.19472 -0.18588 0.60433 0 -24.29596 17.59848 0.38797
-2.12467 -0.03802 1.69433 0 -8.47008 28.77947 0.72159
4.27252 0.24885 2.98645 0 23.25288 -18.95531 0.68064
18.40028 -0.20047 7.27013 0 -7.70683 28.99319 0.39465
25.38955 -0.21222 22.67016 0 13.06329 27.00649 0.89226
1.85120 0.05870 1.71170 0 26.22680 14.56555 0.81359
15.28660 0.18289 4.42530 0 26.46637 -14.12555 0.28904
-0.33892 -0.13841 0.52811 0 -6.58256 29.26892 0.50018
-1.05699 0.07856 1.39817 0 29.95108 -1.71246 0.96092
1.85591 0.09381 0.93563 0 29.72009 4.08859 0.44389
10.97890 -0.04855 4.61815 0 -29.99780 -0.36362 0.41902
-6.42090 0.18156 4.88589 0 -29.72041 -4.08626 0.75193
1.50032 0.23689 0.81659 0 -28.42203 9.60148 0.45293
1.03931 0.23352 0.70092 0 24.16242 -17.78138 0.48603
-19.14416 0.12584 13.34874 0 29.82784 3.20938 0.69639
-24.33193 0.07739 16.69331 0 -23.82540 -18.23048 0.68556
-5.20796 -0.21296 4.49962 0 15.78944 25.50870 0.84852
18.84296 -0.10482 19.50875 0 27.10256 -12.86279 1.03393
2.54746 0.24427 0.83140 0 -17.68569 24.23255 0.30385
24.40857 -0.06357 14.71273 0 -26.40929 14.23199 0.60234
8.20113 0.17775 6.18866 0 26.87188 -13.33799 0.74913
2.72589 -0.08695 3.33580 0 -13.52822 -26.77662 1.14892
-22.61527 0.20599 7.30449 0 11.89008 27.54317 0.32282
-13.31003 -0.01971 8.23730 0 1.84569 -29.94317 0.61722
-7.38328 -0.17403 2.24355 0 29.12626 -7.18757 0.30128
-10.25999 -0.00011 4.37182 0 -17.15049 -24.61424 0.42421
-2.17778 0.18525 0.84365 0 -29.18768 6.93395 0.35217
2.55506 0.19248 1.62591 0 -29.73326 -3.99169 0.59268
-1.01719 -0.10439 0.70214 0 14.46479 26.28250 0.49229
-0.46540 0.13898 0.73586 0 -21.70007 20.71490 0.66715
2.91100 -0.00818 3.17650 0 29.86406 -2.85267 1.03207
-0.81375 0.13346 0.86499 0 29.49637 5.47397 0.67095
-18.31977 -0.20781 4.32180 0 29.06136 -7.44562 0.23576
-0.59410 0.25964 1.14232 0 -29.91313 -2.28134 0.98210
-0.04051 0.12193 0.44567 0 9.90023 28.31935 0.44530
5.05156 -0.09585 1.78263 0 -21.20749 21.21891 0.34629
-0.02434 0.24097 0.60297 0 7.04014 -29.16224 0.60280
-1.79740 0.22589 1.19460 0 -22.98458 -19.27976 0.58086
-12.65245 -0.19899 10.75257 0 7.41992 29.06793 0.84726
0.82903 0.00170 0.46208 0 -22.83039 19.46209 0.35576
-0.60740 -0.11495 0.40863 0 -26.70713 -13.66489 0.34930
10.71340 0.12945 9.43719 0 29.95597 -1.62471 0.87712
2.44480 0.14821 1.27182 0 -27.74343 11.41499 0.48163
13.73022 0.14011 7.91003 0 -27.95970 10.87453 0.57467
-1.68117 0.12222 0.57379 0 -9.72689 -28.37935 0.29346
3.91695 -0.02011 1.78151 0 5.32535 -29.52356 0.44073
-0.22780 -0.13956 0.35806 0 29.91755 2.22267 0.34912
-1.03709 0.22905 0.53498 0 -7.59182 29.02351 0.37139
0.61688 0.19450 0.43596 0 29.84649 3.03102 0.37109
9.99543 0.25856 4.45908 0 28.15977 -10.34539 0.44400
8.51494 -0.17927 2.52105 0 -26.72778 13.62446 0.29422
13.68864 0.10624 5.83544 0 29.79977 3.46033 0.42528
-6.91499 -0.05614 1.39636 0 -23.50537 18.64129 0.20009
27.07511 0.10781 10.79341 0 -26.00750 -14.95359 0.39850
-0.43405 -0.04640 0.86347 0 27.01230 -13.05126 0.79208
-2.39811 0.16353 1.00059 0 16.91119 24.77926 0.38520
-0.85568 -0.10036 0.26583 0 26.29463 14.44272 0.20206
0.47589 -0.01899 0.43089 0 -29.07426 7.39509 0.38910
-0.30354 0.07383 0.23203 0 -14.55268 -26.23394 0.22204
-7.40750 0.23920 4.77176 0 27.59863 -11.76077 0.63846
3.11606 0.10717 1.40244 0 -26.80514 13.47163 0.42858
-2.71862 0.02570 1.34120 0 -0.49594 29.99590 0.46309
1.49645 -0.11754 0.90448 0 -25.93772 -15.07430 0.50261
-0.41641 -0.13971 0.51189 0 27.76344 -11.36625 0.47258
7.54578 -0.16335 5.56142 0 12.32944 -27.34931 0.73070
26.43597 0.23070 5.75440 0 9.97882 -28.29175 0.21774
16.54020 0.22663 10.25575 0 28.73328 -8.62547 0.61900
21.41148 0.24145 11.48163 0 -13.82008 -26.62715 0.53574
0.35134 0.21589 0.36174 0 -23.34937 18.83632 0.34131
-17.33129 -0.05105 7.47816 0 -19.51022 22.78928 0.43088
0.84620 0.19255 0.30086 0 29.84104 3.08424 0.22975
3.64760 -0.21486 2.28897 0 12.62638 -27.21350 0.60532
-8.74151 -0.02072 4.30681 0 15.92598 25.42367 0.48959
6.01117 -0.24147 3.26612 0 25.81485 15.28376 0.53607
2.22914 -0.03034 2.31301 0 29.92142 -2.16999 0.94679
9.49615 -0.05630 11.22761 0 -21.56229 -20.85827 1.17587
3.89612 -0.01914 1.65497 0 -25.94646 15.05926 0.41154
-3.20744 -0.23066 0.86349 0 12.30192 27.36170 0.25707
1.34494 0.02394 1.27399 0 21.23127 21.19512 0.76020
0.34317 0.25325 0.62405 0 -6.91916 -29.19118 0.59027
-4.00394 0.21764 3.59432 0 -6.81946 -29.21464 0.87101
-10.02520 -0.21400 3.75549 0 -13.15889 -26.96004 0.37288
-1.00465 -0.07848 0.74368 0 -28.58500 -9.10483 0.52470
-0.70020 0.01414 0.31877 0 -17.18452 -24.59049 0.26118
-10.55513 -0.08677 4.59671 0 -22.48211 -19.86340 0.43367
-6.20495 0.12324 6.32719 0 29.26091 6.61809 1.00676
2.33027 -0.13946 0.55398 0 2.84652 29.86465 0.21868
0.62567 -0.18982 0.63437 0 17.64717 24.26062 0.53781
7.85821 0.23674 16.97430 0 -16.09590 25.31644 2.14281
0.50909 -0.16639 1.23171 0 -15.66539 -25.58506 1.09767
-1.97708 0.22597 0.73652 0 -26.21047 14.59490 0.33255
-1.38443 0.22414 0.87873 0 -26.89482 13.29168 0.51460
-25.36910 -0.12476 10.84120 0 29.86695 -2.82235 0.42712
-7.93416 -0.24742 7.47376 0 -24.50010 -17.31315 0.93463
-0.85355 0.14064 0.90594 0 9.62174 -28.41517 0.68908
5.86480 -0.09881 2.35365 0 -29.67612 4.39636 0.39578
-6.35614 -0.14189 3.19450 0 -29.90342 -2.40535 0.49657
-11.77207 -0.00973 7.50766 0 26.40029 -14.24868 0.63554
-13.46980 -0.09789 13.01017 0 26.73797 13.60444 0.96328
0.28990 -0.10512 0.54735 0 26.86656 -13.34871 0.52571
-1.73215 -0.16781 0.46654 0 24.05116 17.93158 0.23340
-2.27146 -0.19924 1.24948 0 -1.45203 -29.96484 0.50355
-9.33737 0.15240 6.42378 0 -16.89838 24.78800 0.68412
0.60587 -0.04806 0.71048 0 23.85559 18.19096 0.60767
-15.43357 -0.01873 4.20341 0 -2.19319 29.91973 0.27196
-5.01515 0.16255 1.48335 0 2.17326 -29.92118 0.29015
14.92716 -0.25638 4.34794 0 -15.52983 25.66758 0.40842
-1.84629 -0.13446 2.75651 0 6.10905 -29.37141 1.31283
-4.01835 0.05373 1.52303 0 29.41940 5.87358 0.36796
0.20617 -0.20350 0.57870 0 -17.00439 24.71540 0.56678
13.20131 0.12470 7.03591 0 -3.68309 29.77306 0.53154
11.20373 -0.23536 5.88941 0 26.59373 -13.88429 0.52368
0.70952 -0.03379 0.31090 0 21.88182 20.52281 0.25360
-0.23640 -0.02356 0.39058 0 -29.97812 -1.14566 0.38011
1.33048 -0.00040 0.98952 0 -6.57657 29.27027 0.59458
4.12066 0.03180 3.31170 0 -27.45739 -12.08685 0.78105
1.73775 0.15588 0.83653 0 -16.97662 -24.73448 0.41732
1.07443 0.24612 1.21231 0 22.06177 20.32925 0.82597
-5.58717 0.22544 2.30299 0 22.58255 19.74914 0.40578
0.10218 0.00896 0.72196 0 -25.10224 16.42794 0.71823
-4.50157 0.00847 2.04526 0 -25.58094 -15.67212 0.44363
-3.92299 -0.09380 2.61994 0 14.57349 26.22238 0.64726
-1.80031 -0.23268 1.18866 0 -29.19111 -6.91945 0.57725
-8.45181 0.12915 2.62029 0 14.88538 26.04660 0.30804
-1.48898 0.24603 1.54616 0 -8.29663 -28.82995 0.86207
4.98613 -0.10848 3.99392 0 27.63464 -11.67591 0.78545
3.15717 -0.22703 1.05038 0 -29.08997 -7.33305 0.31743
1.10122 0.06316 1.15458 0 -26.63939 -13.79648 0.77622
-18.20524 0.12401 7.72234 0 1.26339 29.97338 0.42366
0.13824 -0.00826 0.79027 0 -11.32374 27.78080 0.78282
-4.20018 -0.13153 1.70911 0 -28.86370 8.17846 0.39596
0.63622 0.06571 0.74140 0 -28.14865 -10.37563 0.62555
-9.87160 0.02084 5.83618 0 2.89024 29.86045 0.58828
12.18474 0.16921 4.66902 0 -21.55157 -20.86935 0.38203
15.93983 0.00586 9.66119 0 10.92504 -27.94000 0.60499
-0.46965 0.08502 0.31490 0 -3.98344 29.73436 0.28506
4.30405 -0.06689 3.41350 0 27.20611 -12.64229 0.77258
1.44806 0.11642 0.84367 0 -28.20247 -10.22844 0.47948
-10.46157 -0.09922 5.70630 0 -20.86688 21.55396 0.54307
1.10274 0.17595 0.60617 0 -19.31440 -22.95548 0.40725
-1.74900 0.04753 0.48719 0 -29.61348 -4.80018 0.24199
-0.91354 -0.14141 0.63684 0 -29.97210 1.29349 0.47530
19.12158 -0.14682 11.85057 0 29.76266 -3.76617 0.61898
-9.96855 0.23596 6.49477 0 -9.00548 28.61645 0.64835
-0.21758 0.03029 0.52540 0 -26.99102 -13.09522 0.51339
-0.28869 0.07555 0.38146 0 27.34751 -12.33345 0.36650
-19.06849 -0.20740 13.42306 0 21.31440 21.11152 0.70304
-4.98605 -0.25105 3.15084 0 -22.53886 19.79898 0.61963
7.65656 0.10062 3.84218 0 -13.03455 27.02037 0.49769
-7.14387 0.25052 2.02749 0 -29.94368 1.83736 0.28124
3.47894 -0.05151 0.66680 0 -22.46975 -19.87738 0.18440
-18.66722 -0.11086 4.92698 0 28.94895 7.87135 0.20549
14.62310 0.14578 4.63582 0 -28.85746 -8.20041 0.31643
0.74650 -0.23200 0.27583 0 -21.75066 20.66177 0.22110
1.33149 -0.20025 0.49075 0 17.42665 -24.41949 0.29481
-2.14653 0.17423 0.72298 0 -25.98301 -14.99611 0.30546
7.79999 0.10878 4.58054 0 -14.92247 26.02537 0.58256
-3.89489 -0.00321 0.70339 0 -22.63710 19.68659 0.17509
1.37909 0.20459 0.93331 0 -26.58503 13.90094 0.54793
-8.61048 -0.07849 7.08925 0 -9.61129 -28.41871 0.81789
-24.52820 0.07539 10.54809 0 29.53101 -5.28388 0.42980
-8.58848 -0.09629 5.26560 0 18.73406 23.43149 0.60906
8.31146 0.17520 7.99348 0 -26.13012 14.73828 0.95491
-8.52078 0.14304 6.32501 0 -29.79808 -3.47479 0.73731
3.29500 -0.04099 2.45807 0 0.48600 -29.99606 0.71396
-2.10180 0.05307 1.91976 0 -2.18378 29.92041 0.82486
1.36261 -0.21793 0.52106 0 -26.20302 -14.60827 0.30836
14.65013 0.23686 12.45248 0 26.81753 -13.44693 0.84807
-2.25146 0.18523 0.54041 0 -7.86456 28.95080 0.21948
21.36689 0.03076 23.18107 0 22.66152 19.65847 1.08376
7.38138 0.01510 4.01737 0 11.64956 27.64575 0.53942
4.40136 -0.23659 2.36640 0 -28.75537 -8.55152 0.52433
-0.95605 -0.26166 0.32079 0 -0.87752 29.98716 0.23198
1.27107 0.22595 0.51581 0 29.58664 -4.96292 0.31901
9.67478 0.04390 4.82223 0 24.46266 -17.36600 0.49589
7.61616 0.26155 2.79685 0 -15.71790 25.55284 0.36423
12.27008 -0.05148 13.10936 0 5.91658 29.41078 1.06492
-10.07775 0.16766 7.06684 0 28.78757 8.44250 0.69788
-26.85510 0.10830 16.30435 0 28.89331 -8.07319 0.60679
16.84249 0.14790 6.42328 0 17.35889 24.46771 0.38083
-11.79574 0.23459 6.83598 0 -29.99074 0.74547 0.57754
-7.92101 -0.03220 3.85675 0 -15.38255 -25.75611 0.48317
9.38847 -0.16254 3.52070 0 16.28419 -25.19574 0.37302
8.49639 -0.05127 6.77499 0 24.70682 17.01685 0.79199
7.36199 -0.22561 4.60787 0 21.58124 -20.83867 0.62028
-0.60921 -0.01499 0.25682 0 25.07933 -16.46290 0.21821
0.16179 -0.26106 0.86606 0 -25.23865 16.21760 0.85494
3.31516 -0.16541 1.27678 0 23.25686 18.95043 0.36882
-17.79182 0.24334 11.25240 0 -12.77416 -27.14444 0.63153
-13.48194 -0.04348 7.04153 0 -14.25862 26.39492 0.52096
0.49149 0.12490 0.46865 0 -14.92735 26.02257 0.42062
1.40793 -0.18565 0.62600 0 -4.62035 29.64207 0.36260
0.04034 -0.25184 0.33700 0 -26.85361 13.37474 0.33673
15.35554 0.06236 11.86303 0 29.82155 3.26725 0.77099
7.43848 -0.12861 4.66413 0 -29.48489 -5.53546 0.62151
3.07631 0.20407 1.37946 0 8.87668 -28.65667 0.42653
-1.04018 -0.06733 1.29267 0 -29.81736 -3.30534 0.89592
-15.27736 -0.03791 8.02961 0 -4.88647 -29.59937 0.52456
0.12041 0.00704 0.53437 0 -22.74319 -19.56393 0.53054
9.63629 0.10793 5.74635 0 28.71678 8.68025 0.59322
4.20244 0.14681 3.15664 0 18.71376 -23.44771 0.73085
23.82629 -0.23468 7.00508 0 -10.72513 28.01734 0.29391
-0.14353 0.00514 0.25503 0 7.81665 28.96377 0.25245
15.43471 0.06654 17.95197 0 -22.17434 20.20641 1.16070
0.21531 -0.15972 0.37844 0 -23.81633 18.24233 0.36997
1.39679 -0.11259 1.02276 0 -2.65861 -29.88196 0.59542
-9.47012 -0.11934 1.92002 0 -9.54346 -28.44156 0.20186
4.23218 -0.05826 2.25121 0 16.42533 -25.10396 0.51781
22.96307 -0.00520 10.57863 0 29.52186 5.33477 0.46035
-2.09189 0.15960 2.87926 0 -26.91421 -13.25236 1.24184
0.68138 0.17887 0.31983 0 1.87544 29.94132 0.26434
-2.00232 0.15665 0.91994 0 20.92756 21.49505 0.41113
-4.18460 -0.10297 2.22528 0 15.39241 25.75022 0.51749
5.31410 -0.20012 1.62475 0 15.37411 -25.76115 0.30068
7.29889 -0.22038 3.73825 0 -27.14253 12.77822 0.50752
-5.07108 -0.02435 2.23438 0 -0.49831 -29.99586 0.43235
-4.44855 -0.16588 2.88053 0 -16.62440 24.97257 0.63183
4.54154 -0.25276 2.81399 0 -5.87351 29.41941 0.60525
-11.06511 0.00214 5.24772 0 -23.56169 18.57005 0.47244
-8.52519 -0.09588 5.91730 0 23.92296 -18.10227 0.68944
-11.23891 0.04967 4.07700 0 -29.09227 -7.32392 0.36146
-2.09435 0.02316 1.93893 0 13.56123 -26.75992 0.83550
-1.50133 -0.06076 1.26106 0 -20.96766 21.45594 0.69914
0.93890 0.18607 0.74181 0 -1.03704 29.98207 0.54083
2.82892 -0.14614 0.85753 0 19.39829 -22.88463 0.28602
-0.98721 0.04060 0.69515 0 -29.48733 -5.52246 0.49474
0.25371 0.02667 1.12780 0 27.25680 12.53263 1.09390
23.16849 0.19999 20.74783 0 -12.34828 27.34081 0.89474
16.22104 0.14620 5.79759 0 28.37830 -9.72995 0.35687
9.05385 0.11321 6.22920 0 -21.42813 20.99608 0.68393
1.09072 0.00618 0.50479 0 11.38378 -27.75625 0.34120
1.05476 -0.14563 1.12305 0 -11.57642 27.67646 0.77271
-1.72741 -0.06075 0.47452 0 17.98819 24.00885 0.23785
-6.74760 -0.21125 2.15017 0 9.74490 -28.37317 0.31537
-6.21432 -0.08698 2.90865 0 -2.27470 29.91364 0.46221
9.76512 -0.05561 3.15040 0 -26.78668 13.50828 0.32109
11.54877 -0.12187 5.50685 0 23.29797 -18.89985 0.47516
3.16822 0.15607 1.11138 0 -18.83462 -23.35074 0.33466
4.31390 0.00773 0.87750 0 26.28168 14.46628 0.19823
1.97642 0.10550 0.56538 0 2.29786 -29.91187 0.25539
-13.14329 0.08061 5.09034 0 28.95380 7.85351 0.38631
-0.17516 -0.07193 0.32834 0 11.42821 -27.73799 0.32342
1.46515 -0.08440 1.13289 0 -25.87099 15.18854 0.63870
17.65950 0.11568 11.70549 0 22.74411 19.56285 0.66186
-18.59733 0.21015 7.53650 0 4.85759 -29.60412 0.40478
9.32206 0.18319 2.38223 0 14.67352 -26.16654 0.25428
-1.32626 0.22330 0.87771 0 22.78808 19.51162 0.52848
-4.00641 -0.13405 2.62263 0 -25.51409 -15.78072 0.63531
3.91405 -0.07356 3.89850 0 22.31703 -20.04870 0.96510
16.99160 -0.20044 4.34643 0 2.07866 29.92790 0.32307
-2.95832 0.03498 0.90603 0 18.81223 23.36879 0.29034
3.28104 0.20461 0.86593 0 -29.91408 2.26890 0.25261
11.41834 -0.02170 5.00969 0 29.54576 5.20074 0.43718
7.56960 -0.04207 6.71576 0 -15.05155 25.95093 0.87961
-1.98007 -0.02105 1.68441 0 -23.51386 18.63057 0.75938
0.36406 0.20830 0.77449 0 -7.99341 -28.91549 0.72777
4.99145 -0.19271 1.91026 0 -28.10928 -10.48180 0.37535
0.91463 -0.15963 1.53002 0 -27.39437 -12.22901 1.13325
-12.61431 -0.00416 9.17087 0 27.85010 11.15221 0.72481
21.20566 -0.00470 9.47779 0 24.33999 -17.53752 0.44656
4.41689 -0.20281 1.06323 0 -7.98564 -28.91763 0.23485
4.36217 -0.16528 1.39913 0 -29.56480 5.09143 0.31290
-21.41406 -0.11735 11.95696 0 -1.62617 29.95589 0.55785
-9.83185 -0.05693 2.02181 0 26.21341 14.58963 0.20482
2.13895 -0.16830 2.49818 0 20.62369 -21.78677 1.05809
4.73773 0.02417 2.24884 0 29.46216 5.65518 0.46461
-0.97666 -0.25714 0.80742 0 5.22421 29.54163 0.57767
3.04702 -0.17692 1.12690 0 28.77151 -8.49708 0.35154
19.07750 -0.21506 7.74932 0 21.63402 -20.78387 0.40576
-12.95291 0.03135 16.39972 0 21.26805 -21.15822 1.26238
-1.46243 -0.24410 1.46087 0 29.12745 -7.18274 0.82463
0.99132 0.07561 1.24794 0 -29.99906 0.23734 0.88628
-4.62769 0.14012 4.75926 0 -13.95213 -26.55820 1.00526
3.87792 -0.23830 0.60598 0 8.82944 28.67126 0.15145
8.80190 -0.13553 4.58181 0 -29.97387 1.25196 0.51731
-2.75029 -0.18775 1.03540 0 16.49177 25.06036 0.35386
-1.56659 -0.06578 0.85200 0 16.61236 -24.98058 0.45849
