-3.20071 -0.17363 1.51008 0 29.87416 -2.74498 0.45047
0.91284 -0.24842 2.17239 0 26.16970 14.66789 1.60445
6.43555 0.16037 2.68401 0 -11.50631 -27.70568 0.41223
-7.97314 0.08622 2.95204 0 18.55917 -23.57026 0.36750
1.35501 -0.06552 0.37709 0 11.99375 -27.49818 0.22408
8.92961 -0.01532 4.81831 0 -14.44594 -26.29286 0.53633
0.21698 0.02776 0.55297 0 6.94048 29.18612 0.54040
14.03109 -0.13789 3.94188 0 -18.63116 23.51340 0.28040
15.91506 0.02713 3.73203 0 -27.46288 -12.07437 0.23424
-5.88884 0.24144 8.70277 0 -10.01764 28.27803 1.45704
-12.82217 -0.15131 8.89781 0 -17.83677 24.12156 0.69191
-4.69808 -0.17621 4.54508 0 -0.97358 29.98420 0.94626
-8.88645 -0.22227 3.14131 0 13.82134 26.62650 0.35142
-2.65349 0.06691 0.68816 0 -10.16647 28.22486 0.24278
-2.58020 0.19840 1.36922 0 -27.94577 -10.91026 0.49493
-0.84303 0.05263 0.69382 0 13.93042 -26.56960 0.53050
-0.91582 -0.20900 0.80504 0 -18.38511 -23.70628 0.59372
0.19651 -0.20756 0.67673 0 9.21842 -28.54857 0.66403
21.23002 -0.14015 17.53477 0 -26.42080 14.21061 0.82509
0.54026 0.17482 0.33970 0 -16.17865 -25.26364 0.29890
0.96358 -0.18112 0.59036 0 -25.26893 -16.17038 0.42518
1.33557 0.13396 0.52699 0 -21.75461 20.65762 0.31594
4.09698 -0.10244 3.39271 0 -29.94854 1.75634 0.80017
-21.78897 -0.03108 6.75541 0 9.89335 28.32175 0.29163
-19.40094 -0.13905 1.91569 0 2.96147 29.85347 0.20766
3.06288 -0.18071 3.74734 0 -16.82322 24.83907 1.16311
-4.23537 -0.10602 3.34115 0 28.50815 9.34268 0.81661
4.06111 0.26073 1.79815 0 -29.73365 3.98875 0.43005
2.92913 0.05329 5.44374 0 2.05555 29.92949 1.75884
-1.12117 0.21538 0.42395 0 29.74826 3.87827 0.28229
2.49506 -0.25425 2.14723 0 2.28096 29.91316 0.79886
1.06402 0.11463 0.39672 0 6.79502 29.22033 0.27178
-15.70744 0.14748 9.49761 0 -0.98049 -29.98397 0.60352
-1.16285 -0.21328 0.66952 0 29.86046 2.89017 0.43658
-0.40283 0.13254 0.51619 0 -2.56955 29.88976 0.47882
-6.72961 0.01516 1.98200 0 -2.86562 29.86282 0.29148
-0.32075 0.18924 0.33714 0 -8.62202 -28.73431 0.32104
-4.36086 0.14526 1.91745 0 29.93028 2.04404 0.42867
0.47264 0.03329 0.34434 0 21.87850 -20.52635 0.31135
-2.78790 -0.04582 1.60457 0 -28.40013 -9.66607 0.54182
10.88132 -0.21612 3.00139 0 29.14666 7.10438 0.27485
4.23716 0.04678 1.81200 0 -2.18758 -29.92014 0.41637
20.53386 -0.10664 8.99929 0 26.50840 14.04653 0.43786
9.85256 0.01374 2.17750 0 -24.30637 17.58410 0.22010
12.55389 0.07584 4.81560 0 -27.90409 -11.01644 0.38251
0.71045 -0.04823 0.64801 0 22.43430 -19.91739 0.52830
0.59924 0.24680 0.43272 0 22.42316 19.92993 0.37121
-1.30123 0.03113 0.41628 0 -28.20058 -10.23362 0.25384
-0.33261 0.14479 0.52296 0 23.21266 -19.00453 0.49624
0.83934 -0.20366 0.98855 0 -29.95259 -1.68594 0.75722
20.66188 -0.00335 31.30355 0 -21.19086 -21.23552 1.51330
-14.68486 0.12406 16.71214 0 23.91229 -18.11636 1.13547
1.98551 -0.01848 1.19750 0 -29.20398 6.86495 0.53872
1.48137 0.16308 2.06365 0 14.55291 26.23381 1.15465
0.16372 -0.22751 0.23225 0 24.09521 -17.87235 0.22921
7.98382 0.06674 3.03093 0 -29.26072 6.61892 0.37682
0.59954 0.14305 2.26856 0 13.92203 26.57399 1.94567
8.57234 0.14366 4.42373 0 -13.20074 -26.93957 0.51266
0.05338 0.22874 0.60715 0 13.98743 -26.53963 0.60629
9.50386 -0.23705 7.90457 0 -28.38652 -9.70595 0.82721
2.04616 -0.16140 0.48109 0 -5.03800 -29.57395 0.21135
-0.69916 -0.11970 1.42035 0 -13.29479 -26.89328 1.16407
0.26499 -0.12300 0.60386 0 -28.60834 -9.03122 0.58372
0.56555 0.21873 0.51454 0 28.93280 -7.93051 0.44790
-4.68220 0.10168 1.61061 0 28.07147 10.58265 0.33651
-19.60855 -0.09119 13.82888 0 6.37932 -29.31389 0.70440
2.66489 -0.11617 0.49437 0 3.96400 -29.73696 0.17382
1.69413 0.23408 0.61367 0 -24.56728 -17.21769 0.31205
0.17251 -0.23869 1.06477 0 -25.31905 16.09179 1.04927
-0.27678 0.18528 0.38580 0 26.92104 13.23849 0.37183
4.44879 -0.21838 2.16677 0 -18.88482 23.31016 0.47539
-4.19616 -0.13255 1.45229 0 -19.63508 -22.68179 0.33688
-11.95481 -0.11662 3.09691 0 29.57685 5.02095 0.25834
-13.60994 -0.01758 7.15792 0 -12.44237 -27.29812 0.52461
-3.83666 -0.12424 1.44694 0 -27.63170 11.68286 0.40256
-24.71699 -0.10849 10.42875 0 -27.54227 -11.89215 0.45706
-11.75678 -0.05834 3.33761 0 11.61426 27.66060 0.37019
-4.72544 0.16810 3.77836 0 21.25760 21.16871 0.78231
5.88712 0.16440 2.20242 0 -4.93013 -29.59212 0.36890
-0.84934 0.07765 0.50437 0 27.91511 10.98848 0.38447
-2.28301 -0.11286 5.08480 0 28.20584 10.21912 2.04014
-2.95320 -0.15873 5.67567 0 3.35210 29.81214 1.82041
-1.81677 0.11989 1.85458 0 26.84925 13.38348 0.89433
-0.23671 0.16676 0.88876 0 11.64245 27.64875 0.86486
15.06741 0.23029 12.57701 0 -10.79287 27.99132 0.83294
4.95973 -0.07756 2.82053 0 13.66577 26.70668 0.55763
-22.10928 0.17328 4.34207 0 -25.55166 -15.71982 0.28971
-25.17254 -0.06063 7.80321 0 -29.90937 -2.33010 0.33183
-25.65459 -0.10711 8.41540 0 29.34881 6.21669 0.41009
0.24793 0.18648 0.78347 0 -26.71920 -13.64128 0.76045
25.91334 -0.14876 15.79804 0 -19.60730 22.70581 0.60928
15.34189 0.08217 4.21599 0 22.93622 -19.33727 0.27440
0.21245 0.05154 0.42660 0 29.93916 -1.90970 0.41730
0.06085 0.07163 0.52415 0 29.92012 2.18776 0.52319
-26.89649 0.13037 13.41061 0 -2.95761 -29.85385 0.49835
-1.19772 0.26359 1.21658 0 -20.35768 22.03554 0.77975
-3.73358 -0.02620 2.25268 0 -29.88618 -2.61083 0.58295
-6.87411 -0.05392 4.42128 0 19.40213 22.88137 0.63655
15.64180 0.21245 6.00300 0 -25.06111 -16.49062 0.38312
9.69500 0.20891 5.45884 0 -25.81711 15.27995 0.56017
0.95209 -0.14292 0.44849 0 27.89855 -11.03045 0.32489
-6.46366 0.12053 4.44871 0 28.88668 8.09690 0.68024
4.25466 -0.00696 2.37002 0 23.55588 18.57742 0.54236
4.40693 0.23432 2.10607 0 -17.88431 -24.08633 0.46619
15.69909 -0.00192 12.45366 0 29.55774 -5.13225 0.79173
-9.49120 0.12915 4.43018 0 19.35320 22.92278 0.46430
-4.85821 0.00077 1.21410 0 -24.06393 -17.91444 0.24506
-0.29738 0.06763 0.43833 0 -10.36318 -28.15323 0.43801
0.85753 0.14237 0.78107 0 14.67294 26.16687 0.59295
-3.20202 0.03516 1.45358 0 15.34126 25.78072 0.43340
-2.53956 -0.23274 2.63994 0 28.91377 -7.99962 0.96730
3.19321 -0.07860 1.67892 0 19.89116 -22.45756 0.50181
-6.72096 -0.07363 1.75857 0 -28.92797 7.94810 0.25899
-4.95502 -0.11348 2.42470 0 6.83417 29.21120 0.47974
0.10885 -0.09659 0.91591 0 21.87688 20.52808 0.91053
0.38873 0.24829 1.26175 0 28.74276 -8.59383 1.17603
11.07693 -0.13817 4.98677 0 -22.81363 19.48174 0.44848
4.95057 -0.05039 2.67118 0 29.96910 1.36130 0.52895
-10.00928 -0.10573 4.66908 0 -16.90357 24.78445 0.46427
-20.47197 -0.25307 18.84025 0 -27.07844 -12.91348 0.91925
0.93856 0.20971 0.48396 0 -29.55947 5.12226 0.35872
1.08880 -0.12390 0.68448 0 -27.62011 -11.71022 0.46306
13.64844 0.09173 6.12137 0 -29.99727 -0.40456 0.44741
3.00442 0.11608 0.98361 0 15.92455 -25.42457 0.31094
-3.28852 0.04955 0.92492 0 -28.93549 7.92069 0.37103
-17.00222 -0.11314 12.46677 0 10.40715 28.13701 0.73205
0.00678 0.19210 0.60771 0 -29.08823 -7.33996 0.60770
25.79078 -0.23928 6.81059 0 -29.42871 5.82675 0.26406
0.96727 -0.05684 1.39651 0 -6.18763 -29.35495 1.00380
2.08284 -0.17495 0.89558 0 -26.13146 14.73589 0.38773
0.90205 -0.09845 0.69034 0 29.37436 -6.09483 0.51265
-10.06034 -0.13206 2.88596 0 29.88113 2.66801 0.28563
-21.13804 0.10328 10.04725 0 -22.17628 -20.20428 0.47489
15.48408 -0.20563 10.54883 0 2.75138 -29.87357 0.67992
1.47393 0.23396 1.26107 0 -29.69651 4.25643 0.70806
-10.14807 0.10827 7.84625 0 2.03206 29.93110 0.76951
26.28833 -0.00596 10.35210 0 -24.65843 -17.08689 0.39363
-5.98615 0.02137 1.46521 0 -10.09024 -28.25220 0.24163
-16.08574 0.08836 19.34646 0 23.05912 -19.19055 1.20043
7.22516 0.04342 1.55944 0 29.99199 0.69300 0.21402
18.17713 -0.01282 21.43240 0 -13.55704 -26.76204 1.17735
0.66525 0.17148 0.73934 0 -12.02879 -27.48287 0.61559
0.17304 -0.19942 0.22114 0 -29.94611 -1.79734 0.21791
2.85753 -0.18407 2.10596 0 17.52872 24.34633 0.69572
0.81167 0.06300 0.96525 0 17.55177 24.32972 0.74948
-3.03764 0.18680 3.89869 0 26.21253 -14.59120 1.21915
21.88978 -0.14459 12.87106 0 -27.64676 -11.64717 0.58746
1.34023 0.13672 0.50970 0 -12.44319 27.29775 0.30489
1.24505 -0.11550 0.77572 0 26.45125 14.15385 0.48582
-2.97156 0.25820 0.63434 0 -22.76777 19.53532 0.20246
-25.05611 -0.13021 24.07141 0 -29.37856 6.07455 0.95999
26.71087 0.03692 16.55516 0 -18.14877 -23.88770 0.61944
25.62198 -0.08487 7.53102 0 -7.36229 29.08258 0.29387
1.25461 -0.25115 1.10913 0 -20.27629 -22.11045 0.69136
-17.47787 -0.21072 9.81791 0 -29.46091 5.66171 0.56090
-18.18679 -0.01481 26.94053 0 -21.35058 21.07493 1.47913
0.95956 0.15924 0.75532 0 5.92676 29.40873 0.54505
2.21131 -0.21416 0.53381 0 -15.78025 25.51438 0.22008
2.82875 0.18515 1.34163 0 26.72114 -13.63747 0.44730
-2.03058 0.02771 1.43018 0 -26.93002 -13.22021 0.63191
-4.27877 0.12623 1.57628 0 -6.29717 29.33165 0.35879
-0.19461 0.00265 0.51074 0 -18.07311 23.94499 0.50134
-11.86156 -0.11112 6.40261 0 -28.98581 -7.73452 0.53796
1.32444 0.00720 0.64941 0 27.86079 -11.12549 0.39139
-4.61422 0.10289 2.80674 0 28.72779 8.64373 0.59453
2.66804 0.16201 1.44320 0 -29.60266 -4.86649 0.50664
2.86622 -0.04773 4.37743 0 4.71413 29.62730 1.44207
-20.18341 0.16695 9.02279 0 -8.76641 -28.69059 0.44660
2.90143 0.11461 0.96606 0 -9.82316 28.34617 0.31492
0.00629 0.01596 0.22262 0 -12.52902 -27.25846 0.22262
-0.42137 -0.12810 0.23948 0 28.01226 -10.73839 0.22072
14.37820 0.03860 5.66092 0 -21.52277 20.89905 0.38052
6.04781 -0.25191 6.35171 0 -24.54828 17.24476 1.03622
-5.15861 0.22307 1.64186 0 -25.55717 -15.71085 0.31268
-1.92884 0.26387 0.61576 0 21.94326 20.45710 0.28354
-0.54422 -0.04489 0.90593 0 -12.14920 27.42986 0.79574
-0.38468 -0.03997 0.23492 0 -2.54141 -29.89216 0.21928
-0.74721 0.25147 0.59741 0 -0.24996 -29.99896 0.47860
0.02780 0.16164 0.21206 0 24.97076 -16.62712 0.21198
1.91475 -0.12869 1.15356 0 14.21710 -26.41731 0.53410
0.99524 -0.20672 1.46936 0 4.49150 -29.66187 1.04150
0.52086 -0.14186 0.99129 0 19.53711 -22.76623 0.87919
6.39162 0.09853 6.49452 0 -6.93254 -29.18801 1.00393
-1.19949 -0.24493 0.95047 0 25.66566 15.53300 0.60868
7.00223 -0.02317 2.20741 0 -11.19183 27.83420 0.31223
-23.89331 -0.12774 23.18414 0 10.73398 28.01396 0.96952
-8.44994 -0.03253 3.24838 0 -21.63776 -20.77998 0.38189
-23.17592 0.15398 12.99597 0 16.27188 -25.20369 0.56032
-15.56354 -0.14123 6.37058 0 3.12178 29.83713 0.40860
-0.02041 -0.20041 0.27920 0 18.13443 23.89858 0.27915
-4.07729 -0.07789 1.21359 0 27.89597 11.03698 0.28920
-6.19696 0.00158 1.25744 0 16.25388 -25.21530 0.20056
-19.91490 0.05879 18.83593 0 -24.30634 17.58413 0.94469
0.32080 0.19834 0.78293 0 29.99934 0.19923 0.74551
0.78780 0.07231 0.60425 0 -4.24603 29.69800 0.47468
-9.88182 -0.22313 5.04406 0 27.59833 -11.76147 0.50794
1.85642 0.12473 1.07974 0 -8.97547 28.62588 0.51212
2.98564 0.13663 0.76207 0 -4.38283 29.67812 0.24217
1.55074 0.15728 1.43143 0 27.75610 -11.38414 0.77581
1.06004 -0.04813 0.43938 0 18.03752 23.97181 0.30160
1.79919 -0.05831 0.87547 0 17.49660 24.36942 0.42540
3.36081 0.11353 1.58627 0 -29.99772 -0.36954 0.45255
-24.34693 -0.15448 21.88544 0 -25.05357 -16.50208 0.89820
-4.98994 -0.11084 0.90148 0 -25.75455 15.38516 0.17872
2.80421 -0.14790 1.26142 0 -9.08068 28.59268 0.42378
-17.41823 -0.13774 4.25812 0 -29.34487 -6.23525 0.24426
-0.02384 -0.05971 0.55896 0 -28.90643 -8.02611 0.55880
-9.16530 -0.07716 3.86383 0 28.08764 10.53965 0.41920
1.89000 -0.03713 0.88589 0 28.48590 -9.41028 0.41439
-3.56495 0.05992 1.60074 0 10.42384 -28.13083 0.43248
-3.38160 -0.11988 1.16708 0 23.03727 -19.21677 0.33109
2.93056 -0.04992 2.34491 0 -9.04666 28.60346 0.75731
1.24810 0.09528 0.55006 0 20.07188 22.29618 0.34403
4.06801 -0.22717 2.17529 0 -3.15495 -29.83364 0.51937
1.48630 -0.26109 0.47562 0 -29.48964 -5.51009 0.26564
-0.76916 0.05984 0.95872 0 23.39493 -18.77970 0.75996
-11.19179 -0.08398 2.87551 0 -13.17513 26.95211 0.25610
17.66275 -0.23541 4.03223 0 -11.41527 27.74332 0.22814
-0.35157 -0.07326 0.44691 0 -28.78487 8.45171 0.42162
-2.80523 -0.06343 1.32836 0 13.15836 -26.96030 0.44612
-2.82480 0.05700 0.91200 0 -3.61980 29.78082 0.30444
-13.69451 0.17419 10.94922 0 -4.44492 29.66888 0.79747
-0.65784 -0.24184 0.78681 0 -27.77111 -11.34749 0.65736
-24.35727 -0.17593 32.66562 0 2.19188 -29.91982 1.34002
3.72282 0.17962 1.13793 0 29.56615 5.08360 0.29531
11.56988 0.12675 5.31694 0 -18.94924 23.25782 0.45795
-10.43527 0.22678 2.44551 0 26.44238 14.17040 0.23349
1.24031 0.19308 0.43430 0 -24.84428 16.81552 0.27270
9.93887 -0.02492 10.59445 0 12.29826 -27.36335 1.06065
11.31060 -0.01159 18.30054 0 -9.56301 -28.43499 1.61174
-0.12751 0.12172 1.73392 0 22.55706 19.77825 1.72000
-0.48991 0.19138 2.18282 0 23.93916 -18.08084 1.96023
-2.83477 -0.25654 2.33133 0 -3.22918 29.82570 0.77562
-3.36103 0.06146 2.48290 0 17.63406 24.27014 0.70815
-0.24523 -0.02898 1.48206 0 28.04284 10.65828 1.43941
-1.85168 -0.15774 1.44728 0 29.97615 1.19603 0.68778
1.59788 -0.24464 0.96524 0 17.61570 -24.28347 0.51212
16.37688 0.15178 11.25386 0 -27.96426 -10.86279 0.68597
4.42173 -0.11297 1.38301 0 -27.82094 -11.22475 0.30522
1.28433 0.13224 0.68194 0 -24.09360 -17.87452 0.41900
0.74939 -0.09332 1.69629 0 -11.46703 27.72196 1.35515
-0.13348 -0.13534 0.70003 0 -6.83839 29.21021 0.69388
-6.83961 0.19980 3.72280 0 -9.55083 28.43909 0.53866
0.97037 0.09206 0.64016 0 1.07891 29.98059 0.45946
3.13126 -0.04438 0.73645 0 19.49296 22.80405 0.22415
1.16046 -0.13228 0.79234 0 28.67319 8.82315 0.51730
1.73862 -0.02492 0.41507 0 14.72238 26.13908 0.20712
-5.33638 0.01452 4.41761 0 -6.83900 29.21007 0.81372
-1.72375 0.13960 1.34919 0 -10.57914 -28.07280 0.67708
-3.91823 0.18823 2.88624 0 -2.43957 -29.90064 0.71378
1.57895 -0.16294 0.68363 0 -19.18830 -23.06099 0.36586
-0.34393 -0.09047 0.82791 0 29.98665 -0.89484 0.78291
-0.00156 -0.09475 0.89171 0 -27.76687 11.35786 0.89171
-5.74678 0.16286 3.60363 0 24.27016 17.63404 0.61783
-0.81254 -0.18770 1.16811 0 4.15085 29.71145 0.90659
-15.54569 -0.07971 4.33676 0 26.88263 13.31631 0.33269
-17.14273 -0.18201 16.61110 0 -29.14977 -7.09161 0.96739
0.30904 -0.18054 0.52943 0 9.86134 -28.33291 0.50584
10.80248 -0.15441 5.36502 0 -15.80873 25.49675 0.49463
2.18976 0.09700 2.52920 0 21.92778 20.47371 1.05068
19.33414 0.20326 18.16310 0 19.92375 22.42865 0.93823
-6.77266 -0.11619 1.70302 0 -10.78257 -27.99529 0.24895
1.70304 0.21127 0.62091 0 -23.21960 -18.99606 0.32390
-3.34470 -0.23929 1.07437 0 4.03776 -29.72703 0.30786
-10.49604 0.00599 12.70944 0 -27.14135 -12.78074 1.20546
0.19266 -0.07218 0.76949 0 -1.38682 29.96793 0.75560
-14.47222 0.11322 3.43705 0 23.94907 18.06770 0.23713
-5.91851 -0.17718 1.48432 0 28.97772 7.76476 0.24746
12.03609 0.13270 6.74504 0 -6.22795 29.34642 0.55856
18.05895 0.06597 6.37790 0 25.29366 16.13166 0.35277
1.11920 0.17978 1.24814 0 28.35515 -9.79721 0.83165
1.43028 -0.09535 1.08919 0 10.26863 28.18786 0.62416
2.69468 -0.20386 1.71203 0 -29.38072 6.06411 0.59576
-6.83211 0.04749 4.54338 0 0.97086 29.98429 0.65807
-7.63126 -0.08686 6.78265 0 -13.48017 26.80084 0.88132
0.66837 -0.03827 0.52976 0 28.75097 -8.56632 0.44048
0.23502 0.09046 0.85883 0 28.86550 -8.17209 0.83606
2.63283 0.15475 0.63030 0 -29.71579 4.11967 0.22395
6.36175 -0.18706 5.26361 0 23.58416 18.54151 0.81741
23.24589 0.15060 19.44328 0 24.04163 -17.94435 0.83570
-26.50888 -0.02636 18.78996 0 -28.59352 9.07804 0.70838
-0.86256 0.04577 0.62925 0 -12.33472 -27.34693 0.47653
-0.65409 0.07902 1.44829 0 -28.94889 7.87157 1.21205
-3.90421 0.00679 2.21904 0 -17.22817 -24.55993 0.55068
-3.83378 0.25261 1.18325 0 12.03507 -27.48012 0.29872
-1.95385 0.02487 4.04998 0 23.29878 18.89885 1.84520
-6.05653 0.15542 3.46609 0 27.95107 10.89669 0.56473
15.02880 0.18305 23.43629 0 -6.73675 29.23382 1.55602
2.32960 0.26287 2.02458 0 -0.48443 -29.99609 0.79862
-15.76024 -0.10768 3.32424 0 -15.39896 -25.74630 0.21073
0.60527 -0.06005 0.63508 0 -24.41019 17.43968 0.54333
0.24494 -0.11498 0.36138 0 28.83730 8.27103 0.34737
-19.74953 0.05979 8.58055 0 -5.55968 29.48033 0.43403
-23.85397 0.22928 14.38308 0 29.96922 1.35861 0.60252
5.08059 -0.25984 1.83724 0 13.49273 -26.79452 0.35494
-3.51346 -0.14459 0.70623 0 -14.82723 26.07975 0.19305
8.61906 -0.04064 3.08304 0 26.23835 14.54473 0.34874
3.50620 0.04985 0.92241 0 29.99154 0.71255 0.27622
0.20440 0.15272 0.56116 0 29.88869 -2.58186 0.54979
-1.03594 0.09666 1.44722 0 -29.75520 3.82467 1.00514
0.23094 -0.08980 1.81708 0 -24.56731 17.21765 1.77048
-12.26663 0.08370 5.05241 0 11.41807 -27.74216 0.41064
-11.14918 -0.22509 5.28907 0 19.22031 23.03431 0.47260
2.94773 -0.13540 1.57485 0 29.54725 -5.19231 0.50602
-0.67635 0.24612 0.83484 0 29.49932 5.45802 0.69154
0.66770 -0.12587 0.42268 0 -29.98650 0.89988 0.35156
0.33580 -0.17927 0.64153 0 -26.18504 14.64048 0.60816
0.70295 -0.06207 0.36731 0 8.72396 -28.70353 0.30054
-14.54899 -0.22494 5.27383 0 -28.12991 -10.42633 0.36177
0.99125 0.20646 0.41606 0 -13.00824 -27.03305 0.29556
-1.53619 -0.19554 1.09116 0 29.97355 -1.25949 0.59534
-11.89839 0.20549 4.17421 0 5.26422 -29.53452 0.34973
0.96301 -0.10596 0.78225 0 29.83430 3.14872 0.56350
6.92603 0.12003 7.04473 0 -28.54390 9.23286 1.00675
-3.63580 0.01895 2.17458 0 -4.33852 -29.68463 0.57677
6.07278 -0.01366 2.73415 0 8.40017 -28.79995 0.44435
-2.48132 -0.12118 0.99122 0 -16.78049 24.86795 0.37061
-11.90598 0.12475 14.05909 0 -23.73641 18.34620 1.17674
-0.22232 0.19703 0.68663 0 -27.84468 11.16575 0.67027
0.79716 -0.00869 0.80754 0 -28.94765 -7.87614 0.63149
0.25844 -0.23276 0.43922 0 -18.49214 -23.62288 0.42525
1.61656 -0.10208 0.70036 0 -24.57412 -17.20792 0.36853
-0.93658 -0.12571 1.38913 0 26.03282 -14.90947 1.01393
-0.04101 0.15848 1.11521 0 24.99144 16.59602 1.11427
-0.14238 -0.13333 0.52908 0 -29.99791 -0.35450 0.52380
-1.44517 -0.20520 0.59753 0 -14.55843 -26.23075 0.34008
-1.65672 -0.17134 0.68135 0 -21.97354 -20.42458 0.35221
-5.20955 -0.01602 4.35362 0 17.86170 -24.10311 0.82080
-15.34111 0.00972 7.55952 0 -20.81442 21.60463 0.49830
0.15188 -0.25131 0.31372 0 17.49488 -24.37066 0.31017
17.18438 -0.09040 41.30767 0 21.63700 -20.78077 2.39975
-13.39759 0.14180 8.24600 0 24.36134 -17.50785 0.61386
-4.04118 0.23733 2.31581 0 -29.18926 -6.92726 0.55638
-2.18604 -0.01996 0.97786 0 22.90719 19.37165 0.40687
1.11847 -0.08282 1.25688 0 21.92705 -20.47449 0.83777
3.27007 -0.05391 1.18830 0 29.21777 6.80604 0.34765
6.39613 0.18696 1.57593 0 -7.08944 -29.15030 0.24363
-3.42545 0.03301 2.03615 0 28.57704 -9.12976 0.57066
-2.44398 0.14137 0.88604 0 -13.07839 26.99918 0.33581
-0.22946 0.21927 0.66286 0 8.58364 28.74580 0.64607
1.75133 -0.15268 3.16058 0 -22.14302 -20.24072 1.56722
-5.27974 0.21332 1.53914 0 -25.90610 15.12858 0.28655
-0.26729 0.05419 0.74221 0 -23.62069 -18.49494 0.72183
-13.99406 0.08545 9.17023 0 -1.25924 29.97356 0.65370
-12.99016 0.06746 6.80154 0 -16.95794 24.74729 0.52214
-3.42352 -0.00346 1.59245 0 22.86304 -19.42374 0.44659
5.64408 0.04944 2.84601 0 -27.96778 -10.85374 0.49659
0.87602 -0.19743 0.39994 0 -2.30620 -29.91123 0.30088
9.35235 0.11707 11.82471 0 -22.60365 -19.72498 1.25723
-0.59856 -0.03902 0.35156 0 -15.75449 25.53030 0.30169
-0.72001 0.06780 0.34084 0 -7.72214 -28.98911 0.27666
-0.46276 0.05731 0.97138 0 22.38391 -19.97400 0.88157
1.25778 -0.03458 1.08108 0 -16.99556 -24.72147 0.67283
3.88925 0.23770 3.21644 0 25.92081 15.10337 0.80102
0.76047 0.15329 0.95184 0 2.65158 -29.88259 0.75767
-6.10438 0.08360 5.90815 0 -29.79008 -3.54274 0.95517
1.53409 0.17580 1.88887 0 -14.93571 26.01777 1.03152
2.93657 -0.11465 1.67060 0 7.63054 29.01336 0.53859
0.91713 0.11390 0.84711 0 7.30419 29.09723 0.62434
0.06054 -0.14731 0.33246 0 18.11075 -23.91654 0.33186
-0.25645 0.23537 0.53429 0 6.51762 29.28345 0.51755
-2.46517 0.16886 1.70122 0 -25.22160 16.24410 0.63959
-1.60567 -0.06093 1.47410 0 20.01788 22.34468 0.77933
2.17364 -0.25799 2.00475 0 13.68242 -26.69815 0.83792
5.04559 0.15153 1.66160 0 26.24373 -14.53502 0.32319
-9.38989 -0.22415 4.31961 0 21.45278 20.97089 0.45755
5.45612 -0.15903 2.25485 0 -29.94538 -1.80948 0.40659
25.23719 -0.17238 5.81203 0 -26.56333 13.94236 0.24702
1.67197 -0.19080 1.66392 0 -29.56091 -5.11398 0.85414
-6.21469 0.21380 1.44950 0 0.34413 29.99803 0.23048
1.64581 0.24017 0.83767 0 -13.48772 26.79704 0.43503
1.17954 -0.09847 0.93642 0 26.27551 14.47749 0.60560
-1.02966 -0.10760 0.81679 0 4.42559 29.67177 0.56910
-8.15591 0.08951 3.53635 0 -19.00388 -23.21319 0.43048
-4.15534 0.16805 3.62196 0 10.90673 27.94715 0.84749
6.74260 -0.13475 4.58005 0 25.97565 -15.00884 0.67199
3.09832 0.05843 1.48170 0 29.95419 -1.65727 0.45522
-3.36544 -0.03772 1.16880 0 -27.28191 12.47789 0.33302
-1.23557 -0.19333 0.40788 0 -6.98465 -29.17558 0.25669
-2.77835 -0.25740 2.68180 0 4.06453 -29.72338 0.90827
-0.30909 0.01998 0.43963 0 28.58273 9.11194 0.42003
0.33385 -0.04365 0.30438 0 -29.72786 -4.03166 0.28874
0.17343 0.00160 0.69829 0 -17.83574 24.12232 0.68802
6.00375 0.10098 8.53588 0 0.90299 29.98641 1.40248
17.89105 -0.09427 13.74880 0 -26.69603 13.68657 0.76734
10.28362 0.14635 3.09045 0 19.16043 23.08415 0.29927
3.83662 -0.16593 1.56258 0 25.92669 15.09327 0.39418
-6.49537 -0.26242 2.80767 0 29.43459 -5.79699 0.42733
-18.18885 0.11138 6.02382 0 6.19684 -29.35301 0.33083
1.16293 0.21195 1.08917 0 -25.96547 -15.02646 0.71018
-2.38107 -0.16048 1.01469 0 -15.20169 -25.86327 0.39301
-14.64967 -0.18768 8.42862 0 -9.21789 -28.54874 0.57410
0.56121 -0.16797 1.26309 0 -20.91180 21.51038 1.10150
5.06215 0.14642 3.67305 0 5.27832 29.53201 0.71196
1.26295 0.04162 0.44775 0 16.80457 24.85169 0.27138
1.91087 0.02621 1.45080 0 -17.83315 -24.12424 0.69259
0.59442 0.25449 0.99733 0 -28.38056 9.72336 0.85732
2.01613 -0.24833 0.81086 0 -7.47118 -29.05480 0.36044
-17.34301 -0.25494 8.60005 0 6.03573 -29.38656 0.49516
-17.66112 0.16322 5.66902 0 12.93565 27.06786 0.32063
-4.71174 -0.05228 3.07484 0 -11.37029 -27.76178 0.63842
0.27049 -0.16695 0.79561 0 -9.48048 -28.46262 0.76801
-5.25004 -0.07423 3.08661 0 -20.33346 22.05789 0.57762
0.47861 -0.11121 0.91652 0 29.88832 2.58615 0.82672
0.56434 0.01649 0.49370 0 -25.88843 15.15880 0.42999
4.52501 0.05179 1.29179 0 3.65046 -29.77707 0.27889
-6.73932 -0.21082 3.90881 0 16.06224 -25.33781 0.57380
3.81362 0.14284 1.14372 0 29.44146 -5.76200 0.29023
7.37835 0.11349 2.34480 0 19.22753 -23.02829 0.31507
-0.17429 -0.17578 0.95513 0 22.35432 20.00711 0.94095
0.71437 0.13939 0.58392 0 11.03317 27.89748 0.47516
-9.34495 -0.26035 6.35049 0 29.15421 -7.07335 0.67578
1.52958 -0.19160 0.47977 0 -6.21814 -29.34851 0.26265
-1.59037 -0.06132 1.33298 0 27.32612 12.38076 0.70960
8.06478 -0.09610 3.14394 0 -29.94383 -1.83489 0.38700
19.88128 -0.17758 7.19705 0 -24.74966 16.95448 0.36168
8.02930 0.04518 1.96987 0 26.78555 13.51053 0.24365
-0.69599 0.14618 0.51732 0 0.10534 29.99981 0.42464
5.24916 0.14788 2.27285 0 21.67471 -20.74144 0.42544
6.62181 -0.12735 3.84297 0 -13.84749 -26.61291 0.57393
0.54333 0.25741 0.60888 0 20.55917 21.84767 0.53504
-4.28246 0.03308 2.56439 0 20.07520 22.29319 0.58321
10.38542 -0.07230 4.75981 0 -20.17407 -22.20375 0.45631
11.85485 -0.10304 2.72406 0 22.74881 -19.55740 0.22918
6.17317 -0.22645 4.10782 0 11.30914 -27.78675 0.65694
-0.11206 -0.16228 0.42963 0 -1.69373 -29.95215 0.42696
3.58998 -0.20275 1.69859 0 27.71393 11.48643 0.45589
-3.60879 -0.19252 3.66567 0 -28.30245 -9.94842 0.97896
3.46247 0.01650 1.40601 0 2.74060 -29.87456 0.39024
-8.92105 -0.19767 3.10467 0 -10.28714 -28.18110 0.35278
-1.23153 -0.05271 0.99434 0 -29.97767 -1.15723 0.62683
7.40987 0.06138 3.27846 0 17.55101 -24.33027 0.43858
-4.44384 -0.11028 5.10127 0 24.09717 17.86970 1.12000
-2.64819 -0.22131 1.22201 0 12.52262 27.26140 0.43183
-21.64642 -0.19766 12.27667 0 -29.52478 -5.31857 0.56663
2.63942 -0.16429 0.58509 0 4.87640 -29.60103 0.20743
-6.57762 -0.18283 4.35842 0 -7.58436 29.02546 0.65516
-0.87241 0.09068 0.66286 0 6.67826 -29.24724 0.49953
0.77484 -0.16738 0.60497 0 -26.93348 -13.21317 0.47825
-16.07484 0.09145 10.01504 0 -19.31118 22.95818 0.62190
4.32933 0.21474 1.27406 0 -10.81931 27.98111 0.28695
8.02976 -0.07064 1.88024 0 19.86679 -22.47911 0.23257
-3.43332 -0.14906 2.04305 0 -14.99481 25.98376 0.57158
-0.71637 0.21169 0.34294 0 26.05906 14.86355 0.27885
-1.47965 -0.08465 1.05197 0 -28.63416 8.94900 0.58911
9.97005 0.15396 3.81885 0 29.80636 3.40305 0.38125
-5.68668 0.04500 3.88818 0 -19.37327 22.90582 0.67349
7.33652 0.19570 1.91596 0 -1.84821 29.94301 0.25895
-4.41310 -0.00815 1.47709 0 -29.95954 1.55760 0.32652
-0.54427 -0.14068 0.31894 0 8.19793 -28.85817 0.28017
0.12767 0.20374 0.52323 0 -27.08540 12.89887 0.51902
12.61637 -0.13593 12.52157 0 -0.93572 29.98540 0.98943
-14.17666 0.18981 3.33926 0 -12.68995 27.18391 0.23517
2.19295 0.05888 2.42022 0 7.97473 -28.92064 1.00427
24.41565 0.06618 4.90189 0 8.84853 28.66537 0.20084
5.59753 0.20919 7.63294 0 -9.91056 -28.31573 1.34243
-5.19771 0.22760 2.50245 0 5.07963 -29.56683 0.47287
27.01604 -0.04312 20.43787 0 -2.46400 -29.89864 0.75606
3.95533 0.04843 1.69954 0 16.21925 25.23759 0.41669
-3.85332 0.02816 1.65375 0 26.61040 13.85231 0.41551
21.68412 -0.00548 7.73826 0 29.85426 2.95350 0.35662
-0.11964 0.22366 0.75681 0 29.14783 -7.09956 0.75146
1.40354 -0.06964 0.43456 0 -20.60647 21.80305 0.25231
-6.55265 0.08442 2.50620 0 -13.98443 26.54121 0.37822
27.03660 0.21431 14.21218 0 -5.89427 -29.41526 0.52540
25.76233 0.03678 11.89944 0 1.19746 -29.97609 0.46165
0.45354 0.11578 0.87741 0 -24.12621 -17.83047 0.79907
23.31788 -0.11381 14.26399 0 7.38913 -29.07578 0.61124
5.36481 -0.23204 1.38993 0 -8.25277 28.84253 0.25473
2.69846 -0.10445 1.09797 0 -11.37899 27.75822 0.38158
4.55726 -0.09055 2.30246 0 28.94651 -7.88033 0.49356
-21.86010 0.25592 15.04267 0 -5.70304 -29.45293 0.68749
-3.06590 -0.02553 0.93853 0 29.32113 -6.34596 0.29117
4.45630 0.13490 1.69256 0 29.78660 3.57190 0.37079
0.99542 -0.07647 0.66057 0 -19.72166 22.60655 0.46823
-0.59800 0.06257 0.82645 0 22.85958 -19.42780 0.70932
12.24755 0.20337 8.40724 0 13.63531 -26.72224 0.68424
-4.82766 0.06695 1.31012 0 -7.08186 -29.15214 0.26586
-0.94174 0.02123 0.65443 0 3.24677 -29.82379 0.47647
2.26510 -0.21183 3.09066 0 -28.81893 8.33482 1.24835
2.47223 -0.17352 0.99055 0 -19.69142 22.63290 0.37152
1.05613 0.06322 0.88656 0 6.81282 -29.21619 0.60959
-9.98020 0.21562 2.23479 0 10.08550 -28.25390 0.23793
9.00559 -0.14963 17.05740 0 -10.75193 -28.00707 1.88255
0.06892 0.25744 1.02112 0 15.29537 -25.80798 1.01871
0.23015 -0.13214 0.43727 0 26.20954 14.59658 0.42614
-1.07819 -0.19590 1.06058 0 -24.70092 17.02541 0.72127
22.53680 0.18355 8.86365 0 -5.30172 29.52781 0.39303
26.47544 -0.09355 6.60492 0 21.14231 -21.28386 0.24949
10.58964 -0.24784 4.97659 0 -4.26863 -29.69476 0.46797
-4.99077 0.16827 4.68143 0 29.65394 4.54358 0.91984
22.78887 -0.08906 16.63153 0 12.89133 -27.08899 0.72917
-1.03116 0.17423 0.60668 0 21.62826 -20.78986 0.42241
-1.98621 -0.20040 0.99241 0 19.14340 -23.09827 0.44638
0.13222 -0.09330 0.43127 0 2.19151 -29.91985 0.42755
19.55149 0.22958 14.04204 0 -24.45299 -17.37963 0.71734
8.60982 0.13824 1.98579 0 -24.48664 17.33218 0.22931
-8.71821 -0.19291 2.94463 0 5.86999 29.42012 0.33570
-2.68375 0.04612 1.42536 0 -28.40253 -9.65900 0.49777
-27.25208 0.02778 18.51660 0 3.12651 29.83664 0.67907
-3.77068 -0.23735 1.53443 0 11.74979 -27.60331 0.39348
-0.13471 -0.00965 0.36756 0 -5.76062 -29.44173 0.36427
1.76632 0.23423 0.57766 0 27.10965 -12.84785 0.28469
2.82694 0.06087 1.93789 0 26.87986 -13.32190 0.64633
1.99524 0.13186 0.67537 0 -29.90307 2.40963 0.29971
4.71696 -0.22230 3.80082 0 26.57993 -13.91069 0.78829
7.45646 -0.05124 3.28289 0 -29.70365 -4.20630 0.43648
-1.32879 0.16788 0.95919 0 -23.37891 -18.79964 0.57683
-0.68061 -0.24156 0.91034 0 29.62348 -4.73810 0.75259
-2.20326 0.13768 1.44670 0 -23.21893 18.99688 0.59795
16.86500 -0.12164 6.19266 0 -19.28935 22.97653 0.36668
4.68661 0.21530 0.77421 0 -7.63576 29.01198 0.16171
19.56675 -0.16201 10.92427 0 -10.87728 -27.95862 0.55767
-3.70487 -0.08817 1.43348 0 -28.58394 9.10816 0.39191
0.94197 -0.19852 0.56342 0 -8.01308 -28.91004 0.41017
-1.80015 -0.20977 0.68184 0 -18.77192 23.40118 0.33122
0.02769 0.22973 1.22164 0 -9.16879 28.56455 1.22117
-1.53304 0.19910 1.17061 0 25.64882 -15.56078 0.63960
-17.09967 0.23813 14.97969 0 3.06345 -29.84318 0.87459
-0.00206 0.26314 0.43400 0 24.15325 17.79383 0.43400
-3.55027 -0.08268 1.06415 0 -3.64063 -29.77828 0.28862
-6.94556 0.18760 4.40688 0 -16.33836 25.16064 0.62809
5.15773 -0.02577 1.03763 0 -27.74292 -11.41622 0.28139
-0.72263 0.10481 0.85294 0 1.96126 -29.93582 0.69136
0.83159 -0.09604 2.57906 0 -26.74604 -13.58857 1.98300
-1.48796 -0.18549 0.93228 0 -10.42586 -28.13008 0.52010
-1.61421 0.07423 1.77056 0 0.51459 -29.99559 0.93246
-2.49483 0.13036 3.11688 0 22.77676 -19.52484 1.15968
-0.98558 0.01953 0.83652 0 20.28008 22.10698 0.59583
13.55853 0.13789 10.42335 0 -28.91039 -8.01184 0.76675
5.10990 0.05258 3.66591 0 -29.73679 -3.96524 0.70408
3.32604 -0.05144 1.00622 0 -24.23441 17.68315 0.28995
-1.31426 0.17945 1.35119 0 -16.04295 -25.35002 0.81822
14.37479 -0.15526 9.17245 0 25.99920 -14.96803 0.63663
-1.96873 -0.18744 0.82790 0 -13.95100 -26.55879 0.37502
-1.27927 -0.12123 1.38331 0 -24.37478 -17.48914 0.85196
-0.00298 0.10995 0.21557 0 19.27191 22.99116 0.21556
4.30241 0.04058 1.09705 0 1.29068 29.97222 0.24847
1.48265 0.00757 2.22335 0 15.92778 25.42255 1.24326
0.58101 -0.17784 0.74593 0 29.98820 0.84133 0.64499
0.43723 -0.01070 2.20689 0 29.97773 -1.15562 2.02206
0.05774 0.02645 0.25931 0 -20.62351 21.78694 0.25888
-2.36233 0.13742 6.97140 0 -19.59173 22.71925 2.71762
-5.40811 0.08054 1.56064 0 9.86791 -28.33063 0.28464
0.98075 0.07655 1.58993 0 8.68618 28.71498 1.10507
0.58291 -0.05452 0.57364 0 11.98214 27.50324 0.51640
2.30741 0.03907 3.80233 0 21.62380 -20.79450 1.51201
-1.36448 -0.04574 1.93561 0 28.85085 8.22364 1.14422
-3.54503 0.21503 0.98279 0 22.00121 20.39477 0.26694
-5.58165 0.17236 3.38498 0 -28.92506 7.95871 0.59700
-18.94876 -0.24741 6.24480 0 -24.53645 -17.26160 0.32925
-7.31928 -0.09902 6.89724 0 -27.73984 -11.42372 0.93372
-3.75969 0.05936 10.26623 0 -27.01483 13.04603 2.63888
-5.15826 -0.25397 4.20519 0 -28.71288 8.69313 0.80042
-17.45649 0.12604 7.32143 0 1.95056 -29.93652 0.41884
-1.63213 -0.25772 0.97405 0 -29.37651 6.08447 0.50893
12.63176 0.19992 7.03910 0 -21.21099 21.21541 0.55560
0.97963 0.16121 0.65269 0 -1.46943 -29.96399 0.46629
8.16023 -0.22778 5.17940 0 0.96349 29.98452 0.63008
1.75359 0.08884 1.10618 0 -29.15597 -7.06607 0.54805
-4.00470 0.11909 1.23937 0 -14.86877 26.05609 0.30033
-0.67378 -0.17363 0.67580 0 29.68908 -4.30797 0.56048
1.87109 -0.16720 1.32744 0 -21.10192 21.32391 0.62576
9.77026 -0.21835 5.61680 0 2.69899 29.87834 0.57198
-4.27856 -0.00680 5.73716 0 -29.06216 -7.44250 1.30579
8.61015 0.12517 3.27030 0 28.36044 -9.78189 0.37741
2.68610 0.07936 2.40744 0 -26.70051 -13.67782 0.84006
1.83116 0.17005 1.23287 0 29.94155 1.87185 0.59098
0.09787 -0.13024 0.93903 0 3.83447 -29.75394 0.93457
-7.78754 0.24017 2.27302 0 -3.00310 -29.84931 0.28967
9.53226 0.13163 3.10731 0 -26.64844 -13.77900 0.32435
-0.60550 -0.25036 0.27742 0 29.94138 -1.87455 0.23735
-0.24454 0.26243 0.79788 0 -29.58018 -5.00131 0.77504
1.37569 -0.15340 0.97290 0 -28.92685 7.95218 0.57211
-1.89795 0.23320 2.84717 0 16.80574 24.85090 1.32723
1.24329 -0.07211 0.92907 0 25.06484 -16.48495 0.58234
3.44108 0.00096 2.53147 0 24.80955 16.86671 0.70651
-22.24404 -0.24787 5.56942 0 26.70242 -13.67410 0.25032
-6.20191 0.21061 4.04145 0 28.03315 10.68375 0.64341
3.05304 0.11556 1.94514 0 -28.60463 -9.04296 0.60551
-8.94807 -0.07765 4.56560 0 -12.62471 27.21427 0.50717
1.08308 0.13625 1.43956 0 1.03633 -29.98210 0.97657
-0.95439 -0.23851 1.71174 0 1.28506 29.97246 1.23831
13.37682 -0.05782 7.24089 0 -13.88707 26.59228 0.53988
-14.05728 0.20952 6.14964 0 7.67975 29.00037 0.43648
-13.50311 0.00289 14.53454 0 -10.97312 27.92115 1.07349
-0.13726 0.25724 0.82558 0 27.27207 12.49937 0.81791
1.31244 0.23159 0.76406 0 29.87596 -2.72527 0.46314
-10.30749 0.15800 8.06924 0 -8.19579 28.85878 0.77926
-1.83569 -0.03251 1.61711 0 -16.74844 -24.88955 0.77363
2.99764 0.18030 2.17483 0 -12.14980 -27.42959 0.68828
-0.52520 -0.16331 1.50529 0 -10.22104 28.20515 1.33268
-12.12617 -0.02640 5.47512 0 -29.54934 -5.18039 0.45009
3.84956 0.00184 0.78540 0 -5.75326 29.44316 0.19757
0.79005 -0.11526 0.59400 0 23.02553 -19.23084 0.46612
15.51846 0.10736 5.79026 0 11.72900 -27.61214 0.37248
-7.86388 0.13157 5.91241 0 26.99128 -13.09468 0.74590
-0.46387 0.12879 0.60379 0 12.47469 27.28337 0.54775
1.13193 -0.12948 0.97977 0 -5.83418 29.42724 0.64874
6.18121 0.03968 4.36517 0 -7.27069 29.10562 0.69720
-8.32707 0.23024 2.57840 0 -12.86524 27.10139 0.30759
-3.32976 0.17515 1.72277 0 6.72312 29.23696 0.49565
0.41815 0.00458 0.73010 0 24.30193 -17.59023 0.67359
-1.70806 0.04999 0.88674 0 -9.62696 28.41341 0.44814
2.75312 0.08671 2.21555 0 14.25560 26.39655 0.75646
-5.51158 0.07983 1.68350 0 -13.42981 -26.82611 0.30064
4.18890 -0.16807 2.57331 0 -16.79472 -24.85834 0.59770
-2.83793 0.21699 0.63975 0 10.64412 28.04822 0.21272
-0.24674 0.26077 0.46532 0 -27.66294 -11.60869 0.45177
-11.22651 -0.12060 3.75423 0 -28.57142 -9.14734 0.33323
8.03575 -0.18622 6.27912 0 11.02611 -27.90027 0.77548
5.94023 -0.09111 2.92367 0 29.91461 -2.26186 0.48541
-3.46521 0.00933 0.71361 0 29.67236 4.42167 0.19803
11.47597 -0.02941 9.34620 0 -7.59579 -29.02247 0.81140
-1.31606 0.18362 1.10954 0 4.68548 -29.63185 0.67133
-0.54130 0.19970 1.08136 0 -26.22828 -14.56287 0.95526
2.98199 -0.06816 1.14046 0 -29.99201 -0.69232 0.36283
0.23964 0.10394 0.45440 0 -12.64719 -27.20383 0.44189
1.35056 0.01572 0.51906 0 -17.46528 -24.39188 0.30899
-6.58342 0.10456 1.61225 0 -26.14652 -14.70917 0.24232
3.91019 0.25548 2.82543 0 28.62354 -8.98294 0.70012
-3.82165 -0.15719 1.39146 0 26.09737 14.79619 0.35239
25.73863 -0.11015 14.93581 0 -23.64735 -18.46084 0.57993
6.16767 0.22960 2.29316 0 25.99703 14.97178 0.36714
-3.54251 -0.13543 1.92297 0 5.57857 29.47676 0.52254
-15.06176 -0.21251 4.26293 0 0.55123 -29.99494 0.28258
-22.88541 0.01289 18.14831 0 28.36410 -9.77127 0.79232
-2.02603 -0.25706 1.37057 0 -29.61894 4.76641 0.60670
2.99900 -0.17513 2.93942 0 16.34628 -25.15550 0.92988
1.14291 -0.08425 0.45369 0 -4.82250 -29.60986 0.29883
-0.03066 -0.21006 0.42652 0 -28.84049 -8.25990 0.42632
1.22637 -0.18167 0.94566 0 -12.55814 27.24506 0.59767
-2.85913 -0.07225 1.91813 0 -29.03519 7.54704 0.63330
17.28885 -0.24061 11.18408 0 -1.01233 -29.98292 0.64589
-1.31858 0.05416 1.61864 0 26.83595 13.41015 0.97814
0.97476 0.17297 0.86774 0 -29.99754 -0.38400 0.62141
1.05792 -0.19479 0.79661 0 -29.96679 1.41129 0.54726
17.58409 0.18864 4.33666 0 4.23935 29.69896 0.24642
-0.38632 0.23590 0.55912 0 -23.75907 18.31684 0.52157
3.43823 -0.15270 1.83997 0 -27.36964 12.28426 0.51391
-7.59908 -0.06220 5.28400 0 25.56882 -15.69189 0.68947
11.30850 -0.15613 7.78966 0 -8.73064 -28.70150 0.68623
-2.22867 0.20466 1.41874 0 -17.69522 -24.22559 0.58092
-9.82113 -0.24193 4.85774 0 0.12059 29.99976 0.49218
-27.22958 -0.00199 15.30366 0 -16.56738 -25.01044 0.56173
-15.16580 -0.26125 9.64469 0 -22.04738 20.34485 0.63465
1.77428 0.19471 0.46603 0 -29.67650 4.39380 0.22897
0.51655 0.06190 1.10239 0 29.29593 -6.46133 0.97945
-0.92222 -0.18718 0.48277 0 25.62643 -15.59763 0.35494
-6.95423 0.12867 3.08788 0 -26.07672 14.83255 0.43962
7.64614 0.04945 3.28003 0 9.62283 28.41480 0.42547
6.70822 -0.24039 2.60516 0 -29.96160 -1.51750 0.38423
15.50385 -0.22515 5.11056 0 -19.16117 -23.08354 0.32910
0.17373 -0.18558 0.45333 0 -26.92460 -13.23125 0.44553
2.10675 -0.25566 1.58828 0 3.31501 -29.81628 0.68113
3.65073 0.03479 7.20211 0 -28.80507 8.38261 1.90276
9.27079 -0.04298 3.10505 0 29.94283 -1.85122 0.33314
-2.90293 -0.01489 1.03412 0 24.78448 -16.90353 0.33688
2.35753 -0.10615 0.95432 0 25.34501 16.05087 0.37275
0.56397 -0.08826 1.02602 0 29.99022 0.76595 0.89370
11.45889 -0.19213 3.38138 0 -29.99842 0.30737 0.29413
4.22959 0.26168 4.09989 0 -22.78416 -19.51620 0.94336
0.13807 0.02194 0.51150 0 26.48684 14.08713 0.50670
-16.66263 -0.07457 8.40804 0 24.86466 16.78537 0.50379
1.89977 0.05185 1.58766 0 -29.97377 1.25431 0.74654
9.53754 -0.06047 7.53586 0 16.93903 -24.76024 0.78588
-13.06611 0.03783 10.01259 0 -10.38295 28.14595 0.76413
20.68067 0.12508 9.50335 0 17.15949 24.60796 0.45910
23.34990 -0.21232 5.44917 0 -12.88847 -27.09036 0.23337
0.22875 0.01020 0.72874 0 -23.10005 19.14125 0.71039
-10.48926 0.02197 8.45150 0 -19.68194 -22.64114 0.80215
11.16010 -0.17204 4.24302 0 -26.85550 13.37094 0.37881
8.45257 -0.07464 3.30694 0 29.39038 6.01711 0.38865
0.10552 0.08164 0.74732 0 26.25478 14.51504 0.74319
-1.86383 0.05357 0.87253 0 -12.25757 27.38160 0.41261
-0.34815 -0.02001 0.78332 0 -1.57360 29.95870 0.73977
20.02247 -0.03727 20.79760 0 23.53082 -18.60915 1.03747
-14.47303 -0.05633 12.34589 0 9.50401 28.45477 0.85106
