0.91284 -0.03236 1.82311 0 26.16970 14.66789 1.34649
-7.22303 -0.21938 3.11389 0 -27.41783 12.17631 0.42714
6.43555 -0.04420 2.68401 0 -11.50631 -27.70568 0.41223
-0.50859 -0.12470 0.59465 0 23.71388 18.37531 0.53006
1.35501 -0.12572 0.37013 0 11.99375 -27.49818 0.21994
2.22355 0.16963 0.94218 0 27.43652 -12.13415 0.38659
-5.88884 -0.18091 5.50095 0 -10.01764 28.27803 0.92098
-10.14879 -0.20122 5.33429 0 21.91399 20.48846 0.52317
-12.82217 0.10645 8.89781 0 -17.83677 24.12156 0.69191
-4.69808 0.17670 5.54765 0 -0.97358 29.98420 1.15499
-2.58630 -0.23280 0.77707 0 23.85414 -18.19285 0.28033
-0.84303 0.25976 0.71083 0 13.93042 -26.56960 0.54351
-0.91582 0.06212 0.79677 0 -18.38511 -23.70628 0.58762
-0.33308 -0.18780 0.68785 0 17.05519 -24.68036 0.65261
6.10270 0.24398 1.77852 0 22.38915 19.96812 0.28776
10.70106 -0.07987 6.20707 0 -19.03411 23.18842 0.57761
21.23002 -0.14663 17.53477 0 -26.42080 14.21061 0.82509
-0.55972 0.08548 0.23729 0 28.33026 9.86895 0.20712
-20.61732 0.05007 7.55641 0 -3.88779 29.74702 0.36621
0.96358 -0.08269 0.45511 0 -25.26893 -16.17038 0.32777
1.33557 0.15259 0.57787 0 -21.75461 20.65762 0.34645
4.09698 -0.15498 1.91620 0 -29.94854 1.75634 0.45193
4.06111 -0.21565 1.68488 0 -29.73365 3.98875 0.40296
2.92913 0.14992 3.71400 0 2.05555 29.92949 1.19997
-25.49762 -0.06871 7.75372 0 22.01126 -20.38393 0.30402
-1.12117 -0.22737 0.40383 0 29.74826 3.87827 0.26889
4.74007 0.21463 2.83887 0 27.34979 -12.32839 0.58609
-15.70744 -0.00845 9.49761 0 -0.98049 -29.98397 0.60352
-1.16285 0.24885 0.80708 0 29.86046 2.89017 0.52628
-2.65218 -0.10447 1.17554 0 8.11978 28.88026 0.41490
-0.06069 -0.16640 0.52342 0 -18.63842 23.50764 0.52246
4.15319 -0.12057 2.45094 0 -26.68859 -13.70107 0.57381
-6.36798 -0.12035 1.72003 0 25.27845 16.15549 0.26892
15.84959 -0.26304 15.00928 0 -1.48137 -29.96340 0.94515
-17.52351 -0.01023 10.20988 0 25.77918 15.34386 0.58178
10.06112 -0.14967 5.88164 0 -26.09134 14.80682 0.58181
19.24135 -0.22007 14.20906 0 -26.91159 13.25769 0.73754
-11.95807 -0.10848 3.21972 0 -27.05520 -12.96211 0.26849
9.85256 -0.03884 2.17750 0 -24.30637 17.58410 0.22010
0.71045 -0.18259 0.68678 0 22.43430 -19.91739 0.55991
0.59924 0.18897 0.48901 0 22.42316 19.92993 0.41950
6.29274 -0.00695 3.21890 0 5.78477 -29.43699 0.50528
0.46464 0.06364 0.77345 0 26.00052 14.96572 0.70145
20.66188 0.23697 31.30355 0 -21.19086 -21.23552 1.51330
10.83662 0.03971 3.11449 0 7.52880 -29.03992 0.28636
-13.41949 -0.26181 7.35352 0 29.94308 1.84706 0.54655
1.48137 -0.08911 2.10514 0 14.55291 26.23381 1.17786
15.15011 0.24955 9.92409 0 -23.42553 -18.74152 0.65370
7.98382 0.22382 3.03093 0 -29.26072 6.61892 0.37682
0.90735 -0.14372 0.56271 0 -29.95465 -1.64898 0.41680
-14.93196 0.25549 4.54595 0 -4.57618 29.64892 0.30392
0.59954 0.20563 1.96149 0 13.92203 26.57399 1.68231
-4.42285 0.18676 1.83487 0 -28.01679 -10.72657 0.40380
0.05338 0.21263 0.50145 0 13.98743 -26.53963 0.50073
0.78978 0.01679 1.11559 0 25.59374 15.65121 0.87550
-0.69916 0.09378 1.39927 0 -13.29479 -26.89328 1.14679
-19.60855 -0.22298 13.82888 0 6.37932 -29.31389 0.70440
11.84712 -0.21155 4.22770 0 -4.22282 -29.70131 0.35573
-19.28351 -0.11209 8.58407 0 16.31071 25.17858 0.44466
4.96142 0.14950 4.25371 0 9.59429 -28.42445 0.84056
-0.28990 -0.06017 0.62205 0 28.95061 7.86525 0.59746
0.17251 0.25487 1.11958 0 -25.31905 16.09179 1.10329
-3.83666 -0.03141 1.32538 0 -27.63170 11.68286 0.36874
-24.71699 0.26050 10.42875 0 -27.54227 -11.89215 0.45706
-15.58299 -0.20185 2.87874 0 -13.32240 26.87961 0.21432
-11.75678 -0.14899 3.33761 0 11.61426 27.66060 0.37019
14.11722 0.01466 5.69561 0 -8.00135 -28.91329 0.48692
-4.72544 -0.05260 4.09976 0 21.25760 21.16871 0.84886
-0.41968 0.24461 0.51740 0 -1.26552 29.97330 0.48069
-0.84934 0.11348 0.53609 0 27.91511 10.98848 0.40865
-2.28301 0.20923 4.07576 0 28.20584 10.21912 1.63529
-13.27888 -0.19177 5.25536 0 -23.59184 18.53173 0.39477
-2.95320 0.20646 4.04179 0 3.35210 29.81214 1.29636
-1.81677 -0.13515 1.91749 0 26.84925 13.38348 0.92467
-0.23671 0.01231 1.04753 0 11.64245 27.64875 1.01936
-1.58651 -0.10976 1.13573 0 25.90086 15.13756 0.63448
0.24793 0.00634 0.78868 0 -26.71920 -13.64128 0.76550
-18.14898 -0.22190 10.41753 0 -8.81200 -28.67662 0.57322
25.91334 0.24102 15.79804 0 -19.60730 22.70581 0.60928
23.71744 -0.00212 7.58555 0 -29.98155 -1.05208 0.31970
2.00339 -0.12006 0.89378 0 -2.08224 -29.92765 0.39926
-21.91332 0.04872 13.57163 0 -2.13107 -29.92421 0.61877
0.06085 0.23354 0.58736 0 29.92012 2.18776 0.58627
-15.31383 -0.10827 6.85133 0 -28.98419 -7.74060 0.44655
-26.89649 -0.19217 13.41061 0 -2.95761 -29.85385 0.49835
-12.33658 0.03286 3.76000 0 -15.01996 -25.96923 0.30395
11.50529 -0.25782 2.71109 0 4.49232 29.66174 0.23496
7.56674 -0.21543 3.90070 0 -8.62593 -28.73314 0.51116
-3.73358 -0.08054 1.50161 0 -29.88618 -2.61083 0.38858
-6.87411 0.01536 4.42128 0 19.40213 22.88137 0.63655
9.01500 0.22457 3.82183 0 9.94470 28.30376 0.42147
0.95209 -0.05380 0.43508 0 27.89855 -11.03045 0.31517
-1.57846 0.24545 0.37656 0 -17.05834 -24.67819 0.20165
15.69909 -0.12427 12.45366 0 29.55774 -5.13225 0.79173
0.52074 -0.03152 0.69806 0 28.37393 -9.74270 0.61917
-9.49120 0.19376 4.43018 0 19.35320 22.92278 0.46430
-4.85821 0.11851 0.83259 0 -24.06393 -17.91444 0.16805
0.98223 0.09432 0.26355 0 -29.96778 1.39011 0.20553
0.85753 -0.01910 0.73370 0 14.67294 26.16687 0.55699
-25.30442 0.17942 7.24175 0 28.33570 -9.85333 0.28613
3.19321 -0.19378 1.29287 0 19.89116 -22.45756 0.38643
0.47253 0.16418 0.83709 0 -4.00972 29.73083 0.75686
-0.38652 0.08409 0.59475 0 -6.42962 -29.30290 0.55477
-4.95502 0.22740 2.11381 0 6.83417 29.21120 0.41823
-0.64344 -0.16815 0.24645 0 17.40496 -24.43496 0.20731
0.38873 0.08084 1.09917 0 28.74276 -8.59383 1.02449
-20.47197 -0.06995 18.84025 0 -27.07844 -12.91348 0.91925
-0.45423 -0.07661 0.39505 0 3.67174 29.77446 0.35971
7.51552 -0.01287 2.34436 0 10.08306 28.25477 0.30937
0.93856 0.08762 0.58548 0 -29.55947 5.12226 0.43396
-13.02668 0.07972 3.87471 0 -26.37315 14.29885 0.29673
1.08880 -0.09688 0.77745 0 -27.62011 -11.71022 0.52596
-3.82335 -0.14253 4.65449 0 -29.36270 6.15077 1.04973
0.61117 -0.16119 0.48273 0 29.54786 5.18880 0.41010
-6.21488 -0.11868 3.22180 0 -7.83799 28.95800 0.51191
-1.92617 -0.07366 1.44400 0 24.12506 17.83203 0.66541
25.75307 0.22033 10.07319 0 28.96356 7.81744 0.39098
-0.63563 -0.20819 0.57361 0 5.20620 29.54480 0.48413
0.96727 0.16742 1.65662 0 -6.18763 -29.35495 1.19076
-0.61445 0.08316 0.63307 0 1.51373 29.96179 0.53941
2.61293 -0.04068 1.07682 0 28.21546 10.19254 0.38496
1.47393 0.07307 1.25671 0 -29.69651 4.25643 0.70561
-5.98615 -0.09027 1.43556 0 -10.09024 -28.25220 0.23674
-16.08574 -0.14011 19.34646 0 23.05912 -19.19055 1.20043
-1.15316 -0.13456 0.61812 0 -27.82730 11.20898 0.40504
18.17713 0.20452 21.43240 0 -13.55704 -26.76204 1.17735
0.66525 -0.04100 0.67870 0 -12.02879 -27.48287 0.56510
1.85628 0.03848 0.83867 0 -7.39387 29.07457 0.39787
2.85753 -0.14677 1.47061 0 17.52872 24.34633 0.48583
0.81167 -0.05447 0.90408 0 17.55177 24.32972 0.70198
-3.03764 -0.03421 2.86436 0 26.21253 -14.59120 0.89571
-2.29016 0.13590 1.19581 0 5.28740 -29.53038 0.47858
1.57106 0.00734 0.50841 0 0.73973 -29.99088 0.27312
-25.05611 0.14845 24.07141 0 -29.37856 6.07455 0.95999
1.25461 -0.12440 1.03785 0 -20.27629 -22.11045 0.64692
-17.47787 0.06630 9.81791 0 -29.46091 5.66171 0.56090
-18.18679 0.20580 26.94053 0 -21.35058 21.07493 1.47913
2.21131 0.13832 0.89482 0 -15.78025 25.51438 0.36892
0.30310 0.25621 0.43939 0 24.33839 -17.53974 0.42050
-0.19461 0.06384 0.50631 0 -18.07311 23.94499 0.49699
1.14439 0.21163 0.48222 0 15.12117 -25.91043 0.31740
-4.61422 -0.01209 3.22230 0 28.72779 8.64373 0.68256
2.66804 0.17986 0.93060 0 -29.60266 -4.86649 0.32669
2.86622 -0.05252 2.42429 0 4.71413 29.62730 0.79864
20.56670 0.21343 9.17388 0 25.06479 16.48504 0.44564
1.18129 0.24268 0.59120 0 -18.88560 -23.30952 0.38206
3.37209 0.14593 1.10395 0 29.34584 -6.23070 0.31408
-15.64679 0.13460 8.37289 0 -8.78756 28.68412 0.53412
0.00629 0.21686 0.21998 0 -12.52902 -27.25846 0.21997
22.77135 -0.05835 11.09294 0 -0.38450 29.99754 0.48678
-4.18568 0.21324 1.70885 0 -0.78547 29.98972 0.41396
14.37820 -0.19687 5.66092 0 -21.52277 20.89905 0.38052
6.04781 -0.03449 9.95285 0 -24.54828 17.24476 1.62371
-1.07321 -0.19765 0.46728 0 -28.43487 -9.56338 0.31860
-3.23689 -0.08216 1.45055 0 5.96003 -29.40201 0.42832
-1.92884 -0.23300 0.68695 0 21.94326 20.45710 0.31632
0.63599 -0.08428 0.94037 0 27.28309 -12.47530 0.79351
1.22913 0.03402 0.46055 0 10.35037 -28.15795 0.29073
9.13832 0.25174 6.21382 0 -8.98341 -28.62339 0.67601
-8.13750 -0.00750 1.83378 0 29.99050 -0.75478 0.22388
-0.38468 -0.05189 0.24025 0 -2.54141 -29.89216 0.22426
-0.74721 0.22867 0.50667 0 -0.24996 -29.99896 0.40592
0.02780 -0.17668 0.22344 0 24.97076 -16.62712 0.22335
1.91475 0.02122 1.28388 0 14.21710 -26.41731 0.59444
0.99524 0.16868 1.10994 0 4.49150 -29.66187 0.78674
0.52086 0.25573 1.02652 0 19.53711 -22.76623 0.91044
22.27037 -0.07568 11.04970 0 3.25780 -29.82259 0.49576
-26.30790 0.14955 12.86421 0 -28.14720 -10.37955 0.48873
-3.98246 -0.15002 2.27374 0 29.72789 -4.03142 0.55378
-24.59042 -0.25485 14.71479 0 -18.73719 -23.42899 0.59798
-23.89331 -0.16451 23.18414 0 10.73398 28.01396 0.96952
-21.36967 -0.06000 7.79546 0 27.89651 -11.03560 0.36453
-12.85217 -0.14850 6.62161 0 21.05927 -21.36603 0.51375
-2.75035 0.24693 1.02867 0 -19.03256 23.18969 0.35160
8.75067 0.10067 5.09949 0 4.46505 29.66586 0.57907
-18.33447 0.04931 7.08319 0 29.28118 -6.52784 0.38588
-4.07729 -0.06829 1.64751 0 27.89597 11.03698 0.39260
-8.80621 -0.05301 2.66446 0 -28.09662 -10.51571 0.30079
-7.53057 0.09082 1.72574 0 -6.18381 29.35576 0.22738
-19.91490 0.00731 18.83593 0 -24.30634 17.58413 0.94469
0.32080 -0.06280 0.80486 0 29.99934 0.19923 0.76640
-9.88182 -0.20407 5.04406 0 27.59833 -11.76147 0.50794
0.41630 0.17701 0.49837 0 29.99863 0.28647 0.46011
1.79919 0.22475 0.94876 0 17.49660 24.36942 0.46101
-24.34693 0.08636 21.88544 0 -25.05357 -16.50208 0.89820
2.80421 0.08122 1.51877 0 -9.08068 28.59268 0.51024
-0.02384 -0.02897 0.60208 0 -28.90643 -8.02611 0.60191
-1.07065 0.23894 0.54858 0 27.94502 -10.91219 0.37450
3.36147 -0.06321 1.18322 0 26.90413 -13.27282 0.33747
0.03920 0.21718 0.39437 0 -1.60371 29.95710 0.39407
-1.75132 0.03684 0.60694 0 -9.54805 28.44002 0.30106
-5.99370 0.19278 3.60988 0 20.68560 21.72800 0.59429
3.78051 -0.00446 1.53902 0 29.49218 5.49647 0.39369
5.11839 0.19355 2.25817 0 -20.09664 22.27387 0.43307
2.93056 0.10434 2.88850 0 -9.04666 28.60346 0.93287
4.06801 -0.04424 1.64925 0 -3.15495 -29.83364 0.39377
-1.72567 0.25500 0.60496 0 -14.36011 26.33984 0.30347
-0.76916 -0.20535 0.98427 0 23.39493 -18.77970 0.78021
3.19836 0.02482 1.64512 0 20.72870 21.68688 0.49099
-2.80523 0.02652 1.66231 0 13.15836 -26.96030 0.55827
0.46460 -0.08007 0.24253 0 -27.12065 12.82460 0.21999
-13.69451 -0.21787 10.94922 0 -4.44492 29.66888 0.79747
-0.65784 0.10286 0.58341 0 -27.77111 -11.34749 0.48742
-0.10696 0.15910 0.57077 0 28.38255 -9.71757 0.56753
-12.98397 0.24401 2.61852 0 -21.84997 -20.55672 0.20132
-1.19971 -0.06785 0.66804 0 29.38145 6.06057 0.42779
-24.35727 -0.21802 32.66562 0 2.19188 -29.91982 1.34002
0.10897 -0.14677 0.21728 0 -5.07865 -29.56700 0.21600
9.93887 -0.16085 10.59445 0 12.29826 -27.36335 1.06065
11.31060 -0.03869 18.30054 0 -9.56301 -28.43499 1.61174
-0.48991 0.04165 2.22889 0 23.93916 -18.08084 2.00160
-2.83477 0.23995 2.04447 0 -3.22918 29.82570 0.68018
0.44274 0.24997 0.24508 0 22.86582 -19.42046 0.22413
-0.24523 0.13102 1.36173 0 28.04284 10.65828 1.32254
-1.12181 -0.06884 1.05594 0 -7.94253 28.92950 0.70270
16.37688 -0.05498 11.25386 0 -27.96426 -10.86279 0.68597
4.42173 0.20825 1.87653 0 -27.82094 -11.22475 0.41414
-3.36723 0.16039 1.48185 0 -22.06321 20.32768 0.42198
3.33985 0.10700 2.51677 0 -19.31046 -22.95879 0.72194
16.25329 0.24506 12.14213 0 -25.85785 15.21090 0.74571
-2.14011 -0.13286 1.49471 0 2.85947 29.86341 0.63282
0.74939 -0.05534 1.63372 0 -11.46703 27.72196 1.30517
-0.13348 0.11373 0.74407 0 -6.83839 29.21021 0.73753
1.59568 -0.22830 0.57208 0 28.71940 -8.67158 0.30389
8.28757 -0.18650 4.02426 0 -22.05082 -20.34113 0.48218
0.82159 0.15944 0.91368 0 29.82309 3.25319 0.70600
6.80468 0.13762 1.75931 0 10.78645 27.99379 0.25598
3.13126 0.18604 1.04540 0 19.49296 22.80405 0.31818
1.16046 0.00467 0.70743 0 28.67319 8.82315 0.46187
-1.72375 0.23934 1.30995 0 -10.57914 -28.07280 0.65739
-3.91823 -0.12887 2.66567 0 -2.43957 -29.90064 0.65923
-0.34393 0.11498 0.82289 0 29.98665 -0.89484 0.77816
-0.00156 0.09654 0.83178 0 -27.76687 11.35786 0.83178
-5.74678 -0.25926 3.86449 0 24.27016 17.63404 0.66255
-0.81254 0.01035 1.10152 0 4.15085 29.71145 0.85491
0.24090 -0.01418 0.25753 0 -24.39241 17.46455 0.25037
-2.54458 -0.14831 0.91772 0 -7.41759 -29.06853 0.33594
-15.54569 -0.16712 4.33676 0 26.88263 13.31631 0.33269
-17.14273 -0.00817 16.61110 0 -29.14977 -7.09161 0.96739
0.01744 0.17036 0.29342 0 -13.48344 26.79920 0.29338
13.29885 -0.23221 8.33884 0 14.45181 -26.28964 0.62535
18.32010 0.18591 21.39367 0 -9.48867 28.45989 1.16608
2.18976 -0.12052 2.87415 0 21.92778 20.47371 1.19399
-2.92134 0.18688 0.70647 0 29.83842 -3.10944 0.22883
3.80164 0.23896 1.92458 0 29.67306 -4.41699 0.48965
19.33414 0.17647 18.16310 0 19.92375 22.42865 0.93823
1.70304 0.01967 0.55567 0 -23.21960 -18.99606 0.28987
-10.49604 0.12514 12.70944 0 -27.14135 -12.78074 1.20546
1.80329 0.02387 0.45071 0 -6.28528 29.33420 0.21875
0.19266 0.21856 0.72891 0 -1.38682 29.96793 0.71575
-16.91696 -0.14032 11.23684 0 -26.95328 13.17272 0.72666
1.32931 -0.18201 0.53372 0 26.63760 13.79993 0.32095
-15.62560 -0.14508 8.19061 0 -26.19074 -14.63027 0.52320
-5.91851 0.24216 2.05825 0 28.97772 7.76476 0.34315
12.03609 0.10085 6.74504 0 -6.22795 29.34642 0.55856
18.05895 -0.15682 6.37790 0 25.29366 16.13166 0.35277
-3.29983 0.07628 1.45682 0 29.78337 3.59871 0.42285
1.43028 -0.00931 1.08352 0 10.26863 28.18786 0.62091
2.69468 0.01876 1.13646 0 -29.38072 6.06411 0.39547
-6.83211 0.05323 4.54338 0 0.97086 29.98429 0.65807
-7.63126 0.23724 6.78265 0 -13.48017 26.80084 0.88132
-0.10896 -0.15606 0.42764 0 28.13449 10.41396 0.42513
-0.22780 -0.09984 0.37725 0 16.73547 -24.89827 0.36783
0.23502 -0.15791 0.79196 0 28.86550 -8.17209 0.77096
6.36175 -0.03697 5.26361 0 23.58416 18.54151 0.81741
2.43006 -0.17426 0.49691 0 -28.39229 -9.68906 0.18927
-0.77723 -0.07627 0.39187 0 -4.31480 29.68809 0.30948
-16.31359 -0.12018 7.10321 0 -26.54015 13.98645 0.43471
-26.50888 -0.15113 18.78996 0 -28.59352 9.07804 0.70838
-0.65409 0.20433 1.41641 0 -28.94889 7.87157 1.18537
-0.32872 0.25807 0.57602 0 -4.64231 -29.63864 0.54722
-1.95385 -0.22410 4.74676 0 23.29878 18.89885 2.16266
-0.55189 -0.14244 1.83034 0 8.99370 28.62016 1.60250
-6.05653 0.08807 3.46609 0 27.95107 10.89669 0.56473
-5.50924 0.14171 1.20597 0 -23.48050 -18.67260 0.21561
15.02880 0.11783 23.43629 0 -6.73675 29.23382 1.55602
2.32960 0.09736 2.40393 0 -0.48443 -29.99609 0.94827
-15.76024 -0.14593 3.32424 0 -15.39896 -25.74630 0.21073
0.60527 -0.26304 0.74701 0 -24.41019 17.43968 0.63909
13.74785 -0.07756 8.41000 0 -21.24341 21.18295 0.61020
2.07238 -0.19252 0.72611 0 17.31495 -24.49883 0.31573
26.41200 0.02019 16.94490 0 -0.47601 29.99622 0.63550
19.37653 -0.04038 4.37678 0 14.73809 26.13023 0.25930
-3.12167 0.12783 1.36787 0 -28.44024 -9.54739 0.41743
-23.85397 0.11349 14.38308 0 29.96922 1.35861 0.60252
23.23015 -0.00731 13.29943 0 15.24993 -25.83485 0.57206
-3.51346 -0.15638 1.16095 0 -14.82723 26.07975 0.31735
-7.55106 0.10003 11.57461 0 -29.93459 -1.98005 1.51961
-1.03594 -0.10505 1.16549 0 -29.75520 3.82467 0.80948
0.23094 0.19038 1.86855 0 -24.56731 17.21765 1.82064
-12.26663 0.24380 5.05241 0 11.41807 -27.74216 0.41064
-11.14918 0.24131 5.28907 0 19.22031 23.03431 0.47260
2.94773 -0.21212 1.70489 0 29.54725 -5.19231 0.54780
-0.67635 -0.23342 0.65921 0 29.49932 5.45802 0.54606
0.33580 -0.25706 0.57464 0 -26.18504 14.64048 0.54475
-14.54899 -0.22774 5.27383 0 -28.12991 -10.42633 0.36177
2.19085 -0.09919 2.74213 0 -8.33021 28.82026 1.13872
0.19536 -0.19913 0.23451 0 6.51824 -29.28331 0.23017
-1.53619 -0.10945 0.84088 0 29.97355 -1.25949 0.45879
-11.89839 0.00127 4.17421 0 5.26422 -29.53452 0.34973
3.17231 0.03045 1.57998 0 8.84210 -28.66736 0.47515
9.09567 0.08463 3.92597 0 7.84835 28.95520 0.42916
0.96301 0.03081 0.77704 0 29.83430 3.14872 0.55974
6.92603 -0.04422 7.04473 0 -28.54390 9.23286 1.00675
-3.63580 0.19885 2.24689 0 -4.33852 -29.68463 0.59595
2.77451 0.10044 0.99178 0 28.37302 -9.74535 0.33648
6.07278 0.08047 2.73415 0 8.40017 -28.79995 0.44435
-11.90598 -0.10799 14.05909 0 -23.73641 18.34620 1.17674
-0.04101 -0.05445 1.07384 0 24.99144 16.59602 1.07294
-0.14238 -0.22017 0.51226 0 -29.99791 -0.35450 0.50714
-1.80395 0.17045 0.75526 0 15.00838 25.97592 0.36628
0.07305 -0.08342 0.33990 0 -18.03601 23.97295 0.33900
-0.00108 0.11315 0.33849 0 17.06788 24.67159 0.33849
-1.65672 -0.12069 0.69473 0 -21.97354 -20.42458 0.35913
17.18438 0.20834 41.30767 0 21.63700 -20.78077 2.39975
-13.39759 -0.20311 8.24600 0 24.36134 -17.50785 0.61386
1.11847 0.12040 1.24741 0 21.92705 -20.47449 0.83146
2.97258 0.03355 2.57384 0 -0.78784 29.98965 0.82070
-3.42545 -0.01106 2.36264 0 28.57704 -9.12976 0.66216
0.89708 -0.05872 0.48358 0 28.98894 -7.72278 0.36000
-0.36306 -0.23768 0.50777 0 24.90144 16.73076 0.47730
-10.12353 -0.05305 14.93461 0 -12.18901 27.41219 1.46813
-13.99406 0.22198 9.17023 0 -1.25924 29.97356 0.65370
9.35235 -0.00613 11.82471 0 -22.60365 -19.72498 1.25723
-0.92910 -0.16181 0.32774 0 -29.93203 -2.01831 0.24021
-0.46276 -0.11584 1.02517 0 22.38391 -19.97400 0.93039
3.88925 -0.16057 3.06192 0 25.92081 15.10337 0.76254
0.76047 -0.13254 0.75482 0 2.65158 -29.88259 0.60084
-6.10438 -0.13379 5.90815 0 -29.79008 -3.54274 0.95517
-3.26238 0.09007 1.76941 0 29.99822 -0.32654 0.51866
1.53409 -0.06618 1.56438 0 -14.93571 26.01777 0.85432
2.42546 -0.18727 0.89206 0 -13.28930 -26.89600 0.34015
0.91713 -0.18474 0.73929 0 7.30419 29.09723 0.54488
1.24871 0.03831 0.93208 0 29.99370 -0.61483 0.58268
-10.06841 0.25209 3.21776 0 29.80622 -3.40428 0.31818
-21.50550 -0.13203 17.11792 0 -27.58929 -11.78265 0.79518
-1.60567 -0.04167 1.50399 0 20.01788 22.34468 0.79513
2.17364 -0.09000 2.71985 0 13.68242 -26.69815 1.13681
5.04559 0.23809 1.35486 0 26.24373 -14.53502 0.26353
0.47234 0.09492 0.44388 0 21.99165 -20.40508 0.40139
-9.38989 0.17151 4.31961 0 21.45278 20.97089 0.45755
-12.71854 -0.04239 3.60870 0 -25.98347 -14.99530 0.28303
10.39364 0.03613 7.66319 0 -10.60568 -28.06278 0.73397
5.45612 0.04615 3.96396 0 -29.94538 -1.80948 0.71477
-19.19546 -0.07868 1.87176 0 29.83337 -3.15756 0.28621
1.67197 -0.21685 1.54077 0 -29.56091 -5.11398 0.79092
1.17954 0.19734 1.03515 0 26.27551 14.47749 0.66945
-0.73089 -0.05354 0.26183 0 22.13708 -20.24721 0.21147
-2.27626 -0.15502 0.59863 0 26.65871 13.75911 0.24090
-4.15534 0.17770 5.44307 0 10.90673 27.94715 1.27360
-3.36544 -0.03268 1.46105 0 -27.28191 12.47789 0.41629
-2.77835 -0.11500 2.37352 0 4.06453 -29.72338 0.80386
0.33952 -0.00444 0.48513 0 -29.57885 -5.00913 0.45938
0.03966 0.18649 0.23501 0 10.47677 -28.11116 0.23483
-0.91816 -0.18159 0.75750 0 17.04288 24.68887 0.55801
1.55871 0.12449 1.82815 0 2.85985 29.86338 0.98721
6.00375 0.24293 6.85445 0 0.90299 29.98641 1.12621
7.05820 0.09865 1.50614 0 26.07648 -14.83298 0.21150
23.22257 -0.21678 5.46566 0 -29.64848 4.57907 0.23535
17.89105 -0.04351 13.74880 0 -26.69603 13.68657 0.76734
3.83662 -0.21543 1.88227 0 25.92669 15.09327 0.47482
9.85273 -0.08105 2.64098 0 29.96651 1.41721 0.26686
-7.87697 -0.03351 4.78892 0 24.73339 16.97821 0.60320
-6.49537 -0.03343 2.80767 0 29.43459 -5.79699 0.42733
-18.18885 0.07859 6.02382 0 6.19684 -29.35301 0.33083
-4.83179 0.17740 0.63278 0 -28.66916 8.83626 0.12832
-4.66942 -0.01011 4.16316 0 3.12499 -29.83680 0.87188
-2.57342 0.25959 0.73611 0 -18.04959 23.96273 0.26683
0.56121 0.24991 1.00535 0 -20.91180 21.51038 0.87673
-0.00727 0.18244 0.28942 0 -23.14438 -19.08763 0.28941
6.23781 -0.07684 2.91707 0 -29.66101 4.49714 0.46185
-11.13631 -0.18604 1.34692 0 28.66056 8.86410 0.23820
1.91087 -0.12178 1.50789 0 -17.83315 -24.12424 0.71984
0.77817 -0.12661 0.55659 0 -28.34544 -9.82527 0.43931
0.59442 0.00879 0.96210 0 -28.38056 9.72336 0.82703
-8.04521 -0.19039 4.02798 0 20.58816 -21.82035 0.49694
-17.34301 -0.13804 8.60005 0 6.03573 -29.38656 0.49516
-17.66112 -0.21803 5.66902 0 12.93565 27.06786 0.32063
-3.45295 -0.00987 0.98304 0 13.71153 -26.68322 0.27366
-4.71174 -0.23703 4.12836 0 -11.37029 -27.76178 0.85716
-1.78327 0.07016 0.59602 0 -25.18785 -16.29638 0.29169
0.27049 0.11471 0.74805 0 -9.48048 -28.46262 0.72210
-0.13160 0.18645 0.55442 0 -23.95853 -18.05516 0.54969
-5.25004 -0.13075 3.11924 0 -20.33346 22.05789 0.58373
2.11636 -0.24499 1.78213 0 -17.33609 24.48387 0.76142
0.47861 0.04638 0.82308 0 29.88832 2.58615 0.74244
0.56434 -0.25379 0.45740 0 -25.88843 15.15880 0.39837
-6.73932 0.11788 3.90881 0 16.06224 -25.33781 0.57380
-3.94988 0.02114 1.86173 0 -25.65291 15.55404 0.45708
-4.33001 0.24941 2.55269 0 2.17797 -29.92084 0.57447
7.25051 0.23664 4.45861 0 26.53561 13.99504 0.60925
3.81362 -0.20909 1.35599 0 29.44146 -5.76200 0.34410
-0.17429 -0.14401 0.91983 0 22.35432 20.00711 0.90617
0.59130 0.22866 0.61696 0 19.66982 -22.65167 0.53109
-9.34495 0.21838 6.35049 0 29.15421 -7.07335 0.67578
16.45538 0.01201 3.66065 0 -26.88219 13.31719 0.22227
-1.59037 -0.24031 1.02253 0 27.32612 12.38076 0.54433
-1.32683 -0.15183 0.76105 0 -20.37232 22.02200 0.45812
19.88128 -0.21976 7.19705 0 -24.74966 16.95448 0.36168
-0.69599 0.00481 0.56976 0 0.10534 29.99981 0.46768
6.62181 0.24883 3.84297 0 -13.84749 -26.61291 0.57393
-4.13346 0.05211 1.01369 0 6.40435 -29.30844 0.23847
-4.28246 0.05394 2.06158 0 20.07520 22.29319 0.46886
0.99569 0.06996 0.37555 0 1.81426 -29.94509 0.26622
6.17317 -0.03902 4.10782 0 11.30914 -27.78675 0.65694
-0.11206 -0.05129 0.49126 0 -1.69373 -29.95215 0.48821
3.58998 -0.16250 1.82303 0 27.71393 11.48643 0.48928
-20.40617 0.00771 4.56890 0 6.16717 -29.35926 0.22385
-3.60879 0.03034 2.65419 0 -28.30245 -9.94842 0.70883
3.46247 0.07377 1.16442 0 2.74060 -29.87456 0.32318
2.35482 0.20696 0.99266 0 -19.20150 -23.05000 0.38811
11.22681 0.16401 3.30866 0 -4.97605 29.58444 0.29371
18.53644 -0.24989 12.56842 0 -29.84281 3.06702 0.69454
-4.44384 0.20421 4.44606 0 24.09717 17.86970 0.97615
-21.64642 -0.06965 12.27667 0 -29.52478 -5.31857 0.56663
13.06940 -0.04891 3.02523 0 21.46926 20.95401 0.23101
0.36684 0.03084 0.36521 0 -23.73811 18.34400 0.34289
-1.05537 -0.08673 0.56282 0 20.47990 -21.92199 0.38720
-0.87241 0.17082 0.60861 0 6.67826 -29.24724 0.45866
0.77484 0.17597 0.57861 0 -26.93348 -13.21317 0.45741
-1.17688 -0.17900 0.43062 0 22.53587 19.80239 0.27895
-16.07484 -0.18989 10.01504 0 -19.31118 22.95818 0.62190
4.32933 0.15118 0.92089 0 -10.81931 27.98111 0.20741
1.19416 -0.15506 0.86919 0 14.70393 -26.14946 0.55809
-3.43332 0.25900 1.56361 0 -14.99481 25.98376 0.43745
-1.47965 0.09071 1.03990 0 -28.63416 8.94900 0.58235
-4.57598 -0.24249 1.41715 0 28.53105 -9.27250 0.30267
9.97005 0.16975 3.81885 0 29.80636 3.40305 0.38125
20.35391 -0.13569 9.48885 0 -26.84029 -13.40145 0.46574
-2.03775 -0.24630 0.62892 0 -29.66694 4.45785 0.27717
1.32138 0.23651 1.17927 0 -16.51799 -25.04308 0.71168
-5.68668 -0.19504 2.85624 0 -19.37327 22.90582 0.49474
-14.36099 -0.17973 6.88286 0 -7.87451 28.94809 0.47822
0.44312 0.05558 0.40091 0 24.61952 -17.14291 0.36656
0.12767 0.19962 0.57094 0 -27.08540 12.89887 0.56634
12.61637 -0.10403 12.52157 0 -0.93572 29.98540 0.98943
2.19295 -0.06890 1.25332 0 7.97473 -28.92064 0.52006
24.61911 -0.22053 17.20882 0 -26.25757 14.51000 0.69850
5.59753 -0.21931 6.48466 0 -9.91056 -28.31573 1.14048
1.46293 -0.15878 0.81301 0 29.92175 -2.16545 0.45887
9.70000 0.18789 4.73401 0 13.48658 26.79761 0.48557
2.05342 -0.17074 0.88592 0 29.82122 -3.27034 0.38799
-5.19771 -0.21126 3.23984 0 5.07963 -29.56683 0.61221
-0.17744 -0.24373 0.88595 0 24.46757 17.35909 0.87233
-0.04646 -0.00774 0.34248 0 29.90265 -2.41484 0.34211
-0.82260 0.03302 0.89878 0 8.83525 -28.66947 0.69414
3.53062 0.22445 2.71755 0 23.52520 18.61625 0.74067
-0.11964 -0.05879 0.79117 0 29.14783 -7.09956 0.78557
1.40354 0.06749 0.37953 0 -20.60647 21.80305 0.22037
27.03660 0.06847 14.21218 0 -5.89427 -29.41526 0.52540
-1.48374 -0.21634 1.13961 0 -29.44215 5.75846 0.63753
0.45354 0.23661 0.98442 0 -24.12621 -17.83047 0.89654
23.31788 -0.02302 14.26399 0 7.38913 -29.07578 0.61124
4.26275 -0.05420 1.12428 0 29.44882 5.72423 0.25699
5.36481 -0.24666 3.42944 0 -8.25277 28.84253 0.62851
5.56651 0.25738 5.16735 0 -11.57520 -27.67697 0.91374
-3.70360 0.02149 2.11087 0 -29.95365 1.66699 0.55038
-21.86010 -0.22322 15.04267 0 -5.70304 -29.45293 0.68749
-3.06590 0.06720 1.42498 0 29.32113 -6.34596 0.44208
4.55326 -0.09735 2.59275 0 -7.85862 -28.95241 0.55624
-3.00258 0.04621 1.53910 0 -21.34359 -21.08201 0.48660
-0.59800 0.17058 0.75932 0 22.85958 -19.42780 0.65171
-0.26562 0.22396 0.52978 0 1.99512 29.93358 0.51204
12.24755 -0.08277 8.40724 0 13.63531 -26.72224 0.68424
22.24255 -0.25553 15.22248 0 26.63416 13.80657 0.68377
-0.94174 -0.12764 0.79462 0 3.24677 -29.82379 0.57853
2.26510 0.15240 1.71721 0 -28.81893 8.33482 0.69360
4.44393 -0.13498 7.51549 0 28.45824 9.49359 1.64995
2.28097 0.07494 1.41550 0 20.47563 21.92598 0.56844
2.47223 0.06604 1.45118 0 -19.69142 22.63290 0.54428
1.05613 -0.08912 0.76372 0 6.81282 -29.21619 0.52513
-9.98020 -0.14100 2.23479 0 10.08550 -28.25390 0.23793
9.00559 0.07803 17.05740 0 -10.75193 -28.00707 1.88255
-0.48737 0.22612 0.65096 0 -13.62398 -26.72802 0.58518
0.06892 -0.18858 1.12675 0 15.29537 -25.80798 1.12409
3.60229 0.05645 2.10691 0 10.85322 27.96797 0.56365
0.23015 -0.21976 0.42453 0 26.20954 14.59658 0.41372
-5.44870 0.23469 0.92169 0 20.47069 -21.93059 0.16642
-1.07819 0.03523 0.83048 0 -24.70092 17.02541 0.56478
0.79430 -0.06728 0.61942 0 0.81514 -29.98892 0.49169
-18.56455 0.01171 7.30709 0 25.01377 -16.56234 0.39316
22.78887 0.04721 16.63153 0 12.89133 -27.08899 0.72917
-4.71376 -0.20536 1.42967 0 -22.89897 19.38136 0.29679
19.55149 0.02113 14.04204 0 -24.45299 -17.37963 0.71734
-0.64436 -0.22760 0.57427 0 -27.53436 11.91047 0.48277
1.47235 -0.21358 1.03260 0 -27.71963 11.47268 0.58023
-27.25208 0.04741 18.51660 0 3.12651 29.83664 0.67907
-3.77068 0.15325 1.11143 0 11.74979 -27.60331 0.28501
1.76632 0.19129 0.68565 0 27.10965 -12.84785 0.33791
12.81455 0.05864 7.93266 0 -20.29729 -22.09117 0.61724
1.99106 0.08968 1.08215 0 -0.34358 29.99803 0.48577
19.84683 0.14336 10.43871 0 -13.77537 26.65031 0.52539
2.82694 -0.07791 1.86395 0 26.87986 -13.32190 0.62167
4.71696 0.11585 5.90308 0 26.57993 -13.91069 1.22429
-0.68061 -0.21881 0.84648 0 29.62348 -4.73810 0.69980
-2.20326 0.04893 1.69656 0 -23.21893 18.99688 0.70122
-7.94566 0.09855 6.35253 0 -0.43251 -29.99688 0.79330
-1.22405 -0.21951 1.36095 0 21.72473 -20.68903 0.86107
4.68661 -0.02627 1.00284 0 -7.63576 29.01198 0.20946
19.56675 0.22420 10.92427 0 -10.87728 -27.95862 0.55767
-3.70487 -0.21128 1.11635 0 -28.58394 9.10816 0.30521
1.64844 0.11911 1.07361 0 13.78255 26.64660 0.55690
6.72876 -0.21626 1.38613 0 -23.17633 19.04883 0.20400
0.02769 0.17666 1.29957 0 -9.16879 28.56455 1.29907
11.95901 -0.02787 5.70718 0 24.31695 -17.56946 0.47567
-17.09967 0.18948 14.97969 0 3.06345 -29.84318 0.87459
-1.47554 0.23479 0.37069 0 -28.33462 9.85645 0.20808
-3.06001 -0.17241 0.72196 0 29.67854 4.38002 0.22447
0.69664 0.06199 0.66857 0 25.63452 15.58433 0.54860
-0.72263 -0.05183 0.76849 0 1.96126 -29.93582 0.62290
0.83159 -0.00698 2.22481 0 -26.74604 -13.58857 1.71062
-1.61421 -0.08623 1.88283 0 0.51459 -29.99559 0.99159
-2.49483 -0.09437 4.26061 0 22.77676 -19.52484 1.58522
-23.29533 0.15154 36.10757 0 -29.44681 5.73459 1.54860
0.70186 0.09607 0.59712 0 -14.06305 -26.49964 0.48877
3.46475 0.22366 1.38239 0 -2.35124 -29.90772 0.38347
13.55853 -0.11949 10.42335 0 -28.91039 -8.01184 0.76675
-1.31426 0.03954 1.49433 0 -16.04295 -25.35002 0.90489
-6.90966 -0.14621 3.40155 0 -23.59715 -18.52497 0.48731
8.12880 0.26244 3.86867 0 -29.82294 3.25460 0.47246
14.37479 -0.15043 9.17245 0 25.99920 -14.96803 0.63663
-1.96873 -0.10760 0.85061 0 -13.95100 -26.55879 0.38531
-3.00240 0.03097 1.30514 0 7.87979 -28.94666 0.41251
-1.27927 -0.25289 1.32458 0 -24.37478 -17.48914 0.81579
-3.46427 0.11905 2.06432 0 -9.78992 -28.35767 0.57258
0.87369 -0.17827 0.60841 0 15.40660 25.74173 0.45821
1.58863 0.06444 3.50966 0 21.04287 21.38218 1.86968
1.48265 -0.16427 2.02842 0 15.92778 25.42255 1.13426
0.43723 -0.13707 2.00462 0 29.97773 -1.15562 1.83673
-8.62786 -0.04776 5.42749 0 -9.30398 -28.52080 0.62496
-5.02404 -0.00108 4.48190 0 -1.78907 29.94661 0.87499
0.98075 -0.17498 1.61861 0 8.68618 28.71498 1.12500
2.30741 0.20331 4.18146 0 21.62380 -20.79450 1.66277
-0.32168 -0.09623 0.82645 0 29.98780 -0.85536 0.78676
-1.36448 -0.00828 2.10869 0 28.85085 8.22364 1.24653
-18.94876 0.08427 6.24480 0 -24.53645 -17.26160 0.32925
-3.75969 -0.13182 6.17374 0 -27.01483 13.04603 1.58692
-5.15826 -0.15421 2.82835 0 -28.71288 8.69313 0.53835
0.75203 -0.04242 0.37169 0 -1.55263 -29.95979 0.29710
0.92631 0.00683 0.72823 0 -24.18063 17.75661 0.53429
0.49290 0.00170 0.52600 0 20.48972 -21.91282 0.47182
2.46421 -0.22015 1.75576 0 29.84211 -3.07385 0.66027
-17.45649 -0.16667 7.32143 0 1.95056 -29.93652 0.41884
-5.86358 -0.01274 2.32089 0 21.35879 21.06661 0.39024
12.63176 -0.11103 7.03910 0 -21.21099 21.21541 0.55560
0.97963 0.08623 0.68098 0 -1.46943 -29.96399 0.48650
2.29136 0.05897 0.78383 0 5.82372 -29.42931 0.31364
8.16023 -0.01542 5.17940 0 0.96349 29.98452 0.63008
0.67162 0.26072 0.55600 0 28.62473 -8.97913 0.46159
-0.61128 -0.22963 0.30313 0 25.12980 16.38577 0.26845
-0.67378 0.07662 0.72646 0 29.68908 -4.30797 0.60249
-4.27856 -0.11709 3.91991 0 -29.06216 -7.44250 0.89218
4.03938 0.00774 2.16040 0 -14.40991 -26.31263 0.51925
1.83116 0.04916 0.97987 0 29.94155 1.87185 0.46971
0.09787 -0.12386 0.90311 0 3.83447 -29.75394 0.89881
0.38614 0.15387 0.61864 0 -23.18341 19.04021 0.57712
-7.43093 0.08835 4.67963 0 16.21127 25.24272 0.62420
22.54438 0.15749 9.09523 0 21.23780 -21.18858 0.40316
-0.60550 -0.14341 0.31427 0 29.94138 -1.87455 0.26888
-0.24454 -0.05338 0.72266 0 -29.58018 -5.00131 0.70198
-0.21813 0.10534 0.45931 0 -26.72628 13.62740 0.44876
1.24329 -0.20399 0.87530 0 25.06484 -16.48495 0.54864
1.36084 -0.16067 1.17453 0 -9.27105 28.53152 0.69555
3.44108 -0.15601 1.60062 0 24.80955 16.86671 0.44672
8.40610 -0.19071 1.81362 0 5.23793 29.53920 0.21446
-4.60312 0.19448 3.68069 0 -29.93986 1.89866 0.78159
3.05304 0.25970 3.80230 0 -28.60463 -9.04296 1.18364
1.08308 -0.19006 1.56508 0 1.03633 -29.98210 1.06172
3.42496 0.18176 1.65294 0 22.63808 19.68546 0.46338
3.41335 0.23916 2.40345 0 27.29222 12.45531 0.67578
-2.86111 0.25399 1.23251 0 2.85863 -29.86349 0.40675
13.37682 0.17289 7.24089 0 -13.88707 26.59228 0.53988
-11.92452 0.06450 4.47432 0 -29.34315 -6.24335 0.37404
6.51413 -0.22467 3.61083 0 -24.83954 16.82252 0.54798
-13.50311 0.25371 14.53454 0 -10.97312 27.92115 1.07349
8.48572 0.16137 2.18624 0 4.07941 29.72135 0.25605
-0.13726 0.20291 0.83890 0 27.27207 12.49937 0.83111
1.31244 0.01822 0.74096 0 29.87596 -2.72527 0.44914
-11.72929 -0.17794 8.51429 0 14.61515 -26.19919 0.72334
-1.83569 0.21970 1.53061 0 -16.74844 -24.88955 0.73225
2.99764 -0.01119 2.64247 0 -12.14980 -27.42959 0.83627
-0.52520 -0.18359 1.09970 0 -10.22104 28.20515 0.97360
-0.60490 0.06067 0.24242 0 27.16247 12.73580 0.20747
2.98196 0.18184 1.09792 0 -5.57513 29.47742 0.39716
-2.51430 0.19428 1.14384 0 28.68325 -8.79039 0.42290
0.79005 0.26224 0.66218 0 23.02553 -19.23084 0.51961
5.82939 -0.25359 3.43273 0 24.25442 17.65569 0.58049
-1.90218 -0.05402 0.72162 0 -24.90989 -16.71818 0.33591
-7.86388 0.23717 5.91241 0 26.99128 -13.09468 0.74590
-0.46387 0.25682 0.55475 0 12.47469 27.28337 0.50326
4.69818 -0.20289 1.69835 0 28.66317 8.85567 0.35363
6.18121 -0.15030 4.36517 0 -7.27069 29.10562 0.69720
-3.32976 0.08185 1.33618 0 6.72312 29.23696 0.38443
-1.51459 -0.17770 0.66830 0 -19.12883 -23.11034 0.36834
0.41815 0.15914 0.69498 0 24.30193 -17.59023 0.64120
-10.45528 0.01936 2.89184 0 29.96705 1.40557 0.27551
2.75312 0.00843 1.92909 0 14.25560 26.39655 0.65865
8.04311 -0.07368 3.50391 0 -26.18450 -14.64144 0.43242
-1.37101 -0.15118 0.81810 0 -10.52515 28.09308 0.48216
0.09647 0.18049 0.29107 0 21.12420 21.30183 0.28972
-2.83793 0.01294 1.13405 0 10.64412 28.04822 0.37708
-0.69133 0.01655 0.61564 0 -5.05940 29.57030 0.50643
-0.39743 -0.05824 0.63127 0 28.77903 -8.47156 0.58664
14.45600 0.03840 7.52710 0 -2.52198 29.89381 0.51954
5.94023 0.09352 2.79679 0 29.91461 -2.26186 0.46435
-2.74721 -0.21359 0.85618 0 -18.67879 -23.47558 0.29300
-2.33475 -0.19081 0.54543 0 17.49431 24.37107 0.21480
11.47597 -0.23110 9.34620 0 -7.59579 -29.02247 0.81140
-0.54130 -0.02979 1.07170 0 -26.22828 -14.56287 0.94672
0.23964 -0.04380 0.47467 0 -12.64719 -27.20383 0.46160
-24.27354 -0.10523 13.26071 0 -7.71973 28.98975 0.54593
-1.46195 -0.13806 0.92713 0 6.08679 -29.37603 0.52348
3.91019 0.21133 2.77963 0 28.62354 -8.98294 0.68877
-17.72958 -0.15838 5.36686 0 22.84717 -19.44240 0.30239
-3.82165 -0.01263 0.97271 0 26.09737 14.79619 0.24634
1.05753 -0.24893 0.42286 0 28.35183 9.80683 0.29060
0.34802 0.13952 0.41731 0 29.12244 -7.20301 0.39329
25.73863 0.08213 14.93581 0 -23.64735 -18.46084 0.57993
6.16767 0.24328 2.29316 0 25.99703 14.97178 0.36714
-5.11620 0.10250 3.16944 0 -28.83711 8.27171 0.60807
-16.95175 -0.00487 13.60298 0 25.10187 16.42851 0.80112
0.91584 -0.22606 0.50624 0 -7.04039 -29.16218 0.37341
-0.68361 -0.22518 0.50783 0 -9.79135 28.35718 0.41929
-22.88541 0.22782 18.14831 0 28.36410 -9.77127 0.79232
5.35497 0.01913 1.10495 0 0.11678 29.99977 0.20301
1.14291 0.07148 0.54463 0 -4.82250 -29.60986 0.35874
-0.01591 -0.15697 0.24609 0 -19.20024 23.05105 0.24606
-2.85913 -0.12558 3.71773 0 -29.03519 7.54704 1.22746
10.62656 -0.06718 7.92401 0 -2.92227 29.85733 0.74247
17.28885 -0.06188 11.18408 0 -1.01233 -29.98292 0.64589
-1.31858 0.14424 1.28983 0 26.83595 13.41015 0.77944
2.55411 -0.20191 1.07319 0 -24.53571 -17.26265 0.39133
-1.62101 0.03266 0.88430 0 27.55652 11.85910 0.46437
3.43823 -0.03723 2.53097 0 -27.36964 12.28426 0.70691
1.29682 0.18111 0.98952 0 29.20319 6.86832 0.60431
-7.16545 -0.03905 1.99438 0 -7.47853 -29.05291 0.27584
1.66655 -0.11052 0.84459 0 4.79084 29.61499 0.43465
-5.49155 -0.17129 2.16450 0 -29.32619 6.32257 0.38785
10.17639 -0.05727 2.21947 0 -22.58092 -19.75100 0.21728
-27.22958 -0.10854 15.30366 0 -16.56738 -25.01044 0.56173
1.67658 -0.24705 1.25240 0 -29.11939 7.21534 0.64161
0.51655 -0.20885 0.98881 0 29.29593 -6.46133 0.87854
-0.66416 0.18007 0.37255 0 18.48374 -23.62946 0.30212
24.70817 0.08626 6.32129 0 8.64738 -28.72669 0.25582
19.52135 -0.21203 8.45067 0 20.65218 21.75977 0.43244
6.70822 0.26012 2.60516 0 -29.96160 -1.51750 0.38423
-1.45191 0.17674 0.29697 0 -27.30111 12.43581 0.16858
23.51318 0.10596 7.25216 0 -6.68568 29.24554 0.30831
15.30447 0.03542 6.36424 0 23.79461 -18.27065 0.41507
-0.72048 -0.07003 0.50577 0 0.25725 -29.99890 0.41040
2.66370 -0.13137 1.45880 0 29.85293 2.96696 0.51279
20.13050 0.12548 7.59587 0 10.47286 28.11262 0.37700
-0.59504 0.06623 0.47598 0 12.09338 -27.45451 0.40909
-0.49356 -0.21077 0.24566 0 29.37504 -6.09154 0.22034
0.56397 -0.08353 0.85259 0 29.99022 0.76595 0.74264
4.22959 0.24778 3.84675 0 -22.78416 -19.51620 0.88511
13.79131 0.00482 1.03306 0 27.83788 -11.18269 0.21444
-13.06611 0.08930 10.01259 0 -10.38295 28.14595 0.76413
7.98505 -0.10376 3.34145 0 -22.21220 20.16477 0.41533
20.68067 -0.18426 9.50335 0 17.15949 24.60796 0.45910
-7.95563 -0.20125 4.25498 0 -29.92838 2.07170 0.53075
-10.48926 -0.15408 8.45150 0 -19.68194 -22.64114 0.80215
0.83719 0.07766 0.37107 0 29.46111 -5.66066 0.28459
0.10552 0.20851 0.76535 0 26.25478 14.51504 0.76113
-1.35560 -0.06300 1.34418 0 -28.58224 -9.11350 0.79801
-1.86383 0.01067 0.83320 0 -12.25757 27.38160 0.39402
-0.34815 -0.11878 0.82580 0 -1.57360 29.95870 0.77989
20.02247 -0.06405 20.79760 0 23.53082 -18.60915 1.03747
-12.87340 -0.17695 3.62960 0 -29.10084 -7.28981 0.28127
-14.47303 0.15565 12.34589 0 9.50401 28.45477 0.85106
