-6.72324 0.08365 2.88024 0 -5.47814 -29.49559 0.42385
-2.80294 0.21870 2.61419 0 22.09814 20.28971 0.87847
-1.07484 0.25738 1.33063 0 16.24437 25.22143 0.90640
0.51917 0.18476 0.35054 0 -8.38741 -28.80367 0.31114
-2.26438 -0.11833 0.49876 0 29.65072 -4.56454 0.20158
-0.09231 -0.01819 0.29033 0 -29.71688 4.11185 0.28911
0.36231 0.01502 0.55785 0 -15.77588 -25.51709 0.52449
-1.56626 0.23483 1.07548 0 -29.93385 1.99119 0.57883
0.74798 -0.07557 1.27311 0 15.54066 25.66102 1.01949
10.00726 0.04070 8.81260 0 27.18157 12.69497 0.87631
2.55420 -0.02921 0.82793 0 -6.15908 -29.36096 0.35407
13.25016 0.20820 4.31741 0 -27.58404 -11.79495 0.32506
27.21407 0.01427 12.58532 0 -22.45519 -19.89383 0.46225
1.76871 -0.16911 1.40129 0 -1.11668 29.97921 0.68971
-0.65193 0.08072 1.13684 0 -20.30718 -22.08208 0.95235
-4.97423 0.13394 1.25714 0 -28.67111 -8.82992 0.24785
1.15547 -0.10802 0.90248 0 26.90978 13.26137 0.59063
23.40264 0.16470 14.76189 0 -21.07254 21.35294 0.63028
2.37528 -0.21704 0.50770 0 -5.95082 -29.40387 0.19719
2.19593 -0.24273 1.55719 0 -13.01817 -27.02827 0.64549
0.50292 -0.02506 0.77839 0 29.94186 -1.86678 0.69542
-16.42026 -0.00362 4.55678 0 -28.42843 -9.58250 0.31485
1.45473 0.09190 1.18952 0 29.09270 7.32222 0.67388
9.63143 -0.13142 3.52582 0 -19.38335 22.89729 0.36425
2.40747 -0.05345 0.63983 0 25.25319 -16.19494 0.24567
2.93628 0.05558 0.95443 0 29.32881 6.31039 0.30784
-7.22821 0.07214 4.63032 0 17.96952 24.02283 0.63462
0.84037 0.19546 0.50975 0 8.06325 28.89609 0.39029
-0.54369 -0.05347 0.29956 0 17.89571 -24.07786 0.26321
1.02729 0.13556 0.35726 0 23.08332 19.16142 0.24932
-18.58766 0.17326 7.57437 0 4.21450 -29.70249 0.40703
-22.63251 0.15635 7.00466 0 -18.13762 23.89616 0.34287
-1.90701 -0.06917 1.12195 0 -25.40944 -15.94867 0.52111
24.03421 -0.20804 8.94665 0 28.13715 -10.40676 0.37206
14.84364 0.05864 6.50050 0 26.48839 -14.08422 0.43705
4.46776 0.03796 2.70697 0 23.77640 18.29434 0.59141
15.22210 0.17967 13.53116 0 -20.51976 -21.88469 0.88706
0.28199 0.02661 0.61548 0 27.93141 10.94697 0.59239
7.16631 0.13819 2.28716 0 -21.58542 20.83434 0.31624
1.04976 0.17843 0.39459 0 29.32127 -6.34533 0.27224
-1.39789 -0.23854 0.35344 0 -29.68718 -4.32107 0.20578
-0.92729 0.17765 0.97507 0 2.99604 -29.85002 0.71501
16.25076 0.25852 13.39387 0 29.68362 -4.34542 0.82270
2.17614 -0.05345 1.06193 0 -9.46895 28.46645 0.44348
2.95462 -0.16214 2.38726 0 -19.50434 22.79432 0.76539
2.29817 0.26149 1.51046 0 28.06510 -10.59952 0.60272
1.70552 -0.21347 0.75230 0 5.31283 -29.52582 0.38061
-3.24816 -0.25441 1.50297 0 -29.94472 1.82044 0.44242
4.17224 0.17019 2.29193 0 -23.02822 19.22762 0.53428
0.09012 -0.12375 1.25647 0 3.68876 -29.77235 1.25140
-2.19128 -0.20498 1.54952 0 -29.98504 -0.94730 0.64339
4.63533 0.13430 1.64947 0 -0.89200 29.98674 0.34793
-2.00442 -0.21351 1.17961 0 20.49846 21.90463 0.52667
3.70151 0.12426 1.56625 0 3.46104 -29.79968 0.40860
-0.72681 -0.04256 1.00644 0 13.43586 -26.82308 0.81415
-25.20724 0.16336 7.65327 0 -24.75332 -16.94913 0.30354
-0.10041 0.24702 0.32531 0 0.71134 29.99157 0.32368
1.31437 0.09896 0.35822 0 -16.48002 25.06809 0.21703
-0.91863 0.06244 0.61205 0 -7.61789 -29.01668 0.45079
-24.74240 0.12945 12.16673 0 -6.02828 -29.38809 0.49143
-1.47398 0.14272 0.54046 0 -29.11951 -7.21486 0.45885
0.82097 0.09019 0.37826 0 29.95948 1.55875 0.29240
-0.26869 -0.04176 0.75179 0 20.84389 -21.57620 0.72604
-0.17943 -0.22087 0.70795 0 -18.15277 23.88466 0.69682
1.98988 0.12562 1.13290 0 -9.52024 28.44934 0.50877
2.65112 0.04635 2.84493 0 -27.74558 -11.40976 1.00412
4.28337 -0.23338 5.89212 0 29.60354 4.86113 1.33959
9.96923 -0.15150 11.83542 0 -29.05452 -7.47229 1.18131
1.48022 0.06392 0.98668 0 -5.87603 -29.41891 0.55240
12.94631 -0.06326 5.14683 0 24.36593 -17.50147 0.39649
-15.97460 0.19332 6.72585 0 -14.56885 26.22496 0.42033
-1.36137 0.07475 0.88044 0 15.28788 25.81241 0.52129
2.52264 0.05559 2.01490 0 5.02420 29.57630 0.74269
-3.08265 0.06536 1.05882 0 7.24805 29.11127 0.32699
-5.33451 0.23795 1.81644 0 9.77821 -28.36171 0.33482
-0.36123 0.16766 0.38307 0 -29.83206 -3.16993 0.36030
-1.28435 0.12811 0.36342 0 -17.48756 24.37591 0.22341
4.72624 -0.05305 3.87723 0 -9.99716 28.28528 0.80272
2.97444 -0.06937 0.76912 0 23.83706 -18.21523 0.24528
-7.10383 0.01068 5.14418 0 -21.01350 21.41105 0.71714
-20.63053 0.19067 21.64787 0 -16.39403 25.12441 1.04813
9.87710 -0.14838 2.53274 0 28.31689 9.90726 0.26019
-1.84978 0.11355 1.82010 0 -0.89871 -29.98654 0.86562
23.65337 -0.19857 40.87439 0 29.43714 -5.78403 1.72654
-2.59924 -0.00187 2.12978 0 24.37746 17.48540 0.76481
-0.31210 0.26232 0.34851 0 -12.70050 27.17899 0.33270
-4.44544 0.12171 1.67893 0 -24.07474 17.89991 0.36857
-2.31847 0.12643 1.49328 0 -23.03055 19.22482 0.59148
26.82489 0.11669 19.47327 0 -20.02435 22.33888 0.72550
-0.92999 0.13802 0.78225 0 -17.32661 -24.49058 0.57287
-0.16511 0.14360 0.42680 0 26.74496 13.59070 0.42110
0.35546 -0.08877 0.41946 0 -11.20410 27.82927 0.39525
-19.11590 0.18123 13.37330 0 -29.99219 -0.68472 0.69871
-6.60452 0.05139 3.81412 0 20.99872 21.42554 0.57108
-8.17920 -0.15209 3.44371 0 -17.53108 24.34463 0.41804
-2.74807 0.16464 1.42472 0 -24.58114 17.19790 0.48724
-8.65523 -0.15102 6.64458 0 -24.89739 -16.73679 0.76269
16.05288 -0.17850 9.20373 0 -13.32000 -26.88080 0.57231
-0.46261 -0.05538 0.33036 0 25.85077 15.22294 0.29986
2.35116 0.17571 0.55176 0 -21.18383 21.24254 0.21612
-5.87296 -0.12541 4.26852 0 -19.00488 -23.21238 0.71658
-18.10835 -0.05483 5.36489 0 -22.29402 -20.07428 0.29598
14.57549 -0.22739 5.43065 0 -19.12276 23.11537 0.37184
1.53008 -0.06396 0.70609 0 2.06802 -29.92864 0.38637
-0.51602 -0.06786 0.42279 0 21.61128 -20.80752 0.37575
-1.87303 -0.12816 1.73673 0 -26.04765 -14.88355 0.81801
18.79714 -0.05999 13.40211 0 -1.01447 29.98284 0.71205
5.48355 0.16548 2.10289 0 -24.66528 17.07700 0.37744
3.13275 -0.13256 3.83938 0 -28.74061 -8.60102 1.16762
-1.68234 -0.24737 0.46116 0 -0.61051 29.99379 0.25615
0.65513 0.01492 0.43243 0 7.27450 29.10467 0.36177
15.18078 0.08386 3.05390 0 -28.61807 9.00035 0.20098
0.51441 -0.02045 0.72832 0 23.12727 19.10836 0.64767
0.67933 0.21308 0.34189 0 29.18070 6.96323 0.28286
5.33379 0.22386 1.41207 0 -1.08715 -29.98030 0.26041
1.52110 -0.14343 1.62407 0 -29.99420 0.59007 0.89221
-1.59536 0.02081 1.07138 0 -29.99702 -0.42294 0.56907
-5.51761 0.08805 1.76722 0 7.98820 28.91693 0.31525
-5.90480 0.01711 5.92595 0 29.51222 5.38782 0.98952
-18.66480 0.03179 43.64272 0 -5.45746 29.49943 2.33491
3.21057 0.03322 1.42792 0 -23.77952 18.29028 0.42471
-4.09013 0.07412 1.54543 0 -14.05308 26.50492 0.36714
12.82940 0.20718 10.24828 0 -4.22472 29.70104 0.79646
-22.83560 0.10605 6.72390 0 24.89380 16.74212 0.29433
-7.77782 0.01270 2.26775 0 26.73711 13.60613 0.28935
-1.46373 0.19224 0.80385 0 -26.33235 -14.37385 0.45353
24.57896 0.19879 5.80280 0 25.91537 15.11270 0.23610
0.41227 0.13192 0.75908 0 29.50178 -5.44471 0.70179
-5.43747 0.22331 8.36430 0 -29.96358 1.47789 1.51300
-17.56983 0.24942 20.88969 0 27.30131 12.43537 1.18707
-3.23026 -0.22842 1.07941 0 29.90796 -2.34823 0.31929
-3.36099 -0.14889 1.17736 0 12.95848 27.05694 0.33596
1.09996 -0.25046 0.91836 0 -19.40132 -22.88206 0.61781
-20.72556 0.09332 19.42024 0 -15.55053 -25.65504 0.93598
-1.79867 -0.06509 0.66716 0 -22.62765 19.69745 0.32426
6.33768 -0.07164 5.14862 0 26.42756 -14.19804 0.80251
1.31441 0.02282 1.08488 0 25.23040 -16.23043 0.65692
-14.37989 0.11468 5.33875 0 28.43014 -9.57743 0.37050
-0.14932 0.22035 0.53118 0 7.02894 29.16495 0.52536
3.62713 0.24943 1.14864 0 -26.39545 14.25764 0.30540
-0.09838 -0.22264 0.66028 0 29.71713 -4.11000 0.65711
-1.48122 0.05850 0.95955 0 21.66525 -20.75131 0.53697
1.48462 -0.24022 0.95465 0 -0.55345 -29.99489 0.53338
-12.11214 -0.05670 8.18350 0 -25.07146 16.47488 0.67343
-5.02832 -0.21761 2.97289 0 18.47159 -23.63896 0.58005
-0.37782 0.21064 0.38488 0 29.99599 0.49036 0.36006
1.68693 0.13953 1.48405 0 -29.19602 6.89871 0.75682
-0.09959 0.04807 0.31870 0 13.54562 26.76782 0.31713
-10.81814 -0.00773 6.28714 0 4.30393 29.68966 0.57878
-0.23945 0.04156 0.67984 0 -27.09162 12.88582 0.66116
4.33601 -0.02068 2.42799 0 -8.00203 -28.91310 0.54576
9.75764 -0.24601 2.46205 0 1.68664 29.95255 0.25120
-2.59637 -0.16235 1.23394 0 22.16438 -20.21733 0.44360
0.38169 -0.25915 0.98703 0 14.97654 25.99430 0.92215
-0.62392 0.12394 0.98269 0 29.99909 0.23312 0.83374
0.56339 0.17724 0.38496 0 15.48789 -25.69291 0.33542
6.55169 -0.26011 4.97279 0 17.98246 24.01314 0.75038
-1.18797 0.02801 0.37192 0 -20.67569 21.73743 0.23961
-14.56046 0.19937 5.95864 0 -23.64585 18.46277 0.40839
25.06409 -0.21371 17.84525 0 20.84558 -21.57456 0.71149
3.62965 -0.19244 5.88460 0 3.23980 -29.82455 1.56312
9.44092 0.22177 3.73214 0 1.38352 29.96808 0.39324
-3.39544 -0.25154 0.85682 0 24.66875 -17.07199 0.24226
0.05543 0.17086 0.62295 0 -15.55397 -25.65295 0.62200
3.38458 -0.04840 1.15865 0 -11.02161 27.90205 0.32839
-4.86453 -0.00191 5.07660 0 5.04840 29.57218 1.02226
2.65744 -0.09551 0.82735 0 -21.37564 21.04951 0.29150
9.15435 -0.12159 2.24660 0 -15.21837 -25.85345 0.24416
-8.08383 0.19132 2.50610 0 -29.79443 3.50599 0.30783
15.60944 0.07126 9.49485 0 19.66106 22.65927 0.60711
-0.27410 -0.02685 0.33845 0 28.06044 10.61185 0.32642
6.39160 0.10265 2.30503 0 2.05568 29.92949 0.35643
23.67195 -0.01214 9.77902 0 5.54206 -29.48365 0.41286
-1.09000 0.16850 1.35455 0 1.91454 -29.93885 0.91574
0.70455 -0.07486 0.44606 0 -25.38114 -15.99367 0.36470
-0.27544 -0.03599 0.64153 0 18.99597 -23.21967 0.61850
9.48166 -0.15219 2.05487 0 -17.89711 24.07682 0.21575
1.43292 0.02817 0.78613 0 6.68948 29.24467 0.44997
-0.46111 0.04757 0.57839 0 -17.72598 24.20309 0.52526
3.04483 0.03462 2.44636 0 -8.62884 28.73227 0.76350
2.36043 0.22327 1.00731 0 29.81543 -3.32269 0.39312
4.55254 -0.02863 2.69173 0 -10.55586 -28.08156 0.57761
-0.31355 0.01315 0.92855 0 -29.90468 2.38960 0.88602
-1.99308 -0.19349 0.82694 0 -16.04529 -25.34855 0.37099
-3.04830 0.09036 2.05859 0 -29.99833 -0.31617 0.64177
-22.31389 0.21484 6.50481 0 29.60827 4.83222 0.29139
1.80551 -0.17698 0.41570 0 18.59986 -23.53816 0.20154
0.65692 0.14503 0.50048 0 6.33200 29.32415 0.41832
18.56249 -0.00139 12.70821 0 28.02856 10.69578 0.68370
14.17774 0.24612 10.95259 0 -6.96036 -29.18139 0.77067
-19.78671 -0.19729 12.11636 0 29.98118 -1.06255 0.61165
-0.42694 -0.23203 0.55859 0 -29.87865 -2.69564 0.51375
0.11313 0.03638 0.24637 0 2.40038 29.90382 0.24481
0.41331 0.08942 0.28783 0 25.94697 15.05838 0.26604
-21.96749 0.20995 15.64352 0 4.89357 29.59819 0.71145
0.20044 -0.11676 0.96407 0 -8.67376 -28.71874 0.94527
-0.26694 -0.19775 0.40030 0 24.35768 17.51296 0.38677
1.49466 -0.24602 0.72912 0 -5.76803 29.44028 0.40551
1.20960 -0.23045 0.47926 0 29.97177 -1.30106 0.30547
2.77213 0.06159 0.55126 0 16.43043 25.10062 0.18719
1.96288 -0.08753 1.19777 0 -12.37386 -27.32925 0.54379
16.86690 -0.15161 11.80704 0 2.55849 29.89070 0.69885
-2.50660 -0.16285 2.59843 0 18.85192 -23.33678 0.96290
5.59103 -0.24189 5.50969 0 -21.81516 20.59366 0.97011
21.58287 0.22863 5.79817 0 -12.80981 27.12764 0.26854
-0.96905 -0.10428 0.41573 0 -10.05521 -28.26469 0.29863
7.07648 -0.25105 4.23276 0 23.35703 -18.82683 0.59234
-1.36847 0.07596 0.51706 0 28.64772 -8.90553 0.30515
-4.31764 0.08709 1.73570 0 23.54640 18.58944 0.39181
-6.97024 0.26183 3.94770 0 -29.98178 -1.04537 0.56071
0.68432 0.10314 0.48731 0 -14.91112 26.03187 0.40219
3.60076 -0.18130 1.72843 0 -22.68578 19.63047 0.46261
4.90800 -0.03057 1.45500 0 -20.78719 -21.63083 0.29064
4.28033 0.22910 2.05304 0 17.91712 24.06194 0.46711
14.62453 -0.14993 7.30115 0 9.54952 -28.43953 0.49817
0.44363 0.14891 0.50911 0 12.73835 -27.16127 0.46539
-16.86835 0.05356 10.42101 0 -27.61093 -11.73187 0.61678
-1.02288 -0.14277 0.45599 0 15.23365 -25.84446 0.31884
-0.76694 0.25145 0.76409 0 17.80495 -24.14506 0.60634
-3.46761 -0.22662 2.16841 0 21.19262 21.23377 0.60095
0.34413 0.03267 0.51200 0 -16.63342 24.96656 0.48414
-24.39089 -0.12286 6.66293 0 8.09128 28.88825 0.27312
5.30729 0.13307 2.13802 0 21.09202 21.33370 0.39595
-5.49890 0.24526 2.21228 0 29.35075 6.20752 0.39598
-0.77990 0.22519 0.34036 0 -17.11473 -24.63911 0.26845
0.13745 0.03173 0.63453 0 7.84660 -28.95567 0.62862
-1.84198 0.24286 0.67354 0 -11.54247 27.69064 0.32149
-2.09529 -0.03952 1.06400 0 -2.76122 -29.87266 0.45841
-8.32330 0.22943 3.92585 0 -24.83309 16.83205 0.48283
-9.28072 0.14826 6.77050 0 15.23604 -25.84305 0.72539
26.22954 0.15021 13.30870 0 27.92987 10.95090 0.50712
3.85492 0.10502 2.14828 0 -10.15653 -28.22844 0.53949
-9.78536 -0.06485 15.14530 0 19.55097 22.75433 1.53976
1.19485 -0.19739 0.73519 0 -5.62317 -29.46829 0.47191
-0.62352 0.21626 0.48740 0 -14.18856 -26.43264 0.41362
-0.72909 -0.11553 0.36204 0 24.44554 17.39010 0.29260
0.46263 0.09275 0.92921 0 28.87523 -8.13762 0.84334
6.87020 0.03004 1.71187 0 21.21530 -21.21111 0.30101
-1.50504 0.11739 1.70765 0 -6.40306 29.30872 0.94507
-23.98158 0.18599 11.33331 0 16.29124 -25.19118 0.47228
-3.47990 -0.11173 1.22759 0 -12.27836 27.37229 0.33914
1.55072 0.07465 0.61975 0 18.18864 23.85735 0.33599
6.08855 -0.17563 3.09383 0 11.12327 -27.86167 0.50152
-14.69375 -0.21166 2.98327 0 -15.83944 -25.47768 0.20280
23.96595 0.11412 9.54029 0 -9.92824 28.30954 0.39785
12.89481 -0.14048 9.23732 0 1.72067 -29.95061 0.71428
-0.70440 0.18355 0.84851 0 12.73796 -27.16145 0.69372
-2.86990 -0.18775 1.08928 0 -9.28693 -28.52635 0.35848
7.72953 0.16872 8.87273 0 29.48595 5.52980 1.13846
6.16227 -0.09022 5.27946 0 -29.71840 4.10081 0.84573
-1.28937 -0.14695 1.19172 0 -22.45053 19.89909 0.73041
2.92640 0.24335 0.54874 0 -3.72725 29.76756 0.17755
7.48196 -0.15751 2.75379 0 29.63006 4.69673 0.36494
-12.93627 0.24846 9.53442 0 25.44905 -15.88540 0.73490
-0.96267 0.09515 0.61524 0 -6.16526 -29.35966 0.44328
4.85324 -0.23386 5.74081 0 22.89268 19.38879 1.15858
5.61214 0.02794 1.74296 0 18.54629 -23.58040 0.30594
-10.50697 0.01825 5.54117 0 -20.27161 22.11474 0.52510
9.46905 -0.24301 3.25909 0 -6.89032 29.19800 0.34242
-10.39953 -0.01275 7.49633 0 -19.59248 22.71860 0.71759
19.69432 -0.23377 15.50548 0 -3.02470 -29.84713 0.78636
2.17958 -0.14944 1.41363 0 22.14611 -20.23733 0.58956
1.36783 -0.20043 0.68078 0 -29.81914 -3.28923 0.40187
-4.64511 -0.21523 1.60074 0 26.07814 -14.83006 0.33711
1.32195 0.07621 0.72391 0 -19.15860 23.08567 0.43677
11.02197 -0.23208 3.22434 0 25.13168 16.38287 0.29151
12.96702 -0.18943 4.60398 0 0.10191 -29.99983 0.35414
-2.78562 -0.01379 1.23024 0 -20.68931 21.72447 0.41576
-0.83524 0.00442 0.32168 0 16.86149 -24.81311 0.26845
3.21852 0.15744 0.44527 0 -22.62980 19.69497 0.26776
-2.90288 0.16594 1.61991 0 -8.13752 28.87526 0.51509
-2.29573 -0.15205 0.51986 0 -26.95291 13.17348 0.27048
0.42553 -0.16548 0.81563 0 27.37357 12.27549 0.75052
-1.02181 0.03385 0.66451 0 5.76833 -29.44022 0.46483
24.20123 0.01434 19.20967 0 -29.64638 4.59263 0.79313
-2.27157 -0.24657 1.66696 0 25.27946 -16.15391 0.67168
-6.81253 0.10971 2.85952 0 20.16521 22.21181 0.41541
15.06679 -0.12385 6.96358 0 27.70874 -11.49893 0.46127
-8.16147 0.21358 3.52355 0 -19.78738 -22.54905 0.42864
-0.17170 -0.02227 0.76050 0 0.25792 29.99889 0.74953
-1.11367 -0.07012 0.42284 0 -17.30400 24.50656 0.28261
-5.76378 0.00586 1.91113 0 -23.56363 -18.56759 0.32677
0.53374 0.25290 0.51321 0 -21.20486 21.22154 0.45278
0.84891 0.19699 0.38477 0 -24.05514 17.92625 0.29341
9.29842 0.10854 5.51114 0 -23.70182 18.39086 0.58938
1.69166 0.00009 1.32333 0 -28.89385 8.07129 0.67347
-5.84548 0.04177 1.67049 0 25.17406 -16.31767 0.28192
-1.63804 0.20593 0.49907 0 5.22583 29.54134 0.26019
-5.58548 0.04671 5.01227 0 -16.28675 -25.19409 0.88340
-27.18363 0.16703 29.75622 0 -22.19511 20.18358 1.09394
-0.97290 -0.11373 1.87419 0 5.96854 -29.40028 1.34335
0.94280 -0.24451 0.52847 0 -29.40592 -5.94069 0.38459
-0.63445 0.04210 0.76830 0 -12.87286 -27.09777 0.64877
-5.15217 -0.00503 1.01138 0 28.35120 -9.80864 0.19286
6.69039 0.07537 3.13231 0 0.03305 29.99998 0.46314
-3.51250 -0.14057 3.16478 0 27.92483 -10.96376 0.86664
0.05837 0.12293 0.42057 0 -29.74228 3.92391 0.41986
8.93403 -0.10053 7.62184 0 29.88821 2.58744 0.84789
0.66992 0.21199 0.75111 0 13.39232 26.84485 0.62404
0.52460 -0.05198 0.42478 0 27.13102 12.80265 0.37619
0.72107 0.25455 2.20099 0 -12.68432 -27.18654 1.78528
3.94134 -0.00480 3.18143 0 -29.99537 0.52679 0.78248
3.38029 0.22252 2.95073 0 29.96706 1.40543 0.83714
-12.78528 -0.08706 2.74039 0 18.39880 23.69566 0.21391
23.60893 -0.09075 17.30439 0 -21.31409 21.11183 0.85681
0.89131 0.25307 0.66067 0 13.54266 -26.76932 0.49325
19.49941 0.08810 6.83931 0 29.97369 1.25621 0.35042
16.60701 0.00556 18.87951 0 29.98685 -0.88832 1.13483
-7.39502 0.17934 6.56075 0 -28.89258 8.07582 0.87924
-1.33637 -0.22605 0.52832 0 25.78205 -15.33904 0.31664
6.12173 0.20683 3.61258 0 29.91048 2.31585 0.58249
23.85928 -0.04824 10.19010 0 -16.19676 -25.25203 0.42683
-0.07469 -0.09127 0.83947 0 -29.78358 -3.59700 0.83404
-12.02543 -0.23665 6.40358 0 17.75278 24.18344 0.53076
-25.99117 -0.09130 11.79152 0 26.65347 -13.76925 0.45345
-1.86485 -0.07288 0.69514 0 -6.22992 -29.34601 0.32867
-0.17393 0.08170 0.89436 0 24.46045 -17.36912 0.88113
1.28159 -0.22997 0.34927 0 -29.99959 0.15738 0.21497
-0.88735 -0.14515 0.40237 0 28.61003 9.02587 0.30104
1.78294 -0.09238 1.72822 0 20.33790 -22.05379 0.84545
3.12020 0.11551 1.70773 0 1.14439 29.97816 0.52132
1.22104 -0.02972 0.56273 0 14.66601 -26.17075 0.35661
-0.02620 0.01595 0.28432 0 -21.65549 20.76150 0.28405
-1.58750 0.02309 1.19917 0 7.82032 28.96278 0.63918
2.93401 -0.18540 1.73806 0 -29.76213 -3.77035 0.56077
-1.39460 -0.21200 0.75953 0 29.56627 -5.08290 0.44266
-10.76412 -0.20831 7.23739 0 24.18240 -17.75420 0.66955
-4.42205 -0.21042 2.15444 0 19.62752 -22.68834 0.47526
-6.97435 -0.16704 4.77479 0 4.47068 29.66501 0.67776
-1.26657 0.07317 1.55331 0 28.99546 -7.69828 0.96258
-2.15129 0.01876 1.90625 0 -28.70752 8.71083 0.80370
20.37201 -0.00926 18.91320 0 -21.44368 20.98019 0.92733
0.84242 0.00695 0.62131 0 -3.82286 -29.75543 0.47521
-0.01657 -0.13846 0.82930 0 -24.59498 -17.17810 0.82918
19.59170 -0.08151 13.89817 0 -18.12047 23.90917 0.70854
-1.38764 -0.20227 0.86016 0 6.64642 29.25449 0.50295
-1.23227 -0.20748 0.75721 0 18.14578 23.88997 0.47721
1.05841 0.26113 0.84586 0 25.72441 15.43550 0.58096
1.24601 0.03587 1.88089 0 10.19577 28.21429 1.17730
11.25255 0.21504 4.11289 0 -7.16742 -29.13122 0.36421
15.76638 0.04801 10.37082 0 -29.80303 3.43212 0.65654
-1.66522 -0.05561 0.52779 0 -26.36153 -14.32026 0.27187
-21.28273 -0.03222 4.30252 0 3.04511 -29.84505 0.20218
-1.97996 0.19830 1.24568 0 29.29671 6.45775 0.56164
11.69851 -0.09540 3.48260 0 -7.29253 -29.10015 0.29678
-1.26353 0.07061 1.50568 0 23.62251 -18.49263 0.93445
0.34070 0.13827 0.45463 0 15.99728 -25.37887 0.43035
-21.37829 -0.13334 9.45999 0 -16.58981 24.99557 0.44213
11.78594 0.25563 6.25393 0 5.60063 29.47258 0.52882
6.75414 -0.12622 2.57241 0 -9.01414 -28.61372 0.37688
-2.97709 0.01708 0.79766 0 -19.05855 23.16833 0.25416
-6.51575 -0.21833 2.94736 0 -19.34439 22.93021 0.44722
0.43485 0.00457 0.62931 0 27.14310 -12.77702 0.57712
-1.06609 -0.14340 0.76143 0 -16.00353 -25.37493 0.52097
-1.60886 0.03182 0.80435 0 -1.04758 29.98170 0.42470
-0.96778 0.07395 0.39331 0 14.06809 26.49696 0.34806
-20.58162 0.22718 6.99044 0 -21.06845 21.35698 0.33939
-2.42380 0.06302 2.96911 0 15.41496 -25.73672 1.13246
-1.41313 0.09510 0.99558 0 29.89806 -2.47109 0.57515
-2.77263 0.15393 2.05495 0 21.89734 -20.50625 0.69726
-2.47136 -0.01908 1.79830 0 -22.58117 19.75071 0.67464
0.61583 -0.00616 0.60183 0 -19.39368 22.88853 0.51247
2.09446 -0.06538 0.90634 0 28.83772 8.26956 0.39057
-8.65418 0.26288 3.76821 0 24.41130 -17.43814 0.43265
-14.56823 -0.17020 5.45668 0 -29.79468 -3.50389 0.37381
3.01985 0.19645 3.87343 0 29.66306 4.48365 1.21768
-2.17906 -0.24555 0.77281 0 -26.76369 13.55377 0.32249
-15.80724 0.26115 3.53296 0 17.46810 -24.38987 0.22327
-14.29641 0.05347 7.94812 0 -8.25264 -28.84257 0.55469
-2.25858 -0.11755 0.72148 0 -29.98974 -0.78458 0.29224
6.44774 0.21828 1.97979 0 29.99790 -0.35523 0.30358
23.43304 0.16307 16.53535 0 3.09184 29.84025 0.70507
0.21632 0.06193 0.49089 0 -29.21444 6.82029 0.47980
-6.72997 -0.02712 1.49821 0 28.75111 -8.56583 0.22042
0.53341 0.14391 0.60686 0 -16.14155 -25.28736 0.53547
0.45953 0.17874 0.42244 0 -22.42737 19.92519 0.38387
2.36292 -0.15859 2.15748 0 -25.72409 15.43603 0.84092
-0.27459 -0.21225 0.58607 0 -27.28785 12.46488 0.56515
-4.65250 -0.07900 3.37957 0 -21.67080 -20.74551 0.71027
8.03170 -0.14001 5.58836 0 8.78354 -28.68535 0.69053
4.53846 0.03596 0.97760 0 -28.21714 10.18789 0.21054
0.53866 0.19575 0.57062 0 21.82151 20.58693 0.50240
10.23359 0.26333 7.04593 0 -29.98579 0.92321 0.68532
7.38712 0.12126 3.04176 0 5.56064 -29.48015 0.40816
0.46875 -0.14610 1.07230 0 16.93735 -24.76139 0.97094
18.19794 -0.15767 11.63104 0 0.49891 29.99585 0.63825
-9.66336 0.12454 4.60589 0 -26.44739 -14.16105 0.47421
-8.85360 0.24004 5.60212 0 17.36276 -24.46497 0.62883
-1.60924 -0.02247 1.00764 0 11.96497 27.51072 0.53190
0.32965 0.24790 0.45294 0 28.28411 -10.00046 0.43018
17.42827 0.19862 9.61555 0 -29.34779 -6.22151 0.55090
-5.83624 -0.24702 3.75030 0 26.79753 -13.48674 0.63342
-21.67804 0.03475 6.87370 0 -26.66026 13.75610 0.31690
-0.66002 -0.05534 1.16621 0 -7.31344 29.09491 0.97334
23.75602 -0.21419 20.29193 0 28.82879 8.30067 0.85348
2.03746 0.24948 1.08007 0 -22.28327 20.08621 0.47596
11.77792 0.19532 7.02064 0 -29.99959 -0.15755 0.59403
-2.23967 -0.21764 0.40090 0 12.66767 -27.19430 0.17509
0.05910 -0.14291 1.01277 0 9.63954 28.40914 1.01100
-16.23077 0.19081 7.91685 0 -3.02855 -29.84674 0.48695
13.13550 -0.05903 13.34067 0 -29.95127 -1.70923 1.01274
-1.03314 -0.19813 1.38428 0 -5.60020 29.47266 0.96278
0.12396 -0.23343 0.48946 0 20.91547 -21.50681 0.48574
-3.46752 0.04523 0.78408 0 22.32982 -20.03445 0.21736
11.06734 0.26025 7.94431 0 -9.76109 28.36761 0.71497
-24.45199 -0.09760 11.75561 0 3.61107 -29.78188 0.48046
25.80396 0.19686 8.79715 0 -0.07883 29.99990 0.34081
1.38781 0.23495 1.22361 0 -11.26268 -27.80561 0.71535
3.18506 -0.25770 0.74882 0 -14.15910 26.44844 0.22452
2.67107 -0.05203 1.58377 0 -24.04240 -17.94332 0.55534
5.30083 0.10172 3.48683 0 -9.56901 -28.43298 0.64655
27.14365 -0.00669 13.02377 0 26.52701 -14.01135 0.47959
20.62367 -0.12295 16.36122 0 20.28794 -22.09976 0.79245
0.17556 -0.10538 0.44725 0 -0.14985 29.99963 0.44052
-0.23623 0.15066 0.77990 0 -26.66499 -13.74694 0.75902
-1.81636 0.18260 1.25055 0 -22.06801 20.32247 0.60320
-18.04856 0.19917 8.70606 0 -21.39751 21.02728 0.48173
-7.45746 0.05532 1.80582 0 -25.57242 -15.68602 0.24020
-3.83500 0.20917 1.98431 0 29.32859 6.31139 0.50074
-1.59833 -0.18074 0.69824 0 -5.34557 29.51991 0.37045
4.68688 -0.13935 3.18003 0 19.40633 22.87781 0.66363
-1.64830 -0.17168 0.63942 0 28.61817 -9.00002 0.33181
-0.15770 -0.17103 0.31107 0 29.81215 3.35194 0.30728
-2.15811 -0.15334 0.69991 0 -22.37358 19.98557 0.29437
-4.78017 0.10211 3.50348 0 -15.88400 25.44992 0.71744
9.16329 0.05063 3.83153 0 20.50228 21.90106 0.41579
5.54403 -0.02171 2.62683 0 28.89930 8.05173 0.46643
2.31740 0.18995 0.61338 0 26.02413 14.92463 0.24322
25.51553 0.25441 6.75556 0 29.88482 2.62636 0.26474
-0.95643 0.15041 0.57670 0 -0.99806 -29.98339 0.41681
-9.86571 -0.09964 7.94806 0 29.99796 0.34975 0.80158
-20.64163 -0.02995 6.54584 0 -22.53078 19.80819 0.43076
-6.36409 -0.07218 6.81643 0 -29.38590 6.03894 1.07921
-7.59278 -0.16954 4.13210 0 -24.70450 -17.02021 0.53964
0.47830 0.20767 0.58118 0 23.25183 -18.95659 0.52431
0.00383 0.25008 0.40359 0 23.27271 18.93095 0.40359
-0.35326 -0.06447 0.30201 0 22.26261 -20.10911 0.28478
-2.31677 0.02784 2.76907 0 -22.01035 -20.38491 1.09743
0.37752 0.10891 0.72546 0 -28.51997 -9.30651 0.67872
11.24609 -0.15178 2.52933 0 23.83797 18.21403 0.22424
-26.60993 0.08370 15.10618 0 29.72176 4.07641 0.56738
-1.32171 0.15997 0.45939 0 -8.66841 28.72035 0.27727
-5.47630 0.03667 1.86870 0 10.71388 -28.02165 0.33587
-0.45804 -0.07217 0.47334 0 28.40327 -9.65684 0.43037
-4.13458 0.10926 2.92428 0 20.40364 -21.99298 0.68749
3.45543 0.22223 3.93394 0 -29.30015 -6.44212 1.09365
7.92474 -0.09691 2.94056 0 23.82101 18.23621 0.36827
0.02125 -0.17264 0.63682 0 29.43649 -5.78729 0.63667
4.74134 -0.16860 1.33950 0 17.60771 -24.28927 0.27658
8.25415 -0.21196 6.46131 0 -9.32585 28.51365 0.77718
-0.74396 0.06874 1.48376 0 -25.95930 -15.03710 1.19046
-18.66922 0.08305 9.21097 0 5.91675 -29.41075 0.49277
14.49817 0.01298 6.09744 0 -18.88602 -23.30919 0.41969
1.34143 0.12510 1.33851 0 -26.34769 -14.34571 0.80003
4.67319 -0.23942 1.97850 0 -3.51687 29.79315 0.41414
0.57264 0.14704 0.71370 0 29.94283 -1.85113 0.61936
-5.38630 0.16247 4.37104 0 -29.82256 3.25805 0.79794
-0.88004 -0.01837 0.63555 0 -3.52477 -29.79221 0.47715
10.00719 -0.03900 3.15028 0 27.58383 11.79544 0.31340
21.63251 -0.19499 6.54588 0 16.45376 25.08533 0.30243
-0.59456 -0.16105 0.49627 0 23.99951 18.00065 0.42660
-4.31980 -0.18860 3.86110 0 -4.76076 -29.61984 0.87082
-0.39657 0.06961 1.14532 0 -27.93230 10.94470 1.06467
1.35591 -0.16141 0.66465 0 18.20817 -23.84245 0.39460
-0.47235 -0.19813 0.96019 0 27.51888 -11.94619 0.86822
-11.23194 0.17295 5.25947 0 26.97306 13.13218 0.46652
9.98273 -0.22650 4.69730 0 29.38350 -6.05061 0.46830
-0.02856 0.21758 1.09971 0 -8.73833 28.69916 1.09926
-0.73040 -0.07963 0.64334 0 -1.51329 -29.96181 0.51956
-4.51500 -0.22499 1.00564 0 -29.69273 4.28275 0.21764
2.52316 -0.17633 1.48490 0 -2.61404 29.88590 0.54715
0.37213 -0.10025 0.67007 0 4.79809 29.61382 0.62801
-2.57622 -0.18954 1.38860 0 29.94114 -1.87829 0.50256
-6.99103 -0.19919 6.53465 0 -23.82047 18.23691 0.92535
-0.58598 -0.11302 1.02531 0 -29.91749 2.22341 0.88463
-11.95869 -0.06416 5.11488 0 -24.33520 -17.54418 0.42634
-0.35629 -0.21044 0.45467 0 -26.89669 -13.28789 0.42831
1.37172 0.25536 0.83337 0 -26.42846 -14.19636 0.49100
16.80174 -0.25855 8.71642 0 -20.13549 -22.23875 0.51796
8.13657 0.09544 2.86884 0 23.64161 18.46819 0.35009
-3.21269 0.14178 5.56645 0 26.29737 14.43773 1.65438
2.02919 -0.03353 1.37530 0 -11.64446 -27.64791 0.60801
-23.29209 -0.18117 14.51193 0 9.43344 -28.47824 0.62255
-0.60088 -0.10440 1.36435 0 12.49990 27.27183 1.16948
-4.14444 -0.17715 2.78700 0 -24.39491 17.46106 0.65374
-3.42795 -0.05357 0.64429 0 16.38057 25.13318 0.18053
-9.50277 -0.05944 3.38456 0 29.98107 1.06571 0.35435
-0.60035 0.05601 1.15706 0 3.73833 -29.76617 0.99204
1.34972 -0.17693 0.51321 0 -8.05768 28.89764 0.37472
2.87678 0.12794 0.90221 0 -23.73809 18.34402 0.27847
-0.88766 -0.10159 0.48169 0 -14.80275 -26.09365 0.36032
8.63561 0.09896 2.40590 0 -26.79496 13.49186 0.27693
-12.16125 0.17399 10.29049 0 26.31270 -14.40978 0.84338
-0.13261 -0.24341 0.45348 0 -25.95590 -15.04298 0.44955
-0.30449 0.02908 0.63073 0 20.74080 21.67531 0.60338
-0.93602 -0.02160 0.48333 0 -15.94993 25.40866 0.35292
-20.55837 0.23602 8.46949 0 29.34144 6.25140 0.41161
-1.38667 -0.11104 0.85256 0 23.20053 19.01934 0.49874
-6.49972 -0.25833 2.39413 0 -24.56849 17.21597 0.36419
7.17250 0.10818 1.15349 0 -10.88648 27.95504 0.23340
2.17170 -0.08297 1.06890 0 -26.95039 -13.17864 0.44713
-0.41059 0.04233 1.07848 0 22.60311 19.72560 0.99767
22.72832 -0.08893 14.94950 0 25.75750 15.38021 0.65719
-13.51523 -0.12818 19.39160 0 27.91605 -10.98608 1.43092
-1.69153 -0.16131 2.28944 0 -29.07904 -7.37626 1.16514
1.44921 0.13351 0.94695 0 28.56415 9.17004 0.53787
0.42102 -0.12571 0.32785 0 -29.93608 -1.95734 0.30219
-4.93308 0.01320 2.48587 0 12.00698 27.49241 0.49403
9.24852 -0.07577 5.24437 0 29.91525 -2.25343 0.56385
-0.11452 0.26105 0.24894 0 0.77152 29.99008 0.24733
-1.04578 0.22146 1.65709 0 -24.26573 17.64014 1.14526
-4.21977 0.04177 2.36974 0 -29.00086 7.67790 0.54658
-0.05733 0.22417 0.37320 0 29.11441 -7.23541 0.37259
-1.93068 0.16952 1.50340 0 -12.10553 -27.44916 0.69149
3.92289 0.09171 1.13952 0 -18.29043 -23.77941 0.28156
-0.22288 0.19693 0.71716 0 -23.37834 18.80035 0.69999
-1.05954 -0.18299 0.71771 0 22.42400 -19.92898 0.49269
-2.43473 -0.03546 1.17749 0 21.77557 -20.63551 0.44747
0.13333 -0.11001 0.91530 0 -19.71785 -22.60987 0.90727
7.38665 0.01373 6.87128 0 26.48779 14.08536 0.92187
2.40725 -0.22844 1.09646 0 -23.70801 -18.38288 0.42083
6.93694 0.12486 4.95738 0 -25.01530 -16.56004 0.70739
-0.10279 0.19349 0.61338 0 -28.36900 9.75704 0.61016
-1.44753 -0.12602 0.89720 0 -0.65907 -29.99276 0.51000
-15.38089 -0.13140 5.12337 0 8.53272 -28.76096 0.33254
-0.92453 0.06158 1.19514 0 -18.40434 -23.69136 0.87759
12.64676 0.04303 11.35385 0 -17.32304 24.49311 0.89503
20.04735 0.11772 10.54719 0 -6.44288 29.29999 0.52555
-8.69139 -0.24076 2.11693 0 -14.01030 -26.52756 0.24217
-3.05696 0.09240 1.92953 0 -18.24119 23.81720 0.60000
0.50077 -0.05720 0.55097 0 24.04493 -17.93994 0.49267
-0.64358 -0.22612 0.41143 0 24.62681 17.13243 0.34602
16.51670 0.14361 8.03123 0 -11.77708 -27.59167 0.48546
1.50022 -0.18155 2.26152 0 20.54525 -21.86076 1.25437
3.39463 0.22839 2.47220 0 -10.66286 28.04110 0.69862
8.98464 0.15039 3.05285 0 -26.07788 -14.83051 0.33784
-0.59703 -0.07697 0.85303 0 29.59303 -4.92469 0.73243
-1.31102 -0.04247 0.28894 0 29.69540 -4.26420 0.22054
