-0.61605 0.01868 0.23738 0 -29.92843 2.07103 0.20217
-0.66134 0.04350 0.92209 0 29.99873 0.27648 0.76913
2.47672 -0.12069 0.61825 0 -20.63989 -21.77143 0.23154
-3.12202 0.17330 0.71390 0 -13.58562 -26.74754 0.21787
-0.23300 0.07103 0.39570 0 14.13165 26.46312 0.38538
-0.44859 -0.08213 0.57643 0 -25.93900 15.07211 0.52595
5.82104 -0.06600 3.69778 0 25.34030 -16.05831 0.62620
-15.61754 -0.15975 4.03846 0 7.92380 -28.93464 0.25824
-1.82192 -0.24295 0.74664 0 27.31192 -12.41205 0.35934
-0.58816 -0.23824 1.03361 0 8.65818 -28.72344 0.89095
-2.80831 0.12710 0.57016 0 -29.91515 2.25478 0.19139
0.30771 -0.02903 0.58911 0 21.76621 -20.64539 0.56306
-0.19480 -0.02731 0.87448 0 -28.38166 9.72014 0.85835
1.15143 -0.01367 0.93081 0 10.04311 -28.26899 0.61039
3.63543 -0.21001 0.92309 0 5.47412 29.49634 0.24498
1.05777 -0.23888 0.79225 0 14.29490 -26.37529 0.54431
1.63978 -0.00360 1.16211 0 -21.99199 20.40471 0.60511
2.46800 -0.10109 0.91098 0 -0.58723 -29.99425 0.34221
-6.25804 0.21860 2.17602 0 -10.61209 -28.06035 0.34350
6.70670 -0.25921 2.08630 0 9.94151 28.30488 0.30783
-2.28899 0.19733 1.24921 0 -5.57374 29.47768 0.50015
-4.15117 -0.22717 2.19090 0 -21.66633 -20.75019 0.51316
8.44780 0.02121 2.36870 0 -10.25197 -28.19392 0.27862
-1.57765 0.04791 1.56344 0 -15.47042 -25.70342 0.83706
-26.27654 0.13285 11.10920 0 27.85616 -11.13707 0.42259
0.17937 -0.01496 0.57417 0 -11.00672 27.90792 0.56515
20.73143 0.08070 7.04096 0 -11.98694 -27.50115 0.33938
8.03051 -0.12923 4.00750 0 -17.98249 24.01312 0.49531
0.10049 -0.17321 0.89136 0 23.02526 19.23115 0.88690
1.11211 -0.24500 0.55904 0 -26.83526 13.41152 0.39118
-1.50817 0.08090 0.38455 0 24.22798 17.69195 0.21265
0.10576 0.11336 0.43471 0 18.26454 -23.79930 0.43230
0.37323 -0.16956 0.49474 0 -29.02515 -7.58556 0.46352
-1.96056 -0.10786 1.02082 0 1.43541 -29.96564 0.54810
5.07926 0.05697 5.74666 0 7.17250 29.12997 1.11012
-1.87636 0.07906 1.53695 0 21.78112 -20.62966 0.72290
10.69956 0.19215 2.63571 0 26.62921 -13.81611 0.24547
-1.65115 0.04696 1.27160 0 -10.83659 27.97442 0.65878
-11.78696 -0.00989 8.64651 0 11.51345 -27.70272 0.73101
-0.83600 0.06320 0.30249 0 18.14728 23.88883 0.23215
2.53769 0.18870 1.17468 0 26.52314 -14.01868 0.43075
25.74080 0.07363 19.13521 0 4.13490 29.71368 0.74289
12.02949 0.13852 5.96715 0 25.60459 -15.63346 0.49444
-2.19689 -0.02901 0.48930 0 19.34385 -22.93067 0.20286
-10.19211 -0.19166 2.45476 0 27.39396 -12.22992 0.23990
7.01237 0.20709 3.96348 0 -12.11915 27.44315 0.55964
-2.54143 -0.08291 0.87227 0 -28.80231 8.39208 0.31945
-3.73290 0.18643 1.27243 0 -2.13718 29.92378 0.32935
-18.39123 0.08653 6.49410 0 -18.77024 -23.40253 0.35273
-2.45519 -0.24721 0.57177 0 0.56978 29.99459 0.21575
0.09142 -0.22381 0.41057 0 -28.40854 9.64132 0.40887
16.71126 -0.18117 8.60639 0 -21.42847 -20.99573 0.51418
3.09813 -0.05008 2.46290 0 6.00839 29.39216 0.75663
-17.92745 0.25262 9.25485 0 -24.24214 -17.67254 0.51553
-4.86845 0.11685 1.66334 0 -12.12571 27.44024 0.33477
2.61772 0.04658 1.25298 0 9.20681 28.55231 0.44723
-9.97056 0.22262 7.14883 0 -22.39917 19.95688 0.71348
-1.10399 -0.12874 0.94227 0 -28.22816 -10.15730 0.63700
-2.56843 -0.07645 0.95035 0 5.81040 -29.43194 0.36406
-7.27278 0.09524 5.90226 0 -18.56702 -23.56408 0.80405
-0.92139 -0.14338 0.66874 0 12.68583 -27.18584 0.49186
-15.07116 0.17920 3.14558 0 -13.61256 26.73384 0.20849
3.77197 -0.00683 0.85890 0 -15.89214 -25.44484 0.22021
19.23670 0.02328 11.03494 0 -29.79355 3.51346 0.57295
9.31908 0.08472 5.19613 0 27.00580 13.06471 0.55448
-14.19783 0.12462 3.92497 0 -14.73532 26.13179 0.27594
2.78973 0.17254 1.10707 0 24.17283 17.76723 0.37364
2.24692 -0.09842 1.35370 0 -22.89346 19.38787 0.55053
-6.47251 0.06587 1.31098 0 29.90993 2.32289 0.20041
2.34889 -0.09748 1.04378 0 16.84982 -24.82103 0.40896
-25.27616 0.06377 24.04247 0 28.65027 -8.89731 0.95050
-6.97348 -0.00693 4.30024 0 -29.99428 0.58563 0.61049
-0.37353 0.11710 0.25275 0 -10.57733 -28.07348 0.23680
0.16096 -0.07285 0.71599 0 18.18919 23.85694 0.70690
-0.29355 0.02219 0.60717 0 -16.79473 -24.85834 0.58259
-2.69558 0.04546 1.08328 0 22.06134 20.32971 0.37697
-1.13417 0.18430 0.77431 0 -0.19518 -29.99936 0.51214
-6.45529 -0.19171 3.14158 0 27.70667 -11.50392 0.48103
-8.53660 -0.16607 5.78351 0 23.80536 18.25664 0.67297
-2.47401 0.10215 2.01480 0 26.94645 -13.18669 0.75513
0.73998 0.22292 0.44779 0 22.00740 20.38809 0.35999
0.20756 -0.00372 0.47279 0 19.18432 23.06430 0.46293
21.24830 0.24928 9.06615 0 -28.43225 -9.57117 0.42632
17.12992 -0.11487 9.69300 0 29.55377 -5.15504 0.56498
2.03307 -0.22765 0.87970 0 -3.64273 -29.77802 0.38837
-2.60208 0.13532 0.62641 0 -18.97209 23.23919 0.22479
-1.64860 -0.17488 2.42634 0 2.18386 -29.92041 1.25837
-0.99765 -0.15083 0.51593 0 29.98880 0.81968 0.36531
-0.14006 -0.06932 0.84261 0 -29.82107 3.27163 0.83447
-9.50965 -0.14576 3.70965 0 23.62768 18.48602 0.38808
1.67120 0.22317 2.09356 0 -26.57743 -13.91547 1.07502
0.67559 -0.14697 0.48770 0 -10.85283 27.96813 0.40416
20.69609 0.22023 29.90145 0 4.57266 29.64946 1.44314
-0.37394 0.13950 0.73076 0 -21.41454 -21.00994 0.68448
2.97889 -0.12032 2.24584 0 27.63006 -11.68673 0.71487
18.17353 -0.15839 4.30399 0 -1.42056 29.96635 0.26232
-3.30242 0.01354 0.78923 0 -14.69478 -26.15461 0.22887
-11.72559 0.09009 10.86916 0 13.43889 -26.82156 0.99153
-16.39648 0.00145 10.88222 0 9.91826 -28.31304 0.61717
-12.87837 -0.10476 4.94589 0 6.51398 29.28426 0.38302
0.37163 -0.02848 0.32433 0 5.58462 29.47562 0.31798
-0.06612 0.04438 0.38584 0 -22.00006 20.39601 0.38500
1.35280 -0.10802 0.43544 0 -0.09366 29.99985 0.25893
0.78709 -0.15491 0.52416 0 3.04915 29.84464 0.41195
-0.65844 0.11656 0.71999 0 25.56208 15.70287 0.60136
-1.65278 0.15023 1.71262 0 -9.24955 28.53850 0.88660
-2.51597 0.03964 1.52309 0 22.88666 19.39590 0.56268
5.17670 -0.00041 2.76959 0 -18.47425 23.63688 0.52541
20.36937 -0.25734 6.98320 0 -0.75881 -29.99040 0.34256
24.62856 -0.16383 8.73802 0 10.34079 28.16146 0.35464
-0.19349 -0.25489 0.44092 0 24.32339 17.56055 0.43289
1.04218 -0.04120 0.52224 0 -27.41198 -12.18947 0.36162
2.95294 0.10584 1.50777 0 -27.64656 11.64766 0.48370
0.37637 0.12750 0.28749 0 11.05352 -27.88942 0.26909
-17.75993 -0.06737 7.30355 0 16.13673 -25.29043 0.41071
2.11370 -0.06405 0.62710 0 -28.82397 -8.31738 0.26830
2.61571 -0.04244 1.53057 0 -29.32407 6.33235 0.54670
-5.34847 -0.24741 3.37003 0 24.40504 17.44689 0.61945
-0.48377 -0.14647 0.53979 0 -27.92794 10.95582 0.48594
0.30242 -0.17848 0.52037 0 27.38315 -12.25410 0.49810
-8.45653 -0.17714 6.57181 0 25.54510 -15.73047 0.77182
16.23447 0.12106 4.69863 0 -29.90139 -2.43044 0.28904
-1.02757 -0.14448 0.84301 0 -29.89805 2.47113 0.58798
21.08945 0.15054 8.66540 0 -29.35347 -6.19464 0.41055
-3.13968 -0.21682 1.49798 0 -12.76074 -27.15075 0.45469
14.37877 0.05098 5.52032 0 -22.48531 19.85978 0.38312
0.58516 -0.18901 0.35501 0 16.78006 24.86824 0.30644
-6.66790 0.07372 4.57597 0 8.94127 28.63658 0.67875
-14.36860 0.04856 6.10187 0 -6.69838 29.24264 0.42376
21.76967 -0.19587 17.97137 0 13.22136 -26.92946 0.82471
1.97224 -0.05056 0.52798 0 1.06693 -29.98102 0.23898
2.62136 -0.01832 1.31613 0 -6.33433 29.32365 0.46921
0.71926 -0.22740 0.47488 0 -25.31004 16.10595 0.38555
-1.07265 0.11037 0.28080 0 24.83994 -16.82193 0.19156
8.27452 0.04769 4.14975 0 -8.71546 28.70611 0.49798
-0.52462 0.12529 0.34863 0 -15.74062 -25.53885 0.30877
-0.71887 -0.25803 0.57492 0 2.25069 29.91545 0.46685
-17.71763 0.17937 3.76262 0 17.12067 24.63499 0.21226
0.02214 0.02933 0.51376 0 18.77504 23.39867 0.51364
2.00920 0.01370 0.89304 0 -25.20964 -16.26266 0.39802
0.10154 -0.19173 0.36874 0 -27.37529 -12.27165 0.36686
1.49791 0.06238 1.66250 0 -3.61859 -29.78096 0.92311
3.21020 0.00898 1.65741 0 -0.96391 29.98451 0.49305
1.56433 -0.08810 1.23817 0 28.41578 -9.61996 0.66694
9.76102 0.03815 5.72247 0 -4.56012 29.65140 0.58329
2.37587 -0.23502 0.46113 0 -29.36778 6.12644 0.17898
22.66042 -0.05621 25.69591 0 24.67401 -17.06439 1.13290
3.05768 0.05197 0.84924 0 26.94377 -13.19218 0.26412
7.70048 0.00757 2.70371 0 19.80224 -22.53600 0.34832
0.26669 0.09921 0.74321 0 -27.35990 12.30593 0.71812
-1.07392 0.06588 0.60494 0 29.63868 -4.64204 0.41230
-6.28900 -0.07010 3.42778 0 -28.56844 -9.15666 0.53837
3.27567 0.04212 1.28119 0 -29.28949 6.49044 0.37417
-3.81777 -0.17601 2.57867 0 -28.37970 -9.72588 0.65345
-12.35120 0.10605 6.92066 0 -4.04239 -29.72640 0.55858
-3.85788 0.24732 4.57508 0 9.69370 28.39071 1.14802
5.12129 0.00912 3.24963 0 -29.95462 1.64952 0.62282
-15.08755 0.02690 6.35594 0 29.64298 4.61451 0.42046
6.45108 -0.02510 2.37404 0 -11.22214 27.82200 0.36379
-0.31086 -0.15847 0.52962 0 -6.41564 29.30597 0.50575
-0.95132 0.14303 0.98833 0 12.98093 27.04617 0.71610
-2.52595 0.17218 1.11199 0 27.47384 -12.04941 0.40938
0.30569 0.14477 0.93230 0 11.58830 -27.67149 0.89158
0.69357 0.14577 0.67303 0 -14.98408 -25.98995 0.55306
-8.22170 0.04975 6.68337 0 0.75122 -29.99059 0.80701
-0.08273 0.14031 0.53581 0 -29.77173 3.69382 0.53398
-5.93802 0.16775 1.25396 0 1.14017 29.97832 0.20842
0.24941 0.25958 1.07266 0 -4.13717 -29.71336 1.04078
-0.28916 0.02147 0.98346 0 23.31264 18.88175 0.94476
-0.82519 -0.19585 0.44871 0 -29.82603 -3.22618 0.34614
12.72945 -0.25693 8.63178 0 -29.47484 5.58871 0.67608
-0.12355 0.24992 0.69169 0 28.94318 7.89253 0.68647
16.41959 -0.21427 5.28958 0 -29.38795 6.02895 0.32171
14.47385 0.06575 6.04369 0 29.45403 5.69737 0.41668
10.33357 -0.13078 6.18822 0 -3.41192 29.80535 0.59614
-2.48043 0.23356 2.67736 0 -20.31716 -22.07290 1.00120
-0.58238 -0.18767 0.51251 0 9.50970 28.45287 0.44292
-2.16413 -0.23552 0.65906 0 29.57104 5.05503 0.27654
11.79711 -0.08250 4.78578 0 -8.20448 28.85631 0.40434
11.93835 -0.07921 9.44699 0 10.77085 -27.99980 0.78861
10.59723 -0.24187 7.29202 0 -29.49113 5.50211 0.68513
2.23573 0.16187 0.78506 0 10.17896 28.22036 0.32069
0.92790 0.20292 1.85693 0 3.31638 -29.81613 1.36122
-7.63775 -0.01869 4.22078 0 -25.03221 -16.53446 0.54803
0.45471 0.08430 0.40962 0 1.15945 -29.97759 0.37290
1.44966 -0.11965 0.48342 0 -20.77077 21.64660 0.27459
8.15780 0.15969 2.31442 0 11.58698 27.67204 0.28177
22.02603 0.05534 20.77286 0 -16.94060 -24.75916 0.94219
7.07444 -0.20885 2.53531 0 -28.95090 -7.86418 0.35498
0.48147 -0.06499 0.28823 0 -22.02049 -20.37396 0.28815
-12.38884 0.20002 3.72074 0 10.20056 -28.21256 0.30191
-15.89492 -0.14898 13.39088 0 -21.94765 -20.45240 0.84086
-4.62931 0.07407 2.30068 0 11.24254 -27.81376 0.48589
0.97059 0.05004 0.78525 0 -5.62064 29.46877 0.56352
-12.38185 -0.14248 4.90912 0 -14.98931 -25.98693 0.39531
-13.20221 0.09345 3.66892 0 15.90752 25.43523 0.27728
-9.39059 0.26309 2.80920 0 -2.95119 29.85449 0.29763
13.32879 0.22027 10.00864 0 -12.41774 -27.30933 0.74886
0.26074 0.07911 0.43026 0 -19.52010 22.78082 0.41634
0.70550 -0.12231 0.59007 0 20.95322 -21.47004 0.48219
-11.36853 -0.09517 3.93551 0 15.92945 -25.42150 0.34498
-17.11255 0.22978 7.25697 0 9.36659 28.50030 0.42347
-3.80696 -0.02918 2.73975 0 -15.12070 -25.91070 0.69617
-1.18259 0.04091 0.35881 0 25.21850 16.24892 0.23182
-1.13463 -0.24521 1.22422 0 -25.09210 -16.44343 0.80949
19.03070 -0.23454 10.29289 0 -6.71481 29.23887 0.54020
13.97288 -0.10295 3.19075 0 1.99596 29.93353 0.22798
-17.10261 0.10421 4.55351 0 29.68512 -4.33520 0.26598
3.43310 -0.07209 1.65499 0 -29.86163 -2.87805 0.51596
0.21013 -0.01652 0.41055 0 -29.99846 0.30363 0.40178
-4.94433 -0.11599 3.57227 0 29.83735 -3.11974 0.70828
-0.56033 0.05832 0.60946 0 -29.29155 -6.48115 0.53171
-1.17948 -0.10014 0.40343 0 20.28971 22.09814 0.26103
8.86809 -0.00508 1.87404 0 29.79660 3.48749 0.21022
14.30524 0.17291 17.20360 0 2.81627 -29.86752 1.19972
0.14282 -0.13998 0.77092 0 -4.97953 -29.58385 0.76318
-1.06875 -0.24506 1.39339 0 -13.42926 26.82638 0.95203
5.37749 -0.19271 3.73084 0 -29.98676 0.89127 0.68213
-6.29520 -0.18400 3.62013 0 -1.99894 -29.93333 0.56802
-10.97364 -0.05527 5.42303 0 9.50900 -28.45310 0.49225
-16.65347 0.02260 6.30090 0 26.78413 -13.51334 0.37780
-0.33383 -0.11244 0.28665 0 29.99212 0.68732 0.27191
-20.97961 -0.18837 9.31740 0 5.33685 29.52148 0.44372
-13.21484 -0.01446 7.94247 0 -1.11765 29.97917 0.59939
1.13969 -0.00300 0.56044 0 -22.94136 -19.33117 0.36969
-0.55352 -0.16510 0.80164 0 4.35493 -29.68223 0.70138
0.26050 0.04122 0.47393 0 0.00064 30.00000 0.45863
-4.85791 -0.14053 3.56521 0 27.76699 11.35757 0.71894
2.30970 0.11198 1.02920 0 -29.81541 -3.32280 0.40898
7.11328 -0.11705 5.54103 0 4.68637 -29.63170 0.77145
5.27921 -0.12098 7.66117 0 -21.28583 -21.14032 1.42590
3.10766 -0.03302 0.53753 0 -22.01242 -20.38267 0.16475
2.59063 -0.16908 1.30313 0 19.52286 22.77845 0.46936
10.70557 -0.14866 4.87316 0 -11.18126 27.83845 0.45333
-0.77956 -0.00482 0.46704 0 11.30415 27.78878 0.36839
-0.51966 -0.03414 0.46526 0 10.51196 -28.09802 0.41287
-2.00760 -0.20251 0.89789 0 -6.21475 29.34922 0.40043
-0.03532 -0.22241 0.48262 0 4.10930 29.71723 0.48231
-12.02209 -0.07263 6.66773 0 -28.37572 9.73749 0.55280
4.80065 0.24862 6.21191 0 -27.92440 -10.96485 1.26685
3.80591 -0.24062 3.05024 0 18.97675 23.23538 0.77523
-0.64831 -0.22886 0.60992 0 -24.86662 -16.78247 0.51181
0.39797 0.05079 0.40764 0 -21.68490 -20.73078 0.37877
13.31152 0.19146 3.20086 0 28.79273 -8.42487 0.23998
0.42524 0.03624 0.65325 0 -21.33055 -21.09520 0.60117
11.99587 -0.15420 2.50177 0 -19.11239 23.12394 0.20806
4.48721 0.05157 4.41970 0 12.68785 -27.18489 0.96144
-26.74416 -0.23854 6.19734 0 19.88436 -22.46358 0.23178
-21.99739 -0.14407 9.25474 0 25.78349 15.33662 0.42040
-0.32567 0.10315 0.47860 0 24.47387 17.35020 0.45508
-3.73439 -0.01976 1.41911 0 -27.79945 11.27787 0.36727
-0.95819 0.07104 0.62321 0 -2.45207 -29.89962 0.45003
-0.59808 0.18432 0.73114 0 8.37479 28.80734 0.62750
24.56467 -0.16680 10.84947 0 0.72679 -29.99120 0.44141
-8.93764 -0.05496 5.83452 0 -15.94662 25.41073 0.64883
0.45920 -0.00939 0.44211 0 -23.77473 18.29651 0.40179
-0.67328 -0.13815 0.56828 0 24.91630 16.70862 0.47143
-4.99980 0.01427 2.48256 0 -27.56153 -11.84746 0.48696
-23.70340 0.14223 17.40873 0 27.44189 12.12198 0.73385
3.54024 0.24536 2.21584 0 27.50209 11.98479 0.60241
5.07912 -0.14220 1.57858 0 -3.16910 29.83214 0.30501
5.59263 0.13704 2.43919 0 -1.37749 -29.96836 0.42940
-0.84889 0.11376 1.38276 0 -29.99953 0.16837 1.05417
27.16598 0.21900 10.42981 0 29.99703 -0.42215 0.38380
23.40960 -0.13413 17.27105 0 -28.32772 9.87624 0.73717
4.06795 -0.01739 3.01578 0 -16.16897 25.26983 0.71999
-0.44732 0.09059 0.87842 0 22.68775 19.62819 0.80187
8.87220 0.19708 5.47315 0 -9.69114 28.39158 0.61308
1.87681 0.23448 1.06273 0 23.05868 19.19108 0.49980
3.28283 -0.08943 0.96777 0 -19.83964 -22.50308 0.28210
25.46473 0.01825 18.71004 0 12.90466 27.08265 0.73424
-10.16580 -0.19074 4.76101 0 -22.37741 -19.98128 0.46619
-15.23356 0.15134 8.69956 0 -5.82506 29.42904 0.56994
21.02344 -0.14077 11.43186 0 1.13324 29.97859 0.54324
1.30073 -0.25620 0.77259 0 29.75139 -3.85416 0.47096
-0.29308 0.23361 0.52538 0 -3.33025 29.81458 0.48754
-1.39570 -0.05424 2.19866 0 -21.43298 -20.99113 1.28057
0.84973 0.22634 0.85466 0 9.03526 -28.60706 0.65133
-0.59909 -0.03276 0.82532 0 -9.91708 -28.31345 0.70801
-2.38042 -0.08924 1.29164 0 0.80475 29.98920 0.50037
1.67517 0.05451 0.77387 0 -16.52738 -25.03689 0.39677
8.90733 0.08789 4.27137 0 27.70241 11.51418 0.47664
-0.01949 -0.18748 0.56739 0 27.29134 -12.45723 0.56728
8.79593 -0.23353 2.89567 0 -5.27713 29.53222 0.32725
2.58363 0.04933 0.49252 0 20.30623 -22.08295 0.17788
-3.18997 0.07965 2.57613 0 -20.81088 -21.60804 0.77069
-2.48915 0.12771 0.81959 0 25.11375 16.41035 0.30570
3.87839 0.04976 2.28098 0 -3.28781 -29.81929 0.56957
1.79505 0.00007 0.91231 0 -23.68830 -18.40827 0.44410
-1.57932 -0.13663 0.60430 0 -26.85891 13.36410 0.32341
-26.30972 0.02711 9.07575 0 -27.86985 -11.10277 0.34485
-9.91055 0.15484 5.40156 0 0.13258 29.99971 0.54237
-2.40175 -0.07877 0.75584 0 -20.51210 21.89186 0.29059
-0.90697 -0.13517 0.89697 0 -23.16830 19.05859 0.66443
-0.38637 -0.19348 0.58413 0 12.67697 -27.18997 0.54488
4.01572 0.07668 2.21741 0 -28.39766 9.67332 0.53588
5.23576 -0.05126 4.09654 0 21.20780 21.21861 0.76862
-7.20918 0.03376 8.53475 0 -25.47218 -15.84828 1.17269
-3.43464 -0.02859 1.66911 0 -29.94630 -1.79414 0.46666
0.39641 0.04754 0.37842 0 -25.50955 -15.78806 0.35181
12.92799 0.01692 7.04891 0 -10.86078 -27.96504 0.54371
1.74350 -0.08673 0.52626 0 -21.90765 20.49524 0.26196
-0.35663 0.15063 0.24940 0 29.90288 -2.41202 0.23493
4.30453 0.12190 1.04302 0 14.91652 26.02878 0.23616
-1.31478 0.05187 0.35953 0 18.19757 23.85054 0.21776
-5.10463 0.11573 2.89937 0 -26.58167 -13.90737 0.55748
-0.08434 0.10505 0.49460 0 -29.42616 -5.83963 0.49285
-16.12510 -0.10542 4.72971 0 -18.10291 -23.92247 0.29292
13.32047 0.02408 5.28330 0 -29.29978 6.44381 0.39564
2.97391 0.11890 0.91220 0 -29.98401 -0.97934 0.29080
3.04433 0.24830 1.89776 0 29.99425 0.58714 0.60566
2.63278 -0.22684 0.55399 0 -29.97747 1.16234 0.20892
0.41486 -0.12224 0.66465 0 0.98721 29.98375 0.61394
1.44683 0.10769 0.53231 0 27.14174 12.77989 0.30278
0.71673 0.00450 0.75732 0 -18.26134 -23.80175 0.61557
8.08429 0.03412 5.20387 0 24.73944 -16.96939 0.63891
-21.19649 0.19601 5.16796 0 3.31942 -29.81579 0.24374
1.22092 0.06523 0.53170 0 4.68410 29.63206 0.33700
0.03941 0.06780 0.23762 0 -1.86121 -29.94221 0.23743
-0.37507 0.02077 0.57603 0 -7.59698 -29.02216 0.53935
4.21956 -0.22103 6.66264 0 -25.75884 -15.37798 1.53648
-0.56664 -0.03113 0.75442 0 29.17444 6.98940 0.65639
5.42395 0.21377 4.78620 0 29.43479 -5.79595 0.86785
-4.05822 -0.12884 1.07824 0 29.99854 -0.29541 0.25813
1.13065 0.06615 1.77690 0 27.45149 12.10024 1.17722
22.90774 -0.05111 4.62017 0 -27.00482 13.06673 0.31010
-0.31180 -0.06612 0.43881 0 -3.88370 -29.74755 0.41893
-23.94962 -0.26210 19.94916 0 -29.99536 0.52771 0.83230
3.97464 0.16832 1.66920 0 1.81397 -29.94511 0.40736
-9.20963 -0.10939 4.21232 0 -29.93230 2.01436 0.45482
0.90199 0.18604 0.70401 0 9.81941 28.34747 0.52281
7.84403 0.09579 3.04983 0 3.87288 29.74896 0.38581
-7.88882 -0.02582 2.20601 0 16.68773 -24.93029 0.27759
4.97446 0.21165 1.62400 0 -0.50535 29.99574 0.36679
-21.81589 0.25986 4.71831 0 -23.40862 18.76263 0.31509
3.98982 -0.05741 3.47754 0 -25.71347 -15.45372 0.84550
-0.74173 -0.24121 0.56564 0 -12.71836 27.17063 0.45434
19.63314 0.00846 30.64924 0 17.82415 -24.13089 1.55911
-2.51239 -0.18012 0.96620 0 -17.66550 24.24727 0.35736
0.38746 -0.13145 1.13299 0 29.39249 -6.00679 1.05647
17.35747 -0.17002 7.09874 0 10.27506 28.18551 0.40841
1.78707 0.13185 0.82572 0 -29.34756 -6.22261 0.40330
-1.38949 -0.06339 0.76764 0 -29.99633 -0.46903 0.44846
-2.22627 -0.02635 1.76568 0 -25.34406 -16.05238 0.72354
0.99601 0.06567 0.72572 0 -29.89433 -2.51570 0.51422
-6.82363 -0.05050 5.19669 0 -21.43881 20.98517 0.75359
-17.08304 -0.00856 5.41107 0 -26.18568 -14.63933 0.31636
-6.75262 -0.06712 4.47330 0 28.61166 9.02069 0.65538
-0.07087 0.10575 0.46238 0 -14.43929 -26.29652 0.46123
2.30538 -0.03512 1.10494 0 -7.79947 -28.96840 0.43975
2.58918 0.16057 1.37811 0 -18.33179 23.74754 0.49661
-11.97468 0.25643 3.50786 0 25.97575 15.00868 0.29209
-0.68800 0.13898 0.38179 0 -27.60486 11.74613 0.31458
-7.20371 -0.22810 3.91530 0 2.48478 -29.89692 0.53844
-6.46500 0.20615 2.72431 0 -0.08119 -29.99989 0.41655
17.02345 -0.16282 7.27245 0 3.31048 -29.81679 0.42658
-1.20690 0.14857 0.59648 0 -17.00246 -24.71672 0.38066
-15.12739 -0.24625 14.99788 0 -4.78899 29.61529 0.98933
-6.91654 -0.25485 3.78169 0 10.24765 -28.19549 0.54122
5.05733 0.23040 3.84598 0 -18.08497 23.93604 0.74605
0.10257 0.16615 0.61473 0 6.35170 -29.31989 0.61152
-0.49639 -0.15466 2.37511 0 -23.99874 -18.00167 2.12743
-10.67975 -0.21147 5.46481 0 27.65244 -11.63369 0.50956
10.01794 0.10949 5.36127 0 -1.85502 29.94259 0.53261
3.43017 0.19490 2.52646 0 10.73360 -28.01410 0.70715
-8.27237 -0.01090 6.61060 0 18.91634 -23.28459 0.79340
0.89846 -0.15521 0.70530 0 22.22598 -20.14958 0.52469
5.19546 0.01785 2.23803 0 6.88007 29.20042 0.42309
-6.96575 -0.23831 2.48943 0 5.97782 -29.39840 0.35389
-5.32238 0.25796 3.28739 0 17.91326 24.06481 0.60710
-1.94169 -0.24028 1.28582 0 -14.09904 -26.48050 0.58879
0.67051 0.16732 0.79068 0 -29.24803 6.67479 0.65674
3.74237 0.10354 1.73867 0 23.75790 -18.31836 0.44896
0.66181 -0.19804 0.36297 0 -27.36735 12.28935 0.32675
7.74752 0.25040 5.65076 0 22.44475 19.90561 0.72343
5.92373 -0.11270 1.04977 0 -12.29557 -27.36456 0.17483
4.94957 -0.04094 1.04909 0 27.42283 -12.16504 0.20788
2.88297 -0.16161 1.58123 0 -21.45237 20.97131 0.51830
1.39792 0.16712 0.79518 0 0.68545 -29.99217 0.46270
-7.29883 0.24954 5.39698 0 -22.13404 -20.25054 0.73265
0.35562 0.21239 0.38042 0 -1.57748 -29.95850 0.35844
-18.75587 -0.18085 6.87288 0 -16.82689 24.83658 0.36605
0.70640 -0.19926 0.41336 0 28.80596 -8.37954 0.33767
2.04878 0.24343 0.55319 0 0.71614 -29.99145 0.24279
17.90733 0.15760 8.15912 0 -28.47511 -9.44288 0.45503
4.59718 0.09924 1.65905 0 19.72371 -22.60476 0.35272
7.23645 0.12547 4.29998 0 -27.57661 -11.81231 0.58870
-0.86591 -0.13725 0.38570 0 -23.57685 18.55080 0.29164
-3.44306 -0.07830 1.35627 0 -0.22004 -29.99919 0.37833
-6.31469 -0.07972 1.77185 0 2.12312 29.92478 0.28418
23.20802 0.15011 5.86142 0 15.84449 -25.47454 0.25252
-0.00807 -0.25925 0.47680 0 9.18986 28.55777 0.47678
8.25005 -0.02026 2.92589 0 -0.75429 -29.99052 0.35221
2.56659 -0.00054 2.52874 0 21.84481 20.56221 0.91812
-22.69472 -0.21525 8.99194 0 2.97330 -29.85229 0.39595
16.99798 -0.23382 5.53173 0 6.29041 29.33310 0.32502
-7.07448 0.12807 10.11069 0 23.60829 -18.51077 1.41515
-11.24523 0.12512 5.12063 0 -29.87044 2.78512 0.45368
5.80999 0.12355 4.16966 0 18.89523 -23.30172 0.70734
1.91676 0.07096 0.96893 0 -26.65765 -13.76116 0.44826
7.06291 -0.21915 2.69258 0 22.15752 -20.22484 0.37759
16.60303 0.19884 3.90158 0 6.62724 29.25884 0.23477
0.11144 -0.02057 0.46799 0 -16.33666 25.16175 0.46511
-5.65316 0.18772 1.05771 0 -28.99717 7.69182 0.18436
0.09407 -0.19174 0.31569 0 -4.78649 -29.61570 0.31430
-24.10334 0.13154 16.08285 0 18.81445 23.36700 0.66674
0.50951 0.21284 0.68548 0 16.39264 -25.12531 0.61079
6.15876 -0.13526 2.99409 0 -24.56426 17.22199 0.47996
-2.01376 0.16364 0.41254 0 -27.69674 -11.52783 0.18364
13.80204 -0.07009 7.49951 0 29.66735 -4.45514 0.54203
1.83189 0.06475 0.78407 0 -7.59759 -29.02200 0.37578
2.64625 0.04213 0.86219 0 29.84174 -3.07741 0.30488
6.06127 -0.12769 3.78572 0 -9.01531 28.61336 0.61632
-2.84946 0.11745 0.84901 0 4.15845 29.71039 0.28125
12.83474 -0.15284 3.12162 0 -8.34927 28.81475 0.24268
24.51830 0.25447 11.06115 0 -5.52786 29.48631 0.45087
5.06495 0.16403 1.55360 0 19.91042 22.44048 0.30109
14.98227 -0.09334 2.12177 0 29.99333 -0.63240 0.24539
2.38170 0.22132 1.33614 0 27.64708 -11.64642 0.51730
4.26303 -0.14957 2.18415 0 26.85032 -13.38133 0.49897
7.27772 -0.02884 3.03904 0 5.94153 29.40575 0.41381
4.62238 0.21046 1.22929 0 4.95245 29.58840 0.26008
-6.04761 -0.13391 2.39361 0 17.30336 -24.50701 0.39058
-3.68050 -0.24022 2.14302 0 20.14411 -22.23095 0.56193
7.07404 0.16784 3.32539 0 -25.08574 -16.45314 0.46556
3.70238 0.05906 1.98960 0 3.51675 29.79316 0.51891
0.59399 0.25125 0.69795 0 -15.44083 25.72121 0.60009
-20.55362 0.11303 11.17889 0 -22.53959 19.79816 0.54334
-3.60016 0.25643 1.92903 0 -0.02492 29.99999 0.51635
-19.70302 0.26038 13.48444 0 27.98127 10.81891 0.68358
2.74775 0.20652 1.54565 0 22.17358 20.20723 0.52867
-12.46421 0.15630 11.18600 0 -25.78694 -15.33081 0.89463
6.21693 0.19369 3.16527 0 10.18448 -28.21837 0.50277
-12.64896 0.18650 7.56224 0 -29.52393 5.32328 0.59608
-12.12628 -0.01205 7.16003 0 -21.14655 -21.27965 0.58854
-4.65493 0.22474 4.57376 0 25.96704 15.02374 0.96070
-3.17095 0.06921 1.03044 0 -10.30593 28.17424 0.31005
-3.72542 -0.02069 1.06308 0 27.46244 -12.07536 0.27579
-4.35032 -0.06165 1.95418 0 11.91048 -27.53435 0.43786
