0.04401 -0.24411 0.91499 0 29.69724 -4.25137 0.91411
-0.07282 -0.25090 0.58708 0 -1.75535 29.94860 0.58553
-0.95836 0.14274 0.35046 0 8.24667 -28.84428 0.25314
-2.04969 0.03401 1.24643 0 25.42124 -15.92987 0.54661
-24.65383 -0.03091 14.76682 0 -29.04704 -7.50131 0.59856
1.37846 -0.22386 0.68629 0 29.26079 -6.61863 0.40307
-0.09881 -0.02730 0.65959 0 -5.24892 29.53724 0.65639
16.66864 0.02044 4.95115 0 27.13462 -12.79501 0.29666
-0.74817 -0.06361 0.64841 0 0.04966 -29.99996 0.51922
15.80587 0.14575 6.27834 0 -13.13204 26.97313 0.39655
-0.84577 -0.26193 0.49323 0 3.38894 -29.80797 0.37664
2.85549 -0.11075 1.11633 0 -24.31005 -17.57900 0.36908
-0.88494 0.18292 0.29309 0 4.34335 -29.68392 0.21960
-0.89430 0.00151 0.36088 0 12.83090 27.11767 0.26907
11.45011 -0.00251 6.56100 0 -29.97495 1.22569 0.57092
6.26578 -0.07598 2.05783 0 23.86381 -18.18018 0.32447
0.98406 0.05071 0.93564 0 22.22921 20.14602 0.66692
4.62226 0.11051 1.70917 0 -25.24857 16.20215 0.36151
18.79108 0.10927 5.65115 0 -4.57865 -29.64854 0.30047
0.59460 0.10642 0.54982 0 29.11423 -7.23615 0.47262
-3.74323 -0.17109 1.99933 0 15.96686 25.39802 0.51615
-2.41686 -0.19527 1.43628 0 29.93618 -1.95586 0.54918
-8.48381 0.16669 5.59174 0 -2.10849 29.92581 0.65465
19.81785 0.09544 12.87392 0 -2.94680 -29.85492 0.64886
9.90471 0.03442 4.06854 0 -29.93648 -1.95119 0.40881
-1.12626 -0.02979 0.52999 0 29.98078 1.07365 0.35197
0.48022 -0.19273 0.59604 0 15.61499 -25.61586 0.53731
-1.93445 0.22836 0.77012 0 -22.55401 19.78172 0.35377
-4.78805 -0.05054 1.76046 0 -21.96624 -20.43243 0.36005
-0.71686 -0.22974 0.39286 0 21.64450 -20.77295 0.31935
0.18001 -0.01245 0.42552 0 -25.90554 15.12954 0.41879
19.19648 0.04452 9.66572 0 22.62396 -19.70169 0.50293
17.01923 -0.00915 12.21311 0 -23.83654 -18.21590 0.71644
-1.58057 -0.03966 0.35265 0 4.02607 -29.72862 0.18868
0.16171 -0.11193 0.51489 0 -15.14432 -25.89690 0.50993
-4.95137 0.11696 1.96722 0 16.66887 -24.94291 0.38956
11.14177 0.08894 3.06768 0 12.30268 -27.36136 0.27441
-7.87420 0.26224 3.38894 0 -28.72919 -8.63909 0.42707
-11.78686 0.20000 12.50409 0 27.50620 -11.97535 1.05710
-11.29866 0.10458 15.59830 0 29.87050 2.78444 1.37521
-5.73648 -0.26233 3.23233 0 -9.74126 -28.37442 0.55516
0.05191 0.09568 0.31873 0 -14.61315 26.20030 0.31830
2.53855 -0.16022 0.69349 0 29.95815 1.58408 0.25431
0.56181 0.24644 1.21968 0 -22.30653 -20.06038 1.06337
16.41823 -0.03900 8.16874 0 27.02681 -13.02121 0.49672
13.01123 0.00915 6.80139 0 -9.06937 -28.59627 0.52129
0.01183 0.11483 0.65642 0 25.83003 15.25810 0.65638
-8.61900 0.17061 2.87004 0 -28.27274 10.03256 0.33092
0.52958 -0.01466 1.18925 0 12.22038 -27.39822 1.05098
-1.07730 0.26167 1.02092 0 4.90536 29.59624 0.69460
6.58628 -0.13427 2.26612 0 -29.21205 -6.83055 0.34031
-17.43545 0.17614 3.77498 0 -8.63142 28.73149 0.21638
-18.93024 -0.08304 5.29490 0 26.94561 13.18841 0.27949
-0.14193 0.23127 0.56173 0 4.32966 -29.68592 0.55615
-10.81457 0.16909 4.33111 0 2.92338 29.85722 0.39891
-5.22518 -0.04564 2.68421 0 26.13915 -14.72226 0.50475
0.51042 0.11312 0.22603 0 14.13911 26.45913 0.20136
-9.29318 -0.02616 3.58475 0 23.36890 -18.81209 0.38365
-23.77986 -0.02279 14.53468 0 -4.25905 -29.69614 0.61076
-5.62092 0.07484 2.83348 0 4.45317 29.66765 0.49645
-21.91607 0.14675 6.01956 0 29.37204 -6.10599 0.27456
-2.97030 0.03352 0.64494 0 20.11330 22.25882 0.20591
1.24236 -0.04781 0.44984 0 24.19701 -17.73428 0.28216
1.01991 0.06482 1.12134 0 23.75784 -18.31844 0.78508
-5.17484 0.00536 2.93412 0 -25.29212 16.13408 0.55677
-1.30514 0.07646 0.52116 0 -2.63155 29.88436 0.31710
5.54424 -0.02434 14.19914 0 28.60353 -9.04646 2.52042
-1.71059 0.07812 0.79098 0 20.76932 -21.64799 0.39932
21.78291 -0.21414 7.98640 0 29.87615 -2.72318 0.36638
8.81599 0.14690 5.92823 0 28.25637 10.07856 0.66823
-0.21883 -0.25646 0.81128 0 -3.64073 29.77826 0.79253
10.72951 -0.00292 6.45841 0 26.85704 -13.36785 0.59941
13.34512 0.24071 3.71253 0 29.26489 -6.60048 0.27759
0.53451 -0.06134 0.66062 0 11.87424 27.55000 0.58263
18.81692 0.09390 11.27229 0 7.39330 -29.07472 0.59829
0.54184 0.10163 0.50969 0 -17.25238 -24.54293 0.44816
0.41434 0.17932 0.58468 0 -17.16181 24.60635 0.54016
0.20695 -0.17334 0.50347 0 18.88146 23.31288 0.49303
0.29449 0.18200 0.59044 0 25.26434 16.17756 0.56640
-24.63629 -0.18020 8.29181 0 -20.01813 22.34445 0.33644
0.91567 -0.20631 0.80513 0 11.29174 -27.79382 0.59384
-8.35145 -0.21937 2.37253 0 16.17636 -25.26510 0.28224
-7.37163 0.08807 3.01628 0 -29.69475 4.26871 0.40558
5.76929 0.10224 1.00642 0 19.84278 -22.50031 0.17207
-21.02114 -0.24665 11.77233 0 23.06338 19.18542 0.55948
0.05808 -0.04345 0.69308 0 29.04189 7.52122 0.69191
2.88429 -0.08101 1.32161 0 1.74216 29.94937 0.43301
3.54222 -0.05962 2.12223 0 -5.70148 -29.45324 0.57668
-0.38527 -0.06095 0.96136 0 -23.96059 18.05243 0.89709
-0.52121 0.18519 0.63383 0 29.93219 -2.01600 0.56208
1.13833 0.26269 0.65535 0 -29.95330 -1.67322 0.43258
2.88671 -0.07161 1.26738 0 -28.62336 8.98350 0.41491
-0.97432 0.15670 0.40106 0 -3.47392 29.79819 0.28736
-5.25443 -0.09730 3.13831 0 1.16468 -29.97738 0.58682
-11.82945 0.17090 9.87583 0 -4.87639 29.60103 0.83194
1.39680 0.19208 0.70644 0 -25.86487 15.19897 0.41131
-1.06404 -0.02845 0.39331 0 -28.92002 7.97698 0.26946
-1.22802 -0.13733 0.57926 0 -4.65116 -29.63725 0.36586
10.91862 0.05202 4.46784 0 -29.90445 2.39250 0.40761
-0.79482 -0.14406 0.55258 0 -25.90837 15.12470 0.43264
9.45027 0.05059 4.24835 0 -11.93642 27.52311 0.44716
7.97800 -0.10626 2.71148 0 23.69637 18.39789 0.33737
0.85269 0.04359 0.48885 0 -26.54670 13.97400 0.37204
1.92816 0.18387 1.76374 0 13.43104 -26.82550 0.81205
-6.13044 0.18376 5.68507 0 14.57812 -26.21981 0.91531
2.74195 0.08904 0.76390 0 -28.17527 10.30313 0.26181
22.08952 0.16869 6.88902 0 -22.40937 -19.94543 0.31171
16.01301 -0.12527 8.76612 0 0.74152 -29.99084 0.54646
9.17526 -0.20746 5.17070 0 -26.47433 14.11064 0.56032
-1.17098 0.22417 0.92969 0 -26.73866 13.60310 0.60379
-4.32145 0.06030 2.32378 0 -25.92862 -15.08996 0.52402
-5.13793 -0.12727 4.44707 0 -23.15830 -19.07074 0.84965
-3.06039 -0.06361 2.02936 0 -29.29432 6.46863 0.63037
-0.24950 0.23380 0.25888 0 7.41357 29.06956 0.25119
4.77529 -0.19633 4.12864 0 -29.57552 5.02876 0.84631
2.33848 -0.23993 0.45443 0 -7.24316 -29.11248 0.17882
1.69856 0.22079 1.44523 0 -25.86072 -15.20602 0.73326
-0.83179 0.17725 0.67037 0 -29.17620 -6.98207 0.51541
-2.22121 -0.21290 0.55372 0 21.93239 -20.46876 0.26998
-0.41342 0.08040 0.98190 0 -12.77773 -27.14276 0.90742
9.47445 0.04225 7.70125 0 -5.50396 -29.49079 0.80841
-18.00837 -0.22964 12.73724 0 29.86951 2.79506 0.70628
-11.04710 0.18331 7.85093 0 -11.38969 -27.75383 0.70785
-27.12976 0.09935 9.43995 0 -22.53770 19.80030 0.34786
1.16841 -0.07529 0.66929 0 27.08602 12.89757 0.43525
0.00371 -0.09323 0.64341 0 -24.57655 17.20445 0.64340
10.31862 0.01745 3.84569 0 23.14262 19.08976 0.37109
3.38127 -0.14262 1.30095 0 -29.99598 -0.49114 0.36912
-8.97466 -0.24626 8.60371 0 -19.80316 22.53519 0.95282
-0.46829 -0.20610 0.55822 0 17.82281 24.13188 0.50555
0.40523 -0.12709 0.85299 0 14.47846 -26.27497 0.79055
5.42463 0.15036 1.09098 0 25.99247 -14.97971 0.19801
0.01544 -0.06266 0.42007 0 25.36505 -16.01919 0.42002
1.98197 0.13622 0.60766 0 14.91544 26.02940 0.27384
-1.94706 0.16248 0.74649 0 19.60687 22.70618 0.34116
-7.21846 -0.13867 2.25079 0 29.50127 5.44748 0.30902
-0.37474 0.07674 0.61718 0 25.58962 15.65795 0.57794
-9.54409 0.14744 6.28138 0 5.72063 -29.44952 0.65463
0.52422 0.11912 0.42366 0 -29.47538 5.58587 0.37525
1.35910 0.19962 0.72498 0 29.40168 -5.96164 0.42973
6.25821 -0.10051 2.82893 0 -9.46107 -28.46908 0.44648
-0.91320 -0.03970 0.71325 0 -29.26913 6.58164 0.52673
1.10968 -0.17500 0.39378 0 27.35136 12.32490 0.26374
-2.94196 -0.03534 1.11056 0 27.38653 12.24655 0.35754
-7.41922 -0.10252 3.95479 0 21.83970 20.56763 0.52836
1.81370 -0.15592 1.57250 0 -28.97085 -7.79037 0.75931
3.35462 -0.18263 1.85041 0 -29.01932 7.60783 0.52868
0.12260 0.23214 0.70490 0 -23.34958 18.83607 0.69966
-23.79054 0.05619 10.84212 0 25.33977 -16.05914 0.45544
8.77867 0.21829 3.06200 0 -21.81378 -20.59512 0.34670
-8.24932 0.15943 6.14841 0 7.43074 29.06517 0.73997
26.46987 -0.25527 12.11817 0 -29.23604 6.72709 0.45759
3.18141 -0.25558 3.20184 0 -10.03944 -28.27030 0.96027
-1.39431 -0.18341 0.69386 0 19.10468 -23.13031 0.40446
-8.89542 -0.14294 4.66842 0 4.22888 29.70045 0.52162
0.19984 -0.20641 0.46769 0 -0.21100 -29.99926 0.45863
0.60830 -0.14259 0.47132 0 25.52175 15.76833 0.40270
-11.97940 -0.06241 5.31582 0 -19.09847 23.13543 0.44232
0.43062 0.24842 0.30368 0 -29.41131 -5.91394 0.27894
19.30637 0.12252 8.22332 0 -9.04528 28.60390 0.42548
5.52193 -0.08180 3.86253 0 -29.88753 2.59526 0.68834
0.30233 -0.01665 0.46177 0 5.23645 29.53946 0.44202
0.98007 0.04283 0.44292 0 -15.79052 -25.50803 0.31638
3.63577 -0.23687 3.74964 0 -29.99947 0.17760 0.99446
-0.08219 -0.24705 0.54070 0 20.73363 21.68217 0.53888
4.78853 0.21689 5.12022 0 6.49206 -29.28913 1.04671
1.33298 -0.11149 0.61993 0 29.94659 -1.78930 0.37209
-0.37627 -0.24273 0.29933 0 3.29704 29.81828 0.28017
-12.60504 -0.24170 26.08914 0 27.03322 13.00789 2.06328
-4.57663 0.16625 1.72569 0 -17.35037 24.47375 0.36849
2.13023 0.19927 2.12375 0 -2.43969 29.90063 0.90253
6.52444 0.19453 7.21154 0 29.32432 -6.33123 1.09260
18.89900 0.16474 13.00700 0 7.13084 -29.14020 0.68735
-5.49057 -0.15680 4.46592 0 11.94338 27.52009 0.80041
0.61664 0.10936 0.33238 0 -28.68048 8.79944 0.28297
0.01872 0.03257 1.02014 0 -12.39588 -27.31926 1.01996
0.83843 0.03768 0.40998 0 -11.39158 27.75305 0.31422
-0.21383 -0.08597 0.20424 0 -29.08937 7.33543 0.19973
-26.97687 0.21539 24.30661 0 27.54827 -11.87826 0.90046
-3.62575 0.14257 3.99974 0 9.63281 28.41142 1.06347
1.22185 0.14962 0.48117 0 4.97862 29.58400 0.30484
21.76032 -0.25501 6.44436 0 -11.28566 -27.79630 0.29600
-2.92039 -0.26160 1.37015 0 10.63220 -28.05274 0.44391
-0.86745 0.14331 0.38597 0 -29.50113 5.44822 0.29162
5.13720 0.14384 3.23466 0 10.44921 -28.12142 0.61814
0.16295 0.17259 0.44756 0 4.27696 -29.69356 0.44173
-8.00746 -0.11229 2.95609 0 -29.56248 -5.10487 0.36645
3.28870 0.01720 1.94418 0 22.36040 20.00032 0.56571
0.05948 0.03900 0.39550 0 25.56724 -15.69447 0.39481
-10.83420 -0.13843 4.98402 0 -26.25233 -14.51948 0.45819
-15.46002 0.25550 7.50583 0 5.87554 29.41901 0.48459
-8.86368 0.16971 6.08945 0 -0.49720 -29.99588 0.68275
-0.42287 0.08463 0.46830 0 -28.01141 -10.74061 0.43134
-0.92222 -0.24255 0.60238 0 14.70754 -26.14743 0.44287
-12.92745 -0.16340 3.21125 0 -16.67734 -24.93725 0.24786
7.78674 0.01943 4.42725 0 -5.92025 -29.41004 0.56402
2.32192 0.16996 1.09524 0 25.84424 -15.23402 0.43332
0.29946 0.08730 0.55937 0 -28.27392 -10.02922 0.53587
0.33933 -0.01549 0.25423 0 27.56296 11.84413 0.24077
-1.98170 0.24493 0.56346 0 26.04635 14.88581 0.25397
0.87978 -0.13937 0.59109 0 29.37647 -6.08465 0.44383
4.49159 0.11125 1.42524 0 6.80619 29.21773 0.30980
-3.66404 -0.03916 2.52324 0 23.91485 18.11297 0.66442
10.59166 -0.06695 7.27727 0 -25.49080 15.81831 0.68410
-19.59872 0.23312 8.37415 0 0.48940 29.99601 0.42684
-1.85630 0.04333 0.94194 0 -24.37204 -17.49296 0.44683
-0.78573 0.11125 0.60869 0 28.65917 -8.86858 0.47867
1.29615 0.11267 0.86481 0 19.41521 22.87028 0.52834
2.51479 0.00806 1.07261 0 -22.30585 -20.06113 0.39646
-6.78326 0.00269 2.64130 0 18.01103 23.99172 0.38534
-1.88152 0.11913 1.09309 0 5.77179 29.43954 0.51307
-1.76266 0.06962 1.45397 0 22.61129 19.71622 0.71751
-0.68454 -0.03909 0.96005 0 -22.87690 -19.40741 0.79223
2.91007 -0.20420 1.47430 0 -25.55423 -15.71564 0.47926
19.75056 0.07474 9.90459 0 10.75091 -28.00746 0.50094
2.62972 -0.18045 1.37026 0 -14.99597 25.98309 0.48716
2.03289 0.23487 1.05357 0 -29.94987 1.73354 0.46513
24.97542 -0.05974 12.33090 0 6.12373 -29.36835 0.49342
1.90508 -0.25665 1.49684 0 -6.04204 -29.38526 0.69575
8.04881 -0.19779 2.41363 0 30.00000 -0.00839 0.29775
-1.90779 0.00650 0.85232 0 -12.61545 27.21857 0.39581
1.57706 0.03683 0.65458 0 0.56819 29.99462 0.35062
-0.89104 -0.23798 0.81961 0 25.88818 -15.15923 0.60220
5.29439 0.02855 2.95165 0 -29.99969 0.13722 0.54790
0.23105 -0.16536 0.40648 0 -10.13653 28.23563 0.39605
-17.64793 -0.06635 11.43737 0 -2.31513 -29.91054 0.64712
-9.81741 0.07395 8.40344 0 7.52806 29.04012 0.85162
27.11839 0.23871 18.77925 0 -10.77602 27.99781 0.69209
-2.13583 0.08099 0.86147 0 -28.46563 9.47142 0.36533
-0.67630 -0.07741 0.26835 0 -5.85192 -29.42372 0.22235
-2.28588 -0.07305 2.59844 0 29.43193 -5.81044 1.04153
0.33273 0.20696 0.27540 0 16.27616 25.20093 0.26133
10.04202 -0.25366 3.88463 0 14.69947 26.15197 0.38506
-0.47895 -0.23117 0.53951 0 -19.74841 22.58319 0.48660
-1.45126 0.08196 0.67028 0 -24.84992 -16.80719 0.38042
0.59880 -0.04678 1.21116 0 0.50192 -29.99580 1.03912
-0.91749 -0.21832 1.95752 0 -26.56304 -13.94292 1.44241
-2.12454 0.08299 1.28428 0 8.89409 28.65127 0.54701
-15.00121 0.06771 3.01992 0 -13.50167 26.79001 0.20111
-5.81138 -0.09559 2.65528 0 20.17865 -22.19960 0.45041
-8.89335 -0.13797 2.54560 0 -22.68170 19.63519 0.28461
-0.83779 -0.06592 1.25569 0 -28.92063 -7.97479 0.96255
-0.68846 0.02132 1.67146 0 26.92495 13.23053 1.37676
-2.40383 -0.02768 1.60877 0 9.81325 28.34960 0.61801
7.11248 -0.04632 3.70241 0 9.25017 -28.53830 0.51557
2.00845 -0.23655 1.10660 0 -2.97797 29.85183 0.49330
-5.30855 0.12124 3.46755 0 -14.19621 -26.42854 0.64199
-6.90557 0.13661 4.70939 0 4.55094 29.65281 0.67500
-12.71509 -0.19801 12.54929 0 28.30882 -9.93028 0.98397
7.83805 0.23228 3.87388 0 -17.53871 -24.33914 0.49036
10.79215 -0.06831 7.48434 0 -28.29516 -9.96916 0.69061
16.08228 -0.22544 6.82127 0 20.54697 21.85914 0.42345
-6.67680 0.20512 3.11760 0 -28.46210 9.48202 0.46188
25.51459 -0.10260 6.68778 0 26.88764 -13.30619 0.26210
11.76558 0.10086 5.30129 0 27.76856 -11.35372 0.44907
4.27851 -0.06114 2.20566 0 27.47466 -12.04755 0.50209
-0.60022 -0.19669 0.70414 0 -29.09517 7.31241 0.60376
-18.95615 -0.17121 8.38683 0 -25.73305 15.42110 0.44193
9.58765 0.23622 6.95838 0 -28.38841 -9.70043 0.66955
0.54096 0.09432 0.44277 0 -6.15061 29.36273 0.38947
-1.23468 -0.04310 1.04046 0 -2.44453 -29.90024 0.65490
11.04144 0.06256 6.16901 0 -28.09686 10.51505 0.55652
0.95115 0.19269 0.79099 0 7.31578 -29.09432 0.57317
-0.08853 -0.06124 0.81001 0 9.14420 28.57243 0.80685
-3.63157 0.20548 3.62270 0 -23.61032 -18.50818 0.96188
-2.97768 -0.16755 1.64925 0 -11.41569 27.74314 0.52514
15.28251 -0.18552 2.68374 0 26.50007 14.06222 0.26687
17.93828 0.02033 13.26561 0 1.44706 -29.96508 0.73843
-2.34361 0.07198 2.21368 0 29.99783 0.36099 0.86884
-1.28604 -0.16880 1.43966 0 -26.40230 -14.24494 0.88376
0.22279 -0.03429 0.96919 0 -29.76613 -3.73863 0.94600
-0.36425 0.15233 0.78790 0 10.24650 28.19591 0.74033
-0.06003 0.17991 0.85146 0 11.24214 27.81392 0.84993
0.50071 -0.26047 0.52616 0 29.27427 6.55876 0.47050
-2.57706 -0.17467 0.68590 0 16.77022 -24.87488 0.24819
17.16665 0.02170 10.11878 0 14.41982 -26.30720 0.58853
-2.95864 0.16193 2.50733 0 23.14656 19.08498 0.80293
0.77167 0.17005 0.50090 0 -8.02551 -28.90659 0.39660
17.27885 0.19393 5.42083 0 12.71097 27.17409 0.31336
3.75768 -0.10032 1.37129 0 26.41868 -14.21455 0.35274
0.13706 -0.21012 0.28328 0 0.11984 29.99976 0.27734
-0.21636 -0.01781 0.22526 0 26.64551 13.78465 0.21675
0.84468 -0.16620 0.76369 0 2.12002 -29.92500 0.58345
0.83988 -0.24968 0.57862 0 -14.02027 -26.52229 0.44313
21.50378 0.01031 10.41459 0 -16.69774 -24.92360 0.48389
-0.47278 -0.03801 0.31908 0 3.31439 29.81635 0.28850
-0.64277 -0.10199 0.60851 0 -7.12166 -29.14244 0.51191
0.52273 -0.23531 0.91388 0 7.03079 -29.16450 0.80992
1.82432 0.15444 0.83707 0 -19.88725 22.46101 0.40244
-2.78920 -0.12369 0.72596 0 29.90454 2.39139 0.24506
7.35762 -0.05172 4.11344 0 28.65193 -8.89195 0.55407
14.61664 -0.25349 9.68191 0 -29.90907 2.33405 0.66092
0.34580 -0.18060 1.62659 0 -25.31919 16.09156 1.53727
8.82402 -0.20417 4.77918 0 27.85107 -11.14980 0.53825
-0.30322 -0.24867 0.30268 0 24.98478 -16.60605 0.28967
14.27477 -0.25536 13.99721 0 28.02938 10.69364 0.97821
6.24285 -0.19305 2.89600 0 -29.41221 5.90947 0.45816
16.70719 0.03074 7.84469 0 29.98663 -0.89567 0.46880
-10.03518 -0.17734 4.61150 0 -2.02948 -29.93127 0.45737
-15.04841 0.16815 4.60815 0 29.98879 0.81986 0.30571
-5.84661 0.15307 4.81495 0 -24.87692 16.76720 0.81188
1.78553 -0.04986 0.75777 0 -3.59319 29.78404 0.37038
0.39056 -0.19465 0.21326 0 -3.34701 -29.81271 0.19868
4.53241 0.09948 1.33064 0 21.16016 21.26611 0.28678
3.24592 0.11440 2.69048 0 10.47474 28.11192 0.79223
6.20788 -0.22647 2.84250 0 -11.75866 27.59953 0.45216
22.07731 -0.00095 16.89047 0 28.88097 8.11723 0.76434
11.94366 0.15271 8.49982 0 -3.52295 -29.79243 0.70925
0.69786 -0.22472 0.50566 0 26.37991 14.28638 0.41471
0.23198 -0.15416 0.89500 0 -20.16178 -22.21492 0.87185
-0.06855 -0.17779 0.74232 0 14.20534 26.42363 0.74058
-25.43845 -0.20872 10.29528 0 2.12448 29.92468 0.40452
-2.02288 -0.22197 0.89897 0 6.90491 29.19456 0.39850
0.35937 0.03432 0.84871 0 -12.07395 -27.46306 0.79870
4.30007 0.00441 2.87857 0 29.09201 -7.32494 0.65209
13.72077 0.18106 9.46808 0 26.27300 -14.48204 0.68830
15.78771 0.23023 4.57712 0 21.62460 -20.79367 0.28950
-0.23062 -0.18579 0.73872 0 29.65372 -4.54500 0.71983
-10.99972 -0.10636 7.20948 0 23.44566 -18.71633 0.65281
-1.48104 0.03328 1.18421 0 1.61303 -29.95660 0.66273
0.44581 -0.17690 1.51049 0 29.47613 -5.58192 1.37961
2.86219 0.19449 1.62551 0 -1.52029 29.96145 0.53619
1.89147 -0.16077 1.44000 0 -26.50005 14.06226 0.67308
1.05346 -0.03107 0.58370 0 -29.75655 3.81418 0.40193
0.83854 0.26171 1.20080 0 -8.90674 -28.64734 0.92013
18.94183 -0.24508 8.22897 0 6.39673 29.31010 0.43394
18.57961 -0.11239 6.26250 0 -4.70186 -29.62925 0.33672
-0.24740 0.05594 0.62838 0 -14.51646 26.25400 0.60999
25.90924 0.03138 9.08439 0 11.95293 27.51595 0.35050
1.45556 -0.21042 0.38077 0 -29.99089 0.73927 0.22018
0.34618 -0.02122 0.44769 0 -10.18636 -28.21769 0.42307
-1.51892 -0.08609 1.17156 0 0.84543 -29.98808 0.64430
9.16130 -0.23262 3.73312 0 21.65329 -20.76379 0.40520
-5.85907 -0.04637 1.32542 0 12.87454 27.09698 0.22319
-25.08839 0.11009 20.56229 0 27.82301 -11.21964 0.81900
-10.22653 -0.13890 9.36328 0 27.85826 -11.13181 0.91129
-3.00763 -0.00916 1.45584 0 -15.05151 -25.95095 0.45944
10.95511 0.23451 3.03193 0 -13.13187 26.97321 0.27579
24.45907 -0.14248 6.25958 0 -15.57147 25.64233 0.25590
-0.03026 0.22890 1.09272 0 28.94796 7.87500 1.09222
22.01645 -0.10304 8.88612 0 -2.97479 -29.85215 0.40332
-1.80510 -0.25806 2.22615 0 -28.12004 -10.45290 1.07882
20.81527 -0.01402 4.54586 0 23.96547 -18.04594 0.21836
-10.74374 0.08218 6.00005 0 29.70942 4.16534 0.55615
-26.30112 -0.02160 39.95361 0 3.35408 -29.81191 1.51803
1.64564 -0.19742 0.83535 0 16.63016 24.96874 0.43387
2.25679 0.04864 1.96589 0 -18.39312 23.70007 0.79646
-17.93822 -0.12872 8.15011 0 -12.73970 27.16063 0.45375
7.55033 0.04881 3.95639 0 -29.07234 7.40263 0.51956
-2.42415 -0.22770 1.53094 0 24.92481 16.69592 0.58388
0.30288 -0.07096 0.48545 0 10.81426 -27.98306 0.46461
0.51371 -0.09467 0.29046 0 28.69665 8.74657 0.25840
-0.61149 -0.22181 0.63531 0 -0.49800 29.99587 0.54203
13.58957 0.25698 4.35135 0 -25.33654 -16.06424 0.31949
8.50924 -0.03758 5.79711 0 -25.88404 15.16629 0.67669
3.22818 0.25546 2.49470 0 29.99986 0.09210 0.73824
-1.53131 0.25459 0.67208 0 -3.10156 -29.83924 0.36754
1.51484 -0.16431 0.76668 0 28.52543 9.28976 0.42248
-1.30689 0.15579 0.52605 0 -6.90491 29.19456 0.31976
-3.22566 -0.13242 1.29347 0 11.49276 27.71130 0.38329
1.48404 -0.11242 0.75113 0 26.97629 13.12553 0.41982
-7.80490 0.06988 3.89363 0 -5.68025 -29.45734 0.49492
-7.27016 -0.09557 4.19106 0 -26.94077 -13.19830 0.57118
2.45064 -0.04008 0.67917 0 -14.86464 -26.05844 0.25675
-1.53752 -0.08298 1.13567 0 10.06180 28.26235 0.61924
-0.39492 -0.12202 0.24605 0 22.69174 -19.62358 0.22888
2.19118 -0.17445 0.49894 0 29.39844 5.97761 0.23906
21.20462 0.09236 7.39492 0 23.18487 -19.03843 0.34849
0.48048 -0.23147 0.48962 0 -25.80857 15.29437 0.44134
0.70286 -0.25232 0.56183 0 20.84955 -21.57073 0.45968
-11.66338 -0.01579 4.00639 0 -16.99183 -24.72403 0.34239
-4.25350 -0.26249 1.31802 0 -29.30214 -6.43309 0.30197
-1.52376 0.11554 0.63913 0 -29.97877 -1.12840 0.35077
-1.48797 0.12451 1.51101 0 9.86162 -28.33282 0.84288
5.19518 -0.10121 5.09056 0 -27.48281 -12.02893 0.96223
-0.92545 0.12874 1.43663 0 27.46626 12.06667 1.05441
10.65972 0.04640 3.32928 0 22.69194 19.62334 0.31111
1.44465 -0.14024 0.50057 0 -11.32135 -27.78177 0.28502
-1.43378 -0.13731 0.78374 0 11.44227 -27.73219 0.50049
-3.55126 -0.22299 2.02804 0 -28.79103 -8.43070 0.54071
-3.35498 0.18603 0.75520 0 16.16906 -25.26977 0.21588
-2.55897 0.02213 1.03569 0 0.17930 29.99946 0.37711
-2.77829 0.18534 1.96304 0 26.93719 -13.20560 0.66487
-14.62140 -0.07272 8.59425 0 19.13626 -23.10419 0.58650
-2.36964 0.23797 0.67079 0 -29.99232 -0.67893 0.26102
5.29982 -0.08135 3.90722 0 -6.31759 -29.32726 0.72456
-15.34957 0.03541 8.03972 0 -26.22062 -14.57666 0.52276
1.48688 0.22969 0.48512 0 17.44869 24.40375 0.27083
-0.38125 -0.12460 0.61150 0 -9.45206 -28.47206 0.57139
1.07861 0.02221 0.69840 0 23.39710 -18.77700 0.47489
-8.76361 0.12757 5.46163 0 15.59744 -25.62655 0.61928
-0.95527 -0.10142 1.02296 0 28.77662 8.47974 0.73973
-2.38968 0.13103 1.60849 0 28.67054 -8.83177 0.62097
-0.64359 0.00897 1.46913 0 8.38070 -28.80562 1.23540
-3.65438 0.14092 1.62825 0 28.34632 -9.82274 0.42982
2.09193 -0.01177 0.74380 0 -22.88587 -19.39683 0.39096
-8.08726 -0.18609 4.59263 0 26.92857 13.22316 0.56368
-10.53120 0.21197 3.50859 0 14.15961 26.44817 0.33182
-5.42476 -0.07334 1.74315 0 -12.13447 -27.43638 0.31609
-3.52293 0.17525 1.24264 0 29.61550 4.78771 0.33952
0.72369 -0.12399 0.59420 0 20.55814 21.84863 0.48142
2.02297 0.05813 1.04622 0 -19.32926 -22.94297 0.46372
-1.83439 -0.08221 0.53778 0 -14.84191 26.07140 0.40676
-1.61338 0.19118 0.51213 0 -20.24195 22.14189 0.26994
-0.59942 -0.02122 0.39307 0 -27.02165 -13.03189 0.33717
6.48878 -0.08956 3.46113 0 27.38432 -12.25149 0.52727
-7.34463 0.07682 3.10486 0 -18.24669 -23.81298 0.41899
-7.80813 0.23839 2.49255 0 -27.55000 -11.87423 0.31679
-9.54327 -0.12288 3.40183 0 -12.70472 -27.17702 0.35466
0.60380 0.24878 0.35909 0 29.76530 3.74521 0.30744
-1.96549 -0.21337 0.80463 0 6.42654 29.30358 0.36498
0.54975 0.21591 0.49322 0 -28.96251 7.82131 0.43223
0.30199 0.18327 0.70517 0 29.89448 2.51394 0.67506
-1.70159 -0.25981 1.00515 0 5.19592 -29.54662 0.50934
-5.50904 -0.22197 2.49883 0 28.16014 -10.34440 0.44637
2.11641 -0.07174 0.69052 0 -19.15871 -23.08558 0.29516
19.12475 -0.14240 7.00764 0 -24.06720 17.91004 0.36605
-1.76982 -0.23802 1.45674 0 27.32950 12.37330 0.71668
-21.25603 0.13352 5.06455 0 4.97842 29.58404 0.23821
22.19842 0.24212 10.55622 0 19.61658 22.69779 0.47516
1.42763 -0.26295 1.89643 0 -18.52631 -23.59610 1.08804
-0.22984 -0.12769 1.10100 0 -3.43224 -29.80301 1.07303
-26.32113 0.21691 19.70667 0 18.87257 23.32008 0.74823
2.01540 -0.12866 0.47803 0 -5.17963 29.54947 0.21262
4.04826 0.20150 1.65510 0 -29.67947 4.37371 0.39713
5.23651 -0.19391 3.87129 0 29.99282 0.65608 0.72627
3.84693 0.24274 2.08774 0 -8.85514 28.66333 0.52535
22.88894 -0.16595 8.61641 0 -28.55139 -9.20967 0.37621
1.31557 0.15972 0.95490 0 24.53639 -17.26168 0.57792
0.16245 -0.01062 0.58139 0 -17.57346 24.31406 0.57387
4.52905 -0.21464 1.11753 0 2.56287 -29.89033 0.24102
-1.39359 -0.22342 0.61267 0 -25.29107 16.13573 0.35729
15.18611 -0.11075 3.77544 0 -14.93782 26.01657 0.24827
2.07071 0.03158 1.09614 0 -15.42009 25.73365 0.47676
19.83816 0.16648 9.50422 0 -24.34193 17.53484 0.47858
2.20650 0.22466 0.51591 0 16.83837 24.82880 0.21306
-0.51028 -0.14636 0.79098 0 4.69898 -29.62971 0.74551
19.06679 -0.03422 4.14917 0 19.70150 -22.62412 0.21754
21.56374 -0.09130 14.00312 0 -28.82766 -8.30457 0.64876
-15.27278 0.24513 13.94295 0 29.98969 0.78637 0.91103
-7.79586 -0.10711 3.35805 0 -29.14470 -7.11243 0.42736
1.94987 -0.15020 0.81943 0 23.36874 18.81228 0.37404
8.03695 0.19029 2.53883 0 27.66989 -11.59212 0.31363
3.33307 0.18575 0.69591 0 -11.71244 27.61917 0.20017
-1.38223 0.19213 1.35971 0 29.73511 3.97785 0.79705
-2.06102 0.23295 1.17990 0 29.17927 -6.96922 0.51511
0.33116 -0.20541 0.78902 0 -15.44102 -25.72110 0.74902
-26.29914 0.03481 8.55956 0 -5.69647 29.45421 0.32538
14.26577 -0.10530 6.71973 0 -20.02568 22.33768 0.46999
13.18962 0.14436 4.26290 0 -26.16445 -14.67725 0.32243
9.29967 -0.09469 3.90032 0 28.73783 -8.61029 0.41712
0.07369 0.06730 0.58649 0 25.32792 16.07783 0.58491
