15.25607 -0.09825 10.99232 0 -22.33578 20.02780 0.71905
0.57515 0.02720 1.37114 0 -23.24176 -18.96893 1.18857
4.84300 -0.22161 5.45378 0 -2.74033 -29.87458 1.10291
-0.79923 0.26358 0.92520 0 -5.88798 -29.41652 0.72276
-21.11905 -0.08147 13.60914 0 -25.40530 15.95527 0.64376
-0.30145 0.22330 0.24549 0 29.85476 2.94845 0.23507
13.99044 -0.11740 7.91241 0 29.99238 -0.67625 0.56420
13.14328 0.17549 6.73372 0 -27.42353 12.16346 0.51095
21.64913 0.05550 12.94969 0 -29.84666 -3.02929 0.59761
4.36583 0.11394 1.71706 0 -8.72542 -28.70308 0.38350
-0.53866 0.07113 0.79383 0 14.21308 26.41947 0.69890
-9.24570 0.23160 8.96575 0 -16.08817 -25.32135 0.96415
-11.45441 -0.25740 5.27934 0 -21.13385 -21.29226 0.45926
-2.36740 -0.19168 0.71453 0 3.18406 -29.83055 0.27818
-1.39699 -0.21170 0.59692 0 -9.41634 28.48390 0.34754
3.55405 -0.16972 2.26003 0 28.07915 10.56226 0.61221
-11.86382 -0.12123 6.45238 0 23.80354 18.25901 0.54204
-1.20511 0.05178 1.07615 0 0.68857 -29.99210 0.68725
-1.03080 0.00525 0.59194 0 -19.73516 -22.59477 0.41223
0.97714 -0.19872 0.41619 0 6.70106 -29.24202 0.29776
4.78799 -0.11551 1.25658 0 -18.04750 -23.96430 0.25703
4.49379 0.06402 3.62326 0 3.87389 29.74883 0.78713
-2.80334 0.25643 2.10823 0 -4.51728 29.65795 0.70840
1.47366 -0.20477 0.76147 0 23.57879 -18.54833 0.42765
2.83078 -0.08992 0.62803 0 6.40338 -29.30865 0.20936
6.69865 -0.01509 3.71148 0 -18.59576 -23.54140 0.54808
8.70140 0.08815 1.91352 0 -29.98757 0.86366 0.21869
-0.31567 0.19280 0.75509 0 27.62933 -11.68847 0.72007
0.38676 0.19054 0.56068 0 11.31133 -27.78586 0.52294
3.49671 -0.04242 5.43803 0 -16.82634 24.83695 1.49529
-1.94961 -0.04209 0.70025 0 -29.99980 0.11030 0.31968
-3.46318 -0.04575 2.23019 0 30.00000 0.00989 0.61874
-12.35036 -0.23126 7.70127 0 -18.65535 23.49421 0.62161
-1.62089 -0.06975 0.64560 0 -27.03560 -13.00293 0.33914
1.38143 -0.21842 1.48391 0 21.90515 20.49791 0.87017
-1.40457 -0.21808 0.63369 0 -28.54977 9.21469 0.36760
1.98926 0.01409 1.02136 0 -28.44070 -9.54601 0.45882
6.73429 -0.02006 3.95914 0 -25.33719 16.06321 0.58161
-23.81218 0.23826 14.31415 0 -21.74098 -20.67195 0.60068
-1.72037 -0.02747 0.68994 0 11.28022 27.79850 0.34684
19.20037 -0.25654 4.33566 0 -29.99939 0.19186 0.22572
-0.05434 -0.08173 0.62339 0 9.53920 -28.44299 0.62247
22.91494 0.20331 19.33691 0 27.04208 -12.98945 0.84311
-0.36389 0.13970 0.86729 0 -8.60795 28.73853 0.81501
-13.20685 -0.05936 4.17145 0 -17.77077 24.17023 0.31511
19.59781 0.25234 11.70843 0 -23.88871 18.14744 0.59674
-10.83799 -0.23049 3.68558 0 -22.10593 20.28122 0.33877
-1.62607 -0.25226 0.78756 0 -10.19394 28.21495 0.41264
-6.46931 0.18327 1.36740 0 12.15802 -27.42595 0.20911
4.09300 -0.18209 9.35941 0 -23.08909 -19.15447 2.22139
3.99929 -0.02529 2.69299 0 23.50625 18.64017 0.65331
-0.58897 0.18310 0.33479 0 -10.65195 -28.04525 0.28852
3.46734 -0.23196 0.92117 0 25.64756 -15.56286 0.25534
6.99684 0.12199 3.08215 0 -2.32817 -29.90952 0.43618
14.43453 -0.16208 7.29135 0 -28.53382 -9.26398 0.50402
0.77874 0.12244 0.70051 0 9.37621 -28.49714 0.55272
-23.29507 0.24000 10.53442 0 22.38500 -19.97277 0.45191
-17.37183 -0.01073 7.79763 0 17.66331 -24.24886 0.44823
-13.58623 -0.23193 5.06487 0 -29.97290 1.27479 0.37192
-0.01807 0.01987 0.83306 0 -29.57634 5.02395 0.83292
11.71402 0.07895 8.65539 0 22.50008 -19.84304 0.73628
2.79283 -0.15772 1.54415 0 22.55615 -19.77929 0.52057
-3.12306 0.22575 1.96104 0 -10.27257 28.18642 0.59809
-7.64678 0.14211 1.84600 0 -11.16724 27.84408 0.23957
-6.42165 0.16008 1.81777 0 -14.55913 26.23036 0.27987
-6.90032 0.04493 3.68189 0 -29.43752 -5.78207 0.52816
1.87807 0.05820 0.57112 0 21.78224 20.62848 0.26854
22.91261 -0.18868 18.38529 0 7.96953 28.92208 0.80171
-3.41353 0.11418 1.27427 0 -23.81874 -18.23918 0.34905
8.30331 0.15559 3.30842 0 -16.10375 25.31145 0.39571
-8.02214 0.22033 3.20117 0 -10.93774 -27.93503 0.39610
0.22368 0.24439 0.21256 0 15.38528 25.75448 0.20744
-1.45768 0.04933 0.86704 0 -21.76729 20.64425 0.49056
-4.04501 -0.06630 3.27726 0 19.22199 -23.03291 0.78658
-0.31335 0.09068 0.48120 0 9.75636 -28.36923 0.45920
-5.89362 0.22468 2.67672 0 28.91197 -8.00612 0.44789
-1.51038 -0.20127 0.65372 0 17.48473 -24.37794 0.36099
-19.47736 0.06878 6.96004 0 -10.82571 27.97864 0.35701
-11.38097 -0.19258 6.32779 0 -0.50123 -29.99581 0.55395
-0.70427 0.22548 0.51364 0 20.88057 21.54070 0.41999
0.31018 0.18877 0.71078 0 -29.67222 4.42259 0.67888
1.93198 0.04611 1.07507 0 29.83099 -3.17990 0.49425
1.19002 -0.12268 0.58921 0 -18.52983 -23.59334 0.37913
6.29329 -0.15390 2.40337 0 11.07240 -27.88193 0.37729
2.24996 0.10341 1.84847 0 1.01560 29.98281 0.75084
-2.34068 0.23867 1.22324 0 -24.47477 -17.34893 0.48069
4.78621 0.20934 3.54180 0 -7.29555 -29.09940 0.72440
1.32614 0.03881 0.60483 0 -22.19906 -20.17924 0.36426
5.95468 0.16158 2.97152 0 -7.60341 -29.02048 0.49221
7.25019 0.16495 2.99704 0 27.62230 11.70505 0.40961
24.87230 0.18767 9.23710 0 0.80170 -29.98929 0.37121
14.86902 -0.05445 4.84104 0 -19.11782 -23.11945 0.32499
-0.14571 0.05435 0.50211 0 -26.40605 14.23799 0.49686
0.25152 0.23961 0.40423 0 -18.70317 -23.45616 0.39203
7.35693 0.01943 3.53057 0 -26.04871 -14.88169 0.47562
-8.57650 0.05144 4.62176 0 29.97723 -1.16870 0.53535
-6.13794 -0.06261 1.34689 0 28.40620 -9.64820 0.21680
1.49152 0.15989 0.64345 0 18.09930 23.92520 0.35841
3.79793 -0.00655 1.37902 0 -29.51735 -5.35966 0.35116
11.38135 0.21011 8.58026 0 4.10049 -29.71844 0.75106
-1.51735 -0.10328 1.21370 0 23.80480 18.25737 0.66792
-4.71542 0.15208 0.86752 0 29.59325 -4.92339 0.18016
-9.94306 -0.13318 5.31091 0 -29.98406 -0.97795 0.53154
2.52172 0.15915 0.99589 0 7.30075 29.09809 0.36727
13.64555 -0.19183 4.50196 0 11.88290 27.54626 0.32919
-1.09754 0.10657 1.01592 0 -18.51055 -23.60846 0.68425
-1.87533 -0.03891 1.50330 0 24.44950 -17.38454 0.70742
1.31694 -0.08814 0.71527 0 -23.05300 -19.19790 0.43262
4.44731 -0.14085 2.40190 0 -6.15840 29.36110 0.52708
-0.08984 -0.10133 0.73465 0 1.78808 -29.94666 0.72049
-0.00756 0.22988 0.80304 0 28.00628 10.75400 0.80301
9.60203 -0.10261 8.50345 0 17.17272 -24.59873 0.88088
-2.29014 -0.11578 1.48874 0 -5.01290 29.57822 0.59578
21.83138 0.14833 14.15443 0 -23.20179 -19.01780 0.64775
0.74918 -0.07205 1.12680 0 29.61341 -4.80064 0.90182
-21.70716 0.04406 6.71290 0 8.52822 -28.76229 0.30908
5.09912 0.02314 5.44502 0 3.74047 29.76590 1.04793
-0.13124 -0.21645 0.85137 0 28.33756 9.84797 0.84418
-6.61715 0.05820 8.00188 0 -23.26487 18.94059 1.19573
0.36982 -0.19700 0.44748 0 14.07711 -26.49217 0.41971
-2.17049 0.23312 0.63084 0 29.92338 2.14270 0.26416
-3.57878 0.16556 0.87994 0 9.19692 28.55550 0.23705
-1.19419 -0.06031 1.21830 0 29.25800 6.63095 0.78221
1.41378 0.09843 0.56837 0 -26.95510 13.16900 0.32830
2.55992 -0.09622 1.48403 0 -11.93962 -27.52173 0.54003
18.50831 0.17243 10.74900 0 6.87840 29.20082 0.58000
-6.27091 -0.01900 7.48150 0 11.09864 -27.87149 1.17820
-2.17633 0.12658 1.58735 0 -20.41716 21.98044 0.66279
14.59805 -0.15813 3.92521 0 -29.78605 -3.57645 0.26844
0.79371 0.23585 1.11464 0 -29.79557 3.49626 0.87308
1.28751 -0.21063 0.97937 0 -19.02434 -23.19643 0.60081
1.51703 0.00126 0.69909 0 -24.77474 -16.91781 0.38486
4.81722 -0.13444 1.71855 0 29.98481 -0.95442 0.34943
9.20423 0.23755 4.03923 0 20.66103 21.75136 0.43639
4.33235 -0.23663 2.82648 0 21.09745 -21.32833 0.63577
0.34527 -0.07986 0.25327 0 -7.08424 29.15156 0.23943
-4.35333 -0.26291 1.80032 0 14.68493 -26.16014 0.40314
2.47332 0.23201 1.81177 0 18.05056 23.96200 0.67918
15.58278 -0.17038 10.63711 0 21.58309 20.83675 0.68129
2.45081 -0.16407 0.43979 0 -29.23320 -6.73945 0.16629
12.61483 0.04492 2.49259 0 10.76178 -28.00329 0.23874
-1.54020 -0.09047 1.13239 0 8.27188 28.83706 0.61672
0.04726 -0.24072 0.67916 0 22.43462 -19.91702 0.67841
-1.01321 -0.06300 0.66369 0 -19.72487 22.60375 0.46626
-4.38768 -0.25555 3.15592 0 -11.20256 27.82989 0.70146
-2.40557 0.07351 1.94745 0 10.07968 28.25597 0.74760
-0.17329 0.09926 0.54982 0 -22.80789 19.48847 0.54175
0.56276 -0.00725 0.33170 0 4.32391 29.68676 0.28911
15.23323 0.24957 5.02413 0 -18.52111 -23.60018 0.32925
1.40398 -0.20157 2.33383 0 26.56573 -13.93778 1.35398
-9.90693 -0.23982 2.13396 0 29.36859 6.12255 0.21454
-18.78451 0.05371 16.57292 0 29.45552 -5.68965 0.88108
-0.65151 -0.10866 0.75418 0 -16.49396 -25.05892 0.63192
-10.62780 -0.20977 3.91359 0 -13.25046 26.91515 0.36675
-0.25083 -0.04717 0.60459 0 -22.35901 20.00186 0.58643
7.73276 0.19494 3.20061 0 -28.08937 -10.53506 0.41060
0.48637 -0.12744 0.34395 0 29.07110 -7.40750 0.30933
24.51054 0.11537 21.43556 0 18.96306 -23.24656 0.87387
6.98752 0.10083 3.57905 0 8.78645 28.68446 0.50713
-1.22126 -0.15648 1.00487 0 14.61941 -26.19681 0.63666
-2.99513 0.23025 1.97581 0 0.47282 -29.99627 0.62578
-0.92319 0.04035 0.45772 0 -29.73353 -3.98962 0.33636
7.10141 -0.07426 2.91371 0 24.91642 -16.70845 0.40641
-5.73763 0.23789 1.04065 0 13.43387 26.82408 0.17888
4.86282 0.15248 0.93644 0 17.41151 -24.43029 0.18884
-0.89091 -0.14128 1.77889 0 28.74393 8.58991 1.32825
-5.44449 0.26231 2.36546 0 13.72766 -26.67492 0.42738
-15.48932 -0.24945 14.88168 0 16.37599 25.13617 0.95883
-0.56731 -0.12765 0.46050 0 -17.95028 -24.03721 0.40056
7.67458 -0.10612 5.97165 0 -28.79892 -8.40370 0.77165
5.10979 0.18643 1.13600 0 14.94808 26.01067 0.21832
-18.72204 0.19579 13.72708 0 -13.16750 26.95583 0.73223
0.02260 -0.22142 1.25886 0 26.90600 -13.26904 1.25854
1.07929 0.08816 0.24896 0 -29.22679 6.76718 0.16932
-0.51935 0.02682 0.35422 0 19.47908 -22.81590 0.31438
-0.92411 -0.07587 0.94225 0 -28.30711 9.93516 0.69205
-2.59986 0.03955 1.82860 0 27.53344 -11.91259 0.65648
2.27501 0.23589 0.62315 0 -22.57904 19.75315 0.25085
2.37200 0.26233 1.64374 0 -27.75137 11.39568 0.63859
3.90061 0.14768 9.66819 0 -9.52552 -28.44757 2.40101
1.87072 -0.24408 2.61869 0 29.36471 6.14114 1.23454
1.05572 -0.12282 0.64945 0 28.78230 8.46046 0.44666
10.07934 0.12150 5.08122 0 16.19523 25.25301 0.50176
0.16203 0.02909 0.56569 0 -6.29949 29.33115 0.55841
4.54902 -0.25425 1.52711 0 -15.99784 -25.37852 0.32802
7.27787 -0.13930 2.40100 0 29.58689 -4.96141 0.32698
-11.00025 0.07148 5.92715 0 -21.38484 -21.04017 0.53670
-12.71850 -0.07139 5.00495 0 27.43212 12.14408 0.39243
0.18479 -0.05511 0.85800 0 -24.45198 -17.38105 0.84372
0.96324 0.12351 0.47715 0 -13.58251 26.74912 0.34373
-17.79341 0.05487 10.42379 0 23.09547 -19.14678 0.58499
-0.26550 0.26286 0.45931 0 29.02256 7.59547 0.44394
0.27758 0.10163 0.34514 0 29.76130 3.77694 0.33258
8.27720 -0.00887 6.32195 0 -20.42543 21.97275 0.75833
3.23938 -0.19362 2.21125 0 22.02170 -20.37265 0.65236
-6.03184 0.20345 2.50720 0 22.88208 19.40129 0.41016
0.41322 -0.22759 0.27259 0 -4.85954 -29.60380 0.25195
0.37057 0.07418 1.02846 0 -29.88211 -2.65696 0.96438
2.57500 0.17307 0.71158 0 29.33723 -6.27113 0.25768
-7.00540 0.04235 2.45407 0 -29.99866 0.28390 0.34693
14.46409 0.04843 3.75622 0 -18.08604 -23.93523 0.35791
-0.21681 0.03513 0.20481 0 -21.87127 -20.53406 0.20017
-16.25881 -0.04291 9.56863 0 29.14665 -7.10441 0.58749
-5.66497 -0.05844 2.21858 0 -21.55307 20.86781 0.38582
5.65751 -0.07133 2.01971 0 -29.74656 -3.89132 0.35175
-0.86095 0.15900 1.02502 0 -28.66383 8.85353 0.77682
-1.33439 0.16410 1.21315 0 24.99268 16.59416 0.72755
-2.42311 -0.13186 1.57003 0 3.64693 -29.77751 0.59905
-4.97768 -0.02796 1.35529 0 -17.32017 24.49513 0.26708
-7.96683 -0.10910 1.84696 0 -17.68279 24.23466 0.23023
-13.81994 0.17153 6.28634 0 11.22818 27.81956 0.45380
13.29226 -0.07178 13.42612 0 -29.59443 -4.91624 1.00727
1.04554 -0.21645 1.10051 0 -29.96566 1.43497 0.76070
10.04241 0.13232 2.06816 0 -20.09862 22.27208 0.21498
0.66502 -0.19087 0.59591 0 -29.05861 7.45635 0.49623
6.55468 -0.14466 4.37475 0 -26.88237 13.31683 0.65986
1.53113 0.24582 1.05535 0 29.84858 3.01040 0.57715
-18.58526 -0.20870 11.07292 0 -27.18299 -12.69193 0.59501
-6.10392 0.16177 5.15364 0 -8.71779 28.70540 0.83327
-15.96612 -0.25711 10.86326 0 26.49280 -14.07593 0.67914
-7.98000 0.09471 3.34822 0 -9.07719 -28.59379 0.41644
-13.94883 0.01584 11.15306 0 -3.52164 29.79258 0.79758
3.51213 0.23516 0.97140 0 -27.16200 -12.73679 0.26616
1.41368 -0.13556 0.66018 0 29.68294 -4.35009 0.38136
21.04298 -0.13553 6.52542 0 -29.99140 -0.71844 0.30991
-16.50769 0.25457 13.73453 0 -27.87881 11.08025 0.83055
11.75428 0.05894 6.71077 0 18.32822 23.75029 0.56895
1.51997 -0.05250 0.85369 0 28.54451 9.23098 0.46929
0.15069 0.09443 0.76134 0 27.98273 10.81513 0.75284
-22.68045 0.07891 16.03838 0 21.89199 20.51196 0.70653
0.89807 -0.09536 0.92898 0 -14.93217 26.01981 0.69121
-16.03068 0.02554 14.68173 0 14.29340 -26.37610 0.91413
11.86917 0.07714 4.34382 0 -29.85860 2.90933 0.36482
4.83356 0.18726 2.92759 0 -29.42649 -5.83794 0.59317
4.64030 -0.00823 3.00319 0 22.58508 19.74625 0.63276
2.63257 0.25461 1.26440 0 13.47125 26.80532 0.44907
-0.30644 0.11955 1.00090 0 -3.64187 29.77813 0.95698
-0.69349 0.19467 0.32852 0 -26.93587 13.20829 0.27002
-0.44277 -0.14705 0.46914 0 -29.72915 4.02215 0.42898
2.31356 0.08627 1.16684 0 -25.73180 15.42317 0.46315
-0.56669 0.00334 0.39140 0 10.61658 -28.05866 0.34056
-0.81249 0.08292 0.60976 0 -28.06994 10.58672 0.47330
2.00567 0.16858 0.94802 0 12.91442 -27.07799 0.42310
3.78470 -0.08706 1.33429 0 7.99842 28.91410 0.34095
-1.36455 -0.03794 0.44125 0 11.06462 -27.88502 0.26097
-0.18140 0.15406 0.72539 0 29.75393 -3.83454 0.71374
2.17888 0.20006 0.70462 0 29.74131 -3.93119 0.29399
-4.91746 0.01166 4.96554 0 26.36244 -14.31859 0.98957
-0.86806 -0.17699 0.51056 0 -16.81569 -24.84417 0.38563
2.24874 -0.01137 0.61611 0 -2.60835 29.88639 0.25044
-22.00051 -0.17994 4.59048 0 -3.37552 29.80949 0.20867
-0.58244 0.20037 0.58019 0 -23.98947 -18.01404 0.50138
4.44817 -0.11229 3.38206 0 -6.27805 29.33575 0.74189
1.26575 -0.05401 0.56872 0 -24.05931 -17.92064 0.35265
0.77260 0.14451 1.22519 0 -9.72360 -28.38048 0.96955
-8.16532 -0.26188 6.64405 0 10.32462 28.16740 0.80772
-3.00139 -0.17013 1.07025 0 -20.22817 22.15449 0.33840
0.18330 -0.21742 0.56343 0 -10.42479 -28.13048 0.55420
-20.98372 0.24317 4.84892 0 -26.48834 14.08431 0.23103
1.06145 -0.08161 0.63614 0 -0.70175 -29.99179 0.43627
1.71326 -0.06426 0.97210 0 -29.98183 1.04399 0.49010
6.98877 -0.09576 3.74753 0 -28.89329 8.07327 0.53091
-3.05473 -0.16404 1.17589 0 4.15272 29.71119 0.36591
-1.71240 -0.05494 0.89210 0 29.45795 -5.67706 0.44998
-24.40938 -0.18182 17.67042 0 -29.50012 -5.45373 0.72338
12.97945 -0.01644 3.03890 0 -24.33554 17.54370 0.23365
-9.17918 -0.20983 5.02889 0 -7.64583 -29.00933 0.54472
-1.08807 -0.16060 0.97390 0 26.41450 -14.22232 0.65905
1.51980 -0.00458 0.41270 0 27.96795 10.85328 0.22700
0.63412 0.04403 1.01178 0 18.52394 -23.59796 0.85448
2.05994 0.18631 2.21003 0 -29.35092 6.20671 0.96518
-0.98433 0.23970 0.39640 0 13.66614 26.70649 0.28258
-0.57269 0.17760 1.12239 0 9.98682 28.28893 0.97400
-3.28747 0.19609 1.24178 0 -3.14864 -29.83431 0.36171
1.39331 -0.07095 0.56260 0 29.87848 -2.69754 0.32813
-2.38811 -0.23792 2.22197 0 -29.59713 4.89996 0.85827
-2.15593 0.12055 1.06802 0 26.76554 13.55014 0.44946
-0.02142 -0.22712 0.62349 0 -29.46443 5.64333 0.62335
-0.35880 0.19419 0.81450 0 18.40298 23.69241 0.76666
-1.53325 0.08718 1.37180 0 -29.79674 3.48634 0.74945
17.90976 -0.21068 12.30338 0 -11.22515 27.82078 0.68597
-0.37338 -0.24885 1.09268 0 -25.42125 -15.92985 1.02366
-1.88868 0.02757 1.61354 0 28.84038 -8.26028 0.75507
4.34980 -0.12450 1.22040 0 28.54407 -9.23233 0.27361
17.49711 -0.22460 11.62465 0 -25.39183 -15.97669 0.66337
-0.20727 -0.17935 0.22215 0 16.41743 -25.10913 0.21753
4.39382 -0.01046 1.11427 0 -8.72144 28.70429 0.24738
15.35115 -0.13345 3.65747 0 18.12869 23.90294 0.23795
1.16389 0.10180 0.45304 0 -10.18822 -28.21702 0.29533
15.13799 -0.08395 9.69427 0 -17.28737 -24.51829 0.63908
3.71991 0.00345 1.05977 0 -24.43957 -17.39849 0.27518
-2.13233 -0.20079 0.98855 0 29.52074 5.34095 0.41986
3.24798 -0.12083 2.65872 0 -19.34890 -22.92640 0.78238
6.97399 -0.23060 8.00372 0 -6.80420 29.21819 1.13608
0.44282 -0.10503 1.20019 0 28.85922 -8.19422 1.09742
-0.16431 -0.02598 1.07237 0 19.79427 -22.54300 1.05818
-2.29908 -0.11651 1.74278 0 24.44169 -17.39551 0.69521
-2.91936 -0.00288 1.18598 0 -4.04533 29.72600 0.38443
-2.66472 0.24960 1.29819 0 29.79509 -3.50040 0.45618
-6.26306 0.21250 3.37264 0 -14.86388 -26.05888 0.53185
5.17966 0.24256 2.22755 0 5.71680 -29.45027 0.42236
-12.01682 0.19029 7.64528 0 -22.00476 20.39094 0.63410
0.06424 -0.02898 0.47259 0 26.77510 13.53122 0.47162
9.13682 0.14317 3.38437 0 -26.51517 -14.03374 0.36834
-0.10874 0.00031 0.49176 0 21.97308 -20.42508 0.48888
-2.36870 0.05522 2.21913 0 13.13788 -26.97028 0.86315
0.09246 -0.01246 0.57055 0 -17.63398 24.27020 0.56813
-0.41639 0.02651 1.05322 0 -29.99659 0.45241 0.97231
0.21918 -0.17704 0.31550 0 -0.48292 29.99611 0.30819
-1.22358 -0.18996 0.93191 0 -29.98507 -0.94633 0.58980
1.00269 0.08657 0.29722 0 16.60098 24.98814 0.21000
4.63072 0.10704 2.38605 0 -27.88257 11.07079 0.50377
-3.69115 -0.16759 1.15659 0 -6.11410 -29.37036 0.30251
-0.79395 0.08085 0.32001 0 26.53785 -13.99080 0.25074
-1.21164 0.09374 0.98251 0 -24.06799 -17.90899 0.62545
-17.19533 -0.24919 21.41011 0 0.21451 29.99923 1.24305
4.28335 0.09274 1.61739 0 19.95735 22.39876 0.36785
1.68689 0.19785 0.93236 0 25.56839 15.69260 0.47552
-1.16094 -0.15417 0.76020 0 29.39738 5.98282 0.49564
3.25993 0.07053 1.92742 0 -27.81517 11.23906 0.56532
0.80295 0.21289 0.49365 0 -6.94855 -29.18420 0.38496
20.02293 -0.01467 9.78660 0 -15.08849 25.92947 0.48826
0.87374 -0.00701 0.68086 0 9.13013 -28.57693 0.51276
-16.09057 -0.22568 17.24747 0 5.83242 -29.42759 1.06988
2.52761 -0.16606 0.48410 0 26.79769 -13.48644 0.17828
7.34398 -0.08178 2.53498 0 14.79285 -26.09927 0.34384
2.00143 0.19664 1.52994 0 24.64869 -17.10094 0.68389
-4.14897 0.03707 0.97464 0 -22.55621 19.77921 0.22855
4.38134 -0.10591 1.61842 0 22.38347 -19.97449 0.36027
-10.49501 0.20259 4.71860 0 -28.78677 8.44522 0.44769
-2.54329 -0.02579 1.47553 0 29.68603 4.32895 0.54006
-5.73082 0.12103 1.23826 0 19.26467 22.99723 0.22860
17.77610 -0.17819 7.40455 0 -18.69409 -23.46340 0.41600
-4.13152 0.05690 1.36583 0 -24.33782 17.54054 0.32146
-17.00271 -0.03361 7.86914 0 -4.46164 -29.66637 0.46212
0.45982 0.08836 0.96371 0 12.89529 -27.08711 0.87559
-15.39097 0.17437 10.93309 0 17.59548 -24.29813 0.70893
1.33524 -0.15080 1.02494 0 -25.94661 15.05900 0.61446
-0.56621 0.22702 0.30753 0 5.14324 29.55583 0.26765
-0.25050 -0.06296 0.57299 0 -0.00903 -30.00000 0.55582
3.11627 -0.22766 1.20578 0 1.54163 -29.96036 0.50134
1.42861 0.10171 0.47536 0 -16.53909 25.02916 0.31018
1.79131 -0.04506 1.70416 0 -7.43748 29.06345 0.81386
-7.08759 0.05171 3.12405 0 -18.06337 23.95234 0.43656
-2.05197 0.21128 2.33059 0 2.33074 29.90932 1.02103
3.86688 -0.15080 1.55200 0 23.03437 19.22024 0.38874
-24.59288 -0.23459 9.29549 0 -7.42228 29.06733 0.38555
13.56112 -0.13710 9.69560 0 28.44763 -9.52535 0.71309
-4.17345 0.25708 1.27251 0 -16.00479 -25.37413 0.29658
7.28167 -0.17789 5.13201 0 29.66870 4.44618 0.69830
-3.24845 -0.20288 1.67886 0 -20.60105 21.80818 0.49427
0.58270 0.12949 0.39549 0 -16.77259 -24.87328 0.34175
7.85020 0.03725 3.15384 0 0.15279 -29.99961 0.39865
12.86786 0.07535 7.64971 0 25.97842 15.00405 0.59278
2.95059 -0.03473 2.70702 0 -14.38501 -26.32625 0.86895
-2.44292 -0.20201 2.49524 0 15.50662 -25.68160 0.94534
-24.97959 0.08442 15.12595 0 22.82198 -19.47196 0.60513
-1.54040 0.15515 0.83669 0 24.16940 -17.77189 0.45565
0.73893 0.02588 0.88890 0 19.57516 -22.73352 0.71494
23.45600 0.00294 15.78385 0 11.36007 27.76596 0.67237
8.44835 -0.09766 2.91356 0 10.20178 28.21212 0.34262
2.13667 -0.21210 1.11166 0 -23.57471 -18.55351 0.47135
6.79457 -0.04093 3.26129 0 8.44485 -28.78688 0.47497
-1.49685 0.17019 1.45480 0 29.99130 0.72230 0.80819
2.99440 0.10526 2.15940 0 -28.56855 9.15631 0.68409
-9.10118 -0.25304 3.11153 0 18.55313 23.57502 0.33998
-14.21529 0.16872 5.41558 0 6.56629 -29.27258 0.38016
-10.68617 0.09575 6.43913 0 11.09243 -27.87397 0.60003
3.18949 0.24666 1.40861 0 4.53857 29.65470 0.42150
5.96672 -0.06160 5.35591 0 -25.63938 -15.57633 0.88537
8.20013 -0.00348 3.41823 0 24.22935 17.69007 0.41390
7.23437 0.20200 2.68045 0 -8.81517 -28.67565 0.36716
-1.90725 -0.00838 1.37222 0 29.68149 -4.35992 0.63724
-1.58954 0.25673 1.34243 0 -26.95148 -13.17642 0.71488
-8.44591 0.04319 2.58950 0 -28.68225 8.79367 0.30463
-10.52115 -0.10169 2.15923 0 -7.26736 -29.10645 0.20454
-4.17042 -0.03555 1.55777 0 0.33734 29.99810 0.36343
-0.40494 -0.00558 1.16028 0 9.18006 -28.56093 1.07546
15.15544 0.20378 8.30840 0 -18.82557 -23.35803 0.54711
-20.85821 0.19631 9.05660 0 19.52516 22.77648 0.43381
3.84798 -0.21078 0.86088 0 20.39586 22.00020 0.21671
-1.48644 0.00766 1.28978 0 13.89985 26.58560 0.71997
-6.44576 0.19183 2.86068 0 -26.29850 -14.43568 0.43867
14.76443 0.18960 4.01227 0 29.73270 -3.99584 0.27131
4.59454 -0.22191 5.09689 0 -8.26583 28.83879 1.08405
-6.59979 0.05646 5.30721 0 0.34981 -29.99796 0.79513
-0.49871 0.10434 0.23870 0 -26.83663 13.40878 0.21365
14.42279 -0.06960 8.95098 0 -26.35980 -14.32343 0.61921
-1.48011 -0.14443 1.14492 0 29.73380 -3.98761 0.64101
0.42923 0.16255 0.44249 0 18.15384 -23.88385 0.40664
0.21345 -0.07416 0.27028 0 -19.34207 22.93217 0.26433
-3.21114 -0.01113 1.18651 0 2.74559 29.87410 0.35294
0.35638 -0.00723 0.74410 0 0.92861 29.98562 0.70092
13.83176 0.18246 4.74172 0 24.16689 -17.77530 0.34206
-7.02925 -0.15863 6.25886 0 23.00846 -19.25125 0.88158
22.20418 0.03990 6.24523 0 -10.70441 28.02527 0.28115
5.62062 -0.12206 1.96319 0 28.97698 -7.76754 0.34396
-1.34302 0.03762 0.55613 0 -7.50300 -29.04660 0.33221
-1.02633 0.20144 0.54019 0 -12.97566 27.04870 0.37706
-1.35369 -0.03227 0.80837 0 -26.80537 -13.47116 0.48038
20.46620 -0.07935 14.81165 0 -24.64027 -17.11306 0.72292
5.36444 0.19905 1.65584 0 -25.47484 -15.84400 0.30350
8.58355 0.26342 4.38674 0 -10.45261 -28.12015 0.50772
10.15610 0.05105 6.56026 0 14.21062 26.42079 0.64291
12.98732 -0.08215 3.20432 0 28.58159 -9.11551 0.24620
3.47728 0.12869 1.86568 0 -29.99891 0.25623 0.51573
14.72234 0.22473 9.66050 0 28.31674 -9.90770 0.65475
0.27237 0.02894 0.71725 0 -10.18973 -28.21647 0.69204
-7.61023 -0.20028 1.85452 0 11.57517 -27.67698 0.24181
-11.59517 -0.07767 3.03107 0 -8.56725 -28.75069 0.26063
18.37489 -0.16793 8.84263 0 -27.01620 -13.04319 0.48062
0.70638 0.14918 0.34029 0 2.05513 29.92953 0.27801
-2.46317 -0.17744 0.95111 0 -29.99955 -0.16521 0.35802
-1.81467 0.19188 0.84815 0 -16.92500 24.76983 0.40943
-26.70749 -0.06958 15.80502 0 3.96339 -29.73704 0.59145
-0.61061 0.13283 0.46673 0 22.20802 20.16938 0.39837
-6.13769 0.23929 2.84271 0 22.97590 -19.29010 0.45723
-12.49957 -0.21649 6.20475 0 -18.31319 -23.76188 0.49491
5.49942 0.16473 3.76564 0 -23.02158 19.23557 0.67376
6.66519 -0.09266 4.52600 0 23.55924 -18.57316 0.67161
4.16429 -0.00877 0.98887 0 -26.81691 13.44817 0.23107
0.40060 -0.05550 0.27078 0 28.59321 -9.07902 0.25139
-21.55190 0.13107 10.64822 0 26.00163 -14.96379 0.49364
-7.16045 -0.18856 4.58340 0 18.28707 -23.78199 0.63402
-3.74688 0.02127 4.26989 0 6.53924 -29.27863 1.10115
0.59579 -0.06662 0.39661 0 -21.49282 20.92985 0.34076
2.95168 0.09691 1.20936 0 1.73805 29.94961 0.38818
16.63994 0.16370 33.53031 0 23.06678 19.18134 2.01144
1.52538 0.05896 1.20190 0 -25.07893 16.46352 0.65900
-1.47631 -0.06189 1.42239 0 -5.25614 29.53596 0.79774
-11.07245 0.00524 5.98509 0 26.92097 -13.23862 0.53844
12.66548 -0.06391 10.01256 0 -28.67553 -8.81557 0.78815
-3.95094 -0.02603 1.87644 0 -21.35989 21.06549 0.46050
-0.82969 0.14677 0.86217 0 27.44255 12.12049 0.66355
6.15404 -0.03008 3.95329 0 -15.97084 25.39552 0.63415
-0.73229 -0.02192 0.50265 0 23.05722 19.19282 0.40115
-5.79496 0.09203 1.00196 0 -27.29050 12.45907 0.17053
-1.02662 0.15763 0.83097 0 -27.87029 -11.10165 0.57986
0.55349 -0.22116 0.36368 0 10.08116 28.25545 0.31823
22.06718 0.06684 9.73810 0 -29.05484 7.47103 0.44095
-12.04723 -0.16228 9.59229 0 -20.61429 -21.79567 0.79356
-5.39951 0.19381 3.32885 0 27.72632 -11.45650 0.60627
1.51454 0.09126 0.36739 0 -29.25244 6.65545 0.20257
10.48986 -0.19743 6.07560 0 -29.66043 -4.50101 0.57666
-1.93472 -0.25423 1.05616 0 29.34875 -6.21696 0.48505
-17.22673 -0.24432 10.54462 0 13.74623 -26.66535 0.61116
-15.59352 -0.16765 7.75450 0 -26.60286 13.86679 0.49637
25.48641 -0.16688 20.95950 0 -17.18410 -24.59078 0.82181
-1.80528 -0.19662 1.46447 0 17.42097 -24.42355 0.70969
6.40791 -0.25183 4.57274 0 18.92321 -23.27900 0.70514
8.40452 -0.00237 5.15383 0 27.88547 11.06348 0.60901
-0.73644 0.08269 0.43612 0 -21.89803 -20.50551 0.35122
-1.82241 0.06357 0.64020 0 23.27796 18.92449 0.30805
4.12073 -0.07018 2.13873 0 -12.49412 -27.27448 0.50448
1.59736 -0.15754 1.23951 0 17.90026 24.07448 0.65778
-2.64348 -0.11823 1.40365 0 19.50209 22.79624 0.49675
0.99648 0.14491 0.41798 0 29.20904 6.84338 0.29616
1.42180 -0.07650 1.06492 0 -29.93010 2.04674 0.61270
1.83277 0.04148 1.61069 0 -28.24115 10.12113 0.77150
-2.09826 -0.10354 1.52016 0 13.50502 26.78832 0.65408
9.38931 0.24254 2.33248 0 24.51894 -17.28646 0.24722
-17.11430 0.03238 9.91958 0 -28.12512 10.43924 0.57871
0.73914 0.09471 0.59992 0 18.27540 -23.79096 0.48247
-0.21210 -0.14285 0.31642 0 24.97323 -16.62341 0.30954
-7.68868 0.23694 2.70912 0 2.32906 29.90945 0.34955
2.93009 0.06889 0.71922 0 -11.70577 -27.62200 0.23240
26.57094 -0.01823 7.30359 0 -3.40131 29.80656 0.27485
26.77739 0.12791 21.02230 0 -29.98290 -1.01271 0.78459
-20.93438 0.04460 10.23673 0 12.61700 -27.21785 0.48853
-5.58234 -0.09554 3.94190 0 29.73213 -4.00004 0.69517
-0.23083 0.16215 0.50201 0 12.53552 27.25547 0.48915
-0.87657 -0.19275 0.76390 0 -26.46249 -14.13283 0.57449
0.17293 -0.22032 1.18580 0 -25.74433 -15.40226 1.16846
-2.90457 -0.08969 0.82932 0 -5.23508 29.53970 0.27016
-6.03263 0.22425 2.67936 0 -29.75430 3.83166 0.43827
1.22975 -0.01216 0.85476 0 -29.49602 -5.47584 0.53932
1.28230 -0.08726 0.40795 0 29.99328 -0.63478 0.25101
0.27652 0.00471 0.44765 0 26.50238 -14.05788 0.43147
-7.78568 -0.11030 4.43005 0 -6.24407 29.34300 0.56445
20.82298 0.17596 9.55175 0 24.49058 -17.32661 0.45829
-0.13479 0.13707 0.40272 0 29.62087 -4.75438 0.39911
2.36977 -0.12978 1.92727 0 -24.88086 16.76135 0.74935
20.91238 -0.00521 7.91241 0 -29.31408 -6.37844 0.37806
-3.24582 -0.07106 3.05623 0 3.93691 29.74056 0.89989
0.25249 -0.01921 0.68299 0 24.03940 -17.94734 0.66221
-18.86960 -0.23749 9.60417 0 -13.17612 -26.95162 0.50836
-0.87080 -0.04235 0.65691 0 6.88228 -29.19990 0.49544
-3.24876 0.06135 2.25245 0 -14.80123 -26.09451 0.66269
0.39273 0.06296 0.60234 0 26.38572 -14.27564 0.56067
-0.00067 0.10801 0.26905 0 -0.52577 29.99539 0.26905
