-4.25180 -0.16238 3.94216 0 -29.66581 -4.46541 0.90257
-26.84374 -0.18148 22.62656 0 -25.87955 15.17396 0.84238
-17.76136 0.18021 14.33962 0 25.21738 16.25065 0.80613
0.39523 -0.17764 0.34748 0 6.79340 29.22071 0.32317
1.17622 0.25770 0.90113 0 27.45654 12.08877 0.58373
0.09195 0.00426 0.43168 0 -19.46285 22.82975 0.42986
8.89999 0.25324 7.45314 0 -29.87650 2.71930 0.83225
-4.78865 -0.00500 3.35819 0 18.52450 23.59752 0.68666
18.95236 0.22515 5.17685 0 5.64171 29.46474 0.27295
-1.00318 -0.01781 0.72528 0 -4.43956 29.66969 0.51209
-4.81000 -0.14143 4.60956 0 -25.27334 -16.16348 0.93831
5.02313 0.10715 2.85897 0 19.10655 -23.12876 0.55832
1.70346 -0.11387 0.64634 0 -29.93654 -1.95020 0.32730
18.25015 -0.02791 12.65280 0 -10.29889 28.17682 0.69233
-13.30850 0.11554 7.57643 0 -9.47923 28.46303 0.56778
16.86191 0.08119 5.74706 0 -8.11129 28.88264 0.34038
23.84385 -0.07243 8.27709 0 -8.57251 28.74912 0.37782
12.35329 -0.22816 8.57064 0 16.65819 -24.95004 0.69160
1.36258 -0.16729 1.39433 0 29.75409 -3.83330 0.82501
9.86392 0.03969 5.65017 0 4.03171 29.72785 0.56997
6.86987 0.04189 4.29948 0 -17.77776 -24.16508 0.61940
-7.15529 0.14686 5.79158 0 -1.82511 29.94443 0.80016
-2.34635 -0.07657 2.39012 0 -26.56070 -13.94737 0.93714
-3.52898 -0.15706 1.28038 0 28.45838 -9.49319 0.34914
-3.75802 0.17793 2.51069 0 23.82220 -18.23466 0.64570
12.01528 -0.16627 4.09190 0 24.32930 -17.55236 0.33953
1.87081 -0.04260 0.99017 0 27.56551 11.83818 0.46686
-1.49094 -0.02214 1.49864 0 24.37142 -17.49382 0.83482
-13.21128 0.12621 10.56860 0 29.87551 -2.73015 0.79775
-1.96569 0.11713 1.62656 0 14.45600 26.28734 0.73757
17.64605 -0.00689 5.28109 0 -28.14335 10.38999 0.29896
0.42209 0.13260 0.98839 0 -26.44902 14.15801 0.91060
-1.03385 -0.12360 0.37709 0 21.52195 20.89990 0.26227
0.60978 0.13718 0.75371 0 9.68626 -28.39325 0.64352
11.83542 0.23664 3.75499 0 -23.41666 -18.75260 0.31629
7.59983 0.18138 3.79814 0 -27.73164 -11.44362 0.49559
7.62063 -0.07840 3.11270 0 29.17854 6.97227 0.40510
-0.93927 -0.21363 0.76766 0 16.79272 -24.85969 0.55959
-14.30091 -0.24096 4.12119 0 29.10178 -7.28603 0.28764
-6.76526 -0.04098 1.69612 0 -6.11870 -29.36940 0.24821
12.17666 -0.09187 9.90779 0 1.86149 29.94219 0.81100
21.42991 0.06987 21.34679 0 -27.92632 10.95997 0.99509
-13.13919 -0.19390 9.22377 0 -22.46361 -19.88432 0.70005
0.36696 0.21139 0.50630 0 17.13911 -24.62216 0.47532
3.58896 0.16234 1.93877 0 -14.15246 26.45199 0.52044
-4.27544 -0.25763 0.97008 0 28.81445 -8.35031 0.22106
-2.32880 -0.04410 0.72773 0 20.29613 -22.09224 0.28722
-1.79044 -0.22688 1.82867 0 -10.44892 28.12152 0.89174
-22.40046 0.26246 12.45509 0 29.57372 5.03934 0.55555
4.09076 0.11548 2.35112 0 -12.80513 -27.12985 0.55841
6.09540 0.23140 1.92066 0 15.78393 -25.51211 0.31110
-0.91712 0.20164 0.87616 0 23.97979 -18.02691 0.64577
-9.18164 0.07927 2.54148 0 28.56478 9.16806 0.27535
2.93908 -0.00513 1.59328 0 -16.38639 -25.12939 0.51325
3.28407 -0.01433 1.67748 0 5.83923 29.42624 0.48873
-0.96340 -0.22954 0.75117 0 -20.75264 21.66398 0.54101
-2.19304 0.05719 1.28899 0 -16.49778 -25.05640 0.53483
14.68229 0.01493 4.69541 0 12.12128 27.44221 0.31921
-7.19334 0.13562 4.56706 0 10.67858 28.03512 0.62893
-2.39242 -0.08313 1.13108 0 -4.80388 29.61288 0.43629
7.91334 -0.13121 7.70354 0 -20.53171 -21.87347 0.96586
-1.96194 0.18259 1.39065 0 -25.86725 15.19491 0.63157
-8.04634 0.02407 5.37504 0 28.33380 9.85880 0.66298
-0.67115 -0.15033 0.86213 0 -20.67924 -21.73405 0.71587
0.34394 0.23280 0.91757 0 24.87738 16.76651 0.86768
2.93239 -0.12539 2.39544 0 -20.79893 -21.61954 0.77321
1.52469 0.00564 1.43295 0 -23.72565 18.36010 0.78592
-0.20622 -0.11150 0.54999 0 -26.16016 14.68488 0.53866
25.85669 -0.16286 16.19728 0 29.21243 6.82891 0.62603
-2.26332 0.24240 1.22455 0 25.52658 -15.76051 0.49501
0.93434 -0.05612 0.42387 0 11.01813 -27.90342 0.30977
1.27868 0.00582 0.44353 0 28.04744 10.64618 0.27338
-8.28322 0.08410 3.02703 0 27.14988 -12.76260 0.36294
2.01728 -0.21549 1.09021 0 -8.17955 -28.86339 0.48429
-17.36967 0.25575 4.27581 0 -16.52191 -25.04050 0.24596
-1.09384 0.16431 1.33893 0 -29.34368 -6.24087 0.90345
-0.57444 -0.03919 1.03400 0 26.87794 13.32577 0.89661
1.00765 0.09361 0.54979 0 -13.09977 -26.98881 0.38733
-1.24356 -0.06664 0.74724 0 6.69846 -29.24262 0.46833
-4.31409 -0.04561 1.31895 0 -15.70118 25.56312 0.29793
-7.92080 -0.21388 3.03861 0 -6.23782 -29.34433 0.38073
-6.72274 0.04125 3.87419 0 -26.95223 -13.17486 0.57009
1.45850 -0.13354 1.20881 0 -20.86686 -21.55399 0.68362
25.07288 -0.18877 7.27072 0 0.65643 29.99282 0.28992
0.33663 0.15810 0.29912 0 21.81667 20.59206 0.28351
-2.39992 -0.03377 0.99834 0 9.52868 28.44652 0.46394
-1.36698 -0.10874 0.54261 0 -22.47539 19.87101 0.32049
-10.36033 -0.02368 4.07635 0 -23.91348 -18.11478 0.39176
-9.07004 0.07366 6.27049 0 -17.89575 24.07784 0.68725
8.30297 0.18186 3.68151 0 28.97869 -7.76115 0.44032
-15.57677 0.10199 7.94496 0 26.53539 -13.99546 0.60743
1.13985 0.00131 0.51382 0 -18.16628 23.87438 0.33891
-2.10477 0.08374 1.21024 0 -29.90910 -2.33367 0.51941
0.78202 -0.14983 0.66693 0 -14.07043 -26.49572 0.52539
12.21086 0.25432 9.88774 0 -5.46531 29.49797 0.80711
-3.49110 0.13411 0.98717 0 -29.92115 -2.17371 0.27199
-13.30417 -0.07060 4.06877 0 -17.86859 24.09800 0.30513
6.01290 0.11470 1.08835 0 -6.41648 -29.30578 0.17871
-1.96879 -0.07143 0.50489 0 14.91313 -26.03072 0.22879
1.11089 0.12445 0.51714 0 29.55978 5.12047 0.34609
1.33422 -0.15476 0.54552 0 -22.05979 -20.33140 0.32725
-9.85063 0.24562 6.17752 0 7.06304 -29.15670 0.62399
-8.38512 0.25976 2.36633 0 18.73841 -23.42801 0.28039
-2.87922 -0.03234 1.17789 0 -17.20401 -24.57686 0.38659
22.01943 -0.23543 8.24495 0 7.17261 -29.12994 0.37418
1.32532 0.23972 0.51516 0 21.22818 -21.19822 0.31037
8.57800 0.07402 2.14015 0 -2.81507 29.86763 0.24801
11.06939 0.06165 6.85525 0 25.75005 -15.39269 0.61686
-5.40195 -0.04435 3.30153 0 -18.82193 23.36097 0.60109
0.81316 0.21781 1.16078 0 -11.08659 27.87629 0.90063
0.51811 0.24397 0.46088 0 -12.38472 -27.32433 0.40924
27.05945 0.18161 7.52942 0 29.93904 1.91142 0.27824
0.71583 0.22640 0.53105 0 -27.65570 -11.62593 0.43186
4.32451 -0.03756 2.73325 0 28.40956 9.63831 0.61585
-0.59715 -0.17799 1.53076 0 2.76745 -29.87208 1.31428
7.57152 -0.24128 2.41972 0 -29.87530 2.73244 0.31698
0.02517 0.05266 0.49827 0 29.99882 -0.26594 0.49811
-1.00130 -0.24999 0.74863 0 9.14857 -28.57103 0.52906
-1.77496 0.26006 0.73916 0 -20.47207 21.92930 0.36292
-19.15494 -0.01932 5.16035 0 26.39724 -14.25432 0.26921
17.39024 -0.14577 12.33162 0 -4.61465 -29.64296 0.70801
-1.74255 0.18583 1.20461 0 -22.27993 -20.08992 0.59963
-17.50575 -0.26214 7.81311 0 29.95227 -1.69164 0.44570
-4.20644 0.23962 4.81009 0 -29.33319 -6.28999 1.11258
5.45269 -0.06723 3.26749 0 -28.21829 10.18470 0.58954
-0.03197 -0.11570 0.66838 0 23.64837 18.45955 0.66804
3.31164 -0.06109 1.24024 0 -16.21902 25.23774 0.35858
5.79539 -0.07648 1.50352 0 16.76168 -24.88064 0.25585
3.02798 -0.07060 1.12761 0 29.96371 -1.47505 0.35370
-1.78094 -0.17829 0.90692 0 29.16878 -7.01301 0.44410
-1.42197 0.21817 1.36287 0 4.39233 29.67672 0.78403
0.45371 0.25244 0.47438 0 -3.99738 -29.73249 0.43201
1.97861 0.24287 1.25567 0 -14.31557 -26.36407 0.56645
1.40080 0.01224 0.64485 0 -20.89448 -21.52721 0.37476
-12.79934 0.20452 4.65367 0 0.82892 29.98855 0.36262
-22.19757 0.19354 4.76021 0 -1.89394 29.94016 0.21446
-19.39851 -0.00002 5.99355 0 -22.53734 19.80071 0.30872
1.35386 -0.14499 0.59456 0 9.72140 28.38123 0.35334
-0.57706 -0.14422 0.25249 0 -24.71039 -17.01166 0.24011
0.66253 -0.01101 0.74130 0 -25.46808 15.85487 0.61800
-6.64699 0.04047 3.28904 0 24.74750 16.95764 0.48941
-0.10567 0.02930 0.44553 0 -29.11259 -7.24271 0.44306
5.05434 -0.12528 1.53527 0 12.32178 -27.35277 0.29816
-21.36410 -0.03215 22.86084 0 -21.21736 21.20905 1.06894
1.30303 0.05547 1.41140 0 29.91950 -2.19621 0.88855
21.49999 -0.18821 5.00737 0 28.43222 -9.57126 0.23286
-9.42994 0.22056 6.21753 0 -9.71335 -28.38399 0.65574
-7.09181 -0.16639 8.69458 0 -15.64169 -25.59956 1.21403
9.03170 -0.13084 4.58473 0 -29.51316 -5.38270 0.50464
16.21531 -0.01989 7.81454 0 21.50474 20.91760 0.48111
-1.42335 0.13156 0.41064 0 20.67667 21.73650 0.23619
9.65539 -0.09808 7.82570 0 15.19569 25.86679 0.80625
2.68307 0.02018 3.23186 0 -16.65321 24.95337 1.12873
-11.83375 -0.20591 6.92211 0 10.20685 28.21029 0.58295
-0.97127 -0.01272 0.84222 0 -29.99893 0.25389 0.60420
1.62140 -0.19356 1.86403 0 27.85408 11.14227 0.97854
4.83875 0.16504 2.74011 0 -25.38408 -15.98901 0.55466
-2.34758 0.17683 0.76440 0 -23.68709 18.40983 0.29963
-1.39498 -0.01406 0.56373 0 -16.95306 -24.75064 0.32857
-15.57700 0.23157 6.30783 0 11.00593 27.90823 0.40423
0.60283 -0.23924 0.68110 0 3.12477 29.83682 0.58333
-13.12959 -0.05696 3.58828 0 -27.19584 12.66438 0.27269
-0.10398 -0.16972 2.03119 0 25.68747 15.49691 2.02030
-5.86180 0.12415 3.49404 0 29.97876 1.12877 0.58767
-2.33168 0.18869 1.16859 0 -11.26694 -27.80389 0.46070
-0.30360 0.11645 0.30424 0 -16.57011 -25.00863 0.29114
-0.14514 0.05488 0.61336 0 27.43373 -12.14046 0.60700
21.98389 -0.20054 10.57035 0 29.40118 5.96410 0.48043
5.37796 -0.01202 2.53387 0 0.45013 29.99662 0.46331
-0.85234 -0.04479 0.68862 0 17.26577 -24.53351 0.52413
1.11363 -0.23209 1.00769 0 -23.88928 18.14669 0.67329
1.87519 -0.26228 0.87847 0 -20.82280 21.59655 0.41345
0.55373 0.23244 0.75069 0 -10.51204 -28.09799 0.65674
0.83288 0.11524 0.48497 0 28.42778 9.58442 0.37271
10.49687 0.21445 6.28938 0 -29.96992 -1.34310 0.59655
-5.27727 0.22346 2.11785 0 10.74481 -28.00980 0.39455
1.45910 0.08717 0.60725 0 13.58508 -26.74781 0.34342
-3.05312 -0.00488 1.56136 0 27.46403 12.07176 0.48615
1.65102 -0.21001 0.94479 0 29.72487 -4.05367 0.48954
0.43891 -0.16317 0.43474 0 -3.28108 29.82004 0.43362
16.89404 -0.23591 8.80691 0 -30.00000 0.01595 0.52049
2.70425 -0.19951 1.06148 0 25.26707 -16.17328 0.36825
-11.94076 0.18310 2.95002 0 18.19447 -23.85291 0.24639
7.21741 -0.05297 1.87020 0 11.82771 27.57001 0.25686
-24.85859 -0.17815 7.09685 0 -28.56102 -9.17977 0.28543
-1.07156 0.08853 1.11904 0 2.88588 29.86087 0.76352
-3.87933 -0.25388 3.95305 0 -29.90579 2.37569 0.98685
0.69987 -0.01570 0.55412 0 28.78592 8.44811 0.45403
0.02241 0.02206 0.98778 0 -10.71241 28.02221 0.98754
14.57583 -0.16737 4.49312 0 26.81585 13.45029 0.30769
11.66387 0.26117 7.40688 0 29.60756 -4.83658 0.63278
9.88857 -0.20669 11.63199 0 -24.97401 16.62224 1.17038
1.96894 0.03449 0.59504 0 -25.56599 -15.69650 0.26963
0.17168 -0.09062 0.36771 0 4.08727 -29.72027 0.36241
-0.77888 -0.00895 0.63566 0 -27.40213 12.21160 0.50152
2.28528 0.11876 1.27128 0 0.12823 -29.99973 0.50968
0.29206 -0.26292 0.73189 0 19.11549 -23.12138 0.70255
-14.36396 -0.04222 5.92030 0 -29.80737 3.39420 0.41129
1.73436 -0.13413 0.90305 0 10.70971 28.02324 0.45115
2.72498 0.20541 1.89963 0 -6.19463 -29.35348 0.65452
1.83139 -0.04415 0.81454 0 29.86308 -2.86292 0.39045
1.29623 0.11500 0.94387 0 -3.45115 -29.80083 0.57659
5.94800 -0.16637 2.02394 0 -16.24350 25.22199 0.33585
-0.88871 -0.25057 0.65240 0 25.60844 15.62715 0.48770
-0.68777 -0.08477 0.46193 0 18.00725 23.99456 0.38065
-2.60474 0.24610 2.82649 0 -29.46532 5.63868 1.01310
0.72014 -0.19954 0.54988 0 26.09472 14.80085 0.44626
-1.06250 0.18497 1.11789 0 -29.72305 -4.06695 0.76619
2.15998 -0.05156 1.20596 0 28.51845 9.31117 0.50673
-0.46558 0.18099 0.75504 0 -0.38776 -29.99749 0.68450
10.68223 -0.04262 4.86926 0 -24.82301 -16.84690 0.45395
-4.20535 -0.01127 1.63221 0 0.97820 29.98405 0.37770
-6.99963 -0.25394 4.35945 0 25.17400 16.31777 0.61663
-0.31940 -0.22147 0.48537 0 -29.38639 -6.03654 0.46236
12.69556 -0.02814 3.52975 0 -12.82083 27.12243 0.27735
-1.09056 0.14179 1.16291 0 -27.32901 12.37438 0.78599
0.92381 0.03746 0.67393 0 14.20872 -26.42181 0.49507
4.77596 0.14161 2.62087 0 -5.26433 29.53450 0.53717
-16.31391 -0.02876 4.49988 0 -22.32955 20.03475 0.28030
-5.09605 -0.08036 3.57123 0 -29.70547 -4.19346 0.68773
15.30077 0.17064 7.83812 0 -6.05110 29.38340 0.51127
9.98831 0.14203 4.16732 0 -29.48309 5.54505 0.41526
-0.75486 -0.05764 0.42187 0 -29.62216 4.74634 0.33676
-8.45921 0.04090 3.05970 0 17.27074 -24.53001 0.35933
0.14986 -0.01827 0.53022 0 -2.18748 -29.92014 0.52437
0.16262 0.04780 0.22338 0 -29.99864 -0.28611 0.22049
11.14900 0.12087 4.83047 0 22.44310 -19.90747 0.43164
-5.34330 0.18637 3.28166 0 -14.30773 26.36833 0.60376
-0.66045 0.11418 0.27131 0 27.42165 -12.16771 0.22645
-0.70296 -0.01949 0.35520 0 -27.03870 12.99649 0.29064
-15.76780 0.07566 10.30272 0 -20.79635 21.62202 0.65217
-7.89539 -0.01302 2.94405 0 -16.05628 -25.34159 0.37006
2.17149 0.22935 4.67852 0 -29.63143 -4.68809 1.95702
2.85960 -0.01685 1.66820 0 9.38599 -28.49392 0.55073
-4.18480 0.13871 2.36773 0 -24.28476 17.61393 0.55034
7.56776 -0.17468 3.31856 0 -17.99877 24.00092 0.43484
10.21571 -0.17545 8.84549 0 26.90769 13.26561 0.86181
2.60181 0.18152 1.25041 0 -28.51587 9.31908 0.44868
-8.26050 0.01532 7.71240 0 29.07796 7.38052 0.92693
-2.94743 -0.15416 0.77936 0 -27.35838 -12.30931 0.25054
0.21249 0.20962 0.41877 0 -7.51728 -29.04291 0.40963
-5.56545 -0.25709 2.57472 0 22.20443 -20.17334 0.45539
3.31821 0.14535 3.37363 0 19.02226 23.19814 0.97351
4.04307 0.20276 2.45731 0 29.14071 7.12875 0.59013
0.54889 -0.20752 0.27473 0 -21.29284 -21.13326 0.24090
-11.41702 0.16591 3.52570 0 26.90162 -13.27790 0.30779
-1.16057 -0.10701 0.43332 0 15.31557 -25.79600 0.28292
5.38829 -0.07431 2.24048 0 -22.74536 19.56141 0.40891
4.03818 0.19861 1.45905 0 12.50905 27.26763 0.35081
-1.89374 0.11652 1.49963 0 29.84520 -3.04365 0.70031
16.54822 0.21360 8.56600 0 -5.57964 29.47656 0.51679
-2.59270 0.18116 1.39565 0 -25.10323 -16.42644 0.50230
18.86363 0.06310 14.77982 0 -13.70907 -26.68448 0.78247
1.08486 0.24168 0.38057 0 4.45547 -29.66730 0.25803
0.54693 0.08122 0.35603 0 -27.76842 -11.35406 0.31243
1.09445 0.18734 0.68509 0 19.54019 22.76359 0.53378
0.68406 0.19981 1.28519 0 -16.96527 -24.74226 1.06076
1.64854 0.13305 0.59176 0 28.48646 9.40860 0.30704
-23.44260 -0.13029 8.87456 0 13.05674 -27.00966 0.37835
-8.23161 0.00476 3.30445 0 23.12732 -19.10830 0.39862
-23.27875 0.15156 5.16839 0 -11.30021 -27.79038 0.22204
-0.63256 -0.18064 0.50370 0 -22.85759 19.43015 0.42572
1.50050 0.02329 0.89981 0 29.99620 0.47740 0.49906
-2.21346 -0.23019 0.79328 0 -21.59663 -20.82272 0.32671
-0.60547 0.02435 0.30777 0 -22.61064 -19.71698 0.26332
-5.22667 -0.14833 1.75705 0 -7.16891 29.13085 0.33027
-0.98494 -0.01981 0.33528 0 -29.96644 -1.41869 0.23898
0.53480 0.07824 0.93963 0 -20.17337 -22.20439 0.82860
-3.09485 -0.14986 2.30260 0 -27.32790 12.37683 0.70802
-1.63868 0.06316 0.68503 0 24.67772 17.05901 0.35696
1.06381 -0.11825 1.16268 0 14.34430 26.34845 0.79638
0.37885 0.11376 0.57855 0 28.66398 8.85304 0.54104
-4.35418 0.18495 0.72112 0 -12.81513 27.12513 0.16154
11.74678 -0.16578 14.99753 0 -16.98583 -24.72815 1.27217
-1.57101 0.15400 0.69415 0 27.63165 11.68299 0.37284
3.72036 -0.01193 1.76013 0 -28.52233 -9.29928 0.45696
15.78599 0.14235 5.75589 0 -4.38493 29.67781 0.36402
-11.23030 0.12252 13.14017 0 15.12124 -25.91038 1.16550
-0.60089 0.26206 0.76880 0 -29.99506 0.54467 0.65900
-2.69849 -0.16787 1.90361 0 -18.78717 23.38894 0.66153
1.63775 0.11010 0.56186 0 19.36603 22.91194 0.29291
21.51999 -0.05478 4.63892 0 -29.97667 1.18283 0.21556
0.43426 0.05239 0.88344 0 21.74270 -20.67015 0.81034
-8.87818 -0.09414 4.91689 0 4.35578 -29.68210 0.55043
-22.98694 0.02316 23.43030 0 -14.38941 26.32385 1.01837
-11.16548 0.11891 5.46825 0 -5.44218 29.50225 0.48789
-1.11634 -0.20339 0.66119 0 3.20890 -29.82789 0.44123
1.27217 -0.00808 0.97722 0 -12.66943 27.19348 0.60396
0.74523 -0.06726 0.63820 0 -24.33152 17.54928 0.51175
18.01045 -0.07724 5.78860 0 2.23414 29.91669 0.32106
17.47854 -0.15460 7.73243 0 20.17368 22.20411 0.44178
-0.32236 -0.14465 0.65971 0 25.98868 14.98627 0.62790
-2.53722 0.22099 1.57542 0 29.36462 6.14161 0.57785
-12.99109 -0.11126 5.00222 0 26.85431 13.37333 0.38404
-3.62667 0.08457 1.49789 0 -29.91037 -2.31723 0.39824
-21.02937 0.13935 5.18055 0 -25.79243 15.32157 0.24627
0.46388 -0.02856 0.88402 0 26.35533 14.33167 0.80195
-6.09280 -0.12615 1.61909 0 5.19387 29.54698 0.26241
-16.54659 0.03114 9.85321 0 -27.05902 -12.95413 0.59448
7.82709 0.05675 7.25390 0 28.64602 -8.91096 0.91935
4.15661 -0.25997 3.07884 0 -23.13977 19.09322 0.72025
4.02428 0.21162 1.60263 0 29.99889 -0.25827 0.38672
11.74900 -0.23761 6.74703 0 -1.57907 29.95841 0.57228
-11.78483 -0.14821 6.77305 0 22.44345 -19.90707 0.57275
1.31408 0.19281 1.67493 0 -29.58126 4.99491 1.01435
-10.33896 0.11142 5.19250 0 -10.16472 -28.22549 0.49999
0.81284 0.04978 0.42641 0 -5.93162 29.40775 0.33094
0.88364 -0.01587 0.70716 0 1.94834 -29.93667 0.52995
-1.82310 -0.07677 2.11903 0 -24.50015 17.31307 1.01912
7.33056 -0.09823 4.79246 0 -29.99280 -0.65744 0.64784
1.22669 0.21332 0.69618 0 -16.46141 25.08031 0.43996
8.93185 0.10811 2.04609 0 0.77320 -29.99003 0.22787
6.58812 0.24028 3.46677 0 -28.45540 -9.50212 0.52035
-0.29099 0.11424 0.47419 0 -29.28163 6.52580 0.45531
-0.35225 0.19546 0.42500 0 16.49579 -25.05771 0.40087
-1.97890 0.19438 1.66196 0 -13.54512 -26.76807 0.74962
-7.11086 -0.02488 6.71318 0 6.24165 29.34351 0.93493
-9.79779 0.11587 7.09066 0 -16.09616 25.31627 0.72003
11.92640 -0.12954 3.92802 0 -28.36964 -9.75519 0.32835
0.75767 -0.24491 0.51124 0 27.68984 11.54438 0.40753
1.95131 -0.05309 1.44686 0 -23.01325 19.24553 0.65991
12.26430 0.11425 8.30095 0 25.72266 -15.43842 0.67467
-12.76504 0.10282 5.95284 0 -29.12003 7.21278 0.46502
11.04170 -0.20470 4.21971 0 -28.35086 -9.80962 0.38073
-0.81231 -0.03523 0.33220 0 -23.41241 18.75791 0.25792
-9.71166 0.21107 3.65930 0 9.72097 28.38138 0.37494
0.94615 0.15935 0.76739 0 29.97808 1.14658 0.55747
0.46129 0.15433 0.78591 0 -10.91473 27.94403 0.71366
8.10140 0.09744 2.65003 0 28.41938 9.60931 0.32479
2.42091 0.24480 1.88378 0 -29.95712 1.60345 0.71922
0.54162 -0.14775 0.47535 0 29.90967 -2.32630 0.41800
-11.40551 0.12500 3.57802 0 -2.06283 29.92900 0.31267
7.43341 -0.20989 2.92454 0 -29.44697 -5.73375 0.39004
0.36382 -0.03863 0.76681 0 24.54127 -17.25474 0.72061
-21.34917 -0.18293 13.45672 0 -28.89411 8.07034 0.62970
1.41430 -0.03466 1.07944 0 -29.71833 4.10130 0.62325
1.37662 0.07168 1.31333 0 26.22433 -14.56998 0.77191
-17.60987 -0.23091 12.55771 0 -26.94244 13.19489 0.71203
-5.64801 -0.04741 3.07916 0 5.99965 -29.39395 0.53690
-2.46478 0.10913 1.05523 0 29.75328 -3.83960 0.39682
1.92044 0.21121 2.13220 0 20.43750 21.96152 0.98481
-0.13915 -0.06329 0.56515 0 -3.61004 -29.78200 0.55976
1.19505 0.03977 0.75400 0 27.97658 10.83101 0.48393
23.92979 0.25866 8.91142 0 -29.36053 -6.16112 0.37220
-21.18609 -0.08465 8.84138 0 9.90027 -28.31933 0.41697
0.95998 -0.17262 0.52702 0 -27.03822 12.99750 0.38025
5.71112 -0.07259 1.68701 0 -8.59195 28.74332 0.29118
14.10760 -0.07690 10.07680 0 25.72491 15.43467 0.71256
7.08618 -0.06998 3.31216 0 -0.14414 -29.99965 0.46293
-4.71874 0.17042 2.96317 0 23.09104 -19.15212 0.61439
-11.26386 0.00825 6.66258 0 -13.97387 26.54677 0.58927
21.64684 -0.19680 21.33363 0 29.32388 6.33323 0.98453
-14.26596 -0.11928 3.36836 0 28.80242 -8.39171 0.23574
-10.74232 0.12952 2.65235 0 -29.96649 1.41750 0.24604
0.94228 -0.25858 0.82945 0 -4.41317 -29.67362 0.60370
1.80881 0.14041 0.78527 0 16.24030 25.22405 0.37999
4.01849 0.14743 1.59986 0 -18.03738 23.97192 0.38642
-0.51267 -0.25846 0.28306 0 29.54939 5.18010 0.25193
-2.93679 -0.06296 1.57612 0 23.73465 -18.34848 0.50825
0.27103 -0.13725 0.56211 0 -0.16179 29.99956 0.51618
-10.83079 0.04198 6.95963 0 -10.02709 28.27468 0.63993
0.43029 0.12087 0.43919 0 5.08677 29.56560 0.40345
-0.64974 0.12614 0.43028 0 12.56035 -27.24404 0.36085
-1.12446 -0.05426 0.54283 0 9.56633 -28.43388 0.36080
10.68909 -0.00049 6.69095 0 -10.95665 -27.92762 0.62332
21.59582 -0.09844 18.51835 0 29.86322 2.86146 0.85664
-3.32055 0.08216 3.67527 0 -29.85887 2.90651 1.05985
-7.02811 -0.18386 3.20370 0 21.68145 20.73439 0.45140
11.02272 -0.15751 4.64687 0 -0.60130 -29.99397 0.41996
0.72806 0.02594 0.81338 0 -21.79703 -20.61284 0.65759
1.06671 -0.21316 0.64649 0 6.56276 -29.27337 0.44223
14.63913 -0.25113 2.98069 0 -10.37803 -28.14776 0.20338
24.03357 0.06179 13.67867 0 -24.97207 -16.62516 0.56874
0.38894 0.13690 0.28971 0 29.73602 3.97103 0.27003
-0.09163 0.11732 0.40105 0 -11.89639 27.54044 0.39938
0.71052 0.18380 0.78242 0 28.17580 10.30165 0.63785
-3.95143 -0.10811 1.57401 0 -13.27028 26.90539 0.38622
-1.87263 -0.03245 0.52608 0 -5.96994 29.40000 0.24796
7.19321 0.24812 4.41767 0 27.09917 12.86992 0.60837
-0.90509 -0.04801 0.53789 0 -17.51450 24.35657 0.39885
-0.98303 0.06288 0.42652 0 -26.11941 14.75726 0.30423
-8.51195 -0.02398 3.22050 0 23.33282 -18.85682 0.37589
-10.80299 0.10443 14.84420 0 -23.34033 -18.84752 1.36827
1.95162 -0.09387 0.78296 0 -28.13247 -10.41940 0.35714
3.58035 -0.11726 1.12955 0 27.21314 -12.62716 0.30401
4.91752 -0.18859 2.43817 0 29.44071 -5.76582 0.48601
6.17309 0.07162 2.29177 0 0.12544 -29.99974 0.36660
3.62814 0.00455 1.83076 0 1.84924 -29.94295 0.48651
15.24790 0.23995 8.53155 0 -16.64231 24.96064 0.55841
1.81761 0.00662 1.06030 0 24.28343 17.61576 0.51117
-2.84611 0.15916 1.26934 0 24.43302 17.40769 0.42088
9.81053 0.16996 2.12242 0 -27.08076 -12.90863 0.21545
2.88139 -0.07542 1.01160 0 -7.57469 29.02799 0.33176
-2.68660 0.04735 0.91503 0 15.54632 25.65759 0.31925
4.40164 -0.16959 0.37437 0 -19.62574 22.68987 0.22763
3.58212 -0.10383 1.89596 0 -20.73785 21.67813 0.50996
-3.73562 0.18002 4.49091 0 16.17728 25.26451 1.16142
0.92734 0.06270 0.77213 0 -26.29116 14.44904 0.56621
23.61658 -0.24637 9.20927 0 -11.21349 -27.82549 0.38972
4.59897 0.00719 4.17337 0 -4.40199 -29.67529 0.88679
0.14049 -0.11646 0.52530 0 -7.00753 -29.17010 0.52020
7.00704 0.09076 5.28869 0 -17.60281 -24.29282 0.74726
-15.63671 0.25416 8.67545 0 25.85965 15.20784 0.55377
-1.02824 0.07862 0.89308 0 -4.24245 29.69851 0.62269
24.18868 0.11175 16.53015 0 27.98446 10.81064 0.68287
8.91877 0.25529 11.48845 0 -9.48023 28.46270 1.28014
0.70994 -0.15054 0.43884 0 -29.62536 4.72632 0.35788
0.94806 0.16940 0.48154 0 -20.49611 21.90683 0.34953
-0.05157 -0.24414 0.32953 0 1.38516 -29.96800 0.32909
8.52875 -0.07209 3.34013 0 -12.95395 -27.05910 0.38909
18.33799 0.13325 9.39130 0 -19.91417 22.43716 0.51146
-2.73875 0.26346 2.43498 0 21.93000 -20.47133 0.83524
-2.04648 -0.19366 0.85238 0 -28.97099 7.78986 0.37432
-0.53770 0.22286 0.70266 0 4.52504 -29.65677 0.61889
2.30640 0.21368 2.49150 0 2.04592 -29.93015 0.99124
0.40166 -0.14542 0.65955 0 -5.40823 -29.50849 0.61203
18.82670 0.00306 11.46216 0 -23.16575 -19.06169 0.60805
1.10480 -0.01005 0.74067 0 -7.99375 28.91539 0.49710
2.68671 -0.17396 0.55970 0 -9.08006 28.59288 0.19541
6.26421 -0.04428 3.50678 0 -8.72139 28.70431 0.55290
-2.07994 0.07644 0.46600 0 -17.84332 -24.11671 0.20210
17.37309 -0.17866 8.17293 0 10.20716 28.21017 0.46976
-12.23651 0.25072 4.05426 0 29.79063 -3.53816 0.33037
-0.53594 -0.12220 0.61867 0 -26.58678 13.89760 0.54531
-0.00758 0.01641 0.30158 0 22.78453 -19.51577 0.30158
-3.31842 -0.03720 1.98094 0 -4.01968 -29.72948 0.57164
-5.33988 0.21177 1.56831 0 -3.39016 -29.80783 0.28883
15.07446 -0.18651 4.01968 0 18.01154 -23.99134 0.26625
-12.46067 -0.05314 8.47422 0 10.82914 27.97731 0.67797
0.07907 -0.25001 0.27096 0 16.19903 -25.25057 0.27012
-6.05249 -0.14497 3.39502 0 -6.33092 -29.32438 0.55351
0.01318 0.17522 0.30841 0 -21.46322 -20.96020 0.30838
-0.96096 -0.15979 0.83500 0 22.05543 20.33612 0.60212
