-2.17789 -0.14443 1.42677 0 -14.19067 26.43151 0.59543
0.32127 0.15621 1.24561 0 -14.93509 26.01813 1.18591
0.41172 -0.26249 0.55288 0 11.43839 -27.73379 0.51126
20.36886 0.20756 13.53374 0 -27.48534 12.02316 0.66371
2.66074 0.23013 1.34043 0 -1.86789 29.94179 0.47166
-19.38143 0.02593 10.89616 0 28.93944 7.90624 0.56154
9.57663 0.05807 2.84313 0 25.80883 -15.29393 0.29544
-2.21304 -0.02737 1.33805 0 -8.21513 28.85328 0.55108
-1.25579 0.11970 0.67037 0 27.82233 -11.22132 0.41767
-5.65002 -0.24366 5.50023 0 -3.06552 29.84297 0.95862
-1.48403 0.13655 0.59829 0 -6.97622 -29.17760 0.33442
4.09633 -0.15681 2.99076 0 -29.97188 1.29863 0.70931
18.97089 0.21526 45.41259 0 16.06126 25.33843 2.39051
-16.95959 0.18003 10.25010 0 0.26618 -29.99882 0.60342
-8.78963 0.04462 7.81634 0 -8.51230 28.76701 0.88362
10.02340 -0.17517 2.93307 0 -17.51929 -24.35312 0.29134
0.57836 -0.17182 0.56595 0 29.87769 2.70621 0.48994
1.07508 0.08404 0.68289 0 7.11215 29.14476 0.46514
-5.38993 -0.15976 5.83332 0 18.28877 -23.78068 1.06415
0.79180 0.13976 1.19112 0 20.28359 22.10376 0.93386
19.05476 -0.16006 13.99365 0 -28.59090 -9.08627 0.73345
-7.04293 0.25377 10.99037 0 -28.68534 8.78357 1.54502
20.27859 0.05810 12.08113 0 -29.84257 3.06941 0.59512
1.53923 -0.11879 0.64542 0 28.72193 -8.66320 0.35172
-2.24931 0.23981 1.10044 0 16.08258 25.32490 0.44730
8.22438 -0.00291 4.08675 0 21.28458 21.14159 0.49337
0.72773 -0.14033 0.40013 0 17.23689 24.55381 0.32358
4.68007 0.22635 1.44093 0 11.98925 27.50014 0.30122
0.35281 0.12777 0.97366 0 -2.30823 29.91107 0.91820
-1.89738 -0.20976 2.56033 0 -25.16691 16.32871 1.19378
-6.32710 0.07291 4.30065 0 11.63420 -27.65222 0.67146
-22.48952 -0.15912 18.86296 0 27.41499 12.18271 0.83798
6.44101 -0.03181 2.87854 0 18.45368 -23.65294 0.44172
-0.52042 -0.21059 0.74917 0 18.08149 23.93867 0.66458
-25.55253 0.01695 10.87814 0 19.98574 -22.37343 0.42551
1.47932 -0.18808 0.84791 0 14.80007 26.09517 0.47493
-15.74308 0.22057 9.50813 0 -26.29671 -14.43893 0.60282
-1.92307 0.10330 0.63599 0 -29.53173 -5.27985 0.29351
-0.41106 0.18913 0.50765 0 29.92937 2.05732 0.46954
0.70771 -0.03743 0.93415 0 -0.55541 29.99486 0.76254
-0.58144 -0.05329 0.77632 0 -10.68410 28.03302 0.67114
-6.33568 -0.14544 5.75558 0 0.53430 -29.99524 0.89738
6.79236 -0.19687 2.70124 0 13.49187 26.79495 0.39357
24.87965 -0.14323 17.25922 0 25.75904 -15.37764 0.69322
2.11646 -0.05954 1.49203 0 -16.42712 -25.10278 0.63747
0.20959 -0.19305 0.48872 0 29.98976 -0.78390 0.47833
-2.78398 0.25365 1.73192 0 28.93088 7.93753 0.58559
-7.53928 -0.06340 3.27963 0 -29.96665 -1.41422 0.43134
8.73697 0.21487 4.01280 0 -4.91184 -29.59517 0.45642
0.96607 0.15507 0.33396 0 4.12428 -29.71515 0.24025
-19.43365 0.23524 3.87101 0 29.40331 -5.95363 0.20229
2.12973 -0.12409 1.32924 0 28.99536 7.69865 0.56513
5.07361 -0.10833 11.94342 0 14.59492 -26.21046 2.30963
-5.93487 0.12136 2.61077 0 -28.99706 7.69224 0.43385
10.14218 -0.17491 2.12155 0 29.45603 -5.68704 0.25355
-19.55246 0.06231 7.70804 0 -17.44088 24.40933 0.39383
-16.22806 0.00828 5.93827 0 27.97844 -10.82622 0.36537
-0.93685 -0.16460 1.51143 0 -29.99720 -0.40975 1.10303
-13.34184 -0.06641 2.74789 0 -29.98957 0.79101 0.20562
-2.79322 -0.15355 1.46618 0 8.99297 28.62039 0.49423
-0.05625 -0.01056 0.80238 0 -4.12780 29.71466 0.80112
-8.68960 -0.17317 6.77747 0 -28.61188 -9.02000 0.77490
-15.25833 0.19513 7.33359 0 8.27716 -28.83554 0.47970
1.19978 0.01096 1.18608 0 27.65304 11.63227 0.75942
4.88311 0.07528 3.58622 0 -28.38517 9.70989 0.71955
0.13215 -0.07909 0.22303 0 -24.90282 16.72870 0.22111
8.92790 -0.09827 3.89703 0 27.45943 -12.08219 0.43390
1.48058 -0.22115 1.00600 0 -29.93427 -1.98475 0.56312
-7.98256 -0.12062 3.52358 0 22.52131 -19.81894 0.43810
-3.11936 0.04588 1.36936 0 -19.95005 22.40526 0.41808
-11.44883 -0.10875 6.94405 0 22.63196 19.69249 0.60431
-0.27043 -0.09905 0.78592 0 -2.33396 -29.90907 0.75867
-1.69403 0.10712 1.14016 0 26.29869 -14.43534 0.57964
16.63846 -0.05895 20.34795 0 -24.67889 17.05733 1.22078
-0.46059 0.00329 0.52863 0 -12.29005 -27.36704 0.48017
-10.09983 0.19116 4.21789 0 -29.89558 -2.50085 0.41570
20.06097 -0.11426 10.40564 0 11.96316 27.51150 0.51815
5.60308 -0.13525 2.06801 0 29.70961 4.16403 0.38975
-12.16889 0.23172 4.29768 0 -29.83209 3.16959 0.35212
1.02195 0.24771 0.43470 0 6.77122 29.22585 0.30411
26.57571 0.16280 5.33247 0 -23.09054 19.15272 0.20075
-0.30871 0.08559 0.24868 0 -24.39196 -17.46517 0.23764
1.57988 -0.16908 0.69823 0 -26.63762 13.79989 0.37350
-0.26835 -0.22039 0.86900 0 19.63809 -22.67918 0.83931
1.06148 0.14479 0.82490 0 1.64963 29.95461 0.55899
1.92731 -0.24140 1.03319 0 -21.45213 -20.97156 0.47591
25.58020 0.08180 12.36073 0 25.31733 16.09450 0.48295
-2.43689 -0.21128 0.73270 0 -23.87158 -18.16997 0.27831
-0.00137 0.04763 0.67324 0 -29.44191 5.75968 0.67324
9.33026 -0.17830 5.89918 0 29.80097 3.44997 0.62874
0.58666 -0.09586 0.34636 0 27.04555 12.98223 0.29879
2.91782 0.05922 0.63154 0 -7.82494 -28.96153 0.20491
8.20539 -0.13160 0.75204 0 18.05854 23.95598 0.20003
-0.96652 -0.19083 0.89522 0 -17.29030 -24.51623 0.64373
-4.06356 -0.12198 2.66808 0 19.45576 -22.83580 0.63762
-11.43261 -0.14719 5.87655 0 24.50312 -17.30887 0.51216
-11.48133 0.22748 8.97062 0 14.13749 -26.46000 0.77844
-14.08451 -0.23091 6.99091 0 28.53818 9.25053 0.49521
-0.04812 -0.13189 0.30871 0 -29.99279 0.65773 0.30835
-1.17170 0.06773 0.49386 0 -29.92627 -2.10193 0.39225
-1.65764 0.15989 0.47185 0 -16.75240 24.88689 0.24394
-4.38768 0.24802 4.25863 0 29.99896 -0.25010 0.94641
-0.38851 -0.13846 0.62856 0 -28.37124 9.75054 0.58591
15.05465 0.15943 9.44928 0 -29.69647 4.25675 0.62636
-7.02533 -0.15618 5.43501 0 -29.54642 -5.19703 0.76597
-14.85414 0.09977 5.33640 0 4.82275 29.60981 0.35858
3.84218 0.10104 1.40760 0 -5.79653 29.43468 0.35464
-15.35002 0.22744 11.69817 0 26.65092 13.77419 0.76055
0.83717 -0.15627 1.72273 0 17.48986 24.37426 1.32095
-0.73634 0.09894 0.51383 0 20.36936 -22.02474 0.41379
1.01528 0.23810 0.50967 0 11.98473 -27.50212 0.35773
0.79645 -0.13434 1.74491 0 -29.21050 6.83716 1.36493
10.08144 0.18232 7.93363 0 -29.99656 0.45421 0.78317
-3.08038 -0.20534 0.94642 0 29.99973 -0.12767 0.29243
4.56444 0.25082 2.03803 0 18.26350 -23.80010 0.43623
-7.56579 0.22877 4.93635 0 -2.31360 -29.91065 0.64691
-2.17014 -0.14863 1.33043 0 26.58937 13.89264 0.55684
-3.89892 -0.00377 2.46474 0 -29.96584 -1.43124 0.61239
-0.09223 0.18460 0.38219 0 -27.10188 12.86422 0.38057
-20.44766 0.10663 22.16928 0 9.04204 28.60492 1.08295
-23.87587 -0.12065 16.80461 0 -29.42808 5.82994 0.70329
-2.47150 0.13014 1.20259 0 15.66073 -25.58792 0.45112
11.88823 -0.07329 3.34085 0 3.25476 29.82292 0.28021
5.04230 0.09987 1.07601 0 -29.01186 -7.63624 0.20942
-0.34597 -0.24834 1.50072 0 26.61589 -13.84176 1.41825
-0.15524 -0.05352 0.24974 0 8.85001 -28.66491 0.24679
6.60943 -0.12768 4.85024 0 -17.43299 24.41498 0.72564
1.99909 0.19374 1.42387 0 21.77827 20.63267 0.63706
16.32451 0.07013 15.77690 0 -24.83910 -16.82317 0.96470
-0.17615 -0.06110 1.56952 0 -25.69398 -15.48611 1.54572
-0.19330 0.03420 1.18420 0 -14.68155 -26.16203 1.16268
-16.76436 0.07019 12.25873 0 28.77098 -8.49886 0.73001
-13.09755 -0.04967 4.43036 0 22.79555 -19.50290 0.33742
-4.89724 -0.02125 4.00915 0 27.04197 12.98969 0.80218
3.82560 -0.01136 2.41257 0 -21.79551 20.61445 0.61022
-0.36005 -0.19692 0.41427 0 -27.89917 11.02889 0.38979
-1.43020 0.24492 0.72090 0 14.56070 26.22949 0.42417
-2.32855 -0.11810 1.68991 0 6.44269 -29.30003 0.66689
-2.08578 0.02241 0.90638 0 -19.15573 23.08805 0.39197
-1.11516 0.14171 0.73483 0 -19.82226 22.51839 0.49064
19.51953 -0.03252 7.26274 0 -22.14537 -20.23814 0.37172
0.46576 -0.14157 0.27241 0 27.57030 -11.82701 0.24698
-13.96652 -0.03296 6.32610 0 29.65302 -4.54958 0.45190
-1.25295 -0.09105 1.86651 0 -22.50467 19.83783 1.16436
-0.24172 0.11524 1.22437 0 -10.84546 -27.97099 1.19010
4.48775 0.22375 1.02043 0 -22.96702 19.30067 0.22216
3.95956 -0.25317 3.38999 0 29.45826 5.67546 0.83018
4.38479 0.07811 1.21577 0 24.18485 17.75086 0.27044
14.10563 -0.21404 5.34860 0 -25.18760 -16.29678 0.37836
-17.88818 -0.15402 11.23005 0 10.03655 28.27132 0.62689
7.58824 -0.23759 4.15654 0 -25.59483 -15.64943 0.54315
14.24824 -0.00174 16.45731 0 29.01535 7.62295 1.15225
1.74562 0.22595 1.02699 0 -5.53240 29.48546 0.51054
-0.28982 0.26142 0.97488 0 0.62003 -29.99359 0.93636
-1.01502 -0.13767 0.76454 0 -23.43363 -18.73139 0.53660
0.24626 0.09164 0.93058 0 -29.60417 -4.85725 0.90359
1.00428 0.00099 0.33891 0 -18.95438 23.25363 0.23926
-12.34985 -0.20822 5.84443 0 -24.00912 -17.98783 0.47180
-10.21974 -0.02385 9.41707 0 25.59007 15.65721 0.91713
-3.13885 -0.07309 2.73113 0 0.60741 -29.99385 0.82912
1.24874 0.20104 0.68136 0 29.89178 2.54582 0.42597
18.75988 0.03637 5.96266 0 -14.92197 26.02566 0.31754
-6.06023 -0.24454 5.80422 0 -28.35762 -9.79006 0.94503
-7.43266 -0.07232 6.70903 0 17.79647 24.15131 0.89464
-1.40309 0.10475 1.10588 0 -13.99329 26.53654 0.64190
0.69080 -0.07727 0.38692 0 -28.71016 8.70213 0.31839
0.65609 0.12224 1.15044 0 29.07375 -7.39710 0.96191
-14.99087 0.10539 15.12832 0 -29.98199 -1.03925 1.00698
-12.80111 -0.22233 18.59739 0 -20.91496 -21.50731 1.44842
22.52619 0.09194 32.42981 0 -9.93427 -28.30743 1.43827
5.50208 0.06861 1.79661 0 29.67884 4.37796 0.32140
-1.78623 -0.07904 0.79380 0 3.57982 -29.78565 0.38785
0.25747 -0.11732 0.47817 0 15.43326 -25.72576 0.46308
0.91653 -0.04144 0.61722 0 -24.96388 -16.63745 0.45506
3.66728 0.05154 1.51183 0 -28.36081 -9.78083 0.39778
-12.80464 -0.14301 11.13793 0 -27.81916 11.22918 0.86725
-15.26179 0.12941 9.78885 0 11.31061 27.78615 0.64010
0.85205 -0.25561 0.79608 0 -11.14789 -27.85183 0.60599
3.94866 0.18257 1.21558 0 25.64802 15.56210 0.29858
10.63701 0.12743 3.62922 0 5.15822 -29.55322 0.34441
0.61843 0.08571 0.69731 0 29.32328 6.33602 0.59309
0.09646 -0.12568 0.21589 0 29.75018 -3.86350 0.21490
1.94637 0.21514 1.27997 0 20.44890 -21.95091 0.58499
-15.13216 0.21105 7.53570 0 28.07248 -10.57998 0.49701
15.61554 0.08985 9.76253 0 25.22050 16.24581 0.62398
14.76745 0.18836 10.73006 0 -26.12938 14.73958 0.72501
20.51145 0.19832 16.56569 0 15.46512 -25.70662 0.80673
-0.13710 -0.04278 0.43069 0 -25.58881 15.65926 0.42670
-12.38306 0.13292 9.18171 0 -27.83547 11.18868 0.73913
-1.17401 -0.02600 0.71967 0 26.48433 14.09185 0.46671
-0.13323 0.21124 1.14387 0 16.93526 24.76282 1.13385
-2.98773 -0.17587 0.70980 0 -25.97204 -15.01509 0.22543
-14.91921 -0.04123 11.17342 0 -28.52308 9.29697 0.74732
-8.16440 0.06949 3.17448 0 -28.63683 8.94047 0.38606
-6.74852 0.00324 3.87976 0 23.54968 18.58528 0.56878
-0.75656 0.07686 1.28525 0 -13.26572 26.90763 1.02498
-19.48371 -0.18544 12.14988 0 -26.58668 13.89779 0.62285
-9.17494 -0.03705 2.72277 0 10.88592 27.95526 0.29518
1.13809 -0.19522 0.43887 0 3.98359 -29.73434 0.28978
1.31340 -0.01347 0.56260 0 -26.26620 14.49437 0.34089
1.37755 -0.25412 0.59398 0 26.67133 13.73464 0.34901
17.28022 0.13655 7.75259 0 5.00203 29.58006 0.44800
0.83524 -0.11815 1.31211 0 4.61470 -29.64295 1.00707
-1.13376 -0.19561 2.07679 0 9.67697 28.39641 1.37378
-0.47715 -0.10692 0.54524 0 25.19780 16.28100 0.49212
-15.20129 0.11176 14.13541 0 15.77484 25.51773 0.92793
1.62631 0.03563 1.11092 0 21.90710 20.49582 0.58198
-2.04653 0.18922 1.98551 0 -27.36249 -12.30016 0.87173
-0.27522 0.01157 0.64623 0 -11.51862 -27.70057 0.62307
3.16909 0.20521 1.42893 0 26.98407 13.10954 0.43007
4.40714 0.03587 2.64032 0 -12.72548 27.16730 0.58438
4.98448 -0.13114 3.03169 0 -8.78165 28.68593 0.59643
-6.25860 0.00207 2.16484 0 29.53716 5.24942 0.34171
-19.56279 0.17910 15.42401 0 5.37585 29.51441 0.78747
-6.98844 0.04660 3.26451 0 29.15749 7.05979 0.46252
-1.21429 -0.21258 0.83777 0 -15.50292 -25.68384 0.53263
6.24242 -0.10666 2.73284 0 -12.38864 -27.32255 0.43238
-2.17357 0.24100 0.84598 0 -29.57082 5.05637 0.35363
2.19716 -0.01849 0.53473 0 -23.26632 -18.93880 0.22162
-1.25089 -0.15047 0.35515 0 23.44477 18.71745 0.22190
-6.23547 -0.19419 2.82145 0 4.88867 29.59900 0.44688
2.74444 0.17019 0.88654 0 -29.65356 -4.54602 0.30355
1.87518 -0.00985 1.30357 0 -23.74151 -18.33959 0.61348
-8.84694 -0.25194 4.75614 0 -24.98191 -16.61036 0.53429
-25.54941 0.04214 17.27391 0 29.19068 -6.92128 0.67565
-25.63418 -0.21107 23.34577 0 -9.03449 28.60731 0.91009
-5.61402 0.10702 5.73631 0 -27.41837 12.17509 1.00600
-4.28972 0.00284 1.49307 0 -29.01791 7.61322 0.33909
2.65492 0.19785 0.93447 0 15.92988 25.42123 0.32955
-11.90547 0.05647 5.32089 0 -23.30904 18.88620 0.44547
24.14654 0.06638 5.27973 0 29.97580 -1.20476 0.21869
0.85565 -0.11198 0.66385 0 24.80922 16.86721 0.50445
0.62990 0.24585 0.34186 0 29.55249 5.16242 0.28932
-7.01683 -0.01032 2.47939 0 -5.71899 29.44984 0.34995
-1.78650 -0.15489 1.45943 0 7.34310 -29.08744 0.71290
21.74520 -0.16706 15.87474 0 -25.51457 -15.77995 0.72933
11.75656 0.20351 10.04288 0 -18.46676 -23.64273 0.85122
10.37098 0.10702 8.02486 0 28.12934 10.42785 0.77027
-16.08605 0.08919 4.45768 0 28.83715 -8.27155 0.27676
-1.06543 -0.14814 0.35735 0 -12.56139 27.24356 0.24468
-10.35831 0.11225 6.21342 0 -2.11916 29.92506 0.59715
-0.86171 0.15332 0.60697 0 16.58929 -24.99591 0.45985
-0.49508 -0.06001 0.33310 0 -22.81002 19.48597 0.29855
-0.00371 -0.12628 0.71375 0 22.74786 -19.55850 0.71374
13.24750 0.18772 5.50071 0 23.08665 19.15741 0.41416
-3.94893 -0.05038 4.10092 0 -27.95428 10.88845 1.00677
12.62700 0.24645 5.26035 0 -25.45757 15.87175 0.41541
19.59128 -0.05152 26.97643 0 24.63496 17.12071 1.37521
0.46100 -0.07265 0.55989 0 -3.96036 -29.73744 0.50847
-2.53150 0.12205 2.53410 0 -0.93003 -29.98558 0.93109
0.47547 0.21748 0.45332 0 -29.99970 0.13493 0.40942
-12.36384 -0.00247 4.38666 0 -25.43451 15.90867 0.35378
10.80658 0.18416 7.27021 0 -18.04329 -23.96747 0.66997
-7.31711 -0.04755 2.75175 0 28.13896 10.40187 0.37274
1.79553 0.05663 2.09618 0 -26.27940 14.47042 1.01998
-0.36919 -0.06588 0.23369 0 29.66862 -4.44670 0.21925
-3.47867 -0.10123 1.77668 0 29.18045 -6.96428 0.49091
-4.89321 0.00093 1.92897 0 26.82788 -13.42628 0.41710
-0.75775 0.06968 0.43702 0 13.57898 26.75091 0.34835
5.88912 -0.00612 1.05804 0 0.56526 29.99467 0.17730
25.61087 -0.03656 10.89920 0 26.52388 -14.01726 0.42536
-6.43798 -0.21983 3.37876 0 -3.43563 29.80262 0.51869
-10.90268 -0.21442 4.68488 0 16.54992 25.02200 0.42802
0.70736 -0.23841 0.73374 0 2.14947 -29.92290 0.59905
-3.63242 -0.03021 2.52187 0 17.04435 -24.68786 0.66944
0.44107 0.01807 0.65275 0 -4.24139 -29.69866 0.59724
-14.77749 0.16754 10.37669 0 -12.52319 27.26114 0.70066
6.93958 -0.14897 2.67144 0 -7.11941 -29.14299 0.38115
4.00693 0.04966 2.81502 0 14.26577 -26.39105 0.68170
-0.48714 -0.23919 0.42518 0 16.63474 24.96568 0.38226
0.54104 0.05205 0.59526 0 14.43318 -26.29988 0.52356
6.58806 -0.15603 3.23001 0 -17.29091 24.51580 0.48483
-0.56829 0.17719 0.42228 0 -29.53300 5.27277 0.36718
-1.95622 0.15010 0.88056 0 27.74937 -11.40056 0.40088
-10.60108 0.09023 4.51343 0 -3.68484 -29.77284 0.42399
-9.10136 0.13067 5.08856 0 3.57438 -29.78630 0.55584
-4.26727 0.03293 2.97161 0 2.83813 29.86545 0.67811
-7.92926 -0.13201 2.49019 0 -27.33615 12.35859 0.31174
2.41515 -0.23016 0.33056 0 -29.43083 5.81604 0.12657
-4.31253 -0.24806 2.12949 0 29.16369 7.03414 0.48116
-2.60622 0.24088 0.50345 0 -13.39683 26.84260 0.18047
-11.70420 0.20726 4.17241 0 -29.55600 5.14229 0.35533
-10.78048 -0.02476 4.52822 0 -11.73432 -27.60988 0.41836
12.41581 0.11145 19.54260 0 14.31118 26.36646 1.56896
-0.70055 -0.19949 0.39119 0 18.20613 -23.84401 0.33285
-11.61863 -0.00587 7.73992 0 -28.17006 -10.31736 0.66379
-23.53947 -0.19791 22.02363 0 24.78814 16.89817 0.93481
-2.70317 -0.01024 6.39808 0 -27.89610 -11.03666 2.21988
19.02727 0.16334 6.03211 0 -15.94729 25.41031 0.31674
0.54861 0.22922 0.48804 0 -27.64508 -11.65115 0.42791
-3.08268 0.00778 2.60543 0 27.92552 -10.96198 0.80404
2.67123 0.09803 1.28088 0 -23.13161 -19.10310 0.44912
-1.32081 -0.14307 1.11675 0 0.01977 -29.99999 0.67414
-2.40626 0.19791 2.39684 0 24.24347 -17.67072 0.91986
-0.99625 -0.25695 0.94604 0 19.00388 -23.21320 0.67025
-0.34499 -0.19404 0.41004 0 -20.90457 21.51741 0.38764
0.65459 -0.05513 0.42528 0 -27.93420 -10.93986 0.35586
-0.44246 0.18786 0.72336 0 -21.90229 -20.50096 0.66152
-4.48875 0.15682 1.40736 0 -0.78811 29.98965 0.30617
-15.83426 -0.00375 8.46616 0 4.20221 -29.70423 0.53370
15.41914 -0.15029 7.32056 0 -2.72846 -29.87567 0.47388
9.39086 -0.21003 4.58985 0 -18.54907 -23.57821 0.48611
3.85001 -0.07169 2.75582 0 25.98957 14.98473 0.69285
-22.97080 0.10705 20.40867 0 28.40178 -9.66121 0.88767
13.04352 -0.03718 20.84613 0 -26.59268 13.88629 1.59355
5.15914 -0.01499 1.35754 0 10.41916 -28.13256 0.25852
7.80178 -0.24330 1.78593 0 11.20406 -27.82928 0.22727
5.90118 0.03005 1.97223 0 -7.05297 29.15914 0.32962
4.34479 -0.04946 2.13210 0 29.18828 6.93141 0.47830
0.42380 -0.04025 0.36502 0 8.62925 28.73214 0.33612
-2.23634 -0.09250 0.69011 0 27.85251 11.14619 0.28199
-2.38590 -0.10837 2.98982 0 27.07681 -12.91690 1.15574
-10.45664 0.10238 3.96510 0 -11.60987 -27.66245 0.37760
-5.12950 -0.04937 1.67361 0 -26.86375 -13.35436 0.32032
-3.72243 0.13880 0.79905 0 4.41285 -29.67367 0.20748
14.28360 0.20748 15.20663 0 -17.75342 -24.18297 1.06207
6.63007 -0.11060 4.22336 0 29.99709 -0.41805 0.62995
-7.72353 0.03527 6.80906 0 -23.96345 -18.04863 0.87436
0.94311 0.01157 1.07739 0 18.95440 -23.25362 0.78382
2.00180 0.08955 0.68199 0 10.31088 28.17243 0.30486
-2.11407 -0.16123 2.44541 0 -3.84906 -29.75205 1.04569
-4.04107 0.01528 1.97155 0 24.35465 17.51717 0.47370
-26.06671 0.22398 12.74998 0 29.96825 1.37994 0.48887
-2.79495 -0.00928 1.61836 0 21.33092 -21.09483 0.54525
26.02690 -0.03482 15.51789 0 0.86686 -29.98747 0.59587
8.38315 0.04420 2.12653 0 21.58304 -20.83681 0.25207
2.86013 0.21669 1.91658 0 25.77866 15.34472 0.63264
-0.90763 -0.01984 0.56451 0 -23.90524 18.12566 0.41806
-0.82120 0.17962 0.36013 0 22.49977 19.84339 0.27838
-11.52086 0.13740 6.33528 0 -18.50477 -23.61299 0.54793
-17.08988 -0.11518 9.96203 0 29.77684 3.65237 0.58201
-1.51121 -0.25805 2.13095 0 -22.35016 20.01175 1.17598
-5.25243 -0.06175 1.39120 0 -27.72534 11.45885 0.26036
-12.64389 -0.11191 3.14886 0 -14.94008 -26.01526 0.24846
0.36563 -0.14851 1.13016 0 -25.10093 -16.42995 1.06144
-0.73398 0.17208 0.49517 0 -9.47276 28.46519 0.39922
-4.50724 0.14820 1.34788 0 -29.87244 -2.76356 0.29208
-6.07535 -0.08934 3.20975 0 -16.44598 25.09043 0.52140
-0.33820 -0.22086 1.00666 0 9.44614 28.47403 0.95360
0.81390 -0.08836 0.88746 0 27.40138 -12.21328 0.68832
4.19648 -0.25112 3.18389 0 -7.19938 29.12334 0.73809
4.34797 -0.10003 0.75193 0 18.03902 -23.97069 0.16863
-1.59979 0.08033 0.73560 0 15.17076 25.88142 0.39001
-0.82866 0.10865 0.87228 0 27.95749 -10.88020 0.67168
0.60220 -0.19548 0.55354 0 -23.55430 -18.57942 0.47424
9.82408 -0.06611 5.90452 0 -0.62779 29.99343 0.59802
10.15813 0.14139 3.20233 0 25.56632 15.69596 0.31389
9.69546 0.00285 3.40181 0 28.84425 8.24677 0.34915
12.61302 0.00846 5.27986 0 -10.96972 -27.92249 0.41741
4.45057 -0.09338 2.34045 0 -21.01920 -21.40545 0.51318
-0.62996 0.06590 0.34932 0 25.31612 -16.09640 0.29562
10.58676 -0.16437 4.98935 0 -29.98877 0.82088 0.46930
0.47670 -0.13971 0.59682 0 21.99939 20.39674 0.53876
-4.41098 0.15889 2.88151 0 19.74589 -22.58539 0.63735
2.00531 0.23054 1.12798 0 2.73064 -29.87547 0.50346
3.82469 0.16579 1.33352 0 -16.29501 -25.18874 0.33743
1.36759 0.16388 0.68448 0 -9.26872 -28.53228 0.40411
20.95493 -0.01875 10.36282 0 14.18041 26.43702 0.49406
5.77141 -0.15091 2.14925 0 27.95726 10.88078 0.36704
4.48491 0.04368 3.00171 0 -29.77337 3.68056 0.65334
1.94868 -0.10288 1.04742 0 -14.27094 26.38826 0.47829
1.02798 0.20752 0.83942 0 11.12202 -27.86217 0.58535
-0.32718 0.13166 0.29747 0 -5.85424 29.42325 0.28274
-16.57474 -0.12492 8.20768 0 -24.40903 17.44130 0.49439
12.00325 -0.04504 6.78682 0 10.11551 28.24317 0.56355
15.89553 -0.13716 22.56322 0 -12.07319 -27.46340 1.41670
9.77540 -0.19614 7.19672 0 19.90523 22.44509 0.73245
1.85134 -0.13991 1.07036 0 21.29474 21.13135 0.50877
1.13821 0.21239 1.08891 0 27.83808 -11.18218 0.71875
-3.72683 -0.03802 1.24148 0 17.54088 -24.33757 0.32180
-13.72583 0.10456 4.59270 0 4.88103 29.60026 0.33386
-11.72170 -0.19715 7.94393 0 29.07956 -7.37422 0.67533
-13.60209 0.26243 3.07613 0 3.78702 29.76001 0.22576
-14.30449 -0.01545 8.90128 0 -28.95891 -7.83464 0.62084
19.70630 -0.00055 6.29209 0 19.13886 23.10204 0.31904
-4.58056 -0.11760 1.97285 0 -14.52134 26.25130 0.42103
-0.11948 -0.18336 0.28827 0 16.01863 25.36540 0.28624
0.48485 -0.22719 0.61745 0 -26.13498 14.72965 0.55561
-0.31385 -0.02823 0.30536 0 -2.87478 -29.86194 0.29136
3.67539 0.13541 0.74984 0 2.71383 29.87700 0.19693
0.49029 0.10848 0.50169 0 -2.00901 29.93266 0.45048
-3.22187 0.25403 1.32931 0 -19.29671 22.97035 0.39413
-1.10313 -0.22926 1.29585 0 -29.76169 3.77381 0.87036
12.96179 0.26256 5.46529 0 28.89632 -8.06241 0.42051
12.30305 -0.13846 10.21224 0 29.74822 -3.87858 0.82739
-14.63565 0.25279 7.05872 0 8.75910 -28.69282 0.48128
1.13112 -0.24142 0.44706 0 -5.63768 29.46552 0.29621
4.61752 0.26280 1.92813 0 27.19925 12.65704 0.40821
22.64879 0.22456 10.59446 0 11.82219 27.57237 0.46742
4.10012 0.26191 5.85037 0 -14.01970 26.52259 1.38628
5.15212 -0.15781 4.05051 0 -27.70011 11.51973 0.77184
1.39588 -0.13879 0.85378 0 -4.76489 29.61918 0.49727
1.56584 -0.08048 1.21822 0 12.41136 -27.31223 0.65574
-7.57302 0.03121 6.77071 0 -29.66159 4.49332 0.88642
1.24424 -0.04692 0.51827 0 10.86815 -27.96218 0.32478
15.43431 0.24212 9.03565 0 -0.55715 -29.99483 0.58428
0.20996 0.21003 0.39108 0 -18.70843 23.45197 0.38274
14.64470 0.08698 2.95698 0 -28.94037 7.90284 0.21353
6.29182 -0.02358 6.90197 0 -29.97209 -1.29374 1.08342
7.80365 -0.07500 4.87537 0 -27.75977 11.37520 0.61977
0.18274 0.01388 0.75938 0 -29.97493 -1.22623 0.74701
6.55239 -0.04534 3.74381 0 17.26734 24.53240 0.56491
2.93061 -0.09726 0.60479 0 -12.36091 27.33510 0.19544
-12.25573 0.12330 9.86490 0 15.22971 -25.84678 0.80232
7.53584 -0.23362 1.78564 0 16.03270 -25.35651 0.23510
-8.15936 0.02173 3.27687 0 21.82083 -20.58765 0.39875
-22.16290 0.12727 16.65574 0 8.53240 -28.76105 0.75082
-6.72783 0.07641 4.71235 0 -23.14709 -19.08434 0.69288
-1.44374 -0.09064 0.93232 0 26.51821 14.02799 0.53093
1.43093 0.02077 1.30427 0 -14.94047 -26.01504 0.74718
0.48840 -0.08829 0.37231 0 17.85956 24.10469 0.33457
1.35928 -0.20229 1.33408 0 -17.21183 -24.57139 0.79062
18.31574 -0.21075 13.52232 0 3.40638 29.80598 0.73726
-3.26593 -0.03176 1.10108 0 -17.78078 -24.16286 0.32246
5.40984 0.12557 1.46392 0 18.38771 -23.70426 0.26627
-4.09647 -0.19543 1.70227 0 -23.95682 18.05743 0.40378
0.07475 0.03296 0.44909 0 -7.26534 29.10695 0.44784
8.53706 -0.20004 1.92821 0 14.44003 26.29611 0.33945
0.19172 0.13042 0.32818 0 -12.72425 27.16788 0.31701
-9.39276 0.22593 2.29724 0 24.75961 -16.93995 0.24340
17.08002 -0.17619 7.36088 0 -1.13217 29.97863 0.43034
0.72344 0.14091 1.28644 0 -26.70414 -13.67073 1.04230
0.32959 -0.25899 0.21878 0 -25.27665 16.15831 0.20781
0.07894 -0.17128 0.96105 0 -26.99283 -13.09149 0.95807
-5.35858 -0.00986 2.70444 0 -12.40455 27.31533 0.49623
-17.84117 0.06376 10.39969 0 -22.56597 19.76808 0.58207
-5.81078 -0.08041 6.06075 0 -1.80557 -29.94562 1.02796
0.65199 0.09449 1.08403 0 17.13748 24.62330 0.90809
-4.76323 0.16869 1.13736 0 -25.26977 16.16906 0.23373
-1.36233 0.20011 0.83955 0 -26.58124 -13.90819 0.49685
-1.02485 -0.00113 0.46433 0 -26.48176 -14.09667 0.39752
-1.50664 -0.00945 1.10912 0 -24.23792 -17.67833 0.54342
-1.19135 -0.15876 0.57383 0 29.69692 -4.25360 0.36900
-3.70240 -0.01936 1.42696 0 7.70277 28.99426 0.37220
-0.78181 -0.19295 0.59774 0 12.12910 27.43875 0.47095
0.82601 -0.00905 0.56660 0 -20.67537 21.73774 0.43688
7.32537 -0.17799 2.36927 0 29.39422 5.99831 0.32061
0.44787 -0.13694 0.74277 0 -29.08668 -7.34610 0.67789
-0.02543 0.12335 0.89131 0 15.95747 -25.40392 0.89102
-12.58883 0.07174 11.25007 0 29.94102 -1.88025 0.89090
-18.28149 0.03577 6.75481 0 -21.01166 -21.41285 0.36907
-1.66036 0.03605 0.47576 0 -26.03778 14.90080 0.24555
-2.68479 -0.08017 1.49341 0 27.82385 11.21755 0.52137
-5.14288 -0.16632 3.15152 0 -29.94515 1.81335 0.60167
3.10729 -0.21244 0.46126 0 24.43782 -17.40095 0.15258
2.57193 0.20836 0.76555 0 27.67616 -11.57715 0.27753
20.75896 -0.16727 14.06398 0 -21.05420 21.37103 0.67678
4.64793 0.15839 0.67272 0 24.08594 17.88484 0.14165
-3.55108 -0.06855 3.60581 0 -19.60160 22.71073 0.97748
-1.54718 -0.03652 0.66529 0 27.96181 10.86909 0.36126
0.49777 -0.14747 0.51320 0 -28.62185 8.98831 0.45946
2.69616 0.07195 1.51152 0 -4.48403 29.66300 0.52573
0.04431 0.24313 0.43280 0 8.41181 -28.79655 0.43238
0.49034 0.19720 0.40610 0 -9.46542 -28.46763 0.36465
-0.37060 -0.25711 0.84942 0 -0.71976 29.99137 0.79648
-0.52727 0.18514 0.72847 0 26.96721 13.14419 0.64440
-7.90344 0.06743 5.77024 0 27.57422 11.81788 0.72438
-1.43311 -0.03039 1.68903 0 -29.72648 4.04185 0.96656
-3.36693 -0.03976 2.31986 0 -11.07825 -27.87960 0.66057
6.38249 0.22137 4.22760 0 29.75700 -3.81063 0.65446
1.59624 -0.03134 1.54323 0 -9.98278 28.29035 0.81934
-0.06218 0.15395 0.58804 0 15.09880 25.92347 0.58691
-4.42898 -0.00175 3.01124 0 20.00964 22.35205 0.66324
-17.64927 0.03948 11.54610 0 29.85146 2.98170 0.65322
-9.42643 -0.08277 2.70896 0 -3.87916 29.74814 0.28594
-2.74986 0.00118 1.15680 0 5.76292 -29.44128 0.39546
-1.41454 -0.07480 0.69681 0 -2.02988 -29.93125 0.40234
0.24617 0.19524 0.37618 0 -27.87923 -11.07918 0.36528
0.06278 -0.16541 1.12261 0 -26.12636 14.74494 1.12040
19.87372 0.13984 43.97849 0 -26.57813 13.91412 2.21012
3.76091 0.17906 2.31400 0 -29.89612 -2.49436 0.59469
14.55618 0.19578 7.77509 0 29.16603 7.02441 0.53298
-0.15267 0.07684 0.50965 0 29.06287 7.43972 0.50381
-0.42681 0.10058 0.23286 0 18.78655 -23.38943 0.21420
-19.81163 0.13152 18.31487 0 -19.13840 23.10242 0.92333
19.18077 0.25508 15.07363 0 -25.53315 15.74986 0.78487
-0.46946 -0.23550 0.43271 0 -26.23365 14.55319 0.39171
-4.18841 0.18659 0.90030 0 12.28152 -27.37086 0.20930
1.42119 0.10109 0.62112 0 -24.12608 17.83065 0.35752
1.34366 -0.03661 0.95655 0 -7.15322 -29.13471 0.57116
2.60004 -0.25336 0.77366 0 7.54600 29.03546 0.27800
1.03628 0.06692 1.88639 0 -28.66888 8.83715 1.30992
-15.45110 0.21891 5.71013 0 -19.63711 22.68003 0.36892
-1.49223 0.22671 0.51395 0 -29.19127 6.91877 0.28621
-16.21961 0.04946 8.73539 0 -21.18557 -21.24080 0.53764
4.92984 0.16101 7.03703 0 -17.34035 -24.48085 1.39903
5.96955 -0.12868 4.21940 0 18.35927 23.72630 0.69719
14.86478 -0.13401 4.36065 0 -5.36202 -29.51692 0.29286
-19.39437 0.24331 6.77198 0 28.75316 8.55897 0.34885
20.63818 -0.11653 2.85758 0 24.98499 -16.60572 0.29183
-13.28159 -0.18803 11.01309 0 25.61037 -15.62398 0.82692
5.51121 -0.13516 1.97345 0 -28.75606 8.54922 0.35241
-0.09442 0.21987 0.53381 0 -17.31204 24.50088 0.53144
-22.35428 0.00973 11.16888 0 22.50846 -19.83354 0.49923
8.35669 -0.22458 5.73167 0 -22.61862 -19.70781 0.68109
17.51554 -0.22965 6.27435 0 -24.20847 -17.71863 0.35777
4.74608 0.11988 3.41199 0 28.47994 -9.42830 0.70354
2.67743 -0.03678 1.44934 0 -26.42611 14.20073 0.50716
14.03309 -0.05585 4.53857 0 0.72229 -29.99130 0.32275
-0.07055 0.21576 0.34206 0 6.69235 29.24402 0.34121
1.08241 -0.24945 0.79420 0 24.91335 -16.71301 0.53899
-1.04446 -0.22559 0.83948 0 0.39034 -29.99746 0.58059
-11.76671 0.20582 5.47090 0 -13.70161 26.68831 0.46338
-4.30693 -0.18173 1.82553 0 -6.59886 -29.26525 0.41295
-1.35959 0.17164 1.64532 0 16.60379 -24.98628 0.97490
25.38515 -0.26126 10.43683 0 13.35705 26.86241 0.41094
-2.30609 -0.21967 0.84378 0 2.21217 -29.91833 0.33581
-17.03715 0.20190 8.79835 0 -22.97034 -19.29672 0.51563
6.61148 -0.03952 5.05951 0 16.65480 -24.95231 0.75672
-14.94147 -0.25575 5.43491 0 29.82454 3.23984 0.36307
9.45286 0.04660 2.59186 0 27.88083 11.07517 0.27284
8.21062 -0.08959 4.40912 0 29.23965 -6.71142 0.53315
2.12951 -0.25502 0.70802 0 -26.72980 13.62049 0.30104
0.90566 -0.05781 0.49051 0 19.20512 -23.04698 0.36364
6.00876 0.06988 1.76510 0 21.40710 -21.01751 0.31373
-10.26514 0.18388 5.49972 0 11.61829 -27.65891 0.53333
1.75078 0.17451 0.88536 0 5.03324 29.57476 0.43923
-1.54784 0.01845 0.71707 0 -4.62471 29.64139 0.38921
0.70640 0.08634 0.28934 0 29.74234 -3.92341 0.23640
-0.09142 -0.12290 0.85373 0 -18.41415 23.68373 0.85018
5.10786 -0.15370 1.98919 0 27.34051 12.34895 0.38251
18.74033 0.19015 9.37250 0 -28.52539 -9.28989 0.49951
3.97366 -0.20542 1.94599 0 11.30577 -27.78812 0.47498
6.60493 0.01392 2.22121 0 -25.12442 16.39401 0.33265
1.86220 -0.04803 0.58992 0 -20.92742 21.49519 0.27921
2.81323 -0.24818 0.77233 0 -29.70383 4.20505 0.25882
9.11500 -0.19741 7.79729 0 29.92320 -2.14528 0.85039
2.38365 0.12164 0.49324 0 -15.02708 25.96511 0.19095
5.49096 -0.12425 3.23485 0 24.87236 -16.77397 0.57968
5.66715 -0.03606 5.51370 0 21.60238 -20.81675 0.95820
4.31124 0.12911 3.64420 0 10.52840 -28.09186 0.82344
1.85467 0.17820 0.69607 0 14.66757 26.16988 0.33048
-18.05510 -0.14489 7.63070 0 0.57606 -29.99447 0.42210
1.47998 -0.22654 0.48263 0 -23.24142 -18.96935 0.27031
17.39116 0.09157 9.98786 0 -26.81402 13.45393 0.57344
17.94242 0.20021 6.15300 0 -29.57797 -5.01435 0.34254
6.09796 0.00262 2.02748 0 -26.93040 -13.21944 0.32825
-2.31350 -0.17435 1.82813 0 -17.98713 -24.00965 0.72537
-16.22925 -0.07398 9.75578 0 23.22137 18.99389 0.55719
-0.60786 0.11906 0.74951 0 7.33627 -29.08916 0.64049
0.87491 0.17347 0.51173 0 -7.94239 28.92954 0.40130
-18.96354 0.08058 10.76762 0 -22.50843 -19.83357 0.56710
2.77862 0.20632 1.63159 0 10.68600 -28.03229 0.55261
1.38157 -0.01662 0.58889 0 9.53896 28.44307 0.34539
-5.41376 0.17375 6.61177 0 4.28378 -29.69258 1.20100
-0.94352 0.21310 0.60704 0 29.73638 3.96836 0.44157
1.49055 -0.06059 2.00763 0 -24.20324 17.72578 1.11854
20.86914 0.23999 6.67920 0 26.43030 14.19293 0.31984
0.85691 -0.04836 0.67494 0 -15.41633 25.73590 0.51255
-15.42542 -0.01526 3.67959 0 -8.73800 28.69925 0.23825
-1.44886 0.10847 0.79448 0 -4.40650 -29.67461 0.45141
1.86566 0.09815 0.97903 0 -4.81143 -29.61166 0.46259
7.15030 -0.08052 3.65363 0 -21.73602 -20.67717 0.50614
0.57210 0.19783 0.36626 0 -29.99045 0.75696 0.31794
3.27511 -0.21251 3.07858 0 28.15296 -10.36393 0.89909
13.42517 -0.23092 7.96397 0 22.15411 20.22858 0.59165
16.16658 0.14500 7.47537 0 7.49520 29.04861 0.46162
11.60716 -0.21514 7.20874 0 -13.68003 -26.69938 0.61885
0.00167 -0.11959 0.22032 0 28.67867 -8.80534 0.22032
1.89727 0.05693 0.92672 0 28.51266 -9.32889 0.43219
1.35509 -0.00571 1.58376 0 -18.30618 23.76728 0.94045
19.56963 0.23441 13.56695 0 16.07315 -25.33088 0.69243
4.48569 0.21485 3.27988 0 20.59848 21.81060 0.71376
-0.02884 0.10569 0.79010 0 29.84046 -3.08986 0.78977
-2.69915 -0.24488 1.53827 0 6.04652 -29.38434 0.53449
12.49729 -0.20753 2.79416 0 27.40546 12.20413 0.22309
-14.85599 0.10215 6.88351 0 25.71745 15.44710 0.46241
-2.70778 0.25153 1.78219 0 28.80680 8.37664 0.61750
-1.12315 -0.04801 1.93997 0 28.49587 9.38006 1.29006
1.29501 0.01833 0.35999 0 -2.85325 -29.86401 0.22013
6.05173 0.25372 3.92369 0 29.10042 7.29146 0.63976
-2.64747 -0.12009 3.77335 0 21.89516 20.50858 1.33339
-0.50146 0.07725 0.36689 0 3.26300 -29.82202 0.32799
-12.97415 -0.00202 7.35225 0 29.11415 -7.23645 0.56509
-1.16112 0.07616 1.85493 0 2.77111 29.87174 1.21051
0.21974 -0.24395 1.00429 0 29.72225 4.07281 0.98089
3.92683 0.16131 2.12543 0 29.35604 6.18244 0.52456
18.59569 -0.16975 6.93178 0 14.75607 -26.12008 0.37236
-0.17073 0.08932 0.41956 0 28.55965 -9.18404 0.41358
-19.15196 -0.24287 31.04238 0 2.66184 -29.88168 1.61868
21.55272 -0.01080 15.27845 0 -10.10798 28.24586 0.70819
-0.59290 -0.08856 0.67365 0 3.42432 -29.80393 0.57949
0.82280 -0.08625 1.67031 0 -10.91663 -27.94328 1.28985
-0.74122 0.10662 0.47696 0 -8.98392 28.62323 0.38322
0.85224 -0.25842 0.52825 0 14.61804 -26.19758 0.40210
0.71591 -0.08684 0.31144 0 -12.44926 -27.29498 0.25328
1.35869 -0.15684 1.43851 0 -21.96337 20.43552 0.85274
