-0.93923 -0.15661 0.34604 0 -26.26229 -14.50146 0.25231
-1.68558 -0.05437 0.83608 0 23.97429 -18.03423 0.42666
3.95645 0.07548 1.06366 0 -21.99500 -20.40147 0.26081
1.83429 0.12478 0.43497 0 29.14865 7.09622 0.20836
-4.25931 -0.13880 3.36779 0 -25.08604 16.45268 0.76987
-18.37515 0.04514 12.88850 0 -4.57008 -29.64986 0.70044
-2.05565 -0.20414 2.09149 0 29.99913 -0.22851 0.91497
5.53817 -0.12694 3.95966 0 3.78829 -29.75985 0.70367
0.40344 -0.22525 0.51129 0 11.37095 27.76151 0.47417
7.40252 -0.00923 2.18139 0 -12.47547 27.28301 0.29219
2.32073 -0.08317 1.76454 0 -29.63901 4.63993 0.69838
1.58227 0.24964 0.98167 0 -0.37485 29.99766 0.52455
1.12826 0.02999 0.29919 0 -22.43730 -19.91400 0.19857
-8.73943 -0.08776 2.72787 0 12.97331 27.04983 0.31027
-1.16805 -0.07300 0.65790 0 26.70765 -13.66388 0.42792
7.51197 -0.13036 1.62205 0 -25.87156 -15.18757 0.21426
12.88845 -0.25497 7.03018 0 10.00943 -28.28094 0.54392
21.07050 -0.21199 13.75379 0 -4.54114 -29.65431 0.65209
4.62093 0.21171 3.27030 0 -19.92435 -22.42812 0.69175
9.63653 0.05912 5.39283 0 -22.68850 19.62733 0.55672
9.06571 -0.04642 2.06011 0 -1.43240 -29.96578 0.22609
-2.28887 -0.00179 2.33300 0 -3.73866 -29.76613 0.93405
-3.56487 -0.12991 1.79060 0 -2.90223 29.85929 0.48370
13.12980 0.24589 7.23347 0 23.15806 19.07103 0.54942
-0.16302 -0.04070 0.65299 0 -29.98317 1.00467 0.64448
0.07994 0.08621 0.31510 0 11.13915 -27.85533 0.31409
0.16594 0.19119 0.80332 0 15.33526 25.78430 0.79249
-14.99415 0.06647 9.55531 0 9.17704 28.56190 0.63593
1.19790 -0.09624 1.24782 0 -23.47871 -18.67486 0.79970
-0.82079 0.09792 0.44161 0 -24.80018 16.88050 0.34140
-3.82767 0.21442 0.56588 0 -29.24709 6.67891 0.16349
-0.75925 -0.01929 0.76986 0 25.68901 -15.49434 0.61317
2.19733 -0.02326 2.51233 0 29.96895 -1.36459 1.04072
-12.34359 -0.02438 2.83995 0 26.44863 14.15874 0.22953
-2.48807 -0.17430 1.30419 0 -29.77697 3.65130 0.48645
13.56743 -0.06259 5.77661 0 28.65846 -8.87088 0.42473
2.32397 -0.15093 1.14172 0 5.16670 -29.55174 0.45144
-1.59593 0.12991 0.67329 0 -26.18486 14.64080 0.35763
-13.45390 -0.22089 7.50639 0 -17.14812 -24.61589 0.55649
-0.44105 0.07418 1.21288 0 28.04403 10.65515 1.10974
-1.94327 -0.04532 1.58268 0 2.35101 29.90774 0.72424
4.63214 0.22136 2.35240 0 -29.79754 3.47941 0.49654
-6.87936 0.11133 3.14445 0 27.54837 11.87802 0.45244
-13.22918 0.12100 6.96396 0 -10.58280 -28.07141 0.52500
0.43816 0.03580 1.12562 0 4.99286 29.58160 1.03101
-21.41570 0.07007 11.56288 0 24.09297 -17.87537 0.53943
0.15975 -0.18004 0.73666 0 -29.31119 -6.39173 0.72743
18.08311 0.08506 6.33027 0 3.62894 29.77971 0.34967
-1.11039 -0.06302 1.65759 0 18.66816 23.48404 1.10930
-3.95174 0.02945 3.11924 0 29.28908 6.49229 0.76532
19.50279 0.26321 14.59462 0 -29.25749 -6.63318 0.74742
-1.42786 0.25785 1.86136 0 -28.71949 8.67126 1.06781
-26.78572 -0.05375 16.66601 0 29.99163 0.70856 0.62184
2.26795 0.01134 0.76627 0 -22.44776 -19.90221 0.30926
2.43294 -0.24369 1.08881 0 29.81139 3.35876 0.41406
-21.28111 0.00151 7.50450 0 29.60573 4.84774 0.35239
-17.85579 0.22999 12.54850 0 5.21157 29.54386 0.70174
-7.50867 0.19364 2.28502 0 15.26292 25.82718 0.30181
-2.32737 0.00639 1.29144 0 26.86923 13.34333 0.51000
-2.81557 -0.13550 0.64885 0 23.65082 -18.45641 0.21735
1.23317 0.04185 0.99178 0 0.31325 -29.99837 0.62472
4.83080 0.13762 1.53601 0 -0.93230 -29.98551 0.31144
-1.84845 -0.03355 1.17847 0 24.19001 17.74383 0.56082
-2.05365 -0.04972 2.38651 0 2.08261 29.92763 1.04485
-3.55839 0.14663 1.13272 0 -29.65561 -4.53267 0.30670
-1.49106 -0.15799 0.67701 0 14.05787 -26.50238 0.37719
7.69763 -0.15638 2.67345 0 -25.16308 16.33461 0.39330
8.49806 -0.14792 3.94084 0 -24.36080 -17.50860 0.46066
-1.19931 0.15916 0.79014 0 18.77111 23.40182 0.50608
0.27464 0.16455 0.55019 0 -15.01216 25.97374 0.53055
-0.23127 -0.01044 0.78248 0 22.70249 -19.61114 0.76236
-3.03749 -0.02979 1.03241 0 10.94607 27.93176 0.32291
3.17465 0.00890 4.55688 0 -13.50933 -26.78615 1.36913
-7.27304 -0.23084 5.27690 0 -28.83615 -8.27503 0.71885
-10.41621 0.04524 3.88993 0 27.75326 11.39108 0.37187
3.16091 0.13509 1.24721 0 27.49457 12.00202 0.37624
-1.66315 0.15316 1.39661 0 -29.99527 0.53286 0.71973
1.21050 0.25560 0.75724 0 -20.93373 -21.48904 0.48232
-0.07878 -0.00797 0.29155 0 -13.10121 26.98811 0.29065
-10.62625 0.20254 6.08348 0 21.49608 -20.92650 0.57006
2.58768 -0.05758 3.37979 0 29.96647 1.41797 1.21836
-4.78794 0.01763 5.27535 0 -29.52761 -5.30283 1.07858
-0.43972 0.11048 1.02218 0 -13.79058 -26.64244 0.93572
-3.82595 0.25132 3.71242 0 -15.20652 25.86043 0.93883
-18.06712 0.07446 8.44416 0 -23.81126 -18.24894 0.46677
-1.05480 0.20800 0.27315 0 -0.05746 29.99994 0.18804
-5.56688 0.24697 5.69924 0 -20.95413 -21.46915 1.00771
-16.53532 0.05364 11.74565 0 15.19213 25.86889 0.70911
1.71029 0.19752 0.92735 0 27.23024 12.59024 0.46814
1.65995 -0.17597 0.60364 0 -25.00758 16.57170 0.31158
-7.02263 -0.16448 2.64651 0 27.01337 13.04906 0.37322
-11.86876 0.13312 8.30483 0 -22.46129 19.88694 0.69732
-3.38693 0.16674 1.59444 0 28.52610 9.28771 0.45160
15.26375 0.04777 6.96849 0 28.09188 10.52836 0.45567
18.11084 -0.11270 13.47208 0 25.92269 15.10013 0.74280
8.03767 -0.06250 4.40702 0 -13.90606 26.58235 0.54419
5.55396 -0.19553 4.25016 0 -29.49961 -5.45649 0.75319
0.05134 -0.16932 0.60853 0 23.80720 18.25424 0.60773
0.17642 0.12157 0.95785 0 16.45472 -25.08470 0.94329
-1.55057 0.01731 0.80776 0 -21.39184 21.03305 0.43792
-0.05815 0.17082 0.38189 0 -9.28673 28.52642 0.38125
-4.54565 -0.22182 1.87689 0 -9.45043 -28.47261 0.40335
-1.68712 0.24749 0.98012 0 29.31033 -6.39566 0.49982
-14.33559 -0.22781 6.99536 0 -22.34876 -20.01332 0.48689
0.06926 0.22493 0.82943 0 25.40335 -15.95838 0.82745
0.01824 0.14800 0.24159 0 -21.82299 -20.58536 0.24155
0.76102 0.21608 0.50811 0 7.90426 -28.93998 0.40439
-0.04055 0.05731 0.23927 0 -7.89298 28.94306 0.23905
-2.50007 0.18059 0.42267 0 -3.54082 29.79031 0.17673
-0.56991 0.01257 0.82211 0 1.42840 -29.96597 0.71428
-3.40716 -0.19599 1.50359 0 25.75850 -15.37855 0.42358
-11.92558 -0.25015 6.35921 0 -29.65256 4.55257 0.53147
1.74572 -0.05360 1.14287 0 25.71891 15.44467 0.56815
2.36270 -0.03259 1.19692 0 -10.42367 -28.13089 0.46658
6.48048 -0.02492 2.23995 0 29.47873 -5.56814 0.34174
2.34751 -0.19046 1.21840 0 8.22418 -28.85070 0.47755
-6.62391 -0.23541 2.32934 0 8.70502 28.70928 0.34785
0.77386 0.21067 0.45082 0 12.14431 -27.43202 0.35658
2.13160 -0.04106 0.54704 0 29.89675 2.48682 0.23252
7.87730 0.24178 3.22731 0 1.52076 29.96143 0.40655
-1.03038 0.04254 0.71544 0 0.68890 29.99209 0.49830
3.99027 -0.11688 3.71520 0 22.80662 -19.48995 0.90320
-2.48054 -0.04875 0.97028 0 14.06932 26.49631 0.36289
0.75053 0.20368 0.28723 0 27.38478 -12.25047 0.22980
-0.70294 0.20148 0.28052 0 -9.57570 28.43072 0.22956
1.40338 0.09782 0.40254 0 -9.86735 -28.33082 0.23373
-0.92743 -0.18549 0.84593 0 -11.90416 27.53708 0.62028
3.73343 -0.20048 1.17328 0 20.26053 -22.12489 0.30363
-0.83154 0.05219 0.40494 0 28.91294 8.00262 0.31141
-0.11679 0.11290 0.23161 0 24.80083 -16.87953 0.23005
-15.81980 0.06614 5.31777 0 2.47638 -29.89762 0.33562
-0.86867 -0.17193 0.51784 0 -8.16752 28.86679 0.39098
-0.91019 0.10923 1.46681 0 25.43508 -15.90776 1.08478
0.91291 0.07904 1.42735 0 -16.52807 -25.03643 1.05418
1.99823 0.03977 1.54392 0 -21.34998 -21.07554 0.69099
2.11129 -0.18642 0.80294 0 -25.12768 16.38901 0.34380
0.26160 -0.17277 0.35773 0 16.63802 -24.96350 0.34609
-8.96986 0.11109 3.36605 0 7.44609 -29.06124 0.37308
1.42223 0.07142 0.50159 0 -29.31592 6.37001 0.28863
-14.64705 -0.22573 7.24316 0 -23.28668 -18.91376 0.49346
-3.53359 0.09294 2.58134 0 -25.97674 -15.00697 0.70296
11.70894 0.22292 6.73698 0 -18.04991 -23.96249 0.57337
-2.87201 -0.18611 2.03685 0 28.31969 9.89925 0.66981
-0.69756 -0.22138 0.90952 0 -9.76632 28.36581 0.74599
6.50168 0.26129 2.87259 0 -23.52867 -18.61187 0.43680
-0.44152 0.20361 0.63453 0 27.41342 -12.18624 0.58049
5.23675 0.03876 1.81624 0 -22.53482 19.80359 0.34077
-2.68837 -0.01259 1.36746 0 25.84332 15.23558 0.47682
2.84851 0.01932 2.06570 0 -10.74426 28.01001 0.68433
-1.19617 -0.10035 0.32446 0 -26.08871 14.81146 0.20824
0.34103 0.15376 0.48105 0 -24.80588 -16.87212 0.45531
16.83413 0.11873 13.47794 0 10.52043 -28.09485 0.80173
-16.26691 -0.04592 11.39811 0 28.42888 -9.58117 0.69944
-13.16694 -0.21540 3.02169 0 28.80333 -8.38859 0.22904
3.21097 0.05740 1.21760 0 24.79791 16.88383 0.36229
-0.89545 -0.02676 1.16509 0 0.13710 29.99969 0.86800
0.50754 -0.02031 1.37830 0 -5.11415 29.56088 1.22907
2.54078 0.21531 0.83502 0 21.12843 21.29764 0.30598
1.44749 -0.19616 0.58340 0 -29.12575 -7.18964 0.33168
-2.38083 0.00076 1.12878 0 13.89084 26.59031 0.43718
-1.26876 -0.15895 1.45983 0 28.15302 10.36375 0.90370
-0.42279 -0.14004 0.54220 0 -13.65747 26.71093 0.49942
2.49421 0.06548 1.32471 0 -29.99860 -0.28969 0.49306
-17.50905 -0.15779 16.24853 0 -5.51166 29.48935 0.92655
3.31492 0.06649 1.47660 0 -24.81966 16.85184 0.42654
27.26459 0.14749 33.19532 0 29.15688 -7.06232 1.21675
-1.86561 0.00966 1.82782 0 -11.15067 27.85072 0.86357
19.96105 0.04272 7.54856 0 -9.99611 28.28565 0.37782
1.13157 0.02361 0.34504 0 0.40471 -29.99727 0.22858
1.12124 0.16509 0.31634 0 17.28494 24.52001 0.21066
-0.44582 0.00539 0.22338 0 -23.50631 18.64010 0.20472
0.43052 -0.03546 0.73362 0 -6.37552 29.31472 0.67383
0.09448 0.16431 0.64503 0 28.73232 -8.62868 0.64218
-2.60359 0.07706 1.54210 0 -26.86373 13.35440 0.55303
1.72171 0.06136 0.48143 0 24.69843 -17.02903 0.24191
-25.26442 0.02132 20.15055 0 14.69623 26.15379 0.79703
-6.66378 -0.09241 2.02594 0 29.66862 4.44668 0.30081
-0.70659 0.17960 0.34168 0 22.27755 -20.09255 0.27912
1.60638 -0.21301 1.05017 0 -6.33308 -29.32392 0.55508
3.26204 0.20577 1.01300 0 -17.50170 -24.36576 0.29699
-10.97384 0.23748 7.60063 0 25.37161 16.00879 0.68983
6.04651 0.20188 2.43130 0 29.26434 6.60292 0.39681
-8.89005 -0.01767 1.88592 0 15.19847 -25.86516 0.21104
-13.46541 -0.22061 13.38918 0 5.40317 -29.50942 0.99166
6.42415 0.14758 3.74269 0 -27.45009 -12.10341 0.57575
0.03102 0.08606 0.28779 0 16.51882 25.04254 0.28765
-17.57988 0.05318 5.65828 0 -15.76925 -25.52118 0.32149
2.38066 0.24681 0.86578 0 21.85210 -20.55446 0.33537
1.60299 0.19278 0.49048 0 -1.73825 -29.94960 0.25974
-4.83289 -0.25015 1.52792 0 29.39338 6.00243 0.30969
-24.35203 -0.04242 11.22197 0 -26.97044 -13.13756 0.46054
0.09022 -0.10547 0.24098 0 -23.40143 18.77160 0.24001
-0.34599 0.06730 0.75571 0 5.75887 -29.44207 0.71418
-1.33564 -0.23921 0.83347 0 1.68021 -29.95291 0.49959
-19.10917 -0.23754 6.33992 0 -16.18324 -25.26070 0.33147
0.93743 0.02638 0.49942 0 -24.33966 -17.53799 0.36444
-0.26821 -0.26110 0.67356 0 12.29968 27.36271 0.65057
-1.84628 -0.01707 0.60851 0 -18.16910 23.87224 0.28988
-6.47600 -0.06513 2.32049 0 28.87492 8.13872 0.35426
-4.58462 -0.03186 1.77588 0 -17.59618 24.29762 0.37866
-7.37346 -0.05693 1.70093 0 -18.11929 23.91007 0.22880
1.30381 -0.24116 0.82911 0 13.06230 27.00697 0.50464
1.72102 -0.06537 1.04562 0 4.88798 -29.59912 0.52539
12.24587 0.15215 8.70280 0 -23.53186 18.60784 0.70838
0.79761 0.24278 1.31342 0 11.63579 27.65155 1.02682
-0.76949 -0.16891 0.52998 0 15.36024 25.76942 0.42008
-1.85459 -0.08818 1.24231 0 -12.69461 27.18174 0.58970
-8.28434 -0.04385 3.75565 0 13.64219 26.71873 0.45018
0.80262 0.17274 0.97924 0 -16.41395 -25.11139 0.76371
-0.73896 -0.23654 0.66875 0 12.28883 27.36759 0.53786
-2.17665 0.05100 2.23642 0 17.79181 24.15475 0.93368
-2.67928 0.17026 2.38125 0 -2.40235 29.90366 0.83270
-9.11315 0.26280 2.87503 0 -23.75974 18.31597 0.31375
-2.46145 0.25784 2.09595 0 -18.27807 -23.78891 0.78902
5.62337 0.00562 1.32899 0 2.62643 -29.88481 0.23282
1.67318 0.05979 1.06008 0 11.66715 -27.63834 0.54391
1.51714 -0.14358 1.15070 0 18.91362 23.28680 0.63334
2.03324 -0.15543 1.65439 0 -11.72739 -27.61283 0.73019
-0.31419 0.20581 0.40586 0 2.77994 29.87092 0.38721
-1.06318 0.24924 0.52455 0 24.74495 -16.96136 0.35946
7.47840 0.26021 3.19803 0 25.60235 -15.63712 0.42397
1.56692 0.18688 0.52961 0 25.22432 -16.23988 0.28504
-10.92763 -0.03940 4.62537 0 -23.38489 -18.79221 0.42163
-2.25403 -0.01186 1.09212 0 -26.26208 14.50183 0.44312
-12.16349 0.20044 3.66964 0 -29.57201 -5.04937 0.30084
25.06749 0.19458 23.25900 0 24.77698 -16.91452 0.92717
-4.59554 -0.23425 3.13259 0 -0.41868 -29.99708 0.66619
-0.63632 -0.09592 0.26981 0 -28.71748 -8.67793 0.22769
-24.20744 -0.04513 21.55697 0 9.16968 28.56426 0.88981
5.65701 0.25574 2.74945 0 -25.11747 16.40466 0.64421
-7.20852 -0.12516 10.33997 0 27.06028 12.95150 1.42084
1.27631 -0.13408 0.58051 0 -29.70069 -4.22716 0.35809
1.60831 -0.20966 0.54124 0 20.17588 22.20211 0.28589
1.41391 0.10621 0.60375 0 -21.85328 -20.55320 0.34871
-2.50368 0.17924 1.95405 0 24.47804 -17.34432 0.72489
-1.72740 0.18854 1.80974 0 8.83381 -28.66991 0.90673
-16.27990 -0.20635 6.15492 0 -22.85211 19.43659 0.37749
-26.78983 0.16769 21.71774 0 13.30221 26.88961 0.81017
0.42995 -0.05269 0.80376 0 25.61878 15.61018 0.73842
1.61310 -0.05700 0.62642 0 -22.54615 19.79068 0.33014
24.72745 0.00207 9.27750 0 -29.53829 -5.24301 0.37501
-21.54957 -0.25699 4.40350 0 -29.71151 -4.15047 0.20436
4.99555 0.19834 3.54153 0 -5.14035 29.55633 0.69528
0.80498 0.20810 0.61033 0 12.64996 -27.20255 0.47547
0.72448 -0.04373 0.38657 0 -6.75739 29.22906 0.31310
0.59864 0.11371 0.48156 0 29.03057 -7.56479 0.41320
2.89307 0.17914 2.37799 0 -16.26722 -25.20670 0.77701
5.33542 0.24869 5.16580 0 1.79654 29.94616 0.95171
2.10998 -0.06846 0.74558 0 21.13793 -21.28821 0.31939
0.60669 0.00836 0.26791 0 29.59448 -4.91594 0.22912
-10.74943 -0.05005 5.02723 0 -28.84859 8.23156 0.46577
-16.42077 0.01995 12.22532 0 6.63430 -29.25724 0.74319
-0.38849 0.02130 0.84051 0 -21.00884 21.41562 0.78348
-11.79959 0.19760 2.36277 0 19.99223 -22.36763 0.22519
3.25959 0.11221 1.85973 0 3.40779 -29.80582 0.54555
0.33586 -0.08957 0.88013 0 20.86405 -21.55671 0.83433
1.37729 0.24036 0.63022 0 -9.67430 28.39732 0.37034
-15.02480 -0.08273 5.98449 0 8.68037 -28.71674 0.39755
-7.51377 -0.14388 2.57535 0 -26.74214 -13.59625 0.33990
-12.18797 -0.03442 3.78561 0 -6.21795 -29.34855 0.30972
1.65630 0.10400 0.40500 0 -29.65391 -4.54374 0.20949
5.58279 -0.02598 1.31972 0 -26.75338 13.57412 0.23286
-6.01136 0.10111 0.76193 0 5.25120 29.53684 0.12514
19.82620 -0.11341 12.07572 0 -4.27415 29.69397 0.60839
23.50855 -0.06055 13.08459 0 -0.19007 -29.99940 0.55617
2.04375 -0.14572 2.07424 0 29.35925 -6.16718 0.91171
-5.27411 -0.23389 3.64440 0 -18.00906 -23.99321 0.77233
-6.35238 -0.07893 4.18345 0 -14.54399 -26.23876 0.56921
-10.05912 0.06997 4.84182 0 -5.25703 29.53580 0.47908
-0.34998 0.06236 0.51296 0 -14.99436 25.98402 0.48417
-1.25291 -0.16162 0.76531 0 -29.68299 -4.34976 0.47747
-1.72380 0.16646 0.71010 0 -23.11746 19.12022 0.35642
0.39506 0.15546 0.37085 0 4.40901 29.67424 0.33639
-3.49413 -0.23994 3.04133 0 20.08347 -22.28574 0.83686
-7.56200 -0.01319 3.31225 0 -7.12920 -29.14060 0.43434
-1.32202 0.24327 0.87818 0 8.77861 -28.68686 0.52984
-1.28370 -0.12921 1.25619 0 3.51756 -29.79307 0.77203
2.18882 0.05656 1.01196 0 15.27647 25.81917 0.42062
24.59276 0.09408 17.36761 0 -18.75443 -23.41520 0.70569
-0.88085 0.11635 0.31309 0 13.78515 26.64525 0.23503
12.97656 0.13768 6.82175 0 9.36406 -28.50113 0.52424
0.24109 -0.19336 0.22871 0 -27.47318 -12.05091 0.22235
1.57175 0.14427 0.57758 0 0.39830 -29.99736 0.31015
-5.36521 -0.11422 6.00945 0 28.87939 -8.12286 1.10116
-1.90259 -0.19492 1.49448 0 -29.98357 -0.99264 0.69536
1.28372 -0.19346 0.33544 0 7.07158 29.15463 0.20627
2.42112 -0.09947 1.16245 0 24.88370 -16.75714 0.44383
0.27968 0.05832 0.70413 0 -28.53257 9.26781 0.67812
-2.72984 -0.09009 1.37967 0 7.04082 -29.16208 0.47460
6.54402 -0.00339 3.51988 0 29.34475 6.23586 0.53179
1.38712 0.06389 0.82397 0 19.46576 22.82726 0.48192
1.48308 -0.18514 0.58294 0 26.70836 13.66249 0.32599
-1.21141 -0.24055 0.62560 0 4.75878 29.62016 0.39834
-18.20944 0.21393 28.38161 0 -29.28791 6.49755 1.55631
-16.34562 0.15542 6.66647 0 11.63980 -27.64987 0.40720
0.90727 -0.07164 0.43879 0 28.77160 -8.49678 0.32503
3.83306 0.14479 2.81362 0 -6.08946 29.37547 0.71035
1.43984 -0.16188 0.77864 0 -16.24612 25.22030 0.44426
2.08784 0.25626 0.64446 0 23.01442 -19.24413 0.27850
-0.91689 -0.05909 0.69409 0 -28.58601 -9.10166 0.51164
3.88272 -0.15020 0.72076 0 -29.95346 1.67036 0.17991
-8.70232 0.18176 8.16995 0 -25.39452 15.97242 0.93274
14.94553 -0.09281 9.79422 0 21.51359 20.90850 0.65394
-1.33678 -0.11942 0.63597 0 -23.28312 -18.91815 0.38102
5.73860 0.10562 5.86542 0 29.49580 5.47701 1.00696
-0.45777 0.10682 0.64961 0 -9.50767 28.45354 0.59068
0.94797 0.21852 1.27582 0 -21.79769 -20.61215 0.92594
2.12508 0.19245 1.33037 0 -29.58936 -4.94669 0.56653
9.47831 0.07377 9.73944 0 -29.99984 -0.09836 1.02193
1.40101 0.18764 1.09238 0 -23.26902 -18.93549 0.63469
0.74977 -0.17289 0.43776 0 7.54476 -29.03578 0.35029
13.51605 0.12772 7.89996 0 -29.83542 -3.13809 0.58298
-10.39482 0.16227 3.82420 0 -13.02481 27.02507 0.36634
11.35776 -0.16794 2.45734 0 10.84194 -27.97235 0.21575
-4.33434 -0.04594 3.87849 0 -9.81444 -28.34919 0.87203
0.15981 0.04758 0.62045 0 15.03024 -25.96328 0.61267
-24.99554 -0.19034 9.99530 0 27.94461 -10.91323 0.39969
0.77321 -0.06354 0.48384 0 15.78643 -25.51056 0.38282
1.82563 0.17165 2.09902 0 -3.85678 29.75105 1.00842
1.37260 0.05909 0.43134 0 -29.99360 0.61946 0.25408
-1.20618 -0.02347 0.79518 0 27.08560 12.89845 0.50756
0.08627 -0.20144 0.37988 0 -18.15312 -23.88439 0.37848
13.98355 -0.10759 8.30697 0 15.31154 25.79838 0.59262
-13.22683 0.10468 5.04360 0 -18.84591 -23.34163 0.38036
14.11007 -0.06270 9.55468 0 21.49556 -20.92704 0.67553
-10.08700 -0.06898 8.63166 0 -29.98844 -0.83291 0.85161
10.22123 -0.24647 2.13676 0 24.47316 -17.35121 0.30403
1.35515 -0.17684 1.36442 0 -7.26932 29.10596 0.81019
-2.17264 0.16410 1.66550 0 -29.23996 6.71004 0.69642
1.22452 0.13749 1.21093 0 -4.95060 -29.58871 0.76598
22.58919 0.11054 6.29121 0 -10.29771 28.17725 0.27841
-0.39616 -0.15511 1.02538 0 28.12374 10.44294 0.95331
-3.34647 -0.12343 1.46741 0 -14.32969 -26.35640 0.42020
2.55073 -0.21875 2.19432 0 24.74877 16.95577 0.80097
8.75387 0.14512 5.26852 0 26.56526 13.93869 0.59804
6.95046 -0.00439 1.63424 0 28.80815 -8.37201 0.23294
8.40760 -0.12849 5.52043 0 -19.22771 23.02814 0.65208
-0.24653 0.18895 1.04751 0 -3.36134 -29.81109 1.01706
-6.41583 -0.19628 1.89605 0 29.52443 -5.32052 0.29216
-7.57873 -0.16410 5.28259 0 26.24179 14.53851 0.69111
-3.94459 -0.19124 2.84519 0 5.88560 -29.41700 0.69929
-7.25755 0.09472 2.35077 0 -3.90800 29.74437 0.32102
25.45363 0.17546 13.93780 0 -15.37919 -25.75812 0.54724
2.50166 -0.00540 0.75975 0 -0.67615 29.99238 0.28217
-24.40354 0.17595 6.64710 0 23.79520 -18.26987 0.27233
-0.09043 0.18666 0.54562 0 29.48813 5.51819 0.54341
0.18041 -0.11332 0.60896 0 -11.64653 -27.64703 0.59929
0.39242 0.19800 0.78873 0 18.37410 -23.71482 0.73423
-11.71372 0.10138 5.75794 0 -28.75613 8.54897 0.48987
1.03873 0.01542 0.67713 0 5.58089 29.47632 0.46969
23.28531 -0.08160 8.13242 0 -29.87154 2.77333 0.34907
1.55979 -0.19555 0.47375 0 -3.24044 -29.82448 0.29290
-1.57784 0.23355 0.50029 0 10.43430 -28.12695 0.26796
-0.38803 0.25369 0.28518 0 -8.87456 -28.65733 0.26589
-1.53441 0.09237 0.81821 0 16.95917 -24.74645 0.44683
23.07547 -0.18987 8.83253 0 16.55562 -25.01822 0.38254
3.89871 -0.00738 1.19469 0 -10.39052 -28.14315 0.29701
-14.14413 0.00396 7.49941 0 -28.94184 -7.89745 0.52899
-1.21282 -0.23545 0.51282 0 -6.00345 29.39317 0.32637
4.26482 0.20969 2.00794 0 -22.40131 19.95448 0.45856
4.49730 0.05478 1.63273 0 -25.17778 16.31194 0.35478
-0.50210 0.05547 0.50676 0 0.22881 -29.99913 0.45291
-5.57778 -0.19223 2.12443 0 22.16002 20.22211 0.37500
2.05995 0.06825 1.43668 0 27.40779 12.19890 0.62751
2.01547 0.13886 1.01426 0 -5.76635 -29.44061 0.45092
1.37922 0.13017 0.91080 0 0.01439 30.00000 0.53469
-0.69578 -0.13546 0.34294 0 -29.14243 -7.12170 0.28156
-8.18549 -0.14053 3.59722 0 0.06263 -29.99994 0.43633
-1.11496 0.22464 0.68574 0 26.54700 13.97344 0.45792
15.42949 -0.25171 10.75043 0 24.40238 -17.45061 0.69536
10.58792 -0.13124 4.02274 0 -17.56390 24.32096 0.37838
7.35694 -0.19057 3.29901 0 0.45358 29.99657 0.44444
-5.95035 -0.03265 2.87620 0 -3.29975 -29.81798 0.47676
-20.34584 -0.02887 9.46275 0 -24.78574 16.90169 0.46464
-5.65302 -0.01128 3.33250 0 11.52533 27.69777 0.58055
-15.27893 0.12520 16.54874 0 -21.27701 21.14920 1.08084
-13.66925 0.24109 14.15281 0 15.02973 -25.96357 1.03266
22.79163 0.05639 9.16140 0 2.42467 29.90186 0.40170
6.50468 -0.16618 3.21754 0 6.49388 29.28872 0.48900
0.66074 0.16755 0.24265 0 -25.81583 15.28211 0.20251
-0.83444 0.24247 0.80126 0 -29.52153 5.33657 0.61524
-9.09672 -0.10660 5.10409 0 20.92611 -21.49646 0.55782
-0.63836 0.25859 0.49491 0 -14.50075 -26.26268 0.41719
1.33445 0.03872 0.76800 0 29.59565 -4.90893 0.46060
-18.00271 -0.23000 19.31581 0 10.00045 -28.28411 1.07133
3.24508 -0.13723 1.69505 0 22.24514 20.12843 0.49936
3.00295 0.24780 1.19671 0 16.40783 -25.11540 0.37813
-0.18898 0.05232 0.25940 0 25.39183 -15.97670 0.25490
-3.58312 0.16439 6.89821 0 -27.87404 -11.09225 1.85437
-16.80291 -0.00460 6.27496 0 27.56116 11.84830 0.37292
1.50166 0.03068 1.45642 0 2.59706 29.88738 0.80731
-0.03944 0.18583 0.57755 0 -22.88186 -19.40156 0.57710
24.04945 0.00301 16.65283 0 11.32516 27.78022 0.69191
10.01600 0.09336 5.12996 0 -15.67389 25.57986 0.50974
6.33634 0.04537 3.48779 0 -13.02322 -27.02584 0.54380
-12.14672 0.14811 3.69180 0 0.00855 -30.00000 0.30307
3.42648 -0.12113 0.75471 0 -15.15538 -25.89043 0.21162
1.76927 -0.14721 1.03033 0 -25.43552 15.90705 0.50705
3.00238 -0.06357 0.79134 0 13.78495 -26.64536 0.25023
7.61411 0.14072 5.37483 0 -3.59574 -29.78373 0.69996
-9.98123 -0.09894 7.75466 0 -29.88219 2.65603 0.77312
2.63274 0.06821 0.44533 0 19.71970 22.60826 0.26951
-4.37803 0.14958 1.90532 0 3.26876 29.82139 0.42435
0.77085 0.01279 0.54106 0 10.51988 28.09506 0.42857
0.23668 -0.11525 1.16740 0 20.38377 -22.01140 1.13602
-3.24427 -0.03395 1.32447 0 26.29322 -14.44529 0.39027
-0.85322 -0.03737 0.51124 0 -28.47300 -9.44926 0.38897
0.21880 -0.21637 0.75490 0 12.19820 27.40810 0.73746
-0.81271 0.02894 0.43944 0 25.78893 15.32745 0.34106
0.80639 -0.03472 0.54775 0 29.72846 4.02720 0.42644
2.80898 -0.25273 2.40700 0 -27.38210 12.25644 0.80732
18.42174 -0.16251 8.21349 0 -29.20860 6.84525 0.44531
0.25483 -0.08281 0.38478 0 -10.55631 -28.08139 0.37287
13.13238 -0.05435 7.05452 0 27.65729 -11.62215 0.53572
-0.11607 0.02990 0.77481 0 -25.78330 15.33693 0.76964
-0.40496 -0.11776 0.47188 0 29.24497 -6.68818 0.43739
16.14501 -0.00245 6.41818 0 11.96173 27.51213 0.39690
2.87401 0.06544 0.91947 0 -22.33024 -20.03398 0.30220
15.46019 -0.12871 10.54053 0 -22.28574 -20.08348 0.68043
-3.96612 -0.15679 2.91638 0 -29.97358 1.25875 0.71305
-10.06295 0.20820 3.68082 0 -28.21577 -10.19168 0.36412
-7.84448 -0.06921 2.56205 0 27.34583 12.33716 0.32413
0.65870 0.12128 0.47551 0 29.23156 6.74656 0.39714
1.51470 0.04997 0.88966 0 16.27680 25.20051 0.49024
-1.54148 0.25867 0.52580 0 2.55306 -29.89117 0.28626
2.94629 -0.06985 0.87521 0 20.38317 -22.01196 0.28146
-1.14656 -0.07983 1.03686 0 -1.78553 29.94682 0.68156
2.12204 0.00636 0.94552 0 -22.90270 19.37695 0.43486
6.94681 0.19567 2.41056 0 -22.71531 -19.59629 0.34360
4.67445 0.20330 2.93180 0 -21.48032 20.94268 0.61338
-21.32546 0.16968 14.60294 0 13.90534 -26.58273 0.68409
-7.55625 0.14470 5.11590 0 1.45813 -29.96454 0.67126
4.37504 -0.15528 2.46165 0 -7.11685 -29.14362 0.54860
-6.06420 -0.24768 5.71164 0 27.59625 -11.76635 0.92936
0.55406 -0.18280 0.53681 0 29.14221 -7.12262 0.46958
17.84655 0.17445 8.55410 0 -29.97603 1.19912 0.47866
7.35182 0.06257 3.42151 0 12.10699 -27.44851 0.46125
6.68465 -0.06107 2.74645 0 27.36753 12.28896 0.40646
-4.08614 -0.12971 5.18934 0 -29.01454 -7.62604 1.23364
-2.90534 0.02864 1.64031 0 1.75700 -29.94851 0.53403
2.05290 -0.12452 1.27635 0 -21.88971 -20.51440 0.55903
-11.70154 -0.15119 4.03878 0 27.44722 12.10993 0.34404
1.20846 0.24330 0.82742 0 1.44211 29.96532 0.52756
6.81178 0.08333 2.71242 0 -16.39528 -25.12359 0.39409
0.03207 -0.18332 0.53300 0 15.00330 25.97886 0.53272
0.98569 0.24256 0.47985 0 19.13515 23.10511 0.34181
13.27925 0.06903 5.56568 0 -25.71960 -15.44352 0.41806
-0.28213 -0.10443 0.25010 0 -28.07107 -10.58373 0.24072
-0.90914 0.04767 0.65324 0 24.21605 17.70828 0.48339
-8.68589 0.24721 3.79882 0 -26.45232 -14.15185 0.43460
1.00855 -0.04923 0.51740 0 1.46168 -29.96437 0.36437
-2.10031 0.08749 2.34684 0 -1.58164 29.95828 1.00891
-18.32491 -0.16432 9.66981 0 0.99381 29.98353 0.52699
25.73742 -0.01677 24.85202 0 -1.21311 -29.97546 0.96492
-14.06273 -0.09063 5.83468 0 11.23450 27.81701 0.41398
-13.82195 0.25573 9.93359 0 19.52962 22.77266 0.71688
-1.18548 -0.10590 0.73221 0 1.23557 -29.97455 0.47218
16.22235 -0.19874 6.86278 0 -28.34984 9.81256 0.42236
1.48265 -0.04184 1.05011 0 -5.98441 -29.39705 0.58725
17.14970 0.07399 9.97992 0 -29.37042 6.11380 0.58103
7.95985 -0.14460 2.45332 0 -29.69954 4.23525 0.30597
0.79235 0.25541 0.33057 0 24.79792 16.88382 0.25920
-2.14530 -0.04469 0.77332 0 -29.16026 7.04836 0.32680
7.05376 -0.19272 5.00119 0 12.94063 27.06548 0.70206
2.21065 -0.14516 1.44797 0 -7.90276 -28.94039 0.59687
-1.31825 0.20012 0.67322 0 29.99872 -0.27674 0.40694
-1.95035 0.09245 0.96059 0 16.24119 -25.22347 0.43836
0.96748 0.06335 0.45274 0 6.14345 -29.36423 0.32548
22.05381 0.03531 6.86323 0 15.11602 -25.91343 0.31104
0.93121 0.20446 0.48968 0 29.95939 1.56050 0.35841
0.80124 0.07088 0.80269 0 29.23003 -6.75319 0.62644
21.61919 0.10221 5.98522 0 10.42610 -28.12999 0.29274
-1.93347 0.11505 1.41178 0 29.59328 4.92321 0.64862
4.02037 0.04374 3.62544 0 -24.71708 17.00194 0.87513
-3.81763 -0.23257 3.73890 0 -27.44435 12.11643 0.94757
7.06819 0.03431 3.21246 0 -3.74073 29.76587 0.45012
3.46429 -0.20592 0.81052 0 -4.87583 -29.60112 0.22488
-0.92374 -0.22996 1.01506 0 29.66584 4.46517 0.74564
5.41139 -0.06878 1.88489 0 27.87383 11.09278 0.34269
-23.55881 0.19152 11.97059 0 1.91477 29.93883 0.50775
-0.70910 0.17322 1.42137 0 -6.44883 29.29868 1.15947
9.30028 0.05243 2.83977 0 -5.09767 -29.56372 0.30375
-1.16634 -0.18241 0.50235 0 5.81976 29.43009 0.32711
-10.50878 -0.16962 2.42966 0 18.45299 23.65348 0.23037
-12.18323 -0.10823 6.25193 0 -12.97744 -27.04785 0.51153
0.22395 0.08258 0.38666 0 -29.15141 7.08487 0.37732
-0.48769 -0.20829 0.65822 0 23.80344 -18.25915 0.59164
-0.10523 -0.24042 0.24652 0 -21.77135 -20.63996 0.24517
0.91578 -0.06652 0.66552 0 -21.73637 -20.67681 0.49085
-22.50814 0.18068 4.75515 0 -12.46123 -27.28952 0.21129
-0.06104 0.08789 0.76798 0 -24.22425 17.69706 0.76655
-3.51025 -0.15585 2.06937 0 -26.41129 14.22828 0.56709
1.29898 0.08240 0.44817 0 -12.86862 -27.09979 0.37180
13.50373 0.12573 2.70793 0 -2.82234 29.86695 0.20354
-13.20614 0.11573 7.52217 0 -6.20779 29.35069 0.56806
3.39889 0.19864 1.08863 0 -13.23594 -26.92229 0.30741
-0.47489 -0.05341 0.30471 0 -24.81719 16.85548 0.27529
10.94638 -0.16247 7.37328 0 14.38834 -26.32443 0.67086
-9.41887 0.22128 5.28446 0 -29.90564 -2.37750 0.55800
5.58418 0.23177 9.40032 0 21.53238 -20.88915 1.65709
1.20736 -0.12357 1.08461 0 -26.17404 -14.66013 0.69189
0.31566 0.19626 0.50699 0 -27.09562 -12.87741 0.48348
-1.38872 -0.10327 0.73064 0 -7.14053 -29.13783 0.42702
0.18652 -0.04714 0.34003 0 -28.59823 -9.06317 0.33427
-0.70055 0.01157 0.66182 0 -28.76143 -8.53111 0.54208
-21.00088 -0.08202 10.00546 0 -10.47620 28.11137 0.47600
-0.85962 0.10784 0.82900 0 12.73227 27.16412 0.62870
9.56175 -0.15350 5.07298 0 -29.49905 -5.45947 0.52776
3.41967 0.21968 1.06669 0 -21.00035 21.42394 0.29944
27.17860 0.16247 12.47501 0 -17.36897 24.46056 0.45880
-1.73509 -0.11516 1.00816 0 -21.09733 21.32845 0.50346
-1.66658 0.05013 1.68149 0 13.96628 -26.55076 0.86523
1.28514 0.24802 0.78642 0 4.99611 29.58106 0.48302
1.49310 -0.05791 0.90339 0 -21.22014 -21.20627 0.50277
1.39556 0.00120 0.40529 0 4.58564 29.64746 0.23617
-1.65081 -0.03492 0.69192 0 24.51864 17.28688 0.35859
1.50503 0.00798 0.62844 0 -29.92816 -2.07492 0.34791
-0.67320 0.03895 0.58230 0 17.17820 24.59491 0.48309
1.65365 -0.15558 2.32346 0 1.46925 29.96400 1.20234
12.76854 -0.04906 10.75316 0 21.06227 -21.36307 0.83965
0.04778 -0.20997 0.77741 0 -15.25965 25.82911 0.77653
-17.12440 0.23842 21.23118 0 28.40035 -9.66541 1.23775
26.26342 0.10428 10.49600 0 5.70622 29.45232 0.39948
0.17294 -0.19815 0.33354 0 -28.76105 8.53239 0.32866
-14.35659 -0.13535 5.94299 0 24.52354 -17.27993 0.41307
-4.68153 0.11735 3.34144 0 -3.87670 -29.74847 0.69811
0.17991 0.25066 0.34437 0 11.88989 -27.54325 0.33894
0.29454 0.22590 0.40859 0 -29.95686 -1.60836 0.39195
0.82813 0.08423 0.82617 0 15.66509 -25.58525 0.63633
3.34781 -0.00025 0.88562 0 29.17004 -7.00776 0.25360
-2.98801 0.18172 1.18480 0 29.69463 4.26954 0.37611
-0.21180 0.13505 0.65277 0 -0.98389 -29.98386 0.63861
-19.03707 -0.22600 3.86916 0 20.74926 -21.66721 0.20320
1.29246 0.02916 0.40971 0 -0.34330 -29.99804 0.25083
-0.70838 -0.03831 0.58823 0 3.97759 -29.73514 0.48003
9.40694 -0.01934 7.10982 0 -21.46127 -20.96221 0.75163
13.34173 -0.13424 11.66757 0 9.08296 28.59196 0.87213
3.44082 0.08438 0.87380 0 7.47238 -29.05449 0.24397
24.55687 -0.06530 14.45161 0 5.40350 29.50936 0.58809
-0.43347 0.04823 0.67372 0 28.46739 9.46613 0.61816
0.30974 0.15548 0.49746 0 -10.40642 28.13728 0.47519
0.21247 0.00308 0.37664 0 29.22396 6.77937 0.36842
-6.13555 -0.04016 1.98978 0 -22.83869 19.45235 0.32023
