-2.06499 -0.06694 0.41041 0 29.06163 7.44458 0.17905
0.91284 0.17183 2.52819 0 26.16970 14.66789 1.86723
-7.22303 0.10683 3.11389 0 -27.41783 12.17631 0.42714
0.34380 0.23140 0.32839 0 -0.77267 -29.99005 0.31057
6.43555 -0.01304 2.68401 0 -11.50631 -27.70568 0.41223
-7.97314 0.10054 2.95204 0 18.55917 -23.57026 0.36750
8.92961 -0.14528 4.81831 0 -14.44594 -26.29286 0.53633
2.22355 0.09236 0.66029 0 27.43652 -12.13415 0.27093
3.46830 -0.25497 0.63112 0 5.54757 -29.48261 0.17497
0.21698 0.20828 0.53438 0 6.94048 29.18612 0.52224
-5.88884 -0.06073 6.10641 0 -10.01764 28.27803 1.02235
-16.61586 0.05120 8.65365 0 9.20887 28.55165 0.51996
-4.69808 -0.00496 5.15317 0 -0.97358 29.98420 1.07286
-2.65349 0.06950 0.84686 0 -10.16647 28.22486 0.29878
-0.84303 -0.16333 0.72099 0 13.93042 -26.56960 0.55127
-0.33308 -0.14804 0.77578 0 17.05519 -24.68036 0.73603
10.63147 -0.24190 4.14283 0 19.43497 22.85348 0.38809
10.70106 -0.21590 6.20707 0 -19.03411 23.18842 0.57761
-20.61732 0.07452 7.55641 0 -3.88779 29.74702 0.36621
4.09698 -0.26256 2.52347 0 -29.94854 1.75634 0.59516
-21.78897 -0.07506 6.75541 0 9.89335 28.32175 0.29163
3.79621 -0.13952 2.53135 0 2.52423 -29.89362 0.64487
2.92913 0.16154 3.51439 0 2.05555 29.92949 1.13548
-25.49762 0.04674 7.75372 0 22.01126 -20.38393 0.30402
2.49506 -0.17761 2.98928 0 2.28096 29.91316 1.11214
4.74007 -0.13228 2.61504 0 27.34979 -12.32839 0.53988
-15.70744 -0.03773 9.49761 0 -0.98049 -29.98397 0.60352
-1.16285 0.24930 0.80074 0 29.86046 2.89017 0.52215
-0.40283 0.02216 0.47560 0 -2.56955 29.88976 0.44116
-0.06069 0.15286 0.58886 0 -18.63842 23.50764 0.58778
0.92755 -0.19947 0.36956 0 23.57035 -18.55906 0.27103
15.84959 -0.20039 15.00928 0 -1.48137 -29.96340 0.94515
-4.36086 -0.06750 2.31478 0 29.93028 2.04404 0.51750
10.06112 -0.02460 5.88164 0 -26.09134 14.80682 0.58181
19.24135 -0.16538 14.20906 0 -26.91159 13.25769 0.73754
2.64970 0.09645 0.99544 0 29.15406 -7.07394 0.35154
-2.78790 -0.24479 2.15809 0 -28.40013 -9.66607 0.72873
4.23716 0.00482 1.08912 0 -2.18758 -29.92014 0.25026
20.53386 -0.20084 8.99929 0 26.50840 14.04653 0.43786
0.71045 0.26284 0.54259 0 22.43430 -19.91739 0.44236
-1.30123 -0.16768 0.32435 0 -28.20058 -10.23362 0.19777
-12.32720 0.19801 3.52217 0 28.33955 9.84224 0.28496
-0.33261 -0.17682 0.46437 0 23.21266 -19.00453 0.44064
0.46464 0.18698 0.78345 0 26.00052 14.96572 0.71051
20.66188 -0.00553 31.30355 0 -21.19086 -21.23552 1.51330
-12.06762 0.05120 2.92278 0 29.17930 -6.96909 0.24157
-14.68486 -0.20647 16.71214 0 23.91229 -18.11636 1.13547
1.48137 0.20708 1.98723 0 14.55291 26.23381 1.11189
0.16372 0.00199 0.20692 0 24.09521 -17.87235 0.20421
15.15011 0.09231 9.92409 0 -23.42553 -18.74152 0.65370
0.59954 -0.13812 2.18677 0 13.92203 26.57399 1.87553
8.57234 0.05086 4.42373 0 -13.20074 -26.93957 0.51266
0.05338 0.08769 0.59124 0 13.98743 -26.53963 0.59040
9.50386 -0.05156 7.90457 0 -28.38652 -9.70595 0.82721
0.78978 0.01516 0.78137 0 25.59374 15.65121 0.61321
2.04616 0.18184 0.68097 0 -5.03800 -29.57395 0.29916
-0.69916 0.15239 1.48293 0 -13.29479 -26.89328 1.21536
0.26499 -0.15496 0.64193 0 -28.60834 -9.03122 0.62052
5.90005 -0.14792 1.81401 0 26.94193 13.19592 0.30329
0.56555 -0.24078 0.48472 0 28.93280 -7.93051 0.42195
-25.90932 0.17844 10.75550 0 -11.69314 27.62735 0.41493
11.84712 0.21059 4.22770 0 -4.22282 -29.70131 0.35573
-19.28351 0.24066 8.58407 0 16.31071 25.17858 0.44466
-0.28990 0.16222 0.63183 0 28.95061 7.86525 0.60685
0.17251 0.10106 1.05513 0 -25.31905 16.09179 1.03977
-0.27678 -0.06846 0.40991 0 26.92104 13.23849 0.39506
-4.72544 -0.13765 2.72094 0 21.25760 21.16871 0.56337
-0.41968 0.02988 0.50238 0 -1.26552 29.97330 0.46673
1.94384 -0.25108 0.88398 0 -26.56932 13.93094 0.40448
-0.84934 0.10310 0.60910 0 27.91511 10.98848 0.46430
-2.28301 -0.03983 2.94096 0 28.20584 10.21912 1.17998
2.72767 -0.16655 0.90786 0 -26.82511 -13.43182 0.31255
-0.51621 -0.16632 0.33247 0 29.98002 1.09459 0.29546
-13.27888 -0.03468 5.25536 0 -23.59184 18.53173 0.39477
-17.91885 0.06565 8.26522 0 24.58302 17.19520 0.46065
-2.95320 0.06778 3.36432 0 3.35210 29.81214 1.07907
-1.81677 0.25207 1.90448 0 26.84925 13.38348 0.91840
-0.23671 0.14704 0.92532 0 11.64245 27.64875 0.90043
15.06741 0.06611 12.57701 0 -10.79287 27.99132 0.83294
4.95973 -0.22293 2.82357 0 13.66577 26.70668 0.55823
-6.47822 0.07176 1.86625 0 29.95243 1.68884 0.28488
-26.82912 -0.06411 4.12846 0 29.98192 -1.04144 0.21350
-1.58651 0.19297 0.90887 0 25.90086 15.13756 0.50775
-18.14898 0.16461 10.41753 0 -8.81200 -28.67662 0.57322
2.26120 0.21514 0.47437 0 29.21743 6.80746 0.19192
23.71744 -0.01320 7.58555 0 -29.98155 -1.05208 0.31970
-21.91332 0.02421 13.57163 0 -2.13107 -29.92421 0.61877
0.21245 0.08421 0.46639 0 29.93916 -1.90970 0.45622
-1.19772 -0.07100 1.03585 0 -20.35768 22.03554 0.66392
-1.45151 -0.13303 0.76050 0 4.84895 -29.60553 0.43154
-1.27580 0.22887 0.70428 0 -24.30208 -17.59002 0.43455
0.95209 0.07034 0.40700 0 27.89855 -11.03045 0.29483
15.69909 -0.20145 12.45366 0 29.55774 -5.13225 0.79173
-9.49120 0.02909 4.43018 0 19.35320 22.92278 0.46430
-0.29738 0.24356 0.43275 0 -10.36318 -28.15323 0.43243
0.85753 -0.12373 0.80879 0 14.67294 26.16687 0.61399
-16.16309 0.02691 6.60844 0 2.43377 -29.90112 0.40820
3.19321 0.23157 2.92271 0 19.89116 -22.45756 0.87357
-0.38652 0.18486 0.57632 0 -6.42962 -29.30290 0.53757
0.38873 0.16808 1.03293 0 28.74276 -8.59383 0.96275
4.95057 -0.03786 2.70457 0 29.96910 1.36130 0.53556
-10.00928 0.20583 4.66908 0 -16.90357 24.78445 0.46427
-20.47197 0.03553 18.84025 0 -27.07844 -12.91348 0.91925
-0.18194 0.04107 0.35080 0 27.87100 -11.09988 0.34514
-18.45095 0.19906 9.05641 0 -27.40618 -12.20252 0.49022
-13.58013 -0.24680 5.12525 0 -1.56218 29.95930 0.37652
3.00442 -0.09750 0.55889 0 15.92455 -25.42457 0.17668
-3.82335 -0.11039 4.36858 0 -29.36270 6.15077 0.98525
-17.00222 0.08967 12.46677 0 10.40715 28.13701 0.73205
-6.21488 -0.07885 3.22180 0 -7.83799 28.95800 0.51191
0.00678 0.21060 0.64728 0 -29.08823 -7.33996 0.64726
25.71049 0.04754 6.67801 0 8.00580 28.91206 0.25973
-1.92617 0.00029 1.14907 0 24.12506 17.83203 0.52950
-13.30672 -0.06866 2.71987 0 -21.99602 -20.40037 0.20406
0.96727 0.05660 1.61577 0 -6.18763 -29.35495 1.16139
0.90205 0.01981 0.75941 0 29.37436 -6.09483 0.56394
-0.61445 0.23323 0.63892 0 1.51373 29.96179 0.54440
-8.83799 0.23064 4.84938 0 28.68450 -8.78631 0.54531
15.48408 -0.22458 10.54883 0 2.75138 -29.87357 0.67992
-10.14807 -0.17215 7.84625 0 2.03206 29.93110 0.76951
26.28833 -0.07413 10.35210 0 -24.65843 -17.08689 0.39363
-22.56249 0.22567 9.42855 0 -26.70135 13.67618 0.41759
-16.08574 -0.01917 19.34646 0 23.05912 -19.19055 1.20043
-1.15316 -0.20296 0.71187 0 -27.82730 11.20898 0.46647
-18.70696 0.21117 15.02435 0 -11.10766 27.86790 0.80206
0.66525 -0.20529 0.86647 0 -12.02879 -27.48287 0.72144
-0.54796 -0.14827 0.44526 0 -29.53443 5.26476 0.39052
0.81167 0.11410 0.73364 0 17.55177 24.32972 0.56964
1.34023 0.17684 0.53963 0 -12.44319 27.29775 0.32279
-25.44602 0.21250 8.31427 0 -0.56271 29.99472 0.32664
-25.05611 -0.01301 24.07141 0 -29.37856 6.07455 0.95999
26.71087 -0.07270 16.55516 0 -18.14877 -23.88770 0.61944
1.25461 -0.20212 0.97964 0 -20.27629 -22.11045 0.61064
-17.47787 -0.24359 9.81791 0 -29.46091 5.66171 0.56090
-18.18679 0.15603 26.94053 0 -21.35058 21.07493 1.47913
0.95956 0.15538 0.61403 0 5.92676 29.40873 0.44309
14.28270 0.00234 5.16981 0 27.21820 12.61623 0.36121
2.82875 0.05243 1.08169 0 26.72114 -13.63747 0.36063
-2.03058 0.15316 1.51464 0 -26.93002 -13.22021 0.66923
-4.65959 0.14111 1.02675 0 -9.12105 28.57983 0.21564
-9.11343 0.23006 5.43398 0 9.61461 -28.41759 0.59279
2.66804 -0.25815 1.26140 0 -29.60266 -4.86649 0.44282
2.86622 0.04220 3.15830 0 4.71413 29.62730 1.04045
1.18129 -0.04301 0.54296 0 -18.88560 -23.30952 0.35088
-20.18341 -0.21788 9.02279 0 -8.76641 -28.69059 0.44660
4.88247 0.08401 1.03105 0 -26.72606 -13.62784 0.20710
22.77135 -0.20743 11.09294 0 -0.38450 29.99754 0.48678
-4.18568 -0.03535 2.52161 0 -0.78547 29.98972 0.61084
11.84494 0.07203 2.07593 0 -11.40023 27.74950 0.27005
6.04781 -0.20258 7.81827 0 -24.54828 17.24476 1.27548
-3.23689 0.09319 1.88914 0 5.96003 -29.40201 0.55782
-5.15861 0.01414 1.25359 0 -25.55717 -15.71085 0.23874
-1.92884 0.10018 0.60823 0 21.94326 20.45710 0.28007
0.63599 -0.17739 0.91135 0 27.28309 -12.47530 0.76902
-0.38468 0.19398 0.23835 0 -2.54141 -29.89216 0.22248
0.02780 0.19027 0.22100 0 24.97076 -16.62712 0.22092
12.43788 0.07785 3.99096 0 2.34418 29.90827 0.31999
0.99524 0.18398 1.48820 0 4.49150 -29.66187 1.05485
0.52086 0.15300 0.97483 0 19.53711 -22.76623 0.86460
22.27037 -0.25676 11.04970 0 3.25780 -29.82259 0.49576
6.39162 0.01144 6.49452 0 -6.93254 -29.18801 1.00393
-1.19949 0.19608 0.97992 0 25.66566 15.53300 0.62754
-3.98246 -0.18425 4.07720 0 29.72789 -4.03142 0.99302
2.86732 -0.03523 0.60060 0 0.11246 29.99979 0.19794
-1.20896 -0.13423 0.36429 0 -21.25986 21.16644 0.23228
5.57751 -0.01952 2.34706 0 -11.26762 -27.80361 0.41432
-23.89331 0.03792 23.18414 0 10.73398 28.01396 0.96952
-21.36967 0.21173 7.79546 0 27.89651 -11.03560 0.36453
-5.45506 0.22158 2.52333 0 28.70438 -8.72115 0.45505
-1.24395 0.21767 0.68077 0 -22.42632 -19.92637 0.42660
8.75067 0.13730 5.09949 0 4.46505 29.66586 0.57907
-4.07729 -0.13314 1.20932 0 27.89597 11.03698 0.28818
-8.80621 -0.24648 2.66446 0 -28.09662 -10.51571 0.30079
-7.53057 -0.12891 1.72574 0 -6.18381 29.35576 0.22738
0.32080 -0.22098 0.76846 0 29.99934 0.19923 0.73173
-9.88182 -0.11293 5.04406 0 27.59833 -11.76147 0.50794
0.41630 0.19283 0.48510 0 29.99863 0.28647 0.44786
22.73170 -0.13028 4.94477 0 -14.11342 -26.47284 0.21754
3.99548 -0.05039 0.97433 0 -9.21508 28.54965 0.23674
1.79919 -0.23215 0.94469 0 17.49660 24.36942 0.45903
11.11339 -0.23232 2.28076 0 -28.15956 10.34596 0.20464
3.36081 0.15415 1.71366 0 -29.99772 -0.36954 0.48890
-24.34693 0.05435 21.88544 0 -25.05357 -16.50208 0.89820
6.08687 -0.12066 3.45705 0 -21.32738 -21.09841 0.56052
-1.78322 -0.20290 1.12659 0 25.23313 16.22619 0.55113
2.93056 0.06444 4.13892 0 -9.04666 28.60346 1.33670
3.66856 -0.07325 2.07287 0 10.49134 -28.10573 0.54525
-1.72567 -0.06115 0.53721 0 -14.36011 26.33984 0.26948
1.48630 -0.23718 0.46448 0 -29.48964 -5.51009 0.25942
-0.76916 -0.01423 0.96066 0 23.39493 -18.77970 0.76150
4.39269 0.17785 1.17600 0 -5.11892 29.56005 0.26123
3.19836 -0.10034 2.58677 0 20.72870 21.68688 0.77203
7.11610 0.26396 1.92599 0 29.77035 3.70489 0.29520
-0.35157 0.06822 0.50100 0 -28.78487 8.45171 0.47265
-2.80523 -0.25315 1.45415 0 13.15836 -26.96030 0.48837
-2.82480 -0.13609 1.61334 0 -3.61980 29.78082 0.53855
-13.69451 0.14338 10.94922 0 -4.44492 29.66888 0.79747
1.02228 -0.11760 0.45432 0 4.94818 -29.58911 0.31778
-0.10696 -0.05793 0.55169 0 28.38255 -9.71757 0.54856
-5.82526 -0.13899 3.28394 0 29.41633 -5.88892 0.55569
-1.19971 0.14360 0.74421 0 29.38145 6.06057 0.47657
-24.35727 0.07905 32.66562 0 2.19188 -29.91982 1.34002
0.10897 -0.11281 0.20166 0 -5.07865 -29.56700 0.20048
3.72282 0.19780 0.99767 0 29.56615 5.08360 0.25891
-8.22532 -0.11536 4.63371 0 20.35838 22.03489 0.55931
1.24031 0.21115 0.37605 0 -24.84428 16.81552 0.23613
9.93887 -0.04362 10.59445 0 12.29826 -27.36335 1.06065
11.31060 -0.11463 18.30054 0 -9.56301 -28.43499 1.61174
-0.12751 0.19110 1.92120 0 22.55706 19.77825 1.90577
-0.48991 0.24873 1.99701 0 23.93916 -18.08084 1.79337
-0.24523 -0.01958 1.33674 0 28.04284 10.65828 1.29828
-1.12181 0.14028 0.91230 0 -7.94253 28.92950 0.60711
1.59788 0.00438 1.21254 0 17.61570 -24.28347 0.64333
-4.02236 -0.00273 2.13582 0 5.39910 -29.51016 0.51541
-0.18916 0.04378 0.48533 0 -11.69608 -27.62611 0.47688
3.33985 -0.16098 3.46424 0 -19.31046 -22.95879 0.99372
16.25329 -0.12375 12.14213 0 -25.85785 15.21090 0.74571
-2.23913 -0.22859 1.05682 0 -29.97592 -1.20171 0.43102
0.74939 -0.01985 1.59390 0 -11.46703 27.72196 1.27335
-0.32317 0.05352 0.27242 0 29.08770 -7.34205 0.25923
-8.58058 -0.02017 3.12025 0 24.66587 -17.07615 0.36133
0.97037 0.16869 0.63276 0 1.07891 29.98059 0.45415
3.13126 -0.18749 1.09061 0 19.49296 22.80405 0.33194
-5.39598 -0.09235 2.79152 0 10.04861 28.26704 0.50874
-0.37369 -0.21899 0.83007 0 -2.40965 -29.90307 0.77756
-3.91823 -0.15120 3.82002 0 -2.43957 -29.90064 0.94470
1.57895 0.13097 0.68622 0 -19.18830 -23.06099 0.36725
-0.34393 0.16732 0.72112 0 29.98665 -0.89484 0.68192
-0.00156 -0.06971 0.76613 0 -27.76687 11.35786 0.76613
-5.74678 -0.22743 3.53398 0 24.27016 17.63404 0.60589
-0.81254 -0.25984 0.99806 0 4.15085 29.71145 0.77461
-0.84180 0.13991 1.29684 0 -23.90047 -18.13194 0.99215
1.73215 0.12340 0.76291 0 -17.60053 -24.29447 0.38156
-2.54458 -0.10096 0.74148 0 -7.41759 -29.06853 0.27143
-17.14273 -0.22246 16.61110 0 -29.14977 -7.09161 0.96739
13.29885 0.13492 8.33884 0 14.45181 -26.28964 0.62535
18.32010 -0.18973 21.39367 0 -9.48867 28.45989 1.16608
2.18976 0.08481 2.45196 0 21.92778 20.47371 1.01860
19.33414 -0.16922 18.16310 0 19.92375 22.42865 0.93823
-3.34470 0.19936 1.56528 0 4.03776 -29.72703 0.44854
-5.39647 -0.06426 3.25568 0 -22.15827 20.22402 0.59333
-10.49604 0.09575 12.70944 0 -27.14135 -12.78074 1.20546
0.72304 0.24973 0.44733 0 -12.98557 -27.04395 0.36256
0.19266 -0.05314 0.73708 0 -1.38682 29.96793 0.72377
-16.91696 0.12680 11.23684 0 -26.95328 13.17272 0.72666
3.40488 0.01354 3.22787 0 -9.22329 28.54700 0.90972
-14.47222 -0.00594 3.43705 0 23.94907 18.06770 0.23713
-15.62560 0.02239 8.19061 0 -26.19074 -14.63027 0.52320
-5.91851 0.00365 1.74523 0 28.97772 7.76476 0.29096
18.05895 0.24553 6.37790 0 25.29366 16.13166 0.35277
-0.23019 -0.04177 0.32626 0 -8.99323 28.62030 0.31795
-3.29983 0.06456 0.76465 0 29.78337 3.59871 0.22194
1.43028 -0.00736 1.23805 0 10.26863 28.18786 0.70947
-7.63126 0.07343 6.78265 0 -13.48017 26.80084 0.88132
0.66837 0.14787 0.55341 0 28.75097 -8.56632 0.46014
-0.22780 -0.00829 0.38250 0 16.73547 -24.89827 0.37295
0.23502 0.26164 0.84990 0 28.86550 -8.17209 0.82736
6.36175 -0.08248 5.26361 0 23.58416 18.54151 0.81741
3.30072 0.14372 2.26018 0 15.96748 -25.39763 0.65546
8.11259 0.20127 1.92949 0 -9.05234 -28.60166 0.23626
14.32517 0.14019 6.06401 0 -28.50589 -9.34956 0.42240
23.24589 -0.18779 19.44328 0 24.04163 -17.94435 0.83570
13.72027 0.05224 5.44483 0 -20.07862 -22.29011 0.39592
-2.55893 0.02765 2.97695 0 0.43536 -29.99684 1.08363
-0.86256 -0.13913 0.69070 0 -12.33472 -27.34693 0.52307
-0.65409 0.16025 1.31865 0 -28.94889 7.87157 1.10356
0.11705 0.19656 0.58866 0 -5.06596 29.56917 0.58467
-3.90421 0.01283 1.80890 0 -17.22817 -24.55993 0.44890
-1.95385 -0.12279 4.27421 0 23.29878 18.89885 1.94737
-0.55189 -0.03687 1.87992 0 8.99370 28.62016 1.64591
0.37515 -0.06658 0.43618 0 -2.53108 29.89304 0.40840
-14.35304 0.17221 3.65193 0 29.88853 2.58380 0.25401
-5.25046 0.23461 1.79674 0 28.17052 -10.31611 0.33638
-2.63209 0.04107 0.67245 0 20.55559 21.85104 0.23896
15.02880 0.09215 23.43629 0 -6.73675 29.23382 1.55602
2.32960 -0.11264 2.62240 0 -0.48443 -29.99609 1.03444
-15.76024 0.03472 3.32424 0 -15.39896 -25.74630 0.21073
0.60527 -0.09340 0.62605 0 -24.41019 17.43968 0.53561
-19.74953 -0.07392 8.58055 0 -5.55968 29.48033 0.43403
-23.85397 -0.15193 14.38308 0 29.96922 1.35861 0.60252
23.23015 0.02545 13.29943 0 15.24993 -25.83485 0.57206
0.44727 0.02311 0.66898 0 -5.91765 -29.41057 0.61069
-7.55106 0.16105 11.57461 0 -29.93459 -1.98005 1.51961
-1.03594 0.24021 1.39889 0 -29.75520 3.82467 0.97158
0.23094 -0.06167 1.81649 0 -24.56731 17.21765 1.76991
-12.26663 0.15102 5.05241 0 11.41807 -27.74216 0.41064
2.94773 -0.09448 1.69215 0 29.54725 -5.19231 0.54371
1.40593 0.22751 1.18411 0 23.50651 -18.63984 0.68637
0.66770 -0.11637 0.37784 0 -29.98650 0.89988 0.31427
0.70295 -0.12155 0.46395 0 8.72396 -28.70353 0.37962
-2.18324 -0.18103 1.13464 0 -19.55682 -22.74931 0.47258
-1.53619 0.09143 0.89106 0 29.97355 -1.25949 0.48617
3.17231 -0.16515 0.93607 0 8.84210 -28.66736 0.28151
0.96301 -0.16245 0.78095 0 29.83430 3.14872 0.56256
6.92603 0.17568 7.04473 0 -28.54390 9.23286 1.00675
-4.82015 0.06761 1.21242 0 26.05142 -14.87694 0.24644
-3.63580 -0.20415 2.16265 0 -4.33852 -29.68463 0.57360
1.56531 0.05810 0.54059 0 -26.23546 14.54994 0.29113
-0.01851 -0.23199 0.31578 0 23.30559 -18.89046 0.31572
-2.48132 0.14739 1.12808 0 -16.78049 24.86795 0.42178
-11.90598 0.09045 14.05909 0 -23.73641 18.34620 1.17674
0.79716 0.03372 0.80240 0 -28.94765 -7.87614 0.62746
-7.64777 0.16492 2.31941 0 4.40476 29.67487 0.30088
0.25844 0.17230 0.47197 0 -18.49214 -23.62288 0.45696
1.61656 -0.08084 0.78702 0 -24.57412 -17.20792 0.41413
-0.93658 -0.22590 1.12245 0 26.03282 -14.90947 0.81928
-0.04101 0.03238 1.16271 0 24.99144 16.59602 1.16174
-1.44517 -0.13048 0.68435 0 -14.55843 -26.23075 0.38950
-5.20955 -0.21506 3.41777 0 17.86170 -24.10311 0.64436
-15.34111 0.03593 7.55952 0 -20.81442 21.60463 0.49830
0.15188 -0.04737 0.31786 0 17.49488 -24.37066 0.31426
6.71953 0.19650 8.59801 0 25.49793 -15.80681 1.26566
17.18438 0.06029 41.30767 0 21.63700 -20.78077 2.39975
0.74427 -0.14908 0.43052 0 -29.93065 -2.03859 0.34541
-0.49587 -0.12443 0.43492 0 18.60493 -23.53416 0.38967
1.11847 -0.24010 1.36005 0 21.92705 -20.47449 0.90654
6.39613 -0.05769 1.57593 0 -7.08944 -29.15030 0.24363
2.10735 -0.05911 0.57254 0 -28.57415 9.13881 0.24564
2.97258 -0.25812 3.80254 0 -0.78784 29.98965 1.21249
0.89708 -0.07093 0.65955 0 28.98894 -7.72278 0.49100
0.88054 -0.15451 0.33245 0 3.60780 29.78227 0.24963
11.62303 0.01031 3.29316 0 -27.95498 -10.88664 0.28246
-0.22946 -0.22823 0.72908 0 8.58364 28.74580 0.71062
1.75133 -0.24161 2.52035 0 -22.14302 -20.24072 1.24975
-5.27974 0.13924 1.65480 0 -25.90610 15.12858 0.30808
-0.36306 -0.17184 0.47866 0 24.90144 16.73076 0.44994
15.96850 -0.03718 5.47403 0 28.75413 8.55569 0.41282
-13.99406 0.17439 9.17023 0 -1.25924 29.97356 0.65370
0.87602 0.11198 0.47204 0 -2.30620 -29.91123 0.35513
-12.07377 -0.20512 6.15830 0 20.33589 -22.05565 0.50841
9.35235 0.04945 11.82471 0 -22.60365 -19.72498 1.25723
-13.99923 0.01270 3.33809 0 29.22064 6.79369 0.23805
-0.59856 0.08356 0.32032 0 -15.75449 25.53030 0.27489
-0.72001 -0.02119 0.30839 0 -7.72214 -28.98911 0.25032
-0.46276 0.13151 1.02258 0 22.38391 -19.97400 0.92804
1.25778 0.24452 1.13155 0 -16.99556 -24.72147 0.70424
3.88925 0.01730 2.30015 0 25.92081 15.10337 0.57283
0.76047 0.01962 0.81772 0 2.65158 -29.88259 0.65091
-6.10438 0.23051 5.90815 0 -29.79008 -3.54274 0.95517
-16.39681 0.15054 6.56398 0 13.32502 26.87831 0.39970
1.53409 -0.19466 1.51660 0 -14.93571 26.01777 0.82822
-0.25645 -0.20382 0.54414 0 6.51762 29.28345 0.52709
0.77274 -0.19849 0.53331 0 16.33312 25.16405 0.42205
-2.46517 0.25393 1.28772 0 -25.22160 16.24410 0.48413
-21.50550 -0.23082 17.11792 0 -27.58929 -11.78265 0.79518
-1.60567 -0.22006 1.67153 0 20.01788 22.34468 0.88370
0.47234 0.11651 0.41407 0 21.99165 -20.40508 0.37443
10.39364 -0.01252 7.66319 0 -10.60568 -28.06278 0.73397
1.67197 0.01710 1.46018 0 -29.56091 -5.11398 0.74956
-16.51291 0.03311 12.68630 0 29.86247 2.86927 0.76692
0.96032 0.18118 0.77906 0 -17.77179 -24.16947 0.56195
1.17954 -0.21012 1.04540 0 26.27551 14.47749 0.67608
0.90002 0.24017 0.49237 0 -28.77399 8.48866 0.32931
-1.02966 0.10728 0.84945 0 4.42559 29.67177 0.59185
-6.44389 0.15646 1.98214 0 29.84202 3.07466 0.30412
-9.20352 0.15553 4.55996 0 29.99501 -0.54688 0.49266
-4.15534 0.13295 5.83783 0 10.90673 27.94715 1.36597
-3.36544 0.16291 1.49986 0 -27.28191 12.47789 0.42735
-1.23557 0.23958 0.44232 0 -6.98465 -29.17558 0.27836
0.33952 0.08009 0.44078 0 -29.57885 -5.00913 0.41739
-0.91816 0.07130 0.90972 0 17.04288 24.68887 0.67014
1.55489 -0.13457 0.78936 0 -15.46843 25.70462 0.42711
0.17343 0.22853 0.69526 0 -17.83574 24.12232 0.68504
1.55871 0.01632 1.51016 0 2.85985 29.86338 0.81549
6.00375 -0.06159 6.31128 0 0.90299 29.98641 1.03697
23.22257 -0.18246 5.46566 0 -29.64848 4.57907 0.23535
25.11706 -0.06973 9.55743 0 28.02270 -10.71113 0.38034
-4.88661 -0.02321 1.20290 0 16.18366 25.26043 0.24133
-6.49537 -0.04257 2.80767 0 29.43459 -5.79699 0.42733
1.16293 0.10538 0.99979 0 -25.96547 -15.02646 0.65190
-2.38107 -0.19257 1.12864 0 -15.20169 -25.86327 0.43714
-4.66942 0.15944 3.26342 0 3.12499 -29.83680 0.68345
-14.64967 0.14493 8.42862 0 -9.21789 -28.54874 0.57410
0.56121 -0.15294 1.05929 0 -20.91180 21.51038 0.92377
6.23781 0.15726 2.91707 0 -29.66101 4.49714 0.46185
5.06215 0.18627 2.72867 0 5.27832 29.53201 0.52891
1.26295 -0.12225 0.36360 0 16.80457 24.85169 0.22038
2.54996 0.04915 0.75054 0 -29.89310 -2.53039 0.27798
1.91087 -0.17686 1.32508 0 -17.83315 -24.12424 0.63257
0.59442 -0.07090 0.96558 0 -28.38056 9.72336 0.83003
-4.71174 0.14688 2.17019 0 -11.37029 -27.76178 0.45059
-0.13160 0.13263 0.63650 0 -23.95853 -18.05516 0.63106
5.61177 -0.22447 2.64967 0 -25.41817 -15.93476 0.46496
4.34950 0.00540 0.93115 0 27.29794 -12.44276 0.20885
-5.25004 0.12273 2.90826 0 -20.33346 22.05789 0.54425
0.47861 -0.00723 0.87705 0 29.88832 2.58615 0.79112
20.24848 -0.07994 9.49966 0 -26.89831 13.28461 0.46869
4.52501 -0.08824 2.17171 0 3.65046 -29.77707 0.46886
0.76855 -0.20625 0.31012 0 -23.40850 18.76279 0.24594
-3.94988 -0.20293 1.38578 0 -25.65291 15.55404 0.34023
2.13520 -0.05551 0.38646 0 29.59259 -4.92732 0.16398
-0.17429 -0.22981 1.00695 0 22.35432 20.00711 0.99200
1.23163 -0.12786 0.55369 0 6.33533 -29.32343 0.34907
-9.34495 0.09896 6.35049 0 29.15421 -7.07335 0.67578
8.71111 -0.24553 2.54030 0 6.85080 29.20730 0.28988
16.45538 0.21014 3.66065 0 -26.88219 13.31719 0.22227
-1.32683 -0.01494 0.80412 0 -20.37232 22.02200 0.48405
17.16191 0.13977 4.53320 0 23.75848 -18.31761 0.26388
-4.13346 -0.02939 0.86491 0 6.40435 -29.30844 0.20347
12.80792 -0.17567 5.41226 0 29.97050 -1.33002 0.42140
-4.28246 0.09505 3.04991 0 20.07520 22.29319 0.69363
-9.27824 0.08418 1.96662 0 22.21611 20.16047 0.21097
-13.64413 0.02498 6.56401 0 -20.80147 21.61710 0.47990
11.85485 -0.18162 2.72406 0 22.74881 -19.55740 0.22918
11.95133 0.20696 6.50957 0 -17.41647 24.42676 0.54287
-0.11206 0.16782 0.49978 0 -1.69373 -29.95215 0.49667
2.90478 0.21219 0.77348 0 -28.05091 10.63702 0.25187
-4.90975 -0.07671 1.38103 0 10.85297 -27.96807 0.27575
-3.60879 0.03584 1.85218 0 -28.30245 -9.94842 0.49465
-8.92105 0.13132 3.10467 0 -10.28714 -28.18110 0.35278
7.40987 0.11091 3.27846 0 17.55101 -24.33027 0.43858
-4.44384 -0.11175 3.43143 0 24.09717 17.86970 0.75338
-2.64819 0.16790 1.16285 0 12.52262 27.26140 0.41092
0.36684 0.01221 0.39394 0 -23.73811 18.34400 0.36985
-1.53832 0.16008 0.66310 0 18.80597 -23.37382 0.36149
-6.57762 0.18427 4.35842 0 -7.58436 29.02546 0.65516
-0.87241 -0.16864 0.71192 0 6.67826 -29.24724 0.53651
0.77484 0.02404 0.58365 0 -26.93348 -13.21317 0.46140
-26.53356 0.04320 17.85530 0 27.87750 -11.08356 0.67253
1.19416 0.18745 0.79730 0 14.70393 -26.14946 0.51193
-1.47965 0.13054 1.10005 0 -28.63416 8.94900 0.61604
-4.57598 -0.06526 1.75444 0 28.53105 -9.27250 0.37471
-0.09225 -0.02586 0.44125 0 -14.82458 -26.08125 0.43938
20.35391 -0.11110 9.48885 0 -26.84029 -13.40145 0.46574
-27.04393 0.16200 8.69294 0 16.37331 25.13791 0.32137
-3.14933 0.01652 2.04909 0 23.98561 18.01917 0.62029
10.69483 0.23305 4.39109 0 23.39336 -18.78166 0.40892
7.33652 0.11050 1.91596 0 -1.84821 29.94301 0.25895
0.46580 0.21777 0.50341 0 20.04584 22.31960 0.45635
12.61637 -0.19993 12.52157 0 -0.93572 29.98540 0.98943
-14.17666 0.22363 3.33926 0 -12.68995 27.18391 0.23517
-1.81809 0.17652 0.57601 0 -20.68333 21.73016 0.27776
2.19295 -0.08185 2.13028 0 7.97473 -28.92064 0.88396
24.61911 -0.21340 17.20882 0 -26.25757 14.51000 0.69850
5.59753 0.06244 4.74211 0 -9.91056 -28.31573 0.83401
-2.33350 -0.09756 1.17743 0 -25.03816 16.52546 0.46387
-2.27584 -0.12039 0.43644 0 23.67673 18.42314 0.17570
-5.19771 -0.15290 2.92939 0 5.07963 -29.56683 0.55355
-24.77402 -0.11652 5.26172 0 6.14884 29.36310 0.21245
15.71326 0.11036 4.04998 0 27.19892 12.65776 0.25741
-0.17744 -0.01570 0.84588 0 24.46757 17.35909 0.83287
27.01604 0.17025 20.43787 0 -2.46400 -29.89864 0.75606
-0.75285 0.04192 0.35748 0 -28.71296 8.69287 0.28566
18.42919 -0.13325 7.65885 0 -14.96594 26.00040 0.41509
-16.82029 -0.16560 5.57079 0 29.96142 -1.52088 0.33076
10.53978 0.21533 7.90562 0 -10.97067 -27.92211 0.74679
27.03660 -0.01990 14.21218 0 -5.89427 -29.41526 0.52540
13.45708 -0.17602 4.94006 0 29.47890 -5.56724 0.36622
-1.48374 -0.00375 1.10152 0 -29.44215 5.75846 0.61621
0.45354 -0.11884 0.91845 0 -24.12621 -17.83047 0.83645
23.31788 0.05938 14.26399 0 7.38913 -29.07578 0.61124
5.36481 0.02277 3.66190 0 -8.25277 28.84253 0.67111
4.55726 0.14704 3.60562 0 28.94651 -7.88033 0.77290
-26.51072 -0.21544 6.10040 0 -29.89296 -2.53200 0.23016
0.99542 -0.17870 0.63577 0 -19.72166 22.60655 0.45065
-0.59800 0.25146 0.90953 0 22.85958 -19.42780 0.78063
-0.26562 0.00033 0.44439 0 1.99512 29.93358 0.42950
-26.47637 -0.19969 12.59526 0 -13.37170 26.85512 0.47548
-0.94174 -0.22042 0.77067 0 3.24677 -29.82379 0.56109
2.26510 0.09956 1.86495 0 -28.81893 8.33482 0.75327
0.94187 -0.26052 0.61881 0 -26.82695 -13.42813 0.45051
4.44393 0.14130 6.78992 0 28.45824 9.49359 1.49066
1.05613 -0.07025 0.95913 0 6.81282 -29.21619 0.65949
-3.83706 0.07195 1.37016 0 13.60928 26.73551 0.34560
9.00559 -0.05852 17.05740 0 -10.75193 -28.00707 1.88255
-0.48737 -0.07357 0.60919 0 -13.62398 -26.72802 0.54763
0.06892 -0.25833 0.95141 0 15.29537 -25.80798 0.94916
-1.07819 0.02848 1.00530 0 -24.70092 17.02541 0.68367
-5.60663 -0.14344 1.10596 0 -10.89610 27.95130 0.19437
4.13416 -0.12967 1.16791 0 7.79337 28.97004 0.27466
10.58964 0.17117 4.97659 0 -4.26863 -29.69476 0.46797
-4.99077 -0.14317 2.81618 0 29.65394 4.54358 0.55334
-6.29393 0.14230 2.35152 0 29.94365 -1.83787 0.36912
-1.98621 -0.03414 0.85735 0 19.14340 -23.09827 0.38563
-12.70687 -0.05650 2.94345 0 -29.79685 3.48539 0.23114
0.13222 0.00801 0.41472 0 2.19151 -29.91985 0.41114
12.46284 0.23900 3.49375 0 14.17376 -26.44058 0.27961
19.55149 0.16729 14.04204 0 -24.45299 -17.37963 0.71734
-0.64436 0.15089 0.64898 0 -27.53436 11.91047 0.54557
8.88984 -0.24299 2.97690 0 -21.16898 -21.25734 0.33291
-8.71821 0.12325 2.94463 0 5.86999 29.42012 0.33570
-27.25208 0.02281 18.51660 0 3.12651 29.83664 0.67907
1.76632 -0.02122 0.62305 0 27.10965 -12.84785 0.30706
12.81455 -0.11535 7.93266 0 -20.29729 -22.09117 0.61724
8.63074 -0.09787 2.42582 0 -20.92338 -21.49912 0.27937
1.99106 -0.15084 1.04088 0 -0.34358 29.99803 0.46724
2.82694 -0.10438 2.28568 0 26.87986 -13.32190 0.76233
4.71696 -0.13075 4.69005 0 26.57993 -13.91069 0.97271
7.09397 -0.25098 2.18907 0 26.84187 13.39828 0.30572
-1.32879 0.03144 0.81074 0 -23.37891 -18.79964 0.48756
-0.68061 -0.24499 1.17446 0 29.62348 -4.73810 0.97094
-2.20326 0.09604 2.22933 0 -23.21893 18.99688 0.92143
-7.94566 0.08344 6.35253 0 -0.43251 -29.99688 0.79330
-1.22405 -0.04423 1.34095 0 21.72473 -20.68903 0.84842
3.92220 0.05011 2.09518 0 -23.38236 -18.79535 0.51783
-1.80015 0.12154 0.66184 0 -18.77192 23.40118 0.32150
2.57937 0.25300 1.64928 0 -12.67361 27.19153 0.59622
0.02769 0.02202 1.39299 0 -9.16879 28.56455 1.39246
-1.53304 -0.21272 1.10488 0 25.64882 -15.56078 0.60368
-0.00206 0.04823 0.49037 0 24.15325 17.79383 0.49036
-3.06001 0.21523 0.76711 0 29.67854 4.38002 0.23850
16.62831 0.12752 11.14540 0 -24.96315 -16.63855 0.66913
-3.91815 -0.06962 1.41704 0 -28.65712 -8.87522 0.35050
0.83159 0.13673 2.33674 0 -26.74604 -13.58857 1.79668
-1.48796 -0.08938 0.73252 0 -10.42586 -28.13008 0.40866
-1.61421 0.16013 2.03005 0 0.51459 -29.99559 1.06912
-2.49483 -0.01155 5.91890 0 22.77676 -19.52484 2.20220
-23.29533 -0.24703 36.10757 0 -29.44681 5.73459 1.54860
-0.98558 -0.14921 0.76254 0 20.28008 22.10698 0.54313
5.10990 -0.11519 5.22193 0 -29.73679 -3.96524 1.00293
-1.31426 0.20362 1.71575 0 -16.04295 -25.35002 1.03898
-9.32616 -0.07333 4.39481 0 21.73605 20.67714 0.46865
-6.90966 0.20545 3.40155 0 -23.59715 -18.52497 0.48731
-1.27927 -0.21264 1.66237 0 -24.37478 -17.48914 1.02383
0.62362 0.04502 0.27154 0 -20.54689 21.85922 0.23047
0.87369 0.06195 0.72794 0 15.40660 25.74173 0.54823
1.58863 -0.00215 3.12938 0 21.04287 21.38218 1.66709
1.48265 0.22652 2.42273 0 15.92778 25.42255 1.35474
0.58101 -0.10939 0.68233 0 29.98820 0.84133 0.59000
0.43723 -0.21557 2.12722 0 29.97773 -1.15562 1.94906
-10.09632 0.15497 2.38243 0 29.26026 -6.62096 0.23503
-8.62786 0.19011 5.42749 0 -9.30398 -28.52080 0.62496
-5.02404 0.16757 3.32899 0 -1.78907 29.94661 0.64991
0.98075 -0.07311 1.86770 0 8.68618 28.71498 1.29813
0.58291 0.18847 0.63353 0 11.98214 27.50324 0.57031
2.30741 -0.01689 6.48122 0 21.62380 -20.79450 2.57728
-0.32168 0.15521 0.78759 0 29.98780 -0.85536 0.74976
-1.73611 -0.08584 1.26752 0 8.40588 -28.79828 0.63273
-3.19783 -0.06631 1.18056 0 9.57183 28.43203 0.35245
-1.36448 -0.12247 2.12340 0 28.85085 8.22364 1.25523
-2.09212 -0.11339 0.89428 0 24.17922 17.75853 0.38575
-7.31928 0.11969 6.89724 0 -27.73984 -11.42372 0.93372
-3.75969 0.16398 9.43644 0 -27.01483 13.04603 2.42558
-5.15826 -0.04523 3.28106 0 -28.71288 8.69313 0.62452
-4.81522 0.03404 2.55747 0 9.74045 28.37470 0.51986
-0.41897 0.25239 0.29383 0 -6.69990 29.24229 0.27103
0.49290 0.01546 0.51661 0 20.48972 -21.91282 0.46340
2.33746 0.08566 0.67021 0 19.69481 22.62995 0.26378
-17.45649 0.20840 7.32143 0 1.95056 -29.93652 0.41884
-1.63213 0.01722 0.93188 0 -29.37651 6.08447 0.48690
-5.86358 -0.10910 4.51134 0 21.35879 21.06661 0.75855
0.97963 0.21807 0.69646 0 -1.46943 -29.96399 0.49757
2.29136 0.19263 0.51942 0 5.82372 -29.42931 0.20784
8.16023 0.00784 5.17940 0 0.96349 29.98452 0.63008
-0.61128 0.04940 0.31141 0 25.12980 16.38577 0.27579
1.87109 -0.23443 1.32790 0 -21.10192 21.32391 0.62598
9.77026 0.22291 5.61680 0 2.69899 29.87834 0.57198
-4.27856 0.11431 2.54110 0 -29.06216 -7.44250 0.57836
-6.04371 -0.26337 2.05162 0 28.48809 -9.40365 0.33500
4.36802 0.01022 1.63950 0 -29.61763 -4.77451 0.36602
9.50941 0.04957 2.80022 0 27.77731 11.33231 0.29302
2.68610 0.08099 1.43908 0 -26.70051 -13.67782 0.50216
0.38614 -0.20305 0.65417 0 -23.18341 19.04021 0.61027
-3.28605 0.04355 1.21512 0 1.06134 29.98122 0.35397
22.54438 0.18573 9.09523 0 21.23780 -21.18858 0.40316
6.01187 -0.22550 2.50148 0 -24.36160 17.50750 0.41053
-0.60550 0.09210 0.28626 0 29.94138 -1.87455 0.24492
-0.24454 -0.23027 0.78732 0 -29.58018 -5.00131 0.76478
-6.94223 0.22280 2.73069 0 22.81411 -19.48118 0.38945
1.37569 -0.23939 1.11044 0 -28.92685 7.95218 0.65298
1.86426 -0.22269 0.45667 0 10.99968 27.91070 0.21607
-1.89795 0.00851 2.15488 0 16.80574 24.85090 1.00451
-20.38142 0.07457 25.77888 0 -5.40807 -29.50852 1.26334
1.36084 -0.22226 1.20219 0 -9.27105 28.53152 0.71193
3.44108 0.14319 1.85365 0 24.80955 16.86671 0.51733
-22.24404 -0.02219 5.56942 0 26.70242 -13.67410 0.25032
3.05304 0.18440 3.48812 0 -28.60463 -9.04296 1.08584
1.08308 0.19813 1.68381 0 1.03633 -29.98210 1.14226
3.42496 -0.03762 2.08823 0 22.63808 19.68546 0.58541
3.41335 0.08619 2.41005 0 27.29222 12.45531 0.67764
-0.95439 -0.09689 2.07886 0 1.28506 29.97246 1.50389
13.37682 0.22704 7.24089 0 -13.88707 26.59228 0.53988
-11.92452 -0.26159 4.47432 0 -29.34315 -6.24335 0.37404
6.51413 0.01257 3.61083 0 -24.83954 16.82252 0.54798
-13.50311 -0.00391 14.53454 0 -10.97312 27.92115 1.07349
8.48572 0.18018 2.18624 0 4.07941 29.72135 0.25605
-0.13726 -0.15809 0.77461 0 27.27207 12.49937 0.76742
-11.72929 0.22743 8.51429 0 14.61515 -26.19919 0.72334
-10.30749 0.13466 8.06924 0 -8.19579 28.85878 0.77926
2.99764 -0.05274 2.46653 0 -12.14980 -27.42959 0.78059
-0.52520 0.05346 1.42100 0 -10.22104 28.20515 1.25806
-12.12617 -0.01898 5.47512 0 -29.54934 -5.18039 0.45009
4.12777 -0.00688 0.96858 0 -2.06666 -29.92873 0.22816
-2.51430 -0.13815 1.13224 0 28.68325 -8.79039 0.41862
15.41596 -0.25940 7.16634 0 16.51950 25.04209 0.46399
13.62993 0.15902 3.62123 0 -17.82295 -24.13177 0.26515
-0.46387 -0.13838 0.54820 0 12.47469 27.28337 0.49732
4.59064 0.14726 2.80321 0 10.69983 -28.02702 0.59672
2.43475 -0.17444 1.13565 0 22.04213 -20.35054 0.43155
1.89305 -0.01761 0.88429 0 -10.99010 27.91447 0.41310
1.13193 0.08944 0.73566 0 -5.83418 29.42724 0.48710
-8.32707 0.22488 2.57840 0 -12.86524 27.10139 0.30759
-3.32976 -0.09135 1.08496 0 6.72312 29.23696 0.31215
1.37188 -0.24042 1.21031 0 22.43583 -19.91566 0.71299
3.95962 0.13771 2.66812 0 1.05429 -29.98147 0.65338
0.41815 0.21589 0.70229 0 24.30193 -17.59023 0.64794
-1.70806 -0.15336 0.78803 0 -9.62696 28.41341 0.39825
2.75312 0.13697 1.90317 0 14.25560 26.39655 0.64980
-0.37058 0.00551 0.63635 0 0.18465 -29.99943 0.59447
-7.33183 0.23092 1.47519 0 19.50185 22.79644 0.23745
8.37000 -0.19856 2.80648 0 27.74487 11.41150 0.33308
0.09647 -0.21533 0.29900 0 21.12420 21.30183 0.29762
-5.51158 -0.12120 1.94863 0 -13.42981 -26.82611 0.34799
-3.66929 -0.25545 1.36628 0 -28.27093 -10.03766 0.35941
4.18890 0.09990 2.05638 0 -16.79472 -24.85834 0.47763
-0.69133 0.06256 0.65127 0 -5.05940 29.57030 0.53574
18.99395 0.20531 3.87302 0 -23.71422 -18.37486 0.20386
0.74174 0.22997 0.50794 0 10.68361 -28.03321 0.40800
-0.54316 0.24304 0.42322 0 29.28788 6.49768 0.37193
-0.39743 -0.09920 0.63008 0 28.77903 -8.47156 0.58554
-2.96425 0.12678 2.08926 0 29.17145 -7.00190 0.66793
-2.33475 -0.17383 0.89808 0 17.49431 24.37107 0.35368
-2.60157 0.18491 0.62720 0 -4.44215 29.66930 0.22521
11.47597 -0.13185 9.34620 0 -7.59579 -29.02247 0.81140
-1.31606 0.16965 1.01021 0 4.68548 -29.63185 0.61123
-0.54130 0.12480 1.22564 0 -26.22828 -14.56287 1.08271
10.56534 0.11518 3.74395 0 -29.31521 6.37326 0.35292
3.53275 0.07134 1.00892 0 -25.53127 -15.75292 0.27494
2.54251 0.22497 1.47857 0 -26.87001 13.34176 0.54128
-6.58342 0.02772 1.61225 0 -26.14652 -14.70917 0.24232
-1.46195 -0.14868 1.16363 0 6.08679 -29.37603 0.65701
-5.34901 0.18794 2.41593 0 6.56092 29.27378 0.44413
3.91019 0.22573 2.75345 0 28.62354 -8.98294 0.68229
-0.17576 -0.08961 0.57617 0 19.65236 -22.66682 0.56748
-19.42418 -0.26277 4.96452 0 19.00766 -23.21010 0.25544
-7.63538 0.09132 5.58986 0 14.61144 -26.20126 0.72597
1.05753 0.24656 0.46829 0 28.35183 9.80683 0.32183
-0.14757 0.17777 0.61886 0 -1.33135 29.97044 0.61223
25.73863 -0.22410 14.93581 0 -23.64735 -18.46084 0.57993
-2.05940 -0.21238 1.00718 0 9.96685 -28.29597 0.44004
-5.11620 -0.13553 3.40671 0 -28.83711 8.27171 0.65360
-16.95175 -0.12520 13.60298 0 25.10187 16.42851 0.80112
4.86395 -0.01702 1.05418 0 22.96889 19.29844 0.21245
0.91584 0.19200 0.46503 0 -7.04039 -29.16218 0.34301
-0.03066 0.15141 0.41618 0 -28.84049 -8.25990 0.41598
-0.01591 -0.18976 0.24104 0 -19.20024 23.05105 0.24101
-2.85913 0.12393 2.62744 0 -29.03519 7.54704 0.86749
10.62656 -0.06009 7.92401 0 -2.92227 29.85733 0.74247
-1.31858 0.09145 1.45665 0 26.83595 13.41015 0.88024
1.04747 -0.11195 0.96162 0 -26.88028 13.32106 0.66406
-0.38632 0.00640 0.67528 0 -23.75907 18.31684 0.62992
-1.62101 0.05814 0.74732 0 27.55652 11.85910 0.39244
0.74742 -0.10209 0.74844 0 28.62533 -8.97722 0.59953
3.43823 -0.03680 2.64064 0 -27.36964 12.28426 0.73755
-5.20507 -0.06456 4.05169 0 25.70524 15.46740 0.76454
-3.57070 -0.02215 0.87919 0 -26.14994 -14.70308 0.23731
-0.95551 -0.01692 0.39783 0 -28.64337 8.91951 0.28771
1.29682 -0.22742 1.03979 0 29.20319 6.86832 0.63500
-7.59908 0.11773 5.28400 0 25.56882 -15.69189 0.68947
-3.91067 -0.00874 1.04890 0 22.86256 19.42429 0.25998
-24.42832 -0.17747 17.55095 0 11.00301 -27.90938 0.71794
-15.16580 0.12449 9.64469 0 -22.04738 20.34485 0.63465
14.70430 0.21749 3.23124 0 27.80195 11.27170 0.21946
-0.92222 0.24771 0.48108 0 25.62643 -15.59763 0.35370
-0.66416 0.21040 0.34418 0 18.48374 -23.62946 0.27911
19.52135 -0.23088 8.45067 0 20.65218 21.75977 0.43244
0.46863 -0.22038 0.32147 0 1.69629 -29.95201 0.29112
-1.45191 -0.21197 0.38325 0 -27.30111 12.43581 0.21756
0.17373 0.23018 0.42645 0 -26.92460 -13.23125 0.41910
3.65073 0.18583 5.00226 0 -28.80507 8.38261 1.32157
15.30447 -0.03032 6.36424 0 23.79461 -18.27065 0.41507
9.27079 -0.12957 3.10505 0 29.94283 -1.85122 0.33314
0.89553 0.01735 0.36926 0 8.26682 -28.83851 0.27517
0.34960 0.01260 0.50537 0 -23.82846 18.22647 0.47707
-0.59504 -0.07679 0.34377 0 12.09338 -27.45451 0.29546
0.56397 -0.04993 0.93200 0 29.99022 0.76595 0.81181
0.60849 0.18002 0.50318 0 11.49385 27.71086 0.42989
4.22959 0.17641 4.14858 0 -22.78416 -19.51620 0.95456
1.89977 -0.11736 1.47509 0 -29.97377 1.25431 0.69360
4.10802 -0.11407 1.83735 0 0.14831 -29.99963 0.43472
-13.06611 -0.00536 10.01259 0 -10.38295 28.14595 0.76413
1.87551 0.00806 1.03993 0 14.13574 -26.46093 0.48935
23.34990 -0.00318 5.44917 0 -12.88847 -27.09036 0.23337
0.22875 -0.15088 0.69542 0 -23.10005 19.14125 0.67791
-10.48926 -0.06149 8.45150 0 -19.68194 -22.64114 0.80215
0.81083 0.10867 0.45378 0 24.43682 -17.40236 0.35254
20.93031 0.19541 13.65976 0 -3.29348 -29.81867 0.65196
0.10552 -0.02735 0.89174 0 26.25478 14.51504 0.88681
-1.86383 -0.25403 0.84185 0 -12.25757 27.38160 0.39811
20.02247 -0.10520 20.79760 0 23.53082 -18.60915 1.03747
-4.37809 -0.16472 2.34968 0 28.13056 10.42456 0.52335
-14.47303 0.14502 12.34589 0 9.50401 28.45477 0.85106
